~o
<STREAMINFO> 1 25
<VECSIZE> 25<NULLD><MFCC_D_N_Z_0><DIAGC>
~s "silst"
<MEAN> 25
 -1.650336e+00 2.921958e-01 -8.533015e-02 2.778432e+00 4.363138e+00 1.582433e+00 1.047987e+00 3.460908e+00 -5.237215e-02 1.058818e+00 -5.613128e-01 -7.255412e-02 5.199060e-01 -2.383216e-02 2.487541e-01 -7.697803e-01 -1.109009e+00 -6.723558e-01 -1.019176e+00 -4.790666e-01 -7.983678e-01 -8.962296e-01 -6.376536e-01 -3.928314e-01 1.435521e+00
<VARIANCE> 25
 3.319876e+01 4.379081e+01 2.821353e+01 3.339688e+01 3.886562e+01 3.702117e+01 3.234575e+01 4.061230e+01 3.351533e+01 2.961661e+01 3.174199e+01 2.552745e+01 3.047025e+00 3.771578e+00 3.137017e+00 3.618327e+00 4.277308e+00 4.697532e+00 3.367248e+00 4.375513e+00 3.224391e+00 3.465150e+00 3.478645e+00 2.657243e+00 4.412995e+00
<GCONST> 1.048104e+02
~h "b"
<BEGINHMM>
<NUMSTATES> 5
<STATE> 2
<MEAN> 25
 -1.344380e+00 8.530484e-03 -7.413822e+00 3.298738e+00 4.641790e+00 6.542515e+00 2.593567e+00 -1.473083e+00 1.650436e+00 3.624985e+00 -6.519301e+00 -3.037300e+00 -1.035213e-02 1.400438e-01 -1.311636e-01 -5.318335e-02 1.955074e-01 1.921165e-01 6.812625e-02 5.782579e-02 8.936866e-02 4.926961e-02 -6.219904e-03 5.850060e-02 -7.518278e-02
<VARIANCE> 25
 2.085702e+01 2.354146e+01 2.603418e+01 1.352059e+01 1.408162e+01 1.810140e+01 2.546705e+01 2.123125e+01 2.704509e+01 2.802486e+01 1.789960e+01 1.581555e+01 4.946865e-01 8.849678e-01 1.148150e+00 1.276839e+00 1.198117e+00 1.754708e+00 1.707455e+00 1.635970e+00 1.954351e+00 1.858845e+00 1.328332e+00 1.311935e+00 3.328798e-01
<GCONST> 8.418934e+01
<STATE> 3
<MEAN> 25
 3.217126e+00 4.175168e+00 -2.360893e+00 4.995109e+00 5.366969e+00 5.966809e+00 2.131271e+00 -2.544278e+00 -4.790789e-01 2.752264e+00 -4.764319e+00 -2.479362e+00 4.316772e-01 -8.075539e-01 1.003711e+00 2.427482e-01 -8.065462e-01 -2.240899e+00 -1.352755e+00 3.954848e-02 -2.712640e-01 -4.578373e-01 9.743692e-01 9.718050e-01 2.608082e+00
<VARIANCE> 25
 2.595705e+01 4.754744e+01 3.348394e+01 4.438140e+01 2.070806e+01 2.685179e+01 2.770752e+01 2.280970e+01 2.763461e+01 3.026551e+01 2.383782e+01 1.662494e+01 3.116834e+00 6.787116e+00 5.848986e+00 4.745002e+00 2.635577e+00 4.682291e+00 2.720667e+00 3.327992e+00 3.684068e+00 3.085141e+00 4.136372e+00 2.313349e+00 3.478264e+00
<GCONST> 1.028770e+02
<STATE> 4
<MEAN> 25
 2.823473e+00 2.200776e-01 6.892889e+00 -2.339588e-01 -4.699319e+00 -3.857089e+00 -1.338952e-01 -3.287110e-01 -1.505827e+00 -2.322314e+00 3.940816e-01 -2.943923e-01 8.702550e-02 -9.815415e-01 6.548463e-01 -1.679332e+00 -2.232979e+00 -1.460418e+00 -9.770830e-02 2.948388e-01 -5.097624e-01 -5.696016e-01 8.397555e-01 2.944447e-01 2.886868e+00
<VARIANCE> 25
 2.095915e+01 3.452863e+01 8.066907e+01 9.393387e+01 6.028220e+01 6.143600e+01 3.796168e+01 2.407055e+01 4.894011e+01 4.563621e+01 2.826514e+01 2.028027e+01 2.870295e+00 5.212133e+00 7.324207e+00 8.232495e+00 3.627850e+00 1.130636e+01 4.132146e+00 3.558895e+00 3.855623e+00 3.782786e+00 3.999828e+00 2.280458e+00 7.382527e+00
<GCONST> 1.106581e+02
<TRANSP> 5
 0.000000e+00 1.000000e+00 0.000000e+00 0.000000e+00 0.000000e+00
 0.000000e+00 8.895478e-01 1.104523e-01 0.000000e+00 0.000000e+00
 0.000000e+00 0.000000e+00 5.058967e-01 4.941032e-01 0.000000e+00
 0.000000e+00 0.000000e+00 0.000000e+00 7.029893e-01 2.970107e-01
 0.000000e+00 0.000000e+00 0.000000e+00 0.000000e+00 0.000000e+00
<ENDHMM>
~h "d"
<BEGINHMM>
<NUMSTATES> 5
<STATE> 2
<MEAN> 25
 1.646651e+00 -1.791817e+00 -7.470387e-01 3.021942e-01 2.052305e+00 3.130646e-01 -2.519363e+00 1.226273e+00 2.110688e-01 2.093686e+00 -4.819188e-01 -1.555294e+00 5.545654e-01 -5.085084e-01 2.038893e-02 -1.190593e+00 -9.387709e-01 -8.874736e-01 -4.369471e-01 -4.921896e-01 -2.627453e-01 4.244687e-01 3.637193e-01 -3.732687e-01 2.158551e+00
<VARIANCE> 25
 3.035725e+01 3.562648e+01 5.569122e+01 6.251210e+01 3.713747e+01 6.526627e+01 4.332682e+01 4.151886e+01 3.303436e+01 2.087636e+01 6.061768e+01 1.808426e+01 2.940773e+00 4.116859e+00 8.108677e+00 4.968244e+00 3.781572e+00 6.755396e+00 5.559672e+00 6.972950e+00 5.097454e+00 2.405711e+00 4.733265e+00 2.182400e+00 7.892552e+00
<GCONST> 1.099074e+02
<STATE> 3
<MEAN> 25
 1.028025e+01 -5.508233e+00 -1.098091e+01 -2.901180e+00 -3.177731e+00 1.866186e+00 -3.037998e+00 2.506927e+00 1.115318e+00 1.535850e+00 1.208225e+01 -3.779978e+00 3.029252e-01 -4.275588e-02 -2.854739e-01 6.404103e-01 4.348831e-01 -2.732739e-01 -3.366008e-01 5.058514e-01 1.474266e-01 -4.523357e-01 -5.537413e-01 4.016101e-01 -3.537337e-01
<VARIANCE> 25
 3.984554e+01 2.970284e+01 4.959952e+01 4.129215e+01 2.475010e+01 4.332526e+01 9.048862e+01 6.954150e+01 3.513068e+01 2.651512e+01 1.246016e+02 4.771007e+01 7.882380e-01 9.672455e-01 2.435669e+00 2.157305e+00 2.433378e+00 2.909883e+00 5.134145e+00 3.385036e+00 2.583131e+00 2.305357e+00 5.448330e+00 4.469860e+00 1.977890e+00
<GCONST> 1.037590e+02
<STATE> 4
<MEAN> 25
 4.282382e+00 -1.219009e-01 -6.907815e+00 2.428283e+00 6.697242e+00 9.371971e-01 -1.680942e+00 1.125185e+00 1.772272e+00 4.268174e+00 -3.522227e+00 -2.619320e+00 -9.526382e-01 2.792087e-01 3.494089e-01 -7.427006e-01 2.238648e-01 8.844837e-02 5.622442e-01 -3.770259e-01 -2.704516e-01 5.733676e-01 -4.053971e-01 -4.528389e-01 -3.219947e-01
<VARIANCE> 25
 3.660396e+01 2.489838e+01 3.113711e+01 5.458450e+01 3.689816e+01 4.886757e+01 5.093462e+01 4.278631e+01 3.426984e+01 4.888375e+01 4.546237e+01 2.885884e+01 3.365071e+00 2.650756e+00 3.337485e+00 3.517902e+00 4.434901e+00 4.316971e+00 4.049562e+00 3.994980e+00 3.625658e+00 4.536708e+00 4.747375e+00 3.317758e+00 4.092043e+00
<GCONST> 1.073403e+02
<TRANSP> 5
 0.000000e+00 1.000000e+00 0.000000e+00 0.000000e+00 0.000000e+00
 0.000000e+00 6.004844e-01 3.995155e-01 0.000000e+00 0.000000e+00
 0.000000e+00 0.000000e+00 7.432246e-01 2.567754e-01 0.000000e+00
 0.000000e+00 0.000000e+00 0.000000e+00 7.492319e-01 2.507681e-01
 0.000000e+00 0.000000e+00 0.000000e+00 0.000000e+00 0.000000e+00
<ENDHMM>
~h "f"
<BEGINHMM>
<NUMSTATES> 5
<STATE> 2
<MEAN> 25
 -2.450795e+00 2.752999e+00 -4.536578e-01 3.083526e+00 2.436836e+00 -3.665165e-01 1.517892e+00 3.217822e+00 -2.099445e+00 3.351804e-01 1.748096e+00 8.370690e-01 -3.208608e-01 -3.719956e-01 -1.634741e-01 -7.021008e-02 3.585960e-01 -1.454958e-01 8.635210e-02 4.755338e-01 3.631742e-01 1.164455e-01 1.308971e-01 -4.603099e-03 1.205989e-01
<VARIANCE> 25
 2.862994e+01 1.304472e+01 1.536117e+01 2.305016e+01 1.754663e+01 2.066618e+01 1.327070e+01 3.951995e+01 3.050901e+01 1.927941e+01 1.367707e+01 1.245328e+01 7.243974e-01 9.072730e-01 7.857847e-01 1.107367e+00 1.810723e+00 1.627177e+00 1.123814e+00 2.067774e+00 1.976995e+00 1.532110e+00 1.069873e+00 1.523791e+00 7.846318e-01
<GCONST> 8.412914e+01
<STATE> 3
<MEAN> 25
 2.463546e+00 -4.769673e+00 -4.265944e+00 -5.850017e+00 -4.106536e+00 -3.205840e+00 6.672972e-01 3.446173e+00 2.117023e+00 -5.634333e-01 -8.274583e-01 -1.776900e+00 3.115623e-02 6.549081e-02 -4.012780e-02 1.791965e-01 3.832021e-01 4.688703e-01 3.491995e-01 8.771525e-02 9.506249e-02 1.660996e-01 1.609977e-01 -1.314915e-01 -3.746592e-01
<VARIANCE> 25
 2.122980e+01 1.121209e+01 1.045072e+01 4.547807e+01 2.303463e+01 2.965187e+01 2.514394e+01 2.579945e+01 2.264061e+01 1.982901e+01 1.496395e+01 1.170839e+01 1.193315e+00 7.813998e-01 1.167561e+00 2.239732e+00 1.403636e+00 1.550123e+00 2.713453e+00 2.707768e+00 2.161386e+00 1.770748e+00 1.640217e+00 1.105132e+00 1.425184e+00
<GCONST> 8.781189e+01
<STATE> 4
<MEAN> 25
 -1.826285e+00 7.507682e-01 -1.800620e+00 3.065120e+00 4.811130e+00 2.826268e+00 3.876926e+00 4.161478e+00 2.030477e+00 2.921104e+00 1.955461e+00 8.396616e-01 -3.509298e-02 -5.092046e-02 -6.624942e-02 -1.503163e-01 -1.023910e-01 2.081636e-02 -2.340288e-02 2.738832e-03 -2.428835e-02 1.318578e-02 -5.860732e-02 -5.959870e-03 2.057986e-01
<VARIANCE> 25
 1.160756e+01 4.032345e+00 6.903170e+00 1.367619e+01 1.139830e+01 1.075132e+01 1.063932e+01 1.394300e+01 1.296889e+01 1.342863e+01 1.208181e+01 8.413385e+00 9.255487e-01 3.678162e-01 6.097085e-01 1.402756e+00 1.100568e+00 1.181747e+00 9.852811e-01 1.690814e+00 1.554551e+00 1.441942e+00 1.128312e+00 9.746779e-01 7.687979e-01
<GCONST> 7.410869e+01
<TRANSP> 5
 0.000000e+00 1.000000e+00 0.000000e+00 0.000000e+00 0.000000e+00
 0.000000e+00 8.155748e-01 1.844252e-01 0.000000e+00 0.000000e+00
 0.000000e+00 0.000000e+00 8.540848e-01 1.459153e-01 0.000000e+00
 0.000000e+00 0.000000e+00 0.000000e+00 9.498153e-01 5.018467e-02
 0.000000e+00 0.000000e+00 0.000000e+00 0.000000e+00 0.000000e+00
<ENDHMM>
~h "g"
<BEGINHMM>
<NUMSTATES> 5
<STATE> 2
<MEAN> 25
 -9.160110e-01 1.156823e+00 8.204799e+00 -6.028274e+00 -6.134621e+00 -1.399312e+00 -3.361398e-02 -7.171316e-01 1.163803e+00 -5.066087e+00 5.284697e+00 1.394559e+00 6.775045e-01 -9.096388e-01 -2.067622e-01 5.891145e-01 -1.814951e+00 2.353701e-01 -5.934477e-01 -6.613734e-01 -1.633059e-01 -3.254819e-01 9.227208e-01 -2.272079e-01 5.890675e-01
<VARIANCE> 25
 1.745428e+01 1.737361e+01 2.506564e+01 2.568837e+01 5.451872e+01 3.574236e+01 2.829153e+01 2.384350e+01 3.000233e+01 2.010763e+01 3.268187e+01 1.188401e+01 7.030911e-01 1.138244e+00 1.032484e+00 1.606165e+00 2.017610e+00 2.202398e+00 1.804009e+00 3.533235e+00 2.091155e+00 1.737643e+00 2.224617e+00 1.323636e+00 1.222565e+00
<GCONST> 9.078021e+01
<STATE> 3
<MEAN> 25
 1.233115e+00 -1.017067e+00 6.088964e+00 -1.285521e+00 -9.321766e+00 -5.683968e+00 -5.345751e+00 -6.015760e+00 -3.896619e+00 -4.220510e+00 2.477572e+00 1.701708e+00 5.870227e-02 6.325745e-02 1.532372e-01 1.211559e-01 2.435759e-01 -9.860114e-02 -1.086925e-01 4.705427e-02 -7.146410e-02 -1.328226e-01 -4.630696e-01 1.847110e-01 -4.316439e-01
<VARIANCE> 25
 1.777360e+01 1.022749e+01 4.121163e+01 1.314813e+01 3.039704e+01 2.919841e+01 3.726224e+01 4.906738e+01 3.112914e+01 3.311780e+01 3.973041e+01 2.077085e+01 1.101981e+00 7.282411e-01 2.012474e+00 1.192108e+00 2.870373e+00 2.775067e+00 2.267847e+00 3.802777e+00 3.660361e+00 2.542054e+00 3.133658e+00 2.355809e+00 2.072601e+00
<GCONST> 9.524142e+01
<STATE> 4
<MEAN> 25
 -1.773980e+00 -2.949968e+00 7.744818e+00 3.040004e+00 2.222290e-01 -4.825724e+00 -4.914042e+00 2.778019e+00 5.225415e-02 -6.236056e+00 -3.717809e+00 3.400134e+00 -1.197572e-01 -1.933556e-01 -4.437844e-01 4.744700e-01 6.193734e-01 -1.987797e-01 -1.214792e-01 -4.035195e-02 -1.477488e-01 3.525844e-01 -4.003472e-01 1.406083e-02 -2.966323e-01
<VARIANCE> 25
 2.349822e+01 2.073462e+01 6.459750e+01 3.349946e+01 3.222770e+01 5.565978e+01 3.499083e+01 6.254881e+01 4.927105e+01 3.503714e+01 3.138554e+01 4.220664e+01 3.891912e+00 1.871984e+00 3.597375e+00 2.792515e+00 4.483346e+00 6.218249e+00 4.701279e+00 6.512757e+00 4.065774e+00 1.714070e+00 2.766801e+00 2.771243e+00 5.824225e+00
<GCONST> 1.064241e+02
<TRANSP> 5
 0.000000e+00 1.000000e+00 0.000000e+00 0.000000e+00 0.000000e+00
 0.000000e+00 8.004289e-01 1.995710e-01 0.000000e+00 0.000000e+00
 0.000000e+00 0.000000e+00 9.034886e-01 9.651135e-02 0.000000e+00
 0.000000e+00 0.000000e+00 0.000000e+00 8.219489e-01 1.780510e-01
 0.000000e+00 0.000000e+00 0.000000e+00 0.000000e+00 0.000000e+00
<ENDHMM>
~h "k"
<BEGINHMM>
<NUMSTATES> 5
<STATE> 2
<MEAN> 25
 -1.047418e+00 -7.351549e-01 -4.145662e+00 1.769113e+00 3.613615e+00 1.272109e+00 1.171518e+00 1.306020e+00 -2.228126e+00 4.235243e+00 -4.372164e-01 -1.069626e+00 -6.770550e-01 -8.820459e-01 -1.046393e+00 -1.940376e-01 7.198791e-01 -6.405059e-01 -9.439440e-01 4.959360e-01 -1.331096e-01 3.081986e-01 4.424492e-01 3.499437e-01 1.095537e+00
<VARIANCE> 25
 3.174457e+01 4.908497e+01 7.601262e+01 5.151451e+01 5.417882e+01 6.544934e+01 4.559777e+01 5.102864e+01 3.885222e+01 4.458037e+01 5.796585e+01 3.189035e+01 2.725920e+00 3.741414e+00 4.223454e+00 6.767956e+00 4.134534e+00 6.182671e+00 6.218683e+00 5.743543e+00 4.471652e+00 4.058366e+00 3.540649e+00 3.733886e+00 6.300133e+00
<GCONST> 1.122887e+02
<STATE> 3
<MEAN> 25
 -1.327289e+00 -2.541719e+00 -3.802858e+00 6.830987e-01 2.545746e+00 -4.325596e+00 -5.157096e-01 1.259997e+00 -2.404378e+00 1.511984e+00 2.463774e+00 1.698429e+00 -6.758108e-01 -5.228026e-02 3.019345e-01 -5.920328e-01 -2.342323e-01 -6.555156e-01 -4.283524e-01 -6.021229e-02 5.259469e-01 -3.669082e-01 -1.688456e-01 7.242062e-01 1.311521e+00
<VARIANCE> 25
 6.943155e+01 6.898824e+01 5.987907e+01 7.912836e+01 7.425572e+01 6.105169e+01 4.942130e+01 6.083190e+01 7.042802e+01 5.587854e+01 5.815409e+01 4.014038e+01 8.356053e+00 4.811875e+00 3.525581e+00 6.527354e+00 4.393791e+00 5.679082e+00 3.783562e+00 6.255720e+00 6.022936e+00 5.454884e+00 6.778764e+00 6.638228e+00 7.929827e+00
<GCONST> 1.179262e+02
<STATE> 4
<MEAN> 25
 -7.989339e+00 -2.789019e+00 -2.297081e+00 -4.614118e+00 2.127375e+00 -3.247499e+00 -9.427024e-02 2.805233e+00 1.661058e+00 1.471752e+00 7.999123e-01 4.160898e+00 1.856952e-01 5.129379e-02 2.863975e-01 -4.366104e-02 -5.575558e-01 3.941220e-01 4.079376e-01 -4.508632e-01 1.480776e-01 -3.918476e-01 -3.198687e-01 -2.153821e-01 3.063547e-01
<VARIANCE> 25
 9.150523e+01 3.571101e+01 4.106050e+01 5.579536e+01 7.061306e+01 4.006788e+01 3.935233e+01 4.761348e+01 5.084769e+01 3.383702e+01 3.416516e+01 4.799636e+01 3.905547e+00 2.112899e+00 2.667635e+00 3.093782e+00 3.802793e+00 3.945667e+00 3.223315e+00 3.677667e+00 3.435632e+00 3.253235e+00 3.406218e+00 2.500483e+00 2.993310e+00
<GCONST> 1.071661e+02
<TRANSP> 5
 0.000000e+00 1.000000e+00 0.000000e+00 0.000000e+00 0.000000e+00
 0.000000e+00 6.474729e-01 3.525271e-01 0.000000e+00 0.000000e+00
 0.000000e+00 0.000000e+00 6.562812e-01 3.437187e-01 0.000000e+00
 0.000000e+00 0.000000e+00 0.000000e+00 6.947415e-01 3.052585e-01
 0.000000e+00 0.000000e+00 0.000000e+00 0.000000e+00 0.000000e+00
<ENDHMM>
~h "l"
<BEGINHMM>
<NUMSTATES> 5
<STATE> 2
<MEAN> 25
 2.494544e+00 -4.317084e+00 -2.921346e+00 -8.402607e+00 -5.744616e+00 -5.342798e+00 -4.051229e+00 -2.527325e+00 3.674040e-01 8.319395e-01 7.224195e-01 -1.160695e-02 2.781545e-01 1.316508e-01 2.803332e-02 -1.606222e-01 -5.681113e-02 7.131959e-02 -9.706233e-02 -4.022641e-02 -2.748919e-01 -1.228213e-01 1.906405e-01 2.260515e-01 -1.322542e-01
<VARIANCE> 25
 1.257203e+01 1.317536e+01 1.052384e+01 1.648619e+01 2.268501e+01 2.064194e+01 4.798854e+01 3.939369e+01 3.505174e+01 3.045822e+01 1.973048e+01 2.203708e+01 7.187066e-01 8.268351e-01 9.043512e-01 8.834262e-01 1.129393e+00 1.892887e+00 2.410786e+00 2.273221e+00 3.224241e+00 2.913586e+00 2.055214e+00 1.801712e+00 8.710248e-01
<GCONST> 8.808170e+01
<STATE> 3
<MEAN> 25
 6.933797e+00 4.108630e+00 -1.002139e+00 -6.923780e+00 -1.978767e+00 3.069281e+00 -4.328760e+00 -3.333227e+00 -1.730068e-01 -2.203727e+00 1.961118e+00 2.186120e+00 -3.446688e-01 4.908369e-01 1.043213e-01 9.982831e-01 6.726313e-01 4.565342e-01 7.679377e-01 2.849507e-01 -1.602893e-02 5.706860e-02 -3.279520e-02 6.856701e-02 -1.275477e+00
<VARIANCE> 25
 1.812584e+01 1.680985e+01 9.897983e+00 4.333266e+01 3.225552e+01 2.958205e+01 4.011597e+01 3.537177e+01 5.068269e+01 3.671770e+01 1.954670e+01 1.921478e+01 1.144869e+00 1.270850e+00 7.139561e-01 2.862166e+00 1.451454e+00 4.157866e+00 2.476906e+00 1.999340e+00 2.109913e+00 2.844329e+00 1.519302e+00 1.427467e+00 6.462352e-01
<GCONST> 9.191989e+01
<STATE> 4
<MEAN> 25
 -6.866005e-01 2.051972e+00 1.005630e-03 4.086239e+00 5.653710e+00 3.252050e+00 4.759995e+00 3.600282e+00 2.229180e+00 3.488840e+00 2.293059e+00 1.008489e+00 -1.168052e-01 -4.883401e-02 1.630620e-02 1.129847e-01 9.180570e-02 2.386256e-02 6.915975e-02 1.076457e-01 6.274765e-02 7.587150e-02 1.397560e-02 -1.699874e-02 -7.096180e-02
<VARIANCE> 25
 4.015968e+00 4.553010e+00 6.843391e+00 9.955105e+00 1.159580e+01 1.217781e+01 1.456690e+01 1.522529e+01 1.473822e+01 1.474353e+01 1.424399e+01 1.175647e+01 2.321810e-01 2.978897e-01 4.134688e-01 7.199436e-01 8.675879e-01 1.078687e+00 1.224000e+00 1.386133e+00 1.338012e+00 1.430480e+00 1.346516e+00 1.133272e+00 1.101939e-01
<GCONST> 6.937395e+01
<TRANSP> 5
 0.000000e+00 1.000000e+00 0.000000e+00 0.000000e+00 0.000000e+00
 0.000000e+00 8.577892e-01 1.422108e-01 0.000000e+00 0.000000e+00
 0.000000e+00 0.000000e+00 8.176120e-01 1.823880e-01 0.000000e+00
 0.000000e+00 0.000000e+00 0.000000e+00 9.397858e-01 6.021414e-02
 0.000000e+00 0.000000e+00 0.000000e+00 0.000000e+00 0.000000e+00
<ENDHMM>
~h "m"
<BEGINHMM>
<NUMSTATES> 5
<STATE> 2
<MEAN> 25
 3.531656e+00 -6.720293e-02 2.170546e+00 -1.976539e-01 -2.157227e+00 -1.139283e+00 -6.786969e+00 -4.627258e+00 -3.467465e+00 -6.114406e+00 -2.172436e+00 -2.602389e-01 4.231187e-01 -4.381397e-01 2.832021e-01 -3.415859e-01 -5.655797e-01 -3.548794e-01 -7.871601e-01 -1.380837e+00 -6.556903e-01 -7.590923e-01 -3.943087e-01 3.140697e-01 1.041087e+00
<VARIANCE> 25
 2.663002e+01 1.577459e+01 3.814386e+01 4.511498e+01 5.645762e+01 3.917635e+01 5.751871e+01 6.402650e+01 2.132124e+01 3.906129e+01 3.865078e+01 2.440561e+01 1.906800e+00 1.324928e+00 2.558266e+00 2.968364e+00 2.752574e+00 3.517252e+00 6.993788e+00 5.284419e+00 2.231113e+00 4.725201e+00 3.748745e+00 1.903586e+00 3.531282e+00
<GCONST> 1.033415e+02
<STATE> 3
<MEAN> 25
 2.209648e+00 -3.346493e+00 1.315029e+00 -4.266118e+00 -6.328621e+00 -5.097272e+00 -8.833138e+00 -9.832322e+00 -5.236631e+00 -5.302121e+00 -3.943600e-01 1.313677e+00 -3.272817e-01 -2.573427e-01 -7.289058e-02 -2.818707e-01 -2.736531e-01 -3.319353e-01 1.286104e-01 3.097831e-01 2.360173e-01 1.466424e-01 -3.668449e-04 -4.647177e-02 3.880352e-01
<VARIANCE> 25
 2.108931e+01 1.038339e+01 3.004202e+01 3.095120e+01 2.928423e+01 4.973939e+01 4.091618e+01 3.903109e+01 3.146610e+01 4.958503e+01 3.551712e+01 2.608338e+01 1.096995e+00 5.716715e-01 1.201643e+00 1.829417e+00 1.400843e+00 3.482478e+00 3.154432e+00 2.613134e+00 3.315888e+00 3.237608e+00 2.997236e+00 2.304438e+00 1.153003e+00
<GCONST> 9.547826e+01
<STATE> 4
<MEAN> 25
 2.832007e+00 -4.221244e-01 3.907349e+00 -1.642952e+00 -6.979332e+00 -2.446225e+00 -6.463047e+00 -7.384631e+00 -5.556948e+00 -7.714002e+00 -2.216434e+00 -7.411132e-01 7.810920e-02 2.303621e-01 1.571713e-01 2.413875e-01 2.444094e-01 2.560919e-01 3.850623e-01 3.363746e-01 1.175786e-01 1.219980e-01 -6.182422e-03 -3.494885e-02 -3.582992e-01
<VARIANCE> 25
 3.190659e+01 1.877752e+01 3.696871e+01 3.105285e+01 3.167683e+01 5.775623e+01 2.681878e+01 4.178314e+01 2.406353e+01 3.360678e+01 2.119929e+01 2.284316e+01 7.244764e-01 7.740821e-01 1.332770e+00 1.653530e+00 1.685792e+00 1.537989e+00 1.469952e+00 2.119260e+00 2.477816e+00 2.316972e+00 1.565140e+00 1.763824e+00 9.868855e-01
<GCONST> 9.185031e+01
<TRANSP> 5
 0.000000e+00 1.000000e+00 0.000000e+00 0.000000e+00 0.000000e+00
 0.000000e+00 5.709808e-01 4.290191e-01 0.000000e+00 0.000000e+00
 0.000000e+00 0.000000e+00 7.843390e-01 2.156611e-01 0.000000e+00
 0.000000e+00 0.000000e+00 0.000000e+00 8.205473e-01 1.794527e-01
 0.000000e+00 0.000000e+00 0.000000e+00 0.000000e+00 0.000000e+00
<ENDHMM>
~h "n"
<BEGINHMM>
<NUMSTATES> 5
<STATE> 2
<MEAN> 25
 6.299596e+00 -2.359347e+00 4.037432e+00 1.543800e+00 -2.385253e+00 3.897275e-01 -7.722625e+00 -3.147232e+00 1.157337e+00 -4.115206e+00 -6.287226e+00 -2.354841e+00 5.689647e-01 5.960104e-01 4.685985e-01 9.136815e-01 3.963715e-01 6.673391e-01 3.048974e-01 -3.488891e-01 -2.640229e-01 -7.509588e-02 -5.556433e-01 1.789564e-01 -1.305290e+00
<VARIANCE> 25
 1.601466e+01 1.332270e+01 3.439810e+01 2.745622e+01 4.822962e+01 2.917848e+01 3.522966e+01 3.770533e+01 2.756380e+01 2.584496e+01 3.398441e+01 1.787547e+01 1.393268e+00 9.565659e-01 2.336917e+00 1.909252e+00 2.389163e+00 2.539474e+00 2.842997e+00 2.306989e+00 1.844909e+00 1.869457e+00 2.442997e+00 1.797293e+00 1.540267e+00
<GCONST> 9.419556e+01
<STATE> 3
<MEAN> 25
 4.413071e+00 3.888642e+00 3.634957e+00 5.308638e+00 2.115342e+00 2.246168e+00 -3.229793e-01 -2.090846e+00 -4.341164e-01 -1.193320e+00 -4.294218e+00 -8.815908e-02 -8.533358e-01 4.051254e-01 -5.331188e-01 1.351760e-01 9.243643e-01 1.083741e-01 9.965956e-01 6.528646e-01 -1.242716e-01 6.181864e-01 8.375434e-01 6.849036e-02 -8.358796e-01
<VARIANCE> 25
 3.012556e+01 1.518425e+01 1.820048e+01 1.573653e+01 2.307893e+01 1.716505e+01 2.811741e+01 2.345563e+01 2.311578e+01 2.082967e+01 2.702935e+01 1.415082e+01 6.636919e-01 8.518222e-01 8.750454e-01 1.200351e+00 1.464498e+00 1.596743e+00 1.984392e+00 1.656162e+00 1.652990e+00 1.319518e+00 1.615860e+00 1.428931e+00 4.906096e-01
<GCONST> 8.474953e+01
<STATE> 4
<MEAN> 25
 -4.737855e-01 1.995713e+00 -4.040074e-01 4.470725e+00 6.382917e+00 3.926477e+00 5.027099e+00 3.829600e+00 2.407670e+00 3.490191e+00 2.074733e+00 8.566471e-01 -1.046267e-01 -7.870514e-02 -8.341850e-02 -3.141328e-02 8.567028e-03 4.376411e-04 6.032402e-02 1.162517e-01 6.880497e-02 7.132720e-02 1.008425e-01 4.553547e-02 -6.246474e-02
<VARIANCE> 25
 7.010904e+00 4.356915e+00 7.392210e+00 8.231054e+00 1.304188e+01 1.295322e+01 1.458086e+01 1.667145e+01 1.550236e+01 1.591020e+01 1.705009e+01 1.179184e+01 2.817086e-01 3.244874e-01 5.266171e-01 7.201978e-01 9.076967e-01 1.124348e+00 1.298875e+00 1.520516e+00 1.483360e+00 1.360125e+00 1.373486e+00 1.159775e+00 1.507658e-01
<GCONST> 7.152336e+01
<TRANSP> 5
 0.000000e+00 1.000000e+00 0.000000e+00 0.000000e+00 0.000000e+00
 0.000000e+00 7.839646e-01 2.160354e-01 0.000000e+00 0.000000e+00
 0.000000e+00 0.000000e+00 8.212390e-01 1.787611e-01 0.000000e+00
 0.000000e+00 0.000000e+00 0.000000e+00 9.511049e-01 4.889513e-02
 0.000000e+00 0.000000e+00 0.000000e+00 0.000000e+00 0.000000e+00
<ENDHMM>
~h "p"
<BEGINHMM>
<NUMSTATES> 5
<STATE> 2
<MEAN> 25
 1.960648e+00 -2.354404e+00 -1.822998e+00 -2.813905e+00 -2.275173e+00 -2.786429e+00 -3.179398e+00 -2.722497e+00 -6.105526e-01 -1.384297e+00 -1.895327e+00 -6.771999e-01 -3.173051e-01 -5.184045e-01 -2.116394e-01 -3.741154e-02 5.369577e-03 -6.584120e-01 -2.742635e-01 4.248679e-01 5.681203e-01 3.201251e-01 2.409436e-02 -5.919443e-03 6.700625e-01
<VARIANCE> 25
 1.154609e+01 1.745945e+01 1.377648e+01 2.505241e+01 5.106371e+01 4.228303e+01 6.889488e+01 6.194339e+01 2.340587e+01 3.848634e+01 2.921885e+01 1.919817e+01 1.204535e+00 1.379919e+00 5.639133e-01 2.057048e+00 2.005403e+00 1.849677e+00 5.208289e+00 5.397854e+00 3.000958e+00 2.898287e+00 2.772939e+00 2.002263e+00 2.086448e+00
<GCONST> 9.618263e+01
<STATE> 3
<MEAN> 25
 4.159920e+00 -2.308760e+00 9.021205e-01 1.683300e+00 -4.941188e+00 -7.137508e+00 -4.940831e+00 -8.630071e-01 2.251478e+00 1.058384e-01 -1.869791e+00 -1.921474e-02 -1.176112e-01 3.566152e-01 6.356983e-02 4.649338e-01 5.315339e-01 3.889503e-01 5.348995e-01 5.323283e-01 2.658968e-01 3.789834e-02 1.394451e-02 4.432373e-02 -8.276853e-01
<VARIANCE> 25
 1.772300e+01 1.263011e+01 1.886166e+01 4.597453e+01 6.413471e+01 4.862661e+01 3.773393e+01 4.169409e+01 2.255609e+01 1.701979e+01 1.630996e+01 1.805885e+01 8.912059e-01 5.011318e-01 7.964783e-01 1.439336e+00 1.681144e+00 1.960292e+00 2.215626e+00 2.015424e+00 1.788714e+00 1.734207e+00 1.403667e+00 1.536848e+00 8.093047e-01
<GCONST> 8.887375e+01
<STATE> 4
<MEAN> 25
 -7.241089e-02 1.574570e+00 6.559544e-01 3.926382e+00 5.732306e+00 3.634727e+00 4.457149e+00 2.885337e+00 3.022513e+00 2.787498e+00 1.786005e+00 6.410025e-01 -4.554587e-02 1.319227e-02 -7.474862e-03 1.973905e-02 8.333389e-03 5.380418e-03 1.656618e-02 -2.638676e-03 3.560434e-03 2.043388e-02 6.572679e-02 1.606813e-02 -2.103844e-02
<VARIANCE> 25
 2.350497e+00 2.742281e+00 4.576743e+00 5.872198e+00 9.653145e+00 1.076923e+01 1.095920e+01 1.270975e+01 1.280721e+01 1.220587e+01 1.324110e+01 1.020104e+01 9.816412e-02 2.470380e-01 3.979351e-01 5.222120e-01 8.097490e-01 1.043867e+00 9.826474e-01 1.279640e+00 1.156065e+00 1.295684e+00 1.271931e+00 1.076077e+00 9.067664e-02
<GCONST> 6.372779e+01
<TRANSP> 5
 0.000000e+00 1.000000e+00 0.000000e+00 0.000000e+00 0.000000e+00
 0.000000e+00 7.189556e-01 2.810443e-01 0.000000e+00 0.000000e+00
 0.000000e+00 0.000000e+00 8.067929e-01 1.932071e-01 0.000000e+00
 0.000000e+00 0.000000e+00 0.000000e+00 9.643933e-01 3.560668e-02
 0.000000e+00 0.000000e+00 0.000000e+00 0.000000e+00 0.000000e+00
<ENDHMM>
~h "r"
<BEGINHMM>
<NUMSTATES> 5
<STATE> 2
<MEAN> 25
 -3.562570e-01 -4.066210e-01 1.750658e+00 3.697698e-01 -1.769863e+00 -2.768263e+00 -4.317675e+00 -1.962191e+00 -2.494637e+00 -1.985675e+00 2.894456e-01 1.647208e+00 -3.129988e-01 -4.275471e-01 1.393694e-01 -8.596450e-01 -1.055245e+00 -4.640207e-01 -7.519265e-01 -5.638146e-01 -2.860783e-01 -9.053537e-02 6.602715e-02 -8.601699e-02 1.431782e+00
<VARIANCE> 25
 5.930053e+01 2.767945e+01 3.900534e+01 3.628193e+01 4.534957e+01 3.881392e+01 4.231574e+01 7.952424e+01 2.879933e+01 2.698174e+01 2.076480e+01 1.553502e+01 4.499450e+00 1.716743e+00 2.084629e+00 3.636232e+00 3.681613e+00 3.247416e+00 4.217942e+00 4.279430e+00 2.330029e+00 2.737535e+00 2.040928e+00 2.054041e+00 3.534590e+00
<GCONST> 1.026245e+02
<STATE> 3
<MEAN> 25
 -3.250752e+00 -2.785168e+00 2.805499e-01 -1.456263e+00 -5.041427e+00 -3.827224e+00 -5.383892e+00 -1.757195e+00 -1.202911e+00 -6.137834e-02 4.162804e-01 8.350595e-01 6.951227e-01 -8.961842e-01 -2.691876e-01 -5.430235e-01 -6.504365e-01 -8.733686e-01 -3.940452e-01 -8.889653e-01 3.974342e-02 4.268141e-01 1.353025e-01 -2.545332e-01 9.241116e-01
<VARIANCE> 25
 9.736900e+01 2.303452e+01 2.526525e+01 3.641224e+01 2.482872e+01 3.843581e+01 3.977968e+01 6.860927e+01 3.796997e+01 3.119641e+01 2.410216e+01 1.503500e+01 4.926061e+00 9.056832e-01 2.020029e+00 4.385739e+00 1.831875e+00 2.166365e+00 4.240345e+00 5.250519e+00 4.027166e+00 2.694844e+00 2.447248e+00 1.814969e+00 8.840389e-01
<GCONST> 1.001398e+02
<STATE> 4
<MEAN> 25
 9.996763e-01 -4.577350e+00 9.682274e-01 -4.604426e+00 -7.652807e+00 -8.343962e+00 -5.776916e+00 -6.110007e+00 -2.342443e+00 -2.287327e+00 -1.050322e+00 5.702912e-01 -1.372399e-02 -2.788277e-02 8.363150e-02 5.859232e-02 1.787404e-02 1.424492e-01 2.612398e-01 1.832905e-01 5.966936e-02 -3.545141e-03 1.133498e-01 -7.060638e-02 -8.751624e-02
<VARIANCE> 25
 2.087652e+01 9.928114e+00 3.896584e+01 2.507442e+01 1.854773e+01 2.516404e+01 2.974500e+01 3.425407e+01 3.292682e+01 3.122675e+01 2.531969e+01 1.292246e+01 7.437460e-01 4.949155e-01 1.550494e+00 1.352000e+00 1.241764e+00 1.535646e+00 1.788781e+00 2.211215e+00 3.314274e+00 2.600250e+00 2.010764e+00 1.583305e+00 4.763214e-01
<GCONST> 8.829530e+01
<TRANSP> 5
 0.000000e+00 1.000000e+00 0.000000e+00 0.000000e+00 0.000000e+00
 0.000000e+00 6.038948e-01 3.961051e-01 0.000000e+00 0.000000e+00
 0.000000e+00 0.000000e+00 4.973325e-01 5.026675e-01 0.000000e+00
 0.000000e+00 0.000000e+00 0.000000e+00 8.573940e-01 1.426060e-01
 0.000000e+00 0.000000e+00 0.000000e+00 0.000000e+00 0.000000e+00
<ENDHMM>
~h "s"
<BEGINHMM>
<NUMSTATES> 5
<STATE> 2
<MEAN> 25
 -9.163573e+00 5.632427e+00 -2.197179e+00 2.172447e+00 5.849495e+00 -1.348083e+00 2.250396e+00 4.432711e+00 -1.337429e-01 7.555556e-01 3.919903e-01 7.372578e-01 -2.719992e+00 1.456651e+00 -9.302014e-01 -3.600853e-01 3.486138e-01 -1.838288e-01 7.635952e-01 6.479002e-01 8.227763e-02 1.527099e-01 2.736296e-01 1.412515e-01 1.225808e+00
<VARIANCE> 25
 4.053158e+01 2.309005e+01 1.880469e+01 1.594225e+01 3.804207e+01 2.556403e+01 3.173438e+01 3.061582e+01 2.460639e+01 2.497478e+01 2.070350e+01 1.894897e+01 2.128439e+00 2.007294e+00 1.333538e+00 1.511029e+00 2.969842e+00 3.119656e+00 2.629190e+00 2.536364e+00 2.431578e+00 1.874704e+00 1.979369e+00 1.209032e+00 1.330894e+00
<GCONST> 9.359507e+01
<STATE> 3
<MEAN> 25
 -1.496007e+01 6.413372e+00 -4.312421e+00 1.592315e+00 3.150963e+00 -7.436104e-01 4.067026e+00 5.117863e+00 1.156125e-01 6.634393e-01 6.187521e-01 1.519448e+00 2.476654e-01 -2.798528e-01 5.368197e-02 1.503629e-01 -8.164403e-03 6.977386e-02 3.379516e-02 1.151927e-01 1.175656e-01 -5.168729e-02 1.532840e-01 8.732430e-02 -1.534095e-01
<VARIANCE> 25
 1.367409e+01 1.881361e+01 1.226922e+01 1.810253e+01 3.579554e+01 1.900533e+01 1.990810e+01 2.656354e+01 1.908523e+01 1.756570e+01 1.742811e+01 1.497689e+01 1.051081e+00 1.547585e+00 7.366111e-01 1.406347e+00 2.209946e+00 1.731504e+00 1.673682e+00 2.058165e+00 1.558193e+00 1.647063e+00 1.493253e+00 1.269055e+00 1.156499e+00
<GCONST> 8.590060e+01
<STATE> 4
<MEAN> 25
 -2.890880e+00 2.285427e+00 -1.818663e+00 3.591606e+00 4.947375e+00 2.510055e+00 3.892393e+00 4.455488e+00 2.626698e+00 3.482358e+00 2.507214e+00 1.706920e+00 3.955265e-01 -1.557100e-01 1.946277e-01 -3.578526e-02 -4.408933e-02 9.824497e-03 -1.047918e-01 -7.753808e-02 5.711778e-02 3.111809e-02 -5.822483e-02 -7.743128e-02 -1.482178e-01
<VARIANCE> 25
 3.173064e+01 7.402827e+00 7.954558e+00 9.659602e+00 1.691499e+01 1.370059e+01 1.618994e+01 1.685762e+01 1.466425e+01 1.679195e+01 1.219145e+01 1.190560e+01 1.249051e+00 7.784678e-01 8.137925e-01 8.911031e-01 1.442810e+00 1.408764e+00 1.603311e+00 1.867717e+00 1.531429e+00 1.671730e+00 1.422978e+00 1.261551e+00 5.813757e-01
<GCONST> 7.972617e+01
<TRANSP> 5
 0.000000e+00 1.000000e+00 0.000000e+00 0.000000e+00 0.000000e+00
 0.000000e+00 7.041846e-01 2.958154e-01 0.000000e+00 0.000000e+00
 0.000000e+00 0.000000e+00 8.851572e-01 1.148428e-01 0.000000e+00
 0.000000e+00 0.000000e+00 0.000000e+00 8.822992e-01 1.177009e-01
 0.000000e+00 0.000000e+00 0.000000e+00 0.000000e+00 0.000000e+00
<ENDHMM>
~h "t"
<BEGINHMM>
<NUMSTATES> 5
<STATE> 2
<MEAN> 25
 -4.802521e+00 3.465908e+00 -5.187426e-01 1.738558e+00 2.691730e+00 2.226654e+00 -7.133143e-02 5.335006e+00 1.707489e-01 -8.013283e-01 9.478877e-01 1.009726e+00 -1.104763e+00 1.246189e-01 -3.564695e-01 -4.916160e-01 -2.611515e-01 -4.805984e-01 -5.775357e-01 1.029898e+00 -2.976337e-01 -5.503849e-01 -4.774557e-02 3.747195e-01 1.130240e+00
<VARIANCE> 25
 3.982151e+01 2.214280e+01 2.203653e+01 2.121169e+01 2.515292e+01 2.289639e+01 3.010567e+01 5.237491e+01 2.716598e+01 2.204020e+01 2.364914e+01 1.703578e+01 4.305518e+00 2.526517e+00 2.330257e+00 2.202362e+00 3.233794e+00 1.908019e+00 3.386051e+00 6.331996e+00 2.573725e+00 2.554360e+00 3.136875e+00 1.641739e+00 1.842584e+00
<GCONST> 9.802924e+01
<STATE> 3
<MEAN> 25
 -1.219543e+00 5.070774e-01 1.312580e+00 -7.265549e-01 -3.134821e+00 -2.280558e+00 -5.229054e+00 -9.405820e-01 -1.018595e+00 -2.413460e+00 -3.536832e-01 1.904530e+00 4.013526e-01 -5.737582e-01 -2.312666e-01 -5.797573e-01 -7.380142e-01 -8.542525e-01 -7.973385e-01 -1.015806e+00 -1.804667e-01 -9.329852e-02 -2.684141e-01 -1.951476e-01 1.183510e+00
<VARIANCE> 25
 3.902890e+01 1.923463e+01 3.935210e+01 3.061463e+01 6.063135e+01 3.815293e+01 4.844598e+01 1.016116e+02 4.111300e+01 2.122680e+01 3.683715e+01 2.151281e+01 3.868942e+00 2.242939e+00 2.878321e+00 3.132097e+00 5.348057e+00 3.284516e+00 4.092426e+00 8.969658e+00 3.326140e+00 2.611009e+00 2.736855e+00 2.507489e+00 4.194756e+00
<GCONST> 1.057068e+02
<STATE> 4
<MEAN> 25
 -2.297549e+00 -1.570533e+00 -5.983299e+00 1.191877e+00 2.687476e+00 4.411042e+00 -1.369948e+00 -3.285146e-03 1.667058e+00 4.862259e-02 -4.547547e+00 -3.863292e-01 -2.053356e-03 -2.352044e-01 -1.082830e-01 -9.258776e-02 -3.990789e-02 -1.055752e-01 1.578408e-02 -2.363813e-02 -7.197363e-03 4.058548e-02 3.761094e-02 -5.241628e-02 9.368724e-02
<VARIANCE> 25
 1.585139e+01 1.354404e+01 1.973494e+01 3.146315e+01 3.218452e+01 3.859584e+01 2.531703e+01 3.409547e+01 3.085920e+01 1.790519e+01 2.712097e+01 1.579938e+01 8.551013e-01 8.372651e-01 1.290469e+00 1.229627e+00 1.550841e+00 2.056263e+00 1.941834e+00 1.905184e+00 2.056000e+00 1.667580e+00 1.652942e+00 1.637034e+00 1.127676e+00
<GCONST> 8.895063e+01
<TRANSP> 5
 0.000000e+00 1.000000e+00 0.000000e+00 0.000000e+00 0.000000e+00
 0.000000e+00 6.245652e-01 3.754348e-01 0.000000e+00 0.000000e+00
 0.000000e+00 0.000000e+00 5.807835e-01 4.192165e-01 0.000000e+00
 0.000000e+00 0.000000e+00 0.000000e+00 7.206965e-01 2.793035e-01
 0.000000e+00 0.000000e+00 0.000000e+00 0.000000e+00 0.000000e+00
<ENDHMM>
~h "v"
<BEGINHMM>
<NUMSTATES> 5
<STATE> 2
<MEAN> 25
 -4.055722e+00 1.496954e+00 6.932707e+00 -5.488742e+00 -1.334877e+01 -2.283177e+00 -3.516481e+00 -1.070161e+01 -2.352949e+00 -6.949965e+00 9.575782e-01 -4.764612e+00 3.643033e-02 -4.261559e-02 2.353001e-01 1.091682e-01 -6.484079e-02 -7.305414e-02 1.734222e-01 -2.465829e-01 -1.388270e-01 -1.559790e-02 2.880273e-01 2.979513e-01 -5.595164e-02
<VARIANCE> 25
 1.143233e+01 1.213151e+01 1.636679e+01 8.952209e+00 2.389840e+01 2.259813e+01 2.141466e+01 2.345084e+01 2.445845e+01 2.120419e+01 1.959696e+01 2.437675e+01 3.194528e-01 3.732088e-01 6.178427e-01 6.781560e-01 1.637025e+00 1.689549e+00 1.552059e+00 1.154195e+00 1.584850e+00 1.405276e+00 1.237791e+00 1.390192e+00 1.201400e-01
<GCONST> 7.862524e+01
<STATE> 3
<MEAN> 25
 3.341501e+00 -1.152668e+00 7.287496e+00 2.600054e+00 -8.703215e+00 -7.064429e+00 -6.821861e+00 -5.750517e+00 -6.457823e+00 -5.503170e+00 -8.757582e-01 4.174429e-02 4.199957e-01 2.056076e-01 1.439326e-01 8.505006e-01 5.501537e-01 1.655609e-01 5.767480e-02 4.201486e-01 -3.397529e-02 3.217370e-01 -8.232544e-02 1.101322e-01 -9.809350e-01
<VARIANCE> 25
 1.221671e+01 1.513034e+01 3.466280e+01 4.596625e+01 2.954793e+01 2.849084e+01 2.326996e+01 3.213649e+01 2.920611e+01 2.940533e+01 3.010342e+01 1.921283e+01 7.467089e-01 6.821364e-01 1.352609e+00 1.630981e+00 2.611783e+00 2.191849e+00 2.596856e+00 2.690085e+00 2.525533e+00 2.835850e+00 1.936778e+00 1.762954e+00 1.027815e+00
<GCONST> 9.203805e+01
<STATE> 4
<MEAN> 25
 1.483669e+00 1.765729e+00 2.461525e+00 5.821559e+00 2.143478e+00 -1.464223e+00 -1.895444e-01 1.072564e-01 9.655926e-02 2.084221e+00 1.263289e-01 7.626190e-01 -3.380818e-01 1.343513e-01 -5.187103e-01 -2.128231e-02 7.292222e-01 4.635063e-01 3.698736e-01 5.246242e-01 2.151653e-01 2.414617e-01 1.519403e-01 -5.940268e-02 -3.902400e-01
<VARIANCE> 25
 1.038380e+01 9.015045e+00 1.595607e+01 2.587399e+01 3.159140e+01 2.948671e+01 3.318937e+01 2.557898e+01 2.758321e+01 2.625896e+01 2.278838e+01 1.063405e+01 5.506437e-01 7.136244e-01 8.621897e-01 1.053640e+00 1.325684e+00 1.829849e+00 2.346527e+00 1.549484e+00 2.441924e+00 2.118663e+00 1.803562e+00 1.185651e+00 4.968006e-01
<GCONST> 8.501647e+01
<TRANSP> 5
 0.000000e+00 1.000000e+00 0.000000e+00 0.000000e+00 0.000000e+00
 0.000000e+00 7.812511e-01 2.187489e-01 0.000000e+00 0.000000e+00
 0.000000e+00 0.000000e+00 8.603231e-01 1.396769e-01 0.000000e+00
 0.000000e+00 0.000000e+00 0.000000e+00 8.438358e-01 1.561643e-01
 0.000000e+00 0.000000e+00 0.000000e+00 0.000000e+00 0.000000e+00
<ENDHMM>
~h "w"
<BEGINHMM>
<NUMSTATES> 5
<STATE> 2
<MEAN> 25
 1.931660e+00 -5.247977e+00 -4.677789e+00 -1.005121e+01 -7.812393e+00 -2.449087e+00 -1.953035e+00 -3.057771e+00 -1.044841e+00 -3.465850e+00 -3.721325e+00 -2.784626e+00 -1.240005e-01 -3.542295e-01 -4.133687e-02 4.763988e-02 2.681833e-01 2.977136e-01 3.190928e-01 8.654408e-02 1.462680e-01 2.664096e-01 -1.278473e-01 -4.141811e-01 1.058762e-01
<VARIANCE> 25
 2.268568e+01 2.815850e+01 1.316556e+01 1.876628e+01 2.375045e+01 3.665048e+01 5.765585e+01 4.755189e+01 5.883285e+01 3.947269e+01 4.160301e+01 3.691714e+01 1.474666e+00 8.637955e-01 7.667201e-01 1.294419e+00 1.449878e+00 3.069314e+00 4.694034e+00 3.091667e+00 3.464039e+00 3.222265e+00 2.025238e+00 2.995718e+00 1.401271e+00
<GCONST> 9.664382e+01
<STATE> 3
<MEAN> 25
 3.753984e+00 -4.041728e+00 -1.979664e+00 -2.001284e+00 -1.698185e+00 2.511002e+00 1.178799e-01 7.081752e-01 3.576291e+00 1.268038e-01 -4.891320e+00 -3.000755e+00 -1.152834e-01 6.344887e-01 1.570673e-01 7.649480e-01 7.996201e-01 1.659559e-01 6.297589e-01 7.281722e-01 9.976942e-02 1.142658e-01 2.004300e-01 3.596051e-01 -1.118140e+00
<VARIANCE> 25
 1.006100e+01 2.242037e+01 2.022885e+01 2.439921e+01 4.504898e+01 7.617812e+01 6.477579e+01 4.181127e+01 4.832198e+01 2.693387e+01 3.004224e+01 2.580796e+01 6.495016e-01 7.580339e-01 9.421130e-01 1.433049e+00 1.440673e+00 1.884167e+00 3.483559e+00 1.859221e+00 3.317624e+00 3.676566e+00 1.801801e+00 1.447526e+00 9.046091e-01
<GCONST> 9.325472e+01
<STATE> 4
<MEAN> 25
 -4.595902e-01 9.390043e-01 -1.243090e+00 2.848137e+00 5.368128e+00 3.262593e+00 4.440332e+00 2.515503e+00 1.687293e+00 3.397264e+00 1.674983e+00 1.256345e-01 -2.950889e-02 3.944983e-02 8.444442e-02 4.040811e-02 3.462167e-02 -8.876767e-02 2.279004e-02 1.115607e-01 -6.727008e-02 -6.910839e-02 -1.809001e-02 1.257759e-02 -7.111688e-02
<VARIANCE> 25
 3.633659e+00 5.508531e+00 5.846004e+00 9.063190e+00 1.180267e+01 9.703644e+00 1.497252e+01 1.391634e+01 1.442381e+01 1.412787e+01 1.506017e+01 1.303139e+01 1.680956e-01 3.656844e-01 4.834975e-01 5.327824e-01 1.081042e+00 1.258528e+00 1.583709e+00 1.288242e+00 1.240668e+00 1.233395e+00 1.501788e+00 1.275043e+00 1.058775e-01
<GCONST> 6.929494e+01
<TRANSP> 5
 0.000000e+00 1.000000e+00 0.000000e+00 0.000000e+00 0.000000e+00
 0.000000e+00 8.618061e-01 1.381939e-01 0.000000e+00 0.000000e+00
 0.000000e+00 0.000000e+00 6.910335e-01 3.089664e-01 0.000000e+00
 0.000000e+00 0.000000e+00 0.000000e+00 9.109514e-01 8.904853e-02
 0.000000e+00 0.000000e+00 0.000000e+00 0.000000e+00 0.000000e+00
<ENDHMM>
~h "y"
<BEGINHMM>
<NUMSTATES> 5
<STATE> 2
<MEAN> 25
 6.024318e-01 1.894629e+00 3.493142e+00 1.815380e+00 -3.553376e+00 -1.324100e+00 -3.433748e+00 -5.818980e-01 -3.869179e+00 -3.891574e+00 -3.713798e-02 -4.156835e-02 2.631653e-01 3.645054e-03 9.375443e-01 -1.259983e+00 -2.105428e+00 -7.226884e-01 -1.792946e+00 -2.338483e+00 -1.228683e+00 -9.744762e-01 1.239764e-01 8.609673e-02 1.851239e+00
<VARIANCE> 25
 9.922338e+00 2.406133e+01 7.497881e+01 3.011639e+01 5.764240e+01 6.089305e+01 4.786133e+01 7.211435e+01 3.875254e+01 4.289557e+01 2.626095e+01 1.666069e+01 1.637934e+00 1.875293e+00 5.045798e+00 3.660712e+00 4.583061e+00 4.445781e+00 4.342001e+00 8.267733e+00 3.484745e+00 6.021719e+00 2.769861e+00 2.005708e+00 2.916101e+00
<GCONST> 1.054139e+02
<STATE> 3
<MEAN> 25
 1.288473e-01 -7.602783e-01 6.497191e+00 -4.347077e+00 -9.766423e+00 -3.486151e+00 -7.978109e+00 -1.031516e+01 -7.256527e+00 -4.317981e+00 1.893214e+00 1.400980e+00 -3.637538e-02 -3.613975e-01 -2.650702e-01 -2.460289e-01 1.069137e-02 -2.768135e-01 2.344957e-02 -1.620468e-01 -2.426942e-02 3.027198e-01 -8.209815e-03 6.958496e-02 4.096809e-01
<VARIANCE> 25
 1.242628e+01 3.298052e+01 8.540657e+01 2.113545e+01 3.649623e+01 5.493126e+01 4.570962e+01 6.234302e+01 2.509454e+01 5.674207e+01 3.925221e+01 4.290923e+01 5.588948e-01 1.528855e+00 2.884421e+00 2.348924e+00 1.598476e+00 3.514790e+00 3.021369e+00 3.551585e+00 3.061072e+00 3.255463e+00 2.246814e+00 3.528791e+00 1.701687e+00
<GCONST> 1.004659e+02
<STATE> 4
<MEAN> 25
 4.131040e-01 -1.839043e+00 3.001252e+00 -2.862016e+00 -7.719446e+00 -6.244274e+00 -5.037588e+00 -2.899385e+00 -2.956241e+00 -2.761196e+00 1.123890e-01 -1.036928e+00 2.129732e-01 -5.777735e-01 -7.704368e-01 -8.489905e-02 1.647199e-01 -5.208347e-01 1.822181e-01 1.472965e+00 1.095328e+00 5.617903e-01 -1.998961e-01 -4.138690e-01 -5.317353e-03
<VARIANCE> 25
 1.127188e+01 8.994231e+00 6.814212e+01 2.370694e+01 6.607350e+01 4.639920e+01 4.518964e+01 9.699539e+01 3.496491e+01 4.324455e+01 2.929872e+01 1.883505e+01 5.039448e-01 9.979745e-01 1.809388e+00 8.268181e-01 1.577787e+00 3.322336e+00 1.581297e+00 2.722254e+00 2.904545e+00 4.113755e+00 2.550592e+00 1.886041e+00 1.101617e+00
<GCONST> 9.498133e+01
<TRANSP> 5
 0.000000e+00 1.000000e+00 0.000000e+00 0.000000e+00 0.000000e+00
 0.000000e+00 6.443908e-01 3.556092e-01 0.000000e+00 0.000000e+00
 0.000000e+00 0.000000e+00 7.124048e-01 2.875952e-01 0.000000e+00
 0.000000e+00 0.000000e+00 0.000000e+00 6.469058e-01 3.530942e-01
 0.000000e+00 0.000000e+00 0.000000e+00 0.000000e+00 0.000000e+00
<ENDHMM>
~h "z"
<BEGINHMM>
<NUMSTATES> 5
<STATE> 2
<MEAN> 25
 -4.006299e+00 8.726327e+00 3.578303e+00 9.243872e-01 4.120312e+00 -1.860597e+00 -2.949628e+00 -2.036438e+00 -1.385226e+00 -2.016381e+00 4.519565e-01 7.858476e-01 -2.650326e+00 1.434148e+00 -7.244515e-01 3.439782e-03 1.793235e+00 1.359551e-01 2.478989e-01 7.195642e-01 1.312625e-01 2.120288e-01 -1.503807e-01 -4.305037e-01 9.026392e-02
<VARIANCE> 25
 3.485317e+01 3.042336e+01 5.367303e+01 6.719350e+01 3.081556e+01 9.902863e+01 6.642873e+01 7.413226e+01 3.396163e+01 3.826020e+01 2.949375e+01 1.550716e+01 1.701401e+00 1.606699e+00 3.092182e+00 1.600935e+00 3.008643e+00 4.357593e+00 2.309306e+00 1.568084e+00 2.182129e+00 1.939223e+00 1.902756e+00 1.696220e+00 6.965708e-01
<GCONST> 9.964230e+01
<STATE> 3
<MEAN> 25
 -1.351937e+01 7.786361e+00 2.076206e+00 -1.169616e+00 9.731821e+00 2.233340e+00 -4.156109e+00 -1.877258e+00 3.093185e+00 -3.813761e+00 -2.912335e+00 -1.935987e+00 -9.990074e-04 -1.168038e+00 -6.417382e-01 -9.480474e-02 -7.429553e-02 7.174786e-01 4.371060e-01 5.003266e-01 6.257098e-01 3.351460e-01 -8.223211e-01 -2.255717e-01 -8.077388e-01
<VARIANCE> 25
 2.029580e+01 5.068320e+01 6.058123e+01 1.000802e+02 2.381140e+01 9.664651e+01 7.631985e+01 3.715382e+01 4.301822e+01 4.031233e+01 3.289136e+01 1.686654e+01 3.313130e+00 1.476275e+00 2.780083e+00 2.991330e+00 2.129599e+00 2.820613e+00 2.626406e+00 3.597917e+00 1.869797e+00 2.489373e+00 2.160026e+00 1.091369e+00 1.012887e+00
<GCONST> 1.012136e+02
<STATE> 4
<MEAN> 25
 -9.504710e+00 5.389999e+00 -4.010283e+00 2.335399e+00 6.654807e+00 2.455404e+00 2.307063e+00 5.756996e+00 1.209859e+00 1.793468e+00 -1.300181e+00 2.282992e-01 4.105773e-01 -4.297934e-01 -4.032639e-02 3.038610e-02 -8.223711e-02 -7.328108e-02 -9.638838e-02 2.054773e-01 -4.756950e-02 2.185943e-02 1.931102e-01 1.210620e-01 -2.009018e-01
<VARIANCE> 25
 3.261778e+01 3.694306e+01 1.560870e+01 1.488045e+01 1.952025e+01 3.424941e+01 3.094985e+01 4.618647e+01 2.559479e+01 1.835590e+01 3.670928e+01 1.633986e+01 1.189298e+00 1.250309e+00 9.746177e-01 1.356271e+00 1.524386e+00 2.343252e+00 2.082524e+00 2.121414e+00 1.879335e+00 1.770482e+00 1.703321e+00 1.383076e+00 5.899547e-01
<GCONST> 8.977412e+01
<TRANSP> 5
 0.000000e+00 1.000000e+00 0.000000e+00 0.000000e+00 0.000000e+00
 0.000000e+00 7.574691e-01 2.425309e-01 0.000000e+00 0.000000e+00
 0.000000e+00 0.000000e+00 7.622095e-01 2.377904e-01 0.000000e+00
 0.000000e+00 0.000000e+00 0.000000e+00 8.841515e-01 1.158485e-01
 0.000000e+00 0.000000e+00 0.000000e+00 0.000000e+00 0.000000e+00
<ENDHMM>
~h "aa"
<BEGINHMM>
<NUMSTATES> 5
<STATE> 2
<MEAN> 25
 3.886366e+00 7.675366e-01 1.305136e+00 -5.069207e+00 -4.641320e+00 2.017410e+00 1.018246e+00 -3.991775e+00 2.020951e-01 -1.273269e+00 -2.355494e+00 5.448990e+00 8.517655e-01 -5.561116e-01 -1.156804e-01 -1.187178e+00 -7.288913e-01 7.767951e-02 -3.131865e-01 -4.801438e-01 3.462625e-01 -7.524391e-01 1.650919e-01 -5.541129e-01 1.494093e+00
<VARIANCE> 25
 5.006198e+01 3.084459e+01 5.361966e+01 4.224352e+01 6.705571e+01 5.654696e+01 4.717208e+01 7.710712e+01 6.156113e+01 3.788978e+01 1.048739e+02 4.984002e+01 3.348990e+00 3.311814e+00 6.423391e+00 5.052083e+00 5.929227e+00 3.718400e+00 3.547977e+00 5.490224e+00 4.757152e+00 4.777083e+00 1.258534e+01 3.811801e+00 4.084269e+00
<GCONST> 1.141201e+02
<STATE> 3
<MEAN> 25
 5.311133e+00 -4.423083e+00 -2.429206e+00 -4.424077e+00 -3.621061e+00 6.602927e-01 -4.058650e+00 4.197991e+00 3.237280e+00 -5.784560e+00 6.396449e+00 -4.060280e+00 -5.421530e-02 -3.669619e-01 -4.616966e-01 -1.112674e-01 2.533180e-01 2.037475e-01 1.214715e-01 -3.052141e-01 3.940420e-01 7.838865e-02 7.566625e-03 -6.479287e-01 1.938380e-01
<VARIANCE> 25
 1.214890e+01 1.329171e+01 5.593068e+01 3.199181e+01 4.653451e+01 3.990970e+01 3.913403e+01 1.020418e+02 5.756046e+01 3.128977e+01 4.531223e+01 4.461572e+01 7.580190e-01 1.693926e+00 3.918044e+00 1.954109e+00 3.471861e+00 2.786034e+00 2.713676e+00 7.874331e+00 4.925834e+00 2.480518e+00 2.822681e+00 3.797576e+00 1.403747e+00
<GCONST> 1.022788e+02
<STATE> 4
<MEAN> 25
 2.894252e+00 -6.809734e+00 -5.888615e+00 -9.573492e+00 -2.314433e+00 3.796740e+00 1.415689e+00 -3.464703e+00 -9.009232e-01 -3.153368e+00 -1.788024e+00 -3.891706e+00 1.100186e-01 3.095793e-01 5.999364e-02 3.869547e-01 2.336497e-01 2.299723e-01 1.348684e-01 1.278160e-01 2.002368e-02 4.137681e-02 -4.177281e-02 1.684837e-01 -5.990927e-01
<VARIANCE> 25
 1.686684e+01 1.657097e+01 1.755376e+01 3.608540e+01 4.255452e+01 3.814333e+01 4.012144e+01 3.948557e+01 4.132541e+01 3.292752e+01 3.455634e+01 3.782735e+01 9.096907e-01 7.266504e-01 9.395324e-01 1.378808e+00 1.254243e+00 2.675809e+00 2.595692e+00 2.624696e+00 2.015902e+00 1.831635e+00 1.287295e+00 1.704891e+00 8.906519e-01
<GCONST> 9.213348e+01
<TRANSP> 5
 0.000000e+00 1.000000e+00 0.000000e+00 0.000000e+00 0.000000e+00
 0.000000e+00 7.160789e-01 2.839212e-01 0.000000e+00 0.000000e+00
 0.000000e+00 0.000000e+00 7.798050e-01 2.201950e-01 0.000000e+00
 0.000000e+00 0.000000e+00 0.000000e+00 8.795617e-01 1.204383e-01
 0.000000e+00 0.000000e+00 0.000000e+00 0.000000e+00 0.000000e+00
<ENDHMM>
~h "ae"
<BEGINHMM>
<NUMSTATES> 5
<STATE> 2
<MEAN> 25
 1.502795e+00 -5.483137e+00 -4.445857e+00 -3.778975e+00 5.624842e-02 -1.290425e+00 -2.078776e+00 -2.063166e+00 -1.625951e-01 -3.367037e+00 -6.119203e+00 -3.509454e+00 6.335430e-02 -3.333238e-01 -3.725204e-01 -1.463744e-01 4.680932e-01 7.340484e-01 3.781406e-01 -5.269052e-01 -4.419256e-02 -8.428875e-02 -7.262726e-01 -3.811870e-01 4.942255e-02
<VARIANCE> 25
 1.731041e+01 1.477962e+01 1.479403e+01 3.007834e+01 2.135995e+01 3.407435e+01 1.695483e+01 7.665636e+01 4.749653e+01 1.946987e+01 3.347386e+01 2.146375e+01 1.310975e+00 9.938900e-01 8.103046e-01 1.925248e+00 1.431127e+00 2.422995e+00 2.151713e+00 3.269778e+00 3.848124e+00 2.919944e+00 2.390625e+00 1.339225e+00 2.956873e+00
<GCONST> 9.332684e+01
<STATE> 3
<MEAN> 25
 -4.448187e-01 -6.983835e+00 -5.090881e+00 -3.813316e+00 1.492445e+00 2.081665e+00 9.520807e-02 -1.546207e+00 -1.152864e+00 -5.345218e+00 -1.066560e+01 -3.466600e+00 -2.539204e-02 3.109252e-02 -1.412014e-01 9.876660e-03 3.809981e-02 7.812762e-02 2.887525e-01 1.486354e-01 6.433975e-02 1.810981e-01 1.326953e-01 1.987121e-02 -2.565598e-01
<VARIANCE> 25
 2.233414e+01 1.607730e+01 1.729103e+01 2.446275e+01 2.223865e+01 2.452723e+01 2.025718e+01 2.507414e+01 2.129666e+01 2.179087e+01 2.389433e+01 1.863288e+01 5.468866e-01 3.836715e-01 4.119733e-01 8.910997e-01 1.497984e+00 1.149390e+00 9.321820e-01 9.350048e-01 1.238633e+00 1.584835e+00 1.230885e+00 1.785315e+00 3.581279e-01
<GCONST> 8.092565e+01
<STATE> 4
<MEAN> 25
 -4.259613e-01 7.343854e-01 -1.610255e+00 3.235739e+00 6.776221e+00 4.206545e+00 5.237425e+00 3.467282e+00 3.188179e+00 3.548994e+00 1.209648e+00 3.696208e-01 -2.533411e-02 1.495145e-02 8.330142e-03 5.765651e-03 4.381694e-03 1.083604e-03 4.164582e-02 1.617398e-02 2.850787e-02 6.733578e-02 9.010909e-02 -1.920868e-02 -4.509751e-02
<VARIANCE> 25
 2.514074e+00 5.521529e+00 7.323099e+00 8.590847e+00 1.030013e+01 1.104817e+01 1.195480e+01 1.489807e+01 1.247498e+01 1.432684e+01 1.700715e+01 1.204179e+01 1.428365e-01 2.730430e-01 4.440176e-01 4.874254e-01 9.087614e-01 1.003016e+00 1.127630e+00 1.377254e+00 1.495453e+00 1.405479e+00 1.220880e+00 1.101613e+00 7.489727e-02
<GCONST> 6.716425e+01
<TRANSP> 5
 0.000000e+00 1.000000e+00 0.000000e+00 0.000000e+00 0.000000e+00
 0.000000e+00 6.838124e-01 3.161876e-01 0.000000e+00 0.000000e+00
 0.000000e+00 0.000000e+00 8.162791e-01 1.837209e-01 0.000000e+00
 0.000000e+00 0.000000e+00 0.000000e+00 9.410489e-01 5.895105e-02
 0.000000e+00 0.000000e+00 0.000000e+00 0.000000e+00 0.000000e+00
<ENDHMM>
~h "ah"
<BEGINHMM>
<NUMSTATES> 5
<STATE> 2
<MEAN> 25
 3.786343e-01 -1.699301e+00 -3.312708e-01 -3.878052e+00 -5.536326e+00 -3.927150e+00 -2.759622e+00 -1.192035e+00 -6.022286e-01 -3.340856e+00 -2.672656e+00 -6.229419e-01 2.457734e-01 -5.516295e-01 -3.122084e-01 -7.525014e-01 -5.091993e-01 -3.165532e-01 -5.961412e-01 -6.293797e-01 1.053811e-01 2.521836e-02 -3.104660e-01 -3.557630e-01 1.071934e+00
<VARIANCE> 25
 3.696315e+01 2.943375e+01 2.364169e+01 3.986156e+01 4.713382e+01 4.140071e+01 4.988288e+01 4.081027e+01 3.770228e+01 3.675498e+01 3.876376e+01 2.534459e+01 2.773062e+00 1.769593e+00 1.646300e+00 2.311620e+00 3.495949e+00 3.251574e+00 4.421113e+00 4.758585e+00 3.998678e+00 4.308755e+00 3.503141e+00 2.560519e+00 2.664115e+00
<GCONST> 1.035310e+02
<STATE> 3
<MEAN> 25
 1.445337e+00 -5.502646e+00 -2.665407e+00 -6.712447e+00 -4.107455e+00 -1.599468e+00 -3.252193e+00 -4.134029e+00 -1.483087e-01 -1.303404e+00 -4.272467e+00 -4.330336e+00 3.721567e-01 6.418996e-02 1.379096e-01 3.232932e-01 2.815320e-01 5.153378e-01 -2.119318e-01 -9.446566e-02 1.910736e-01 2.411759e-01 -2.083543e-01 -3.553067e-01 -5.622255e-01
<VARIANCE> 25
 1.929264e+01 1.789326e+01 3.310023e+01 3.256744e+01 3.206569e+01 5.448525e+01 4.660956e+01 3.056019e+01 3.784636e+01 3.451058e+01 2.657635e+01 2.742679e+01 1.137090e+00 6.435416e-01 1.289767e+00 1.386742e+00 1.787079e+00 3.669972e+00 2.502174e+00 2.179391e+00 2.388869e+00 2.520026e+00 2.125063e+00 2.085607e+00 1.387226e+00
<GCONST> 9.472485e+01
<STATE> 4
<MEAN> 25
 2.024258e+00 -2.256000e+00 -2.159883e+00 -2.749524e+00 8.053948e-02 1.186136e+00 -2.169616e+00 -2.248217e+00 1.865167e+00 1.076126e+00 -3.733726e+00 -3.562417e+00 -8.275371e-02 4.136338e-01 7.975825e-02 4.179017e-01 5.689328e-01 2.070333e-01 8.281878e-02 1.863180e-01 -1.322047e-01 1.282813e-01 1.597164e-01 1.162403e-01 -6.987831e-01
<VARIANCE> 25
 2.947954e+01 1.800851e+01 2.249217e+01 3.541552e+01 3.992625e+01 5.251318e+01 6.431974e+01 3.143346e+01 2.292259e+01 3.193289e+01 2.712672e+01 2.351026e+01 1.215375e+00 7.247419e-01 8.927002e-01 1.399334e+00 1.684371e+00 2.847235e+00 2.344822e+00 2.316088e+00 2.314019e+00 2.022166e+00 1.966490e+00 1.352448e+00 8.301051e-01
<GCONST> 9.290591e+01
<TRANSP> 5
 0.000000e+00 1.000000e+00 0.000000e+00 0.000000e+00 0.000000e+00
 0.000000e+00 7.379686e-01 2.620314e-01 0.000000e+00 0.000000e+00
 0.000000e+00 0.000000e+00 7.254663e-01 2.745337e-01 0.000000e+00
 0.000000e+00 0.000000e+00 0.000000e+00 6.477628e-01 3.522372e-01
 0.000000e+00 0.000000e+00 0.000000e+00 0.000000e+00 0.000000e+00
<ENDHMM>
~h "ao"
<BEGINHMM>
<NUMSTATES> 5
<STATE> 2
<MEAN> 25
 6.433717e+00 2.163932e+00 -1.169783e+01 -1.769101e+01 3.617057e+00 8.707648e+00 7.231415e+00 -2.780927e+00 -1.148427e+00 2.806412e-03 4.503718e+00 1.678040e+00 1.095363e+00 1.028420e+00 -2.645089e-01 -1.080613e+00 -7.025719e-01 4.247232e-02 4.778468e-01 -6.207006e-01 1.494862e-02 -8.167233e-01 5.602305e-01 4.321750e-01 1.081764e+00
<VARIANCE> 25
 4.547919e+01 4.497728e+01 4.791278e+01 1.247272e+02 4.158732e+01 3.261785e+01 5.607560e+01 4.525217e+01 2.791561e+01 4.215451e+01 3.421596e+01 4.371427e+01 2.646336e+00 2.187794e+00 3.433687e+00 8.577897e+00 3.412286e+00 3.070462e+00 4.846974e+00 5.927752e+00 3.251225e+00 3.269074e+00 3.169262e+00 2.904744e+00 6.020649e+00
<GCONST> 1.089230e+02
<STATE> 3
<MEAN> 25
 7.073843e+00 5.836499e+00 -7.798078e+00 -7.634622e+00 -1.371916e+00 4.034365e+00 5.337078e+00 1.732634e-01 -2.589793e+00 -2.092702e+00 1.221986e+00 -5.788963e-01 -8.374473e-01 -1.023743e+00 -1.010412e-01 5.393693e-01 3.280217e-01 -9.467846e-01 -3.045094e-01 5.971693e-01 -4.677799e-01 6.737819e-01 -2.905657e-01 -1.684924e-01 -1.330915e-01
<VARIANCE> 25
 4.127523e+01 3.985200e+01 2.484378e+01 8.558920e+01 3.197279e+01 4.282380e+01 4.972784e+01 5.526071e+01 8.022647e+01 5.524987e+01 7.817237e+01 2.588213e+01 3.007183e+00 2.564266e+00 3.217273e+00 9.123487e+00 3.833510e+00 6.429856e+00 6.320462e+00 5.096682e+00 7.102873e+00 6.278850e+00 1.032324e+01 3.512443e+00 5.891960e+00
<GCONST> 1.134255e+02
<STATE> 4
<MEAN> 25
 5.955576e-01 -1.952540e-01 -5.451592e+00 -6.093257e+00 3.157465e+00 -5.696858e+00 -4.552594e+00 -1.894756e+00 4.913248e+00 2.676004e+00 3.201626e+00 3.370008e+00 1.706981e+00 1.021943e+00 1.305851e+00 -6.703559e-01 -7.043583e-01 1.806204e-01 -1.659804e+00 -1.518973e+00 9.953535e-01 -6.193278e-01 -3.751981e-01 4.067648e-01 8.128087e-01
<VARIANCE> 25
 7.409151e+01 4.614679e+01 2.289927e+01 2.332811e+01 3.215635e+01 6.804655e+01 5.660596e+01 5.397905e+01 1.384494e+02 3.026267e+01 3.348684e+01 1.363733e+01 6.880804e+00 4.828470e+00 2.053925e+00 3.491691e+00 4.000072e+00 1.031544e+01 3.675250e+00 4.047322e+00 3.091886e+00 2.794592e+00 3.358766e+00 1.583951e+00 3.662483e+00
<GCONST> 1.075639e+02
<TRANSP> 5
 0.000000e+00 1.000000e+00 0.000000e+00 0.000000e+00 0.000000e+00
 0.000000e+00 8.481373e-01 1.518627e-01 0.000000e+00 0.000000e+00
 0.000000e+00 0.000000e+00 8.526394e-01 1.473606e-01 0.000000e+00
 0.000000e+00 0.000000e+00 0.000000e+00 6.926146e-01 3.073854e-01
 0.000000e+00 0.000000e+00 0.000000e+00 0.000000e+00 0.000000e+00
<ENDHMM>
~h "aw"
<BEGINHMM>
<NUMSTATES> 5
<STATE> 2
<MEAN> 25
 -2.004907e+00 -8.890452e+00 -8.833686e+00 -1.070844e+01 -3.763898e-01 5.543801e+00 1.980953e+00 -8.286750e+00 -5.281135e+00 -7.587730e-02 -3.622746e+00 -4.367474e+00 1.095304e-01 -2.429555e-02 8.534977e-02 -7.718015e-02 -9.859803e-02 1.663786e-01 3.012225e-01 -2.252701e-02 -1.115203e-01 -1.198009e-01 1.148332e-01 9.035688e-02 -1.466579e-01
<VARIANCE> 25
 5.818283e+00 3.190837e+00 4.520417e+00 8.770932e+00 1.159571e+01 7.849149e+00 2.053696e+01 1.261390e+01 1.887949e+01 1.335741e+01 6.739172e+00 1.385409e+01 3.788729e-01 2.897134e-01 4.769961e-01 3.836788e-01 5.845272e-01 1.163754e+00 1.254918e+00 1.651453e+00 1.836041e+00 1.602286e+00 8.733520e-01 1.290717e+00 1.042807e-01
<GCONST> 6.805696e+01
<STATE> 3
<MEAN> 25
 5.210909e+00 -2.965205e+00 -1.658755e+00 -6.273099e+00 -3.998505e+00 5.604793e-01 -2.870543e+00 -1.606539e+00 1.262514e+00 -4.338124e-01 -9.377868e-01 -1.038208e+00 2.849053e-01 6.532756e-01 3.373361e-01 7.534547e-01 2.431225e-01 -1.723198e-01 -5.280786e-01 5.141405e-01 3.525967e-01 -5.080098e-02 3.093005e-01 5.227294e-01 -9.257308e-01
<VARIANCE> 25
 1.720364e+01 1.535120e+01 1.475877e+01 4.935982e+01 2.593819e+01 7.704391e+01 7.541689e+01 3.660356e+01 2.574236e+01 2.464659e+01 1.635775e+01 3.086189e+01 1.788765e+00 1.058624e+00 7.213024e-01 1.286317e+00 1.531126e+00 4.887691e+00 5.189212e+00 3.561822e+00 2.078874e+00 2.471917e+00 1.542758e+00 1.505731e+00 1.784424e+00
<GCONST> 9.486640e+01
<STATE> 4
<MEAN> 25
 -1.399576e+00 1.949089e+00 1.589786e-01 4.180740e+00 4.902539e+00 1.897735e+00 3.927782e+00 5.592358e+00 3.121889e+00 3.268612e+00 2.307296e+00 1.300284e+00 -7.451559e-02 2.356676e-02 5.243588e-02 5.812841e-02 9.330281e-02 4.750471e-02 6.519641e-02 -3.369114e-02 1.334172e-02 7.359549e-02 1.866990e-02 -2.581182e-02 -1.137083e-01
<VARIANCE> 25
 1.144390e+01 3.671736e+00 4.092093e+00 1.161395e+01 1.407151e+01 1.422842e+01 1.544046e+01 2.768390e+01 1.780713e+01 1.836449e+01 1.168767e+01 1.106591e+01 5.616830e-01 3.488782e-01 3.858853e-01 7.405391e-01 1.313349e+00 1.175891e+00 1.531248e+00 1.797818e+00 1.599214e+00 1.750618e+00 1.228250e+00 1.221802e+00 3.026239e-01
<GCONST> 7.436092e+01
<TRANSP> 5
 0.000000e+00 1.000000e+00 0.000000e+00 0.000000e+00 0.000000e+00
 0.000000e+00 9.388670e-01 6.113307e-02 0.000000e+00 0.000000e+00
 0.000000e+00 0.000000e+00 9.205235e-01 7.947651e-02 0.000000e+00
 0.000000e+00 0.000000e+00 0.000000e+00 9.673415e-01 3.265844e-02
 0.000000e+00 0.000000e+00 0.000000e+00 0.000000e+00 0.000000e+00
<ENDHMM>
~h "ay"
<BEGINHMM>
<NUMSTATES> 5
<STATE> 2
<MEAN> 25
 -1.252383e+00 -8.937897e+00 -8.314863e+00 -8.090743e+00 1.115819e+00 1.330783e+00 -1.230692e+00 -2.662158e+00 -2.905515e-01 -4.099888e-02 -4.903763e+00 -6.937399e+00 -1.973686e-01 -1.050252e-01 7.310159e-02 2.357680e-01 2.668058e-02 -2.593934e-01 2.954397e-02 2.850306e-01 2.502939e-01 -2.129794e-01 -4.297402e-01 -1.022764e-01 9.706233e-02
<VARIANCE> 25
 5.831956e+00 3.831250e+00 7.431877e+00 1.431570e+01 1.778501e+01 3.117794e+01 2.553413e+01 2.428578e+01 1.932481e+01 1.496447e+01 2.304945e+01 1.928058e+01 3.003386e-01 3.798008e-01 8.944248e-01 5.352650e-01 1.475000e+00 3.385471e+00 1.771335e+00 2.381846e+00 2.035710e+00 1.490740e+00 1.693810e+00 2.590075e+00 9.681200e-02
<GCONST> 7.862643e+01
<STATE> 3
<MEAN> 25
 1.429603e+00 -4.282912e+00 1.319795e+00 -2.579604e+00 -7.076620e+00 -6.289213e+00 -1.429403e+00 9.480439e-01 1.518666e+00 -2.121757e+00 -3.684253e+00 -1.941962e+00 1.982768e-01 7.967846e-01 1.066168e+00 5.910007e-01 -8.216274e-01 1.267951e-01 2.906543e-01 -4.890950e-01 -4.495226e-01 -1.328124e-02 7.433694e-01 8.296656e-01 -1.005537e+00
<VARIANCE> 25
 1.598588e+01 1.465126e+01 2.814522e+01 1.722812e+01 2.773028e+01 3.998671e+01 2.560837e+01 2.112984e+01 2.147326e+01 1.696825e+01 2.102489e+01 1.635324e+01 6.000499e-01 5.806832e-01 2.237527e+00 1.012150e+00 3.557994e+00 3.320676e+00 2.553112e+00 2.212041e+00 2.643957e+00 1.935907e+00 2.569075e+00 2.478240e+00 7.161615e-01
<GCONST> 8.974388e+01
<STATE> 4
<MEAN> 25
 -9.325530e-01 2.013124e+00 1.018815e+00 4.014758e+00 4.501723e+00 2.967032e+00 4.171392e+00 3.375443e+00 2.516269e+00 2.136786e+00 1.964622e+00 1.305376e+00 -1.221117e-01 6.728825e-02 3.526191e-02 2.209913e-02 7.555062e-02 3.761321e-02 4.372848e-02 2.416064e-03 -2.957999e-02 1.150838e-02 1.005164e-01 7.743576e-02 -8.745413e-02
<VARIANCE> 25
 9.901633e+00 7.459690e+00 7.140122e+00 9.450259e+00 2.322471e+01 1.752394e+01 1.297012e+01 2.217718e+01 1.587942e+01 2.225373e+01 1.411188e+01 1.114094e+01 5.331092e-01 4.129514e-01 6.622252e-01 7.734397e-01 8.332950e-01 1.002774e+00 1.244111e+00 1.524672e+00 1.270171e+00 1.728582e+00 1.256577e+00 1.064371e+00 2.255300e-01
<GCONST> 7.492262e+01
<TRANSP> 5
 0.000000e+00 1.000000e+00 0.000000e+00 0.000000e+00 0.000000e+00
 0.000000e+00 9.099386e-01 9.006139e-02 0.000000e+00 0.000000e+00
 0.000000e+00 0.000000e+00 8.494062e-01 1.505938e-01 0.000000e+00
 0.000000e+00 0.000000e+00 0.000000e+00 9.193475e-01 8.065245e-02
 0.000000e+00 0.000000e+00 0.000000e+00 0.000000e+00 0.000000e+00
<ENDHMM>
~h "ch"
<BEGINHMM>
<NUMSTATES> 5
<STATE> 2
<MEAN> 25
 5.320108e+00 1.408486e-01 6.402463e+00 7.649797e+00 -4.615032e+00 -6.101848e+00 -3.097480e+00 -8.193347e-01 -6.670756e+00 7.931892e-01 -3.847600e+00 -1.234989e+00 5.811302e-01 2.146426e-01 7.915254e-01 5.629514e-01 -2.500385e-01 -3.245185e-01 -1.605352e-01 -7.444876e-01 -1.174207e-01 -1.675011e-01 -5.420521e-01 3.477752e-01 6.528427e-02
<VARIANCE> 25
 4.248912e+01 6.968483e+01 7.413992e+01 6.870512e+01 7.702218e+01 6.057469e+01 5.036231e+01 5.427909e+01 7.079209e+01 6.517075e+01 4.265112e+01 5.695758e+01 2.427879e+00 4.278790e+00 4.112956e+00 2.372633e+00 6.113188e+00 7.474438e+00 4.702274e+00 4.956074e+00 4.767102e+00 7.347671e+00 4.595955e+00 5.084393e+00 8.135594e+00
<GCONST> 1.154626e+02
<STATE> 3
<MEAN> 25
 -2.863957e+00 7.792487e-02 6.872833e+00 5.800401e+00 -2.254287e+00 -2.582816e+00 3.646574e+00 -3.987101e+00 -6.641475e+00 -1.739378e+00 -3.906375e+00 5.250904e-01 -2.803982e+00 -1.656709e+00 -1.573486e-01 -4.114580e-01 -1.204910e-01 5.426866e-01 4.099565e-01 1.495816e+00 -2.023575e-01 -5.003677e-01 1.753301e+00 2.731787e-01 2.038596e+00
<VARIANCE> 25
 9.155859e+01 8.577692e+01 5.114516e+01 1.851033e+02 8.028551e+01 3.068643e+01 7.459325e+01 5.905165e+01 9.029511e+01 4.427953e+01 4.924137e+01 4.027306e+01 4.293849e+00 5.584634e+00 3.552159e+00 3.513659e+00 4.661319e+00 3.008518e+00 6.812705e+00 6.039216e+00 5.360963e+00 6.926035e+00 6.076144e+00 3.328409e+00 4.108211e+00
<GCONST> 1.162506e+02
<STATE> 4
<MEAN> 25
 -1.042861e+01 -4.343188e+00 5.079163e+00 1.741359e+00 -3.819017e+00 -4.385221e+00 2.755967e+00 3.645920e+00 -1.150526e+00 -9.213374e-01 4.744382e+00 1.240926e+00 2.976030e-01 -5.581396e-02 -2.219163e-01 8.140685e-02 -1.074320e-01 -2.736187e-01 -1.095881e-01 9.736092e-02 4.171786e-01 1.455373e-01 -3.110204e-02 -4.672919e-02 -3.696877e-01
<VARIANCE> 25
 1.149561e+02 5.025513e+01 2.154942e+01 1.274905e+02 4.499769e+01 3.910044e+01 4.232308e+01 3.372333e+01 5.110168e+01 2.179474e+01 4.926747e+01 5.775957e+01 6.586349e+00 1.563567e+00 1.600284e+00 2.518853e+00 3.105965e+00 3.961957e+00 3.804920e+00 2.511772e+00 3.434418e+00 2.451228e+00 3.341401e+00 2.248133e+00 2.825963e+00
<GCONST> 1.059114e+02
<TRANSP> 5
 0.000000e+00 1.000000e+00 0.000000e+00 0.000000e+00 0.000000e+00
 0.000000e+00 8.602154e-01 1.397846e-01 0.000000e+00 0.000000e+00
 0.000000e+00 0.000000e+00 7.664342e-01 2.335659e-01 0.000000e+00
 0.000000e+00 0.000000e+00 0.000000e+00 9.141055e-01 8.589449e-02
 0.000000e+00 0.000000e+00 0.000000e+00 0.000000e+00 0.000000e+00
<ENDHMM>
~h "dh"
<BEGINHMM>
<NUMSTATES> 5
<STATE> 2
<MEAN> 25
 4.132474e+00 -3.930403e+00 -1.152705e-01 -1.722297e+00 -7.909825e+00 -7.694354e+00 -3.744455e+00 4.111063e+00 6.823382e+00 1.390357e+00 -5.974607e+00 -1.113539e+00 3.843622e-01 5.801941e-02 -4.114993e-01 9.647453e-01 4.075939e-01 8.618437e-02 3.704780e-01 8.103516e-01 1.875716e-01 2.077077e-01 1.458356e-01 3.424263e-01 -6.371073e-01
<VARIANCE> 25
 1.943777e+01 1.129711e+01 8.944090e+00 2.846690e+01 2.388473e+01 1.315794e+01 1.303023e+01 2.682523e+01 1.194951e+01 1.033921e+01 1.492888e+01 1.451067e+01 1.323660e+00 5.420892e-01 7.327890e-01 2.079577e+00 2.174863e+00 2.066961e+00 1.166037e+00 1.291026e+00 1.218212e+00 1.553461e+00 1.213423e+00 1.232605e+00 1.419341e+00
<GCONST> 8.207220e+01
<STATE> 3
<MEAN> 25
 4.157501e+00 7.804560e-01 -1.828087e+00 7.269046e+00 2.621114e+00 -2.052852e+00 8.590965e-01 7.857592e+00 5.190346e+00 8.887050e-01 -3.336529e+00 -1.201284e-02 -7.978315e-01 5.909348e-01 3.175572e-01 -3.130441e-02 1.397612e+00 8.522127e-01 1.057901e+00 -2.732112e-01 -3.563350e-01 -3.910408e-01 1.656748e-01 -1.612960e-01 -1.112562e+00
<VARIANCE> 25
 1.030597e+01 1.009462e+01 1.107581e+01 1.941588e+01 1.960409e+01 1.632768e+01 1.775019e+01 2.380756e+01 1.991037e+01 1.098746e+01 1.734980e+01 1.810691e+01 3.561379e-01 3.140751e-01 6.546212e-01 1.351812e+00 8.978653e-01 1.172894e+00 8.998265e-01 8.889533e-01 1.323826e+00 1.194419e+00 1.317527e+00 1.978489e+00 3.297487e-01
<GCONST> 7.673788e+01
<STATE> 4
<MEAN> 25
 -1.636698e+00 2.390679e+00 -4.892738e-01 4.415669e+00 6.911133e+00 4.484193e+00 6.405131e+00 4.481980e+00 2.287745e+00 3.881015e+00 2.052133e+00 6.352583e-01 -7.901029e-02 -1.383204e-02 -1.125814e-02 -5.363000e-02 1.322176e-04 6.337008e-02 3.216953e-02 -1.656601e-02 -4.582215e-02 1.020413e-01 1.424341e-01 4.577767e-02 -4.697052e-02
<VARIANCE> 25
 1.818247e+00 3.641786e+00 5.373296e+00 7.220773e+00 7.360275e+00 8.425106e+00 9.956694e+00 1.201871e+01 1.100361e+01 1.360285e+01 1.215752e+01 1.018827e+01 1.043305e-01 1.762108e-01 3.023365e-01 6.058052e-01 6.785913e-01 8.990147e-01 1.055602e+00 1.123445e+00 1.112663e+00 1.427193e+00 1.094993e+00 1.044442e+00 3.713724e-02
<GCONST> 6.152160e+01
<TRANSP> 5
 0.000000e+00 1.000000e+00 0.000000e+00 0.000000e+00 0.000000e+00
 0.000000e+00 8.802171e-01 1.197829e-01 0.000000e+00 0.000000e+00
 0.000000e+00 0.000000e+00 8.223734e-01 1.776266e-01 0.000000e+00
 0.000000e+00 0.000000e+00 0.000000e+00 9.685796e-01 3.142028e-02
 0.000000e+00 0.000000e+00 0.000000e+00 0.000000e+00 0.000000e+00
<ENDHMM>
~h "eh"
<BEGINHMM>
<NUMSTATES> 5
<STATE> 2
<MEAN> 25
 5.106031e-01 -1.064104e+00 2.463681e+00 -1.244356e+00 -4.046748e+00 -5.647997e+00 -1.809719e+00 -4.923925e-01 -1.116033e+00 -2.480009e+00 -1.918636e+00 8.364167e-01 1.135099e+00 -1.122395e+00 1.088891e-01 -1.465687e+00 -1.945641e+00 -1.848029e+00 -9.264745e-01 -2.431310e-01 5.820521e-01 -2.629192e-01 -2.625170e-01 1.496577e-01 2.424198e+00
<VARIANCE> 25
 6.957376e+01 2.485114e+01 3.447618e+01 2.551748e+01 4.414952e+01 5.988286e+01 5.397491e+01 5.836742e+01 3.109825e+01 3.138039e+01 3.840541e+01 2.315393e+01 8.091298e+00 2.123741e+00 3.506462e+00 2.150156e+00 3.987065e+00 3.519049e+00 5.343697e+00 5.031868e+00 5.186035e+00 3.563420e+00 3.674436e+00 2.474433e+00 2.043157e+00
<GCONST> 1.064265e+02
<STATE> 3
<MEAN> 25
 -2.438126e-01 -5.087860e+00 -3.451109e-01 -5.344409e+00 -7.264038e+00 -9.705234e+00 -1.070464e+00 1.135565e+00 4.124135e+00 -1.453010e+00 -3.858348e+00 -5.442281e-01 -5.862973e-01 -6.393749e-01 -4.641600e-01 -3.396737e-01 1.677040e-01 -2.492586e-01 1.014338e+00 8.836923e-01 4.809908e-01 -3.974535e-01 -9.003487e-01 -7.360204e-02 6.444401e-01
<VARIANCE> 25
 1.449520e+01 1.000833e+01 3.369441e+01 2.025188e+01 2.930522e+01 4.081635e+01 2.508895e+01 2.151673e+01 2.218273e+01 2.348137e+01 3.678856e+01 2.305708e+01 6.577826e-01 6.322384e-01 1.129325e+00 9.464225e-01 1.885065e+00 1.650944e+00 2.185681e+00 2.056125e+00 2.036550e+00 2.463407e+00 2.661193e+00 1.519461e+00 6.438616e-01
<GCONST> 8.822343e+01
<STATE> 4
<MEAN> 25
 -3.356536e-01 -6.612052e+00 -1.891133e+00 -4.776751e+00 -5.127241e+00 -5.167634e+00 -1.064438e+00 6.392239e-01 2.881927e+00 -4.199591e+00 -7.076007e+00 -2.980489e+00 2.974905e-01 1.237360e-02 1.980994e-01 3.878064e-02 -1.252262e-01 4.933855e-01 -3.451065e-02 -1.273080e-01 -1.859176e-01 1.606105e-01 2.673133e-01 -9.442820e-02 -3.833610e-01
<VARIANCE> 25
 1.508985e+01 7.945252e+00 2.989662e+01 2.063839e+01 3.819101e+01 4.471333e+01 2.606215e+01 2.545110e+01 2.229116e+01 2.497338e+01 3.156507e+01 2.746159e+01 9.877372e-01 4.186687e-01 1.032073e+00 6.638216e-01 1.040422e+00 2.106948e+00 2.143974e+00 1.803352e+00 1.593774e+00 2.347354e+00 2.254114e+00 1.672985e+00 9.165867e-01
<GCONST> 8.762103e+01
<TRANSP> 5
 0.000000e+00 1.000000e+00 0.000000e+00 0.000000e+00 0.000000e+00
 0.000000e+00 6.593723e-01 3.406276e-01 0.000000e+00 0.000000e+00
 0.000000e+00 0.000000e+00 5.368139e-01 4.631861e-01 0.000000e+00
 0.000000e+00 0.000000e+00 0.000000e+00 8.347683e-01 1.652317e-01
 0.000000e+00 0.000000e+00 0.000000e+00 0.000000e+00 0.000000e+00
<ENDHMM>
~h "er"
<BEGINHMM>
<NUMSTATES> 5
<STATE> 2
<MEAN> 25
 -2.182824e-01 -4.649660e-01 5.645124e+00 1.179577e+00 -4.718782e+00 -5.537664e+00 -2.367873e+00 2.818678e+00 -1.465119e+00 -4.882690e+00 2.747197e+00 2.411065e+00 3.093034e-01 -8.116412e-01 -1.976862e-01 -6.308606e-02 -2.187261e-01 -7.453601e-01 -9.610290e-01 -1.596128e-01 -8.824322e-02 -2.601636e-01 -9.029946e-02 -2.919705e-01 4.129505e-01
<VARIANCE> 25
 3.950314e+01 2.960211e+01 5.816091e+01 3.107808e+01 7.582430e+01 6.209346e+01 3.330067e+01 3.561913e+01 3.097653e+01 4.043234e+01 4.536275e+01 1.916501e+01 4.842350e+00 2.314317e+00 3.039544e+00 3.399858e+00 6.338102e+00 4.384903e+00 3.371528e+00 4.449768e+00 2.913759e+00 2.929122e+00 6.662033e+00 2.291405e+00 5.028248e+00
<GCONST> 1.072167e+02
<STATE> 3
<MEAN> 25
 1.471495e+00 -4.836123e+00 4.147385e-01 1.894519e+00 -1.656240e+00 -4.354914e+00 -6.144379e+00 9.818659e-01 -1.112374e+00 -1.516481e+00 -4.342424e-01 -1.128526e+00 5.629924e-01 3.666300e-01 -1.625323e+00 2.860148e-01 -1.555658e-01 1.707147e+00 4.795775e-03 -8.244265e-01 5.985071e-01 7.523758e-01 -2.660276e-01 -7.293100e-01 -9.678807e-01
<VARIANCE> 25
 4.331598e+01 3.344325e+01 4.198223e+01 5.173761e+01 4.383296e+01 5.753103e+01 3.861459e+01 5.168638e+01 3.944358e+01 4.212606e+01 8.269943e+01 2.050093e+01 1.303720e+00 2.091274e+00 2.016858e+00 2.521276e+00 2.890573e+00 4.461143e+00 2.900488e+00 3.136699e+00 2.608454e+00 3.782815e+00 3.186200e+00 2.164030e+00 3.669096e+00
<GCONST> 1.041057e+02
<STATE> 4
<MEAN> 25
 4.882444e+00 -3.346950e+00 -5.367139e+00 3.353884e+00 -2.029295e+00 -2.450351e+00 -5.855661e+00 -5.512837e-01 2.459682e+00 1.117042e+00 -2.218515e+00 -5.079898e-01 -1.584106e-01 1.885397e-01 -1.939690e-01 3.739055e-01 6.394193e-01 2.418469e-01 4.579908e-01 1.315547e-01 1.685678e-01 1.185224e-01 -3.173821e-01 3.352059e-02 -6.684924e-01
<VARIANCE> 25
 4.279541e+01 1.991774e+01 2.945415e+01 5.770665e+01 5.241928e+01 6.401460e+01 4.606842e+01 3.211269e+01 2.345010e+01 2.397081e+01 6.501095e+01 2.550728e+01 1.067500e+00 7.961500e-01 1.459888e+00 2.017262e+00 1.621216e+00 2.431070e+00 2.206858e+00 2.220814e+00 1.724841e+00 1.927801e+00 1.912421e+00 1.600658e+00 7.353349e-01
<GCONST> 9.518745e+01
<TRANSP> 5
 0.000000e+00 1.000000e+00 0.000000e+00 0.000000e+00 0.000000e+00
 0.000000e+00 7.324539e-01 2.675461e-01 0.000000e+00 0.000000e+00
 0.000000e+00 0.000000e+00 5.360800e-01 4.639200e-01 0.000000e+00
 0.000000e+00 0.000000e+00 0.000000e+00 8.091207e-01 1.908794e-01
 0.000000e+00 0.000000e+00 0.000000e+00 0.000000e+00 0.000000e+00
<ENDHMM>
~h "ey"
<BEGINHMM>
<NUMSTATES> 5
<STATE> 2
<MEAN> 25
 -3.664348e+00 -2.964075e+00 3.712461e+00 -4.978989e+00 -1.189125e+01 -8.054230e+00 -2.764483e+00 -6.466002e+00 -1.280913e+00 -2.398586e+00 5.230820e-01 1.531873e+00 -1.042808e-01 3.618958e-01 6.041763e-01 3.251580e-02 -2.852229e-01 3.981603e-01 -6.613502e-02 -7.235985e-01 -4.857532e-01 -7.552656e-02 2.279669e-01 -6.725220e-02 -1.327531e-01
<VARIANCE> 25
 3.313753e+00 6.623053e+00 1.932323e+01 9.161421e+00 1.374780e+01 1.704616e+01 3.869425e+01 5.277321e+01 2.417786e+01 2.301978e+01 3.143225e+01 1.394141e+01 2.823678e-01 3.681402e-01 8.979145e-01 8.435043e-01 9.754096e-01 1.082099e+00 2.154362e+00 2.677908e+00 2.090380e+00 2.195260e+00 2.237293e+00 1.575631e+00 3.031408e-01
<GCONST> 8.054972e+01
<STATE> 3
<MEAN> 25
 8.802132e-02 1.687172e+00 1.091466e+01 -9.951674e-01 -1.142631e+01 -3.894404e-01 -3.968963e+00 -7.575067e+00 -5.243479e+00 -4.306459e+00 1.352048e+00 -3.063110e-01 4.799497e-01 3.548078e-01 -1.119066e-01 6.653557e-01 7.158812e-01 6.966637e-01 1.118166e-01 7.417056e-01 1.230365e-01 2.199064e-01 -2.535997e-02 -7.807328e-02 -1.263579e+00
<VARIANCE> 25
 1.696958e+01 1.322405e+01 2.905133e+01 1.868092e+01 2.967696e+01 3.264058e+01 2.931709e+01 2.513668e+01 2.755084e+01 3.929803e+01 1.837530e+01 1.313750e+01 1.276695e+00 1.185217e+00 2.798867e+00 1.666744e+00 2.639177e+00 2.737001e+00 2.307358e+00 2.282662e+00 2.187232e+00 2.732346e+00 2.500457e+00 1.531632e+00 1.052436e+00
<GCONST> 9.238384e+01
<STATE> 4
<MEAN> 25
 -1.101110e+00 1.989039e+00 -7.528319e-01 3.311125e+00 4.454275e+00 3.146569e+00 4.110607e+00 2.608967e+00 1.082607e+00 3.216515e+00 9.707009e-01 9.977440e-01 -3.187979e-02 -6.180206e-03 -1.746565e-01 5.914545e-03 2.632372e-01 5.488903e-03 1.400050e-01 2.174772e-01 1.156757e-01 5.726679e-02 1.020530e-02 1.946319e-03 -1.398157e-01
<VARIANCE> 25
 1.429839e+01 6.210759e+00 2.195225e+01 1.550322e+01 2.519427e+01 2.510761e+01 2.138708e+01 2.799830e+01 1.996351e+01 2.002135e+01 2.402048e+01 1.766991e+01 6.899638e-01 4.735656e-01 7.003129e-01 9.280513e-01 1.249248e+00 1.476120e+00 1.233834e+00 1.977580e+00 1.561506e+00 1.443800e+00 1.146710e+00 1.237369e+00 4.080858e-01
<GCONST> 8.137048e+01
<TRANSP> 5
 0.000000e+00 1.000000e+00 0.000000e+00 0.000000e+00 0.000000e+00
 0.000000e+00 8.920764e-01 1.079236e-01 0.000000e+00 0.000000e+00
 0.000000e+00 0.000000e+00 8.290418e-01 1.709581e-01 0.000000e+00
 0.000000e+00 0.000000e+00 0.000000e+00 9.078905e-01 9.210946e-02
 0.000000e+00 0.000000e+00 0.000000e+00 0.000000e+00 0.000000e+00
<ENDHMM>
~h "hh"
<BEGINHMM>
<NUMSTATES> 5
<STATE> 2
<MEAN> 25
 -6.173589e-01 -1.071975e+00 -5.646765e-01 -4.349883e-01 -1.116559e+00 -6.644985e-01 -5.766878e-01 -2.329885e-01 -1.796850e+00 -4.488731e+00 -4.102132e-01 1.888920e+00 -4.678297e-02 -2.909984e-01 -2.397100e-01 -7.511770e-02 -1.717962e-01 6.695345e-03 4.873591e-01 -3.970932e-01 -2.418550e-01 -4.978130e-01 -7.637584e-01 -1.963447e-01 7.028788e-01
<VARIANCE> 25
 1.981845e+01 2.424763e+01 2.134213e+01 2.000595e+01 2.250581e+01 4.406198e+01 7.353864e+01 7.691238e+01 3.160412e+01 3.665216e+01 5.237983e+01 3.440157e+01 6.722440e-01 1.038278e+00 9.531618e-01 1.597150e+00 1.485411e+00 2.141814e+00 3.312374e+00 3.124621e+00 1.845003e+00 2.287017e+00 3.133476e+00 2.845879e+00 2.308909e+00
<GCONST> 9.628932e+01
<STATE> 3
<MEAN> 25
 -5.558858e-01 5.063916e-01 -1.391969e+00 1.392931e+00 -1.435535e+00 -8.469705e-03 5.296066e-01 -2.675073e+00 -5.426939e+00 -3.826285e+00 -5.838923e+00 -3.897400e+00 -1.968365e-02 -1.275053e-01 -2.019232e-02 1.033058e-01 3.084171e-01 1.138406e-01 2.688796e-01 2.014029e-01 9.603544e-02 3.648959e-01 1.856619e-01 1.870886e-01 -1.738452e-01
<VARIANCE> 25
 5.657709e+01 3.269352e+01 1.824833e+01 3.141421e+01 2.001909e+01 2.957478e+01 2.353113e+01 5.089511e+01 5.072479e+01 8.113159e+01 2.691297e+01 4.148296e+01 3.675558e-01 8.694035e-01 4.941365e-01 8.571557e-01 1.076418e+00 1.782265e+00 1.420809e+00 1.456527e+00 1.637279e+00 1.742221e+00 1.592979e+00 2.885713e+00 5.637308e-01
<GCONST> 9.001241e+01
<STATE> 4
<MEAN> 25
 -5.233745e-01 2.659274e+00 1.357980e+00 5.141679e+00 4.583765e+00 2.930124e+00 3.446576e+00 1.742743e+00 1.008821e+00 2.617025e+00 7.888210e-01 4.346925e-01 -9.018458e-02 -1.692294e-01 -1.030431e-01 -5.364998e-02 -4.095943e-04 -1.029091e-02 9.226925e-02 2.342316e-01 9.658605e-02 1.472659e-01 8.253452e-02 6.636328e-02 -2.483748e-02
<VARIANCE> 25
 1.093358e+01 1.242887e+01 9.819555e+00 1.202113e+01 9.990505e+00 1.171793e+01 1.787255e+01 2.461614e+01 2.063466e+01 2.284249e+01 2.420970e+01 1.178035e+01 1.491191e-01 3.508219e-01 3.983658e-01 4.628460e-01 6.195698e-01 9.528089e-01 1.484742e+00 1.811054e+00 1.545581e+00 1.542641e+00 1.654383e+00 1.192845e+00 1.352973e-01
<GCONST> 7.365726e+01
<TRANSP> 5
 0.000000e+00 1.000000e+00 0.000000e+00 0.000000e+00 0.000000e+00
 0.000000e+00 8.033570e-01 1.966430e-01 0.000000e+00 0.000000e+00
 0.000000e+00 0.000000e+00 8.152105e-01 1.847895e-01 0.000000e+00
 0.000000e+00 0.000000e+00 0.000000e+00 8.882058e-01 1.117942e-01
 0.000000e+00 0.000000e+00 0.000000e+00 0.000000e+00 0.000000e+00
<ENDHMM>
~h "ih"
<BEGINHMM>
<NUMSTATES> 5
<STATE> 2
<MEAN> 25
 -4.465007e+00 1.982830e+00 2.638994e+00 -4.014983e-02 6.339924e-01 -2.715172e+00 -1.607906e+00 -1.414769e+00 -8.085493e-01 -2.163311e+00 5.714283e-01 2.048625e+00 9.957402e-01 5.676569e-01 2.276674e+00 -9.237828e-01 -2.172801e+00 -1.538640e+00 -1.269382e+00 -1.304591e+00 -1.336394e+00 -1.559051e+00 6.697689e-01 -1.633699e-01 2.123308e+00
<VARIANCE> 25
 6.278057e+01 3.287251e+01 6.766074e+01 4.034982e+01 3.976526e+01 5.129953e+01 4.863660e+01 4.679324e+01 5.246503e+01 3.591273e+01 3.358838e+01 3.205691e+01 6.259977e+00 3.294350e+00 6.027929e+00 4.311902e+00 4.680577e+00 4.383959e+00 6.270476e+00 4.952279e+00 5.219986e+00 4.902439e+00 5.150228e+00 3.386737e+00 3.964447e+00
<GCONST> 1.115848e+02
<STATE> 3
<MEAN> 25
 2.151467e+00 2.265120e+00 7.004381e+00 -2.715964e+00 -6.754509e+00 -4.450948e+00 -5.806849e+00 -4.442636e+00 -4.531180e+00 -5.460364e+00 6.553242e-01 5.605447e-01 2.571493e-01 -1.774593e-01 -1.630393e-02 -6.608378e-01 -6.729295e-01 3.419033e-01 3.449390e-01 -3.385605e-01 -8.667994e-02 -2.543612e-01 -6.906558e-01 -4.859968e-01 5.551800e-01
<VARIANCE> 25
 2.495941e+01 3.675209e+01 6.307393e+01 3.886058e+01 2.906503e+01 2.911580e+01 5.141872e+01 5.675441e+01 5.168904e+01 3.953679e+01 6.068708e+01 5.198457e+01 2.788297e+00 2.231936e+00 2.901736e+00 4.553792e+00 3.299143e+00 3.011565e+00 3.804448e+00 4.870549e+00 3.671179e+00 3.731853e+00 4.306830e+00 3.185331e+00 3.411908e+00
<GCONST> 1.070599e+02
<STATE> 4
<MEAN> 25
 6.796547e-01 1.806076e+00 7.859660e+00 -1.024534e+00 -8.581989e+00 -2.026347e+00 -3.616710e+00 -7.602744e+00 -5.671504e+00 -5.558951e+00 -1.697672e+00 -9.438983e-01 3.318132e-02 1.562373e-01 -2.076541e-01 4.030410e-01 5.318009e-01 4.885126e-01 3.118546e-01 1.522930e-01 1.700555e-01 5.161387e-01 -2.596246e-01 -1.793167e-01 -8.338730e-01
<VARIANCE> 25
 2.047960e+01 1.432480e+01 3.858221e+01 3.568581e+01 4.084594e+01 2.620360e+01 2.664796e+01 5.350492e+01 2.923402e+01 3.884602e+01 3.348046e+01 2.547422e+01 1.242394e+00 8.833581e-01 2.393618e+00 1.735233e+00 2.723713e+00 1.818104e+00 2.045821e+00 2.999824e+00 2.368083e+00 2.584429e+00 2.543815e+00 1.954675e+00 1.914419e+00
<GCONST> 9.587365e+01
<TRANSP> 5
 0.000000e+00 1.000000e+00 0.000000e+00 0.000000e+00 0.000000e+00
 0.000000e+00 6.376310e-01 3.623690e-01 0.000000e+00 0.000000e+00
 0.000000e+00 0.000000e+00 6.156579e-01 3.843422e-01 0.000000e+00
 0.000000e+00 0.000000e+00 0.000000e+00 8.675628e-01 1.324372e-01
 0.000000e+00 0.000000e+00 0.000000e+00 0.000000e+00 0.000000e+00
<ENDHMM>
~h "iy"
<BEGINHMM>
<NUMSTATES> 5
<STATE> 2
<MEAN> 25
 -9.819793e-01 3.440122e+00 5.360141e+00 2.013880e+00 8.441854e-01 -8.000472e-01 -1.661980e+00 -1.845674e+00 -3.185852e+00 -1.494735e+00 -1.352932e+00 -1.167226e+00 4.576521e-01 8.694792e-01 1.681714e+00 -3.359570e-01 -8.386604e-01 -9.884307e-01 -1.022229e+00 -1.099940e+00 -1.140238e+00 -1.276597e+00 1.206175e-01 -1.141707e-01 8.260194e-01
<VARIANCE> 25
 6.730663e+01 3.988524e+01 6.382578e+01 3.493143e+01 6.832887e+01 3.374098e+01 5.842378e+01 4.010153e+01 4.231351e+01 3.898145e+01 6.150507e+01 3.626321e+01 7.704433e+00 3.093399e+00 6.330715e+00 5.015936e+00 6.462114e+00 4.581636e+00 6.341763e+00 5.442008e+00 3.350005e+00 4.866065e+00 6.622340e+00 4.518277e+00 4.636076e+00
<GCONST> 1.134542e+02
<STATE> 3
<MEAN> 25
 -5.968693e+00 2.539465e+00 1.120622e+01 -3.833652e+00 -6.685737e-01 -6.699489e+00 -1.138129e+00 -9.669268e-01 -4.650256e+00 -2.012771e+00 1.067588e+00 3.115232e+00 8.628268e-01 3.415256e-01 1.236090e+00 -3.929550e-01 -2.270688e+00 -7.144440e-01 -2.730690e-01 -4.398018e-01 -7.080462e-01 -5.815332e-01 7.526941e-01 2.101468e-01 1.111681e+00
<VARIANCE> 25
 7.557079e+01 3.519027e+01 6.740394e+01 3.216187e+01 7.404578e+01 3.807345e+01 3.044690e+01 3.830060e+01 3.640157e+01 2.967634e+01 3.255966e+01 3.431897e+01 1.140116e+01 4.052365e+00 3.581112e+00 4.247477e+00 8.247437e+00 4.946662e+00 3.836698e+00 4.141756e+00 4.002030e+00 2.906778e+00 3.319513e+00 4.347159e+00 2.520176e+00
<GCONST> 1.096005e+02
<STATE> 4
<MEAN> 25
 1.848401e+00 4.673454e+00 1.095417e+01 1.286734e+00 -9.930375e+00 -4.697661e+00 -1.136248e+00 -3.409726e+00 -5.550484e+00 -4.115418e+00 3.182721e+00 1.586560e+00 2.837354e-02 7.726529e-02 -5.195398e-01 4.504451e-01 4.619007e-01 3.529071e-01 5.059796e-02 -2.074535e-01 1.387815e-01 2.259198e-01 -2.763795e-01 -1.687395e-01 -7.147914e-01
<VARIANCE> 25
 1.523883e+01 2.276659e+01 3.557224e+01 4.731216e+01 4.844096e+01 5.769453e+01 2.974713e+01 4.052262e+01 3.834978e+01 3.943452e+01 4.419777e+01 3.393666e+01 1.232945e+00 1.155384e+00 2.288472e+00 2.077770e+00 4.301674e+00 3.343706e+00 2.173976e+00 3.005457e+00 2.428478e+00 2.431476e+00 2.867520e+00 2.533180e+00 2.015160e+00
<GCONST> 9.980453e+01
<TRANSP> 5
 0.000000e+00 1.000000e+00 0.000000e+00 0.000000e+00 0.000000e+00
 0.000000e+00 6.226094e-01 3.773906e-01 0.000000e+00 0.000000e+00
 0.000000e+00 0.000000e+00 6.269991e-01 3.730008e-01 0.000000e+00
 0.000000e+00 0.000000e+00 0.000000e+00 8.952066e-01 1.047934e-01
 0.000000e+00 0.000000e+00 0.000000e+00 0.000000e+00 0.000000e+00
<ENDHMM>
~h "jh"
<BEGINHMM>
<NUMSTATES> 5
<STATE> 2
<MEAN> 25
 -1.977930e+00 -1.513831e+00 6.242396e+00 -1.924597e+00 -1.045965e+01 -3.143677e+00 -2.718062e-01 -7.353760e+00 -7.546412e+00 -7.323537e+00 -2.445195e+00 -8.393702e+00 5.241796e-01 2.578113e-01 5.449763e-01 5.369566e-01 -4.551675e-01 1.022635e+00 -4.254387e-01 -6.474015e-02 3.513822e-03 1.347093e-01 -2.177266e-01 1.560804e-01 -7.598734e-01
<VARIANCE> 25
 1.916812e+01 4.762814e+00 2.748936e+01 1.163600e+01 3.695576e+01 4.338079e+01 3.036291e+01 2.171288e+01 1.761271e+01 2.066039e+01 1.482210e+01 4.264716e+01 1.448424e+00 6.164563e-01 1.323308e+00 9.358894e-01 4.636741e+00 2.317417e+00 1.983943e+00 1.835368e+00 2.589442e+00 3.416265e+00 1.244917e+00 2.669741e+00 1.069775e+00
<GCONST> 8.966158e+01
<STATE> 3
<MEAN> 25
 -1.075953e+00 -2.632664e+00 4.410133e-01 -4.421408e+00 -6.897314e+00 -4.203929e+00 -7.206196e+00 -1.007860e+01 -6.623177e+00 -4.798789e+00 4.638397e-02 4.471274e-01 -4.911516e-02 -8.511243e-02 -5.065734e-01 -1.695828e-01 2.673657e-01 -9.482824e-01 -9.523568e-02 3.253096e-01 3.131355e-01 4.352690e-01 5.236107e-01 -1.355006e-01 3.279514e-01
<VARIANCE> 25
 2.207756e+01 2.411757e+01 3.116681e+01 1.117933e+01 2.146455e+01 2.192301e+01 6.132000e+00 2.874940e+01 1.633631e+01 1.630276e+01 1.058734e+01 1.387040e+01 2.736356e+00 1.323032e+00 1.216393e+00 5.805480e-01 4.499774e+00 1.630589e+00 1.106007e+00 3.312137e+00 1.808345e+00 1.979936e+00 1.695668e+00 2.045089e+00 1.401577e+00
<GCONST> 8.706466e+01
<STATE> 4
<MEAN> 25
 -1.363279e+00 -7.727348e-01 4.617964e+00 -2.984862e+00 -8.186531e+00 -2.780312e+00 -6.182431e+00 -6.380124e+00 -5.608517e+00 -6.572731e+00 -1.706742e+00 1.990076e-01 1.124977e-01 1.389841e-01 5.283870e-01 4.768922e-01 5.753544e-02 3.120699e-01 -1.188657e-01 2.961239e-01 4.909092e-01 -1.903356e-01 -4.469638e-01 4.159213e-02 -3.108278e-01
<VARIANCE> 25
 3.162667e+01 1.948796e+01 3.634152e+01 1.893194e+01 2.254221e+01 3.040834e+01 1.783191e+01 2.214614e+01 1.718438e+01 2.200174e+01 1.879667e+01 8.862206e+00 4.483994e+00 2.071852e+00 4.999098e+00 1.988563e+00 3.347873e+00 3.915966e+00 1.158936e+00 2.064015e+00 2.147616e+00 3.793209e+00 2.137982e+00 1.104125e+00 3.268371e+00
<GCONST> 9.457584e+01
<TRANSP> 5
 0.000000e+00 1.000000e+00 0.000000e+00 0.000000e+00 0.000000e+00
 0.000000e+00 7.625260e-01 2.374740e-01 0.000000e+00 0.000000e+00
 0.000000e+00 0.000000e+00 8.701363e-01 1.298637e-01 0.000000e+00
 0.000000e+00 0.000000e+00 0.000000e+00 9.214168e-01 7.858327e-02
 0.000000e+00 0.000000e+00 0.000000e+00 0.000000e+00 0.000000e+00
<ENDHMM>
~h "ng"
<BEGINHMM>
<NUMSTATES> 5
<STATE> 2
<MEAN> 25
 -4.360693e-01 -8.855121e+00 -5.807007e+00 -4.439065e+00 2.998397e+00 -2.983913e-01 -5.028537e+00 -6.371395e+00 8.139292e-01 2.371296e-01 -5.459740e+00 -6.965183e+00 3.181772e-01 2.427321e-01 4.886138e-01 1.721787e-01 -2.256885e-01 1.374639e-01 -5.931241e-01 -3.676623e-01 1.226155e-01 6.906021e-02 2.014607e-01 1.446652e-01 -3.916480e-01
<VARIANCE> 25
 8.726768e+00 8.254324e+00 2.916534e+01 1.071302e+01 2.892173e+01 4.487744e+01 2.488881e+01 1.390587e+01 2.485994e+01 3.040527e+01 2.113294e+01 1.714979e+01 8.877279e-01 4.909664e-01 1.317721e+00 5.625923e-01 1.624589e+00 2.692630e+00 1.505358e+00 1.437264e+00 2.268549e+00 2.480759e+00 1.410045e+00 1.266736e+00 4.132292e-01
<GCONST> 8.404623e+01
<STATE> 3
<MEAN> 25
 6.777035e+00 7.330737e-01 7.177107e+00 -1.724795e+00 -6.499760e+00 2.440155e+00 -8.368874e+00 -7.666042e+00 -1.755923e+00 -2.631599e+00 -4.268844e+00 -1.878305e+00 5.471229e-01 7.410070e-01 8.939512e-02 4.497789e-01 2.455776e-02 1.225314e-01 6.023046e-01 2.650027e-02 -4.911655e-01 -1.055762e-02 1.353628e-01 3.634752e-01 -1.069512e+00
<VARIANCE> 25
 8.098078e+00 9.500456e+00 1.368187e+01 1.034650e+01 1.313354e+01 1.531973e+01 2.007113e+01 1.489215e+01 1.875886e+01 1.753583e+01 9.187543e+00 1.407556e+01 6.418064e-01 3.187736e-01 1.192351e+00 8.114188e-01 1.764385e+00 1.874732e+00 1.825998e+00 1.204429e+00 1.164265e+00 1.318956e+00 9.212102e-01 1.415222e+00 4.536780e-01
<GCONST> 7.717364e+01
<STATE> 4
<MEAN> 25
 3.120155e+00 2.967704e+00 1.414482e+00 5.497468e+00 4.426333e+00 1.956584e+00 2.908653e+00 1.508855e+00 -2.550088e-01 2.383318e+00 8.716444e-01 1.609871e+00 -5.369157e-01 -9.228581e-02 -3.327942e-01 2.647879e-01 6.682236e-01 8.304671e-02 4.714140e-01 6.869833e-01 2.407737e-01 2.999227e-01 2.499250e-01 2.013943e-01 -4.476472e-01
<VARIANCE> 25
 1.996668e+01 1.720654e+01 1.110636e+01 8.340466e+00 2.458402e+01 1.850095e+01 2.493284e+01 5.321226e+01 2.478182e+01 2.182051e+01 1.596850e+01 8.892836e+00 9.252625e-01 1.231051e+00 6.373104e-01 1.035890e+00 1.493244e+00 1.237547e+00 1.685876e+00 3.011102e+00 1.674806e+00 1.473607e+00 1.159030e+00 1.070224e+00 1.200905e+00
<GCONST> 8.412969e+01
<TRANSP> 5
 0.000000e+00 1.000000e+00 0.000000e+00 0.000000e+00 0.000000e+00
 0.000000e+00 9.002550e-01 9.974504e-02 0.000000e+00 0.000000e+00
 0.000000e+00 0.000000e+00 8.925456e-01 1.074545e-01 0.000000e+00
 0.000000e+00 0.000000e+00 0.000000e+00 9.205015e-01 7.949859e-02
 0.000000e+00 0.000000e+00 0.000000e+00 0.000000e+00 0.000000e+00
<ENDHMM>
~h "ow"
<BEGINHMM>
<NUMSTATES> 5
<STATE> 2
<MEAN> 25
 3.817366e+00 -5.291317e+00 -3.706332e+00 -8.886139e+00 -5.602549e+00 -5.093176e+00 -2.037615e+00 -1.693689e+00 -3.011331e-01 7.633062e-02 1.569896e+00 -9.340610e-02 3.033969e-01 4.232988e-02 1.080457e-02 4.636936e-02 5.962016e-02 1.187299e-01 9.837577e-02 1.134033e-02 -1.535825e-01 -1.737532e-02 1.533351e-01 2.451707e-01 -1.463635e-01
<VARIANCE> 25
 4.288429e+00 5.477932e+00 3.448425e+00 7.923165e+00 8.695947e+00 1.286941e+01 3.351951e+01 2.225464e+01 2.041856e+01 2.278810e+01 1.041669e+01 1.872429e+01 4.319317e-01 3.550165e-01 3.468257e-01 4.737836e-01 8.260806e-01 1.224534e+00 1.366215e+00 1.350734e+00 1.566233e+00 1.275083e+00 7.488508e-01 1.227247e+00 5.483681e-01
<GCONST> 7.210920e+01
<STATE> 3
<MEAN> 25
 8.897099e+00 1.174186e+00 -2.076001e+00 -4.261349e+00 -2.334491e+00 3.776698e+00 -1.956592e+00 -3.735600e+00 -1.998953e+00 -5.195747e-02 1.728984e+00 2.138869e+00 -1.062220e-01 7.811248e-01 2.109215e-01 9.005807e-01 7.373233e-01 7.484673e-01 4.134500e-01 8.779760e-03 -3.776047e-02 -7.355449e-02 -2.427984e-01 -8.678174e-03 -1.524344e+00
<VARIANCE> 25
 7.768515e+00 1.672958e+01 7.307508e+00 2.228065e+01 1.993374e+01 3.755814e+01 3.096278e+01 2.305750e+01 1.756549e+01 2.610342e+01 2.439070e+01 2.394567e+01 1.184498e+00 8.046497e-01 7.153608e-01 1.173013e+00 1.262132e+00 3.388807e+00 2.971682e+00 2.222449e+00 1.865400e+00 1.829392e+00 2.080875e+00 1.546732e+00 4.726909e-01
<GCONST> 8.635854e+01
<STATE> 4
<MEAN> 25
 2.885957e-01 2.086764e+00 -3.270577e-01 3.862242e+00 4.441664e+00 2.862554e+00 3.281292e+00 2.550709e+00 1.344629e+00 2.870903e+00 2.891444e+00 1.477894e+00 -1.759620e-01 -7.916461e-02 1.904037e-02 8.517210e-02 6.916508e-02 -3.901151e-02 1.724525e-02 1.666804e-01 1.479355e-01 7.361700e-02 -1.263702e-02 -4.337981e-02 -9.238547e-02
<VARIANCE> 25
 5.005541e+00 3.660088e+00 4.872509e+00 6.638023e+00 1.037784e+01 1.297230e+01 1.305552e+01 1.562303e+01 1.541755e+01 1.234946e+01 1.119624e+01 9.677833e+00 1.806777e-01 3.046119e-01 4.796490e-01 6.195174e-01 8.550394e-01 1.248263e+00 1.151835e+00 1.268907e+00 1.388250e+00 1.236002e+00 1.138700e+00 9.856287e-01 8.570933e-02
<GCONST> 6.701630e+01
<TRANSP> 5
 0.000000e+00 1.000000e+00 0.000000e+00 0.000000e+00 0.000000e+00
 0.000000e+00 9.179217e-01 8.207834e-02 0.000000e+00 0.000000e+00
 0.000000e+00 0.000000e+00 8.796716e-01 1.203285e-01 0.000000e+00
 0.000000e+00 0.000000e+00 0.000000e+00 9.488172e-01 5.118282e-02
 0.000000e+00 0.000000e+00 0.000000e+00 0.000000e+00 0.000000e+00
<ENDHMM>
~h "oy"
<BEGINHMM>
<NUMSTATES> 5
<STATE> 2
<MEAN> 25
 9.871032e-01 6.052587e-01 1.421153e+00 5.965096e+00 5.187660e+00 5.125572e+00 5.438349e+00 2.850349e+00 4.031688e+00 3.582172e+00 1.481282e+00 6.167917e-01 8.297811e-02 -1.534540e-02 2.323899e-02 7.570532e-02 -1.357843e-01 9.954097e-02 4.083560e-02 -6.513248e-02 1.030732e-01 -1.845261e-02 -6.599314e-02 1.436201e-02 -8.352015e-02
<VARIANCE> 25
 1.040577e+00 2.793966e+00 4.277013e+00 4.611574e+00 8.440404e+00 9.724466e+00 1.072552e+01 1.156447e+01 1.129895e+01 1.249464e+01 1.129827e+01 1.057696e+01 1.527009e-01 3.188844e-01 4.047118e-01 6.398331e-01 8.999714e-01 1.128684e+00 1.088297e+00 1.528020e+00 1.233043e+00 1.428895e+00 1.389328e+00 1.093329e+00 7.547139e-02
<GCONST> 6.350893e+01
<STATE> 3
<MEAN> 25
 -5.515960e+00 1.288169e+00 -2.567243e-01 3.688767e+00 2.784100e+00 2.286013e+00 2.231391e-01 5.008099e+00 6.551023e+00 -1.557787e+00 8.649353e-01 3.740452e+00 4.573223e-01 -8.729062e-02 -1.301789e+00 -1.595114e+00 -6.515073e-01 -8.872111e-01 -1.937254e+00 -9.256750e-01 -8.946618e-01 -8.850623e-01 3.075004e-01 1.253882e-02 1.900576e+00
<VARIANCE> 25
 4.684191e+01 3.512110e+00 7.245679e+00 1.013832e+01 1.271739e+01 6.984599e+01 2.400855e+01 1.083955e+01 2.767594e+01 2.880870e+01 9.265187e+00 2.007698e+01 6.860419e+00 5.271230e-01 2.772553e+00 4.374543e+00 1.771458e+00 7.300675e+00 7.797914e+00 2.707354e+00 6.515962e+00 2.515305e+00 2.445471e+00 1.766720e+00 2.954728e+00
<GCONST> 9.433863e+01
<STATE> 4
<MEAN> 25
 5.997039e+00 -4.020614e+00 -1.072691e+00 -6.009954e+00 -7.988105e+00 -4.685665e+00 -6.938332e+00 -5.274229e+00 -4.187185e+00 -3.716347e+00 -2.953699e-02 8.055537e-01 -1.069355e-04 -1.437037e-01 5.636079e-01 -5.887504e-02 -5.216141e-01 -3.923680e-01 -1.273300e-01 -1.730006e-01 -4.298644e-01 -2.605345e-01 -7.906895e-02 3.370036e-03 4.185154e-01
<VARIANCE> 25
 1.144611e+01 1.376719e+01 4.097425e+01 1.801370e+01 3.221869e+01 3.217846e+01 3.802935e+01 3.112198e+01 2.685783e+01 2.379989e+01 2.185234e+01 1.206387e+01 1.072485e+00 1.494755e+00 2.154190e+00 2.574375e+00 2.565649e+00 2.325754e+00 3.646077e+00 2.227290e+00 3.313218e+00 3.023405e+00 1.726379e+00 1.587283e+00 1.972204e+00
<GCONST> 9.372298e+01
<TRANSP> 5
 0.000000e+00 1.000000e+00 0.000000e+00 0.000000e+00 0.000000e+00
 0.000000e+00 9.579355e-01 4.206452e-02 0.000000e+00 0.000000e+00
 0.000000e+00 0.000000e+00 7.753153e-01 2.246847e-01 0.000000e+00
 0.000000e+00 0.000000e+00 0.000000e+00 9.530321e-01 4.696793e-02
 0.000000e+00 0.000000e+00 0.000000e+00 0.000000e+00 0.000000e+00
<ENDHMM>
~h "sh"
<BEGINHMM>
<NUMSTATES> 5
<STATE> 2
<MEAN> 25
 4.679387e+00 -4.867678e+00 1.100451e+01 -4.769724e+00 -1.083868e+01 -1.227060e+01 4.016631e+00 7.499057e+00 -5.114506e+00 2.429236e+00 2.782661e+00 5.649536e+00 -7.208050e-01 7.430474e-01 6.404328e-01 3.641799e-01 2.030107e-01 7.232842e-01 -1.613284e-01 -4.161969e-02 -4.436712e-01 -2.019296e-01 6.168292e-01 -1.365674e-01 -4.336828e-01
<VARIANCE> 25
 1.754488e+01 2.601311e+01 2.110671e+01 1.294620e+01 1.781117e+01 3.512106e+01 2.315235e+01 1.920644e+01 2.571583e+01 1.829758e+01 2.175991e+01 2.471568e+01 1.242332e+00 7.165774e-01 1.244460e+00 8.894306e-01 1.972380e+00 1.781830e+00 1.511846e+00 1.822203e+00 1.980577e+00 1.780551e+00 9.513304e-01 1.902295e+00 6.168696e-01
<GCONST> 8.628391e+01
<STATE> 3
<MEAN> 25
 -1.464517e+01 1.542234e+00 1.280832e+01 1.252166e+00 -4.430233e+00 -1.957012e+00 1.285342e+00 3.212610e+00 -6.654854e-01 -4.265113e+00 2.150871e+00 1.178380e+00 -1.014163e+00 -5.467513e-01 -2.632601e-01 2.245100e-01 -2.936830e-02 1.227094e-02 2.046483e-01 1.042086e-01 1.032097e+00 5.228929e-02 -5.175300e-02 2.921880e-01 3.186355e-02
<VARIANCE> 25
 3.248501e+01 1.690657e+01 4.258953e+01 2.070161e+01 2.512460e+01 2.861437e+01 2.654305e+01 1.954834e+01 2.229720e+01 2.227398e+01 1.551203e+01 2.006451e+01 3.804991e+00 7.159009e-01 1.103070e+00 1.755164e+00 2.237788e+00 2.451328e+00 2.985657e+00 2.119367e+00 1.777669e+00 2.033202e+00 2.225505e+00 1.512903e+00 1.148977e+00
<GCONST> 9.166270e+01
<STATE> 4
<MEAN> 25
 -1.010967e+01 -3.516240e+00 4.686716e+00 2.189638e+00 -3.274626e+00 -5.025102e-01 2.682411e+00 4.187316e+00 4.103837e+00 1.280766e-01 -1.137102e-01 6.104233e-01 8.270070e-01 -6.803872e-02 -8.221197e-01 -7.494246e-02 3.744024e-01 3.783266e-01 -9.896835e-02 -3.449500e-01 -6.187649e-02 -1.263519e-02 -4.654971e-01 -2.569379e-01 -8.803278e-01
<VARIANCE> 25
 5.229212e+01 2.386730e+01 4.212432e+01 1.493159e+01 3.806555e+01 3.775110e+01 2.286123e+01 2.409114e+01 1.961039e+01 3.696999e+01 3.586300e+01 2.097460e+01 2.636885e+00 8.772356e-01 2.391334e+00 1.298316e+00 1.776343e+00 2.620662e+00 1.878987e+00 1.765259e+00 1.675643e+00 2.536474e+00 2.343314e+00 1.666478e+00 1.725566e+00
<GCONST> 9.437452e+01
<TRANSP> 5
 0.000000e+00 1.000000e+00 0.000000e+00 0.000000e+00 0.000000e+00
 0.000000e+00 8.378393e-01 1.621606e-01 0.000000e+00 0.000000e+00
 0.000000e+00 0.000000e+00 8.924096e-01 1.075904e-01 0.000000e+00
 0.000000e+00 0.000000e+00 0.000000e+00 8.983353e-01 1.016647e-01
 0.000000e+00 0.000000e+00 0.000000e+00 0.000000e+00 0.000000e+00
<ENDHMM>
~h "sp"
<BEGINHMM>
<NUMSTATES> 3
<STATE> 2
~s "silst"
<TRANSP> 3
 0.000000e+00 2.995624e-01 7.004377e-01
 0.000000e+00 7.428492e-01 2.571509e-01
 0.000000e+00 0.000000e+00 0.000000e+00
<ENDHMM>
~h "th"
<BEGINHMM>
<NUMSTATES> 5
<STATE> 2
<MEAN> 25
 2.849420e+00 5.551109e+00 1.005118e+00 2.378687e-02 -1.664183e+00 -6.209641e-01 -7.115749e+00 -4.086090e+00 -5.656464e+00 -4.267598e+00 1.351228e+00 -5.225243e-01 -1.226198e+00 7.910164e-01 -2.286910e-01 4.212413e-01 1.073814e+00 1.135643e-01 7.556494e-01 2.653571e-01 -3.884864e-01 1.961510e-01 8.708020e-02 5.500159e-01 -4.237845e-01
<VARIANCE> 25
 3.356216e+01 1.795875e+01 3.830003e+01 1.887276e+01 4.007674e+01 2.028980e+01 4.118411e+01 5.707286e+01 2.858711e+01 3.218689e+01 1.867229e+01 2.587300e+01 3.710620e+00 1.486740e+00 1.286494e+00 1.229227e+00 1.840680e+00 1.677249e+00 1.729266e+00 9.824288e-01 2.117691e+00 2.724736e+00 1.764875e+00 1.978474e+00 8.141553e-01
<GCONST> 9.302048e+01
<STATE> 3
<MEAN> 25
 -5.839182e+00 4.747020e+00 -1.015479e+00 3.330757e+00 5.009426e+00 -5.007519e-01 1.811738e+00 3.976675e+00 -2.245591e+00 3.671874e-01 2.632682e+00 3.013107e+00 2.165810e-01 -4.097838e-01 2.845050e-01 1.686989e-02 1.291286e-01 2.442327e-01 4.297495e-01 5.859762e-01 6.035030e-01 3.400408e-02 7.167481e-02 5.729478e-02 -4.353664e-01
<VARIANCE> 25
 4.626838e+01 3.040581e+01 9.276320e+00 1.387364e+01 1.776210e+01 1.235277e+01 1.550301e+01 4.426767e+01 3.078924e+01 1.691569e+01 2.212178e+01 1.006072e+01 1.164165e+00 9.841827e-01 9.151506e-01 1.609188e+00 1.312831e+00 1.213298e+00 1.803785e+00 2.291035e+00 2.081284e+00 1.476835e+00 2.131832e+00 1.301140e+00 4.664958e-01
<GCONST> 8.542447e+01
<STATE> 4
<MEAN> 25
 1.314667e-01 1.964001e+00 3.960596e-01 4.325424e+00 5.734379e+00 3.712701e+00 4.449931e+00 3.667445e+00 2.319054e+00 3.511077e+00 3.829883e+00 1.487029e+00 -3.358757e-02 -2.143025e-02 -2.319331e-02 -3.626895e-02 1.286414e-03 6.184090e-02 -7.503217e-03 2.853285e-03 5.505310e-02 9.016047e-02 6.327919e-02 -2.787955e-02 -6.668147e-02
<VARIANCE> 25
 2.428410e+00 2.964474e+00 4.259482e+00 6.023027e+00 8.303555e+00 1.197421e+01 1.120938e+01 1.221584e+01 1.658723e+01 1.553617e+01 1.211458e+01 1.012118e+01 3.219123e-01 2.659764e-01 3.210658e-01 4.641533e-01 7.576318e-01 1.145917e+00 1.253746e+00 1.072403e+00 1.744980e+00 1.574998e+00 9.852375e-01 1.083209e+00 1.322828e-01
<GCONST> 6.589182e+01
<TRANSP> 5
 0.000000e+00 1.000000e+00 0.000000e+00 0.000000e+00 0.000000e+00
 0.000000e+00 7.377003e-01 2.622997e-01 0.000000e+00 0.000000e+00
 0.000000e+00 0.000000e+00 8.647833e-01 1.352166e-01 0.000000e+00
 0.000000e+00 0.000000e+00 0.000000e+00 9.595875e-01 4.041254e-02
 0.000000e+00 0.000000e+00 0.000000e+00 0.000000e+00 0.000000e+00
<ENDHMM>
~h "uh"
<BEGINHMM>
<NUMSTATES> 5
<STATE> 2
<MEAN> 25
 5.069182e+00 9.198265e-01 -1.665619e+00 -4.018927e+00 -5.362525e+00 -2.452620e+00 -8.774497e+00 -9.490496e+00 -8.215324e+00 -3.701417e+00 2.431705e+00 1.441126e-01 1.231286e-01 4.778740e-01 3.921084e-01 -1.528865e-01 3.674420e-01 5.859877e-01 3.412257e-01 -1.131284e-01 2.546304e-02 -8.405572e-02 -4.290005e-02 1.582370e-02 -9.040595e-01
<VARIANCE> 25
 6.962244e+00 1.804894e+01 8.305271e+00 2.513642e+01 2.602179e+01 5.328961e+01 2.214242e+01 1.496149e+01 1.903088e+01 1.041992e+01 1.445447e+01 1.743461e+01 6.517980e-01 7.983289e-01 8.416957e-01 1.444583e+00 2.085046e+00 3.942369e+00 1.833415e+00 1.996006e+00 2.453914e+00 9.606014e-01 2.335631e+00 2.190596e+00 1.637345e+00
<GCONST> 8.590775e+01
<STATE> 3
<MEAN> 25
 2.855619e+00 4.562227e+00 3.722355e+00 -5.670173e-01 4.329482e-01 3.688102e-01 -3.078539e+00 -5.473196e+00 -4.355697e+00 -2.001540e+00 -3.626471e-01 -6.810976e-01 -6.498737e-01 -2.090563e-01 -9.698361e-02 4.246654e-01 1.535269e-01 -5.144066e-01 8.942869e-01 1.530622e+00 9.985695e-01 7.562786e-01 -8.086474e-02 2.221630e-01 -4.468081e-01
<VARIANCE> 25
 6.832953e+00 1.017503e+01 1.451731e+01 2.030178e+01 5.914499e+00 3.106222e+01 4.811319e+01 5.570888e+01 1.603804e+01 8.721377e+00 5.872967e+00 8.391560e+00 2.055530e-01 5.561776e-01 3.349676e-01 1.506132e+00 1.221744e+00 2.035652e+00 1.637497e+00 2.745295e+00 1.039861e+00 8.637554e-01 6.156610e-01 2.059413e+00 6.130177e-01
<GCONST> 7.702197e+01
<STATE> 4
<MEAN> 25
 -1.269475e+00 1.729491e+00 1.997980e+00 3.082707e+00 3.228875e+00 2.048058e-01 3.271699e+00 3.970925e+00 3.185084e+00 5.307456e+00 4.323527e+00 1.014339e+00 -6.229653e-02 -1.403279e-02 3.723458e-02 1.776852e-01 1.056099e-01 -1.259727e-01 -2.359268e-02 1.795242e-01 1.091583e-01 4.069486e-02 1.391282e-02 -8.612612e-02 -4.478847e-03
<VARIANCE> 25
 2.402323e+00 2.774052e+00 4.078276e+00 7.740329e+00 9.001156e+00 1.195456e+01 1.483554e+01 1.959496e+01 1.928622e+01 1.633723e+01 1.273584e+01 1.093213e+01 2.285866e-01 3.283092e-01 3.454355e-01 6.731057e-01 8.229321e-01 8.637533e-01 9.715663e-01 2.259237e+00 1.474432e+00 1.557500e+00 1.468366e+00 9.678204e-01 4.196463e-02
<GCONST> 6.674377e+01
<TRANSP> 5
 0.000000e+00 1.000000e+00 0.000000e+00 0.000000e+00 0.000000e+00
 0.000000e+00 8.843821e-01 1.156179e-01 0.000000e+00 0.000000e+00
 0.000000e+00 0.000000e+00 6.595209e-01 3.404791e-01 0.000000e+00
 0.000000e+00 0.000000e+00 0.000000e+00 9.380968e-01 6.190327e-02
 0.000000e+00 0.000000e+00 0.000000e+00 0.000000e+00 0.000000e+00
<ENDHMM>
~h "uw"
<BEGINHMM>
<NUMSTATES> 5
<STATE> 2
<MEAN> 25
 5.904861e+00 -9.923151e-02 -1.484324e+00 -2.934631e+00 -6.279276e+00 -4.033954e+00 -9.564696e+00 -1.013918e+01 -8.387280e+00 -4.991060e+00 5.645918e-01 -7.717803e-01 2.170238e-01 1.749014e-01 5.767332e-02 -1.209367e-03 4.970277e-02 4.123849e-01 9.755176e-02 -2.688051e-01 1.504258e-01 -1.226626e-02 2.505866e-02 9.264059e-02 -1.921098e-01
<VARIANCE> 25
 1.359450e+01 1.791019e+01 1.658487e+01 2.528606e+01 2.387252e+01 3.666852e+01 2.168004e+01 3.060895e+01 2.618579e+01 4.495240e+01 2.902487e+01 2.487994e+01 6.738774e-01 1.059736e+00 1.031658e+00 1.775101e+00 2.257775e+00 2.530569e+00 1.710160e+00 2.151799e+00 2.614975e+00 2.173235e+00 2.059725e+00 1.954295e+00 1.203289e+00
<GCONST> 9.103528e+01
<STATE> 3
<MEAN> 25
 7.367480e+00 3.819808e+00 1.693714e+00 -3.416663e+00 -4.262392e+00 3.440146e+00 -8.360238e+00 -1.117626e+01 -3.609816e+00 -1.845866e+00 3.541860e+00 1.573132e+00 -3.081088e-01 8.065762e-02 5.153439e-01 5.434673e-01 7.841155e-01 4.038533e-01 4.337048e-01 5.629200e-01 9.303316e-01 7.483633e-02 -5.874971e-01 5.253217e-01 -9.656441e-01
<VARIANCE> 25
 3.220160e+01 2.055176e+01 1.809928e+01 3.895759e+01 2.424262e+01 8.587901e+01 3.986996e+01 7.853462e+01 4.433595e+01 3.189013e+01 2.873002e+01 4.113988e+01 6.990749e-01 1.003167e+00 1.515372e+00 1.333478e+00 2.621583e+00 3.469951e+00 3.779513e+00 2.777629e+00 2.424718e+00 2.949308e+00 2.267335e+00 2.578357e+00 1.175595e+00
<GCONST> 9.782200e+01
<STATE> 4
<MEAN> 25
 9.369959e-01 3.284760e-01 -1.694600e+00 1.042857e+00 1.932883e+00 3.761435e+00 -1.559147e+00 -1.617403e+00 1.121575e+00 1.599220e-01 -2.752269e+00 -2.946293e-01 -4.542004e-01 -1.566925e-01 -1.092247e-01 3.924626e-02 5.434595e-01 1.346236e-01 3.440554e-01 7.184249e-01 1.992888e-01 -1.252458e-02 -3.462687e-01 -1.606661e-01 -1.589404e-01
<VARIANCE> 25
 2.036612e+01 2.021260e+01 3.432634e+01 2.722110e+01 2.404613e+01 3.346525e+01 3.595205e+01 4.138799e+01 3.537880e+01 2.634792e+01 3.453833e+01 2.794813e+01 6.939870e-01 5.582802e-01 1.309121e+00 7.511699e-01 2.334184e+00 2.137952e+00 1.883335e+00 2.032214e+00 1.785932e+00 1.707449e+00 1.369637e+00 1.379573e+00 3.684449e-01
<GCONST> 8.925011e+01
<TRANSP> 5
 0.000000e+00 1.000000e+00 0.000000e+00 0.000000e+00 0.000000e+00
 0.000000e+00 8.308533e-01 1.691466e-01 0.000000e+00 0.000000e+00
 0.000000e+00 0.000000e+00 5.349892e-01 4.650109e-01 0.000000e+00
 0.000000e+00 0.000000e+00 0.000000e+00 7.170765e-01 2.829235e-01
 0.000000e+00 0.000000e+00 0.000000e+00 0.000000e+00 0.000000e+00
<ENDHMM>
~h "zh"
<BEGINHMM>
<NUMSTATES> 5
<STATE> 2
<MEAN> 25
 -5.173855e+00 8.664263e-01 3.560954e+00 -4.828719e+00 -7.601476e+00 -2.816412e+00 -2.863350e+00 -6.370964e+00 -3.615530e+00 -3.919375e+00 9.273223e-01 5.352331e-01 -5.871042e-01 6.539809e-01 3.574964e-01 1.334752e-01 4.379667e-01 5.792274e-01 -5.985612e-02 1.479507e-01 -2.020998e-01 -3.064995e-01 -2.044801e-01 2.228913e-01 -1.789492e-01
<VARIANCE> 25
 8.458549e+00 1.437867e+01 1.288409e+01 8.394122e+00 1.382977e+01 2.463246e+01 2.682897e+01 3.184876e+01 2.109526e+01 2.683198e+01 2.528439e+01 2.164079e+01 4.656118e-01 4.085742e-01 1.004355e+00 8.566357e-01 1.482442e+00 9.855542e-01 2.471255e+00 2.350254e+00 2.063240e+00 2.429605e+00 2.220541e+00 2.751083e+00 9.711360e-02
<GCONST> 8.207455e+01
<STATE> 3
<MEAN> 25
 -6.197754e+00 2.420628e-01 3.489361e+00 -2.275416e+00 -3.139063e+00 -3.567498e+00 -1.354042e+00 -1.242682e+00 -6.853051e-01 -3.844813e+00 -1.502764e+00 2.432393e+00 6.464269e-01 -6.932955e-01 -4.189269e-01 6.171215e-02 -1.513143e-01 -2.221075e-01 -5.438064e-02 1.847287e-01 4.187622e-01 4.172918e-01 -1.512242e-01 -1.610843e-01 -1.250630e-01
<VARIANCE> 25
 4.066301e+01 3.396655e+01 2.259271e+01 9.485270e+00 2.876040e+01 2.321218e+01 2.269476e+01 1.922703e+01 2.307207e+01 2.756301e+01 1.624629e+01 2.163714e+01 1.009151e+00 6.753611e-01 7.371174e-01 8.533314e-01 1.434574e+00 2.015161e+00 1.094319e+00 1.718702e+00 1.699884e+00 1.498573e+00 1.615934e+00 1.782433e+00 4.296928e-01
<GCONST> 8.543903e+01
<STATE> 4
<MEAN> 25
 2.400712e+00 1.879245e-02 -4.511655e+00 2.107631e+00 5.773905e+00 4.458485e+00 3.286313e+00 4.438538e+00 3.893981e+00 4.781854e+00 1.588905e+00 -2.477269e-01 -4.872681e-02 1.785737e-01 -1.713585e-02 1.049642e-01 2.737671e-01 2.556110e-01 1.576113e-01 9.503741e-02 -9.937941e-02 4.857294e-02 1.431930e-01 -1.461813e-02 -4.042534e-01
<VARIANCE> 25
 1.829995e+01 1.112971e+01 8.479280e+00 1.811329e+01 2.411153e+01 2.329637e+01 2.336171e+01 2.042020e+01 1.533545e+01 1.731008e+01 2.760718e+01 1.174234e+01 4.934849e-01 6.065543e-01 5.628667e-01 8.753029e-01 1.276002e+00 1.427173e+00 1.468481e+00 1.558775e+00 1.524200e+00 1.996051e+00 1.812573e+00 1.053095e+00 4.092733e-01
<GCONST> 8.053825e+01
<TRANSP> 5
 0.000000e+00 1.000000e+00 0.000000e+00 0.000000e+00 0.000000e+00
 0.000000e+00 9.040211e-01 9.597889e-02 0.000000e+00 0.000000e+00
