~o
<STREAMINFO> 1 25
<VECSIZE> 25<NULLD><MFCC_D_N_Z_0><DIAGC>
~s "silst"
<MEAN> 25
 -1.445894e+00 -3.203533e-01 -7.432640e-01 2.659562e+00 4.092672e+00 2.095474e+00 9.017757e-01 2.600764e+00 -9.749162e-02 1.224918e+00 -1.201189e+00 -4.222535e-01 4.601291e-01 -3.146550e-02 4.260144e-02 -8.198813e-01 -9.993411e-01 -5.640001e-01 -8.581464e-01 -5.267750e-01 -6.997687e-01 -7.635158e-01 -6.382564e-01 -3.617692e-01 1.340760e+00
<VARIANCE> 25
 2.976053e+01 4.477236e+01 3.076709e+01 3.324496e+01 3.992823e+01 4.157527e+01 3.348366e+01 4.274777e+01 3.256260e+01 3.137021e+01 3.420027e+01 2.388910e+01 2.693345e+00 3.682165e+00 3.348092e+00 3.561774e+00 4.393372e+00 4.909147e+00 3.346690e+00 4.340822e+00 3.346056e+00 3.531412e+00 3.483245e+00 2.560551e+00 4.546794e+00
<GCONST> 1.050799e+02
~h "b"
<BEGINHMM>
<NUMSTATES> 5
<STATE> 2
<MEAN> 25
 -1.745876e+00 -4.661269e-01 -7.581332e+00 3.002599e+00 4.563476e+00 6.717862e+00 2.579980e+00 -1.053352e+00 2.002640e+00 3.385637e+00 -6.233138e+00 -2.761183e+00 -3.610808e-02 9.456825e-02 -1.263695e-01 -1.010080e-02 2.117314e-01 1.695268e-01 8.528260e-02 9.072256e-02 1.086778e-01 6.734388e-02 2.484465e-02 7.865560e-02 -7.856263e-02
<VARIANCE> 25
 1.832315e+01 1.932949e+01 2.338394e+01 1.140873e+01 1.245168e+01 1.736153e+01 2.680806e+01 2.189519e+01 2.613212e+01 2.660203e+01 1.938475e+01 1.584509e+01 3.616136e-01 7.654691e-01 9.750722e-01 1.178809e+00 1.089993e+00 1.573130e+00 1.576638e+00 1.572039e+00 1.962428e+00 1.859423e+00 1.233024e+00 1.268397e+00 2.026025e-01
<GCONST> 8.187261e+01
<STATE> 3
<MEAN> 25
 3.359995e+00 4.887466e+00 -2.179879e+00 5.826860e+00 6.145843e+00 6.323379e+00 2.831513e+00 -2.895756e+00 -6.134720e-01 3.325298e+00 -5.301160e+00 -2.796603e+00 6.465271e-01 -6.023951e-01 1.004891e+00 3.078791e-01 -8.293107e-01 -2.163096e+00 -1.239357e+00 9.372403e-02 -3.273216e-01 -4.361855e-01 1.013795e+00 8.463619e-01 2.456393e+00
<VARIANCE> 25
 2.426799e+01 4.381932e+01 3.067101e+01 4.074929e+01 2.123079e+01 2.457226e+01 2.682877e+01 2.237469e+01 2.510722e+01 3.018960e+01 2.614609e+01 1.571137e+01 3.005941e+00 6.616800e+00 5.895677e+00 4.277446e+00 2.879426e+00 5.045090e+00 2.686022e+00 2.900960e+00 3.634875e+00 3.018304e+00 5.002411e+00 2.272867e+00 3.592031e+00
<GCONST> 1.024020e+02
<STATE> 4
<MEAN> 25
 2.824712e+00 -6.807574e-02 6.042734e+00 -2.648833e-01 -3.739609e+00 -4.444956e+00 -4.325134e-01 -3.619057e-01 -1.275500e+00 -1.582836e+00 3.198997e-01 -2.629476e-01 2.671064e-02 -1.092450e+00 5.833945e-01 -2.221925e+00 -2.405445e+00 -1.380341e+00 -1.107060e-01 3.359150e-01 -4.910766e-01 -7.120266e-01 9.281109e-01 2.666473e-01 3.292410e+00
<VARIANCE> 25
 2.084338e+01 3.039541e+01 8.360620e+01 9.344498e+01 4.734537e+01 6.171093e+01 3.721436e+01 2.546352e+01 4.906102e+01 4.451530e+01 2.620792e+01 2.148277e+01 3.241743e+00 5.715673e+00 7.753464e+00 7.407120e+00 3.794122e+00 1.170562e+01 4.852958e+00 3.896202e+00 4.066767e+00 3.935247e+00 5.445174e+00 2.320937e+00 7.400084e+00
<GCONST> 1.112318e+02
<TRANSP> 5
 0.000000e+00 1.000000e+00 0.000000e+00 0.000000e+00 0.000000e+00
 0.000000e+00 8.829790e-01 1.170210e-01 0.000000e+00 0.000000e+00
 0.000000e+00 0.000000e+00 5.991273e-01 4.008727e-01 0.000000e+00
 0.000000e+00 0.000000e+00 0.000000e+00 6.581700e-01 3.418300e-01
 0.000000e+00 0.000000e+00 0.000000e+00 0.000000e+00 0.000000e+00
<ENDHMM>
~h "d"
<BEGINHMM>
<NUMSTATES> 5
<STATE> 2
<MEAN> 25
 2.209004e+00 -1.923868e+00 6.368075e-03 -1.393027e+00 1.307192e+00 -5.449711e-01 -2.563492e+00 1.259898e+00 -4.108397e-01 2.345068e+00 9.883404e-01 -1.503558e+00 6.697078e-01 -4.251139e-01 -8.375278e-03 -1.375143e+00 -1.142150e+00 -8.702239e-01 -2.311538e-01 -7.687504e-01 -1.624382e-01 3.154264e-01 4.407035e-01 -2.536588e-01 2.478040e+00
<VARIANCE> 25
 3.292606e+01 4.022761e+01 5.631288e+01 6.969356e+01 4.182404e+01 6.334565e+01 4.524080e+01 4.824260e+01 3.466466e+01 2.180185e+01 6.191446e+01 2.007504e+01 3.546458e+00 4.445931e+00 8.966509e+00 5.301711e+00 3.940384e+00 7.149727e+00 5.899715e+00 7.868705e+00 5.582429e+00 2.625081e+00 4.155398e+00 2.379393e+00 7.817987e+00
<GCONST> 1.115621e+02
<STATE> 3
<MEAN> 25
 1.063575e+01 -5.526392e+00 -1.126860e+01 -3.025414e+00 -3.794338e+00 1.686638e+00 -3.379988e+00 2.801686e+00 1.420264e+00 1.045322e+00 1.305308e+01 -3.328644e+00 2.941342e-01 -5.793175e-02 -2.626372e-01 7.373711e-01 4.691655e-01 -2.449938e-01 -3.556455e-01 5.119657e-01 2.002418e-01 -4.949719e-01 -6.183220e-01 4.626883e-01 -4.641945e-01
<VARIANCE> 25
 3.607595e+01 2.892503e+01 4.749230e+01 4.149884e+01 2.334118e+01 4.193528e+01 8.884234e+01 6.535706e+01 3.495342e+01 2.748949e+01 1.100608e+02 4.974638e+01 7.029528e-01 8.292350e-01 2.179617e+00 1.781974e+00 2.382922e+00 2.818432e+00 4.990653e+00 3.056363e+00 2.341139e+00 2.250454e+00 5.224349e+00 4.201997e+00 1.373831e+00
<GCONST> 1.020271e+02
<STATE> 4
<MEAN> 25
 4.208126e+00 -9.395386e-02 -6.996639e+00 2.571552e+00 6.299689e+00 1.324291e+00 -1.190658e+00 6.900528e-01 2.063737e+00 4.336618e+00 -3.927113e+00 -2.690189e+00 -9.289187e-01 2.918542e-01 2.856601e-01 -6.800344e-01 3.350666e-01 2.187713e-01 6.335665e-01 -2.922969e-01 -3.285689e-01 5.481246e-01 -4.036278e-01 -5.149894e-01 -4.606819e-01
<VARIANCE> 25
 3.568663e+01 2.414971e+01 3.383563e+01 5.726140e+01 3.926508e+01 4.758023e+01 5.084585e+01 4.174279e+01 3.294226e+01 4.851312e+01 4.500649e+01 2.851144e+01 3.047543e+00 2.510184e+00 3.128096e+00 3.390275e+00 3.959046e+00 3.965713e+00 3.785803e+00 3.844302e+00 3.161460e+00 3.957210e+00 4.582591e+00 3.156569e+00 3.362589e+00
<GCONST> 1.062405e+02
<TRANSP> 5
 0.000000e+00 1.000000e+00 0.000000e+00 0.000000e+00 0.000000e+00
 0.000000e+00 5.947549e-01 4.052451e-01 0.000000e+00 0.000000e+00
 0.000000e+00 0.000000e+00 7.460015e-01 2.539985e-01 0.000000e+00
 0.000000e+00 0.000000e+00 0.000000e+00 7.649741e-01 2.350259e-01
 0.000000e+00 0.000000e+00 0.000000e+00 0.000000e+00 0.000000e+00
<ENDHMM>
~h "f"
<BEGINHMM>
<NUMSTATES> 5
<STATE> 2
<MEAN> 25
 -2.828006e+00 2.886413e+00 -9.362669e-01 2.195574e+00 1.752146e+00 -1.144458e+00 4.785819e-01 3.603023e+00 -3.137663e+00 -8.710809e-01 1.127337e+00 7.639056e-01 -4.301775e-01 -5.428902e-01 -1.141936e-01 -6.309582e-02 3.817874e-01 -2.832710e-01 1.923832e-01 7.616083e-01 5.823538e-01 1.465642e-01 1.511628e-01 7.625883e-03 1.245461e-01
<VARIANCE> 25
 3.595993e+01 1.745068e+01 1.749671e+01 3.197731e+01 1.900325e+01 2.573787e+01 1.015793e+01 3.993798e+01 2.502032e+01 1.602869e+01 1.361019e+01 1.370511e+01 8.527047e-01 9.300840e-01 9.138734e-01 1.236588e+00 1.802275e+00 1.989686e+00 1.092823e+00 2.105665e+00 2.009612e+00 1.646012e+00 1.079516e+00 1.463250e+00 8.977762e-01
<GCONST> 8.568309e+01
<STATE> 3
<MEAN> 25
 2.596889e+00 -5.045882e+00 -4.462628e+00 -6.029959e+00 -4.150594e+00 -2.911993e+00 1.054029e+00 3.771723e+00 2.574378e+00 -5.210907e-01 -7.446934e-01 -2.082996e+00 -4.750503e-02 1.156704e-01 -7.384522e-02 2.821527e-01 4.880956e-01 5.929946e-01 3.669398e-01 9.808936e-02 7.763708e-03 2.359049e-01 2.395515e-01 -1.258712e-01 -5.079442e-01
<VARIANCE> 25
 2.016308e+01 1.064103e+01 1.035044e+01 4.567295e+01 2.187915e+01 3.017314e+01 2.602960e+01 2.427066e+01 2.171779e+01 2.013632e+01 1.452746e+01 1.035706e+01 9.866850e-01 6.947485e-01 1.169625e+00 2.110990e+00 1.123803e+00 1.424333e+00 2.823223e+00 2.695486e+00 2.235431e+00 1.590123e+00 1.551252e+00 1.221191e+00 1.179186e+00
<GCONST> 8.660748e+01
<STATE> 4
<MEAN> 25
 -1.843210e+00 8.249351e-01 -1.813187e+00 3.111506e+00 4.834105e+00 2.781978e+00 3.978619e+00 4.201824e+00 2.027540e+00 2.906183e+00 2.009908e+00 8.230612e-01 -3.471262e-02 -6.165895e-02 -6.189070e-02 -1.434317e-01 -9.984587e-02 3.380363e-02 -2.096268e-02 -2.081789e-02 -3.408785e-02 2.250529e-02 -3.352392e-02 -9.057965e-03 2.118610e-01
<VARIANCE> 25
 1.164155e+01 3.996042e+00 6.241612e+00 1.368646e+01 1.165769e+01 1.073036e+01 1.045461e+01 1.459890e+01 1.389433e+01 1.418390e+01 1.187212e+01 8.768577e+00 9.298849e-01 3.891322e-01 5.273697e-01 1.406635e+00 1.169197e+00 1.132855e+00 9.846338e-01 1.772311e+00 1.601343e+00 1.459195e+00 1.105779e+00 1.032392e+00 7.911436e-01
<GCONST> 7.428998e+01
<TRANSP> 5
 0.000000e+00 1.000000e+00 0.000000e+00 0.000000e+00 0.000000e+00
 0.000000e+00 7.545771e-01 2.454229e-01 0.000000e+00 0.000000e+00
 0.000000e+00 0.000000e+00 8.380631e-01 1.619370e-01 0.000000e+00
 0.000000e+00 0.000000e+00 0.000000e+00 9.503433e-01 4.965679e-02
 0.000000e+00 0.000000e+00 0.000000e+00 0.000000e+00 0.000000e+00
<ENDHMM>
~h "g"
<BEGINHMM>
<NUMSTATES> 5
<STATE> 2
<MEAN> 25
 -1.335064e+00 1.571377e+00 8.590983e+00 -6.683524e+00 -5.511007e+00 -1.707391e+00 7.851473e-01 -6.251011e-01 1.874753e+00 -5.237014e+00 4.744519e+00 1.901308e+00 8.004373e-01 -9.304079e-01 -1.395248e-01 6.420025e-01 -1.871523e+00 4.152062e-01 -5.173467e-01 -5.348801e-01 -1.455221e-01 -3.352695e-01 9.298299e-01 -3.123847e-01 4.756638e-01
<VARIANCE> 25
 1.906328e+01 1.937398e+01 2.423545e+01 2.497785e+01 6.091661e+01 3.681911e+01 2.395617e+01 2.429453e+01 2.437476e+01 1.953876e+01 3.398205e+01 1.155023e+01 5.775804e-01 1.042903e+00 1.127888e+00 1.473428e+00 1.865201e+00 1.965326e+00 1.872882e+00 3.191090e+00 2.146729e+00 1.508360e+00 2.176738e+00 1.200915e+00 8.338442e-01
<GCONST> 8.952699e+01
<STATE> 3
<MEAN> 25
 1.236756e+00 -6.878721e-01 6.371643e+00 -8.901470e-01 -9.421904e+00 -5.200155e+00 -4.748673e+00 -5.146770e+00 -3.471843e+00 -4.020510e+00 2.511327e+00 1.118628e+00 9.687198e-02 1.238803e-01 2.402913e-01 1.243837e-01 1.716751e-01 -9.582288e-02 -9.879419e-02 7.830337e-02 -6.012077e-02 -2.690589e-01 -5.593923e-01 1.837508e-01 -4.375060e-01
<VARIANCE> 25
 1.831125e+01 7.366205e+00 3.887877e+01 1.110642e+01 3.403811e+01 2.932105e+01 3.253878e+01 4.124421e+01 2.943600e+01 3.100350e+01 3.847345e+01 1.842350e+01 1.033771e+00 5.910991e-01 1.913917e+00 1.168232e+00 2.927201e+00 2.892936e+00 2.259692e+00 3.585950e+00 3.539140e+00 2.350511e+00 2.537448e+00 2.413018e+00 2.199792e+00
<GCONST> 9.366653e+01
<STATE> 4
<MEAN> 25
 -1.835432e+00 -2.732456e+00 8.058358e+00 2.656546e+00 -2.834141e-02 -4.525438e+00 -4.969741e+00 2.688194e+00 2.088761e-01 -6.668617e+00 -3.715291e+00 3.297438e+00 -2.472664e-01 -2.635270e-01 -2.716839e-01 4.888039e-01 7.179512e-01 -4.169987e-01 -2.669095e-01 6.793664e-02 -7.600446e-02 3.374980e-01 -3.597024e-01 1.076170e-01 -1.828439e-01
<VARIANCE> 25
 2.488227e+01 2.159011e+01 6.318573e+01 3.015060e+01 3.450433e+01 5.683406e+01 3.460619e+01 6.189335e+01 4.671118e+01 3.597975e+01 2.874262e+01 4.408899e+01 4.095972e+00 2.044081e+00 3.404799e+00 2.725017e+00 4.691225e+00 5.860424e+00 4.794365e+00 6.767921e+00 4.196832e+00 1.768522e+00 3.205849e+00 2.766272e+00 5.947504e+00
<GCONST> 1.067239e+02
<TRANSP> 5
 0.000000e+00 1.000000e+00 0.000000e+00 0.000000e+00 0.000000e+00
 0.000000e+00 7.919432e-01 2.080568e-01 0.000000e+00 0.000000e+00
 0.000000e+00 0.000000e+00 8.979659e-01 1.020341e-01 0.000000e+00
 0.000000e+00 0.000000e+00 0.000000e+00 8.129385e-01 1.870616e-01
 0.000000e+00 0.000000e+00 0.000000e+00 0.000000e+00 0.000000e+00
<ENDHMM>
~h "k"
<BEGINHMM>
<NUMSTATES> 5
<STATE> 2
<MEAN> 25
 -2.371666e-01 5.599199e-01 -4.121848e+00 2.429107e+00 4.056035e+00 2.468879e+00 8.259054e-01 -7.339574e-02 -2.787641e+00 3.546516e+00 -1.591048e+00 -2.189470e+00 -7.191917e-01 -8.246716e-01 -1.014482e+00 -2.055953e-01 8.111764e-01 -4.089885e-01 -8.236583e-01 4.503575e-01 -2.003696e-01 3.991008e-01 2.742357e-01 2.998672e-01 8.117939e-01
<VARIANCE> 25
 2.590517e+01 3.878080e+01 6.633754e+01 4.986365e+01 4.778758e+01 4.790527e+01 4.682101e+01 5.238494e+01 3.933267e+01 3.834753e+01 6.879091e+01 3.050238e+01 2.472054e+00 3.255051e+00 4.176337e+00 6.596102e+00 3.825237e+00 5.865691e+00 6.655993e+00 5.598547e+00 4.448553e+00 3.695879e+00 3.290375e+00 3.568538e+00 5.582687e+00
<GCONST> 1.105845e+02
<STATE> 3
<MEAN> 25
 -2.554805e+00 -3.461640e+00 -3.212964e+00 9.431242e-02 2.952859e+00 -5.120608e+00 6.983224e-03 1.693037e+00 -2.077685e+00 2.122492e+00 2.107335e+00 2.186006e+00 -8.613838e-01 -2.606250e-01 3.528207e-01 -7.518259e-01 -2.534215e-01 -7.958426e-01 -3.041926e-01 1.643225e-01 6.894206e-01 -3.590888e-01 1.579977e-01 8.685980e-01 1.592317e+00
<VARIANCE> 25
 7.591058e+01 7.029004e+01 7.529144e+01 7.464646e+01 9.163347e+01 6.637857e+01 4.888831e+01 6.063725e+01 7.058984e+01 6.476051e+01 5.646362e+01 3.689314e+01 8.695182e+00 5.156310e+00 3.601941e+00 6.455392e+00 4.514955e+00 6.159363e+00 3.526318e+00 5.942732e+00 5.845321e+00 5.448547e+00 6.921679e+00 6.962661e+00 8.539354e+00
<GCONST> 1.187381e+02
<STATE> 4
<MEAN> 25
 -8.935491e+00 -3.585297e+00 -1.797680e+00 -4.903822e+00 2.409931e+00 -3.029382e+00 1.633787e-01 3.522622e+00 1.911716e+00 1.580627e+00 1.196956e+00 4.910300e+00 1.712462e-01 9.889078e-02 3.289080e-01 5.885703e-02 -5.715138e-01 3.688837e-01 4.675862e-01 -3.965279e-01 1.127155e-01 -3.695853e-01 -2.647447e-01 -9.137255e-02 3.478904e-01
<VARIANCE> 25
 9.568831e+01 3.348605e+01 4.331595e+01 5.546659e+01 8.496902e+01 3.827666e+01 3.494564e+01 4.398120e+01 5.183735e+01 3.017667e+01 3.164271e+01 4.723347e+01 4.055649e+00 2.178720e+00 2.775396e+00 2.715538e+00 3.731943e+00 3.904296e+00 3.242202e+00 3.362111e+00 3.229431e+00 3.092484e+00 3.348572e+00 2.372918e+00 2.735578e+00
<GCONST> 1.065397e+02
<TRANSP> 5
 0.000000e+00 1.000000e+00 0.000000e+00 0.000000e+00 0.000000e+00
 0.000000e+00 6.725693e-01 3.274308e-01 0.000000e+00 0.000000e+00
 0.000000e+00 0.000000e+00 6.675078e-01 3.324923e-01 0.000000e+00
 0.000000e+00 0.000000e+00 0.000000e+00 7.134626e-01 2.865374e-01
 0.000000e+00 0.000000e+00 0.000000e+00 0.000000e+00 0.000000e+00
<ENDHMM>
~h "l"
<BEGINHMM>
<NUMSTATES> 5
<STATE> 2
<MEAN> 25
 2.677343e+00 -4.269023e+00 -2.893978e+00 -8.433265e+00 -5.680863e+00 -5.418664e+00 -4.280302e+00 -2.570164e+00 3.596523e-01 1.069990e+00 9.354535e-01 -1.859002e-02 3.192286e-01 1.720710e-01 4.359768e-02 -1.478291e-01 -4.485476e-02 1.394224e-01 -6.657057e-02 -5.691501e-03 -2.493146e-01 -1.424087e-01 1.786149e-01 2.179909e-01 -2.074287e-01
<VARIANCE> 25
 1.224011e+01 1.254499e+01 1.000971e+01 1.451876e+01 2.155156e+01 1.915744e+01 4.562291e+01 3.792532e+01 3.497520e+01 2.973900e+01 2.044042e+01 2.062154e+01 7.056987e-01 7.959520e-01 8.996639e-01 8.164771e-01 1.037348e+00 1.919324e+00 2.355858e+00 2.092699e+00 3.170739e+00 2.855719e+00 1.980023e+00 1.725232e+00 7.622665e-01
<GCONST> 8.698910e+01
<STATE> 3
<MEAN> 25
 6.904662e+00 4.376882e+00 -1.024401e+00 -6.402875e+00 -1.408471e+00 3.250654e+00 -3.970727e+00 -3.261724e+00 6.292416e-01 -1.697743e+00 1.957456e+00 2.216094e+00 -4.117815e-01 4.262621e-01 1.000954e-01 1.035732e+00 6.989564e-01 4.260725e-01 8.313586e-01 3.261093e-01 -2.040207e-02 9.235746e-02 -3.748832e-02 4.194478e-02 -1.265382e+00
<VARIANCE> 25
 1.699428e+01 1.549088e+01 1.010626e+01 4.596387e+01 3.487239e+01 2.776692e+01 4.260195e+01 3.662594e+01 5.794872e+01 3.631878e+01 2.039685e+01 1.935768e+01 1.082131e+00 1.232318e+00 7.380981e-01 2.688890e+00 1.413771e+00 4.065336e+00 2.240433e+00 2.017173e+00 2.083018e+00 2.612124e+00 1.543884e+00 1.373446e+00 5.924247e-01
<GCONST> 9.167211e+01
<STATE> 4
<MEAN> 25
 -7.380846e-01 1.950169e+00 1.070112e-02 4.152717e+00 5.801866e+00 3.354602e+00 4.890475e+00 3.671420e+00 2.329650e+00 3.579189e+00 2.308866e+00 9.891955e-01 -1.092102e-01 -4.204063e-02 1.618756e-02 1.064055e-01 8.445189e-02 2.390454e-02 6.044339e-02 9.718253e-02 6.489614e-02 7.351476e-02 1.373875e-02 -1.032820e-02 -6.067398e-02
<VARIANCE> 25
 3.456945e+00 4.172836e+00 6.651394e+00 9.454385e+00 1.116825e+01 1.212349e+01 1.392074e+01 1.520895e+01 1.467381e+01 1.419690e+01 1.395567e+01 1.157985e+01 1.987520e-01 2.763282e-01 4.032870e-01 7.020432e-01 8.492324e-01 1.067111e+00 1.202236e+00 1.372244e+00 1.313741e+00 1.391098e+00 1.343488e+00 1.099953e+00 9.282546e-02
<GCONST> 6.829985e+01
<TRANSP> 5
 0.000000e+00 1.000000e+00 0.000000e+00 0.000000e+00 0.000000e+00
 0.000000e+00 8.587445e-01 1.412555e-01 0.000000e+00 0.000000e+00
 0.000000e+00 0.000000e+00 8.289375e-01 1.710625e-01 0.000000e+00
 0.000000e+00 0.000000e+00 0.000000e+00 9.398063e-01 6.019374e-02
 0.000000e+00 0.000000e+00 0.000000e+00 0.000000e+00 0.000000e+00
<ENDHMM>
~h "m"
<BEGINHMM>
<NUMSTATES> 5
<STATE> 2
<MEAN> 25
 3.001795e+00 4.326271e-01 2.365587e+00 6.385511e-01 -8.540089e-01 -7.282869e-01 -6.754057e+00 -3.706739e+00 -3.218825e+00 -5.570353e+00 -1.633396e+00 -3.926601e-01 4.862117e-01 -4.435316e-01 3.656969e-01 -3.684042e-01 -7.991624e-01 -4.420652e-01 -9.853367e-01 -1.442283e+00 -6.640242e-01 -7.200700e-01 -4.262076e-01 2.575633e-01 1.067191e+00
<VARIANCE> 25
 2.901166e+01 1.548092e+01 3.985572e+01 4.558561e+01 7.047808e+01 3.645089e+01 5.979142e+01 6.966593e+01 2.139734e+01 3.852116e+01 3.593824e+01 2.182256e+01 2.068696e+00 1.468128e+00 2.857959e+00 2.918873e+00 2.842878e+00 3.077503e+00 7.632759e+00 5.782579e+00 2.405876e+00 5.556690e+00 3.652409e+00 1.833930e+00 3.698148e+00
<GCONST> 1.041152e+02
<STATE> 3
<MEAN> 25
 2.138722e+00 -3.346798e+00 1.268816e+00 -4.351523e+00 -6.718115e+00 -5.475137e+00 -8.947119e+00 -9.972685e+00 -5.249303e+00 -5.107556e+00 -1.006463e-01 1.513471e+00 -2.645434e-01 -2.256859e-01 -2.285049e-02 -2.219504e-01 -2.521354e-01 -2.882117e-01 8.951078e-02 2.548380e-01 1.760889e-01 6.872043e-02 -8.524401e-02 -2.581376e-02 3.289597e-01
<VARIANCE> 25
 2.046937e+01 1.129897e+01 3.009816e+01 2.967114e+01 2.611783e+01 4.677282e+01 3.962278e+01 3.646126e+01 3.118508e+01 4.714889e+01 3.485126e+01 2.529766e+01 1.157964e+00 6.079147e-01 1.211030e+00 1.788118e+00 1.413653e+00 3.510998e+00 3.201152e+00 2.571554e+00 3.311350e+00 3.243087e+00 3.014411e+00 2.341769e+00 1.163856e+00
<GCONST> 9.525544e+01
<STATE> 4
<MEAN> 25
 3.452744e+00 1.229073e-01 3.977490e+00 -1.564661e+00 -6.545371e+00 -1.572004e+00 -6.958719e+00 -7.832012e+00 -6.166535e+00 -8.251199e+00 -2.768926e+00 -9.313543e-01 -2.339150e-02 3.791444e-01 1.878291e-01 3.297691e-01 3.640512e-01 2.470102e-01 4.582645e-01 3.660278e-01 5.398681e-02 1.337191e-01 -5.123081e-02 2.198300e-02 -4.372661e-01
<VARIANCE> 25
 3.153341e+01 2.130462e+01 3.618796e+01 3.341219e+01 3.649721e+01 5.954412e+01 2.590731e+01 3.631080e+01 2.259571e+01 3.489044e+01 2.082267e+01 2.286033e+01 7.341700e-01 7.952896e-01 1.185894e+00 1.645581e+00 1.730229e+00 1.639216e+00 1.653362e+00 1.602452e+00 2.065948e+00 2.460440e+00 1.552809e+00 1.655846e+00 1.034627e+00
<GCONST> 9.167223e+01
<TRANSP> 5
 0.000000e+00 1.000000e+00 0.000000e+00 0.000000e+00 0.000000e+00
 0.000000e+00 5.502402e-01 4.497598e-01 0.000000e+00 0.000000e+00
 0.000000e+00 0.000000e+00 8.021301e-01 1.978699e-01 0.000000e+00
 0.000000e+00 0.000000e+00 0.000000e+00 7.955517e-01 2.044483e-01
 0.000000e+00 0.000000e+00 0.000000e+00 0.000000e+00 0.000000e+00
<ENDHMM>
~h "n"
<BEGINHMM>
<NUMSTATES> 5
<STATE> 2
<MEAN> 25
 6.277725e+00 -2.255729e+00 4.189403e+00 1.579623e+00 -2.481540e+00 3.210964e-01 -7.972543e+00 -3.243505e+00 1.192966e+00 -4.179516e+00 -6.299170e+00 -2.470699e+00 5.293536e-01 6.286852e-01 4.598870e-01 9.374185e-01 4.424896e-01 6.456328e-01 3.846585e-01 -2.931573e-01 -2.704809e-01 -9.044651e-02 -5.167280e-01 1.929542e-01 -1.320724e+00
<VARIANCE> 25
 1.563430e+01 1.322295e+01 3.169669e+01 2.646869e+01 4.827934e+01 2.937180e+01 3.362018e+01 3.541962e+01 2.673262e+01 2.609512e+01 3.353368e+01 1.792185e+01 1.534006e+00 9.676475e-01 2.238896e+00 1.834972e+00 2.296524e+00 2.593142e+00 2.674041e+00 2.294623e+00 1.868152e+00 1.869712e+00 2.413148e+00 1.823515e+00 1.504907e+00
<GCONST> 9.384376e+01
<STATE> 3
<MEAN> 25
 3.449068e+00 4.081449e+00 3.306169e+00 5.476891e+00 2.551132e+00 2.187647e+00 1.438205e-01 -1.372026e+00 -5.015851e-01 -8.213523e-01 -3.682973e+00 -1.774884e-02 -7.886924e-01 3.217804e-01 -5.096059e-01 7.898072e-02 8.048972e-01 1.022255e-01 8.763683e-01 6.053643e-01 -1.336904e-01 5.607615e-01 8.009570e-01 8.003184e-02 -7.841204e-01
<VARIANCE> 25
 3.707242e+01 1.424388e+01 1.827829e+01 1.476949e+01 2.310828e+01 1.823365e+01 2.709446e+01 2.929149e+01 2.223247e+01 2.107155e+01 3.041485e+01 1.416973e+01 6.684265e-01 8.136962e-01 8.128451e-01 1.120040e+00 1.550828e+00 1.544585e+00 1.987954e+00 1.684487e+00 1.658330e+00 1.411443e+00 1.645356e+00 1.374640e+00 4.640668e-01
<GCONST> 8.502811e+01
<STATE> 4
<MEAN> 25
 -3.939512e-01 1.940215e+00 -3.285553e-01 4.518098e+00 6.405280e+00 3.830863e+00 4.958185e+00 3.702104e+00 2.400518e+00 3.526721e+00 2.138115e+00 9.017195e-01 -9.431358e-02 -7.784627e-02 -7.860536e-02 -3.734566e-02 -1.139645e-04 5.484942e-03 5.658977e-02 1.177952e-01 7.674418e-02 7.528687e-02 8.846810e-02 4.339446e-02 -5.130799e-02
<VARIANCE> 25
 5.376163e+00 4.002604e+00 6.798414e+00 7.747835e+00 1.301652e+01 1.197898e+01 1.400981e+01 1.541436e+01 1.502971e+01 1.562989e+01 1.567015e+01 1.165708e+01 2.626501e-01 3.090269e-01 5.120774e-01 6.969631e-01 8.890185e-01 1.095436e+00 1.324377e+00 1.529901e+00 1.468020e+00 1.352908e+00 1.301290e+00 1.132602e+00 1.321334e-01
<GCONST> 7.025948e+01
<TRANSP> 5
 0.000000e+00 1.000000e+00 0.000000e+00 0.000000e+00 0.000000e+00
 0.000000e+00 7.847964e-01 2.152036e-01 0.000000e+00 0.000000e+00
 0.000000e+00 0.000000e+00 8.366592e-01 1.633408e-01 0.000000e+00
 0.000000e+00 0.000000e+00 0.000000e+00 9.464920e-01 5.350798e-02
 0.000000e+00 0.000000e+00 0.000000e+00 0.000000e+00 0.000000e+00
<ENDHMM>
~h "p"
<BEGINHMM>
<NUMSTATES> 5
<STATE> 2
<MEAN> 25
 2.486213e+00 -1.356626e+00 -2.012408e+00 -2.418051e+00 -1.993950e+00 -2.320945e+00 -3.669561e+00 -2.887545e+00 -4.412438e-01 4.229917e-02 -6.215483e-01 -4.725952e-01 -4.479133e-01 -5.634161e-01 -2.585750e-01 7.198755e-02 1.896742e-01 -7.034538e-01 -2.613162e-01 8.414922e-01 7.414286e-01 1.797042e-01 -3.019574e-02 2.040506e-01 5.937943e-01
<VARIANCE> 25
 1.188552e+01 1.527969e+01 1.488192e+01 2.608246e+01 5.739575e+01 4.224582e+01 6.513370e+01 6.920019e+01 2.257908e+01 3.295784e+01 2.320598e+01 2.049870e+01 1.277033e+00 1.270733e+00 5.228634e-01 2.174305e+00 2.238809e+00 1.755169e+00 4.534505e+00 5.273434e+00 3.043373e+00 3.073626e+00 2.763364e+00 2.163392e+00 2.044106e+00
<GCONST> 9.598837e+01
<STATE> 3
<MEAN> 25
 3.639122e+00 -2.370627e+00 1.070448e+00 2.232376e+00 -4.381854e+00 -7.164006e+00 -4.270810e+00 3.629572e-01 2.787682e+00 -4.342076e-01 -1.943481e+00 5.495894e-01 -1.324734e-01 3.331238e-01 8.533652e-02 4.145758e-01 5.789092e-01 4.302488e-01 5.569288e-01 3.896365e-01 2.201519e-01 2.043622e-02 3.361361e-02 -5.030371e-02 -7.845422e-01
<VARIANCE> 25
 1.726534e+01 1.165762e+01 1.858977e+01 4.366165e+01 7.161080e+01 5.186111e+01 4.209835e+01 4.410163e+01 2.264891e+01 1.837219e+01 1.561311e+01 1.641454e+01 8.517567e-01 4.749776e-01 7.545034e-01 1.419166e+00 1.737900e+00 1.963751e+00 2.331907e+00 2.273336e+00 1.575886e+00 1.871739e+00 1.347733e+00 1.521730e+00 7.346982e-01
<GCONST> 8.882478e+01
<STATE> 4
<MEAN> 25
 -8.729772e-02 1.576291e+00 6.727619e-01 3.937754e+00 5.785888e+00 3.685184e+00 4.476692e+00 2.849408e+00 3.013418e+00 2.802176e+00 1.807777e+00 6.354395e-01 -4.545109e-02 1.059109e-02 -2.263780e-03 2.023055e-02 4.604627e-03 3.289238e-03 1.106778e-02 -1.320636e-03 4.218291e-03 2.701340e-02 6.542724e-02 1.644409e-02 -2.131593e-02
<VARIANCE> 25
 2.326910e+00 2.687877e+00 4.444547e+00 5.666645e+00 9.474273e+00 1.057472e+01 1.089095e+01 1.246990e+01 1.271267e+01 1.208832e+01 1.297820e+01 1.020537e+01 9.690439e-02 2.440419e-01 3.879248e-01 5.166280e-01 7.807407e-01 9.987499e-01 9.511678e-01 1.271847e+00 1.146462e+00 1.266001e+00 1.272215e+00 1.064030e+00 7.321876e-02
<GCONST> 6.309669e+01
<TRANSP> 5
 0.000000e+00 1.000000e+00 0.000000e+00 0.000000e+00 0.000000e+00
 0.000000e+00 6.930910e-01 3.069090e-01 0.000000e+00 0.000000e+00
 0.000000e+00 0.000000e+00 8.021826e-01 1.978175e-01 0.000000e+00
 0.000000e+00 0.000000e+00 0.000000e+00 9.635366e-01 3.646343e-02
 0.000000e+00 0.000000e+00 0.000000e+00 0.000000e+00 0.000000e+00
<ENDHMM>
~h "r"
<BEGINHMM>
<NUMSTATES> 5
<STATE> 2
<MEAN> 25
 2.183310e-02 -1.705213e-01 1.494242e+00 1.048160e+00 -1.320633e+00 -2.503937e+00 -3.956476e+00 -1.586397e+00 -2.525889e+00 -1.928171e+00 9.468047e-02 1.624617e+00 -2.141939e-02 -3.980912e-01 2.022359e-01 -8.438356e-01 -1.211718e+00 -8.445517e-01 -9.668804e-01 -6.948588e-01 -3.919228e-01 -2.942649e-01 -6.824777e-02 -9.343107e-02 1.629280e+00
<VARIANCE> 25
 6.010958e+01 2.456944e+01 4.401810e+01 3.507117e+01 4.445372e+01 4.019976e+01 4.191238e+01 7.546095e+01 2.810648e+01 2.448158e+01 1.922850e+01 1.571917e+01 5.445022e+00 1.882449e+00 2.356565e+00 3.966998e+00 3.977062e+00 3.882434e+00 4.472781e+00 4.960939e+00 2.306777e+00 2.871711e+00 2.399565e+00 2.132010e+00 3.835462e+00
<GCONST> 1.036458e+02
<STATE> 3
<MEAN> 25
 -1.914489e+00 -2.783608e+00 4.386847e-01 -1.014093e+00 -5.364497e+00 -4.495588e+00 -5.290338e+00 -2.371349e+00 -1.692680e+00 -4.211784e-01 4.715120e-01 8.432398e-01 8.664852e-01 -9.982099e-01 -2.077286e-01 -6.328121e-01 -8.212588e-01 -1.018210e+00 -4.587295e-01 -1.085043e+00 -9.508476e-02 3.205097e-01 2.701337e-01 -4.389482e-01 1.014863e+00
<VARIANCE> 25
 9.661826e+01 2.108699e+01 2.810020e+01 3.939381e+01 2.299256e+01 3.608655e+01 3.769576e+01 5.247288e+01 3.545728e+01 3.320160e+01 2.198426e+01 1.580068e+01 4.976909e+00 9.161577e-01 2.281434e+00 4.420020e+00 1.788714e+00 2.397829e+00 4.185598e+00 5.242324e+00 4.218024e+00 2.745179e+00 2.353441e+00 1.727592e+00 1.044980e+00
<GCONST> 1.000765e+02
<STATE> 4
<MEAN> 25
 9.127735e-01 -4.790203e+00 3.574956e-01 -5.025974e+00 -7.555831e+00 -8.725980e+00 -6.004613e+00 -6.514463e+00 -2.377899e+00 -2.307923e+00 -1.266498e+00 5.554164e-01 -8.165178e-02 -4.481280e-02 1.377151e-01 -1.684253e-02 -7.324400e-02 7.385037e-02 2.738305e-01 1.446857e-01 8.574101e-02 -1.721763e-02 1.458825e-01 -9.040804e-02 3.646810e-03
<VARIANCE> 25
 1.800823e+01 8.455460e+00 3.195836e+01 2.365181e+01 1.671019e+01 2.267273e+01 2.845035e+01 2.646263e+01 3.187929e+01 3.177594e+01 2.352722e+01 1.231029e+01 6.671077e-01 4.710987e-01 1.459973e+00 1.237632e+00 1.106803e+00 1.449663e+00 1.743509e+00 1.996355e+00 3.419367e+00 2.675885e+00 1.772599e+00 1.567398e+00 3.416395e-01
<GCONST> 8.606655e+01
<TRANSP> 5
 0.000000e+00 1.000000e+00 0.000000e+00 0.000000e+00 0.000000e+00
 0.000000e+00 6.380799e-01 3.619201e-01 0.000000e+00 0.000000e+00
 0.000000e+00 0.000000e+00 4.566751e-01 5.433249e-01 0.000000e+00
 0.000000e+00 0.000000e+00 0.000000e+00 8.561777e-01 1.438223e-01
 0.000000e+00 0.000000e+00 0.000000e+00 0.000000e+00 0.000000e+00
<ENDHMM>
~h "s"
<BEGINHMM>
<NUMSTATES> 5
<STATE> 2
<MEAN> 25
 -8.874269e+00 5.774260e+00 -1.908877e+00 2.290212e+00 6.242691e+00 -1.508824e+00 2.100690e+00 4.775313e+00 1.621304e-01 8.518088e-01 5.661913e-01 6.079314e-01 -2.822102e+00 1.566860e+00 -9.556563e-01 -3.456630e-01 3.979365e-01 -3.013177e-01 7.784448e-01 6.777908e-01 9.914530e-02 1.566945e-01 2.804687e-01 1.786512e-01 1.287495e+00
<VARIANCE> 25
 4.036407e+01 2.289704e+01 1.832238e+01 1.603772e+01 3.909013e+01 2.570199e+01 3.513089e+01 3.191174e+01 2.564545e+01 2.502154e+01 2.201032e+01 1.930652e+01 1.937121e+00 1.784681e+00 1.387646e+00 1.509469e+00 3.010116e+00 3.019045e+00 2.808269e+00 2.590617e+00 2.498802e+00 1.867324e+00 1.997562e+00 1.275058e+00 1.270559e+00
<GCONST> 9.379538e+01
<STATE> 3
<MEAN> 25
 -1.494753e+01 6.333041e+00 -4.359358e+00 1.625578e+00 2.969951e+00 -6.722355e-01 3.988401e+00 4.973836e+00 8.908912e-02 7.406644e-01 5.146462e-01 1.557802e+00 2.499647e-01 -2.775470e-01 5.966615e-02 1.460049e-01 9.424175e-03 1.011801e-01 4.125581e-02 1.109055e-01 9.942297e-02 -3.435350e-02 1.475939e-01 6.989314e-02 -1.702692e-01
<VARIANCE> 25
 1.286777e+01 1.824738e+01 1.189898e+01 1.816328e+01 3.408226e+01 1.904160e+01 1.911674e+01 2.578215e+01 1.869394e+01 1.750872e+01 1.710159e+01 1.469297e+01 1.044066e+00 1.496559e+00 7.282950e-01 1.375299e+00 2.181442e+00 1.743237e+00 1.684298e+00 2.018308e+00 1.526773e+00 1.660890e+00 1.492846e+00 1.252418e+00 1.125028e+00
<GCONST> 8.545594e+01
<STATE> 4
<MEAN> 25
 -2.495234e+00 2.196483e+00 -1.684599e+00 3.581630e+00 5.034646e+00 2.495620e+00 3.926553e+00 4.439249e+00 2.629439e+00 3.477989e+00 2.576632e+00 1.656204e+00 3.807965e-01 -1.588089e-01 1.783452e-01 -3.324966e-02 -4.900997e-02 1.008674e-02 -9.149103e-02 -6.710921e-02 5.540046e-02 1.628876e-02 -6.375804e-02 -7.332672e-02 -1.418535e-01
<VARIANCE> 25
 2.738240e+01 7.167682e+00 7.535821e+00 9.466212e+00 1.671918e+01 1.385696e+01 1.651004e+01 1.723988e+01 1.469559e+01 1.694131e+01 1.204383e+01 1.195473e+01 1.232060e+00 7.987517e-01 8.282340e-01 8.930192e-01 1.421167e+00 1.406901e+00 1.603889e+00 1.862818e+00 1.535791e+00 1.669780e+00 1.433862e+00 1.267969e+00 5.609636e-01
<GCONST> 7.950854e+01
<TRANSP> 5
 0.000000e+00 1.000000e+00 0.000000e+00 0.000000e+00 0.000000e+00
 0.000000e+00 7.034947e-01 2.965052e-01 0.000000e+00 0.000000e+00
 0.000000e+00 0.000000e+00 8.895851e-01 1.104149e-01 0.000000e+00
 0.000000e+00 0.000000e+00 0.000000e+00 8.777432e-01 1.222567e-01
 0.000000e+00 0.000000e+00 0.000000e+00 0.000000e+00 0.000000e+00
<ENDHMM>
~h "t"
<BEGINHMM>
<NUMSTATES> 5
<STATE> 2
<MEAN> 25
 -5.733694e+00 3.505981e+00 -4.719626e-01 1.739216e+00 2.615185e+00 2.036815e+00 -2.340646e-01 6.186626e+00 3.840754e-01 -5.375583e-01 1.310825e+00 1.374760e+00 -1.171475e+00 4.279568e-02 -2.881435e-01 -4.211292e-01 -1.286040e-01 -3.803473e-01 -4.564797e-01 1.158871e+00 -1.065639e-01 -4.211009e-01 1.298080e-02 3.973972e-01 9.700370e-01
<VARIANCE> 25
 4.181896e+01 1.851957e+01 1.876544e+01 1.995889e+01 2.336348e+01 2.185821e+01 2.762036e+01 4.919646e+01 2.713294e+01 2.304919e+01 2.268641e+01 1.717737e+01 3.812444e+00 2.250120e+00 2.189776e+00 1.916821e+00 2.701996e+00 1.905630e+00 2.909253e+00 4.931654e+00 2.450022e+00 2.282274e+00 2.795502e+00 1.650639e+00 1.840565e+00
<GCONST> 9.612525e+01
<STATE> 3
<MEAN> 25
 -9.976764e-01 2.240940e-01 1.910127e+00 -6.377793e-01 -3.777547e+00 -2.961340e+00 -5.769214e+00 -5.224015e-01 -5.470179e-01 -2.678735e+00 -5.483482e-01 1.686829e+00 7.920759e-01 -6.692078e-01 -1.354228e-01 -5.610287e-01 -8.762127e-01 -7.880013e-01 -9.165219e-01 -1.305960e+00 -7.814518e-02 -6.822820e-02 -3.623603e-01 -3.442005e-01 1.121701e+00
<VARIANCE> 25
 3.766059e+01 1.783337e+01 3.599689e+01 2.951857e+01 5.711021e+01 3.665668e+01 4.477701e+01 1.013662e+02 3.884992e+01 1.756693e+01 3.683433e+01 2.245951e+01 4.058129e+00 2.444046e+00 2.887551e+00 3.244157e+00 5.358534e+00 3.091311e+00 4.205349e+00 9.773003e+00 3.400548e+00 2.564330e+00 3.308309e+00 2.690373e+00 4.095833e+00
<GCONST> 1.055526e+02
<STATE> 4
<MEAN> 25
 -2.019445e+00 -1.812368e+00 -5.851438e+00 2.094929e+00 3.270139e+00 4.653389e+00 -1.545378e+00 1.384945e-01 2.698820e+00 6.297901e-01 -4.597315e+00 -5.356014e-01 -6.128009e-02 -2.693244e-01 -1.736351e-01 -1.359792e-01 -3.458276e-03 -4.832133e-03 1.078329e-01 -4.105546e-02 -5.043966e-02 1.037592e-01 7.598656e-02 -4.418623e-02 1.554807e-01
<VARIANCE> 25
 1.253259e+01 1.077805e+01 1.999205e+01 2.110566e+01 3.234810e+01 4.097559e+01 2.888387e+01 2.943963e+01 2.463140e+01 1.552991e+01 2.731139e+01 1.642817e+01 6.050163e-01 6.892107e-01 1.229789e+00 1.250723e+00 1.532763e+00 1.818949e+00 1.958585e+00 1.618018e+00 2.155781e+00 1.814484e+00 1.710482e+00 1.753202e+00 8.351497e-01
<GCONST> 8.690253e+01
<TRANSP> 5
 0.000000e+00 1.000000e+00 0.000000e+00 0.000000e+00 0.000000e+00
 0.000000e+00 6.752830e-01 3.247170e-01 0.000000e+00 0.000000e+00
 0.000000e+00 0.000000e+00 6.538091e-01 3.461909e-01 0.000000e+00
 0.000000e+00 0.000000e+00 0.000000e+00 7.003669e-01 2.996332e-01
 0.000000e+00 0.000000e+00 0.000000e+00 0.000000e+00 0.000000e+00
<ENDHMM>
~h "v"
<BEGINHMM>
<NUMSTATES> 5
<STATE> 2
<MEAN> 25
 -3.988986e+00 1.381721e+00 6.753503e+00 -5.534795e+00 -1.320372e+01 -2.482394e+00 -3.652641e+00 -1.114859e+01 -2.744674e+00 -6.999638e+00 8.563202e-01 -3.984582e+00 7.888954e-02 -9.203206e-02 1.627965e-01 9.922270e-02 2.548313e-03 -5.811365e-02 7.684410e-02 -2.248687e-01 -2.343929e-01 -8.682695e-03 2.212004e-01 3.139258e-01 -7.155378e-02
<VARIANCE> 25
 1.098112e+01 1.148070e+01 1.749852e+01 8.090845e+00 2.168376e+01 2.188304e+01 2.075812e+01 2.582117e+01 2.491905e+01 1.973167e+01 1.902549e+01 2.967014e+01 3.310061e-01 3.791089e-01 5.931061e-01 6.575673e-01 1.592196e+00 1.652408e+00 1.617155e+00 1.136021e+00 1.609883e+00 1.556327e+00 1.255754e+00 1.407193e+00 1.134889e-01
<GCONST> 7.858698e+01
<STATE> 3
<MEAN> 25
 3.501066e+00 -1.219703e+00 6.874300e+00 2.764899e+00 -8.565017e+00 -6.915248e+00 -7.178001e+00 -5.489255e+00 -6.210087e+00 -5.152533e+00 -1.064620e+00 2.059355e-01 4.174240e-01 2.274239e-01 1.149110e-01 8.525276e-01 5.358670e-01 2.049675e-01 4.385379e-02 4.204455e-01 4.049207e-03 3.624095e-01 -4.633620e-02 -2.965237e-02 -9.765290e-01
<VARIANCE> 25
 1.119229e+01 1.423493e+01 3.653112e+01 4.367889e+01 2.941241e+01 2.884545e+01 2.379413e+01 3.455734e+01 3.106768e+01 2.955033e+01 3.096533e+01 2.001025e+01 7.352772e-01 7.069478e-01 1.403599e+00 1.630899e+00 2.543927e+00 2.149130e+00 2.797666e+00 2.821625e+00 2.645335e+00 2.771732e+00 2.135896e+00 1.871901e+00 1.045647e+00
<GCONST> 9.246116e+01
<STATE> 4
<MEAN> 25
 1.265019e+00 1.886063e+00 2.446226e+00 5.902018e+00 2.370340e+00 -1.220063e+00 2.844467e-01 1.280393e-01 7.076892e-02 2.204009e+00 4.350757e-01 7.545235e-01 -3.915388e-01 1.386053e-01 -5.205684e-01 -3.305336e-02 7.324412e-01 4.296485e-01 3.950488e-01 5.579346e-01 2.701428e-01 2.787951e-01 1.439344e-01 -7.051643e-02 -3.723549e-01
<VARIANCE> 25
 9.961452e+00 8.580774e+00 1.623064e+01 2.671736e+01 3.129963e+01 2.818187e+01 3.052222e+01 2.622132e+01 2.660933e+01 2.651312e+01 2.143970e+01 1.068586e+01 5.069256e-01 6.829656e-01 7.771829e-01 9.966912e-01 1.349244e+00 1.904045e+00 2.082320e+00 1.373399e+00 2.298024e+00 2.043408e+00 1.789613e+00 1.125458e+00 4.912735e-01
<GCONST> 8.414208e+01
<TRANSP> 5
 0.000000e+00 1.000000e+00 0.000000e+00 0.000000e+00 0.000000e+00
 0.000000e+00 7.981256e-01 2.018744e-01 0.000000e+00 0.000000e+00
 0.000000e+00 0.000000e+00 8.636753e-01 1.363247e-01 0.000000e+00
 0.000000e+00 0.000000e+00 0.000000e+00 8.383584e-01 1.616417e-01
 0.000000e+00 0.000000e+00 0.000000e+00 0.000000e+00 0.000000e+00
<ENDHMM>
~h "w"
<BEGINHMM>
<NUMSTATES> 5
<STATE> 2
<MEAN> 25
 2.040240e+00 -4.977736e+00 -4.665677e+00 -9.912079e+00 -8.165188e+00 -2.782421e+00 -1.983852e+00 -2.913651e+00 -1.058156e+00 -3.713727e+00 -3.442099e+00 -2.502990e+00 -1.347733e-01 -3.831357e-01 -4.886435e-02 5.509882e-02 2.669468e-01 2.947502e-01 2.465726e-01 1.130697e-01 1.848788e-01 2.672046e-01 -1.180746e-01 -4.013824e-01 1.436365e-01
<VARIANCE> 25
 2.313582e+01 3.288571e+01 1.328779e+01 1.980305e+01 2.167975e+01 3.214226e+01 5.914130e+01 4.466761e+01 5.885107e+01 4.070744e+01 4.178941e+01 3.450835e+01 1.460552e+00 8.862991e-01 7.944989e-01 1.359253e+00 1.513316e+00 3.094286e+00 4.592327e+00 3.137955e+00 3.504762e+00 3.210361e+00 2.083614e+00 3.044304e+00 1.437800e+00
<GCONST> 9.681284e+01
<STATE> 3
<MEAN> 25
 3.905045e+00 -3.743097e+00 -1.710163e+00 -1.302248e+00 -1.475468e+00 2.122906e+00 -3.339352e-01 1.064751e+00 3.678543e+00 -4.649202e-02 -4.674555e+00 -2.636087e+00 -1.344218e-01 6.400102e-01 1.688280e-01 6.535497e-01 8.778968e-01 2.155172e-01 7.128252e-01 7.815739e-01 -2.172037e-02 1.139604e-01 2.402229e-01 3.024106e-01 -1.140008e+00
<VARIANCE> 25
 9.824623e+00 2.423313e+01 1.874909e+01 2.272164e+01 4.612464e+01 7.948458e+01 6.797315e+01 3.801919e+01 4.901547e+01 2.521792e+01 3.341020e+01 2.201718e+01 5.501933e-01 7.098504e-01 9.601843e-01 1.566597e+00 1.320193e+00 2.005598e+00 3.650913e+00 1.909308e+00 3.345767e+00 3.763270e+00 1.834416e+00 1.512960e+00 9.016321e-01
<GCONST> 9.309225e+01
<STATE> 4
<MEAN> 25
 -4.999752e-01 8.808885e-01 -1.258139e+00 2.830430e+00 5.360518e+00 3.246306e+00 4.420746e+00 2.547338e+00 1.703034e+00 3.413809e+00 1.711445e+00 8.398672e-02 -4.934477e-02 2.433619e-02 6.500307e-02 2.553857e-02 1.829883e-02 -6.897626e-02 4.584710e-02 1.285363e-01 -6.486350e-02 -5.124213e-02 -3.033467e-04 3.268660e-02 -6.443001e-02
<VARIANCE> 25
 3.631652e+00 5.437973e+00 5.735996e+00 9.220682e+00 1.176799e+01 8.936793e+00 1.437400e+01 1.365178e+01 1.461189e+01 1.451622e+01 1.538223e+01 1.289371e+01 1.297640e-01 3.444208e-01 4.566988e-01 5.101838e-01 1.030193e+00 1.231807e+00 1.524471e+00 1.261664e+00 1.245388e+00 1.223187e+00 1.456138e+00 1.276834e+00 7.473014e-02
<GCONST> 6.825502e+01
<TRANSP> 5
 0.000000e+00 1.000000e+00 0.000000e+00 0.000000e+00 0.000000e+00
 0.000000e+00 8.596359e-01 1.403641e-01 0.000000e+00 0.000000e+00
 0.000000e+00 0.000000e+00 6.910862e-01 3.089137e-01 0.000000e+00
 0.000000e+00 0.000000e+00 0.000000e+00 9.079345e-01 9.206548e-02
 0.000000e+00 0.000000e+00 0.000000e+00 0.000000e+00 0.000000e+00
<ENDHMM>
~h "y"
<BEGINHMM>
<NUMSTATES> 5
<STATE> 2
<MEAN> 25
 4.949463e-01 2.642680e+00 4.134787e+00 1.798546e+00 -2.491721e+00 -1.354033e+00 -3.411889e+00 -4.040455e-01 -3.754644e+00 -3.457399e+00 -1.165395e-01 -1.286790e-02 2.927689e-01 -6.493249e-02 1.047053e+00 -1.205459e+00 -2.226826e+00 -7.717052e-01 -1.663152e+00 -2.110852e+00 -1.150255e+00 -1.131027e+00 7.016387e-02 9.108740e-02 1.903794e+00
<VARIANCE> 25
 1.086142e+01 2.693830e+01 7.904173e+01 2.773190e+01 5.969773e+01 6.449251e+01 5.015161e+01 6.748576e+01 3.760375e+01 4.165710e+01 2.885711e+01 1.510624e+01 1.625518e+00 1.912398e+00 5.013132e+00 3.687546e+00 4.219285e+00 4.464400e+00 4.470564e+00 8.421853e+00 3.449658e+00 5.880594e+00 2.893247e+00 1.769743e+00 2.519814e+00
<GCONST> 1.053178e+02
<STATE> 3
<MEAN> 25
 1.536569e-01 -5.069802e-01 7.308918e+00 -4.201632e+00 -1.033338e+01 -3.562648e+00 -7.616374e+00 -9.720036e+00 -7.255598e+00 -5.284829e+00 1.239489e+00 9.190365e-01 -1.467538e-02 -3.713363e-01 -1.715210e-01 -1.817945e-01 -4.693120e-02 -1.434993e-01 -2.525097e-02 -2.263140e-01 7.397405e-03 2.861647e-01 1.414892e-01 1.536847e-01 2.857732e-01
<VARIANCE> 25
 1.349250e+01 3.397338e+01 8.699362e+01 1.979696e+01 3.087687e+01 5.499326e+01 4.330947e+01 5.678813e+01 2.473516e+01 6.086404e+01 4.131697e+01 4.244630e+01 5.411162e-01 1.379033e+00 2.859865e+00 2.316391e+00 1.968828e+00 3.492320e+00 3.306397e+00 3.213506e+00 3.142911e+00 3.352030e+00 2.371236e+00 3.331472e+00 1.778507e+00
<GCONST> 1.004439e+02
<STATE> 4
<MEAN> 25
 3.989550e-01 -1.932821e+00 3.289327e+00 -3.125448e+00 -8.371030e+00 -7.039999e+00 -4.951704e+00 -2.838638e+00 -2.905006e+00 -2.585984e+00 3.686983e-01 -7.064758e-01 2.757658e-01 -6.461946e-01 -8.757713e-01 -8.861997e-02 1.502904e-01 -6.170636e-01 1.918952e-01 1.620337e+00 1.171759e+00 5.043908e-01 -2.344322e-01 -4.605691e-01 7.006931e-02
<VARIANCE> 25
 1.034044e+01 8.850819e+00 7.017707e+01 1.958362e+01 5.044797e+01 4.070080e+01 4.366056e+01 9.433984e+01 3.650051e+01 4.355904e+01 3.241967e+01 1.942730e+01 4.427555e-01 9.910012e-01 1.894515e+00 8.262867e-01 1.449829e+00 3.230893e+00 1.634207e+00 2.412366e+00 2.886436e+00 4.243646e+00 2.619196e+00 1.787865e+00 1.041757e+00
<GCONST> 9.408723e+01
<TRANSP> 5
 0.000000e+00 1.000000e+00 0.000000e+00 0.000000e+00 0.000000e+00
 0.000000e+00 6.771435e-01 3.228565e-01 0.000000e+00 0.000000e+00
 0.000000e+00 0.000000e+00 7.552741e-01 2.447259e-01 0.000000e+00
 0.000000e+00 0.000000e+00 0.000000e+00 6.287639e-01 3.712361e-01
 0.000000e+00 0.000000e+00 0.000000e+00 0.000000e+00 0.000000e+00
<ENDHMM>
~h "z"
<BEGINHMM>
<NUMSTATES> 5
<STATE> 2
<MEAN> 25
 -3.787611e+00 8.680188e+00 4.180485e+00 9.135221e-01 3.765336e+00 -2.135887e+00 -2.730469e+00 -2.110578e+00 -1.443826e+00 -2.017350e+00 7.995040e-01 8.945956e-01 -2.796064e+00 1.533839e+00 -7.545977e-01 -1.609213e-02 1.859853e+00 1.034137e-01 1.989251e-01 6.599609e-01 1.492300e-01 1.778986e-01 -1.114116e-01 -4.191989e-01 1.513551e-01
<VARIANCE> 25
 3.133121e+01 2.748428e+01 5.570859e+01 6.825336e+01 3.588502e+01 1.079151e+02 6.778841e+01 7.408360e+01 3.476270e+01 3.750605e+01 2.996259e+01 1.522420e+01 1.437677e+00 1.520951e+00 3.189986e+00 1.565620e+00 3.522670e+00 4.364806e+00 2.129153e+00 1.499518e+00 2.296118e+00 1.904453e+00 1.941165e+00 1.815205e+00 6.756613e-01
<GCONST> 9.965480e+01
<STATE> 3
<MEAN> 25
 -1.324517e+01 7.606782e+00 1.942079e+00 -6.862358e-01 9.548468e+00 2.003743e+00 -3.796483e+00 -2.113942e+00 3.108666e+00 -3.943028e+00 -3.327203e+00 -1.959988e+00 1.058055e-01 -1.196585e+00 -7.008445e-01 -5.728729e-02 -1.159048e-01 7.993193e-01 4.271928e-01 4.813190e-01 6.210458e-01 3.874035e-01 -7.342451e-01 -1.651643e-01 -8.863512e-01
<VARIANCE> 25
 1.981031e+01 5.181570e+01 5.970902e+01 9.654617e+01 2.352825e+01 9.271756e+01 7.404845e+01 3.685618e+01 4.254905e+01 3.976580e+01 3.534055e+01 1.719694e+01 3.542165e+00 1.413637e+00 2.811321e+00 2.895012e+00 2.208014e+00 2.538929e+00 2.534100e+00 3.605920e+00 1.902238e+00 2.563794e+00 2.179879e+00 1.234461e+00 9.641067e-01
<GCONST> 1.011649e+02
<STATE> 4
<MEAN> 25
 -8.536330e+00 4.956008e+00 -3.616117e+00 2.547210e+00 6.244081e+00 2.511444e+00 2.538777e+00 5.909507e+00 1.359887e+00 2.170527e+00 -7.179591e-01 2.896165e-01 2.962380e-01 -3.396309e-01 -6.261085e-02 8.398725e-04 -8.235426e-03 -8.528843e-02 -4.799333e-02 2.011299e-01 -4.359797e-02 3.817836e-02 1.677483e-01 4.642307e-02 -1.509647e-01
<VARIANCE> 25
 3.564608e+01 3.578348e+01 1.661028e+01 1.334671e+01 1.954335e+01 3.135402e+01 2.755673e+01 3.912866e+01 2.342142e+01 1.782423e+01 3.202269e+01 1.477343e+01 9.793196e-01 1.133972e+00 9.022869e-01 1.276720e+00 1.460911e+00 2.185694e+00 1.987545e+00 1.982187e+00 1.837475e+00 1.774101e+00 1.616332e+00 1.262129e+00 4.626133e-01
<GCONST> 8.799609e+01
<TRANSP> 5
 0.000000e+00 1.000000e+00 0.000000e+00 0.000000e+00 0.000000e+00
 0.000000e+00 7.453658e-01 2.546343e-01 0.000000e+00 0.000000e+00
 0.000000e+00 0.000000e+00 7.809609e-01 2.190391e-01 0.000000e+00
 0.000000e+00 0.000000e+00 0.000000e+00 8.946888e-01 1.053112e-01
 0.000000e+00 0.000000e+00 0.000000e+00 0.000000e+00 0.000000e+00
<ENDHMM>
~h "aa"
<BEGINHMM>
<NUMSTATES> 5
<STATE> 2
<MEAN> 25
 3.802823e+00 7.104543e-01 1.380940e+00 -5.081894e+00 -4.758100e+00 1.974252e+00 6.532385e-01 -4.133154e+00 7.857670e-02 -1.257435e+00 -2.253071e+00 5.205468e+00 8.278250e-01 -6.150568e-01 -1.598226e-01 -1.225120e+00 -6.921621e-01 5.969744e-02 -3.306852e-01 -4.516106e-01 3.501202e-01 -7.417080e-01 1.572255e-01 -5.141239e-01 1.526025e+00
<VARIANCE> 25
 4.928675e+01 3.122648e+01 5.462696e+01 4.108427e+01 6.743473e+01 5.599833e+01 4.948659e+01 7.838300e+01 6.091130e+01 3.675746e+01 1.023663e+02 5.067626e+01 3.382092e+00 3.323890e+00 6.278644e+00 4.933591e+00 5.843580e+00 3.630713e+00 3.473577e+00 5.795172e+00 4.739799e+00 4.773451e+00 1.230080e+01 3.643074e+00 3.809945e+00
<GCONST> 1.139386e+02
<STATE> 3
<MEAN> 25
 5.268023e+00 -4.427038e+00 -2.674830e+00 -4.234098e+00 -3.316369e+00 6.868036e-01 -3.455124e+00 4.246871e+00 3.862427e+00 -6.057213e+00 6.747930e+00 -4.439130e+00 -5.232963e-02 -2.952509e-01 -4.679661e-01 3.075859e-03 3.627636e-01 1.078606e-01 1.577122e-01 -3.361908e-01 3.320632e-01 1.018588e-01 6.088636e-02 -6.212294e-01 1.230586e-01
<VARIANCE> 25
 1.118854e+01 1.283817e+01 5.805392e+01 3.024396e+01 4.477819e+01 3.755124e+01 4.075384e+01 9.939618e+01 5.632199e+01 3.182841e+01 4.433630e+01 4.346037e+01 7.223817e-01 1.588790e+00 3.674190e+00 1.849875e+00 3.249164e+00 2.741743e+00 2.700292e+00 7.493348e+00 4.750010e+00 2.378784e+00 2.650325e+00 3.838714e+00 1.274814e+00
<GCONST> 1.014100e+02
<STATE> 4
<MEAN> 25
 2.869678e+00 -7.021746e+00 -5.912098e+00 -9.975421e+00 -2.452430e+00 3.935925e+00 1.385032e+00 -3.628242e+00 -1.338202e+00 -2.876239e+00 -2.172051e+00 -3.618330e+00 1.417194e-01 3.103594e-01 5.556286e-02 3.625978e-01 2.030094e-01 2.864371e-01 1.021616e-01 1.593309e-01 2.909142e-02 4.922855e-02 -4.340306e-02 1.817263e-01 -6.078409e-01
<VARIANCE> 25
 1.713312e+01 1.598153e+01 1.760395e+01 3.470892e+01 4.405352e+01 3.828417e+01 4.095573e+01 3.976450e+01 3.666013e+01 3.194599e+01 3.037547e+01 3.804963e+01 9.060399e-01 7.029010e-01 9.118800e-01 1.419867e+00 1.194114e+00 2.590268e+00 2.560849e+00 2.431640e+00 2.037000e+00 1.825343e+00 1.291418e+00 1.664841e+00 9.443588e-01
<GCONST> 9.170531e+01
<TRANSP> 5
 0.000000e+00 1.000000e+00 0.000000e+00 0.000000e+00 0.000000e+00
 0.000000e+00 7.248875e-01 2.751125e-01 0.000000e+00 0.000000e+00
 0.000000e+00 0.000000e+00 7.879171e-01 2.120829e-01 0.000000e+00
 0.000000e+00 0.000000e+00 0.000000e+00 8.735008e-01 1.264992e-01
 0.000000e+00 0.000000e+00 0.000000e+00 0.000000e+00 0.000000e+00
<ENDHMM>
~h "ae"
<BEGINHMM>
<NUMSTATES> 5
<STATE> 2
<MEAN> 25
 1.799366e+00 -5.339773e+00 -4.182779e+00 -3.628487e+00 -7.593388e-01 -2.383244e+00 -2.445446e+00 -1.692202e+00 1.556641e-01 -2.848743e+00 -5.744588e+00 -3.301342e+00 1.015962e-01 -3.832735e-01 -3.310296e-01 -1.794299e-01 4.491112e-01 7.189438e-01 3.115802e-01 -6.480057e-01 6.902094e-02 -7.618522e-02 -6.456456e-01 -4.872269e-01 1.943565e-01
<VARIANCE> 25
 1.613549e+01 1.330467e+01 1.317177e+01 2.781878e+01 2.269740e+01 4.167087e+01 1.904966e+01 6.625616e+01 4.254221e+01 1.923880e+01 2.964507e+01 2.403541e+01 1.467069e+00 1.204014e+00 1.194933e+00 2.377304e+00 1.482128e+00 3.138675e+00 2.534764e+00 3.788748e+00 4.261935e+00 2.779247e+00 2.521549e+00 1.727469e+00 3.472848e+00
<GCONST> 9.508954e+01
<STATE> 3
<MEAN> 25
 -4.074090e-01 -6.986697e+00 -5.067929e+00 -3.837318e+00 1.482499e+00 2.129237e+00 7.447648e-02 -1.687279e+00 -1.344541e+00 -5.491031e+00 -1.065656e+01 -3.493757e+00 -2.275110e-02 3.851792e-02 -1.359628e-01 1.324041e-02 5.426849e-02 1.204936e-01 2.766641e-01 1.360950e-01 2.128110e-02 1.212109e-01 4.579458e-02 1.936955e-02 -2.381410e-01
<VARIANCE> 25
 2.221953e+01 1.566661e+01 1.740049e+01 2.515419e+01 2.220264e+01 2.438123e+01 2.053016e+01 2.741412e+01 2.283432e+01 2.040670e+01 2.313069e+01 1.753848e+01 5.200902e-01 3.768913e-01 3.919331e-01 8.770863e-01 1.474069e+00 1.152440e+00 9.168484e-01 9.387800e-01 1.211201e+00 1.600846e+00 1.315183e+00 1.730688e+00 3.519480e-01
<GCONST> 8.078055e+01
<STATE> 4
<MEAN> 25
 -4.561042e-01 7.113876e-01 -1.620057e+00 3.221215e+00 6.805389e+00 4.238432e+00 5.257223e+00 3.475783e+00 3.187744e+00 3.548600e+00 1.198196e+00 3.720888e-01 -2.488350e-02 1.101237e-02 2.338832e-03 -1.544486e-03 -9.223257e-03 -8.441243e-03 3.724033e-02 1.632653e-02 3.992091e-02 8.028940e-02 8.713934e-02 -1.028402e-02 -4.429949e-02
<VARIANCE> 25
 2.410310e+00 5.486914e+00 7.363438e+00 8.602747e+00 1.018797e+01 1.068454e+01 1.179867e+01 1.496771e+01 1.247637e+01 1.438360e+01 1.733104e+01 1.206633e+01 1.429136e-01 2.742233e-01 4.342533e-01 4.799694e-01 8.863789e-01 9.700024e-01 1.118995e+00 1.396075e+00 1.475025e+00 1.402756e+00 1.224173e+00 1.099888e+00 7.082628e-02
<GCONST> 6.693899e+01
<TRANSP> 5
 0.000000e+00 1.000000e+00 0.000000e+00 0.000000e+00 0.000000e+00
 0.000000e+00 7.064137e-01 2.935862e-01 0.000000e+00 0.000000e+00
 0.000000e+00 0.000000e+00 8.204346e-01 1.795654e-01 0.000000e+00
 0.000000e+00 0.000000e+00 0.000000e+00 9.406528e-01 5.934714e-02
 0.000000e+00 0.000000e+00 0.000000e+00 0.000000e+00 0.000000e+00
<ENDHMM>
~h "ah"
<BEGINHMM>
<NUMSTATES> 5
<STATE> 2
<MEAN> 25
 3.218702e-02 -1.099443e+00 -8.173989e-02 -3.196523e+00 -5.156834e+00 -3.764257e+00 -2.496499e+00 -7.101042e-01 -7.100790e-01 -3.173585e+00 -2.276091e+00 -4.370803e-01 2.834371e-01 -5.553534e-01 -2.783852e-01 -8.009740e-01 -6.542580e-01 -4.496790e-01 -6.437413e-01 -5.945272e-01 1.020738e-01 -4.273068e-02 -3.085023e-01 -2.618752e-01 1.164259e+00
<VARIANCE> 25
 4.112612e+01 3.157321e+01 2.520678e+01 4.085749e+01 5.251678e+01 4.120046e+01 4.907937e+01 4.186625e+01 3.545373e+01 3.722781e+01 3.895281e+01 2.513513e+01 2.991140e+00 1.895511e+00 1.664832e+00 2.380372e+00 3.741658e+00 3.441115e+00 4.410326e+00 4.777040e+00 3.965219e+00 4.218302e+00 3.454751e+00 2.562367e+00 2.685710e+00
<GCONST> 1.041333e+02
<STATE> 3
<MEAN> 25
 1.078734e+00 -5.731913e+00 -3.056206e+00 -7.320113e+00 -3.856077e+00 -1.522213e+00 -2.944262e+00 -4.002482e+00 -1.806731e-01 -1.144090e+00 -4.122178e+00 -4.098796e+00 3.512594e-01 2.492522e-02 1.154397e-01 2.466763e-01 2.404463e-01 5.044830e-01 -2.567487e-01 -1.990618e-01 2.370577e-01 3.270018e-01 -2.033575e-01 -3.769304e-01 -4.474946e-01
<VARIANCE> 25
 1.799062e+01 1.438655e+01 2.995541e+01 2.887552e+01 3.077970e+01 5.384225e+01 4.340559e+01 3.076624e+01 3.648109e+01 3.421533e+01 2.685340e+01 2.972604e+01 1.051855e+00 5.693438e-01 1.195551e+00 1.217952e+00 1.550071e+00 3.399230e+00 2.418864e+00 2.164195e+00 2.364320e+00 2.435181e+00 2.080254e+00 1.972454e+00 1.205835e+00
<GCONST> 9.321729e+01
<STATE> 4
<MEAN> 25
 2.408262e+00 -1.746335e+00 -1.797617e+00 -2.131227e+00 -2.334450e-01 1.227217e+00 -2.129024e+00 -2.336508e+00 1.852024e+00 6.125771e-01 -4.075800e+00 -3.585763e+00 -1.510581e-01 4.816583e-01 5.479868e-02 4.938834e-01 7.192056e-01 2.348850e-01 1.627870e-01 2.703440e-01 -1.989516e-01 5.002592e-02 1.495112e-01 1.233422e-01 -8.124694e-01
<VARIANCE> 25
 3.236548e+01 1.881136e+01 2.426216e+01 3.562148e+01 4.481826e+01 5.692752e+01 6.833801e+01 3.138556e+01 2.432631e+01 3.682426e+01 2.814684e+01 2.480844e+01 1.339024e+00 8.270507e-01 9.965171e-01 1.569288e+00 1.869142e+00 3.108176e+00 2.635844e+00 2.548862e+00 2.396963e+00 2.189906e+00 2.007788e+00 1.491287e+00 8.964123e-01
<GCONST> 9.484082e+01
<TRANSP> 5
 0.000000e+00 1.000000e+00 0.000000e+00 0.000000e+00 0.000000e+00
 0.000000e+00 7.419884e-01 2.580116e-01 0.000000e+00 0.000000e+00
 0.000000e+00 0.000000e+00 7.514246e-01 2.485754e-01 0.000000e+00
 0.000000e+00 0.000000e+00 0.000000e+00 6.045151e-01 3.954849e-01
 0.000000e+00 0.000000e+00 0.000000e+00 0.000000e+00 0.000000e+00
<ENDHMM>
~h "ao"
<BEGINHMM>
<NUMSTATES> 5
<STATE> 2
<MEAN> 25
 7.457605e+00 3.577913e+00 -1.263194e+01 -1.955798e+01 3.647854e+00 8.818255e+00 8.289116e+00 -2.884377e+00 -1.223820e+00 -8.776472e-01 5.027210e+00 2.027853e+00 1.001672e+00 9.591014e-01 -8.854744e-02 -9.415996e-01 -6.873072e-01 -1.275954e-01 2.757286e-01 -6.255201e-01 -2.015333e-02 -8.193330e-01 5.762733e-01 4.329062e-01 1.084587e+00
<VARIANCE> 25
 3.831850e+01 3.482497e+01 4.200887e+01 1.018511e+02 3.763480e+01 3.068185e+01 4.865514e+01 4.547558e+01 2.957176e+01 3.815692e+01 3.187449e+01 4.739952e+01 2.462783e+00 1.923801e+00 2.944930e+00 9.220898e+00 3.338871e+00 2.229222e+00 4.665650e+00 5.360710e+00 3.212949e+00 3.290223e+00 3.167416e+00 3.087116e+00 6.003468e+00
<GCONST> 1.071215e+02
<STATE> 3
<MEAN> 25
 7.243241e+00 5.923985e+00 -7.511426e+00 -7.270696e+00 -1.479250e+00 4.351422e+00 5.338863e+00 2.268263e-01 -2.659319e+00 -2.199443e+00 7.362460e-01 -7.474532e-01 -8.570118e-01 -1.091170e+00 -1.890071e-01 4.874717e-01 3.617327e-01 -9.356700e-01 -2.746987e-01 6.616625e-01 -4.983978e-01 7.392935e-01 -3.571926e-01 -1.926436e-01 -1.775892e-01
<VARIANCE> 25
 3.689669e+01 3.675983e+01 2.284232e+01 8.464903e+01 2.898195e+01 3.505808e+01 5.118782e+01 5.524290e+01 8.015062e+01 5.285592e+01 7.499749e+01 2.598122e+01 2.823971e+00 2.466016e+00 3.036135e+00 9.060497e+00 3.803097e+00 6.563930e+00 6.250658e+00 4.846396e+00 7.234544e+00 6.251931e+00 1.044067e+01 3.399035e+00 5.648974e+00
<GCONST> 1.125198e+02
<STATE> 4
<MEAN> 25
 -1.171366e+00 -1.907699e+00 -6.840889e+00 -5.533445e+00 2.876903e+00 -6.438018e+00 -2.523577e+00 -1.979257e-01 2.098244e+00 3.398865e+00 4.527923e+00 3.307727e+00 1.922834e+00 1.172420e+00 1.356364e+00 -6.974260e-01 -7.695668e-01 4.339322e-02 -1.849130e+00 -1.630499e+00 1.110970e+00 -6.786280e-01 -2.635866e-01 5.153264e-01 1.060240e+00
<VARIANCE> 25
 7.215201e+01 4.190721e+01 2.784844e+01 2.724595e+01 2.958476e+01 8.059690e+01 5.043832e+01 4.251706e+01 1.276660e+02 3.083414e+01 3.573740e+01 1.349543e+01 7.363017e+00 5.452250e+00 2.458971e+00 3.765053e+00 4.027028e+00 1.106682e+01 3.586764e+00 3.994694e+00 2.941715e+00 3.102025e+00 4.154759e+00 1.792335e+00 3.786367e+00
<GCONST> 1.084242e+02
<TRANSP> 5
 0.000000e+00 1.000000e+00 0.000000e+00 0.000000e+00 0.000000e+00
 0.000000e+00 8.283120e-01 1.716880e-01 0.000000e+00 0.000000e+00
 0.000000e+00 0.000000e+00 8.456198e-01 1.543803e-01 0.000000e+00
 0.000000e+00 0.000000e+00 0.000000e+00 6.613877e-01 3.386123e-01
 0.000000e+00 0.000000e+00 0.000000e+00 0.000000e+00 0.000000e+00
<ENDHMM>
~h "aw"
<BEGINHMM>
<NUMSTATES> 5
<STATE> 2
<MEAN> 25
 -2.054502e+00 -8.883945e+00 -8.852738e+00 -1.095616e+01 -7.669923e-01 5.502524e+00 2.255255e+00 -8.321244e+00 -5.569048e+00 -2.616368e-01 -3.692356e+00 -4.173619e+00 1.228094e-01 -9.692776e-03 1.086027e-01 -8.605671e-02 -1.463784e-01 9.227725e-02 2.721081e-01 5.188492e-02 -5.052721e-02 -1.269843e-01 1.166716e-01 8.506950e-02 -1.479310e-01
<VARIANCE> 25
 6.012808e+00 2.848272e+00 4.166959e+00 7.405641e+00 1.345096e+01 7.574955e+00 2.103050e+01 1.252526e+01 1.871037e+01 1.352340e+01 7.101977e+00 1.435419e+01 3.914668e-01 3.362999e-01 4.585446e-01 3.803032e-01 6.325827e-01 1.142600e+00 1.279141e+00 1.684105e+00 1.915665e+00 1.566019e+00 8.483671e-01 1.292557e+00 1.015390e-01
<GCONST> 6.814465e+01
<STATE> 3
<MEAN> 25
 4.840807e+00 -2.097275e+00 -1.982483e+00 -6.279718e+00 -3.761441e+00 5.803784e-01 -2.684161e+00 -9.971305e-01 6.718636e-01 -1.185868e+00 -9.547279e-01 -5.044408e-01 1.707865e-01 6.751554e-01 3.598304e-01 7.709664e-01 3.736823e-01 -1.251032e-01 -5.106863e-01 5.329968e-01 2.968919e-01 -8.192675e-02 2.265025e-01 4.429374e-01 -9.499480e-01
<VARIANCE> 25
 1.961244e+01 2.037520e+01 1.506531e+01 4.974395e+01 2.491715e+01 7.169204e+01 6.671135e+01 3.962924e+01 2.648916e+01 2.739328e+01 1.812752e+01 2.876433e+01 2.026140e+00 1.128538e+00 8.458738e-01 1.269987e+00 1.516214e+00 5.010650e+00 5.136346e+00 3.341371e+00 1.976502e+00 2.362238e+00 1.477843e+00 1.488075e+00 1.699459e+00
<GCONST> 9.539668e+01
<STATE> 4
<MEAN> 25
 -1.478251e+00 1.910753e+00 2.139746e-01 4.088349e+00 4.819452e+00 1.792600e+00 3.811006e+00 5.507970e+00 2.979886e+00 3.167081e+00 2.285525e+00 1.314374e+00 -1.873378e-02 6.468987e-03 3.554718e-02 6.036267e-02 8.292249e-02 7.923920e-02 1.154179e-01 -1.019305e-01 -1.321218e-03 9.412178e-02 2.641832e-02 -4.321017e-02 -1.322205e-01
<VARIANCE> 25
 1.158341e+01 3.216186e+00 3.854518e+00 9.718359e+00 1.365730e+01 1.336563e+01 1.576590e+01 2.838756e+01 1.799925e+01 1.935340e+01 1.219428e+01 1.066270e+01 4.702551e-01 3.135900e-01 3.849996e-01 7.495281e-01 1.308701e+00 1.092959e+00 1.349993e+00 1.681532e+00 1.667324e+00 1.712846e+00 1.264523e+00 1.259290e+00 2.781944e-01
<GCONST> 7.347558e+01
<TRANSP> 5
 0.000000e+00 1.000000e+00 0.000000e+00 0.000000e+00 0.000000e+00
 0.000000e+00 9.418914e-01 5.810860e-02 0.000000e+00 0.000000e+00
 0.000000e+00 0.000000e+00 9.327781e-01 6.722193e-02 0.000000e+00
 0.000000e+00 0.000000e+00 0.000000e+00 9.640445e-01 3.595550e-02
 0.000000e+00 0.000000e+00 0.000000e+00 0.000000e+00 0.000000e+00
<ENDHMM>
~h "ay"
<BEGINHMM>
<NUMSTATES> 5
<STATE> 2
<MEAN> 25
 -1.326049e+00 -8.963827e+00 -8.434918e+00 -8.152806e+00 1.182809e+00 1.575660e+00 -1.125714e+00 -2.857141e+00 -4.331486e-01 -2.482576e-03 -4.868102e+00 -6.966864e+00 -2.059459e-01 -1.074238e-01 7.314793e-02 2.374628e-01 4.925145e-02 -2.591100e-01 -1.356710e-02 2.717687e-01 2.700937e-01 -2.179693e-01 -4.735151e-01 -9.223859e-02 9.285264e-02
<VARIANCE> 25
 5.390150e+00 3.875018e+00 7.149051e+00 1.444620e+01 1.751610e+01 3.048569e+01 2.596729e+01 2.454268e+01 1.928181e+01 1.489865e+01 2.236791e+01 1.944212e+01 3.027306e-01 3.531661e-01 8.603725e-01 5.232822e-01 1.353391e+00 3.265439e+00 1.707429e+00 2.422482e+00 1.982393e+00 1.488484e+00 1.628479e+00 2.540129e+00 7.883681e-02
<GCONST> 7.793018e+01
<STATE> 3
<MEAN> 25
 1.173866e+00 -4.712903e+00 1.473233e+00 -2.902640e+00 -7.581943e+00 -6.811372e+00 -1.815590e+00 7.404481e-01 1.457610e+00 -2.407589e+00 -3.823002e+00 -1.856222e+00 2.816422e-01 7.868999e-01 1.125669e+00 5.990106e-01 -9.271175e-01 9.942742e-02 2.661177e-01 -4.844467e-01 -4.216039e-01 1.147436e-02 7.896076e-01 8.631645e-01 -9.816131e-01
<VARIANCE> 25
 1.551865e+01 1.424788e+01 2.768323e+01 1.703446e+01 2.333547e+01 3.275557e+01 2.432492e+01 2.350005e+01 2.214658e+01 1.676344e+01 2.198769e+01 1.678501e+01 5.832070e-01 5.768924e-01 2.159898e+00 1.081762e+00 3.451314e+00 3.479768e+00 2.727263e+00 2.366386e+00 2.676144e+00 1.892032e+00 2.610587e+00 2.500459e+00 7.158918e-01
<GCONST> 8.959061e+01
<STATE> 4
<MEAN> 25
 -6.794968e-01 1.750011e+00 8.974837e-01 3.834791e+00 3.900310e+00 2.720068e+00 4.021619e+00 3.461274e+00 2.787112e+00 1.876543e+00 1.816019e+00 1.355833e+00 -9.890134e-02 7.027096e-02 5.279366e-02 2.793580e-02 1.213377e-01 3.722348e-02 4.204525e-02 8.851520e-04 -2.835094e-02 8.734390e-03 1.188294e-01 9.563899e-02 -1.502619e-01
<VARIANCE> 25
 6.959751e+00 5.880145e+00 7.373111e+00 9.935077e+00 2.458360e+01 1.816088e+01 1.388862e+01 2.395531e+01 1.629838e+01 2.410674e+01 1.461121e+01 1.167866e+01 5.481934e-01 3.995411e-01 7.035943e-01 7.678554e-01 8.572597e-01 9.508713e-01 1.306448e+00 1.620451e+00 1.315851e+00 1.846236e+00 1.252955e+00 1.094738e+00 2.276835e-01
<GCONST> 7.510948e+01
<TRANSP> 5
 0.000000e+00 1.000000e+00 0.000000e+00 0.000000e+00 0.000000e+00
 0.000000e+00 9.072005e-01 9.279953e-02 0.000000e+00 0.000000e+00
 0.000000e+00 0.000000e+00 8.509359e-01 1.490641e-01 0.000000e+00
 0.000000e+00 0.000000e+00 0.000000e+00 9.039924e-01 9.600759e-02
 0.000000e+00 0.000000e+00 0.000000e+00 0.000000e+00 0.000000e+00
<ENDHMM>
~h "ch"
<BEGINHMM>
<NUMSTATES> 5
<STATE> 2
<MEAN> 25
 5.515599e+00 3.357837e-01 6.561034e+00 7.664432e+00 -4.720720e+00 -5.951842e+00 -3.286292e+00 -9.879302e-01 -6.849360e+00 6.281959e-01 -3.829516e+00 -1.617465e+00 5.976534e-01 2.868807e-01 7.777930e-01 5.310748e-01 -2.192435e-01 -2.592835e-01 -1.690363e-01 -7.144610e-01 -1.204377e-01 -9.455622e-02 -4.891606e-01 2.815231e-01 -8.154112e-03
<VARIANCE> 25
 3.926889e+01 6.686175e+01 7.062993e+01 6.730945e+01 7.304055e+01 6.009880e+01 4.907758e+01 5.208891e+01 6.670932e+01 6.441380e+01 4.208054e+01 5.473477e+01 2.191237e+00 3.907283e+00 4.097220e+00 2.354492e+00 5.973014e+00 7.272066e+00 4.488595e+00 4.737166e+00 4.467466e+00 7.197465e+00 4.463314e+00 4.850620e+00 7.829484e+00
<GCONST> 1.144735e+02
<STATE> 3
<MEAN> 25
 -2.933723e+00 2.248247e-01 6.859509e+00 4.860659e+00 -2.364269e+00 -2.557799e+00 3.686609e+00 -4.224130e+00 -6.362367e+00 -1.353868e+00 -3.674669e+00 7.934884e-01 -2.885109e+00 -1.790947e+00 -3.580146e-02 -3.874688e-01 -3.056315e-01 4.997654e-01 4.347767e-01 1.585636e+00 -2.794788e-01 -5.559301e-01 1.797614e+00 2.862301e-01 2.182796e+00
<VARIANCE> 25
 9.234053e+01 8.647015e+01 5.153470e+01 1.874545e+02 8.289868e+01 3.367320e+01 7.704912e+01 5.826681e+01 9.047625e+01 4.559522e+01 5.134063e+01 3.994235e+01 4.253000e+00 5.583389e+00 3.598701e+00 3.644171e+00 4.731873e+00 2.982330e+00 7.146724e+00 5.793835e+00 5.497569e+00 7.036763e+00 6.243890e+00 3.443074e+00 3.754903e+00
<GCONST> 1.165607e+02
<STATE> 4
<MEAN> 25
 -1.041828e+01 -4.354018e+00 5.272129e+00 2.032050e+00 -4.264781e+00 -4.381492e+00 2.845880e+00 3.616301e+00 -1.411860e+00 -8.137963e-01 5.034125e+00 8.845078e-01 1.301218e-01 -7.528742e-02 -1.965347e-01 8.070491e-02 -4.534188e-02 -3.051911e-01 -1.650301e-02 6.973331e-02 4.914773e-01 1.653391e-01 -1.053720e-01 2.499638e-02 -4.263333e-01
<VARIANCE> 25
 1.178635e+02 5.153290e+01 2.142405e+01 1.331606e+02 4.173746e+01 3.870036e+01 4.376422e+01 3.318863e+01 5.133518e+01 2.226643e+01 4.885929e+01 5.650321e+01 5.543845e+00 1.503427e+00 1.486688e+00 2.534760e+00 3.032109e+00 3.965670e+00 3.595298e+00 2.343724e+00 3.301812e+00 2.443858e+00 3.190086e+00 1.972523e+00 2.777345e+00
<GCONST> 1.052620e+02
<TRANSP> 5
 0.000000e+00 1.000000e+00 0.000000e+00 0.000000e+00 0.000000e+00
 0.000000e+00 8.680292e-01 1.319709e-01 0.000000e+00 0.000000e+00
 0.000000e+00 0.000000e+00 7.572993e-01 2.427007e-01 0.000000e+00
 0.000000e+00 0.000000e+00 0.000000e+00 9.101090e-01 8.989104e-02
 0.000000e+00 0.000000e+00 0.000000e+00 0.000000e+00 0.000000e+00
<ENDHMM>
~h "dh"
<BEGINHMM>
<NUMSTATES> 5
<STATE> 2
<MEAN> 25
 4.185997e+00 -3.919675e+00 -3.578097e-01 -1.242689e+00 -7.657135e+00 -7.724062e+00 -3.430169e+00 4.372044e+00 6.835209e+00 1.490907e+00 -5.849701e+00 -7.906196e-01 3.601513e-01 3.052089e-02 -4.256726e-01 1.046793e+00 4.483971e-01 1.150250e-01 4.094448e-01 8.206677e-01 1.507294e-01 1.924942e-01 1.639580e-01 3.244389e-01 -6.757483e-01
<VARIANCE> 25
 1.963074e+01 1.102563e+01 8.649669e+00 2.999551e+01 2.670657e+01 1.320947e+01 1.287241e+01 2.756461e+01 1.189635e+01 9.719444e+00 1.559496e+01 1.423701e+01 1.339542e+00 5.399053e-01 7.265316e-01 2.238439e+00 2.162677e+00 1.942446e+00 1.162094e+00 1.247211e+00 1.168253e+00 1.539363e+00 1.194986e+00 1.234088e+00 1.446897e+00
<GCONST> 8.208690e+01
<STATE> 3
<MEAN> 25
 3.624488e+00 1.401519e+00 -1.488696e+00 7.571857e+00 3.581564e+00 -1.264997e+00 1.805580e+00 7.583632e+00 5.088212e+00 5.187495e-01 -3.444549e+00 9.683862e-02 -8.325727e-01 5.523332e-01 3.687791e-01 -1.271234e-01 1.273850e+00 8.568777e-01 9.695310e-01 -2.926471e-01 -3.756809e-01 -2.470138e-01 1.594860e-01 -3.192557e-01 -1.015860e+00
<VARIANCE> 25
 9.697199e+00 8.885056e+00 1.036962e+01 1.430182e+01 1.787199e+01 1.705341e+01 1.928375e+01 2.094223e+01 1.780364e+01 1.142249e+01 1.425715e+01 1.670102e+01 2.594501e-01 3.028378e-01 5.565521e-01 1.070407e+00 9.932049e-01 1.118074e+00 1.048558e+00 8.567984e-01 1.278572e+00 1.297732e+00 1.356733e+00 1.936783e+00 3.217975e-01
<GCONST> 7.518531e+01
<STATE> 4
<MEAN> 25
 -1.806255e+00 2.443560e+00 -4.990853e-01 4.430421e+00 6.876376e+00 4.550816e+00 6.399159e+00 4.351972e+00 2.153383e+00 3.978024e+00 2.280264e+00 7.188020e-01 -6.686203e-02 -1.974405e-02 -2.525014e-02 -5.925683e-02 -2.408258e-02 3.189892e-02 7.919569e-03 -9.284830e-03 -3.381158e-02 8.141731e-02 1.182350e-01 5.323704e-02 -3.446173e-02
<VARIANCE> 25
 1.424392e+00 3.427772e+00 5.167992e+00 6.409746e+00 7.379765e+00 8.225157e+00 9.493093e+00 1.163801e+01 1.097181e+01 1.247725e+01 1.139955e+01 9.915402e+00 9.111715e-02 1.674274e-01 3.013854e-01 5.966880e-01 7.363754e-01 8.931199e-01 1.021786e+00 1.143674e+00 1.118651e+00 1.363582e+00 1.067659e+00 1.018709e+00 2.830492e-02
<GCONST> 6.027030e+01
<TRANSP> 5
 0.000000e+00 1.000000e+00 0.000000e+00 0.000000e+00 0.000000e+00
 0.000000e+00 8.786433e-01 1.213567e-01 0.000000e+00 0.000000e+00
 0.000000e+00 0.000000e+00 8.387135e-01 1.612865e-01 0.000000e+00
 0.000000e+00 0.000000e+00 0.000000e+00 9.703951e-01 2.960495e-02
 0.000000e+00 0.000000e+00 0.000000e+00 0.000000e+00 0.000000e+00
<ENDHMM>
~h "eh"
<BEGINHMM>
<NUMSTATES> 5
<STATE> 2
<MEAN> 25
 2.752780e-01 -1.155245e+00 2.478597e+00 -8.259451e-01 -3.616421e+00 -5.319955e+00 -1.182851e+00 -9.380849e-02 -1.376220e+00 -2.907639e+00 -2.092872e+00 1.147992e+00 1.102453e+00 -1.129425e+00 1.301012e-01 -1.436542e+00 -1.848870e+00 -1.780046e+00 -9.738238e-01 -3.170606e-01 4.759243e-01 -3.146977e-01 -2.654640e-01 7.082158e-02 2.455657e+00
<VARIANCE> 25
 6.987772e+01 2.516057e+01 3.439410e+01 2.517051e+01 4.627436e+01 5.929364e+01 5.592390e+01 5.999912e+01 3.107157e+01 3.005118e+01 4.043623e+01 2.291620e+01 7.739925e+00 2.007283e+00 3.388572e+00 2.135084e+00 3.816117e+00 3.416110e+00 5.175313e+00 4.884940e+00 5.008527e+00 3.483036e+00 3.453865e+00 2.604760e+00 1.853866e+00
<GCONST> 1.060817e+02
<STATE> 3
<MEAN> 25
 -3.597044e-01 -4.996806e+00 -1.255664e-01 -5.211040e+00 -7.653077e+00 -9.603887e+00 -1.212230e+00 6.714481e-01 3.711797e+00 -1.527609e+00 -2.922656e+00 -1.533762e-01 -5.419158e-01 -6.492457e-01 -5.143799e-01 -3.613197e-01 1.763273e-01 -1.599871e-01 9.506335e-01 8.633458e-01 5.687140e-01 -3.959638e-01 -9.340856e-01 -2.322409e-01 6.314009e-01
<VARIANCE> 25
 1.423319e+01 8.460748e+00 3.395807e+01 2.089736e+01 2.671136e+01 3.633976e+01 2.429930e+01 2.241073e+01 2.226449e+01 2.556872e+01 3.704818e+01 2.374469e+01 5.953944e-01 5.526344e-01 1.032643e+00 1.002664e+00 1.839776e+00 1.493783e+00 2.164536e+00 2.014550e+00 2.183590e+00 2.331663e+00 2.487841e+00 1.498772e+00 5.774560e-01
<GCONST> 8.740585e+01
<STATE> 4
<MEAN> 25
 -4.265612e-01 -6.822597e+00 -2.305212e+00 -5.230870e+00 -4.560338e+00 -4.690746e+00 -7.708667e-01 9.146174e-01 2.595930e+00 -4.392826e+00 -7.238588e+00 -3.311551e+00 2.920862e-01 5.225656e-02 2.102605e-01 2.398422e-02 -1.695957e-01 3.565473e-01 -8.549174e-02 -1.377423e-01 -1.731355e-01 1.936824e-01 3.062396e-01 -3.745541e-02 -3.443122e-01
<VARIANCE> 25
 1.455822e+01 6.735049e+00 2.420391e+01 1.893541e+01 2.930718e+01 4.395566e+01 3.168186e+01 2.415446e+01 2.317334e+01 2.697148e+01 3.051093e+01 2.676380e+01 8.500059e-01 4.122435e-01 9.235818e-01 6.495112e-01 9.496789e-01 2.383433e+00 2.220920e+00 1.996761e+00 1.583057e+00 2.414050e+00 2.332245e+00 1.819036e+00 8.069766e-01
<GCONST> 8.692213e+01
<TRANSP> 5
 0.000000e+00 1.000000e+00 0.000000e+00 0.000000e+00 0.000000e+00
 0.000000e+00 6.780198e-01 3.219802e-01 0.000000e+00 0.000000e+00
 0.000000e+00 0.000000e+00 5.814328e-01 4.185672e-01 0.000000e+00
 0.000000e+00 0.000000e+00 0.000000e+00 8.481262e-01 1.518738e-01
 0.000000e+00 0.000000e+00 0.000000e+00 0.000000e+00 0.000000e+00
<ENDHMM>
~h "er"
<BEGINHMM>
<NUMSTATES> 5
<STATE> 2
<MEAN> 25
 -3.095051e-02 -3.395880e-01 6.587327e+00 4.158882e-01 -5.800093e+00 -5.102050e+00 -1.872461e+00 2.556190e+00 -1.836632e+00 -5.337249e+00 2.983392e+00 2.242174e+00 2.523733e-01 -6.381540e-01 -2.279888e-01 1.582949e-01 -7.729417e-02 -7.926659e-01 -8.504986e-01 1.245059e-01 -2.114202e-01 -2.949959e-01 -9.885041e-02 -2.416661e-01 2.699719e-01
<VARIANCE> 25
 3.715210e+01 2.971378e+01 6.018336e+01 3.267890e+01 8.016891e+01 6.145433e+01 3.465675e+01 3.434333e+01 3.282513e+01 3.617560e+01 4.442265e+01 1.920871e+01 4.767540e+00 1.888107e+00 2.701637e+00 3.220001e+00 5.129430e+00 4.143742e+00 3.181199e+00 3.144458e+00 2.876360e+00 2.573030e+00 5.314676e+00 2.435590e+00 3.965798e+00
<GCONST> 1.056108e+02
<STATE> 3
<MEAN> 25
 1.540330e+00 -4.799884e+00 5.669280e-01 2.393495e+00 -1.101601e+00 -4.262966e+00 -6.063734e+00 1.716020e+00 -1.140692e+00 -1.390213e+00 -6.106755e-01 -1.226585e+00 6.236519e-01 4.758522e-01 -1.720996e+00 3.835640e-01 -1.982492e-01 1.811139e+00 7.151715e-02 -8.433304e-01 5.236078e-01 8.720674e-01 -2.987411e-01 -7.395705e-01 -1.160668e+00
<VARIANCE> 25
 4.181892e+01 3.069368e+01 4.238598e+01 5.161272e+01 4.612484e+01 5.773169e+01 4.032156e+01 4.930146e+01 4.054935e+01 4.328515e+01 8.342812e+01 2.030016e+01 1.066961e+00 1.900670e+00 1.847359e+00 2.526567e+00 3.310094e+00 4.242303e+00 3.021704e+00 3.273267e+00 2.714291e+00 4.073877e+00 3.047617e+00 2.248520e+00 3.478018e+00
<GCONST> 1.039374e+02
<STATE> 4
<MEAN> 25
 4.685397e+00 -3.080693e+00 -4.975765e+00 3.677795e+00 -1.689214e+00 -3.019297e+00 -5.687525e+00 -6.756127e-01 2.279649e+00 1.410826e+00 -2.901713e+00 -5.525889e-01 -2.482595e-01 2.211606e-01 -1.729022e-01 3.784828e-01 6.571187e-01 2.720437e-01 5.125235e-01 1.013714e-01 1.652795e-01 1.166475e-01 -2.815633e-01 -1.713479e-02 -6.835024e-01
<VARIANCE> 25
 4.183763e+01 1.927464e+01 2.735880e+01 5.620990e+01 4.836888e+01 6.355248e+01 4.578339e+01 3.337622e+01 2.318875e+01 2.418797e+01 4.698848e+01 2.608019e+01 1.141834e+00 8.328102e-01 1.393087e+00 2.067400e+00 1.640014e+00 2.329259e+00 2.051857e+00 2.197022e+00 1.724408e+00 1.938860e+00 1.838480e+00 1.616803e+00 7.315787e-01
<GCONST> 9.461814e+01
<TRANSP> 5
 0.000000e+00 1.000000e+00 0.000000e+00 0.000000e+00 0.000000e+00
 0.000000e+00 7.479403e-01 2.520597e-01 0.000000e+00 0.000000e+00
 0.000000e+00 0.000000e+00 5.647333e-01 4.352667e-01 0.000000e+00
 0.000000e+00 0.000000e+00 0.000000e+00 8.079929e-01 1.920071e-01
 0.000000e+00 0.000000e+00 0.000000e+00 0.000000e+00 0.000000e+00
<ENDHMM>
~h "ey"
<BEGINHMM>
<NUMSTATES> 5
<STATE> 2
<MEAN> 25
 -3.732481e+00 -2.869741e+00 3.775782e+00 -5.006709e+00 -1.190726e+01 -7.901797e+00 -2.694206e+00 -6.547757e+00 -1.310343e+00 -2.265931e+00 5.956278e-01 1.472900e+00 -9.369568e-02 3.746490e-01 6.037726e-01 5.935379e-02 -2.478189e-01 3.978365e-01 -1.149173e-01 -7.236440e-01 -4.868701e-01 -9.837849e-02 2.429986e-01 -7.771813e-02 -1.586750e-01
<VARIANCE> 25
 3.191555e+00 6.837996e+00 1.963708e+01 9.270647e+00 1.397093e+01 1.713606e+01 3.974210e+01 5.268867e+01 2.301550e+01 2.312174e+01 3.070238e+01 1.335898e+01 2.147684e-01 3.266331e-01 8.353356e-01 7.756056e-01 9.268856e-01 1.042035e+00 2.159022e+00 2.615916e+00 1.921464e+00 2.244102e+00 2.174807e+00 1.648010e+00 1.297242e-01
<GCONST> 7.895356e+01
<STATE> 3
<MEAN> 25
 1.529793e-01 1.695990e+00 1.076334e+01 -8.503951e-01 -1.116920e+01 -3.667627e-01 -4.011186e+00 -7.601090e+00 -5.240798e+00 -4.447381e+00 1.321123e+00 -3.156296e-01 4.617060e-01 3.823411e-01 -1.102816e-01 6.743451e-01 6.978552e-01 7.257035e-01 1.496467e-01 7.907647e-01 1.001520e-01 1.895005e-01 -6.383847e-02 -8.800431e-02 -1.267636e+00
<VARIANCE> 25
 1.710007e+01 1.295180e+01 2.937530e+01 1.985154e+01 3.144872e+01 3.354918e+01 2.830975e+01 2.521552e+01 2.707906e+01 3.920346e+01 1.878324e+01 1.309460e+01 1.353205e+00 1.211295e+00 2.933957e+00 1.643026e+00 2.715930e+00 2.737701e+00 2.353130e+00 2.329462e+00 2.233310e+00 2.853687e+00 2.444407e+00 1.540591e+00 1.089731e+00
<GCONST> 9.275909e+01
<STATE> 4
<MEAN> 25
 -1.147426e+00 1.988096e+00 -7.964303e-01 3.265499e+00 4.489527e+00 3.157259e+00 4.182865e+00 2.662846e+00 1.115412e+00 3.230414e+00 9.427931e-01 9.749503e-01 -2.170394e-02 -9.311942e-03 -1.475888e-01 -5.909589e-03 2.491981e-01 1.255396e-02 1.366735e-01 2.027769e-01 1.112053e-01 5.206359e-02 9.676939e-03 4.149585e-03 -1.450973e-01
<VARIANCE> 25
 1.430493e+01 5.892178e+00 2.201255e+01 1.539673e+01 2.491307e+01 2.549804e+01 2.091477e+01 2.747847e+01 1.962905e+01 2.063616e+01 2.436804e+01 1.803887e+01 6.464717e-01 4.616749e-01 6.641303e-01 9.305149e-01 1.221410e+00 1.470966e+00 1.223695e+00 1.944813e+00 1.557853e+00 1.443065e+00 1.155707e+00 1.223081e+00 3.975137e-01
<GCONST> 8.110082e+01
<TRANSP> 5
 0.000000e+00 1.000000e+00 0.000000e+00 0.000000e+00 0.000000e+00
 0.000000e+00 8.907657e-01 1.092343e-01 0.000000e+00 0.000000e+00
 0.000000e+00 0.000000e+00 8.313798e-01 1.686203e-01 0.000000e+00
 0.000000e+00 0.000000e+00 0.000000e+00 9.069115e-01 9.308854e-02
 0.000000e+00 0.000000e+00 0.000000e+00 0.000000e+00 0.000000e+00
<ENDHMM>
~h "hh"
<BEGINHMM>
<NUMSTATES> 5
<STATE> 2
<MEAN> 25
 -2.990239e-01 -9.866131e-01 -1.018581e+00 -1.058913e+00 -1.435434e+00 -1.765847e+00 -8.108438e-01 -7.082760e-01 -8.568625e-01 -3.612011e+00 6.581276e-01 2.121725e+00 1.916434e-02 -4.080967e-01 -2.354045e-01 -1.388143e-01 -3.583586e-01 -6.783291e-02 2.641651e-01 -5.063490e-01 -2.919295e-01 -7.748861e-01 -8.107494e-01 -9.820775e-02 9.171138e-01
<VARIANCE> 25
 1.484228e+01 2.093069e+01 2.219784e+01 3.011794e+01 3.140844e+01 5.196739e+01 4.832711e+01 6.133769e+01 3.043030e+01 3.583585e+01 4.741740e+01 2.890170e+01 8.195685e-01 1.458978e+00 1.123704e+00 1.775078e+00 2.082893e+00 2.065225e+00 3.522934e+00 3.236293e+00 1.960559e+00 2.108384e+00 3.724574e+00 2.826442e+00 2.469234e+00
<GCONST> 9.723907e+01
<STATE> 3
<MEAN> 25
 -1.270401e+00 1.327036e+00 -1.260618e+00 2.328185e+00 -9.757279e-01 -2.078092e-01 8.215325e-01 -2.616412e+00 -6.026951e+00 -2.316882e+00 -5.787937e+00 -3.759986e+00 -4.242635e-02 -9.873550e-02 -2.377784e-02 9.324125e-02 2.241371e-01 1.523566e-01 2.254209e-01 2.215545e-01 4.649302e-02 4.661850e-01 2.010501e-01 1.681780e-01 -2.149739e-01
<VARIANCE> 25
 5.960902e+01 2.900295e+01 1.952992e+01 2.990835e+01 2.074676e+01 2.671962e+01 2.531587e+01 4.710829e+01 4.737428e+01 8.540175e+01 2.454827e+01 4.428746e+01 3.953836e-01 8.747910e-01 5.473539e-01 8.537858e-01 1.134773e+00 1.740703e+00 1.505031e+00 1.658585e+00 1.881705e+00 1.853005e+00 1.564993e+00 2.896766e+00 5.102708e-01
<GCONST> 9.033141e+01
<STATE> 4
<MEAN> 25
 -4.745627e-01 2.654706e+00 1.514377e+00 5.184130e+00 4.399171e+00 3.256878e+00 3.462909e+00 1.928946e+00 1.252951e+00 2.855703e+00 1.462579e+00 6.811060e-01 -4.686241e-02 -1.441876e-01 -9.543756e-02 -5.757038e-02 -3.387019e-02 -5.786865e-02 1.643732e-02 1.555610e-01 6.416154e-02 8.090058e-02 3.814836e-02 1.024849e-01 8.934802e-03
<VARIANCE> 25
 7.119697e+00 1.058555e+01 9.376453e+00 1.140549e+01 8.410594e+00 1.026332e+01 1.509998e+01 2.082606e+01 1.644069e+01 1.944829e+01 2.114076e+01 1.140109e+01 1.375266e-01 3.539147e-01 4.258662e-01 4.500558e-01 6.140535e-01 7.475982e-01 1.147222e+00 1.744322e+00 1.245921e+00 1.464827e+00 1.352032e+00 1.094342e+00 1.183966e-01
<GCONST> 7.050312e+01
<TRANSP> 5
 0.000000e+00 1.000000e+00 0.000000e+00 0.000000e+00 0.000000e+00
 0.000000e+00 7.949762e-01 2.050239e-01 0.000000e+00 0.000000e+00
 0.000000e+00 0.000000e+00 8.185455e-01 1.814545e-01 0.000000e+00
 0.000000e+00 0.000000e+00 0.000000e+00 8.912962e-01 1.087038e-01
 0.000000e+00 0.000000e+00 0.000000e+00 0.000000e+00 0.000000e+00
<ENDHMM>
~h "ih"
<BEGINHMM>
<NUMSTATES> 5
<STATE> 2
<MEAN> 25
 -4.369417e+00 2.346612e+00 2.581383e+00 3.033797e-01 8.267322e-01 -2.090952e+00 -1.172879e+00 -1.444028e+00 -6.632045e-01 -2.219562e+00 5.288153e-01 1.460936e+00 7.405350e-01 5.555896e-01 2.369683e+00 -1.030105e+00 -2.053916e+00 -1.581622e+00 -1.276677e+00 -1.174780e+00 -1.269616e+00 -1.596765e+00 8.472162e-01 -1.507451e-01 2.218869e+00
<VARIANCE> 25
 5.838722e+01 3.021673e+01 6.932555e+01 4.236660e+01 4.092076e+01 5.123203e+01 4.635836e+01 4.031170e+01 4.779377e+01 3.889965e+01 3.417252e+01 3.101011e+01 5.600416e+00 3.113547e+00 6.385140e+00 3.953309e+00 4.292222e+00 4.209723e+00 6.446055e+00 4.936499e+00 5.333853e+00 5.122971e+00 5.349819e+00 3.333268e+00 4.000407e+00
<GCONST> 1.110989e+02
<STATE> 3
<MEAN> 25
 2.587693e+00 1.791224e+00 7.294068e+00 -3.108300e+00 -6.620482e+00 -4.262632e+00 -6.064491e+00 -4.006166e+00 -4.635242e+00 -4.840942e+00 1.661008e+00 2.229074e-01 2.266383e-01 -6.569383e-02 -2.948281e-01 -4.833736e-01 -2.438981e-01 4.200603e-01 1.580078e-01 -3.980907e-01 -1.796402e-01 -3.064729e-02 -7.654654e-01 -3.367707e-01 2.348126e-01
<VARIANCE> 25
 2.318367e+01 5.381062e+01 6.751701e+01 4.129932e+01 3.070158e+01 3.229042e+01 5.625872e+01 7.205083e+01 5.306946e+01 3.704417e+01 6.069078e+01 5.628436e+01 2.536322e+00 2.221978e+00 3.088344e+00 5.623957e+00 3.628933e+00 2.938552e+00 3.952919e+00 4.958016e+00 3.480626e+00 3.874237e+00 4.436659e+00 3.131586e+00 3.868993e+00
<GCONST> 1.084475e+02
<STATE> 4
<MEAN> 25
 5.808591e-01 1.723845e+00 7.429847e+00 -9.550294e-01 -8.263768e+00 -2.137342e+00 -3.655310e+00 -8.074465e+00 -5.874809e+00 -5.379121e+00 -2.047745e+00 -1.018491e+00 1.860973e-02 1.199665e-01 -1.961835e-01 4.349013e-01 5.254264e-01 4.875765e-01 2.628091e-01 9.432470e-02 1.794109e-01 4.636424e-01 -2.611347e-01 -1.615596e-01 -8.193496e-01
<VARIANCE> 25
 2.069937e+01 1.394564e+01 3.609348e+01 3.558813e+01 4.349648e+01 2.604438e+01 2.747875e+01 5.315238e+01 3.009946e+01 3.895079e+01 3.224348e+01 2.571614e+01 1.293519e+00 8.307736e-01 2.342856e+00 1.786537e+00 2.635612e+00 1.690989e+00 1.924680e+00 3.013251e+00 2.239178e+00 2.535352e+00 2.485583e+00 1.993323e+00 1.939016e+00
<GCONST> 9.563139e+01
<TRANSP> 5
 0.000000e+00 1.000000e+00 0.000000e+00 0.000000e+00 0.000000e+00
 0.000000e+00 6.344627e-01 3.655374e-01 0.000000e+00 0.000000e+00
 0.000000e+00 0.000000e+00 6.845414e-01 3.154587e-01 0.000000e+00
 0.000000e+00 0.000000e+00 0.000000e+00 8.551607e-01 1.448393e-01
 0.000000e+00 0.000000e+00 0.000000e+00 0.000000e+00 0.000000e+00
<ENDHMM>
~h "iy"
<BEGINHMM>
<NUMSTATES> 5
<STATE> 2
<MEAN> 25
 -1.763947e+00 2.510187e+00 4.936555e+00 2.277749e+00 -1.020663e-01 -1.634272e+00 -8.232230e-01 -9.936824e-01 -2.252317e+00 -1.576552e+00 -3.549079e-01 2.990829e-01 5.345381e-01 9.498971e-01 1.765324e+00 -3.495893e-01 -9.140399e-01 -1.018491e+00 -1.190610e+00 -1.116646e+00 -1.236024e+00 -1.446702e+00 8.766183e-02 -7.819737e-02 8.474508e-01
<VARIANCE> 25
 8.023201e+01 3.760175e+01 5.309926e+01 3.315709e+01 5.946672e+01 2.882102e+01 5.620875e+01 4.153714e+01 3.801287e+01 4.263411e+01 4.519599e+01 3.057660e+01 8.285048e+00 3.022083e+00 5.276210e+00 4.218324e+00 5.646643e+00 4.533103e+00 5.820564e+00 5.560193e+00 3.151843e+00 4.480937e+00 6.321002e+00 4.604184e+00 4.270659e+00
<GCONST> 1.117693e+02
<STATE> 3
<MEAN> 25
 -4.061805e+00 3.760178e+00 1.260186e+01 -3.640589e+00 -2.760605e+00 -7.678153e+00 -1.481058e+00 -1.754057e+00 -5.169921e+00 -3.328110e+00 1.273518e+00 2.998427e+00 1.458784e+00 6.693832e-01 1.474908e+00 -1.672562e-01 -2.745809e+00 -6.159683e-01 -3.973964e-01 -6.216801e-01 -9.993079e-01 -7.610107e-01 7.334558e-01 -1.790223e-01 8.776558e-01
<VARIANCE> 25
 5.097260e+01 2.826189e+01 5.814257e+01 2.410823e+01 5.056714e+01 3.352824e+01 2.727156e+01 3.776766e+01 2.805571e+01 2.587078e+01 3.329155e+01 3.011862e+01 1.054056e+01 3.760268e+00 3.164760e+00 3.849555e+00 7.689289e+00 5.123502e+00 3.964892e+00 3.894666e+00 3.429303e+00 2.454767e+00 2.957933e+00 3.637533e+00 2.015366e+00
<GCONST> 1.061334e+02
<STATE> 4
<MEAN> 25
 1.883003e+00 4.633734e+00 1.089500e+01 1.282390e+00 -9.966112e+00 -4.478632e+00 -1.131302e+00 -3.567834e+00 -5.694132e+00 -3.975271e+00 3.123791e+00 1.519105e+00 4.233732e-02 7.932053e-02 -5.198510e-01 4.691153e-01 4.979014e-01 3.869553e-01 6.155727e-02 -1.965960e-01 1.362898e-01 2.736602e-01 -2.824319e-01 -1.893076e-01 -7.924485e-01
<VARIANCE> 25
 1.541292e+01 2.238815e+01 3.644304e+01 4.685453e+01 4.746782e+01 5.672086e+01 2.939523e+01 4.135798e+01 3.768362e+01 3.919784e+01 4.375770e+01 3.446020e+01 1.087477e+00 1.072612e+00 2.270448e+00 2.038999e+00 4.065808e+00 3.204798e+00 2.077491e+00 2.935797e+00 2.375540e+00 2.414101e+00 2.788409e+00 2.506285e+00 1.857808e+00
<GCONST> 9.922310e+01
<TRANSP> 5
 0.000000e+00 1.000000e+00 0.000000e+00 0.000000e+00 0.000000e+00
 0.000000e+00 5.958572e-01 4.041428e-01 0.000000e+00 0.000000e+00
 0.000000e+00 0.000000e+00 5.657860e-01 4.342139e-01 0.000000e+00
 0.000000e+00 0.000000e+00 0.000000e+00 8.920197e-01 1.079803e-01
 0.000000e+00 0.000000e+00 0.000000e+00 0.000000e+00 0.000000e+00
<ENDHMM>
~h "jh"
<BEGINHMM>
<NUMSTATES> 5
<STATE> 2
<MEAN> 25
 -1.745117e+00 -1.463233e+00 6.231686e+00 -1.853667e+00 -1.059231e+01 -3.023943e+00 -4.513493e-01 -7.341044e+00 -7.507280e+00 -7.387311e+00 -2.354856e+00 -8.254618e+00 5.486689e-01 3.129831e-01 5.439702e-01 5.575038e-01 -4.111871e-01 9.932738e-01 -4.568804e-01 -2.670177e-02 5.870147e-02 1.654860e-01 -1.343300e-01 1.887866e-01 -7.966806e-01
<VARIANCE> 25
 2.068568e+01 5.107146e+00 2.904379e+01 1.092524e+01 3.642320e+01 4.291869e+01 3.101586e+01 2.220516e+01 1.713086e+01 2.048512e+01 1.373483e+01 4.294170e+01 1.382489e+00 5.891903e-01 1.305034e+00 9.139254e-01 4.625039e+00 2.446199e+00 2.033705e+00 1.737416e+00 2.691941e+00 3.326774e+00 1.355728e+00 2.604177e+00 1.012611e+00
<GCONST> 8.962223e+01
<STATE> 3
<MEAN> 25
 -9.806805e-01 -2.974219e+00 -1.373922e-01 -4.725354e+00 -7.117731e+00 -4.942012e+00 -7.253615e+00 -1.021087e+01 -6.647483e+00 -4.243110e+00 8.918137e-02 5.901995e-01 -2.545469e-01 -6.510813e-02 -1.670847e-01 -9.063661e-02 1.242781e-01 -6.141527e-01 1.180419e-01 1.539811e-01 2.256637e-01 1.061136e-01 2.677728e-01 -5.032711e-02 4.186883e-01
<VARIANCE> 25
 2.090901e+01 2.117427e+01 2.753279e+01 1.025444e+01 2.004316e+01 1.944996e+01 6.727179e+00 2.493811e+01 1.279012e+01 1.584209e+01 9.032284e+00 1.233874e+01 2.608189e+00 1.161056e+00 1.798254e+00 6.012604e-01 3.992623e+00 1.987728e+00 1.035095e+00 3.023218e+00 1.603261e+00 2.173661e+00 1.778099e+00 2.012044e+00 1.242647e+00
<GCONST> 8.593488e+01
<STATE> 4
<MEAN> 25
 -1.544115e+00 9.843628e-02 5.933372e+00 -2.494947e+00 -8.232715e+00 -1.513085e+00 -5.496655e+00 -5.876981e+00 -5.747708e+00 -7.704421e+00 -1.894761e+00 4.828550e-02 3.022780e-01 4.385785e-02 4.672411e-01 4.843317e-01 4.074557e-02 2.993059e-01 -1.620531e-01 4.167721e-01 6.219894e-01 -1.150437e-01 -3.798538e-01 5.283315e-03 -4.658234e-01
<VARIANCE> 25
 3.740828e+01 1.955770e+01 3.314081e+01 2.052369e+01 2.522208e+01 3.215275e+01 1.530282e+01 2.158774e+01 1.676994e+01 2.048322e+01 2.164068e+01 8.673917e+00 5.091287e+00 2.185013e+00 5.710942e+00 2.327475e+00 3.667611e+00 4.668044e+00 1.118550e+00 2.191971e+00 2.426107e+00 4.319096e+00 2.532794e+00 1.017275e+00 3.760419e+00
<GCONST> 9.599076e+01
<TRANSP> 5
 0.000000e+00 1.000000e+00 0.000000e+00 0.000000e+00 0.000000e+00
 0.000000e+00 7.686287e-01 2.313714e-01 0.000000e+00 0.000000e+00
 0.000000e+00 0.000000e+00 8.906771e-01 1.093229e-01 0.000000e+00
 0.000000e+00 0.000000e+00 0.000000e+00 9.029482e-01 9.705183e-02
 0.000000e+00 0.000000e+00 0.000000e+00 0.000000e+00 0.000000e+00
<ENDHMM>
~h "ng"
<BEGINHMM>
<NUMSTATES> 5
<STATE> 2
<MEAN> 25
 -3.978353e-01 -8.829938e+00 -5.706431e+00 -4.408026e+00 3.012052e+00 -2.208758e-01 -5.202365e+00 -6.446271e+00 8.392315e-01 2.420358e-01 -5.435052e+00 -6.968389e+00 3.338180e-01 2.617563e-01 5.140834e-01 1.776070e-01 -2.471538e-01 1.186999e-01 -6.064318e-01 -3.632932e-01 1.213088e-01 4.784730e-02 1.841380e-01 1.646600e-01 -4.061887e-01
<VARIANCE> 25
 8.920524e+00 8.321053e+00 2.994341e+01 1.053239e+01 2.875760e+01 4.471250e+01 2.548020e+01 1.356623e+01 2.517480e+01 3.049609e+01 2.078840e+01 1.714865e+01 8.933321e-01 4.890632e-01 1.297145e+00 5.681105e-01 1.592651e+00 2.615924e+00 1.486893e+00 1.414311e+00 2.290787e+00 2.501013e+00 1.419869e+00 1.255710e+00 4.261616e-01
<GCONST> 8.404015e+01
<STATE> 3
<MEAN> 25
 7.107219e+00 1.202327e+00 7.093424e+00 -1.223111e+00 -6.257751e+00 2.496183e+00 -7.665220e+00 -7.526858e+00 -2.072726e+00 -2.658739e+00 -4.050626e+00 -1.517502e+00 4.658313e-01 7.235082e-01 -2.733871e-02 4.096070e-01 1.435175e-01 7.472651e-02 6.611791e-01 8.070799e-02 -4.615693e-01 2.104230e-02 1.465068e-01 4.023507e-01 -1.060447e+00
<VARIANCE> 25
 8.273891e+00 1.011429e+01 1.274792e+01 1.215236e+01 1.313449e+01 1.460141e+01 2.215606e+01 1.486604e+01 1.764379e+01 1.629573e+01 9.097585e+00 1.330369e+01 6.689489e-01 3.151921e-01 1.185714e+00 7.873689e-01 1.806130e+00 1.747552e+00 1.749714e+00 1.219473e+00 1.092981e+00 1.233975e+00 9.159876e-01 1.430335e+00 4.303765e-01
<GCONST> 7.693591e+01
<STATE> 4
<MEAN> 25
 2.544177e+00 2.836097e+00 1.061100e+00 5.664314e+00 5.053565e+00 1.922778e+00 3.341088e+00 2.149796e+00 2.991743e-02 2.745115e+00 1.116768e+00 1.668698e+00 -5.997823e-01 -1.752893e-01 -2.892454e-01 2.381336e-01 5.905138e-01 1.042367e-01 4.137481e-01 7.293597e-01 2.766467e-01 2.873657e-01 2.602351e-01 1.562120e-01 -3.573846e-01
<VARIANCE> 25
 1.689518e+01 1.770825e+01 9.814819e+00 8.113604e+00 2.042289e+01 1.901666e+01 2.447378e+01 5.036035e+01 2.457793e+01 2.070183e+01 1.614414e+01 8.965594e+00 9.946312e-01 1.310634e+00 6.409174e-01 1.160807e+00 1.555154e+00 1.282910e+00 1.763353e+00 3.155369e+00 1.733505e+00 1.584382e+00 1.194560e+00 1.022600e+00 1.333305e+00
<GCONST> 8.418577e+01
<TRANSP> 5
 0.000000e+00 1.000000e+00 0.000000e+00 0.000000e+00 0.000000e+00
 0.000000e+00 8.999974e-01 1.000027e-01 0.000000e+00 0.000000e+00
 0.000000e+00 0.000000e+00 9.014469e-01 9.855305e-02 0.000000e+00
 0.000000e+00 0.000000e+00 0.000000e+00 9.160494e-01 8.395068e-02
 0.000000e+00 0.000000e+00 0.000000e+00 0.000000e+00 0.000000e+00
<ENDHMM>
~h "ow"
<BEGINHMM>
<NUMSTATES> 5
<STATE> 2
<MEAN> 25
 3.703671e+00 -5.337520e+00 -3.761473e+00 -8.991205e+00 -5.575187e+00 -5.028502e+00 -1.835167e+00 -1.620326e+00 -2.430775e-01 -7.782051e-02 1.469841e+00 7.197533e-03 2.946549e-01 6.381306e-02 4.766620e-02 5.696614e-02 9.861893e-02 1.520033e-01 8.471572e-02 -6.254673e-03 -1.665285e-01 -3.268072e-02 1.442528e-01 2.435039e-01 -1.933254e-01
<VARIANCE> 25
 4.086164e+00 5.316486e+00 3.327438e+00 7.138427e+00 8.791781e+00 1.289180e+01 3.371987e+01 2.278722e+01 2.015475e+01 2.220230e+01 8.784096e+00 1.796925e+01 3.673522e-01 2.918804e-01 3.066659e-01 4.005646e-01 7.389708e-01 1.025316e+00 1.399842e+00 1.288334e+00 1.557804e+00 1.217651e+00 7.514454e-01 1.229992e+00 2.845882e-01
<GCONST> 7.002020e+01
<STATE> 3
<MEAN> 25
 8.860276e+00 1.016977e+00 -2.003376e+00 -4.463877e+00 -2.230537e+00 3.823838e+00 -1.913024e+00 -3.858979e+00 -1.972793e+00 -2.306812e-01 1.402104e+00 1.913367e+00 -8.784670e-02 7.708624e-01 2.321563e-01 9.045907e-01 6.997477e-01 7.280436e-01 4.025763e-01 -1.882572e-02 -5.438568e-02 -8.613775e-02 -2.497844e-01 -4.567302e-02 -1.507838e+00
<VARIANCE> 25
 8.331021e+00 1.699919e+01 7.131393e+00 2.129605e+01 2.070320e+01 3.450197e+01 3.224537e+01 2.250432e+01 1.859944e+01 2.607845e+01 2.223934e+01 2.472090e+01 1.213772e+00 8.089415e-01 6.723722e-01 1.159199e+00 1.292452e+00 3.442417e+00 3.024805e+00 2.184864e+00 1.906596e+00 1.850541e+00 2.078600e+00 1.536061e+00 4.810767e-01
<GCONST> 8.637885e+01
<STATE> 4
<MEAN> 25
 4.507989e-01 1.986240e+00 -3.060815e-01 3.788366e+00 4.395537e+00 2.695244e+00 3.184069e+00 2.502082e+00 1.384624e+00 2.818663e+00 2.841928e+00 1.484548e+00 -1.717863e-01 -7.992624e-02 1.881214e-02 8.636727e-02 6.998494e-02 -4.043389e-02 1.487602e-02 1.671250e-01 1.555184e-01 7.877734e-02 -7.447371e-03 -2.888614e-02 -9.146875e-02
<VARIANCE> 25
 4.621150e+00 3.712013e+00 4.719159e+00 6.428924e+00 1.035627e+01 1.263282e+01 1.309413e+01 1.622185e+01 1.574640e+01 1.275325e+01 1.155494e+01 9.840583e+00 1.726993e-01 3.031824e-01 4.493325e-01 5.878147e-01 8.050737e-01 1.258801e+00 1.147459e+00 1.266454e+00 1.411573e+00 1.284345e+00 1.152798e+00 9.797530e-01 7.336001e-02
<GCONST> 6.668048e+01
<TRANSP> 5
 0.000000e+00 1.000000e+00 0.000000e+00 0.000000e+00 0.000000e+00
 0.000000e+00 9.134611e-01 8.653892e-02 0.000000e+00 0.000000e+00
 0.000000e+00 0.000000e+00 8.774522e-01 1.225478e-01 0.000000e+00
 0.000000e+00 0.000000e+00 0.000000e+00 9.443009e-01 5.569904e-02
 0.000000e+00 0.000000e+00 0.000000e+00 0.000000e+00 0.000000e+00
<ENDHMM>
~h "oy"
<BEGINHMM>
<NUMSTATES> 5
<STATE> 2
<MEAN> 25
 9.929940e-01 5.868327e-01 1.411147e+00 5.971610e+00 5.153386e+00 5.146839e+00 5.441086e+00 2.817265e+00 4.050630e+00 3.560195e+00 1.506756e+00 6.464635e-01 7.296801e-02 -3.009499e-02 -2.749739e-03 6.556686e-02 -1.202310e-01 7.421981e-02 2.845460e-02 -4.862652e-02 1.051861e-01 -2.526716e-02 -4.777707e-02 2.241795e-02 -7.381737e-02
<VARIANCE> 25
 1.020425e+00 2.727829e+00 4.258873e+00 4.658755e+00 8.430273e+00 9.661152e+00 1.070320e+01 1.141263e+01 1.131818e+01 1.259884e+01 1.141393e+01 1.061000e+01 1.398260e-01 3.052930e-01 3.548685e-01 6.316051e-01 8.848590e-01 1.087824e+00 1.061067e+00 1.508624e+00 1.247011e+00 1.437002e+00 1.379686e+00 1.102083e+00 6.748959e-02
<GCONST> 6.300982e+01
<STATE> 3
<MEAN> 25
 -4.906471e+00 1.362522e+00 -4.403723e-01 3.592513e+00 2.823999e+00 2.073561e+00 -1.034700e-02 4.309390e+00 6.207501e+00 -1.801915e+00 8.623143e-01 3.530171e+00 6.667846e-01 -1.652890e-01 -1.222567e+00 -1.573726e+00 -8.033248e-01 -8.412440e-01 -1.963793e+00 -1.018363e+00 -1.090598e+00 -8.070267e-01 3.477870e-01 -4.222745e-02 1.876531e+00
<VARIANCE> 25
 5.115100e+01 3.463655e+00 7.634125e+00 9.956898e+00 1.208580e+01 6.765308e+01 2.384718e+01 2.023940e+01 2.903208e+01 2.877213e+01 8.817782e+00 1.980151e+01 7.523818e+00 6.367623e-01 2.740795e+00 4.178302e+00 2.160522e+00 6.971075e+00 7.395648e+00 2.800092e+00 7.131789e+00 2.499978e+00 2.392437e+00 1.735722e+00 2.814129e+00
<GCONST> 9.531774e+01
<STATE> 4
<MEAN> 25
 6.000685e+00 -4.053415e+00 -9.649646e-01 -6.018109e+00 -8.115258e+00 -4.684087e+00 -6.935410e+00 -5.204981e+00 -4.278877e+00 -3.736029e+00 -3.084676e-03 8.355520e-01 -4.929262e-02 -1.277857e-01 5.720732e-01 -3.698355e-02 -4.832803e-01 -3.995656e-01 -1.036692e-01 -1.441082e-01 -3.828503e-01 -2.748010e-01 -9.252962e-02 3.489469e-02 4.021809e-01
<VARIANCE> 25
 1.155041e+01 1.326397e+01 4.203087e+01 1.791057e+01 3.125222e+01 3.246321e+01 3.835348e+01 3.137550e+01 2.687226e+01 2.354918e+01 2.208991e+01 1.204984e+01 8.090025e-01 1.488033e+00 2.164396e+00 2.609642e+00 2.474561e+00 2.351037e+00 3.656357e+00 2.163057e+00 3.068099e+00 3.011157e+00 1.697820e+00 1.602061e+00 1.998072e+00
<GCONST> 9.331388e+01
<TRANSP> 5
 0.000000e+00 1.000000e+00 0.000000e+00 0.000000e+00 0.000000e+00
 0.000000e+00 9.572796e-01 4.272035e-02 0.000000e+00 0.000000e+00
 0.000000e+00 0.000000e+00 7.873676e-01 2.126323e-01 0.000000e+00
 0.000000e+00 0.000000e+00 0.000000e+00 9.524027e-01 4.759727e-02
 0.000000e+00 0.000000e+00 0.000000e+00 0.000000e+00 0.000000e+00
<ENDHMM>
~h "sh"
<BEGINHMM>
<NUMSTATES> 5
<STATE> 2
<MEAN> 25
 4.677380e+00 -4.904259e+00 1.105321e+01 -4.761304e+00 -1.078859e+01 -1.231194e+01 4.173008e+00 7.554251e+00 -5.151250e+00 2.378581e+00 2.878207e+00 5.777216e+00 -7.438960e-01 7.525648e-01 6.562282e-01 3.914520e-01 2.018695e-01 7.511077e-01 -1.350841e-01 -4.113208e-02 -4.646491e-01 -2.281987e-01 5.933247e-01 -1.541325e-01 -4.395296e-01
<VARIANCE> 25
 1.803071e+01 2.498074e+01 2.126598e+01 1.307668e+01 1.687872e+01 3.615595e+01 2.275750e+01 1.905204e+01 2.580314e+01 1.841281e+01 2.078273e+01 2.258000e+01 1.231382e+00 6.776812e-01 1.213987e+00 8.712411e-01 1.743573e+00 1.690482e+00 1.457246e+00 1.846521e+00 1.913822e+00 1.603969e+00 9.791832e-01 1.892633e+00 5.272769e-01
<GCONST> 8.553017e+01
<STATE> 3
<MEAN> 25
 -1.539766e+01 1.685571e+00 1.221922e+01 1.076092e+00 -4.059601e+00 -1.573014e+00 1.495806e+00 3.097941e+00 -6.785709e-01 -4.250369e+00 2.307563e+00 9.421316e-01 -1.148356e+00 -4.750385e-01 -2.510044e-01 2.578181e-01 7.198893e-02 6.147094e-02 3.095570e-01 1.062336e-01 9.768550e-01 6.582604e-02 -1.722736e-02 2.982776e-01 2.633670e-02
<VARIANCE> 25
 2.924063e+01 1.471604e+01 4.603155e+01 2.025359e+01 2.163843e+01 2.520143e+01 2.445330e+01 1.807088e+01 2.227883e+01 1.869849e+01 1.522275e+01 1.850651e+01 2.912448e+00 6.630014e-01 1.143559e+00 1.660458e+00 1.894004e+00 2.002835e+00 2.492126e+00 2.032259e+00 1.772009e+00 1.932621e+00 2.254998e+00 1.542395e+00 1.043777e+00
<GCONST> 8.968963e+01
<STATE> 4
<MEAN> 25
 -1.133820e+01 -4.918738e+00 6.163046e+00 2.333084e+00 -5.014384e+00 -1.280227e+00 2.691630e+00 4.280143e+00 4.823998e+00 1.408321e-02 -8.873360e-01 4.809511e-01 1.193382e+00 -6.425368e-02 -1.041936e+00 -1.457925e-01 5.115318e-01 5.163045e-01 -1.903532e-01 -5.257261e-01 -2.380764e-02 9.617737e-02 -6.312783e-01 -3.659949e-01 -1.243098e+00
<VARIANCE> 25
 4.166871e+01 2.466904e+01 4.522612e+01 1.771537e+01 3.197275e+01 4.254436e+01 2.787427e+01 2.763830e+01 1.985984e+01 4.196384e+01 3.972729e+01 2.550682e+01 2.749561e+00 1.089393e+00 2.465160e+00 1.529383e+00 1.970364e+00 3.305853e+00 2.179701e+00 1.846759e+00 1.810879e+00 2.842706e+00 2.552500e+00 1.741993e+00 1.649891e+00
<GCONST> 9.639927e+01
<TRANSP> 5
 0.000000e+00 1.000000e+00 0.000000e+00 0.000000e+00 0.000000e+00
 0.000000e+00 8.373559e-01 1.626441e-01 0.000000e+00 0.000000e+00
 0.000000e+00 0.000000e+00 8.943059e-01 1.056941e-01 0.000000e+00
 0.000000e+00 0.000000e+00 0.000000e+00 8.644141e-01 1.355859e-01
 0.000000e+00 0.000000e+00 0.000000e+00 0.000000e+00 0.000000e+00
<ENDHMM>
~h "sp"
<BEGINHMM>
<NUMSTATES> 3
<STATE> 2
~s "silst"
<TRANSP> 3
 0.000000e+00 3.128402e-01 6.871598e-01
 0.000000e+00 7.710276e-01 2.289724e-01
 0.000000e+00 0.000000e+00 0.000000e+00
<ENDHMM>
~h "th"
<BEGINHMM>
<NUMSTATES> 5
<STATE> 2
<MEAN> 25
 3.543654e-01 5.887440e+00 2.471891e+00 2.435062e+00 3.547823e-01 -2.483799e+00 -4.147841e+00 -1.847369e-01 -6.203823e+00 -2.300352e+00 1.034787e+00 -7.570098e-01 -1.732161e+00 1.149826e+00 -1.849449e-01 4.687839e-01 1.678891e+00 2.996182e-01 7.839586e-01 3.863156e-01 -5.268592e-01 7.604158e-02 1.858729e-01 5.011005e-01 -6.030180e-02
<VARIANCE> 25
 3.443124e+01 2.249565e+01 6.425600e+01 1.426378e+01 5.333127e+01 1.800103e+01 4.177084e+01 3.515687e+01 4.488759e+01 2.636339e+01 1.447845e+01 2.188002e+01 4.372134e+00 1.354956e+00 1.518941e+00 1.773855e+00 1.970795e+00 1.308523e+00 2.487944e+00 9.567327e-01 2.304449e+00 2.035144e+00 1.291175e+00 2.835087e+00 5.248968e-01
<GCONST> 9.319639e+01
<STATE> 3
<MEAN> 25
 -6.383758e+00 4.378017e+00 -9.436515e-01 3.236911e+00 5.281202e+00 -3.384908e-01 2.041538e+00 4.976704e+00 -1.269904e+00 9.424910e-01 2.991530e+00 3.082324e+00 3.621018e-01 -4.355481e-01 2.046050e-01 -5.128681e-02 7.927310e-03 2.405307e-01 3.114878e-01 4.447851e-01 6.181386e-01 1.383131e-01 1.662096e-01 2.290638e-01 -4.858512e-01
<VARIANCE> 25
 3.896234e+01 3.195602e+01 9.815554e+00 1.415964e+01 1.773416e+01 1.325241e+01 1.437446e+01 3.454729e+01 2.808482e+01 1.529663e+01 2.252742e+01 9.373716e+00 1.170500e+00 9.512811e-01 9.721113e-01 1.566253e+00 1.255786e+00 1.256379e+00 1.926833e+00 2.388643e+00 2.243752e+00 1.459279e+00 2.027827e+00 1.052856e+00 4.974077e-01
<GCONST> 8.484790e+01
<STATE> 4
<MEAN> 25
 5.280527e-02 1.801460e+00 4.010562e-01 4.205748e+00 5.558660e+00 3.855794e+00 4.518889e+00 3.683612e+00 2.548964e+00 3.667339e+00 3.743758e+00 1.398942e+00 -5.071296e-02 -2.092805e-02 -3.216857e-02 -2.281230e-02 2.259616e-02 7.408210e-02 5.214636e-02 5.152557e-02 5.558923e-02 5.617857e-02 4.218941e-02 -2.028172e-02 -5.504872e-02
<VARIANCE> 25
 2.302837e+00 2.553176e+00 4.913068e+00 6.067638e+00 8.025345e+00 1.220651e+01 1.135880e+01 1.240939e+01 1.501005e+01 1.444604e+01 1.269159e+01 9.764074e+00 2.780761e-01 2.520640e-01 4.411157e-01 5.401940e-01 8.128304e-01 1.262558e+00 1.145347e+00 1.036652e+00 1.711474e+00 1.507084e+00 1.071901e+00 1.083347e+00 1.110638e-01
<GCONST> 6.584985e+01
<TRANSP> 5
 0.000000e+00 1.000000e+00 0.000000e+00 0.000000e+00 0.000000e+00
 0.000000e+00 5.966125e-01 4.033875e-01 0.000000e+00 0.000000e+00
 0.000000e+00 0.000000e+00 8.632361e-01 1.367639e-01 0.000000e+00
 0.000000e+00 0.000000e+00 0.000000e+00 9.568325e-01 4.316754e-02
 0.000000e+00 0.000000e+00 0.000000e+00 0.000000e+00 0.000000e+00
<ENDHMM>
~h "uh"
<BEGINHMM>
<NUMSTATES> 5
<STATE> 2
<MEAN> 25
 5.089005e+00 7.499306e-01 -1.915295e+00 -4.344958e+00 -5.634484e+00 -2.358008e+00 -8.801799e+00 -9.290349e+00 -7.989568e+00 -3.703177e+00 2.362776e+00 1.193038e-01 1.839271e-01 4.856346e-01 4.032027e-01 -1.243158e-01 4.188424e-01 6.644930e-01 3.178947e-01 -1.148321e-01 5.539599e-02 -7.769871e-02 1.419869e-02 -5.005151e-03 -9.234285e-01
<VARIANCE> 25
 7.098145e+00 1.660176e+01 7.388128e+00 2.377980e+01 2.331489e+01 5.182865e+01 2.230686e+01 1.466198e+01 1.732079e+01 1.043578e+01 1.476325e+01 1.792857e+01 6.006597e-01 8.457045e-01 8.874711e-01 1.529603e+00 2.118873e+00 4.061939e+00 1.963665e+00 2.035203e+00 2.547367e+00 9.992171e-01 2.388194e+00 2.232409e+00 1.741075e+00
<GCONST> 8.587651e+01
<STATE> 3
<MEAN> 25
 3.202396e+00 4.879935e+00 3.757277e+00 -2.254821e-01 7.698661e-01 5.293821e-01 -3.279114e+00 -6.288826e+00 -5.294712e+00 -2.480401e+00 -2.534661e-01 -7.193644e-01 -6.762265e-01 -1.450015e-01 -5.873538e-02 3.809183e-01 1.345991e-01 -5.676088e-01 8.139927e-01 1.315725e+00 7.295927e-01 7.266117e-01 -1.220683e-01 1.400182e-01 -4.945386e-01
<VARIANCE> 25
 7.217832e+00 1.028223e+01 1.275754e+01 2.009008e+01 6.262102e+00 3.384676e+01 4.369871e+01 5.638836e+01 2.543734e+01 1.026947e+01 5.360744e+00 7.887547e+00 2.034758e-01 5.325527e-01 3.064824e-01 1.386952e+00 1.173557e+00 1.858040e+00 1.513307e+00 3.024924e+00 1.474429e+00 7.913920e-01 5.891703e-01 1.965840e+00 5.610657e-01
<GCONST> 7.722222e+01
<STATE> 4
<MEAN> 25
 -1.280025e+00 1.667210e+00 1.890439e+00 2.980266e+00 3.176023e+00 1.380791e-01 3.150552e+00 3.787178e+00 3.054037e+00 5.317272e+00 4.246089e+00 1.061874e+00 -8.954990e-02 -3.580428e-02 1.478508e-02 1.437189e-01 1.227019e-01 -9.423079e-02 -1.262065e-03 2.159572e-01 1.326982e-01 7.041088e-02 5.968106e-02 -8.654255e-02 -1.614080e-02
<VARIANCE> 25
 2.471722e+00 2.766211e+00 3.922448e+00 7.791533e+00 9.156810e+00 1.207970e+01 1.500563e+01 1.918757e+01 1.942027e+01 1.702839e+01 1.308282e+01 1.102763e+01 2.142617e-01 3.263968e-01 3.341812e-01 6.511028e-01 8.312404e-01 8.241823e-01 9.947688e-01 2.296822e+00 1.461932e+00 1.597937e+00 1.436792e+00 9.894489e-01 4.024507e-02
<GCONST> 6.668092e+01
<TRANSP> 5
 0.000000e+00 1.000000e+00 0.000000e+00 0.000000e+00 0.000000e+00
 0.000000e+00 8.769081e-01 1.230920e-01 0.000000e+00 0.000000e+00
 0.000000e+00 0.000000e+00 6.963342e-01 3.036658e-01 0.000000e+00
 0.000000e+00 0.000000e+00 0.000000e+00 9.353440e-01 6.465595e-02
 0.000000e+00 0.000000e+00 0.000000e+00 0.000000e+00 0.000000e+00
<ENDHMM>
~h "uw"
<BEGINHMM>
<NUMSTATES> 5
<STATE> 2
<MEAN> 25
 5.924583e+00 3.131341e-01 -1.270628e+00 -2.978124e+00 -6.382433e+00 -3.755330e+00 -9.883988e+00 -1.040831e+01 -8.258528e+00 -5.318521e+00 4.902582e-01 -1.141440e+00 2.341134e-01 2.183419e-01 2.127206e-02 1.973967e-02 5.480621e-02 3.901532e-01 8.393803e-02 -2.297910e-01 1.648816e-01 -1.311760e-02 1.018714e-01 7.471568e-02 -2.029888e-01
<VARIANCE> 25
 9.863470e+00 1.691779e+01 1.643592e+01 2.349757e+01 2.149978e+01 3.342211e+01 1.970520e+01 2.510456e+01 2.266634e+01 4.040103e+01 2.612610e+01 2.295234e+01 6.276924e-01 1.007225e+00 9.658370e-01 1.672660e+00 2.127569e+00 2.347575e+00 1.450130e+00 2.051794e+00 2.342035e+00 1.993703e+00 1.844295e+00 1.824627e+00 1.129065e+00
<GCONST> 8.861354e+01
<STATE> 3
<MEAN> 25
 8.081644e+00 4.500292e+00 1.782513e+00 -2.920213e+00 -3.831988e+00 4.161230e+00 -8.817304e+00 -1.167318e+01 -3.806892e+00 -2.505496e+00 4.209703e+00 1.862131e+00 -3.678668e-01 1.546051e-03 3.681019e-01 5.856709e-01 1.005276e+00 3.881557e-01 6.608427e-01 5.621713e-01 8.968518e-01 2.780548e-01 -6.673043e-01 4.956180e-01 -1.139488e+00
<VARIANCE> 25
 1.919127e+01 1.797766e+01 1.670558e+01 3.987066e+01 2.099177e+01 7.008334e+01 3.714684e+01 5.454961e+01 3.841623e+01 2.979024e+01 2.522645e+01 3.450310e+01 6.652184e-01 8.623673e-01 1.605010e+00 1.144595e+00 2.477594e+00 3.176231e+00 3.909698e+00 2.922709e+00 2.552663e+00 3.193390e+00 2.068812e+00 2.610809e+00 1.150747e+00
<GCONST> 9.548798e+01
<STATE> 4
<MEAN> 25
 6.801928e-01 1.058552e+00 -8.440009e-01 2.444500e+00 3.620602e+00 3.435266e+00 6.877803e-01 1.116611e-01 1.425712e+00 1.297197e+00 -7.711299e-01 2.850317e-01 -3.106044e-01 -1.150018e-01 -8.204225e-02 1.971414e-02 3.535635e-01 5.406598e-02 3.002539e-01 5.052505e-01 1.926454e-01 5.273056e-02 -2.427942e-01 -1.455670e-01 -1.173190e-01
<VARIANCE> 25
 1.202409e+01 1.485674e+01 2.369173e+01 2.346468e+01 2.122581e+01 2.388861e+01 3.397485e+01 3.637955e+01 3.066617e+01 2.457350e+01 3.251408e+01 2.093500e+01 4.897708e-01 3.898230e-01 8.785602e-01 6.315935e-01 1.673620e+00 1.806645e+00 1.619265e+00 1.810810e+00 1.636482e+00 1.692714e+00 1.560682e+00 1.229831e+00 2.212992e-01
<GCONST> 8.404906e+01
<TRANSP> 5
 0.000000e+00 1.000000e+00 0.000000e+00 0.000000e+00 0.000000e+00
 0.000000e+00 8.455152e-01 1.544848e-01 0.000000e+00 0.000000e+00
 0.000000e+00 0.000000e+00 6.024980e-01 3.975021e-01 0.000000e+00
 0.000000e+00 0.000000e+00 0.000000e+00 8.272977e-01 1.727023e-01
 0.000000e+00 0.000000e+00 0.000000e+00 0.000000e+00 0.000000e+00
<ENDHMM>
~h "zh"
<BEGINHMM>
<NUMSTATES> 5
<STATE> 2
<MEAN> 25
 -5.771864e+00 1.921504e+00 4.574215e+00 -4.254592e+00 -6.939384e+00 -1.485978e+00 -1.840526e+00 -4.695747e+00 -3.852284e+00 -4.909369e+00 7.560028e-01 3.142540e-01 -6.683018e-01 7.325292e-01 3.705954e-01 1.262880e-01 5.219434e-01 6.405865e-01 -2.833467e-03 1.778329e-01 -2.096478e-01 -6.724570e-02 -1.016418e-02 3.493875e-01 -2.584066e-01
<VARIANCE> 25
 7.292532e+00 1.288075e+01 1.150850e+01 7.768129e+00 1.337366e+01 1.976558e+01 2.111114e+01 1.714617e+01 2.249497e+01 2.440959e+01 2.714670e+01 2.059739e+01 4.988479e-01 3.636386e-01 9.244305e-01 7.534627e-01 1.773919e+00 8.246819e-01 2.457376e+00 1.659906e+00 2.392648e+00 1.965754e+00 2.058406e+00 2.423459e+00 8.948592e-02
<GCONST> 7.954542e+01
<STATE> 3
<MEAN> 25
 -4.887286e+00 -4.341204e-01 3.418383e+00 -2.203626e+00 -3.542528e+00 -3.724164e+00 -1.136447e+00 -1.428798e+00 -3.546627e-01 -3.348051e+00 -1.352400e+00 1.720135e+00 6.861124e-01 -6.313878e-01 -4.859681e-01 6.197255e-02 -1.095925e-01 -1.400889e-01 -6.433947e-02 2.346464e-01 4.597128e-01 4.027078e-01 -1.233804e-01 -1.285045e-01 -1.844490e-01
<VARIANCE> 25
 4.661689e+01 3.211616e+01 2.624762e+01 8.023314e+00 2.669682e+01 2.032802e+01 2.110171e+01 2.607042e+01 2.354262e+01 2.746177e+01 1.618568e+01 2.204237e+01 9.379644e-01 6.551555e-01 7.628299e-01 7.695317e-01 1.336659e+00 1.885789e+00 1.133266e+00 2.181060e+00 1.722357e+00 1.326918e+00 1.670424e+00 1.903525e+00 4.842866e-01
<GCONST> 8.563167e+01
<STATE> 4
<MEAN> 25
 2.340516e+00 2.172796e-01 -4.731308e+00 2.285048e+00 6.284157e+00 5.218802e+00 4.025485e+00 4.837292e+00 4.014535e+00 4.670277e+00 1.529698e+00 -2.370487e-01 -1.447270e-01 1.947848e-01 2.803454e-02 1.009137e-01 2.944037e-01 2.537094e-01 1.863570e-01 2.889621e-02 -1.429767e-01 3.754051e-02 1.470481e-01 -1.314059e-03 -3.625626e-01
<VARIANCE> 25
 1.778197e+01 8.730762e+00 7.654691e+00 1.614043e+01 2.117990e+01 1.898986e+01 1.907655e+01 1.678378e+01 1.581448e+01 1.702784e+01 2.970093e+01 1.184384e+01 3.828678e-01 5.812701e-01 5.534446e-01 9.370959e-01 1.271764e+00 1.423252e+00 1.317275e+00 1.482345e+00 1.692965e+00 1.936586e+00 1.904968e+00 9.604806e-01 3.668637e-01
<GCONST> 7.892535e+01
<TRANSP> 5
 0.000000e+00 1.000000e+00 0.000000e+00 0.000000e+00 0.000000e+00
 0.000000e+00 8.781055e-01 1.218945e-01 0.000000e+00 0.000000e+00
