~h "ae"
<BEGINHMM>
<NUMSTATES> 5
<STATE> 2
<MEAN> 25
 3.596254e-08 -8.895327e-10 4.614451e-08 1.802495e-08 -1.261230e-08 -7.719873e-09 3.261090e-08 3.269033e-08 -4.616039e-08 -4.160153e-08 1.143685e-09 3.991778e-08 9.457014e-04 -9.065698e-04 1.175286e-03 1.818008e-03 -5.006276e-03 -6.707009e-04 -3.084014e-03 -2.044072e-03 -3.461153e-03 -1.976710e-03 -1.429156e-03 -1.024796e-03 8.545684e-04
<VARIANCE> 25
 4.075407e+01 2.933462e+01 4.483981e+01 4.802997e+01 5.918362e+01 4.699888e+01 4.707578e+01 4.946395e+01 3.621793e+01 3.646457e+01 3.793129e+01 2.482520e+01 1.763496e+00 1.333436e+00 1.738094e+00 2.019375e+00 2.420786e+00 2.729361e+00 2.594926e+00 2.842218e+00 2.451805e+00 2.428721e+00 2.410574e+00 1.906622e+00 2.080781e+00
<GCONST> 1.004646e+02
<STATE> 3
<MEAN> 25
 3.596254e-08 -8.895327e-10 4.614451e-08 1.802495e-08 -1.261230e-08 -7.719873e-09 3.261090e-08 3.269033e-08 -4.616039e-08 -4.160153e-08 1.143685e-09 3.991778e-08 9.457014e-04 -9.065698e-04 1.175286e-03 1.818008e-03 -5.006276e-03 -6.707009e-04 -3.084014e-03 -2.044072e-03 -3.461153e-03 -1.976710e-03 -1.429156e-03 -1.024796e-03 8.545684e-04
<VARIANCE> 25
 4.075407e+01 2.933462e+01 4.483981e+01 4.802997e+01 5.918362e+01 4.699888e+01 4.707578e+01 4.946395e+01 3.621793e+01 3.646457e+01 3.793129e+01 2.482520e+01 1.763496e+00 1.333436e+00 1.738094e+00 2.019375e+00 2.420786e+00 2.729361e+00 2.594926e+00 2.842218e+00 2.451805e+00 2.428721e+00 2.410574e+00 1.906622e+00 2.080781e+00
<GCONST> 1.004646e+02
<STATE> 4
<MEAN> 25
 3.596254e-08 -8.895327e-10 4.614451e-08 1.802495e-08 -1.261230e-08 -7.719873e-09 3.261090e-08 3.269033e-08 -4.616039e-08 -4.160153e-08 1.143685e-09 3.991778e-08 9.457014e-04 -9.065698e-04 1.175286e-03 1.818008e-03 -5.006276e-03 -6.707009e-04 -3.084014e-03 -2.044072e-03 -3.461153e-03 -1.976710e-03 -1.429156e-03 -1.024796e-03 8.545684e-04
<VARIANCE> 25
 4.075407e+01 2.933462e+01 4.483981e+01 4.802997e+01 5.918362e+01 4.699888e+01 4.707578e+01 4.946395e+01 3.621793e+01 3.646457e+01 3.793129e+01 2.482520e+01 1.763496e+00 1.333436e+00 1.738094e+00 2.019375e+00 2.420786e+00 2.729361e+00 2.594926e+00 2.842218e+00 2.451805e+00 2.428721e+00 2.410574e+00 1.906622e+00 2.080781e+00
<GCONST> 1.004646e+02
<TRANSP> 5
 0.000000e+00 1.000000e+00 0.000000e+00 0.000000e+00 0.000000e+00
 0.000000e+00 6.000000e-01 4.000000e-01 0.000000e+00 0.000000e+00
 0.000000e+00 0.000000e+00 6.000000e-01 4.000000e-01 0.000000e+00
 0.000000e+00 0.000000e+00 0.000000e+00 7.000000e-01 3.000000e-01
 0.000000e+00 0.000000e+00 0.000000e+00 0.000000e+00 0.000000e+00
<ENDHMM>
~h "b"
<BEGINHMM>
<NUMSTATES> 5
<STATE> 2
<MEAN> 25
 3.596254e-08 -8.895327e-10 4.614451e-08 1.802495e-08 -1.261230e-08 -7.719873e-09 3.261090e-08 3.269033e-08 -4.616039e-08 -4.160153e-08 1.143685e-09 3.991778e-08 9.457014e-04 -9.065698e-04 1.175286e-03 1.818008e-03 -5.006276e-03 -6.707009e-04 -3.084014e-03 -2.044072e-03 -3.461153e-03 -1.976710e-03 -1.429156e-03 -1.024796e-03 8.545684e-04
<VARIANCE> 25
 4.075407e+01 2.933462e+01 4.483981e+01 4.802997e+01 5.918362e+01 4.699888e+01 4.707578e+01 4.946395e+01 3.621793e+01 3.646457e+01 3.793129e+01 2.482520e+01 1.763496e+00 1.333436e+00 1.738094e+00 2.019375e+00 2.420786e+00 2.729361e+00 2.594926e+00 2.842218e+00 2.451805e+00 2.428721e+00 2.410574e+00 1.906622e+00 2.080781e+00
<GCONST> 1.004646e+02
<STATE> 3
<MEAN> 25
 3.596254e-08 -8.895327e-10 4.614451e-08 1.802495e-08 -1.261230e-08 -7.719873e-09 3.261090e-08 3.269033e-08 -4.616039e-08 -4.160153e-08 1.143685e-09 3.991778e-08 9.457014e-04 -9.065698e-04 1.175286e-03 1.818008e-03 -5.006276e-03 -6.707009e-04 -3.084014e-03 -2.044072e-03 -3.461153e-03 -1.976710e-03 -1.429156e-03 -1.024796e-03 8.545684e-04
<VARIANCE> 25
 4.075407e+01 2.933462e+01 4.483981e+01 4.802997e+01 5.918362e+01 4.699888e+01 4.707578e+01 4.946395e+01 3.621793e+01 3.646457e+01 3.793129e+01 2.482520e+01 1.763496e+00 1.333436e+00 1.738094e+00 2.019375e+00 2.420786e+00 2.729361e+00 2.594926e+00 2.842218e+00 2.451805e+00 2.428721e+00 2.410574e+00 1.906622e+00 2.080781e+00
<GCONST> 1.004646e+02
<STATE> 4
<MEAN> 25
 3.596254e-08 -8.895327e-10 4.614451e-08 1.802495e-08 -1.261230e-08 -7.719873e-09 3.261090e-08 3.269033e-08 -4.616039e-08 -4.160153e-08 1.143685e-09 3.991778e-08 9.457014e-04 -9.065698e-04 1.175286e-03 1.818008e-03 -5.006276e-03 -6.707009e-04 -3.084014e-03 -2.044072e-03 -3.461153e-03 -1.976710e-03 -1.429156e-03 -1.024796e-03 8.545684e-04
<VARIANCE> 25
 4.075407e+01 2.933462e+01 4.483981e+01 4.802997e+01 5.918362e+01 4.699888e+01 4.707578e+01 4.946395e+01 3.621793e+01 3.646457e+01 3.793129e+01 2.482520e+01 1.763496e+00 1.333436e+00 1.738094e+00 2.019375e+00 2.420786e+00 2.729361e+00 2.594926e+00 2.842218e+00 2.451805e+00 2.428721e+00 2.410574e+00 1.906622e+00 2.080781e+00
<GCONST> 1.004646e+02
<TRANSP> 5
 0.000000e+00 1.000000e+00 0.000000e+00 0.000000e+00 0.000000e+00
 0.000000e+00 6.000000e-01 4.000000e-01 0.000000e+00 0.000000e+00
 0.000000e+00 0.000000e+00 6.000000e-01 4.000000e-01 0.000000e+00
 0.000000e+00 0.000000e+00 0.000000e+00 7.000000e-01 3.000000e-01
 0.000000e+00 0.000000e+00 0.000000e+00 0.000000e+00 0.000000e+00
<ENDHMM>
~h "ah"
<BEGINHMM>
<NUMSTATES> 5
<STATE> 2
<MEAN> 25
 3.596254e-08 -8.895327e-10 4.614451e-08 1.802495e-08 -1.261230e-08 -7.719873e-09 3.261090e-08 3.269033e-08 -4.616039e-08 -4.160153e-08 1.143685e-09 3.991778e-08 9.457014e-04 -9.065698e-04 1.175286e-03 1.818008e-03 -5.006276e-03 -6.707009e-04 -3.084014e-03 -2.044072e-03 -3.461153e-03 -1.976710e-03 -1.429156e-03 -1.024796e-03 8.545684e-04
<VARIANCE> 25
 4.075407e+01 2.933462e+01 4.483981e+01 4.802997e+01 5.918362e+01 4.699888e+01 4.707578e+01 4.946395e+01 3.621793e+01 3.646457e+01 3.793129e+01 2.482520e+01 1.763496e+00 1.333436e+00 1.738094e+00 2.019375e+00 2.420786e+00 2.729361e+00 2.594926e+00 2.842218e+00 2.451805e+00 2.428721e+00 2.410574e+00 1.906622e+00 2.080781e+00
<GCONST> 1.004646e+02
<STATE> 3
<MEAN> 25
 3.596254e-08 -8.895327e-10 4.614451e-08 1.802495e-08 -1.261230e-08 -7.719873e-09 3.261090e-08 3.269033e-08 -4.616039e-08 -4.160153e-08 1.143685e-09 3.991778e-08 9.457014e-04 -9.065698e-04 1.175286e-03 1.818008e-03 -5.006276e-03 -6.707009e-04 -3.084014e-03 -2.044072e-03 -3.461153e-03 -1.976710e-03 -1.429156e-03 -1.024796e-03 8.545684e-04
<VARIANCE> 25
 4.075407e+01 2.933462e+01 4.483981e+01 4.802997e+01 5.918362e+01 4.699888e+01 4.707578e+01 4.946395e+01 3.621793e+01 3.646457e+01 3.793129e+01 2.482520e+01 1.763496e+00 1.333436e+00 1.738094e+00 2.019375e+00 2.420786e+00 2.729361e+00 2.594926e+00 2.842218e+00 2.451805e+00 2.428721e+00 2.410574e+00 1.906622e+00 2.080781e+00
<GCONST> 1.004646e+02
<STATE> 4
<MEAN> 25
 3.596254e-08 -8.895327e-10 4.614451e-08 1.802495e-08 -1.261230e-08 -7.719873e-09 3.261090e-08 3.269033e-08 -4.616039e-08 -4.160153e-08 1.143685e-09 3.991778e-08 9.457014e-04 -9.065698e-04 1.175286e-03 1.818008e-03 -5.006276e-03 -6.707009e-04 -3.084014e-03 -2.044072e-03 -3.461153e-03 -1.976710e-03 -1.429156e-03 -1.024796e-03 8.545684e-04
<VARIANCE> 25
 4.075407e+01 2.933462e+01 4.483981e+01 4.802997e+01 5.918362e+01 4.699888e+01 4.707578e+01 4.946395e+01 3.621793e+01 3.646457e+01 3.793129e+01 2.482520e+01 1.763496e+00 1.333436e+00 1.738094e+00 2.019375e+00 2.420786e+00 2.729361e+00 2.594926e+00 2.842218e+00 2.451805e+00 2.428721e+00 2.410574e+00 1.906622e+00 2.080781e+00
<GCONST> 1.004646e+02
<TRANSP> 5
 0.000000e+00 1.000000e+00 0.000000e+00 0.000000e+00 0.000000e+00
 0.000000e+00 6.000000e-01 4.000000e-01 0.000000e+00 0.000000e+00
 0.000000e+00 0.000000e+00 6.000000e-01 4.000000e-01 0.000000e+00
 0.000000e+00 0.000000e+00 0.000000e+00 7.000000e-01 3.000000e-01
 0.000000e+00 0.000000e+00 0.000000e+00 0.000000e+00 0.000000e+00
<ENDHMM>
~h "l"
<BEGINHMM>
<NUMSTATES> 5
<STATE> 2
<MEAN> 25
 3.596254e-08 -8.895327e-10 4.614451e-08 1.802495e-08 -1.261230e-08 -7.719873e-09 3.261090e-08 3.269033e-08 -4.616039e-08 -4.160153e-08 1.143685e-09 3.991778e-08 9.457014e-04 -9.065698e-04 1.175286e-03 1.818008e-03 -5.006276e-03 -6.707009e-04 -3.084014e-03 -2.044072e-03 -3.461153e-03 -1.976710e-03 -1.429156e-03 -1.024796e-03 8.545684e-04
<VARIANCE> 25
 4.075407e+01 2.933462e+01 4.483981e+01 4.802997e+01 5.918362e+01 4.699888e+01 4.707578e+01 4.946395e+01 3.621793e+01 3.646457e+01 3.793129e+01 2.482520e+01 1.763496e+00 1.333436e+00 1.738094e+00 2.019375e+00 2.420786e+00 2.729361e+00 2.594926e+00 2.842218e+00 2.451805e+00 2.428721e+00 2.410574e+00 1.906622e+00 2.080781e+00
<GCONST> 1.004646e+02
<STATE> 3
<MEAN> 25
 3.596254e-08 -8.895327e-10 4.614451e-08 1.802495e-08 -1.261230e-08 -7.719873e-09 3.261090e-08 3.269033e-08 -4.616039e-08 -4.160153e-08 1.143685e-09 3.991778e-08 9.457014e-04 -9.065698e-04 1.175286e-03 1.818008e-03 -5.006276e-03 -6.707009e-04 -3.084014e-03 -2.044072e-03 -3.461153e-03 -1.976710e-03 -1.429156e-03 -1.024796e-03 8.545684e-04
<VARIANCE> 25
 4.075407e+01 2.933462e+01 4.483981e+01 4.802997e+01 5.918362e+01 4.699888e+01 4.707578e+01 4.946395e+01 3.621793e+01 3.646457e+01 3.793129e+01 2.482520e+01 1.763496e+00 1.333436e+00 1.738094e+00 2.019375e+00 2.420786e+00 2.729361e+00 2.594926e+00 2.842218e+00 2.451805e+00 2.428721e+00 2.410574e+00 1.906622e+00 2.080781e+00
<GCONST> 1.004646e+02
<STATE> 4
<MEAN> 25
 3.596254e-08 -8.895327e-10 4.614451e-08 1.802495e-08 -1.261230e-08 -7.719873e-09 3.261090e-08 3.269033e-08 -4.616039e-08 -4.160153e-08 1.143685e-09 3.991778e-08 9.457014e-04 -9.065698e-04 1.175286e-03 1.818008e-03 -5.006276e-03 -6.707009e-04 -3.084014e-03 -2.044072e-03 -3.461153e-03 -1.976710e-03 -1.429156e-03 -1.024796e-03 8.545684e-04
<VARIANCE> 25
 4.075407e+01 2.933462e+01 4.483981e+01 4.802997e+01 5.918362e+01 4.699888e+01 4.707578e+01 4.946395e+01 3.621793e+01 3.646457e+01 3.793129e+01 2.482520e+01 1.763496e+00 1.333436e+00 1.738094e+00 2.019375e+00 2.420786e+00 2.729361e+00 2.594926e+00 2.842218e+00 2.451805e+00 2.428721e+00 2.410574e+00 1.906622e+00 2.080781e+00
<GCONST> 1.004646e+02
<TRANSP> 5
 0.000000e+00 1.000000e+00 0.000000e+00 0.000000e+00 0.000000e+00
 0.000000e+00 6.000000e-01 4.000000e-01 0.000000e+00 0.000000e+00
 0.000000e+00 0.000000e+00 6.000000e-01 4.000000e-01 0.000000e+00
 0.000000e+00 0.000000e+00 0.000000e+00 7.000000e-01 3.000000e-01
 0.000000e+00 0.000000e+00 0.000000e+00 0.000000e+00 0.000000e+00
<ENDHMM>
~h "ow"
<BEGINHMM>
<NUMSTATES> 5
<STATE> 2
<MEAN> 25
 3.596254e-08 -8.895327e-10 4.614451e-08 1.802495e-08 -1.261230e-08 -7.719873e-09 3.261090e-08 3.269033e-08 -4.616039e-08 -4.160153e-08 1.143685e-09 3.991778e-08 9.457014e-04 -9.065698e-04 1.175286e-03 1.818008e-03 -5.006276e-03 -6.707009e-04 -3.084014e-03 -2.044072e-03 -3.461153e-03 -1.976710e-03 -1.429156e-03 -1.024796e-03 8.545684e-04
<VARIANCE> 25
 4.075407e+01 2.933462e+01 4.483981e+01 4.802997e+01 5.918362e+01 4.699888e+01 4.707578e+01 4.946395e+01 3.621793e+01 3.646457e+01 3.793129e+01 2.482520e+01 1.763496e+00 1.333436e+00 1.738094e+00 2.019375e+00 2.420786e+00 2.729361e+00 2.594926e+00 2.842218e+00 2.451805e+00 2.428721e+00 2.410574e+00 1.906622e+00 2.080781e+00
<GCONST> 1.004646e+02
<STATE> 3
<MEAN> 25
 3.596254e-08 -8.895327e-10 4.614451e-08 1.802495e-08 -1.261230e-08 -7.719873e-09 3.261090e-08 3.269033e-08 -4.616039e-08 -4.160153e-08 1.143685e-09 3.991778e-08 9.457014e-04 -9.065698e-04 1.175286e-03 1.818008e-03 -5.006276e-03 -6.707009e-04 -3.084014e-03 -2.044072e-03 -3.461153e-03 -1.976710e-03 -1.429156e-03 -1.024796e-03 8.545684e-04
<VARIANCE> 25
 4.075407e+01 2.933462e+01 4.483981e+01 4.802997e+01 5.918362e+01 4.699888e+01 4.707578e+01 4.946395e+01 3.621793e+01 3.646457e+01 3.793129e+01 2.482520e+01 1.763496e+00 1.333436e+00 1.738094e+00 2.019375e+00 2.420786e+00 2.729361e+00 2.594926e+00 2.842218e+00 2.451805e+00 2.428721e+00 2.410574e+00 1.906622e+00 2.080781e+00
<GCONST> 1.004646e+02
<STATE> 4
<MEAN> 25
 3.596254e-08 -8.895327e-10 4.614451e-08 1.802495e-08 -1.261230e-08 -7.719873e-09 3.261090e-08 3.269033e-08 -4.616039e-08 -4.160153e-08 1.143685e-09 3.991778e-08 9.457014e-04 -9.065698e-04 1.175286e-03 1.818008e-03 -5.006276e-03 -6.707009e-04 -3.084014e-03 -2.044072e-03 -3.461153e-03 -1.976710e-03 -1.429156e-03 -1.024796e-03 8.545684e-04
<VARIANCE> 25
 4.075407e+01 2.933462e+01 4.483981e+01 4.802997e+01 5.918362e+01 4.699888e+01 4.707578e+01 4.946395e+01 3.621793e+01 3.646457e+01 3.793129e+01 2.482520e+01 1.763496e+00 1.333436e+00 1.738094e+00 2.019375e+00 2.420786e+00 2.729361e+00 2.594926e+00 2.842218e+00 2.451805e+00 2.428721e+00 2.410574e+00 1.906622e+00 2.080781e+00
<GCONST> 1.004646e+02
<TRANSP> 5
 0.000000e+00 1.000000e+00 0.000000e+00 0.000000e+00 0.000000e+00
 0.000000e+00 6.000000e-01 4.000000e-01 0.000000e+00 0.000000e+00
 0.000000e+00 0.000000e+00 6.000000e-01 4.000000e-01 0.000000e+00
 0.000000e+00 0.000000e+00 0.000000e+00 7.000000e-01 3.000000e-01
 0.000000e+00 0.000000e+00 0.000000e+00 0.000000e+00 0.000000e+00
<ENDHMM>
~h "n"
<BEGINHMM>
<NUMSTATES> 5
<STATE> 2
<MEAN> 25
 3.596254e-08 -8.895327e-10 4.614451e-08 1.802495e-08 -1.261230e-08 -7.719873e-09 3.261090e-08 3.269033e-08 -4.616039e-08 -4.160153e-08 1.143685e-09 3.991778e-08 9.457014e-04 -9.065698e-04 1.175286e-03 1.818008e-03 -5.006276e-03 -6.707009e-04 -3.084014e-03 -2.044072e-03 -3.461153e-03 -1.976710e-03 -1.429156e-03 -1.024796e-03 8.545684e-04
<VARIANCE> 25
 4.075407e+01 2.933462e+01 4.483981e+01 4.802997e+01 5.918362e+01 4.699888e+01 4.707578e+01 4.946395e+01 3.621793e+01 3.646457e+01 3.793129e+01 2.482520e+01 1.763496e+00 1.333436e+00 1.738094e+00 2.019375e+00 2.420786e+00 2.729361e+00 2.594926e+00 2.842218e+00 2.451805e+00 2.428721e+00 2.410574e+00 1.906622e+00 2.080781e+00
<GCONST> 1.004646e+02
<STATE> 3
<MEAN> 25
 3.596254e-08 -8.895327e-10 4.614451e-08 1.802495e-08 -1.261230e-08 -7.719873e-09 3.261090e-08 3.269033e-08 -4.616039e-08 -4.160153e-08 1.143685e-09 3.991778e-08 9.457014e-04 -9.065698e-04 1.175286e-03 1.818008e-03 -5.006276e-03 -6.707009e-04 -3.084014e-03 -2.044072e-03 -3.461153e-03 -1.976710e-03 -1.429156e-03 -1.024796e-03 8.545684e-04
<VARIANCE> 25
 4.075407e+01 2.933462e+01 4.483981e+01 4.802997e+01 5.918362e+01 4.699888e+01 4.707578e+01 4.946395e+01 3.621793e+01 3.646457e+01 3.793129e+01 2.482520e+01 1.763496e+00 1.333436e+00 1.738094e+00 2.019375e+00 2.420786e+00 2.729361e+00 2.594926e+00 2.842218e+00 2.451805e+00 2.428721e+00 2.410574e+00 1.906622e+00 2.080781e+00
<GCONST> 1.004646e+02
<STATE> 4
<MEAN> 25
 3.596254e-08 -8.895327e-10 4.614451e-08 1.802495e-08 -1.261230e-08 -7.719873e-09 3.261090e-08 3.269033e-08 -4.616039e-08 -4.160153e-08 1.143685e-09 3.991778e-08 9.457014e-04 -9.065698e-04 1.175286e-03 1.818008e-03 -5.006276e-03 -6.707009e-04 -3.084014e-03 -2.044072e-03 -3.461153e-03 -1.976710e-03 -1.429156e-03 -1.024796e-03 8.545684e-04
<VARIANCE> 25
 4.075407e+01 2.933462e+01 4.483981e+01 4.802997e+01 5.918362e+01 4.699888e+01 4.707578e+01 4.946395e+01 3.621793e+01 3.646457e+01 3.793129e+01 2.482520e+01 1.763496e+00 1.333436e+00 1.738094e+00 2.019375e+00 2.420786e+00 2.729361e+00 2.594926e+00 2.842218e+00 2.451805e+00 2.428721e+00 2.410574e+00 1.906622e+00 2.080781e+00
<GCONST> 1.004646e+02
<TRANSP> 5
 0.000000e+00 1.000000e+00 0.000000e+00 0.000000e+00 0.000000e+00
 0.000000e+00 6.000000e-01 4.000000e-01 0.000000e+00 0.000000e+00
 0.000000e+00 0.000000e+00 6.000000e-01 4.000000e-01 0.000000e+00
 0.000000e+00 0.000000e+00 0.000000e+00 7.000000e-01 3.000000e-01
 0.000000e+00 0.000000e+00 0.000000e+00 0.000000e+00 0.000000e+00
<ENDHMM>
~h "d"
<BEGINHMM>
<NUMSTATES> 5
<STATE> 2
<MEAN> 25
 3.596254e-08 -8.895327e-10 4.614451e-08 1.802495e-08 -1.261230e-08 -7.719873e-09 3.261090e-08 3.269033e-08 -4.616039e-08 -4.160153e-08 1.143685e-09 3.991778e-08 9.457014e-04 -9.065698e-04 1.175286e-03 1.818008e-03 -5.006276e-03 -6.707009e-04 -3.084014e-03 -2.044072e-03 -3.461153e-03 -1.976710e-03 -1.429156e-03 -1.024796e-03 8.545684e-04
<VARIANCE> 25
 4.075407e+01 2.933462e+01 4.483981e+01 4.802997e+01 5.918362e+01 4.699888e+01 4.707578e+01 4.946395e+01 3.621793e+01 3.646457e+01 3.793129e+01 2.482520e+01 1.763496e+00 1.333436e+00 1.738094e+00 2.019375e+00 2.420786e+00 2.729361e+00 2.594926e+00 2.842218e+00 2.451805e+00 2.428721e+00 2.410574e+00 1.906622e+00 2.080781e+00
<GCONST> 1.004646e+02
<STATE> 3
<MEAN> 25
 3.596254e-08 -8.895327e-10 4.614451e-08 1.802495e-08 -1.261230e-08 -7.719873e-09 3.261090e-08 3.269033e-08 -4.616039e-08 -4.160153e-08 1.143685e-09 3.991778e-08 9.457014e-04 -9.065698e-04 1.175286e-03 1.818008e-03 -5.006276e-03 -6.707009e-04 -3.084014e-03 -2.044072e-03 -3.461153e-03 -1.976710e-03 -1.429156e-03 -1.024796e-03 8.545684e-04
<VARIANCE> 25
 4.075407e+01 2.933462e+01 4.483981e+01 4.802997e+01 5.918362e+01 4.699888e+01 4.707578e+01 4.946395e+01 3.621793e+01 3.646457e+01 3.793129e+01 2.482520e+01 1.763496e+00 1.333436e+00 1.738094e+00 2.019375e+00 2.420786e+00 2.729361e+00 2.594926e+00 2.842218e+00 2.451805e+00 2.428721e+00 2.410574e+00 1.906622e+00 2.080781e+00
<GCONST> 1.004646e+02
<STATE> 4
<MEAN> 25
 3.596254e-08 -8.895327e-10 4.614451e-08 1.802495e-08 -1.261230e-08 -7.719873e-09 3.261090e-08 3.269033e-08 -4.616039e-08 -4.160153e-08 1.143685e-09 3.991778e-08 9.457014e-04 -9.065698e-04 1.175286e-03 1.818008e-03 -5.006276e-03 -6.707009e-04 -3.084014e-03 -2.044072e-03 -3.461153e-03 -1.976710e-03 -1.429156e-03 -1.024796e-03 8.545684e-04
<VARIANCE> 25
 4.075407e+01 2.933462e+01 4.483981e+01 4.802997e+01 5.918362e+01 4.699888e+01 4.707578e+01 4.946395e+01 3.621793e+01 3.646457e+01 3.793129e+01 2.482520e+01 1.763496e+00 1.333436e+00 1.738094e+00 2.019375e+00 2.420786e+00 2.729361e+00 2.594926e+00 2.842218e+00 2.451805e+00 2.428721e+00 2.410574e+00 1.906622e+00 2.080781e+00
<GCONST> 1.004646e+02
<TRANSP> 5
 0.000000e+00 1.000000e+00 0.000000e+00 0.000000e+00 0.000000e+00
 0.000000e+00 6.000000e-01 4.000000e-01 0.000000e+00 0.000000e+00
 0.000000e+00 0.000000e+00 6.000000e-01 4.000000e-01 0.000000e+00
 0.000000e+00 0.000000e+00 0.000000e+00 7.000000e-01 3.000000e-01
 0.000000e+00 0.000000e+00 0.000000e+00 0.000000e+00 0.000000e+00
<ENDHMM>
~h "aa"
<BEGINHMM>
<NUMSTATES> 5
<STATE> 2
<MEAN> 25
 3.596254e-08 -8.895327e-10 4.614451e-08 1.802495e-08 -1.261230e-08 -7.719873e-09 3.261090e-08 3.269033e-08 -4.616039e-08 -4.160153e-08 1.143685e-09 3.991778e-08 9.457014e-04 -9.065698e-04 1.175286e-03 1.818008e-03 -5.006276e-03 -6.707009e-04 -3.084014e-03 -2.044072e-03 -3.461153e-03 -1.976710e-03 -1.429156e-03 -1.024796e-03 8.545684e-04
<VARIANCE> 25
 4.075407e+01 2.933462e+01 4.483981e+01 4.802997e+01 5.918362e+01 4.699888e+01 4.707578e+01 4.946395e+01 3.621793e+01 3.646457e+01 3.793129e+01 2.482520e+01 1.763496e+00 1.333436e+00 1.738094e+00 2.019375e+00 2.420786e+00 2.729361e+00 2.594926e+00 2.842218e+00 2.451805e+00 2.428721e+00 2.410574e+00 1.906622e+00 2.080781e+00
<GCONST> 1.004646e+02
<STATE> 3
<MEAN> 25
 3.596254e-08 -8.895327e-10 4.614451e-08 1.802495e-08 -1.261230e-08 -7.719873e-09 3.261090e-08 3.269033e-08 -4.616039e-08 -4.160153e-08 1.143685e-09 3.991778e-08 9.457014e-04 -9.065698e-04 1.175286e-03 1.818008e-03 -5.006276e-03 -6.707009e-04 -3.084014e-03 -2.044072e-03 -3.461153e-03 -1.976710e-03 -1.429156e-03 -1.024796e-03 8.545684e-04
<VARIANCE> 25
 4.075407e+01 2.933462e+01 4.483981e+01 4.802997e+01 5.918362e+01 4.699888e+01 4.707578e+01 4.946395e+01 3.621793e+01 3.646457e+01 3.793129e+01 2.482520e+01 1.763496e+00 1.333436e+00 1.738094e+00 2.019375e+00 2.420786e+00 2.729361e+00 2.594926e+00 2.842218e+00 2.451805e+00 2.428721e+00 2.410574e+00 1.906622e+00 2.080781e+00
<GCONST> 1.004646e+02
<STATE> 4
<MEAN> 25
 3.596254e-08 -8.895327e-10 4.614451e-08 1.802495e-08 -1.261230e-08 -7.719873e-09 3.261090e-08 3.269033e-08 -4.616039e-08 -4.160153e-08 1.143685e-09 3.991778e-08 9.457014e-04 -9.065698e-04 1.175286e-03 1.818008e-03 -5.006276e-03 -6.707009e-04 -3.084014e-03 -2.044072e-03 -3.461153e-03 -1.976710e-03 -1.429156e-03 -1.024796e-03 8.545684e-04
<VARIANCE> 25
 4.075407e+01 2.933462e+01 4.483981e+01 4.802997e+01 5.918362e+01 4.699888e+01 4.707578e+01 4.946395e+01 3.621793e+01 3.646457e+01 3.793129e+01 2.482520e+01 1.763496e+00 1.333436e+00 1.738094e+00 2.019375e+00 2.420786e+00 2.729361e+00 2.594926e+00 2.842218e+00 2.451805e+00 2.428721e+00 2.410574e+00 1.906622e+00 2.080781e+00
<GCONST> 1.004646e+02
<TRANSP> 5
 0.000000e+00 1.000000e+00 0.000000e+00 0.000000e+00 0.000000e+00
 0.000000e+00 6.000000e-01 4.000000e-01 0.000000e+00 0.000000e+00
 0.000000e+00 0.000000e+00 6.000000e-01 4.000000e-01 0.000000e+00
 0.000000e+00 0.000000e+00 0.000000e+00 7.000000e-01 3.000000e-01
 0.000000e+00 0.000000e+00 0.000000e+00 0.000000e+00 0.000000e+00
<ENDHMM>
~h "m"
<BEGINHMM>
<NUMSTATES> 5
<STATE> 2
<MEAN> 25
 3.596254e-08 -8.895327e-10 4.614451e-08 1.802495e-08 -1.261230e-08 -7.719873e-09 3.261090e-08 3.269033e-08 -4.616039e-08 -4.160153e-08 1.143685e-09 3.991778e-08 9.457014e-04 -9.065698e-04 1.175286e-03 1.818008e-03 -5.006276e-03 -6.707009e-04 -3.084014e-03 -2.044072e-03 -3.461153e-03 -1.976710e-03 -1.429156e-03 -1.024796e-03 8.545684e-04
<VARIANCE> 25
 4.075407e+01 2.933462e+01 4.483981e+01 4.802997e+01 5.918362e+01 4.699888e+01 4.707578e+01 4.946395e+01 3.621793e+01 3.646457e+01 3.793129e+01 2.482520e+01 1.763496e+00 1.333436e+00 1.738094e+00 2.019375e+00 2.420786e+00 2.729361e+00 2.594926e+00 2.842218e+00 2.451805e+00 2.428721e+00 2.410574e+00 1.906622e+00 2.080781e+00
<GCONST> 1.004646e+02
<STATE> 3
<MEAN> 25
 3.596254e-08 -8.895327e-10 4.614451e-08 1.802495e-08 -1.261230e-08 -7.719873e-09 3.261090e-08 3.269033e-08 -4.616039e-08 -4.160153e-08 1.143685e-09 3.991778e-08 9.457014e-04 -9.065698e-04 1.175286e-03 1.818008e-03 -5.006276e-03 -6.707009e-04 -3.084014e-03 -2.044072e-03 -3.461153e-03 -1.976710e-03 -1.429156e-03 -1.024796e-03 8.545684e-04
<VARIANCE> 25
 4.075407e+01 2.933462e+01 4.483981e+01 4.802997e+01 5.918362e+01 4.699888e+01 4.707578e+01 4.946395e+01 3.621793e+01 3.646457e+01 3.793129e+01 2.482520e+01 1.763496e+00 1.333436e+00 1.738094e+00 2.019375e+00 2.420786e+00 2.729361e+00 2.594926e+00 2.842218e+00 2.451805e+00 2.428721e+00 2.410574e+00 1.906622e+00 2.080781e+00
<GCONST> 1.004646e+02
<STATE> 4
<MEAN> 25
 3.596254e-08 -8.895327e-10 4.614451e-08 1.802495e-08 -1.261230e-08 -7.719873e-09 3.261090e-08 3.269033e-08 -4.616039e-08 -4.160153e-08 1.143685e-09 3.991778e-08 9.457014e-04 -9.065698e-04 1.175286e-03 1.818008e-03 -5.006276e-03 -6.707009e-04 -3.084014e-03 -2.044072e-03 -3.461153e-03 -1.976710e-03 -1.429156e-03 -1.024796e-03 8.545684e-04
<VARIANCE> 25
 4.075407e+01 2.933462e+01 4.483981e+01 4.802997e+01 5.918362e+01 4.699888e+01 4.707578e+01 4.946395e+01 3.621793e+01 3.646457e+01 3.793129e+01 2.482520e+01 1.763496e+00 1.333436e+00 1.738094e+00 2.019375e+00 2.420786e+00 2.729361e+00 2.594926e+00 2.842218e+00 2.451805e+00 2.428721e+00 2.410574e+00 1.906622e+00 2.080781e+00
<GCONST> 1.004646e+02
<TRANSP> 5
 0.000000e+00 1.000000e+00 0.000000e+00 0.000000e+00 0.000000e+00
 0.000000e+00 6.000000e-01 4.000000e-01 0.000000e+00 0.000000e+00
 0.000000e+00 0.000000e+00 6.000000e-01 4.000000e-01 0.000000e+00
 0.000000e+00 0.000000e+00 0.000000e+00 7.000000e-01 3.000000e-01
 0.000000e+00 0.000000e+00 0.000000e+00 0.000000e+00 0.000000e+00
<ENDHMM>
~h "z"
<BEGINHMM>
<NUMSTATES> 5
<STATE> 2
<MEAN> 25
 3.596254e-08 -8.895327e-10 4.614451e-08 1.802495e-08 -1.261230e-08 -7.719873e-09 3.261090e-08 3.269033e-08 -4.616039e-08 -4.160153e-08 1.143685e-09 3.991778e-08 9.457014e-04 -9.065698e-04 1.175286e-03 1.818008e-03 -5.006276e-03 -6.707009e-04 -3.084014e-03 -2.044072e-03 -3.461153e-03 -1.976710e-03 -1.429156e-03 -1.024796e-03 8.545684e-04
<VARIANCE> 25
 4.075407e+01 2.933462e+01 4.483981e+01 4.802997e+01 5.918362e+01 4.699888e+01 4.707578e+01 4.946395e+01 3.621793e+01 3.646457e+01 3.793129e+01 2.482520e+01 1.763496e+00 1.333436e+00 1.738094e+00 2.019375e+00 2.420786e+00 2.729361e+00 2.594926e+00 2.842218e+00 2.451805e+00 2.428721e+00 2.410574e+00 1.906622e+00 2.080781e+00
<GCONST> 1.004646e+02
<STATE> 3
<MEAN> 25
 3.596254e-08 -8.895327e-10 4.614451e-08 1.802495e-08 -1.261230e-08 -7.719873e-09 3.261090e-08 3.269033e-08 -4.616039e-08 -4.160153e-08 1.143685e-09 3.991778e-08 9.457014e-04 -9.065698e-04 1.175286e-03 1.818008e-03 -5.006276e-03 -6.707009e-04 -3.084014e-03 -2.044072e-03 -3.461153e-03 -1.976710e-03 -1.429156e-03 -1.024796e-03 8.545684e-04
<VARIANCE> 25
 4.075407e+01 2.933462e+01 4.483981e+01 4.802997e+01 5.918362e+01 4.699888e+01 4.707578e+01 4.946395e+01 3.621793e+01 3.646457e+01 3.793129e+01 2.482520e+01 1.763496e+00 1.333436e+00 1.738094e+00 2.019375e+00 2.420786e+00 2.729361e+00 2.594926e+00 2.842218e+00 2.451805e+00 2.428721e+00 2.410574e+00 1.906622e+00 2.080781e+00
<GCONST> 1.004646e+02
<STATE> 4
<MEAN> 25
 3.596254e-08 -8.895327e-10 4.614451e-08 1.802495e-08 -1.261230e-08 -7.719873e-09 3.261090e-08 3.269033e-08 -4.616039e-08 -4.160153e-08 1.143685e-09 3.991778e-08 9.457014e-04 -9.065698e-04 1.175286e-03 1.818008e-03 -5.006276e-03 -6.707009e-04 -3.084014e-03 -2.044072e-03 -3.461153e-03 -1.976710e-03 -1.429156e-03 -1.024796e-03 8.545684e-04
<VARIANCE> 25
 4.075407e+01 2.933462e+01 4.483981e+01 4.802997e+01 5.918362e+01 4.699888e+01 4.707578e+01 4.946395e+01 3.621793e+01 3.646457e+01 3.793129e+01 2.482520e+01 1.763496e+00 1.333436e+00 1.738094e+00 2.019375e+00 2.420786e+00 2.729361e+00 2.594926e+00 2.842218e+00 2.451805e+00 2.428721e+00 2.410574e+00 1.906622e+00 2.080781e+00
<GCONST> 1.004646e+02
<TRANSP> 5
 0.000000e+00 1.000000e+00 0.000000e+00 0.000000e+00 0.000000e+00
 0.000000e+00 6.000000e-01 4.000000e-01 0.000000e+00 0.000000e+00
 0.000000e+00 0.000000e+00 6.000000e-01 4.000000e-01 0.000000e+00
 0.000000e+00 0.000000e+00 0.000000e+00 7.000000e-01 3.000000e-01
 0.000000e+00 0.000000e+00 0.000000e+00 0.000000e+00 0.000000e+00
<ENDHMM>
~h "ih"
<BEGINHMM>
<NUMSTATES> 5
<STATE> 2
<MEAN> 25
 3.596254e-08 -8.895327e-10 4.614451e-08 1.802495e-08 -1.261230e-08 -7.719873e-09 3.261090e-08 3.269033e-08 -4.616039e-08 -4.160153e-08 1.143685e-09 3.991778e-08 9.457014e-04 -9.065698e-04 1.175286e-03 1.818008e-03 -5.006276e-03 -6.707009e-04 -3.084014e-03 -2.044072e-03 -3.461153e-03 -1.976710e-03 -1.429156e-03 -1.024796e-03 8.545684e-04
<VARIANCE> 25
 4.075407e+01 2.933462e+01 4.483981e+01 4.802997e+01 5.918362e+01 4.699888e+01 4.707578e+01 4.946395e+01 3.621793e+01 3.646457e+01 3.793129e+01 2.482520e+01 1.763496e+00 1.333436e+00 1.738094e+00 2.019375e+00 2.420786e+00 2.729361e+00 2.594926e+00 2.842218e+00 2.451805e+00 2.428721e+00 2.410574e+00 1.906622e+00 2.080781e+00
<GCONST> 1.004646e+02
<STATE> 3
<MEAN> 25
 3.596254e-08 -8.895327e-10 4.614451e-08 1.802495e-08 -1.261230e-08 -7.719873e-09 3.261090e-08 3.269033e-08 -4.616039e-08 -4.160153e-08 1.143685e-09 3.991778e-08 9.457014e-04 -9.065698e-04 1.175286e-03 1.818008e-03 -5.006276e-03 -6.707009e-04 -3.084014e-03 -2.044072e-03 -3.461153e-03 -1.976710e-03 -1.429156e-03 -1.024796e-03 8.545684e-04
<VARIANCE> 25
 4.075407e+01 2.933462e+01 4.483981e+01 4.802997e+01 5.918362e+01 4.699888e+01 4.707578e+01 4.946395e+01 3.621793e+01 3.646457e+01 3.793129e+01 2.482520e+01 1.763496e+00 1.333436e+00 1.738094e+00 2.019375e+00 2.420786e+00 2.729361e+00 2.594926e+00 2.842218e+00 2.451805e+00 2.428721e+00 2.410574e+00 1.906622e+00 2.080781e+00
<GCONST> 1.004646e+02
<STATE> 4
<MEAN> 25
 3.596254e-08 -8.895327e-10 4.614451e-08 1.802495e-08 -1.261230e-08 -7.719873e-09 3.261090e-08 3.269033e-08 -4.616039e-08 -4.160153e-08 1.143685e-09 3.991778e-08 9.457014e-04 -9.065698e-04 1.175286e-03 1.818008e-03 -5.006276e-03 -6.707009e-04 -3.084014e-03 -2.044072e-03 -3.461153e-03 -1.976710e-03 -1.429156e-03 -1.024796e-03 8.545684e-04
<VARIANCE> 25
 4.075407e+01 2.933462e+01 4.483981e+01 4.802997e+01 5.918362e+01 4.699888e+01 4.707578e+01 4.946395e+01 3.621793e+01 3.646457e+01 3.793129e+01 2.482520e+01 1.763496e+00 1.333436e+00 1.738094e+00 2.019375e+00 2.420786e+00 2.729361e+00 2.594926e+00 2.842218e+00 2.451805e+00 2.428721e+00 2.410574e+00 1.906622e+00 2.080781e+00
<GCONST> 1.004646e+02
<TRANSP> 5
 0.000000e+00 1.000000e+00 0.000000e+00 0.000000e+00 0.000000e+00
 0.000000e+00 6.000000e-01 4.000000e-01 0.000000e+00 0.000000e+00
 0.000000e+00 0.000000e+00 6.000000e-01 4.000000e-01 0.000000e+00
 0.000000e+00 0.000000e+00 0.000000e+00 7.000000e-01 3.000000e-01
 0.000000e+00 0.000000e+00 0.000000e+00 0.000000e+00 0.000000e+00
<ENDHMM>
~h "sh"
<BEGINHMM>
<NUMSTATES> 5
<STATE> 2
<MEAN> 25
 3.596254e-08 -8.895327e-10 4.614451e-08 1.802495e-08 -1.261230e-08 -7.719873e-09 3.261090e-08 3.269033e-08 -4.616039e-08 -4.160153e-08 1.143685e-09 3.991778e-08 9.457014e-04 -9.065698e-04 1.175286e-03 1.818008e-03 -5.006276e-03 -6.707009e-04 -3.084014e-03 -2.044072e-03 -3.461153e-03 -1.976710e-03 -1.429156e-03 -1.024796e-03 8.545684e-04
<VARIANCE> 25
 4.075407e+01 2.933462e+01 4.483981e+01 4.802997e+01 5.918362e+01 4.699888e+01 4.707578e+01 4.946395e+01 3.621793e+01 3.646457e+01 3.793129e+01 2.482520e+01 1.763496e+00 1.333436e+00 1.738094e+00 2.019375e+00 2.420786e+00 2.729361e+00 2.594926e+00 2.842218e+00 2.451805e+00 2.428721e+00 2.410574e+00 1.906622e+00 2.080781e+00
<GCONST> 1.004646e+02
<STATE> 3
<MEAN> 25
 3.596254e-08 -8.895327e-10 4.614451e-08 1.802495e-08 -1.261230e-08 -7.719873e-09 3.261090e-08 3.269033e-08 -4.616039e-08 -4.160153e-08 1.143685e-09 3.991778e-08 9.457014e-04 -9.065698e-04 1.175286e-03 1.818008e-03 -5.006276e-03 -6.707009e-04 -3.084014e-03 -2.044072e-03 -3.461153e-03 -1.976710e-03 -1.429156e-03 -1.024796e-03 8.545684e-04
<VARIANCE> 25
 4.075407e+01 2.933462e+01 4.483981e+01 4.802997e+01 5.918362e+01 4.699888e+01 4.707578e+01 4.946395e+01 3.621793e+01 3.646457e+01 3.793129e+01 2.482520e+01 1.763496e+00 1.333436e+00 1.738094e+00 2.019375e+00 2.420786e+00 2.729361e+00 2.594926e+00 2.842218e+00 2.451805e+00 2.428721e+00 2.410574e+00 1.906622e+00 2.080781e+00
<GCONST> 1.004646e+02
<STATE> 4
<MEAN> 25
 3.596254e-08 -8.895327e-10 4.614451e-08 1.802495e-08 -1.261230e-08 -7.719873e-09 3.261090e-08 3.269033e-08 -4.616039e-08 -4.160153e-08 1.143685e-09 3.991778e-08 9.457014e-04 -9.065698e-04 1.175286e-03 1.818008e-03 -5.006276e-03 -6.707009e-04 -3.084014e-03 -2.044072e-03 -3.461153e-03 -1.976710e-03 -1.429156e-03 -1.024796e-03 8.545684e-04
<VARIANCE> 25
 4.075407e+01 2.933462e+01 4.483981e+01 4.802997e+01 5.918362e+01 4.699888e+01 4.707578e+01 4.946395e+01 3.621793e+01 3.646457e+01 3.793129e+01 2.482520e+01 1.763496e+00 1.333436e+00 1.738094e+00 2.019375e+00 2.420786e+00 2.729361e+00 2.594926e+00 2.842218e+00 2.451805e+00 2.428721e+00 2.410574e+00 1.906622e+00 2.080781e+00
<GCONST> 1.004646e+02
<TRANSP> 5
 0.000000e+00 1.000000e+00 0.000000e+00 0.000000e+00 0.000000e+00
 0.000000e+00 6.000000e-01 4.000000e-01 0.000000e+00 0.000000e+00
 0.000000e+00 0.000000e+00 6.000000e-01 4.000000e-01 0.000000e+00
 0.000000e+00 0.000000e+00 0.000000e+00 7.000000e-01 3.000000e-01
 0.000000e+00 0.000000e+00 0.000000e+00 0.000000e+00 0.000000e+00
<ENDHMM>
~h "aw"
<BEGINHMM>
<NUMSTATES> 5
<STATE> 2
<MEAN> 25
 3.596254e-08 -8.895327e-10 4.614451e-08 1.802495e-08 -1.261230e-08 -7.719873e-09 3.261090e-08 3.269033e-08 -4.616039e-08 -4.160153e-08 1.143685e-09 3.991778e-08 9.457014e-04 -9.065698e-04 1.175286e-03 1.818008e-03 -5.006276e-03 -6.707009e-04 -3.084014e-03 -2.044072e-03 -3.461153e-03 -1.976710e-03 -1.429156e-03 -1.024796e-03 8.545684e-04
<VARIANCE> 25
 4.075407e+01 2.933462e+01 4.483981e+01 4.802997e+01 5.918362e+01 4.699888e+01 4.707578e+01 4.946395e+01 3.621793e+01 3.646457e+01 3.793129e+01 2.482520e+01 1.763496e+00 1.333436e+00 1.738094e+00 2.019375e+00 2.420786e+00 2.729361e+00 2.594926e+00 2.842218e+00 2.451805e+00 2.428721e+00 2.410574e+00 1.906622e+00 2.080781e+00
<GCONST> 1.004646e+02
<STATE> 3
<MEAN> 25
 3.596254e-08 -8.895327e-10 4.614451e-08 1.802495e-08 -1.261230e-08 -7.719873e-09 3.261090e-08 3.269033e-08 -4.616039e-08 -4.160153e-08 1.143685e-09 3.991778e-08 9.457014e-04 -9.065698e-04 1.175286e-03 1.818008e-03 -5.006276e-03 -6.707009e-04 -3.084014e-03 -2.044072e-03 -3.461153e-03 -1.976710e-03 -1.429156e-03 -1.024796e-03 8.545684e-04
<VARIANCE> 25
 4.075407e+01 2.933462e+01 4.483981e+01 4.802997e+01 5.918362e+01 4.699888e+01 4.707578e+01 4.946395e+01 3.621793e+01 3.646457e+01 3.793129e+01 2.482520e+01 1.763496e+00 1.333436e+00 1.738094e+00 2.019375e+00 2.420786e+00 2.729361e+00 2.594926e+00 2.842218e+00 2.451805e+00 2.428721e+00 2.410574e+00 1.906622e+00 2.080781e+00
<GCONST> 1.004646e+02
<STATE> 4
<MEAN> 25
 3.596254e-08 -8.895327e-10 4.614451e-08 1.802495e-08 -1.261230e-08 -7.719873e-09 3.261090e-08 3.269033e-08 -4.616039e-08 -4.160153e-08 1.143685e-09 3.991778e-08 9.457014e-04 -9.065698e-04 1.175286e-03 1.818008e-03 -5.006276e-03 -6.707009e-04 -3.084014e-03 -2.044072e-03 -3.461153e-03 -1.976710e-03 -1.429156e-03 -1.024796e-03 8.545684e-04
<VARIANCE> 25
 4.075407e+01 2.933462e+01 4.483981e+01 4.802997e+01 5.918362e+01 4.699888e+01 4.707578e+01 4.946395e+01 3.621793e+01 3.646457e+01 3.793129e+01 2.482520e+01 1.763496e+00 1.333436e+00 1.738094e+00 2.019375e+00 2.420786e+00 2.729361e+00 2.594926e+00 2.842218e+00 2.451805e+00 2.428721e+00 2.410574e+00 1.906622e+00 2.080781e+00
<GCONST> 1.004646e+02
<TRANSP> 5
 0.000000e+00 1.000000e+00 0.000000e+00 0.000000e+00 0.000000e+00
 0.000000e+00 6.000000e-01 4.000000e-01 0.000000e+00 0.000000e+00
 0.000000e+00 0.000000e+00 6.000000e-01 4.000000e-01 0.000000e+00
 0.000000e+00 0.000000e+00 0.000000e+00 7.000000e-01 3.000000e-01
 0.000000e+00 0.000000e+00 0.000000e+00 0.000000e+00 0.000000e+00
<ENDHMM>
~h "ng"
<BEGINHMM>
<NUMSTATES> 5
<STATE> 2
<MEAN> 25
 3.596254e-08 -8.895327e-10 4.614451e-08 1.802495e-08 -1.261230e-08 -7.719873e-09 3.261090e-08 3.269033e-08 -4.616039e-08 -4.160153e-08 1.143685e-09 3.991778e-08 9.457014e-04 -9.065698e-04 1.175286e-03 1.818008e-03 -5.006276e-03 -6.707009e-04 -3.084014e-03 -2.044072e-03 -3.461153e-03 -1.976710e-03 -1.429156e-03 -1.024796e-03 8.545684e-04
<VARIANCE> 25
 4.075407e+01 2.933462e+01 4.483981e+01 4.802997e+01 5.918362e+01 4.699888e+01 4.707578e+01 4.946395e+01 3.621793e+01 3.646457e+01 3.793129e+01 2.482520e+01 1.763496e+00 1.333436e+00 1.738094e+00 2.019375e+00 2.420786e+00 2.729361e+00 2.594926e+00 2.842218e+00 2.451805e+00 2.428721e+00 2.410574e+00 1.906622e+00 2.080781e+00
<GCONST> 1.004646e+02
<STATE> 3
<MEAN> 25
 3.596254e-08 -8.895327e-10 4.614451e-08 1.802495e-08 -1.261230e-08 -7.719873e-09 3.261090e-08 3.269033e-08 -4.616039e-08 -4.160153e-08 1.143685e-09 3.991778e-08 9.457014e-04 -9.065698e-04 1.175286e-03 1.818008e-03 -5.006276e-03 -6.707009e-04 -3.084014e-03 -2.044072e-03 -3.461153e-03 -1.976710e-03 -1.429156e-03 -1.024796e-03 8.545684e-04
<VARIANCE> 25
 4.075407e+01 2.933462e+01 4.483981e+01 4.802997e+01 5.918362e+01 4.699888e+01 4.707578e+01 4.946395e+01 3.621793e+01 3.646457e+01 3.793129e+01 2.482520e+01 1.763496e+00 1.333436e+00 1.738094e+00 2.019375e+00 2.420786e+00 2.729361e+00 2.594926e+00 2.842218e+00 2.451805e+00 2.428721e+00 2.410574e+00 1.906622e+00 2.080781e+00
<GCONST> 1.004646e+02
<STATE> 4
<MEAN> 25
 3.596254e-08 -8.895327e-10 4.614451e-08 1.802495e-08 -1.261230e-08 -7.719873e-09 3.261090e-08 3.269033e-08 -4.616039e-08 -4.160153e-08 1.143685e-09 3.991778e-08 9.457014e-04 -9.065698e-04 1.175286e-03 1.818008e-03 -5.006276e-03 -6.707009e-04 -3.084014e-03 -2.044072e-03 -3.461153e-03 -1.976710e-03 -1.429156e-03 -1.024796e-03 8.545684e-04
<VARIANCE> 25
 4.075407e+01 2.933462e+01 4.483981e+01 4.802997e+01 5.918362e+01 4.699888e+01 4.707578e+01 4.946395e+01 3.621793e+01 3.646457e+01 3.793129e+01 2.482520e+01 1.763496e+00 1.333436e+00 1.738094e+00 2.019375e+00 2.420786e+00 2.729361e+00 2.594926e+00 2.842218e+00 2.451805e+00 2.428721e+00 2.410574e+00 1.906622e+00 2.080781e+00
<GCONST> 1.004646e+02
<TRANSP> 5
 0.000000e+00 1.000000e+00 0.000000e+00 0.000000e+00 0.000000e+00
 0.000000e+00 6.000000e-01 4.000000e-01 0.000000e+00 0.000000e+00
 0.000000e+00 0.000000e+00 6.000000e-01 4.000000e-01 0.000000e+00
 0.000000e+00 0.000000e+00 0.000000e+00 7.000000e-01 3.000000e-01
 0.000000e+00 0.000000e+00 0.000000e+00 0.000000e+00 0.000000e+00
<ENDHMM>
~h "t"
<BEGINHMM>
<NUMSTATES> 5
<STATE> 2
<MEAN> 25
 3.596254e-08 -8.895327e-10 4.614451e-08 1.802495e-08 -1.261230e-08 -7.719873e-09 3.261090e-08 3.269033e-08 -4.616039e-08 -4.160153e-08 1.143685e-09 3.991778e-08 9.457014e-04 -9.065698e-04 1.175286e-03 1.818008e-03 -5.006276e-03 -6.707009e-04 -3.084014e-03 -2.044072e-03 -3.461153e-03 -1.976710e-03 -1.429156e-03 -1.024796e-03 8.545684e-04
<VARIANCE> 25
 4.075407e+01 2.933462e+01 4.483981e+01 4.802997e+01 5.918362e+01 4.699888e+01 4.707578e+01 4.946395e+01 3.621793e+01 3.646457e+01 3.793129e+01 2.482520e+01 1.763496e+00 1.333436e+00 1.738094e+00 2.019375e+00 2.420786e+00 2.729361e+00 2.594926e+00 2.842218e+00 2.451805e+00 2.428721e+00 2.410574e+00 1.906622e+00 2.080781e+00
<GCONST> 1.004646e+02
<STATE> 3
<MEAN> 25
 3.596254e-08 -8.895327e-10 4.614451e-08 1.802495e-08 -1.261230e-08 -7.719873e-09 3.261090e-08 3.269033e-08 -4.616039e-08 -4.160153e-08 1.143685e-09 3.991778e-08 9.457014e-04 -9.065698e-04 1.175286e-03 1.818008e-03 -5.006276e-03 -6.707009e-04 -3.084014e-03 -2.044072e-03 -3.461153e-03 -1.976710e-03 -1.429156e-03 -1.024796e-03 8.545684e-04
<VARIANCE> 25
 4.075407e+01 2.933462e+01 4.483981e+01 4.802997e+01 5.918362e+01 4.699888e+01 4.707578e+01 4.946395e+01 3.621793e+01 3.646457e+01 3.793129e+01 2.482520e+01 1.763496e+00 1.333436e+00 1.738094e+00 2.019375e+00 2.420786e+00 2.729361e+00 2.594926e+00 2.842218e+00 2.451805e+00 2.428721e+00 2.410574e+00 1.906622e+00 2.080781e+00
<GCONST> 1.004646e+02
<STATE> 4
<MEAN> 25
 3.596254e-08 -8.895327e-10 4.614451e-08 1.802495e-08 -1.261230e-08 -7.719873e-09 3.261090e-08 3.269033e-08 -4.616039e-08 -4.160153e-08 1.143685e-09 3.991778e-08 9.457014e-04 -9.065698e-04 1.175286e-03 1.818008e-03 -5.006276e-03 -6.707009e-04 -3.084014e-03 -2.044072e-03 -3.461153e-03 -1.976710e-03 -1.429156e-03 -1.024796e-03 8.545684e-04
<VARIANCE> 25
 4.075407e+01 2.933462e+01 4.483981e+01 4.802997e+01 5.918362e+01 4.699888e+01 4.707578e+01 4.946395e+01 3.621793e+01 3.646457e+01 3.793129e+01 2.482520e+01 1.763496e+00 1.333436e+00 1.738094e+00 2.019375e+00 2.420786e+00 2.729361e+00 2.594926e+00 2.842218e+00 2.451805e+00 2.428721e+00 2.410574e+00 1.906622e+00 2.080781e+00
<GCONST> 1.004646e+02
<TRANSP> 5
 0.000000e+00 1.000000e+00 0.000000e+00 0.000000e+00 0.000000e+00
 0.000000e+00 6.000000e-01 4.000000e-01 0.000000e+00 0.000000e+00
 0.000000e+00 0.000000e+00 6.000000e-01 4.000000e-01 0.000000e+00
 0.000000e+00 0.000000e+00 0.000000e+00 7.000000e-01 3.000000e-01
 0.000000e+00 0.000000e+00 0.000000e+00 0.000000e+00 0.000000e+00
<ENDHMM>
~h "k"
<BEGINHMM>
<NUMSTATES> 5
<STATE> 2
<MEAN> 25
 3.596254e-08 -8.895327e-10 4.614451e-08 1.802495e-08 -1.261230e-08 -7.719873e-09 3.261090e-08 3.269033e-08 -4.616039e-08 -4.160153e-08 1.143685e-09 3.991778e-08 9.457014e-04 -9.065698e-04 1.175286e-03 1.818008e-03 -5.006276e-03 -6.707009e-04 -3.084014e-03 -2.044072e-03 -3.461153e-03 -1.976710e-03 -1.429156e-03 -1.024796e-03 8.545684e-04
<VARIANCE> 25
 4.075407e+01 2.933462e+01 4.483981e+01 4.802997e+01 5.918362e+01 4.699888e+01 4.707578e+01 4.946395e+01 3.621793e+01 3.646457e+01 3.793129e+01 2.482520e+01 1.763496e+00 1.333436e+00 1.738094e+00 2.019375e+00 2.420786e+00 2.729361e+00 2.594926e+00 2.842218e+00 2.451805e+00 2.428721e+00 2.410574e+00 1.906622e+00 2.080781e+00
<GCONST> 1.004646e+02
<STATE> 3
<MEAN> 25
 3.596254e-08 -8.895327e-10 4.614451e-08 1.802495e-08 -1.261230e-08 -7.719873e-09 3.261090e-08 3.269033e-08 -4.616039e-08 -4.160153e-08 1.143685e-09 3.991778e-08 9.457014e-04 -9.065698e-04 1.175286e-03 1.818008e-03 -5.006276e-03 -6.707009e-04 -3.084014e-03 -2.044072e-03 -3.461153e-03 -1.976710e-03 -1.429156e-03 -1.024796e-03 8.545684e-04
<VARIANCE> 25
 4.075407e+01 2.933462e+01 4.483981e+01 4.802997e+01 5.918362e+01 4.699888e+01 4.707578e+01 4.946395e+01 3.621793e+01 3.646457e+01 3.793129e+01 2.482520e+01 1.763496e+00 1.333436e+00 1.738094e+00 2.019375e+00 2.420786e+00 2.729361e+00 2.594926e+00 2.842218e+00 2.451805e+00 2.428721e+00 2.410574e+00 1.906622e+00 2.080781e+00
<GCONST> 1.004646e+02
<STATE> 4
<MEAN> 25
 3.596254e-08 -8.895327e-10 4.614451e-08 1.802495e-08 -1.261230e-08 -7.719873e-09 3.261090e-08 3.269033e-08 -4.616039e-08 -4.160153e-08 1.143685e-09 3.991778e-08 9.457014e-04 -9.065698e-04 1.175286e-03 1.818008e-03 -5.006276e-03 -6.707009e-04 -3.084014e-03 -2.044072e-03 -3.461153e-03 -1.976710e-03 -1.429156e-03 -1.024796e-03 8.545684e-04
<VARIANCE> 25
 4.075407e+01 2.933462e+01 4.483981e+01 4.802997e+01 5.918362e+01 4.699888e+01 4.707578e+01 4.946395e+01 3.621793e+01 3.646457e+01 3.793129e+01 2.482520e+01 1.763496e+00 1.333436e+00 1.738094e+00 2.019375e+00 2.420786e+00 2.729361e+00 2.594926e+00 2.842218e+00 2.451805e+00 2.428721e+00 2.410574e+00 1.906622e+00 2.080781e+00
<GCONST> 1.004646e+02
<TRANSP> 5
 0.000000e+00 1.000000e+00 0.000000e+00 0.000000e+00 0.000000e+00
 0.000000e+00 6.000000e-01 4.000000e-01 0.000000e+00 0.000000e+00
 0.000000e+00 0.000000e+00 6.000000e-01 4.000000e-01 0.000000e+00
 0.000000e+00 0.000000e+00 0.000000e+00 7.000000e-01 3.000000e-01
 0.000000e+00 0.000000e+00 0.000000e+00 0.000000e+00 0.000000e+00
<ENDHMM>
~h "ch"
<BEGINHMM>
<NUMSTATES> 5
<STATE> 2
<MEAN> 25
 3.596254e-08 -8.895327e-10 4.614451e-08 1.802495e-08 -1.261230e-08 -7.719873e-09 3.261090e-08 3.269033e-08 -4.616039e-08 -4.160153e-08 1.143685e-09 3.991778e-08 9.457014e-04 -9.065698e-04 1.175286e-03 1.818008e-03 -5.006276e-03 -6.707009e-04 -3.084014e-03 -2.044072e-03 -3.461153e-03 -1.976710e-03 -1.429156e-03 -1.024796e-03 8.545684e-04
<VARIANCE> 25
 4.075407e+01 2.933462e+01 4.483981e+01 4.802997e+01 5.918362e+01 4.699888e+01 4.707578e+01 4.946395e+01 3.621793e+01 3.646457e+01 3.793129e+01 2.482520e+01 1.763496e+00 1.333436e+00 1.738094e+00 2.019375e+00 2.420786e+00 2.729361e+00 2.594926e+00 2.842218e+00 2.451805e+00 2.428721e+00 2.410574e+00 1.906622e+00 2.080781e+00
<GCONST> 1.004646e+02
<STATE> 3
<MEAN> 25
 3.596254e-08 -8.895327e-10 4.614451e-08 1.802495e-08 -1.261230e-08 -7.719873e-09 3.261090e-08 3.269033e-08 -4.616039e-08 -4.160153e-08 1.143685e-09 3.991778e-08 9.457014e-04 -9.065698e-04 1.175286e-03 1.818008e-03 -5.006276e-03 -6.707009e-04 -3.084014e-03 -2.044072e-03 -3.461153e-03 -1.976710e-03 -1.429156e-03 -1.024796e-03 8.545684e-04
<VARIANCE> 25
 4.075407e+01 2.933462e+01 4.483981e+01 4.802997e+01 5.918362e+01 4.699888e+01 4.707578e+01 4.946395e+01 3.621793e+01 3.646457e+01 3.793129e+01 2.482520e+01 1.763496e+00 1.333436e+00 1.738094e+00 2.019375e+00 2.420786e+00 2.729361e+00 2.594926e+00 2.842218e+00 2.451805e+00 2.428721e+00 2.410574e+00 1.906622e+00 2.080781e+00
<GCONST> 1.004646e+02
<STATE> 4
<MEAN> 25
 3.596254e-08 -8.895327e-10 4.614451e-08 1.802495e-08 -1.261230e-08 -7.719873e-09 3.261090e-08 3.269033e-08 -4.616039e-08 -4.160153e-08 1.143685e-09 3.991778e-08 9.457014e-04 -9.065698e-04 1.175286e-03 1.818008e-03 -5.006276e-03 -6.707009e-04 -3.084014e-03 -2.044072e-03 -3.461153e-03 -1.976710e-03 -1.429156e-03 -1.024796e-03 8.545684e-04
<VARIANCE> 25
 4.075407e+01 2.933462e+01 4.483981e+01 4.802997e+01 5.918362e+01 4.699888e+01 4.707578e+01 4.946395e+01 3.621793e+01 3.646457e+01 3.793129e+01 2.482520e+01 1.763496e+00 1.333436e+00 1.738094e+00 2.019375e+00 2.420786e+00 2.729361e+00 2.594926e+00 2.842218e+00 2.451805e+00 2.428721e+00 2.410574e+00 1.906622e+00 2.080781e+00
<GCONST> 1.004646e+02
<TRANSP> 5
 0.000000e+00 1.000000e+00 0.000000e+00 0.000000e+00 0.000000e+00
 0.000000e+00 6.000000e-01 4.000000e-01 0.000000e+00 0.000000e+00
 0.000000e+00 0.000000e+00 6.000000e-01 4.000000e-01 0.000000e+00
 0.000000e+00 0.000000e+00 0.000000e+00 7.000000e-01 3.000000e-01
 0.000000e+00 0.000000e+00 0.000000e+00 0.000000e+00 0.000000e+00
<ENDHMM>
~h "iy"
<BEGINHMM>
<NUMSTATES> 5
<STATE> 2
<MEAN> 25
 3.596254e-08 -8.895327e-10 4.614451e-08 1.802495e-08 -1.261230e-08 -7.719873e-09 3.261090e-08 3.269033e-08 -4.616039e-08 -4.160153e-08 1.143685e-09 3.991778e-08 9.457014e-04 -9.065698e-04 1.175286e-03 1.818008e-03 -5.006276e-03 -6.707009e-04 -3.084014e-03 -2.044072e-03 -3.461153e-03 -1.976710e-03 -1.429156e-03 -1.024796e-03 8.545684e-04
<VARIANCE> 25
 4.075407e+01 2.933462e+01 4.483981e+01 4.802997e+01 5.918362e+01 4.699888e+01 4.707578e+01 4.946395e+01 3.621793e+01 3.646457e+01 3.793129e+01 2.482520e+01 1.763496e+00 1.333436e+00 1.738094e+00 2.019375e+00 2.420786e+00 2.729361e+00 2.594926e+00 2.842218e+00 2.451805e+00 2.428721e+00 2.410574e+00 1.906622e+00 2.080781e+00
<GCONST> 1.004646e+02
<STATE> 3
<MEAN> 25
 3.596254e-08 -8.895327e-10 4.614451e-08 1.802495e-08 -1.261230e-08 -7.719873e-09 3.261090e-08 3.269033e-08 -4.616039e-08 -4.160153e-08 1.143685e-09 3.991778e-08 9.457014e-04 -9.065698e-04 1.175286e-03 1.818008e-03 -5.006276e-03 -6.707009e-04 -3.084014e-03 -2.044072e-03 -3.461153e-03 -1.976710e-03 -1.429156e-03 -1.024796e-03 8.545684e-04
<VARIANCE> 25
 4.075407e+01 2.933462e+01 4.483981e+01 4.802997e+01 5.918362e+01 4.699888e+01 4.707578e+01 4.946395e+01 3.621793e+01 3.646457e+01 3.793129e+01 2.482520e+01 1.763496e+00 1.333436e+00 1.738094e+00 2.019375e+00 2.420786e+00 2.729361e+00 2.594926e+00 2.842218e+00 2.451805e+00 2.428721e+00 2.410574e+00 1.906622e+00 2.080781e+00
<GCONST> 1.004646e+02
<STATE> 4
<MEAN> 25
 3.596254e-08 -8.895327e-10 4.614451e-08 1.802495e-08 -1.261230e-08 -7.719873e-09 3.261090e-08 3.269033e-08 -4.616039e-08 -4.160153e-08 1.143685e-09 3.991778e-08 9.457014e-04 -9.065698e-04 1.175286e-03 1.818008e-03 -5.006276e-03 -6.707009e-04 -3.084014e-03 -2.044072e-03 -3.461153e-03 -1.976710e-03 -1.429156e-03 -1.024796e-03 8.545684e-04
<VARIANCE> 25
 4.075407e+01 2.933462e+01 4.483981e+01 4.802997e+01 5.918362e+01 4.699888e+01 4.707578e+01 4.946395e+01 3.621793e+01 3.646457e+01 3.793129e+01 2.482520e+01 1.763496e+00 1.333436e+00 1.738094e+00 2.019375e+00 2.420786e+00 2.729361e+00 2.594926e+00 2.842218e+00 2.451805e+00 2.428721e+00 2.410574e+00 1.906622e+00 2.080781e+00
<GCONST> 1.004646e+02
<TRANSP> 5
 0.000000e+00 1.000000e+00 0.000000e+00 0.000000e+00 0.000000e+00
 0.000000e+00 6.000000e-01 4.000000e-01 0.000000e+00 0.000000e+00
 0.000000e+00 0.000000e+00 6.000000e-01 4.000000e-01 0.000000e+00
 0.000000e+00 0.000000e+00 0.000000e+00 7.000000e-01 3.000000e-01
 0.000000e+00 0.000000e+00 0.000000e+00 0.000000e+00 0.000000e+00
<ENDHMM>
~h "v"
<BEGINHMM>
<NUMSTATES> 5
<STATE> 2
<MEAN> 25
 3.596254e-08 -8.895327e-10 4.614451e-08 1.802495e-08 -1.261230e-08 -7.719873e-09 3.261090e-08 3.269033e-08 -4.616039e-08 -4.160153e-08 1.143685e-09 3.991778e-08 9.457014e-04 -9.065698e-04 1.175286e-03 1.818008e-03 -5.006276e-03 -6.707009e-04 -3.084014e-03 -2.044072e-03 -3.461153e-03 -1.976710e-03 -1.429156e-03 -1.024796e-03 8.545684e-04
<VARIANCE> 25
 4.075407e+01 2.933462e+01 4.483981e+01 4.802997e+01 5.918362e+01 4.699888e+01 4.707578e+01 4.946395e+01 3.621793e+01 3.646457e+01 3.793129e+01 2.482520e+01 1.763496e+00 1.333436e+00 1.738094e+00 2.019375e+00 2.420786e+00 2.729361e+00 2.594926e+00 2.842218e+00 2.451805e+00 2.428721e+00 2.410574e+00 1.906622e+00 2.080781e+00
<GCONST> 1.004646e+02
<STATE> 3
<MEAN> 25
 3.596254e-08 -8.895327e-10 4.614451e-08 1.802495e-08 -1.261230e-08 -7.719873e-09 3.261090e-08 3.269033e-08 -4.616039e-08 -4.160153e-08 1.143685e-09 3.991778e-08 9.457014e-04 -9.065698e-04 1.175286e-03 1.818008e-03 -5.006276e-03 -6.707009e-04 -3.084014e-03 -2.044072e-03 -3.461153e-03 -1.976710e-03 -1.429156e-03 -1.024796e-03 8.545684e-04
<VARIANCE> 25
 4.075407e+01 2.933462e+01 4.483981e+01 4.802997e+01 5.918362e+01 4.699888e+01 4.707578e+01 4.946395e+01 3.621793e+01 3.646457e+01 3.793129e+01 2.482520e+01 1.763496e+00 1.333436e+00 1.738094e+00 2.019375e+00 2.420786e+00 2.729361e+00 2.594926e+00 2.842218e+00 2.451805e+00 2.428721e+00 2.410574e+00 1.906622e+00 2.080781e+00
<GCONST> 1.004646e+02
<STATE> 4
<MEAN> 25
 3.596254e-08 -8.895327e-10 4.614451e-08 1.802495e-08 -1.261230e-08 -7.719873e-09 3.261090e-08 3.269033e-08 -4.616039e-08 -4.160153e-08 1.143685e-09 3.991778e-08 9.457014e-04 -9.065698e-04 1.175286e-03 1.818008e-03 -5.006276e-03 -6.707009e-04 -3.084014e-03 -2.044072e-03 -3.461153e-03 -1.976710e-03 -1.429156e-03 -1.024796e-03 8.545684e-04
<VARIANCE> 25
 4.075407e+01 2.933462e+01 4.483981e+01 4.802997e+01 5.918362e+01 4.699888e+01 4.707578e+01 4.946395e+01 3.621793e+01 3.646457e+01 3.793129e+01 2.482520e+01 1.763496e+00 1.333436e+00 1.738094e+00 2.019375e+00 2.420786e+00 2.729361e+00 2.594926e+00 2.842218e+00 2.451805e+00 2.428721e+00 2.410574e+00 1.906622e+00 2.080781e+00
<GCONST> 1.004646e+02
<TRANSP> 5
 0.000000e+00 1.000000e+00 0.000000e+00 0.000000e+00 0.000000e+00
 0.000000e+00 6.000000e-01 4.000000e-01 0.000000e+00 0.000000e+00
 0.000000e+00 0.000000e+00 6.000000e-01 4.000000e-01 0.000000e+00
 0.000000e+00 0.000000e+00 0.000000e+00 7.000000e-01 3.000000e-01
 0.000000e+00 0.000000e+00 0.000000e+00 0.000000e+00 0.000000e+00
<ENDHMM>
~h "w"
<BEGINHMM>
<NUMSTATES> 5
<STATE> 2
<MEAN> 25
 3.596254e-08 -8.895327e-10 4.614451e-08 1.802495e-08 -1.261230e-08 -7.719873e-09 3.261090e-08 3.269033e-08 -4.616039e-08 -4.160153e-08 1.143685e-09 3.991778e-08 9.457014e-04 -9.065698e-04 1.175286e-03 1.818008e-03 -5.006276e-03 -6.707009e-04 -3.084014e-03 -2.044072e-03 -3.461153e-03 -1.976710e-03 -1.429156e-03 -1.024796e-03 8.545684e-04
<VARIANCE> 25
 4.075407e+01 2.933462e+01 4.483981e+01 4.802997e+01 5.918362e+01 4.699888e+01 4.707578e+01 4.946395e+01 3.621793e+01 3.646457e+01 3.793129e+01 2.482520e+01 1.763496e+00 1.333436e+00 1.738094e+00 2.019375e+00 2.420786e+00 2.729361e+00 2.594926e+00 2.842218e+00 2.451805e+00 2.428721e+00 2.410574e+00 1.906622e+00 2.080781e+00
<GCONST> 1.004646e+02
<STATE> 3
<MEAN> 25
 3.596254e-08 -8.895327e-10 4.614451e-08 1.802495e-08 -1.261230e-08 -7.719873e-09 3.261090e-08 3.269033e-08 -4.616039e-08 -4.160153e-08 1.143685e-09 3.991778e-08 9.457014e-04 -9.065698e-04 1.175286e-03 1.818008e-03 -5.006276e-03 -6.707009e-04 -3.084014e-03 -2.044072e-03 -3.461153e-03 -1.976710e-03 -1.429156e-03 -1.024796e-03 8.545684e-04
<VARIANCE> 25
 4.075407e+01 2.933462e+01 4.483981e+01 4.802997e+01 5.918362e+01 4.699888e+01 4.707578e+01 4.946395e+01 3.621793e+01 3.646457e+01 3.793129e+01 2.482520e+01 1.763496e+00 1.333436e+00 1.738094e+00 2.019375e+00 2.420786e+00 2.729361e+00 2.594926e+00 2.842218e+00 2.451805e+00 2.428721e+00 2.410574e+00 1.906622e+00 2.080781e+00
<GCONST> 1.004646e+02
<STATE> 4
<MEAN> 25
 3.596254e-08 -8.895327e-10 4.614451e-08 1.802495e-08 -1.261230e-08 -7.719873e-09 3.261090e-08 3.269033e-08 -4.616039e-08 -4.160153e-08 1.143685e-09 3.991778e-08 9.457014e-04 -9.065698e-04 1.175286e-03 1.818008e-03 -5.006276e-03 -6.707009e-04 -3.084014e-03 -2.044072e-03 -3.461153e-03 -1.976710e-03 -1.429156e-03 -1.024796e-03 8.545684e-04
<VARIANCE> 25
 4.075407e+01 2.933462e+01 4.483981e+01 4.802997e+01 5.918362e+01 4.699888e+01 4.707578e+01 4.946395e+01 3.621793e+01 3.646457e+01 3.793129e+01 2.482520e+01 1.763496e+00 1.333436e+00 1.738094e+00 2.019375e+00 2.420786e+00 2.729361e+00 2.594926e+00 2.842218e+00 2.451805e+00 2.428721e+00 2.410574e+00 1.906622e+00 2.080781e+00
<GCONST> 1.004646e+02
<TRANSP> 5
 0.000000e+00 1.000000e+00 0.000000e+00 0.000000e+00 0.000000e+00
 0.000000e+00 6.000000e-01 4.000000e-01 0.000000e+00 0.000000e+00
 0.000000e+00 0.000000e+00 6.000000e-01 4.000000e-01 0.000000e+00
 0.000000e+00 0.000000e+00 0.000000e+00 7.000000e-01 3.000000e-01
 0.000000e+00 0.000000e+00 0.000000e+00 0.000000e+00 0.000000e+00
<ENDHMM>
~h "y"
<BEGINHMM>
<NUMSTATES> 5
<STATE> 2
<MEAN> 25
 3.596254e-08 -8.895327e-10 4.614451e-08 1.802495e-08 -1.261230e-08 -7.719873e-09 3.261090e-08 3.269033e-08 -4.616039e-08 -4.160153e-08 1.143685e-09 3.991778e-08 9.457014e-04 -9.065698e-04 1.175286e-03 1.818008e-03 -5.006276e-03 -6.707009e-04 -3.084014e-03 -2.044072e-03 -3.461153e-03 -1.976710e-03 -1.429156e-03 -1.024796e-03 8.545684e-04
<VARIANCE> 25
 4.075407e+01 2.933462e+01 4.483981e+01 4.802997e+01 5.918362e+01 4.699888e+01 4.707578e+01 4.946395e+01 3.621793e+01 3.646457e+01 3.793129e+01 2.482520e+01 1.763496e+00 1.333436e+00 1.738094e+00 2.019375e+00 2.420786e+00 2.729361e+00 2.594926e+00 2.842218e+00 2.451805e+00 2.428721e+00 2.410574e+00 1.906622e+00 2.080781e+00
<GCONST> 1.004646e+02
<STATE> 3
<MEAN> 25
 3.596254e-08 -8.895327e-10 4.614451e-08 1.802495e-08 -1.261230e-08 -7.719873e-09 3.261090e-08 3.269033e-08 -4.616039e-08 -4.160153e-08 1.143685e-09 3.991778e-08 9.457014e-04 -9.065698e-04 1.175286e-03 1.818008e-03 -5.006276e-03 -6.707009e-04 -3.084014e-03 -2.044072e-03 -3.461153e-03 -1.976710e-03 -1.429156e-03 -1.024796e-03 8.545684e-04
<VARIANCE> 25
 4.075407e+01 2.933462e+01 4.483981e+01 4.802997e+01 5.918362e+01 4.699888e+01 4.707578e+01 4.946395e+01 3.621793e+01 3.646457e+01 3.793129e+01 2.482520e+01 1.763496e+00 1.333436e+00 1.738094e+00 2.019375e+00 2.420786e+00 2.729361e+00 2.594926e+00 2.842218e+00 2.451805e+00 2.428721e+00 2.410574e+00 1.906622e+00 2.080781e+00
<GCONST> 1.004646e+02
<STATE> 4
<MEAN> 25
 3.596254e-08 -8.895327e-10 4.614451e-08 1.802495e-08 -1.261230e-08 -7.719873e-09 3.261090e-08 3.269033e-08 -4.616039e-08 -4.160153e-08 1.143685e-09 3.991778e-08 9.457014e-04 -9.065698e-04 1.175286e-03 1.818008e-03 -5.006276e-03 -6.707009e-04 -3.084014e-03 -2.044072e-03 -3.461153e-03 -1.976710e-03 -1.429156e-03 -1.024796e-03 8.545684e-04
<VARIANCE> 25
 4.075407e+01 2.933462e+01 4.483981e+01 4.802997e+01 5.918362e+01 4.699888e+01 4.707578e+01 4.946395e+01 3.621793e+01 3.646457e+01 3.793129e+01 2.482520e+01 1.763496e+00 1.333436e+00 1.738094e+00 2.019375e+00 2.420786e+00 2.729361e+00 2.594926e+00 2.842218e+00 2.451805e+00 2.428721e+00 2.410574e+00 1.906622e+00 2.080781e+00
<GCONST> 1.004646e+02
<TRANSP> 5
 0.000000e+00 1.000000e+00 0.000000e+00 0.000000e+00 0.000000e+00
 0.000000e+00 6.000000e-01 4.000000e-01 0.000000e+00 0.000000e+00
 0.000000e+00 0.000000e+00 6.000000e-01 4.000000e-01 0.000000e+00
 0.000000e+00 0.000000e+00 0.000000e+00 7.000000e-01 3.000000e-01
 0.000000e+00 0.000000e+00 0.000000e+00 0.000000e+00 0.000000e+00
<ENDHMM>
~h "uw"
<BEGINHMM>
<NUMSTATES> 5
<STATE> 2
<MEAN> 25
 3.596254e-08 -8.895327e-10 4.614451e-08 1.802495e-08 -1.261230e-08 -7.719873e-09 3.261090e-08 3.269033e-08 -4.616039e-08 -4.160153e-08 1.143685e-09 3.991778e-08 9.457014e-04 -9.065698e-04 1.175286e-03 1.818008e-03 -5.006276e-03 -6.707009e-04 -3.084014e-03 -2.044072e-03 -3.461153e-03 -1.976710e-03 -1.429156e-03 -1.024796e-03 8.545684e-04
<VARIANCE> 25
 4.075407e+01 2.933462e+01 4.483981e+01 4.802997e+01 5.918362e+01 4.699888e+01 4.707578e+01 4.946395e+01 3.621793e+01 3.646457e+01 3.793129e+01 2.482520e+01 1.763496e+00 1.333436e+00 1.738094e+00 2.019375e+00 2.420786e+00 2.729361e+00 2.594926e+00 2.842218e+00 2.451805e+00 2.428721e+00 2.410574e+00 1.906622e+00 2.080781e+00
<GCONST> 1.004646e+02
<STATE> 3
<MEAN> 25
 3.596254e-08 -8.895327e-10 4.614451e-08 1.802495e-08 -1.261230e-08 -7.719873e-09 3.261090e-08 3.269033e-08 -4.616039e-08 -4.160153e-08 1.143685e-09 3.991778e-08 9.457014e-04 -9.065698e-04 1.175286e-03 1.818008e-03 -5.006276e-03 -6.707009e-04 -3.084014e-03 -2.044072e-03 -3.461153e-03 -1.976710e-03 -1.429156e-03 -1.024796e-03 8.545684e-04
<VARIANCE> 25
 4.075407e+01 2.933462e+01 4.483981e+01 4.802997e+01 5.918362e+01 4.699888e+01 4.707578e+01 4.946395e+01 3.621793e+01 3.646457e+01 3.793129e+01 2.482520e+01 1.763496e+00 1.333436e+00 1.738094e+00 2.019375e+00 2.420786e+00 2.729361e+00 2.594926e+00 2.842218e+00 2.451805e+00 2.428721e+00 2.410574e+00 1.906622e+00 2.080781e+00
<GCONST> 1.004646e+02
<STATE> 4
<MEAN> 25
 3.596254e-08 -8.895327e-10 4.614451e-08 1.802495e-08 -1.261230e-08 -7.719873e-09 3.261090e-08 3.269033e-08 -4.616039e-08 -4.160153e-08 1.143685e-09 3.991778e-08 9.457014e-04 -9.065698e-04 1.175286e-03 1.818008e-03 -5.006276e-03 -6.707009e-04 -3.084014e-03 -2.044072e-03 -3.461153e-03 -1.976710e-03 -1.429156e-03 -1.024796e-03 8.545684e-04
<VARIANCE> 25
 4.075407e+01 2.933462e+01 4.483981e+01 4.802997e+01 5.918362e+01 4.699888e+01 4.707578e+01 4.946395e+01 3.621793e+01 3.646457e+01 3.793129e+01 2.482520e+01 1.763496e+00 1.333436e+00 1.738094e+00 2.019375e+00 2.420786e+00 2.729361e+00 2.594926e+00 2.842218e+00 2.451805e+00 2.428721e+00 2.410574e+00 1.906622e+00 2.080781e+00
<GCONST> 1.004646e+02
<TRANSP> 5
 0.000000e+00 1.000000e+00 0.000000e+00 0.000000e+00 0.000000e+00
 0.000000e+00 6.000000e-01 4.000000e-01 0.000000e+00 0.000000e+00
 0.000000e+00 0.000000e+00 6.000000e-01 4.000000e-01 0.000000e+00
 0.000000e+00 0.000000e+00 0.000000e+00 7.000000e-01 3.000000e-01
 0.000000e+00 0.000000e+00 0.000000e+00 0.000000e+00 0.000000e+00
<ENDHMM>
~h "p"
<BEGINHMM>
<NUMSTATES> 5
<STATE> 2
<MEAN> 25
 3.596254e-08 -8.895327e-10 4.614451e-08 1.802495e-08 -1.261230e-08 -7.719873e-09 3.261090e-08 3.269033e-08 -4.616039e-08 -4.160153e-08 1.143685e-09 3.991778e-08 9.457014e-04 -9.065698e-04 1.175286e-03 1.818008e-03 -5.006276e-03 -6.707009e-04 -3.084014e-03 -2.044072e-03 -3.461153e-03 -1.976710e-03 -1.429156e-03 -1.024796e-03 8.545684e-04
<VARIANCE> 25
 4.075407e+01 2.933462e+01 4.483981e+01 4.802997e+01 5.918362e+01 4.699888e+01 4.707578e+01 4.946395e+01 3.621793e+01 3.646457e+01 3.793129e+01 2.482520e+01 1.763496e+00 1.333436e+00 1.738094e+00 2.019375e+00 2.420786e+00 2.729361e+00 2.594926e+00 2.842218e+00 2.451805e+00 2.428721e+00 2.410574e+00 1.906622e+00 2.080781e+00
<GCONST> 1.004646e+02
<STATE> 3
<MEAN> 25
 3.596254e-08 -8.895327e-10 4.614451e-08 1.802495e-08 -1.261230e-08 -7.719873e-09 3.261090e-08 3.269033e-08 -4.616039e-08 -4.160153e-08 1.143685e-09 3.991778e-08 9.457014e-04 -9.065698e-04 1.175286e-03 1.818008e-03 -5.006276e-03 -6.707009e-04 -3.084014e-03 -2.044072e-03 -3.461153e-03 -1.976710e-03 -1.429156e-03 -1.024796e-03 8.545684e-04
<VARIANCE> 25
 4.075407e+01 2.933462e+01 4.483981e+01 4.802997e+01 5.918362e+01 4.699888e+01 4.707578e+01 4.946395e+01 3.621793e+01 3.646457e+01 3.793129e+01 2.482520e+01 1.763496e+00 1.333436e+00 1.738094e+00 2.019375e+00 2.420786e+00 2.729361e+00 2.594926e+00 2.842218e+00 2.451805e+00 2.428721e+00 2.410574e+00 1.906622e+00 2.080781e+00
<GCONST> 1.004646e+02
<STATE> 4
<MEAN> 25
 3.596254e-08 -8.895327e-10 4.614451e-08 1.802495e-08 -1.261230e-08 -7.719873e-09 3.261090e-08 3.269033e-08 -4.616039e-08 -4.160153e-08 1.143685e-09 3.991778e-08 9.457014e-04 -9.065698e-04 1.175286e-03 1.818008e-03 -5.006276e-03 -6.707009e-04 -3.084014e-03 -2.044072e-03 -3.461153e-03 -1.976710e-03 -1.429156e-03 -1.024796e-03 8.545684e-04
<VARIANCE> 25
 4.075407e+01 2.933462e+01 4.483981e+01 4.802997e+01 5.918362e+01 4.699888e+01 4.707578e+01 4.946395e+01 3.621793e+01 3.646457e+01 3.793129e+01 2.482520e+01 1.763496e+00 1.333436e+00 1.738094e+00 2.019375e+00 2.420786e+00 2.729361e+00 2.594926e+00 2.842218e+00 2.451805e+00 2.428721e+00 2.410574e+00 1.906622e+00 2.080781e+00
<GCONST> 1.004646e+02
<TRANSP> 5
 0.000000e+00 1.000000e+00 0.000000e+00 0.000000e+00 0.000000e+00
 0.000000e+00 6.000000e-01 4.000000e-01 0.000000e+00 0.000000e+00
 0.000000e+00 0.000000e+00 6.000000e-01 4.000000e-01 0.000000e+00
 0.000000e+00 0.000000e+00 0.000000e+00 7.000000e-01 3.000000e-01
 0.000000e+00 0.000000e+00 0.000000e+00 0.000000e+00 0.000000e+00
<ENDHMM>
~h "er"
<BEGINHMM>
<NUMSTATES> 5
<STATE> 2
<MEAN> 25
 3.596254e-08 -8.895327e-10 4.614451e-08 1.802495e-08 -1.261230e-08 -7.719873e-09 3.261090e-08 3.269033e-08 -4.616039e-08 -4.160153e-08 1.143685e-09 3.991778e-08 9.457014e-04 -9.065698e-04 1.175286e-03 1.818008e-03 -5.006276e-03 -6.707009e-04 -3.084014e-03 -2.044072e-03 -3.461153e-03 -1.976710e-03 -1.429156e-03 -1.024796e-03 8.545684e-04
<VARIANCE> 25
 4.075407e+01 2.933462e+01 4.483981e+01 4.802997e+01 5.918362e+01 4.699888e+01 4.707578e+01 4.946395e+01 3.621793e+01 3.646457e+01 3.793129e+01 2.482520e+01 1.763496e+00 1.333436e+00 1.738094e+00 2.019375e+00 2.420786e+00 2.729361e+00 2.594926e+00 2.842218e+00 2.451805e+00 2.428721e+00 2.410574e+00 1.906622e+00 2.080781e+00
<GCONST> 1.004646e+02
<STATE> 3
<MEAN> 25
 3.596254e-08 -8.895327e-10 4.614451e-08 1.802495e-08 -1.261230e-08 -7.719873e-09 3.261090e-08 3.269033e-08 -4.616039e-08 -4.160153e-08 1.143685e-09 3.991778e-08 9.457014e-04 -9.065698e-04 1.175286e-03 1.818008e-03 -5.006276e-03 -6.707009e-04 -3.084014e-03 -2.044072e-03 -3.461153e-03 -1.976710e-03 -1.429156e-03 -1.024796e-03 8.545684e-04
<VARIANCE> 25
 4.075407e+01 2.933462e+01 4.483981e+01 4.802997e+01 5.918362e+01 4.699888e+01 4.707578e+01 4.946395e+01 3.621793e+01 3.646457e+01 3.793129e+01 2.482520e+01 1.763496e+00 1.333436e+00 1.738094e+00 2.019375e+00 2.420786e+00 2.729361e+00 2.594926e+00 2.842218e+00 2.451805e+00 2.428721e+00 2.410574e+00 1.906622e+00 2.080781e+00
<GCONST> 1.004646e+02
<STATE> 4
<MEAN> 25
 3.596254e-08 -8.895327e-10 4.614451e-08 1.802495e-08 -1.261230e-08 -7.719873e-09 3.261090e-08 3.269033e-08 -4.616039e-08 -4.160153e-08 1.143685e-09 3.991778e-08 9.457014e-04 -9.065698e-04 1.175286e-03 1.818008e-03 -5.006276e-03 -6.707009e-04 -3.084014e-03 -2.044072e-03 -3.461153e-03 -1.976710e-03 -1.429156e-03 -1.024796e-03 8.545684e-04
<VARIANCE> 25
 4.075407e+01 2.933462e+01 4.483981e+01 4.802997e+01 5.918362e+01 4.699888e+01 4.707578e+01 4.946395e+01 3.621793e+01 3.646457e+01 3.793129e+01 2.482520e+01 1.763496e+00 1.333436e+00 1.738094e+00 2.019375e+00 2.420786e+00 2.729361e+00 2.594926e+00 2.842218e+00 2.451805e+00 2.428721e+00 2.410574e+00 1.906622e+00 2.080781e+00
<GCONST> 1.004646e+02
<TRANSP> 5
 0.000000e+00 1.000000e+00 0.000000e+00 0.000000e+00 0.000000e+00
 0.000000e+00 6.000000e-01 4.000000e-01 0.000000e+00 0.000000e+00
 0.000000e+00 0.000000e+00 6.000000e-01 4.000000e-01 0.000000e+00
 0.000000e+00 0.000000e+00 0.000000e+00 7.000000e-01 3.000000e-01
 0.000000e+00 0.000000e+00 0.000000e+00 0.000000e+00 0.000000e+00
<ENDHMM>
~h "eh"
<BEGINHMM>
<NUMSTATES> 5
<STATE> 2
<MEAN> 25
 3.596254e-08 -8.895327e-10 4.614451e-08 1.802495e-08 -1.261230e-08 -7.719873e-09 3.261090e-08 3.269033e-08 -4.616039e-08 -4.160153e-08 1.143685e-09 3.991778e-08 9.457014e-04 -9.065698e-04 1.175286e-03 1.818008e-03 -5.006276e-03 -6.707009e-04 -3.084014e-03 -2.044072e-03 -3.461153e-03 -1.976710e-03 -1.429156e-03 -1.024796e-03 8.545684e-04
<VARIANCE> 25
 4.075407e+01 2.933462e+01 4.483981e+01 4.802997e+01 5.918362e+01 4.699888e+01 4.707578e+01 4.946395e+01 3.621793e+01 3.646457e+01 3.793129e+01 2.482520e+01 1.763496e+00 1.333436e+00 1.738094e+00 2.019375e+00 2.420786e+00 2.729361e+00 2.594926e+00 2.842218e+00 2.451805e+00 2.428721e+00 2.410574e+00 1.906622e+00 2.080781e+00
<GCONST> 1.004646e+02
<STATE> 3
<MEAN> 25
 3.596254e-08 -8.895327e-10 4.614451e-08 1.802495e-08 -1.261230e-08 -7.719873e-09 3.261090e-08 3.269033e-08 -4.616039e-08 -4.160153e-08 1.143685e-09 3.991778e-08 9.457014e-04 -9.065698e-04 1.175286e-03 1.818008e-03 -5.006276e-03 -6.707009e-04 -3.084014e-03 -2.044072e-03 -3.461153e-03 -1.976710e-03 -1.429156e-03 -1.024796e-03 8.545684e-04
<VARIANCE> 25
 4.075407e+01 2.933462e+01 4.483981e+01 4.802997e+01 5.918362e+01 4.699888e+01 4.707578e+01 4.946395e+01 3.621793e+01 3.646457e+01 3.793129e+01 2.482520e+01 1.763496e+00 1.333436e+00 1.738094e+00 2.019375e+00 2.420786e+00 2.729361e+00 2.594926e+00 2.842218e+00 2.451805e+00 2.428721e+00 2.410574e+00 1.906622e+00 2.080781e+00
<GCONST> 1.004646e+02
<STATE> 4
<MEAN> 25
 3.596254e-08 -8.895327e-10 4.614451e-08 1.802495e-08 -1.261230e-08 -7.719873e-09 3.261090e-08 3.269033e-08 -4.616039e-08 -4.160153e-08 1.143685e-09 3.991778e-08 9.457014e-04 -9.065698e-04 1.175286e-03 1.818008e-03 -5.006276e-03 -6.707009e-04 -3.084014e-03 -2.044072e-03 -3.461153e-03 -1.976710e-03 -1.429156e-03 -1.024796e-03 8.545684e-04
<VARIANCE> 25
 4.075407e+01 2.933462e+01 4.483981e+01 4.802997e+01 5.918362e+01 4.699888e+01 4.707578e+01 4.946395e+01 3.621793e+01 3.646457e+01 3.793129e+01 2.482520e+01 1.763496e+00 1.333436e+00 1.738094e+00 2.019375e+00 2.420786e+00 2.729361e+00 2.594926e+00 2.842218e+00 2.451805e+00 2.428721e+00 2.410574e+00 1.906622e+00 2.080781e+00
<GCONST> 1.004646e+02
<TRANSP> 5
 0.000000e+00 1.000000e+00 0.000000e+00 0.000000e+00 0.000000e+00
 0.000000e+00 6.000000e-01 4.000000e-01 0.000000e+00 0.000000e+00
 0.000000e+00 0.000000e+00 6.000000e-01 4.000000e-01 0.000000e+00
 0.000000e+00 0.000000e+00 0.000000e+00 7.000000e-01 3.000000e-01
 0.000000e+00 0.000000e+00 0.000000e+00 0.000000e+00 0.000000e+00
<ENDHMM>
~h "r"
<BEGINHMM>
<NUMSTATES> 5
<STATE> 2
<MEAN> 25
 3.596254e-08 -8.895327e-10 4.614451e-08 1.802495e-08 -1.261230e-08 -7.719873e-09 3.261090e-08 3.269033e-08 -4.616039e-08 -4.160153e-08 1.143685e-09 3.991778e-08 9.457014e-04 -9.065698e-04 1.175286e-03 1.818008e-03 -5.006276e-03 -6.707009e-04 -3.084014e-03 -2.044072e-03 -3.461153e-03 -1.976710e-03 -1.429156e-03 -1.024796e-03 8.545684e-04
<VARIANCE> 25
 4.075407e+01 2.933462e+01 4.483981e+01 4.802997e+01 5.918362e+01 4.699888e+01 4.707578e+01 4.946395e+01 3.621793e+01 3.646457e+01 3.793129e+01 2.482520e+01 1.763496e+00 1.333436e+00 1.738094e+00 2.019375e+00 2.420786e+00 2.729361e+00 2.594926e+00 2.842218e+00 2.451805e+00 2.428721e+00 2.410574e+00 1.906622e+00 2.080781e+00
<GCONST> 1.004646e+02
<STATE> 3
<MEAN> 25
 3.596254e-08 -8.895327e-10 4.614451e-08 1.802495e-08 -1.261230e-08 -7.719873e-09 3.261090e-08 3.269033e-08 -4.616039e-08 -4.160153e-08 1.143685e-09 3.991778e-08 9.457014e-04 -9.065698e-04 1.175286e-03 1.818008e-03 -5.006276e-03 -6.707009e-04 -3.084014e-03 -2.044072e-03 -3.461153e-03 -1.976710e-03 -1.429156e-03 -1.024796e-03 8.545684e-04
<VARIANCE> 25
 4.075407e+01 2.933462e+01 4.483981e+01 4.802997e+01 5.918362e+01 4.699888e+01 4.707578e+01 4.946395e+01 3.621793e+01 3.646457e+01 3.793129e+01 2.482520e+01 1.763496e+00 1.333436e+00 1.738094e+00 2.019375e+00 2.420786e+00 2.729361e+00 2.594926e+00 2.842218e+00 2.451805e+00 2.428721e+00 2.410574e+00 1.906622e+00 2.080781e+00
<GCONST> 1.004646e+02
<STATE> 4
<MEAN> 25
 3.596254e-08 -8.895327e-10 4.614451e-08 1.802495e-08 -1.261230e-08 -7.719873e-09 3.261090e-08 3.269033e-08 -4.616039e-08 -4.160153e-08 1.143685e-09 3.991778e-08 9.457014e-04 -9.065698e-04 1.175286e-03 1.818008e-03 -5.006276e-03 -6.707009e-04 -3.084014e-03 -2.044072e-03 -3.461153e-03 -1.976710e-03 -1.429156e-03 -1.024796e-03 8.545684e-04
<VARIANCE> 25
 4.075407e+01 2.933462e+01 4.483981e+01 4.802997e+01 5.918362e+01 4.699888e+01 4.707578e+01 4.946395e+01 3.621793e+01 3.646457e+01 3.793129e+01 2.482520e+01 1.763496e+00 1.333436e+00 1.738094e+00 2.019375e+00 2.420786e+00 2.729361e+00 2.594926e+00 2.842218e+00 2.451805e+00 2.428721e+00 2.410574e+00 1.906622e+00 2.080781e+00
<GCONST> 1.004646e+02
<TRANSP> 5
 0.000000e+00 1.000000e+00 0.000000e+00 0.000000e+00 0.000000e+00
 0.000000e+00 6.000000e-01 4.000000e-01 0.000000e+00 0.000000e+00
 0.000000e+00 0.000000e+00 6.000000e-01 4.000000e-01 0.000000e+00
 0.000000e+00 0.000000e+00 0.000000e+00 7.000000e-01 3.000000e-01
 0.000000e+00 0.000000e+00 0.000000e+00 0.000000e+00 0.000000e+00
<ENDHMM>
~h "f"
<BEGINHMM>
<NUMSTATES> 5
<STATE> 2
<MEAN> 25
 3.596254e-08 -8.895327e-10 4.614451e-08 1.802495e-08 -1.261230e-08 -7.719873e-09 3.261090e-08 3.269033e-08 -4.616039e-08 -4.160153e-08 1.143685e-09 3.991778e-08 9.457014e-04 -9.065698e-04 1.175286e-03 1.818008e-03 -5.006276e-03 -6.707009e-04 -3.084014e-03 -2.044072e-03 -3.461153e-03 -1.976710e-03 -1.429156e-03 -1.024796e-03 8.545684e-04
<VARIANCE> 25
 4.075407e+01 2.933462e+01 4.483981e+01 4.802997e+01 5.918362e+01 4.699888e+01 4.707578e+01 4.946395e+01 3.621793e+01 3.646457e+01 3.793129e+01 2.482520e+01 1.763496e+00 1.333436e+00 1.738094e+00 2.019375e+00 2.420786e+00 2.729361e+00 2.594926e+00 2.842218e+00 2.451805e+00 2.428721e+00 2.410574e+00 1.906622e+00 2.080781e+00
<GCONST> 1.004646e+02
<STATE> 3
<MEAN> 25
 3.596254e-08 -8.895327e-10 4.614451e-08 1.802495e-08 -1.261230e-08 -7.719873e-09 3.261090e-08 3.269033e-08 -4.616039e-08 -4.160153e-08 1.143685e-09 3.991778e-08 9.457014e-04 -9.065698e-04 1.175286e-03 1.818008e-03 -5.006276e-03 -6.707009e-04 -3.084014e-03 -2.044072e-03 -3.461153e-03 -1.976710e-03 -1.429156e-03 -1.024796e-03 8.545684e-04
<VARIANCE> 25
 4.075407e+01 2.933462e+01 4.483981e+01 4.802997e+01 5.918362e+01 4.699888e+01 4.707578e+01 4.946395e+01 3.621793e+01 3.646457e+01 3.793129e+01 2.482520e+01 1.763496e+00 1.333436e+00 1.738094e+00 2.019375e+00 2.420786e+00 2.729361e+00 2.594926e+00 2.842218e+00 2.451805e+00 2.428721e+00 2.410574e+00 1.906622e+00 2.080781e+00
<GCONST> 1.004646e+02
<STATE> 4
<MEAN> 25
 3.596254e-08 -8.895327e-10 4.614451e-08 1.802495e-08 -1.261230e-08 -7.719873e-09 3.261090e-08 3.269033e-08 -4.616039e-08 -4.160153e-08 1.143685e-09 3.991778e-08 9.457014e-04 -9.065698e-04 1.175286e-03 1.818008e-03 -5.006276e-03 -6.707009e-04 -3.084014e-03 -2.044072e-03 -3.461153e-03 -1.976710e-03 -1.429156e-03 -1.024796e-03 8.545684e-04
<VARIANCE> 25
 4.075407e+01 2.933462e+01 4.483981e+01 4.802997e+01 5.918362e+01 4.699888e+01 4.707578e+01 4.946395e+01 3.621793e+01 3.646457e+01 3.793129e+01 2.482520e+01 1.763496e+00 1.333436e+00 1.738094e+00 2.019375e+00 2.420786e+00 2.729361e+00 2.594926e+00 2.842218e+00 2.451805e+00 2.428721e+00 2.410574e+00 1.906622e+00 2.080781e+00
<GCONST> 1.004646e+02
<TRANSP> 5
 0.000000e+00 1.000000e+00 0.000000e+00 0.000000e+00 0.000000e+00
 0.000000e+00 6.000000e-01 4.000000e-01 0.000000e+00 0.000000e+00
 0.000000e+00 0.000000e+00 6.000000e-01 4.000000e-01 0.000000e+00
 0.000000e+00 0.000000e+00 0.000000e+00 7.000000e-01 3.000000e-01
 0.000000e+00 0.000000e+00 0.000000e+00 0.000000e+00 0.000000e+00
<ENDHMM>
~h "g"
<BEGINHMM>
<NUMSTATES> 5
<STATE> 2
<MEAN> 25
 3.596254e-08 -8.895327e-10 4.614451e-08 1.802495e-08 -1.261230e-08 -7.719873e-09 3.261090e-08 3.269033e-08 -4.616039e-08 -4.160153e-08 1.143685e-09 3.991778e-08 9.457014e-04 -9.065698e-04 1.175286e-03 1.818008e-03 -5.006276e-03 -6.707009e-04 -3.084014e-03 -2.044072e-03 -3.461153e-03 -1.976710e-03 -1.429156e-03 -1.024796e-03 8.545684e-04
<VARIANCE> 25
 4.075407e+01 2.933462e+01 4.483981e+01 4.802997e+01 5.918362e+01 4.699888e+01 4.707578e+01 4.946395e+01 3.621793e+01 3.646457e+01 3.793129e+01 2.482520e+01 1.763496e+00 1.333436e+00 1.738094e+00 2.019375e+00 2.420786e+00 2.729361e+00 2.594926e+00 2.842218e+00 2.451805e+00 2.428721e+00 2.410574e+00 1.906622e+00 2.080781e+00
<GCONST> 1.004646e+02
<STATE> 3
<MEAN> 25
 3.596254e-08 -8.895327e-10 4.614451e-08 1.802495e-08 -1.261230e-08 -7.719873e-09 3.261090e-08 3.269033e-08 -4.616039e-08 -4.160153e-08 1.143685e-09 3.991778e-08 9.457014e-04 -9.065698e-04 1.175286e-03 1.818008e-03 -5.006276e-03 -6.707009e-04 -3.084014e-03 -2.044072e-03 -3.461153e-03 -1.976710e-03 -1.429156e-03 -1.024796e-03 8.545684e-04
<VARIANCE> 25
 4.075407e+01 2.933462e+01 4.483981e+01 4.802997e+01 5.918362e+01 4.699888e+01 4.707578e+01 4.946395e+01 3.621793e+01 3.646457e+01 3.793129e+01 2.482520e+01 1.763496e+00 1.333436e+00 1.738094e+00 2.019375e+00 2.420786e+00 2.729361e+00 2.594926e+00 2.842218e+00 2.451805e+00 2.428721e+00 2.410574e+00 1.906622e+00 2.080781e+00
<GCONST> 1.004646e+02
<STATE> 4
<MEAN> 25
 3.596254e-08 -8.895327e-10 4.614451e-08 1.802495e-08 -1.261230e-08 -7.719873e-09 3.261090e-08 3.269033e-08 -4.616039e-08 -4.160153e-08 1.143685e-09 3.991778e-08 9.457014e-04 -9.065698e-04 1.175286e-03 1.818008e-03 -5.006276e-03 -6.707009e-04 -3.084014e-03 -2.044072e-03 -3.461153e-03 -1.976710e-03 -1.429156e-03 -1.024796e-03 8.545684e-04
<VARIANCE> 25
 4.075407e+01 2.933462e+01 4.483981e+01 4.802997e+01 5.918362e+01 4.699888e+01 4.707578e+01 4.946395e+01 3.621793e+01 3.646457e+01 3.793129e+01 2.482520e+01 1.763496e+00 1.333436e+00 1.738094e+00 2.019375e+00 2.420786e+00 2.729361e+00 2.594926e+00 2.842218e+00 2.451805e+00 2.428721e+00 2.410574e+00 1.906622e+00 2.080781e+00
<GCONST> 1.004646e+02
<TRANSP> 5
 0.000000e+00 1.000000e+00 0.000000e+00 0.000000e+00 0.000000e+00
 0.000000e+00 6.000000e-01 4.000000e-01 0.000000e+00 0.000000e+00
 0.000000e+00 0.000000e+00 6.000000e-01 4.000000e-01 0.000000e+00
 0.000000e+00 0.000000e+00 0.000000e+00 7.000000e-01 3.000000e-01
 0.000000e+00 0.000000e+00 0.000000e+00 0.000000e+00 0.000000e+00
<ENDHMM>
~h "s"
<BEGINHMM>
<NUMSTATES> 5
<STATE> 2
<MEAN> 25
 3.596254e-08 -8.895327e-10 4.614451e-08 1.802495e-08 -1.261230e-08 -7.719873e-09 3.261090e-08 3.269033e-08 -4.616039e-08 -4.160153e-08 1.143685e-09 3.991778e-08 9.457014e-04 -9.065698e-04 1.175286e-03 1.818008e-03 -5.006276e-03 -6.707009e-04 -3.084014e-03 -2.044072e-03 -3.461153e-03 -1.976710e-03 -1.429156e-03 -1.024796e-03 8.545684e-04
<VARIANCE> 25
 4.075407e+01 2.933462e+01 4.483981e+01 4.802997e+01 5.918362e+01 4.699888e+01 4.707578e+01 4.946395e+01 3.621793e+01 3.646457e+01 3.793129e+01 2.482520e+01 1.763496e+00 1.333436e+00 1.738094e+00 2.019375e+00 2.420786e+00 2.729361e+00 2.594926e+00 2.842218e+00 2.451805e+00 2.428721e+00 2.410574e+00 1.906622e+00 2.080781e+00
<GCONST> 1.004646e+02
<STATE> 3
<MEAN> 25
 3.596254e-08 -8.895327e-10 4.614451e-08 1.802495e-08 -1.261230e-08 -7.719873e-09 3.261090e-08 3.269033e-08 -4.616039e-08 -4.160153e-08 1.143685e-09 3.991778e-08 9.457014e-04 -9.065698e-04 1.175286e-03 1.818008e-03 -5.006276e-03 -6.707009e-04 -3.084014e-03 -2.044072e-03 -3.461153e-03 -1.976710e-03 -1.429156e-03 -1.024796e-03 8.545684e-04
<VARIANCE> 25
 4.075407e+01 2.933462e+01 4.483981e+01 4.802997e+01 5.918362e+01 4.699888e+01 4.707578e+01 4.946395e+01 3.621793e+01 3.646457e+01 3.793129e+01 2.482520e+01 1.763496e+00 1.333436e+00 1.738094e+00 2.019375e+00 2.420786e+00 2.729361e+00 2.594926e+00 2.842218e+00 2.451805e+00 2.428721e+00 2.410574e+00 1.906622e+00 2.080781e+00
<GCONST> 1.004646e+02
<STATE> 4
<MEAN> 25
 3.596254e-08 -8.895327e-10 4.614451e-08 1.802495e-08 -1.261230e-08 -7.719873e-09 3.261090e-08 3.269033e-08 -4.616039e-08 -4.160153e-08 1.143685e-09 3.991778e-08 9.457014e-04 -9.065698e-04 1.175286e-03 1.818008e-03 -5.006276e-03 -6.707009e-04 -3.084014e-03 -2.044072e-03 -3.461153e-03 -1.976710e-03 -1.429156e-03 -1.024796e-03 8.545684e-04
<VARIANCE> 25
 4.075407e+01 2.933462e+01 4.483981e+01 4.802997e+01 5.918362e+01 4.699888e+01 4.707578e+01 4.946395e+01 3.621793e+01 3.646457e+01 3.793129e+01 2.482520e+01 1.763496e+00 1.333436e+00 1.738094e+00 2.019375e+00 2.420786e+00 2.729361e+00 2.594926e+00 2.842218e+00 2.451805e+00 2.428721e+00 2.410574e+00 1.906622e+00 2.080781e+00
<GCONST> 1.004646e+02
<TRANSP> 5
 0.000000e+00 1.000000e+00 0.000000e+00 0.000000e+00 0.000000e+00
 0.000000e+00 6.000000e-01 4.000000e-01 0.000000e+00 0.000000e+00
 0.000000e+00 0.000000e+00 6.000000e-01 4.000000e-01 0.000000e+00
 0.000000e+00 0.000000e+00 0.000000e+00 7.000000e-01 3.000000e-01
 0.000000e+00 0.000000e+00 0.000000e+00 0.000000e+00 0.000000e+00
<ENDHMM>
~h "th"
<BEGINHMM>
<NUMSTATES> 5
<STATE> 2
<MEAN> 25
 3.596254e-08 -8.895327e-10 4.614451e-08 1.802495e-08 -1.261230e-08 -7.719873e-09 3.261090e-08 3.269033e-08 -4.616039e-08 -4.160153e-08 1.143685e-09 3.991778e-08 9.457014e-04 -9.065698e-04 1.175286e-03 1.818008e-03 -5.006276e-03 -6.707009e-04 -3.084014e-03 -2.044072e-03 -3.461153e-03 -1.976710e-03 -1.429156e-03 -1.024796e-03 8.545684e-04
<VARIANCE> 25
 4.075407e+01 2.933462e+01 4.483981e+01 4.802997e+01 5.918362e+01 4.699888e+01 4.707578e+01 4.946395e+01 3.621793e+01 3.646457e+01 3.793129e+01 2.482520e+01 1.763496e+00 1.333436e+00 1.738094e+00 2.019375e+00 2.420786e+00 2.729361e+00 2.594926e+00 2.842218e+00 2.451805e+00 2.428721e+00 2.410574e+00 1.906622e+00 2.080781e+00
<GCONST> 1.004646e+02
<STATE> 3
<MEAN> 25
 3.596254e-08 -8.895327e-10 4.614451e-08 1.802495e-08 -1.261230e-08 -7.719873e-09 3.261090e-08 3.269033e-08 -4.616039e-08 -4.160153e-08 1.143685e-09 3.991778e-08 9.457014e-04 -9.065698e-04 1.175286e-03 1.818008e-03 -5.006276e-03 -6.707009e-04 -3.084014e-03 -2.044072e-03 -3.461153e-03 -1.976710e-03 -1.429156e-03 -1.024796e-03 8.545684e-04
<VARIANCE> 25
 4.075407e+01 2.933462e+01 4.483981e+01 4.802997e+01 5.918362e+01 4.699888e+01 4.707578e+01 4.946395e+01 3.621793e+01 3.646457e+01 3.793129e+01 2.482520e+01 1.763496e+00 1.333436e+00 1.738094e+00 2.019375e+00 2.420786e+00 2.729361e+00 2.594926e+00 2.842218e+00 2.451805e+00 2.428721e+00 2.410574e+00 1.906622e+00 2.080781e+00
<GCONST> 1.004646e+02
<STATE> 4
<MEAN> 25
 3.596254e-08 -8.895327e-10 4.614451e-08 1.802495e-08 -1.261230e-08 -7.719873e-09 3.261090e-08 3.269033e-08 -4.616039e-08 -4.160153e-08 1.143685e-09 3.991778e-08 9.457014e-04 -9.065698e-04 1.175286e-03 1.818008e-03 -5.006276e-03 -6.707009e-04 -3.084014e-03 -2.044072e-03 -3.461153e-03 -1.976710e-03 -1.429156e-03 -1.024796e-03 8.545684e-04
<VARIANCE> 25
 4.075407e+01 2.933462e+01 4.483981e+01 4.802997e+01 5.918362e+01 4.699888e+01 4.707578e+01 4.946395e+01 3.621793e+01 3.646457e+01 3.793129e+01 2.482520e+01 1.763496e+00 1.333436e+00 1.738094e+00 2.019375e+00 2.420786e+00 2.729361e+00 2.594926e+00 2.842218e+00 2.451805e+00 2.428721e+00 2.410574e+00 1.906622e+00 2.080781e+00
<GCONST> 1.004646e+02
<TRANSP> 5
 0.000000e+00 1.000000e+00 0.000000e+00 0.000000e+00 0.000000e+00
 0.000000e+00 6.000000e-01 4.000000e-01 0.000000e+00 0.000000e+00
 0.000000e+00 0.000000e+00 6.000000e-01 4.000000e-01 0.000000e+00
 0.000000e+00 0.000000e+00 0.000000e+00 7.000000e-01 3.000000e-01
 0.000000e+00 0.000000e+00 0.000000e+00 0.000000e+00 0.000000e+00
<ENDHMM>
~h "hh"
<BEGINHMM>
<NUMSTATES> 5
<STATE> 2
<MEAN> 25
 3.596254e-08 -8.895327e-10 4.614451e-08 1.802495e-08 -1.261230e-08 -7.719873e-09 3.261090e-08 3.269033e-08 -4.616039e-08 -4.160153e-08 1.143685e-09 3.991778e-08 9.457014e-04 -9.065698e-04 1.175286e-03 1.818008e-03 -5.006276e-03 -6.707009e-04 -3.084014e-03 -2.044072e-03 -3.461153e-03 -1.976710e-03 -1.429156e-03 -1.024796e-03 8.545684e-04
<VARIANCE> 25
 4.075407e+01 2.933462e+01 4.483981e+01 4.802997e+01 5.918362e+01 4.699888e+01 4.707578e+01 4.946395e+01 3.621793e+01 3.646457e+01 3.793129e+01 2.482520e+01 1.763496e+00 1.333436e+00 1.738094e+00 2.019375e+00 2.420786e+00 2.729361e+00 2.594926e+00 2.842218e+00 2.451805e+00 2.428721e+00 2.410574e+00 1.906622e+00 2.080781e+00
<GCONST> 1.004646e+02
<STATE> 3
<MEAN> 25
 3.596254e-08 -8.895327e-10 4.614451e-08 1.802495e-08 -1.261230e-08 -7.719873e-09 3.261090e-08 3.269033e-08 -4.616039e-08 -4.160153e-08 1.143685e-09 3.991778e-08 9.457014e-04 -9.065698e-04 1.175286e-03 1.818008e-03 -5.006276e-03 -6.707009e-04 -3.084014e-03 -2.044072e-03 -3.461153e-03 -1.976710e-03 -1.429156e-03 -1.024796e-03 8.545684e-04
<VARIANCE> 25
 4.075407e+01 2.933462e+01 4.483981e+01 4.802997e+01 5.918362e+01 4.699888e+01 4.707578e+01 4.946395e+01 3.621793e+01 3.646457e+01 3.793129e+01 2.482520e+01 1.763496e+00 1.333436e+00 1.738094e+00 2.019375e+00 2.420786e+00 2.729361e+00 2.594926e+00 2.842218e+00 2.451805e+00 2.428721e+00 2.410574e+00 1.906622e+00 2.080781e+00
<GCONST> 1.004646e+02
<STATE> 4
<MEAN> 25
 3.596254e-08 -8.895327e-10 4.614451e-08 1.802495e-08 -1.261230e-08 -7.719873e-09 3.261090e-08 3.269033e-08 -4.616039e-08 -4.160153e-08 1.143685e-09 3.991778e-08 9.457014e-04 -9.065698e-04 1.175286e-03 1.818008e-03 -5.006276e-03 -6.707009e-04 -3.084014e-03 -2.044072e-03 -3.461153e-03 -1.976710e-03 -1.429156e-03 -1.024796e-03 8.545684e-04
<VARIANCE> 25
 4.075407e+01 2.933462e+01 4.483981e+01 4.802997e+01 5.918362e+01 4.699888e+01 4.707578e+01 4.946395e+01 3.621793e+01 3.646457e+01 3.793129e+01 2.482520e+01 1.763496e+00 1.333436e+00 1.738094e+00 2.019375e+00 2.420786e+00 2.729361e+00 2.594926e+00 2.842218e+00 2.451805e+00 2.428721e+00 2.410574e+00 1.906622e+00 2.080781e+00
<GCONST> 1.004646e+02
<TRANSP> 5
 0.000000e+00 1.000000e+00 0.000000e+00 0.000000e+00 0.000000e+00
 0.000000e+00 6.000000e-01 4.000000e-01 0.000000e+00 0.000000e+00
 0.000000e+00 0.000000e+00 6.000000e-01 4.000000e-01 0.000000e+00
 0.000000e+00 0.000000e+00 0.000000e+00 7.000000e-01 3.000000e-01
 0.000000e+00 0.000000e+00 0.000000e+00 0.000000e+00 0.000000e+00
<ENDHMM>
~h "ey"
<BEGINHMM>
<NUMSTATES> 5
<STATE> 2
<MEAN> 25
 3.596254e-08 -8.895327e-10 4.614451e-08 1.802495e-08 -1.261230e-08 -7.719873e-09 3.261090e-08 3.269033e-08 -4.616039e-08 -4.160153e-08 1.143685e-09 3.991778e-08 9.457014e-04 -9.065698e-04 1.175286e-03 1.818008e-03 -5.006276e-03 -6.707009e-04 -3.084014e-03 -2.044072e-03 -3.461153e-03 -1.976710e-03 -1.429156e-03 -1.024796e-03 8.545684e-04
<VARIANCE> 25
 4.075407e+01 2.933462e+01 4.483981e+01 4.802997e+01 5.918362e+01 4.699888e+01 4.707578e+01 4.946395e+01 3.621793e+01 3.646457e+01 3.793129e+01 2.482520e+01 1.763496e+00 1.333436e+00 1.738094e+00 2.019375e+00 2.420786e+00 2.729361e+00 2.594926e+00 2.842218e+00 2.451805e+00 2.428721e+00 2.410574e+00 1.906622e+00 2.080781e+00
<GCONST> 1.004646e+02
<STATE> 3
<MEAN> 25
 3.596254e-08 -8.895327e-10 4.614451e-08 1.802495e-08 -1.261230e-08 -7.719873e-09 3.261090e-08 3.269033e-08 -4.616039e-08 -4.160153e-08 1.143685e-09 3.991778e-08 9.457014e-04 -9.065698e-04 1.175286e-03 1.818008e-03 -5.006276e-03 -6.707009e-04 -3.084014e-03 -2.044072e-03 -3.461153e-03 -1.976710e-03 -1.429156e-03 -1.024796e-03 8.545684e-04
<VARIANCE> 25
 4.075407e+01 2.933462e+01 4.483981e+01 4.802997e+01 5.918362e+01 4.699888e+01 4.707578e+01 4.946395e+01 3.621793e+01 3.646457e+01 3.793129e+01 2.482520e+01 1.763496e+00 1.333436e+00 1.738094e+00 2.019375e+00 2.420786e+00 2.729361e+00 2.594926e+00 2.842218e+00 2.451805e+00 2.428721e+00 2.410574e+00 1.906622e+00 2.080781e+00
<GCONST> 1.004646e+02
<STATE> 4
<MEAN> 25
 3.596254e-08 -8.895327e-10 4.614451e-08 1.802495e-08 -1.261230e-08 -7.719873e-09 3.261090e-08 3.269033e-08 -4.616039e-08 -4.160153e-08 1.143685e-09 3.991778e-08 9.457014e-04 -9.065698e-04 1.175286e-03 1.818008e-03 -5.006276e-03 -6.707009e-04 -3.084014e-03 -2.044072e-03 -3.461153e-03 -1.976710e-03 -1.429156e-03 -1.024796e-03 8.545684e-04
<VARIANCE> 25
 4.075407e+01 2.933462e+01 4.483981e+01 4.802997e+01 5.918362e+01 4.699888e+01 4.707578e+01 4.946395e+01 3.621793e+01 3.646457e+01 3.793129e+01 2.482520e+01 1.763496e+00 1.333436e+00 1.738094e+00 2.019375e+00 2.420786e+00 2.729361e+00 2.594926e+00 2.842218e+00 2.451805e+00 2.428721e+00 2.410574e+00 1.906622e+00 2.080781e+00
<GCONST> 1.004646e+02
<TRANSP> 5
 0.000000e+00 1.000000e+00 0.000000e+00 0.000000e+00 0.000000e+00
 0.000000e+00 6.000000e-01 4.000000e-01 0.000000e+00 0.000000e+00
 0.000000e+00 0.000000e+00 6.000000e-01 4.000000e-01 0.000000e+00
 0.000000e+00 0.000000e+00 0.000000e+00 7.000000e-01 3.000000e-01
 0.000000e+00 0.000000e+00 0.000000e+00 0.000000e+00 0.000000e+00
<ENDHMM>
~h "dh"
<BEGINHMM>
<NUMSTATES> 5
<STATE> 2
<MEAN> 25
 3.596254e-08 -8.895327e-10 4.614451e-08 1.802495e-08 -1.261230e-08 -7.719873e-09 3.261090e-08 3.269033e-08 -4.616039e-08 -4.160153e-08 1.143685e-09 3.991778e-08 9.457014e-04 -9.065698e-04 1.175286e-03 1.818008e-03 -5.006276e-03 -6.707009e-04 -3.084014e-03 -2.044072e-03 -3.461153e-03 -1.976710e-03 -1.429156e-03 -1.024796e-03 8.545684e-04
<VARIANCE> 25
 4.075407e+01 2.933462e+01 4.483981e+01 4.802997e+01 5.918362e+01 4.699888e+01 4.707578e+01 4.946395e+01 3.621793e+01 3.646457e+01 3.793129e+01 2.482520e+01 1.763496e+00 1.333436e+00 1.738094e+00 2.019375e+00 2.420786e+00 2.729361e+00 2.594926e+00 2.842218e+00 2.451805e+00 2.428721e+00 2.410574e+00 1.906622e+00 2.080781e+00
<GCONST> 1.004646e+02
<STATE> 3
<MEAN> 25
 3.596254e-08 -8.895327e-10 4.614451e-08 1.802495e-08 -1.261230e-08 -7.719873e-09 3.261090e-08 3.269033e-08 -4.616039e-08 -4.160153e-08 1.143685e-09 3.991778e-08 9.457014e-04 -9.065698e-04 1.175286e-03 1.818008e-03 -5.006276e-03 -6.707009e-04 -3.084014e-03 -2.044072e-03 -3.461153e-03 -1.976710e-03 -1.429156e-03 -1.024796e-03 8.545684e-04
<VARIANCE> 25
 4.075407e+01 2.933462e+01 4.483981e+01 4.802997e+01 5.918362e+01 4.699888e+01 4.707578e+01 4.946395e+01 3.621793e+01 3.646457e+01 3.793129e+01 2.482520e+01 1.763496e+00 1.333436e+00 1.738094e+00 2.019375e+00 2.420786e+00 2.729361e+00 2.594926e+00 2.842218e+00 2.451805e+00 2.428721e+00 2.410574e+00 1.906622e+00 2.080781e+00
<GCONST> 1.004646e+02
<STATE> 4
<MEAN> 25
 3.596254e-08 -8.895327e-10 4.614451e-08 1.802495e-08 -1.261230e-08 -7.719873e-09 3.261090e-08 3.269033e-08 -4.616039e-08 -4.160153e-08 1.143685e-09 3.991778e-08 9.457014e-04 -9.065698e-04 1.175286e-03 1.818008e-03 -5.006276e-03 -6.707009e-04 -3.084014e-03 -2.044072e-03 -3.461153e-03 -1.976710e-03 -1.429156e-03 -1.024796e-03 8.545684e-04
<VARIANCE> 25
 4.075407e+01 2.933462e+01 4.483981e+01 4.802997e+01 5.918362e+01 4.699888e+01 4.707578e+01 4.946395e+01 3.621793e+01 3.646457e+01 3.793129e+01 2.482520e+01 1.763496e+00 1.333436e+00 1.738094e+00 2.019375e+00 2.420786e+00 2.729361e+00 2.594926e+00 2.842218e+00 2.451805e+00 2.428721e+00 2.410574e+00 1.906622e+00 2.080781e+00
<GCONST> 1.004646e+02
<TRANSP> 5
 0.000000e+00 1.000000e+00 0.000000e+00 0.000000e+00 0.000000e+00
 0.000000e+00 6.000000e-01 4.000000e-01 0.000000e+00 0.000000e+00
 0.000000e+00 0.000000e+00 6.000000e-01 4.000000e-01 0.000000e+00
 0.000000e+00 0.000000e+00 0.000000e+00 7.000000e-01 3.000000e-01
 0.000000e+00 0.000000e+00 0.000000e+00 0.000000e+00 0.000000e+00
<ENDHMM>
~h "ao"
<BEGINHMM>
<NUMSTATES> 5
<STATE> 2
<MEAN> 25
 3.596254e-08 -8.895327e-10 4.614451e-08 1.802495e-08 -1.261230e-08 -7.719873e-09 3.261090e-08 3.269033e-08 -4.616039e-08 -4.160153e-08 1.143685e-09 3.991778e-08 9.457014e-04 -9.065698e-04 1.175286e-03 1.818008e-03 -5.006276e-03 -6.707009e-04 -3.084014e-03 -2.044072e-03 -3.461153e-03 -1.976710e-03 -1.429156e-03 -1.024796e-03 8.545684e-04
<VARIANCE> 25
 4.075407e+01 2.933462e+01 4.483981e+01 4.802997e+01 5.918362e+01 4.699888e+01 4.707578e+01 4.946395e+01 3.621793e+01 3.646457e+01 3.793129e+01 2.482520e+01 1.763496e+00 1.333436e+00 1.738094e+00 2.019375e+00 2.420786e+00 2.729361e+00 2.594926e+00 2.842218e+00 2.451805e+00 2.428721e+00 2.410574e+00 1.906622e+00 2.080781e+00
<GCONST> 1.004646e+02
<STATE> 3
<MEAN> 25
 3.596254e-08 -8.895327e-10 4.614451e-08 1.802495e-08 -1.261230e-08 -7.719873e-09 3.261090e-08 3.269033e-08 -4.616039e-08 -4.160153e-08 1.143685e-09 3.991778e-08 9.457014e-04 -9.065698e-04 1.175286e-03 1.818008e-03 -5.006276e-03 -6.707009e-04 -3.084014e-03 -2.044072e-03 -3.461153e-03 -1.976710e-03 -1.429156e-03 -1.024796e-03 8.545684e-04
<VARIANCE> 25
 4.075407e+01 2.933462e+01 4.483981e+01 4.802997e+01 5.918362e+01 4.699888e+01 4.707578e+01 4.946395e+01 3.621793e+01 3.646457e+01 3.793129e+01 2.482520e+01 1.763496e+00 1.333436e+00 1.738094e+00 2.019375e+00 2.420786e+00 2.729361e+00 2.594926e+00 2.842218e+00 2.451805e+00 2.428721e+00 2.410574e+00 1.906622e+00 2.080781e+00
<GCONST> 1.004646e+02
<STATE> 4
<MEAN> 25
 3.596254e-08 -8.895327e-10 4.614451e-08 1.802495e-08 -1.261230e-08 -7.719873e-09 3.261090e-08 3.269033e-08 -4.616039e-08 -4.160153e-08 1.143685e-09 3.991778e-08 9.457014e-04 -9.065698e-04 1.175286e-03 1.818008e-03 -5.006276e-03 -6.707009e-04 -3.084014e-03 -2.044072e-03 -3.461153e-03 -1.976710e-03 -1.429156e-03 -1.024796e-03 8.545684e-04
<VARIANCE> 25
 4.075407e+01 2.933462e+01 4.483981e+01 4.802997e+01 5.918362e+01 4.699888e+01 4.707578e+01 4.946395e+01 3.621793e+01 3.646457e+01 3.793129e+01 2.482520e+01 1.763496e+00 1.333436e+00 1.738094e+00 2.019375e+00 2.420786e+00 2.729361e+00 2.594926e+00 2.842218e+00 2.451805e+00 2.428721e+00 2.410574e+00 1.906622e+00 2.080781e+00
<GCONST> 1.004646e+02
<TRANSP> 5
 0.000000e+00 1.000000e+00 0.000000e+00 0.000000e+00 0.000000e+00
 0.000000e+00 6.000000e-01 4.000000e-01 0.000000e+00 0.000000e+00
 0.000000e+00 0.000000e+00 6.000000e-01 4.000000e-01 0.000000e+00
 0.000000e+00 0.000000e+00 0.000000e+00 7.000000e-01 3.000000e-01
 0.000000e+00 0.000000e+00 0.000000e+00 0.000000e+00 0.000000e+00
<ENDHMM>
~h "ay"
<BEGINHMM>
<NUMSTATES> 5
<STATE> 2
<MEAN> 25
 3.596254e-08 -8.895327e-10 4.614451e-08 1.802495e-08 -1.261230e-08 -7.719873e-09 3.261090e-08 3.269033e-08 -4.616039e-08 -4.160153e-08 1.143685e-09 3.991778e-08 9.457014e-04 -9.065698e-04 1.175286e-03 1.818008e-03 -5.006276e-03 -6.707009e-04 -3.084014e-03 -2.044072e-03 -3.461153e-03 -1.976710e-03 -1.429156e-03 -1.024796e-03 8.545684e-04
<VARIANCE> 25
 4.075407e+01 2.933462e+01 4.483981e+01 4.802997e+01 5.918362e+01 4.699888e+01 4.707578e+01 4.946395e+01 3.621793e+01 3.646457e+01 3.793129e+01 2.482520e+01 1.763496e+00 1.333436e+00 1.738094e+00 2.019375e+00 2.420786e+00 2.729361e+00 2.594926e+00 2.842218e+00 2.451805e+00 2.428721e+00 2.410574e+00 1.906622e+00 2.080781e+00
<GCONST> 1.004646e+02
<STATE> 3
<MEAN> 25
 3.596254e-08 -8.895327e-10 4.614451e-08 1.802495e-08 -1.261230e-08 -7.719873e-09 3.261090e-08 3.269033e-08 -4.616039e-08 -4.160153e-08 1.143685e-09 3.991778e-08 9.457014e-04 -9.065698e-04 1.175286e-03 1.818008e-03 -5.006276e-03 -6.707009e-04 -3.084014e-03 -2.044072e-03 -3.461153e-03 -1.976710e-03 -1.429156e-03 -1.024796e-03 8.545684e-04
<VARIANCE> 25
 4.075407e+01 2.933462e+01 4.483981e+01 4.802997e+01 5.918362e+01 4.699888e+01 4.707578e+01 4.946395e+01 3.621793e+01 3.646457e+01 3.793129e+01 2.482520e+01 1.763496e+00 1.333436e+00 1.738094e+00 2.019375e+00 2.420786e+00 2.729361e+00 2.594926e+00 2.842218e+00 2.451805e+00 2.428721e+00 2.410574e+00 1.906622e+00 2.080781e+00
<GCONST> 1.004646e+02
<STATE> 4
<MEAN> 25
 3.596254e-08 -8.895327e-10 4.614451e-08 1.802495e-08 -1.261230e-08 -7.719873e-09 3.261090e-08 3.269033e-08 -4.616039e-08 -4.160153e-08 1.143685e-09 3.991778e-08 9.457014e-04 -9.065698e-04 1.175286e-03 1.818008e-03 -5.006276e-03 -6.707009e-04 -3.084014e-03 -2.044072e-03 -3.461153e-03 -1.976710e-03 -1.429156e-03 -1.024796e-03 8.545684e-04
<VARIANCE> 25
 4.075407e+01 2.933462e+01 4.483981e+01 4.802997e+01 5.918362e+01 4.699888e+01 4.707578e+01 4.946395e+01 3.621793e+01 3.646457e+01 3.793129e+01 2.482520e+01 1.763496e+00 1.333436e+00 1.738094e+00 2.019375e+00 2.420786e+00 2.729361e+00 2.594926e+00 2.842218e+00 2.451805e+00 2.428721e+00 2.410574e+00 1.906622e+00 2.080781e+00
<GCONST> 1.004646e+02
<TRANSP> 5
 0.000000e+00 1.000000e+00 0.000000e+00 0.000000e+00 0.000000e+00
 0.000000e+00 6.000000e-01 4.000000e-01 0.000000e+00 0.000000e+00
 0.000000e+00 0.000000e+00 6.000000e-01 4.000000e-01 0.000000e+00
 0.000000e+00 0.000000e+00 0.000000e+00 7.000000e-01 3.000000e-01
 0.000000e+00 0.000000e+00 0.000000e+00 0.000000e+00 0.000000e+00
<ENDHMM>
~h "zh"
<BEGINHMM>
<NUMSTATES> 5
<STATE> 2
<MEAN> 25
 3.596254e-08 -8.895327e-10 4.614451e-08 1.802495e-08 -1.261230e-08 -7.719873e-09 3.261090e-08 3.269033e-08 -4.616039e-08 -4.160153e-08 1.143685e-09 3.991778e-08 9.457014e-04 -9.065698e-04 1.175286e-03 1.818008e-03 -5.006276e-03 -6.707009e-04 -3.084014e-03 -2.044072e-03 -3.461153e-03 -1.976710e-03 -1.429156e-03 -1.024796e-03 8.545684e-04
<VARIANCE> 25
 4.075407e+01 2.933462e+01 4.483981e+01 4.802997e+01 5.918362e+01 4.699888e+01 4.707578e+01 4.946395e+01 3.621793e+01 3.646457e+01 3.793129e+01 2.482520e+01 1.763496e+00 1.333436e+00 1.738094e+00 2.019375e+00 2.420786e+00 2.729361e+00 2.594926e+00 2.842218e+00 2.451805e+00 2.428721e+00 2.410574e+00 1.906622e+00 2.080781e+00
<GCONST> 1.004646e+02
<STATE> 3
<MEAN> 25
 3.596254e-08 -8.895327e-10 4.614451e-08 1.802495e-08 -1.261230e-08 -7.719873e-09 3.261090e-08 3.269033e-08 -4.616039e-08 -4.160153e-08 1.143685e-09 3.991778e-08 9.457014e-04 -9.065698e-04 1.175286e-03 1.818008e-03 -5.006276e-03 -6.707009e-04 -3.084014e-03 -2.044072e-03 -3.461153e-03 -1.976710e-03 -1.429156e-03 -1.024796e-03 8.545684e-04
<VARIANCE> 25
 4.075407e+01 2.933462e+01 4.483981e+01 4.802997e+01 5.918362e+01 4.699888e+01 4.707578e+01 4.946395e+01 3.621793e+01 3.646457e+01 3.793129e+01 2.482520e+01 1.763496e+00 1.333436e+00 1.738094e+00 2.019375e+00 2.420786e+00 2.729361e+00 2.594926e+00 2.842218e+00 2.451805e+00 2.428721e+00 2.410574e+00 1.906622e+00 2.080781e+00
<GCONST> 1.004646e+02
<STATE> 4
<MEAN> 25
 3.596254e-08 -8.895327e-10 4.614451e-08 1.802495e-08 -1.261230e-08 -7.719873e-09 3.261090e-08 3.269033e-08 -4.616039e-08 -4.160153e-08 1.143685e-09 3.991778e-08 9.457014e-04 -9.065698e-04 1.175286e-03 1.818008e-03 -5.006276e-03 -6.707009e-04 -3.084014e-03 -2.044072e-03 -3.461153e-03 -1.976710e-03 -1.429156e-03 -1.024796e-03 8.545684e-04
<VARIANCE> 25
 4.075407e+01 2.933462e+01 4.483981e+01 4.802997e+01 5.918362e+01 4.699888e+01 4.707578e+01 4.946395e+01 3.621793e+01 3.646457e+01 3.793129e+01 2.482520e+01 1.763496e+00 1.333436e+00 1.738094e+00 2.019375e+00 2.420786e+00 2.729361e+00 2.594926e+00 2.842218e+00 2.451805e+00 2.428721e+00 2.410574e+00 1.906622e+00 2.080781e+00
<GCONST> 1.004646e+02
<TRANSP> 5
 0.000000e+00 1.000000e+00 0.000000e+00 0.000000e+00 0.000000e+00
 0.000000e+00 6.000000e-01 4.000000e-01 0.000000e+00 0.000000e+00
 0.000000e+00 0.000000e+00 6.000000e-01 4.000000e-01 0.000000e+00
 0.000000e+00 0.000000e+00 0.000000e+00 7.000000e-01 3.000000e-01
 0.000000e+00 0.000000e+00 0.000000e+00 0.000000e+00 0.000000e+00
<ENDHMM>
~h "uh"
<BEGINHMM>
<NUMSTATES> 5
<STATE> 2
<MEAN> 25
 3.596254e-08 -8.895327e-10 4.614451e-08 1.802495e-08 -1.261230e-08 -7.719873e-09 3.261090e-08 3.269033e-08 -4.616039e-08 -4.160153e-08 1.143685e-09 3.991778e-08 9.457014e-04 -9.065698e-04 1.175286e-03 1.818008e-03 -5.006276e-03 -6.707009e-04 -3.084014e-03 -2.044072e-03 -3.461153e-03 -1.976710e-03 -1.429156e-03 -1.024796e-03 8.545684e-04
<VARIANCE> 25
 4.075407e+01 2.933462e+01 4.483981e+01 4.802997e+01 5.918362e+01 4.699888e+01 4.707578e+01 4.946395e+01 3.621793e+01 3.646457e+01 3.793129e+01 2.482520e+01 1.763496e+00 1.333436e+00 1.738094e+00 2.019375e+00 2.420786e+00 2.729361e+00 2.594926e+00 2.842218e+00 2.451805e+00 2.428721e+00 2.410574e+00 1.906622e+00 2.080781e+00
<GCONST> 1.004646e+02
<STATE> 3
<MEAN> 25
 3.596254e-08 -8.895327e-10 4.614451e-08 1.802495e-08 -1.261230e-08 -7.719873e-09 3.261090e-08 3.269033e-08 -4.616039e-08 -4.160153e-08 1.143685e-09 3.991778e-08 9.457014e-04 -9.065698e-04 1.175286e-03 1.818008e-03 -5.006276e-03 -6.707009e-04 -3.084014e-03 -2.044072e-03 -3.461153e-03 -1.976710e-03 -1.429156e-03 -1.024796e-03 8.545684e-04
<VARIANCE> 25
 4.075407e+01 2.933462e+01 4.483981e+01 4.802997e+01 5.918362e+01 4.699888e+01 4.707578e+01 4.946395e+01 3.621793e+01 3.646457e+01 3.793129e+01 2.482520e+01 1.763496e+00 1.333436e+00 1.738094e+00 2.019375e+00 2.420786e+00 2.729361e+00 2.594926e+00 2.842218e+00 2.451805e+00 2.428721e+00 2.410574e+00 1.906622e+00 2.080781e+00
<GCONST> 1.004646e+02
<STATE> 4
<MEAN> 25
 3.596254e-08 -8.895327e-10 4.614451e-08 1.802495e-08 -1.261230e-08 -7.719873e-09 3.261090e-08 3.269033e-08 -4.616039e-08 -4.160153e-08 1.143685e-09 3.991778e-08 9.457014e-04 -9.065698e-04 1.175286e-03 1.818008e-03 -5.006276e-03 -6.707009e-04 -3.084014e-03 -2.044072e-03 -3.461153e-03 -1.976710e-03 -1.429156e-03 -1.024796e-03 8.545684e-04
<VARIANCE> 25
 4.075407e+01 2.933462e+01 4.483981e+01 4.802997e+01 5.918362e+01 4.699888e+01 4.707578e+01 4.946395e+01 3.621793e+01 3.646457e+01 3.793129e+01 2.482520e+01 1.763496e+00 1.333436e+00 1.738094e+00 2.019375e+00 2.420786e+00 2.729361e+00 2.594926e+00 2.842218e+00 2.451805e+00 2.428721e+00 2.410574e+00 1.906622e+00 2.080781e+00
<GCONST> 1.004646e+02
<TRANSP> 5
 0.000000e+00 1.000000e+00 0.000000e+00 0.000000e+00 0.000000e+00
 0.000000e+00 6.000000e-01 4.000000e-01 0.000000e+00 0.000000e+00
 0.000000e+00 0.000000e+00 6.000000e-01 4.000000e-01 0.000000e+00
 0.000000e+00 0.000000e+00 0.000000e+00 7.000000e-01 3.000000e-01
 0.000000e+00 0.000000e+00 0.000000e+00 0.000000e+00 0.000000e+00
<ENDHMM>
~h "oy"
<BEGINHMM>
<NUMSTATES> 5
<STATE> 2
<MEAN> 25
 3.596254e-08 -8.895327e-10 4.614451e-08 1.802495e-08 -1.261230e-08 -7.719873e-09 3.261090e-08 3.269033e-08 -4.616039e-08 -4.160153e-08 1.143685e-09 3.991778e-08 9.457014e-04 -9.065698e-04 1.175286e-03 1.818008e-03 -5.006276e-03 -6.707009e-04 -3.084014e-03 -2.044072e-03 -3.461153e-03 -1.976710e-03 -1.429156e-03 -1.024796e-03 8.545684e-04
<VARIANCE> 25
 4.075407e+01 2.933462e+01 4.483981e+01 4.802997e+01 5.918362e+01 4.699888e+01 4.707578e+01 4.946395e+01 3.621793e+01 3.646457e+01 3.793129e+01 2.482520e+01 1.763496e+00 1.333436e+00 1.738094e+00 2.019375e+00 2.420786e+00 2.729361e+00 2.594926e+00 2.842218e+00 2.451805e+00 2.428721e+00 2.410574e+00 1.906622e+00 2.080781e+00
<GCONST> 1.004646e+02
<STATE> 3
<MEAN> 25
 3.596254e-08 -8.895327e-10 4.614451e-08 1.802495e-08 -1.261230e-08 -7.719873e-09 3.261090e-08 3.269033e-08 -4.616039e-08 -4.160153e-08 1.143685e-09 3.991778e-08 9.457014e-04 -9.065698e-04 1.175286e-03 1.818008e-03 -5.006276e-03 -6.707009e-04 -3.084014e-03 -2.044072e-03 -3.461153e-03 -1.976710e-03 -1.429156e-03 -1.024796e-03 8.545684e-04
<VARIANCE> 25
 4.075407e+01 2.933462e+01 4.483981e+01 4.802997e+01 5.918362e+01 4.699888e+01 4.707578e+01 4.946395e+01 3.621793e+01 3.646457e+01 3.793129e+01 2.482520e+01 1.763496e+00 1.333436e+00 1.738094e+00 2.019375e+00 2.420786e+00 2.729361e+00 2.594926e+00 2.842218e+00 2.451805e+00 2.428721e+00 2.410574e+00 1.906622e+00 2.080781e+00
<GCONST> 1.004646e+02
<STATE> 4
<MEAN> 25
 3.596254e-08 -8.895327e-10 4.614451e-08 1.802495e-08 -1.261230e-08 -7.719873e-09 3.261090e-08 3.269033e-08 -4.616039e-08 -4.160153e-08 1.143685e-09 3.991778e-08 9.457014e-04 -9.065698e-04 1.175286e-03 1.818008e-03 -5.006276e-03 -6.707009e-04 -3.084014e-03 -2.044072e-03 -3.461153e-03 -1.976710e-03 -1.429156e-03 -1.024796e-03 8.545684e-04
<VARIANCE> 25
 4.075407e+01 2.933462e+01 4.483981e+01 4.802997e+01 5.918362e+01 4.699888e+01 4.707578e+01 4.946395e+01 3.621793e+01 3.646457e+01 3.793129e+01 2.482520e+01 1.763496e+00 1.333436e+00 1.738094e+00 2.019375e+00 2.420786e+00 2.729361e+00 2.594926e+00 2.842218e+00 2.451805e+00 2.428721e+00 2.410574e+00 1.906622e+00 2.080781e+00
<GCONST> 1.004646e+02
<TRANSP> 5
 0.000000e+00 1.000000e+00 0.000000e+00 0.000000e+00 0.000000e+00
 0.000000e+00 6.000000e-01 4.000000e-01 0.000000e+00 0.000000e+00
 0.000000e+00 0.000000e+00 6.000000e-01 4.000000e-01 0.000000e+00
 0.000000e+00 0.000000e+00 0.000000e+00 7.000000e-01 3.000000e-01
 0.000000e+00 0.000000e+00 0.000000e+00 0.000000e+00 0.000000e+00
<ENDHMM>
~h "jh"
<BEGINHMM>
<NUMSTATES> 5
<STATE> 2
<MEAN> 25
 3.596254e-08 -8.895327e-10 4.614451e-08 1.802495e-08 -1.261230e-08 -7.719873e-09 3.261090e-08 3.269033e-08 -4.616039e-08 -4.160153e-08 1.143685e-09 3.991778e-08 9.457014e-04 -9.065698e-04 1.175286e-03 1.818008e-03 -5.006276e-03 -6.707009e-04 -3.084014e-03 -2.044072e-03 -3.461153e-03 -1.976710e-03 -1.429156e-03 -1.024796e-03 8.545684e-04
<VARIANCE> 25
 4.075407e+01 2.933462e+01 4.483981e+01 4.802997e+01 5.918362e+01 4.699888e+01 4.707578e+01 4.946395e+01 3.621793e+01 3.646457e+01 3.793129e+01 2.482520e+01 1.763496e+00 1.333436e+00 1.738094e+00 2.019375e+00 2.420786e+00 2.729361e+00 2.594926e+00 2.842218e+00 2.451805e+00 2.428721e+00 2.410574e+00 1.906622e+00 2.080781e+00
<GCONST> 1.004646e+02
<STATE> 3
<MEAN> 25
 3.596254e-08 -8.895327e-10 4.614451e-08 1.802495e-08 -1.261230e-08 -7.719873e-09 3.261090e-08 3.269033e-08 -4.616039e-08 -4.160153e-08 1.143685e-09 3.991778e-08 9.457014e-04 -9.065698e-04 1.175286e-03 1.818008e-03 -5.006276e-03 -6.707009e-04 -3.084014e-03 -2.044072e-03 -3.461153e-03 -1.976710e-03 -1.429156e-03 -1.024796e-03 8.545684e-04
<VARIANCE> 25
 4.075407e+01 2.933462e+01 4.483981e+01 4.802997e+01 5.918362e+01 4.699888e+01 4.707578e+01 4.946395e+01 3.621793e+01 3.646457e+01 3.793129e+01 2.482520e+01 1.763496e+00 1.333436e+00 1.738094e+00 2.019375e+00 2.420786e+00 2.729361e+00 2.594926e+00 2.842218e+00 2.451805e+00 2.428721e+00 2.410574e+00 1.906622e+00 2.080781e+00
<GCONST> 1.004646e+02
<STATE> 4
<MEAN> 25
 3.596254e-08 -8.895327e-10 4.614451e-08 1.802495e-08 -1.261230e-08 -7.719873e-09 3.261090e-08 3.269033e-08 -4.616039e-08 -4.160153e-08 1.143685e-09 3.991778e-08 9.457014e-04 -9.065698e-04 1.175286e-03 1.818008e-03 -5.006276e-03 -6.707009e-04 -3.084014e-03 -2.044072e-03 -3.461153e-03 -1.976710e-03 -1.429156e-03 -1.024796e-03 8.545684e-04
<VARIANCE> 25
 4.075407e+01 2.933462e+01 4.483981e+01 4.802997e+01 5.918362e+01 4.699888e+01 4.707578e+01 4.946395e+01 3.621793e+01 3.646457e+01 3.793129e+01 2.482520e+01 1.763496e+00 1.333436e+00 1.738094e+00 2.019375e+00 2.420786e+00 2.729361e+00 2.594926e+00 2.842218e+00 2.451805e+00 2.428721e+00 2.410574e+00 1.906622e+00 2.080781e+00
<GCONST> 1.004646e+02
<TRANSP> 5
 0.000000e+00 1.000000e+00 0.000000e+00 0.000000e+00 0.000000e+00
 0.000000e+00 6.000000e-01 4.000000e-01 0.000000e+00 0.000000e+00
 0.000000e+00 0.000000e+00 6.000000e-01 4.000000e-01 0.000000e+00
 0.000000e+00 0.000000e+00 0.000000e+00 7.000000e-01 3.000000e-01
 0.000000e+00 0.000000e+00 0.000000e+00 0.000000e+00 0.000000e+00
<ENDHMM>
~h "sil"
<BEGINHMM>
<NUMSTATES> 5
<STATE> 2
<MEAN> 25
 3.596254e-08 -8.895327e-10 4.614451e-08 1.802495e-08 -1.261230e-08 -7.719873e-09 3.261090e-08 3.269033e-08 -4.616039e-08 -4.160153e-08 1.143685e-09 3.991778e-08 9.457014e-04 -9.065698e-04 1.175286e-03 1.818008e-03 -5.006276e-03 -6.707009e-04 -3.084014e-03 -2.044072e-03 -3.461153e-03 -1.976710e-03 -1.429156e-03 -1.024796e-03 8.545684e-04
<VARIANCE> 25
