~o
<STREAMINFO> 1 25
<VECSIZE> 25<NULLD><MFCC_D_N_Z_0><DIAGC>
~s "silst"
<MEAN> 25
 -9.048156e-01 1.693146e+00 -4.121009e-01 4.304479e+00 6.139430e+00 3.932542e+00 5.062890e+00 4.281265e+00 3.030850e+00 3.912825e+00 2.649683e+00 1.274440e+00 -4.299338e-02 -6.055242e-03 -3.139991e-03 -1.331493e-02 -6.303612e-03 1.007054e-02 -1.899258e-02 6.346228e-02 -1.034063e-02 -1.148921e-02 5.545126e-03 -1.732765e-02 2.742562e-02
<VARIANCE> 25
 5.832811e+00 3.813448e+00 6.767217e+00 7.996988e+00 9.531509e+00 1.129608e+01 1.240590e+01 1.427596e+01 1.291093e+01 1.271399e+01 1.265803e+01 1.083506e+01 3.454195e-01 3.771309e-01 4.940208e-01 7.560209e-01 9.328182e-01 1.116103e+00 1.252213e+00 1.478955e+00 1.345787e+00 1.437799e+00 1.303998e+00 1.118866e+00 2.306993e-01
<GCONST> 7.012251e+01
~h "b"
<BEGINHMM>
<NUMSTATES> 5
<STATE> 2
<MEAN> 25
 5.076876e+00 5.946957e+00 2.022759e+00 4.324021e+00 4.274164e+00 2.627527e+00 1.904398e+00 -2.231855e+00 -2.638943e+00 -3.754973e-01 -1.398427e+00 -3.802499e+00 5.497486e-01 5.533497e-01 1.611537e-01 -2.320186e-02 -2.550642e-01 -3.703238e-01 -5.429369e-01 -3.314716e-01 -5.045276e-01 -5.622085e-01 -1.754114e-01 -1.269507e-01 4.125686e-01
<VARIANCE> 25
 1.694473e+01 1.367001e+01 1.060760e+01 1.172119e+01 1.461848e+01 1.665245e+01 1.921217e+01 1.964181e+01 1.943565e+01 1.889630e+01 1.653075e+01 1.584291e+01 1.218978e+00 1.067924e+00 1.137234e+00 9.230999e-01 1.322281e+00 1.493044e+00 1.985802e+00 1.828544e+00 2.253739e+00 1.571850e+00 1.857797e+00 2.148360e+00 7.120822e-01
<GCONST> 8.370854e+01
<STATE> 3
<MEAN> 25
 5.057362e+00 4.719605e+00 1.050295e+00 3.012953e+00 1.717842e+00 1.107104e+00 -1.369507e-01 -2.150711e+00 -4.296009e+00 -2.400598e+00 -1.142754e+00 -1.360036e+00 -4.010273e-01 -1.662552e+00 -5.929923e-01 -1.538945e+00 -2.155828e+00 -2.289362e+00 -1.833637e+00 -4.123907e-01 -4.272605e-01 -3.607594e-01 4.712338e-01 9.893182e-01 3.119652e+00
<VARIANCE> 25
 1.929926e+01 1.910354e+01 1.645289e+01 2.595975e+01 2.158425e+01 2.759063e+01 3.212144e+01 2.819993e+01 2.145626e+01 2.799471e+01 1.633296e+01 2.000533e+01 3.311165e+00 2.703985e+00 1.470049e+00 2.751495e+00 2.530062e+00 2.167065e+00 2.859269e+00 3.569112e+00 4.418721e+00 3.191191e+00 2.897588e+00 2.362510e+00 3.591762e+00
<GCONST> 9.676188e+01
<STATE> 4
<MEAN> 25
 3.717631e+00 -1.565176e+00 -5.347235e-01 -3.530294e+00 -5.571320e+00 -3.410306e+00 -5.151748e+00 -5.862081e+00 -4.876855e+00 -3.408670e+00 -5.427646e-01 -2.399110e-01 -5.536088e-01 -1.532964e+00 -4.507110e-01 -1.329215e+00 -1.382905e+00 -1.122226e+00 -6.171805e-01 -3.268210e-01 3.462066e-01 4.785758e-01 3.297062e-01 2.257168e-01 2.043608e+00
<VARIANCE> 25
 2.042496e+01 2.798751e+01 6.132227e+01 4.152221e+01 3.239104e+01 4.353120e+01 4.015875e+01 2.977609e+01 3.560538e+01 3.947260e+01 2.602839e+01 2.700198e+01 2.715644e+00 2.875843e+00 2.217337e+00 3.350831e+00 4.591000e+00 3.441267e+00 4.104543e+00 4.989766e+00 3.859218e+00 2.898611e+00 3.170357e+00 2.276258e+00 6.031939e+00
<GCONST> 1.043074e+02
<TRANSP> 5
 0.000000e+00 1.000000e+00 0.000000e+00 0.000000e+00 0.000000e+00
 0.000000e+00 7.126016e-01 2.873984e-01 0.000000e+00 0.000000e+00
 0.000000e+00 0.000000e+00 3.944858e-01 6.055142e-01 0.000000e+00
 0.000000e+00 0.000000e+00 0.000000e+00 5.936834e-01 4.063166e-01
 0.000000e+00 0.000000e+00 0.000000e+00 0.000000e+00 0.000000e+00
<ENDHMM>
~h "d"
<BEGINHMM>
<NUMSTATES> 5
<STATE> 2
<MEAN> 25
 3.741542e+00 4.311631e+00 4.302743e+00 3.748055e+00 8.663774e-01 3.941221e-01 -1.085240e+00 -2.420649e+00 -1.798219e+00 -2.036917e+00 -2.824932e+00 -2.119280e+00 -6.048993e-03 4.056794e-01 3.756754e-01 -4.071507e-03 -3.214212e-01 -5.657347e-01 -5.456507e-01 -1.667863e-01 -5.599548e-01 -3.623128e-01 -2.380877e-01 -1.534349e-01 4.404739e-01
<VARIANCE> 25
 2.322072e+01 1.742115e+01 2.514180e+01 1.928284e+01 4.656995e+01 2.325922e+01 3.087608e+01 3.701397e+01 1.454047e+01 2.249437e+01 1.862076e+01 1.696483e+01 2.066661e+00 1.414664e+00 1.998222e+00 1.342758e+00 2.138843e+00 2.855266e+00 2.574309e+00 2.664605e+00 2.276326e+00 2.233904e+00 1.960145e+00 1.992271e+00 2.133521e+00
<GCONST> 9.324922e+01
<STATE> 3
<MEAN> 25
 1.448335e+00 1.578546e+00 3.483834e+00 4.496263e-01 -1.534685e+00 -2.951954e+00 -3.457515e+00 -1.526618e+00 -3.378948e+00 -3.115947e+00 -1.804283e+00 -2.881933e-01 -4.459257e-01 -1.163596e+00 -4.640516e-01 -1.570057e+00 -1.606172e+00 -1.449060e+00 -1.429396e+00 -6.675027e-01 1.123682e-01 2.358830e-01 9.789825e-02 1.876284e-01 2.559160e+00
<VARIANCE> 25
 1.828407e+01 1.914386e+01 2.700996e+01 2.430871e+01 4.880724e+01 3.141067e+01 3.848464e+01 4.859090e+01 2.481822e+01 2.307501e+01 2.018928e+01 2.209193e+01 2.495310e+00 2.673781e+00 2.827115e+00 3.694614e+00 6.026768e+00 3.853304e+00 3.767047e+00 5.979380e+00 4.325597e+00 3.442142e+00 2.665455e+00 2.333709e+00 6.018013e+00
<GCONST> 1.024384e+02
<STATE> 4
<MEAN> 25
 8.424870e-01 -1.935041e+00 2.863873e-01 -3.826737e+00 -5.338870e+00 -5.067109e+00 -7.240922e+00 -3.835549e+00 8.334621e-01 8.513828e-01 -1.385287e+00 -9.227242e-01 -5.196730e-01 -4.777752e-01 -6.995655e-01 -7.035058e-01 -2.820832e-01 -2.070099e-01 3.393441e-01 1.261005e-01 8.463598e-01 6.269339e-01 1.357538e-01 -1.883743e-01 8.689117e-01
<VARIANCE> 25
 1.746157e+01 2.500635e+01 2.064694e+01 2.736694e+01 2.961348e+01 3.285991e+01 4.514905e+01 4.446278e+01 4.231131e+01 3.032303e+01 2.419540e+01 2.102012e+01 1.147908e+00 1.321193e+00 1.397997e+00 2.422275e+00 2.811133e+00 2.149346e+00 2.653228e+00 3.603448e+00 2.064937e+00 1.820735e+00 2.280828e+00 2.004519e+00 2.433024e+00
<GCONST> 9.566273e+01
<TRANSP> 5
 0.000000e+00 1.000000e+00 0.000000e+00 0.000000e+00 0.000000e+00
 0.000000e+00 6.778926e-01 3.221073e-01 0.000000e+00 0.000000e+00
 0.000000e+00 0.000000e+00 5.992029e-01 4.007971e-01 0.000000e+00
 0.000000e+00 0.000000e+00 0.000000e+00 5.620852e-01 4.379148e-01
 0.000000e+00 0.000000e+00 0.000000e+00 0.000000e+00 0.000000e+00
<ENDHMM>
~h "f"
<BEGINHMM>
<NUMSTATES> 5
<STATE> 2
<MEAN> 25
 -2.014484e+00 6.918464e-01 -2.027041e+00 2.106299e+00 4.142842e+00 2.213247e+00 4.128245e+00 4.046781e+00 1.459503e+00 2.254447e+00 2.106195e+00 1.144683e+00 -8.004995e-02 -2.693947e-02 -8.235405e-02 -6.246993e-02 1.430190e-02 4.520990e-02 -8.440291e-02 7.229465e-02 8.116481e-02 1.162181e-01 -3.597611e-02 -5.755033e-02 4.796303e-02
<VARIANCE> 25
 7.159312e+00 3.570746e+00 5.889944e+00 1.044267e+01 8.516130e+00 8.842682e+00 1.032274e+01 1.482108e+01 1.197825e+01 1.138917e+01 1.054075e+01 8.821760e+00 2.842008e-01 2.786355e-01 3.977722e-01 9.200066e-01 8.599554e-01 1.068947e+00 1.089652e+00 1.418926e+00 1.226952e+00 1.174305e+00 1.214377e+00 8.210053e-01 2.097630e-01
<GCONST> 6.771828e+01
<STATE> 3
<MEAN> 25
 -3.230501e+00 -2.594575e-01 -4.365914e+00 1.554495e+00 2.036057e+00 1.899834e+00 5.558937e-01 4.778405e+00 1.158708e+00 1.974107e+00 -1.543304e-01 1.076358e+00 1.438768e+00 -1.169446e-01 2.956207e-02 -1.276256e+00 -1.066036e+00 -7.811230e-01 -6.091103e-01 -9.849728e-01 -7.190465e-01 -8.076102e-01 -5.688512e-01 -2.438685e-01 1.170097e+00
<VARIANCE> 25
 3.050880e+01 1.210850e+01 1.146064e+01 2.802808e+01 1.735526e+01 1.545714e+01 1.934858e+01 1.802186e+01 1.918915e+01 1.926718e+01 1.600181e+01 1.319380e+01 3.730823e+00 1.391643e+00 1.801577e+00 2.595752e+00 2.166511e+00 2.673432e+00 2.185167e+00 1.573664e+00 2.446386e+00 2.225452e+00 1.659137e+00 1.526326e+00 3.217738e+00
<GCONST> 9.031599e+01
<STATE> 4
<MEAN> 25
 2.090374e+00 -6.421386e+00 -5.056580e+00 -9.924229e+00 -5.935889e+00 -3.146363e+00 6.093560e-01 -4.356899e-01 -1.219787e-01 -1.023020e+00 -4.653998e-01 -1.906759e+00 -3.488699e-02 -4.126741e-01 -7.111543e-02 -1.266311e-01 8.612900e-03 5.076345e-02 4.882387e-02 -6.378902e-02 2.234986e-01 2.200135e-01 -6.237548e-03 -3.457159e-01 3.386371e-01
<VARIANCE> 25
 9.964632e+00 1.026902e+01 8.946129e+00 1.312399e+01 2.087148e+01 3.245630e+01 2.347249e+01 2.843876e+01 2.272938e+01 2.106101e+01 1.666054e+01 2.328153e+01 1.163988e+00 8.629934e-01 8.394449e-01 1.758008e+00 1.505525e+00 2.764244e+00 2.016419e+00 2.840630e+00 2.497690e+00 1.568015e+00 1.265264e+00 1.737651e+00 1.067834e+00
<GCONST> 8.627798e+01
<TRANSP> 5
 0.000000e+00 1.000000e+00 0.000000e+00 0.000000e+00 0.000000e+00
 0.000000e+00 8.606414e-01 1.393586e-01 0.000000e+00 0.000000e+00
 0.000000e+00 0.000000e+00 7.892249e-01 2.107752e-01 0.000000e+00
 0.000000e+00 0.000000e+00 0.000000e+00 8.919961e-01 1.080039e-01
 0.000000e+00 0.000000e+00 0.000000e+00 0.000000e+00 0.000000e+00
<ENDHMM>
~h "g"
<BEGINHMM>
<NUMSTATES> 5
<STATE> 2
<MEAN> 25
 -2.008465e-01 1.697903e+00 1.371063e+00 7.794250e-01 3.585441e+00 1.066592e+00 3.508415e-01 4.359462e+00 1.037638e+00 -2.140285e-01 -1.051213e+00 -1.779329e+00 -2.503880e-01 -3.438699e-01 1.420190e+00 -4.591250e-01 -1.425971e+00 -1.452256e+00 -2.215385e+00 -4.306531e-01 -9.502350e-01 -4.481444e-01 7.041740e-01 -4.824309e-01 2.029718e+00
<VARIANCE> 25
 2.233257e+01 3.136680e+01 1.967016e+01 4.669780e+01 4.616133e+01 4.382560e+01 2.888652e+01 5.314002e+01 5.048498e+01 1.894755e+01 2.513066e+01 2.020667e+01 2.997837e+00 4.078085e+00 2.283857e+00 3.308954e+00 7.135919e+00 2.684988e+00 1.855508e+00 5.746699e+00 2.982027e+00 4.078678e+00 2.963972e+00 2.286726e+00 3.152079e+00
<GCONST> 1.027693e+02
<STATE> 3
<MEAN> 25
 7.175883e-02 1.389959e+00 1.645651e+00 1.642608e-01 1.418491e+00 -2.559114e+00 -4.187278e+00 2.303215e+00 -2.624519e+00 -1.211073e+00 1.407395e-01 -1.384189e+00 -1.315916e-01 -1.382243e-01 5.299537e-01 -8.728867e-01 -1.480913e+00 -1.087178e+00 -1.700336e+00 -1.656155e+00 -6.153929e-01 -6.528224e-02 5.362796e-01 -1.914910e-01 2.181308e+00
<VARIANCE> 25
 2.001542e+01 4.230062e+01 3.265017e+01 4.242796e+01 7.006834e+01 3.318568e+01 5.138880e+01 4.586854e+01 4.975282e+01 2.856980e+01 2.042148e+01 2.215552e+01 3.302714e+00 2.727853e+00 2.061096e+00 3.867372e+00 4.851765e+00 4.679661e+00 7.278100e+00 6.289892e+00 4.029249e+00 2.897613e+00 1.388646e+00 2.868458e+00 4.238576e+00
<GCONST> 1.053170e+02
<STATE> 4
<MEAN> 25
 -2.127277e+00 1.561564e+00 6.357301e+00 -2.315556e+00 -6.299428e+00 -4.396414e+00 -3.837565e+00 -5.433362e+00 -3.335238e+00 -2.049539e+00 8.094732e-01 -3.375653e-01 -1.456764e-01 -3.946233e-01 1.709473e-01 -1.923127e-01 -7.605253e-01 -1.059263e-01 -1.123608e-01 -8.560929e-01 5.562402e-02 -2.216417e-01 -1.323936e-02 2.905638e-01 7.334714e-01
<VARIANCE> 25
 1.260429e+01 2.218994e+01 3.164353e+01 1.022516e+01 3.075489e+01 1.725212e+01 3.299536e+01 3.990528e+01 3.188370e+01 2.397533e+01 1.668369e+01 1.442518e+01 1.493621e+00 1.401745e+00 2.496828e+00 1.173566e+00 4.068827e+00 2.172936e+00 2.651982e+00 5.984293e+00 3.570466e+00 4.068426e+00 1.670013e+00 2.374619e+00 2.922220e+00
<GCONST> 9.482321e+01
<TRANSP> 5
 0.000000e+00 1.000000e+00 0.000000e+00 0.000000e+00 0.000000e+00
 0.000000e+00 2.579170e-01 7.420831e-01 0.000000e+00 0.000000e+00
 0.000000e+00 0.000000e+00 5.661603e-01 4.338397e-01 0.000000e+00
 0.000000e+00 0.000000e+00 0.000000e+00 8.695840e-01 1.304160e-01
 0.000000e+00 0.000000e+00 0.000000e+00 0.000000e+00 0.000000e+00
<ENDHMM>
~h "k"
<BEGINHMM>
<NUMSTATES> 5
<STATE> 2
<MEAN> 25
 -4.575937e+00 5.853216e-02 -1.434820e+00 2.954897e+00 2.016631e+00 2.660777e-01 3.179160e+00 4.593003e+00 1.032961e+00 2.015724e+00 2.889131e+00 2.382563e+00 -7.774022e-01 -7.088479e-01 -6.507609e-01 -2.604729e-01 -4.260857e-01 -7.377806e-01 -1.262498e+00 1.850758e-01 -9.548741e-01 -4.287188e-01 5.067466e-01 3.626690e-02 1.885332e+00
<VARIANCE> 25
 2.581534e+01 1.699617e+01 2.084939e+01 3.168797e+01 3.125747e+01 3.125528e+01 3.462498e+01 2.606152e+01 2.459387e+01 1.984528e+01 2.274019e+01 1.940327e+01 2.446546e+00 1.364630e+00 3.565751e+00 4.698382e+00 3.817048e+00 3.041557e+00 6.658871e+00 2.892895e+00 3.752927e+00 2.401639e+00 2.834680e+00 2.289698e+00 3.676254e+00
<GCONST> 9.929881e+01
<STATE> 3
<MEAN> 25
 -4.147384e+00 -2.624180e+00 -5.196486e+00 5.548166e-01 2.272223e+00 -8.742756e-01 -3.024987e+00 3.391280e+00 -2.981453e+00 3.059601e+00 3.714238e+00 -3.242635e-01 2.772928e-01 9.391510e-02 -2.912534e-01 -8.965493e-01 -3.209918e-01 2.550200e-02 -1.185681e+00 -9.603850e-01 -8.697038e-01 -1.703755e-02 6.721953e-02 -4.642152e-01 1.542973e+00
<VARIANCE> 25
 2.622177e+01 1.741449e+01 4.982591e+01 4.228033e+01 5.131271e+01 4.626286e+01 5.429347e+01 4.326249e+01 3.244501e+01 4.381855e+01 4.350734e+01 2.296732e+01 3.249167e+00 1.666689e+00 4.384246e+00 3.937215e+00 3.232479e+00 3.592764e+00 7.691767e+00 3.780035e+00 4.148960e+00 4.488167e+00 4.977446e+00 2.444927e+00 3.688842e+00
<GCONST> 1.065126e+02
<STATE> 4
<MEAN> 25
 -1.837861e-01 -1.468658e+00 -2.815516e+00 -3.818058e+00 -3.381726e+00 -1.589713e+00 -2.847546e+00 -9.325708e-01 -3.147093e+00 -6.383941e-01 1.312755e+00 1.137678e-01 5.370122e-01 -7.832324e-02 4.852067e-01 -3.912529e-01 -9.961826e-01 -7.423401e-01 5.546813e-02 -7.621007e-01 1.836818e-01 -7.519306e-01 -7.282896e-01 -9.574085e-02 8.329274e-01
<VARIANCE> 25
 4.614344e+01 2.406771e+01 4.546384e+01 5.339070e+01 5.854188e+01 5.483643e+01 4.341857e+01 3.932100e+01 2.914308e+01 4.588889e+01 3.324328e+01 2.245462e+01 2.837278e+00 1.988109e+00 2.525713e+00 2.642782e+00 3.514460e+00 3.807720e+00 5.111497e+00 4.907069e+00 3.382184e+00 4.197960e+00 3.601678e+00 2.604144e+00 2.848213e+00
<GCONST> 1.054674e+02
<TRANSP> 5
 0.000000e+00 1.000000e+00 0.000000e+00 0.000000e+00 0.000000e+00
 0.000000e+00 5.994294e-01 4.005706e-01 0.000000e+00 0.000000e+00
 0.000000e+00 0.000000e+00 4.508361e-01 5.491639e-01 0.000000e+00
 0.000000e+00 0.000000e+00 0.000000e+00 7.177419e-01 2.822581e-01
 0.000000e+00 0.000000e+00 0.000000e+00 0.000000e+00 0.000000e+00
<ENDHMM>
~h "l"
<BEGINHMM>
<NUMSTATES> 5
<STATE> 2
<MEAN> 25
 7.599730e+00 -1.981602e-01 -2.273633e+00 -1.014795e+01 -5.390524e+00 8.509571e-02 -5.808327e+00 -3.998223e+00 -2.863246e+00 -1.473128e+00 2.022295e+00 8.941464e-01 4.592495e-01 1.007380e+00 1.447373e-01 -2.078372e-01 2.116617e-01 1.106021e+00 -1.295260e-01 -3.282654e-01 -3.950662e-01 -5.351287e-01 3.244586e-01 3.698048e-01 -1.080107e+00
<VARIANCE> 25
 1.298351e+01 2.466141e+01 1.084216e+01 2.373586e+01 2.087963e+01 4.509164e+01 3.083965e+01 3.322760e+01 3.356401e+01 4.540734e+01 2.087611e+01 2.402905e+01 5.700687e-01 9.287019e-01 6.747668e-01 1.758372e+00 1.203287e+00 3.445372e+00 2.279461e+00 1.742017e+00 1.937000e+00 2.744436e+00 1.459882e+00 1.388043e+00 8.014099e-01
<GCONST> 8.908462e+01
<STATE> 3
<MEAN> 25
 5.372588e+00 2.319143e+00 -1.648477e+00 -6.756400e+00 -3.272624e+00 1.383830e+00 -4.026891e+00 -4.060088e+00 -2.113343e+00 -1.928368e+00 1.458528e+00 1.028786e+00 -8.181939e-01 2.529038e-02 8.052851e-02 1.368130e+00 6.397558e-01 -5.215240e-01 1.010926e+00 6.874786e-01 6.691631e-01 4.454371e-01 -5.848202e-01 -1.833445e-01 -5.355098e-01
<VARIANCE> 25
 1.707043e+01 2.457889e+01 1.328930e+01 2.181128e+01 2.619809e+01 3.909229e+01 4.645030e+01 3.128678e+01 2.721898e+01 4.311712e+01 3.720013e+01 2.555099e+01 1.199099e+00 1.378782e+00 8.613240e-01 2.268891e+00 1.773205e+00 2.235606e+00 3.643965e+00 2.695417e+00 2.932278e+00 3.787127e+00 2.471936e+00 1.941211e+00 1.604558e+00
<GCONST> 9.507684e+01
<STATE> 4
<MEAN> 25
 -2.410075e-01 2.855041e+00 -9.125049e-01 1.416905e+00 2.525740e+00 1.483034e+00 2.509825e+00 1.960494e+00 4.450485e-01 5.916616e-01 2.791326e-01 4.537293e-01 -5.140216e-01 -1.019153e-01 1.606941e-01 5.350936e-01 3.109941e-01 -5.495418e-02 2.420945e-01 3.752446e-01 1.207811e-01 1.509718e-01 4.984825e-02 -6.109308e-03 -2.889269e-01
<VARIANCE> 25
 2.789458e+01 2.621114e+01 1.336622e+01 2.773528e+01 2.905324e+01 2.471244e+01 2.344764e+01 2.454357e+01 1.919499e+01 2.192740e+01 3.007964e+01 1.603435e+01 5.302445e-01 5.116731e-01 6.409521e-01 9.619870e-01 1.404638e+00 1.388902e+00 1.775765e+00 1.495202e+00 1.546703e+00 1.745442e+00 1.642392e+00 1.335320e+00 2.908469e-01
<GCONST> 8.400986e+01
<TRANSP> 5
 0.000000e+00 1.000000e+00 0.000000e+00 0.000000e+00 0.000000e+00
 0.000000e+00 7.531269e-01 2.468731e-01 0.000000e+00 0.000000e+00
 0.000000e+00 0.000000e+00 6.838069e-01 3.161931e-01 0.000000e+00
 0.000000e+00 0.000000e+00 0.000000e+00 8.497936e-01 1.502064e-01
 0.000000e+00 0.000000e+00 0.000000e+00 0.000000e+00 0.000000e+00
<ENDHMM>
~h "m"
<BEGINHMM>
<NUMSTATES> 5
<STATE> 2
<MEAN> 25
 3.305784e+00 2.339818e-01 1.430501e+00 1.764784e+00 4.941945e-01 5.499384e-01 -2.604649e+00 -4.673615e+00 -3.434566e+00 -2.684383e+00 -2.157041e+00 -1.942334e+00 1.183182e+00 2.237305e-01 1.277477e+00 6.945848e-01 -6.541752e-01 -8.048161e-01 -1.874572e+00 -1.907544e+00 -1.449423e+00 -1.233392e+00 -3.120965e-01 -3.013567e-01 5.733961e-01
<VARIANCE> 25
 2.555672e+01 2.767322e+01 1.941906e+01 4.210506e+01 3.694244e+01 3.014440e+01 4.340060e+01 4.703345e+01 2.633493e+01 2.754638e+01 1.650352e+01 1.731941e+01 1.506898e+00 1.343235e+00 1.846561e+00 2.139226e+00 2.118193e+00 4.667716e+00 4.971916e+00 3.616414e+00 2.570873e+00 3.841596e+00 2.360097e+00 1.670847e+00 2.755309e+00
<GCONST> 9.802870e+01
<STATE> 3
<MEAN> 25
 6.659179e+00 2.468697e+00 5.440292e+00 4.763336e+00 -5.767056e-01 -6.775843e-02 -5.398557e+00 -7.496538e+00 -5.558201e+00 -5.049297e+00 -1.654294e+00 -1.219184e+00 -6.878103e-02 -1.358598e-01 3.196096e-01 -1.051616e-02 -1.547782e-01 -1.184856e-01 -4.402713e-01 -2.012236e-01 -1.207266e-01 -2.440584e-01 3.266093e-01 1.839464e-01 2.584161e-01
<VARIANCE> 25
 1.126273e+01 1.888689e+01 1.828212e+01 3.924572e+01 2.522162e+01 3.854414e+01 3.089127e+01 3.053327e+01 1.914925e+01 2.625166e+01 1.877840e+01 1.710354e+01 6.903123e-01 8.452268e-01 1.182461e+00 2.525849e+00 1.863481e+00 1.875090e+00 2.302814e+00 2.156632e+00 1.800606e+00 2.442152e+00 1.613672e+00 1.524517e+00 1.541431e+00
<GCONST> 8.982652e+01
<STATE> 4
<MEAN> 25
 3.516401e-01 -1.415538e+00 5.339496e+00 -2.742496e+00 -8.083858e+00 -2.522407e+00 -6.189963e+00 -8.030580e+00 -5.110765e+00 -7.746140e+00 -1.527284e+00 -1.183661e+00 -5.014328e-01 -1.025402e-01 -1.535448e-01 -3.142464e-01 -2.963964e-01 -1.216943e-01 3.576880e-01 7.034347e-01 4.560284e-01 6.829771e-02 -1.533694e-01 1.177264e-01 4.142452e-01
<VARIANCE> 25
 3.004062e+01 2.217278e+01 4.294002e+01 3.869694e+01 3.937356e+01 5.183900e+01 4.402475e+01 6.096357e+01 2.242370e+01 2.898922e+01 2.461196e+01 3.102886e+01 1.460564e+00 1.034604e+00 1.752571e+00 2.321283e+00 2.206634e+00 2.566251e+00 2.782827e+00 4.376991e+00 2.429138e+00 2.439018e+00 2.004357e+00 2.055890e+00 2.142442e+00
<GCONST> 9.850225e+01
<TRANSP> 5
 0.000000e+00 1.000000e+00 0.000000e+00 0.000000e+00 0.000000e+00
 0.000000e+00 5.018265e-01 4.981735e-01 0.000000e+00 0.000000e+00
 0.000000e+00 0.000000e+00 5.916504e-01 4.083496e-01 0.000000e+00
 0.000000e+00 0.000000e+00 0.000000e+00 8.604491e-01 1.395509e-01
 0.000000e+00 0.000000e+00 0.000000e+00 0.000000e+00 0.000000e+00
<ENDHMM>
~h "n"
<BEGINHMM>
<NUMSTATES> 5
<STATE> 2
<MEAN> 25
 7.066717e+00 8.540992e-01 4.453972e+00 3.135006e+00 -2.684150e+00 1.627036e-01 -5.257713e+00 -5.809216e+00 -1.928812e+00 -4.389533e+00 -6.141058e+00 -1.737745e+00 -6.027915e-02 6.195069e-01 -2.793746e-02 5.375579e-01 5.804768e-01 -3.256703e-02 4.840222e-01 7.889028e-02 -2.023703e-01 2.116160e-01 2.684692e-02 3.341869e-01 -8.887922e-01
<VARIANCE> 25
 9.757421e+00 1.185518e+01 1.736904e+01 2.010100e+01 2.926321e+01 1.352973e+01 2.216915e+01 2.701573e+01 3.330031e+01 1.990917e+01 3.138129e+01 1.794629e+01 4.552560e-01 6.046605e-01 6.708695e-01 9.504586e-01 1.354651e+00 1.226683e+00 1.377062e+00 1.651652e+00 1.563781e+00 1.061648e+00 1.524038e+00 1.414472e+00 4.393325e-01
<GCONST> 8.180202e+01
<STATE> 3
<MEAN> 25
 3.097647e+00 3.132447e+00 2.838177e+00 5.238069e+00 3.296997e+00 1.221614e+00 1.864181e-01 -8.573831e-02 -7.312350e-01 -1.873375e+00 -2.611795e+00 -5.125643e-01 -9.342011e-01 1.667627e-01 -5.664932e-01 -9.490137e-02 7.804409e-01 1.157528e-01 8.915757e-01 8.167368e-01 1.603929e-01 5.292327e-01 8.215905e-01 1.476941e-01 -4.732932e-01
<VARIANCE> 25
 1.777041e+01 1.231295e+01 1.313999e+01 1.652606e+01 3.061950e+01 2.692230e+01 2.791864e+01 2.972674e+01 1.790538e+01 1.955527e+01 2.632725e+01 1.399045e+01 1.007409e+00 9.521714e-01 8.717228e-01 1.185038e+00 1.415595e+00 1.780216e+00 2.201894e+00 2.441000e+00 1.751253e+00 1.586034e+00 1.929028e+00 1.386958e+00 8.180342e-01
<GCONST> 8.632069e+01
<STATE> 4
<MEAN> 25
 -4.655609e-01 1.640704e+00 -6.534189e-01 4.091585e+00 6.175071e+00 3.589913e+00 5.002045e+00 3.765499e+00 2.628583e+00 3.887710e+00 2.638440e+00 1.121276e+00 -7.088730e-02 -4.301626e-02 -6.412446e-02 -2.246678e-02 1.958441e-02 1.778324e-02 5.427927e-02 7.417474e-02 7.363033e-02 1.044168e-01 1.054671e-01 4.424047e-02 -4.133689e-02
<VARIANCE> 25
 3.249797e+00 3.557699e+00 5.964784e+00 7.112694e+00 1.236502e+01 1.161728e+01 1.347514e+01 1.455969e+01 1.335004e+01 1.411913e+01 1.270389e+01 1.057008e+01 1.872968e-01 2.760223e-01 4.263235e-01 6.086984e-01 7.807759e-01 8.801552e-01 1.151731e+00 1.433697e+00 1.427837e+00 1.305052e+00 1.230236e+00 1.094718e+00 9.957557e-02
<GCONST> 6.695618e+01
<TRANSP> 5
 0.000000e+00 1.000000e+00 0.000000e+00 0.000000e+00 0.000000e+00
 0.000000e+00 6.988781e-01 3.011219e-01 0.000000e+00 0.000000e+00
 0.000000e+00 0.000000e+00 8.040927e-01 1.959073e-01 0.000000e+00
 0.000000e+00 0.000000e+00 0.000000e+00 9.422440e-01 5.775597e-02
 0.000000e+00 0.000000e+00 0.000000e+00 0.000000e+00 0.000000e+00
<ENDHMM>
~h "p"
<BEGINHMM>
<NUMSTATES> 5
<STATE> 2
<MEAN> 25
 1.970275e-01 1.404614e+00 -3.810262e+00 1.982408e+00 3.092754e+00 1.642611e+00 1.347335e+00 3.515285e+00 1.016016e+00 8.795899e-01 5.575722e-01 3.156174e-01 -8.530276e-02 -1.571572e-02 -5.067021e-01 -5.885313e-01 -2.092203e-01 -4.978737e-01 -1.331554e+00 -2.121210e-01 -3.846676e-01 -2.545359e-01 5.427908e-01 7.962804e-01 1.363668e+00
<VARIANCE> 25
 1.347786e+01 1.580105e+01 1.720270e+01 2.012094e+01 2.921024e+01 2.585007e+01 2.230273e+01 3.038220e+01 1.508289e+01 2.193620e+01 1.726254e+01 1.940365e+01 1.535513e+00 1.939454e+00 1.663921e+00 2.342464e+00 2.428937e+00 2.868459e+00 3.427770e+00 5.451726e+00 2.974516e+00 2.505807e+00 2.382882e+00 2.875920e+00 3.187817e+00
<GCONST> 9.432941e+01
<STATE> 3
<MEAN> 25
 2.226258e+00 1.511130e+00 -3.184587e+00 -1.977242e+00 -1.617493e+00 -1.341138e+00 -6.421771e+00 -3.940728e+00 -3.492714e+00 -2.323983e+00 1.116269e+00 1.251800e+00 1.001249e+00 -9.101071e-01 4.458615e-01 -1.750883e+00 -1.763008e+00 -1.628877e+00 -2.373890e+00 -3.088398e+00 -1.288251e+00 -5.654147e-01 2.510599e-01 2.319768e-01 2.475783e+00
<VARIANCE> 25
 1.805543e+01 2.647885e+01 1.898565e+01 3.656367e+01 4.773156e+01 3.245523e+01 4.907483e+01 5.580838e+01 2.692312e+01 3.814301e+01 1.950204e+01 1.581700e+01 2.185591e+00 3.576036e+00 2.036330e+00 2.495401e+00 2.346624e+00 2.027012e+00 3.417903e+00 6.919033e+00 3.578559e+00 5.077941e+00 2.330394e+00 2.929713e+00 2.147355e+00
<GCONST> 1.005758e+02
<STATE> 4
<MEAN> 25
 2.057636e+00 -4.387446e+00 -2.405128e+00 -5.651424e+00 -5.741901e+00 -8.586699e+00 -9.498978e+00 -5.930155e+00 -4.129583e-01 -2.897001e-01 5.744584e-01 6.426953e-01 -6.670542e-03 -3.760922e-01 1.421600e-01 4.205054e-02 -3.233978e-01 -2.608749e-01 2.376436e-01 4.914760e-01 2.685672e-01 1.091804e-01 -1.000111e-01 2.089401e-01 6.803543e-02
<VARIANCE> 25
 1.060157e+01 1.235790e+01 1.356001e+01 1.675913e+01 2.823027e+01 2.643007e+01 3.682714e+01 5.015110e+01 4.039780e+01 3.110624e+01 3.512671e+01 2.602688e+01 7.737105e-01 8.109000e-01 8.297089e-01 1.528655e+00 1.112831e+00 1.687681e+00 2.251258e+00 3.172894e+00 2.765376e+00 2.975311e+00 2.029296e+00 1.841320e+00 8.222045e-01
<GCONST> 8.993661e+01
<TRANSP> 5
 0.000000e+00 1.000000e+00 0.000000e+00 0.000000e+00 0.000000e+00
 0.000000e+00 5.831578e-01 4.168422e-01 0.000000e+00 0.000000e+00
 0.000000e+00 0.000000e+00 5.400819e-01 4.599181e-01 0.000000e+00
 0.000000e+00 0.000000e+00 0.000000e+00 8.089289e-01 1.910710e-01
 0.000000e+00 0.000000e+00 0.000000e+00 0.000000e+00 0.000000e+00
<ENDHMM>
~h "r"
<BEGINHMM>
<NUMSTATES> 5
<STATE> 2
<MEAN> 25
 -4.961518e-01 -3.739266e+00 -1.374536e+00 -9.341336e-01 -3.633424e+00 -5.640848e+00 -6.798739e+00 -3.644214e+00 -1.134461e+00 1.598847e-01 6.322778e-01 7.617228e-01 1.033292e+00 -5.019891e-01 -1.230706e-01 2.831071e-01 -1.124779e-01 -1.146904e+00 -1.416993e+00 -1.013298e+00 1.393518e-01 6.464542e-03 -4.787465e-01 -2.899727e-01 5.170417e-01
<VARIANCE> 25
 5.770107e+01 1.705682e+01 2.318686e+01 4.556241e+01 2.321968e+01 3.740170e+01 5.001024e+01 6.755503e+01 3.224389e+01 2.837531e+01 2.369902e+01 1.945039e+01 4.519804e+00 9.762837e-01 1.689685e+00 5.099916e+00 3.278162e+00 2.474700e+00 4.420671e+00 5.523018e+00 3.755331e+00 3.636894e+00 2.339370e+00 2.255009e+00 2.480410e+00
<GCONST> 1.017581e+02
<STATE> 3
<MEAN> 25
 3.642404e+00 -4.849802e+00 -9.367631e-01 1.888298e-01 -4.260700e+00 -8.644679e+00 -8.050308e+00 -5.924363e+00 -1.852630e+00 -2.389098e+00 -2.645148e+00 -4.749981e-01 -1.914136e-01 1.942456e-01 3.680814e-01 -2.978061e-01 -3.117428e-01 2.987187e-01 1.035745e+00 -5.434790e-03 -3.395265e-01 -1.418753e-01 6.859652e-02 6.935230e-03 -2.380062e-01
<VARIANCE> 25
 2.395355e+01 9.339608e+00 3.183495e+01 2.691583e+01 2.761499e+01 3.714754e+01 3.795799e+01 3.749968e+01 4.944725e+01 3.070804e+01 2.037088e+01 1.713985e+01 1.402708e+00 9.590379e-01 2.540887e+00 2.755331e+00 2.350236e+00 2.378453e+00 3.191216e+00 3.194488e+00 4.523121e+00 3.672896e+00 1.978765e+00 1.976356e+00 1.987549e+00
<GCONST> 9.663183e+01
<STATE> 4
<MEAN> 25
 1.504551e+00 -3.698902e+00 -2.563022e+00 -2.643319e+00 -2.369969e+00 -5.207874e+00 -4.171767e+00 -1.879032e+00 1.359055e+00 4.745958e-01 -1.612970e+00 -2.121184e+00 -2.374727e-01 2.087256e-01 1.863657e-01 -4.172466e-02 1.464804e-01 3.202003e-01 3.886294e-01 3.533059e-02 -2.861152e-01 -7.706489e-02 2.162180e-01 -5.828919e-02 -3.059110e-01
<VARIANCE> 25
 1.736653e+01 1.410880e+01 1.729585e+01 2.263641e+01 3.126912e+01 4.836611e+01 4.470837e+01 3.204800e+01 2.421276e+01 2.294302e+01 2.517453e+01 1.678599e+01 4.587086e-01 4.641328e-01 1.053018e+00 9.542812e-01 1.255600e+00 1.489816e+00 1.761837e+00 1.646309e+00 2.054972e+00 1.877694e+00 1.559436e+00 1.819527e+00 3.526878e-01
<GCONST> 8.587351e+01
<TRANSP> 5
 0.000000e+00 1.000000e+00 0.000000e+00 0.000000e+00 0.000000e+00
 0.000000e+00 6.864017e-01 3.135983e-01 0.000000e+00 0.000000e+00
 0.000000e+00 0.000000e+00 6.097102e-01 3.902898e-01 0.000000e+00
 0.000000e+00 0.000000e+00 0.000000e+00 7.606333e-01 2.393667e-01
 0.000000e+00 0.000000e+00 0.000000e+00 0.000000e+00 0.000000e+00
<ENDHMM>
~h "s"
<BEGINHMM>
<NUMSTATES> 5
<STATE> 2
<MEAN> 25
 -1.128081e+01 7.585454e+00 -1.568726e+00 2.022465e+00 6.108198e+00 -8.929648e-01 2.702328e+00 6.266515e+00 -7.894135e-01 1.359391e+00 1.223950e+00 1.483076e+00 -2.001012e+00 1.184189e+00 -7.510383e-01 -3.209417e-01 3.429573e-01 -5.351426e-02 5.387331e-01 6.383749e-01 4.565912e-02 4.168834e-02 9.085946e-02 2.676926e-01 8.306625e-01
<VARIANCE> 25
 2.456874e+01 1.970892e+01 1.313514e+01 1.554949e+01 2.842643e+01 3.001588e+01 2.630643e+01 2.609830e+01 2.092098e+01 2.194943e+01 2.061539e+01 1.883419e+01 3.169992e+00 1.703365e+00 1.233322e+00 1.165871e+00 2.318500e+00 2.453582e+00 2.384201e+00 1.794094e+00 2.213266e+00 1.883858e+00 1.719947e+00 1.250818e+00 1.441653e+00
<GCONST> 9.062178e+01
<STATE> 3
<MEAN> 25
 -1.445648e+01 7.455860e+00 -4.304032e+00 2.089636e+00 4.739791e+00 -1.604757e-01 4.579823e+00 6.330656e+00 7.912584e-02 2.007315e+00 6.720823e-01 2.669207e+00 3.593755e-01 -5.295345e-01 2.121998e-02 1.357270e-01 -3.461768e-01 1.468166e-01 -1.354539e-01 -1.680030e-01 1.033995e-01 -7.678755e-02 1.052226e-01 -5.537381e-02 -1.030659e-01
<VARIANCE> 25
 8.557700e+00 1.186056e+01 1.127191e+01 1.651102e+01 2.206342e+01 1.890918e+01 1.628030e+01 2.381166e+01 1.554885e+01 1.715805e+01 1.624229e+01 1.448113e+01 1.329686e+00 1.090944e+00 6.790009e-01 1.162230e+00 2.171467e+00 1.687639e+00 1.414185e+00 1.946998e+00 1.441482e+00 1.915109e+00 1.485021e+00 1.296549e+00 1.169113e+00
<GCONST> 8.310753e+01
<STATE> 4
<MEAN> 25
 -9.896700e+00 3.777207e+00 -2.805632e+00 1.738642e+00 2.109534e+00 6.624517e-01 2.190828e+00 3.951144e+00 5.562348e-01 1.117824e+00 8.361910e-01 1.153615e+00 1.259168e+00 -4.266687e-01 4.306764e-01 -1.069299e-01 -5.445408e-01 -4.260834e-01 -7.433980e-01 -7.339190e-01 -2.995519e-01 -2.824141e-01 -2.662472e-01 -2.499313e-01 1.985302e-01
<VARIANCE> 25
 4.143377e+01 1.323503e+01 1.440445e+01 1.926818e+01 3.388222e+01 2.509619e+01 2.504777e+01 2.997852e+01 1.976402e+01 2.437038e+01 2.013805e+01 1.586712e+01 2.919566e+00 1.911587e+00 1.589337e+00 1.642856e+00 3.545962e+00 2.927827e+00 3.450583e+00 3.815588e+00 2.464697e+00 2.146085e+00 1.712128e+00 1.566821e+00 1.849116e+00
<GCONST> 9.405489e+01
<TRANSP> 5
 0.000000e+00 1.000000e+00 0.000000e+00 0.000000e+00 0.000000e+00
 0.000000e+00 7.439694e-01 2.560305e-01 0.000000e+00 0.000000e+00
 0.000000e+00 0.000000e+00 7.873817e-01 2.126183e-01 0.000000e+00
 0.000000e+00 0.000000e+00 0.000000e+00 8.192123e-01 1.807877e-01
 0.000000e+00 0.000000e+00 0.000000e+00 0.000000e+00 0.000000e+00
<ENDHMM>
~h "t"
<BEGINHMM>
<NUMSTATES> 5
<STATE> 2
<MEAN> 25
 -4.219639e+00 1.336121e+00 3.070549e-01 -9.884937e-01 -6.543360e-01 8.645808e-04 -1.877158e+00 1.220678e+00 -1.614345e+00 -1.509404e+00 -2.539191e-02 1.199287e+00 -9.504648e-01 4.582761e-02 -2.361339e-01 -6.264017e-01 -5.366130e-01 -7.073982e-01 -5.220662e-01 1.605643e-01 -5.522031e-02 -2.414179e-01 -2.942180e-02 2.228856e-02 1.447162e+00
<VARIANCE> 25
 3.435656e+01 2.877120e+01 3.134506e+01 3.333751e+01 4.675423e+01 4.177116e+01 4.384109e+01 7.350537e+01 3.089279e+01 2.366930e+01 2.063864e+01 1.824593e+01 4.781383e+00 2.014884e+00 2.704558e+00 2.113419e+00 4.234654e+00 2.802059e+00 3.995590e+00 7.600543e+00 3.152766e+00 2.954140e+00 2.386179e+00 2.754916e+00 2.666662e+00
<GCONST> 1.029667e+02
<STATE> 3
<MEAN> 25
 -6.207707e+00 2.134508e+00 7.209366e-01 -4.672361e-01 -1.861467e+00 -2.489149e+00 -1.172114e+00 4.498467e+00 -6.951336e-01 -1.311567e+00 7.796252e-01 2.345531e+00 5.970203e-01 -3.671809e-01 2.773125e-01 3.090716e-01 -1.217310e-01 -2.037572e-01 -2.088589e-01 -1.353974e-01 3.250205e-01 -6.671198e-04 -6.712186e-02 -8.238534e-03 -1.316523e-01
<VARIANCE> 25
 5.072827e+01 3.037501e+01 3.121961e+01 2.699847e+01 6.545994e+01 3.254208e+01 3.740565e+01 8.645967e+01 2.486863e+01 2.203934e+01 2.656678e+01 1.897772e+01 3.703238e+00 1.960370e+00 1.862544e+00 2.046981e+00 4.030645e+00 2.805022e+00 2.998169e+00 6.243117e+00 2.445441e+00 1.824419e+00 2.600636e+00 2.032929e+00 1.938312e+00
<GCONST> 1.007967e+02
<STATE> 4
<MEAN> 25
 -1.143542e+00 1.359954e+00 -1.591724e-01 3.736392e+00 5.429515e+00 3.212641e+00 4.413356e+00 3.940412e+00 2.951175e+00 2.964759e+00 2.291543e+00 1.209510e+00 1.089803e-01 -4.343354e-02 8.528906e-03 2.066520e-02 -3.833462e-03 5.677399e-02 3.304870e-02 -1.246504e-01 6.329704e-03 6.024453e-02 4.017792e-02 -4.539078e-02 -9.584534e-02
<VARIANCE> 25
 6.753511e+00 4.991622e+00 7.853752e+00 1.044331e+01 1.977736e+01 1.794415e+01 1.930275e+01 2.139548e+01 1.530576e+01 1.651790e+01 1.430074e+01 1.213092e+01 4.027826e-01 3.527760e-01 4.942219e-01 6.987618e-01 1.063950e+00 1.119104e+00 1.298373e+00 1.807369e+00 1.537140e+00 1.575534e+00 1.338277e+00 1.127583e+00 2.856676e-01
<GCONST> 7.451173e+01
<TRANSP> 5
 0.000000e+00 1.000000e+00 0.000000e+00 0.000000e+00 0.000000e+00
 0.000000e+00 7.306188e-01 2.693813e-01 0.000000e+00 0.000000e+00
 0.000000e+00 0.000000e+00 7.473400e-01 2.526600e-01 0.000000e+00
 0.000000e+00 0.000000e+00 0.000000e+00 9.396418e-01 6.035813e-02
 0.000000e+00 0.000000e+00 0.000000e+00 0.000000e+00 0.000000e+00
<ENDHMM>
~h "v"
<BEGINHMM>
<NUMSTATES> 5
<STATE> 2
<MEAN> 25
 3.201267e+00 -5.400621e-01 1.725936e+00 2.144415e+00 -1.255092e+00 -1.872052e+00 -1.941761e+00 7.975096e-02 1.676613e+00 1.192459e+00 -2.453568e+00 9.837117e-02 -4.835045e-01 4.014102e-01 -6.346030e-01 1.649784e-01 6.054248e-01 7.817740e-01 1.011749e+00 5.413246e-01 8.096883e-01 8.973215e-01 4.691830e-01 5.502743e-02 -1.009483e+00
<VARIANCE> 25
 2.235265e+01 1.614972e+01 2.269131e+01 3.624634e+01 3.349225e+01 3.788186e+01 3.886006e+01 2.891134e+01 3.373789e+01 3.049784e+01 2.275825e+01 1.052911e+01 7.702075e-01 9.217630e-01 1.119534e+00 1.465940e+00 1.556491e+00 2.541054e+00 2.962857e+00 1.713608e+00 2.973603e+00 2.872295e+00 2.339794e+00 1.209814e+00 1.165097e+00
<GCONST> 9.162428e+01
<STATE> 3
<MEAN> 25
 3.559313e-01 2.532911e+00 8.291771e-01 4.632341e+00 3.574408e+00 8.358753e-01 1.695762e+00 1.701994e+00 1.117714e+00 2.160948e+00 7.243344e-01 9.820144e-02 -4.800603e-01 2.230035e-02 -2.198816e-01 -5.885330e-03 4.255863e-01 1.245048e-01 3.823473e-01 3.502258e-01 -4.168009e-02 1.924629e-02 2.185604e-01 1.727314e-03 -3.329665e-01
<VARIANCE> 25
 2.140440e+01 1.173065e+01 1.289727e+01 2.291964e+01 2.544457e+01 1.657981e+01 2.060538e+01 1.986256e+01 1.903364e+01 1.699127e+01 1.585296e+01 1.414509e+01 7.844225e-01 7.868120e-01 6.692072e-01 9.472030e-01 1.786178e+00 1.633568e+00 2.149406e+00 1.532978e+00 2.365538e+00 2.118381e+00 1.268263e+00 1.219003e+00 5.826684e-01
<GCONST> 8.324442e+01
<STATE> 4
<MEAN> 25
 -7.239057e-01 9.046471e-01 -6.074018e-01 3.640438e+00 5.433011e+00 2.579399e+00 3.967035e+00 3.011857e+00 2.401531e+00 3.250342e+00 2.067417e+00 7.025054e-01 -1.692198e-02 -1.800529e-02 -3.081525e-02 -3.403292e-02 4.848687e-02 2.398917e-02 1.273790e-03 -1.649367e-02 1.278713e-02 3.122265e-02 6.635709e-02 1.475612e-02 -4.024283e-02
<VARIANCE> 25
 2.842291e+00 4.156228e+00 5.866667e+00 1.109427e+01 1.244910e+01 1.142128e+01 1.020688e+01 1.181664e+01 1.341833e+01 1.491902e+01 1.634333e+01 1.143858e+01 2.053691e-01 2.700301e-01 4.607285e-01 6.542637e-01 9.318928e-01 9.699201e-01 1.125255e+00 1.291103e+00 1.535215e+00 1.423079e+00 1.387873e+00 1.242098e+00 1.302523e-01
<GCONST> 6.834048e+01
<TRANSP> 5
 0.000000e+00 1.000000e+00 0.000000e+00 0.000000e+00 0.000000e+00
 0.000000e+00 5.480461e-01 4.519539e-01 0.000000e+00 0.000000e+00
 0.000000e+00 0.000000e+00 8.048518e-01 1.951481e-01 0.000000e+00
 0.000000e+00 0.000000e+00 0.000000e+00 9.319659e-01 6.803399e-02
 0.000000e+00 0.000000e+00 0.000000e+00 0.000000e+00 0.000000e+00
<ENDHMM>
~h "w"
<BEGINHMM>
<NUMSTATES> 5
<STATE> 2
<MEAN> 25
 6.931717e+00 3.289625e+00 1.672016e+00 -4.119447e+00 -5.235957e+00 -7.779282e-01 -5.239834e+00 -5.512125e+00 -3.834402e+00 -4.749330e+00 -2.918526e+00 4.801426e-01 7.126010e-01 -1.600503e-01 4.568201e-02 -1.302499e+00 -1.560731e+00 -7.843953e-01 -1.090725e+00 -1.181451e+00 -7.371832e-01 -7.637376e-01 -2.511170e-01 -1.098330e-01 1.645004e+00
<VARIANCE> 25
 1.839114e+01 2.601098e+01 1.591478e+01 3.991356e+01 4.901775e+01 3.129416e+01 3.195762e+01 4.071811e+01 3.462460e+01 4.363334e+01 3.129828e+01 1.883023e+01 3.191233e+00 2.214691e+00 1.505208e+00 2.305672e+00 5.891929e+00 3.848909e+00 4.698223e+00 5.841095e+00 3.502201e+00 8.248978e+00 5.154660e+00 1.800244e+00 7.657636e-01
<GCONST> 1.017351e+02
<STATE> 3
<MEAN> 25
 4.958150e+00 -3.303838e+00 -9.660600e-01 -5.246862e+00 -6.788269e+00 -7.506144e+00 -1.007798e+01 -1.089583e+01 -8.563396e+00 -5.332255e+00 1.320213e+00 4.235759e+00 9.754916e-02 2.139488e-02 -2.571528e-01 -1.400876e-01 -1.868841e-01 3.154805e-01 2.991540e-01 -2.171831e-01 2.689817e-02 -2.712170e-01 -7.919324e-02 -9.688442e-02 1.010415e-01
<VARIANCE> 25
 1.113516e+01 2.681459e+01 2.320289e+01 1.628652e+01 1.769583e+01 2.443718e+01 3.866404e+01 6.321540e+01 4.259908e+01 5.034182e+01 5.932579e+01 3.067951e+01 8.813850e-01 7.236237e-01 1.056693e+00 1.586117e+00 2.568257e+00 2.161385e+00 2.779958e+00 4.186017e+00 4.387161e+00 5.049358e+00 4.115312e+00 2.424757e+00 9.542747e-01
<GCONST> 9.621523e+01
<STATE> 4
<MEAN> 25
 5.197827e+00 -8.161110e-01 -3.576373e-01 -6.976215e+00 -7.695367e+00 -2.900895e+00 -6.503043e+00 -8.668243e+00 -4.641613e+00 -3.716432e+00 -2.003506e+00 -7.398416e-01 -1.680451e-01 -2.630858e-01 2.850242e-02 -3.411004e-01 -2.197106e-01 -4.443701e-02 1.878388e-01 2.991693e-01 2.699946e-01 -2.457205e-01 -3.019870e-01 4.899509e-03 3.129268e-01
<VARIANCE> 25
 1.644398e+01 3.241309e+01 1.266401e+01 2.348188e+01 2.273535e+01 3.219135e+01 3.464996e+01 4.050995e+01 5.394982e+01 5.688837e+01 3.062292e+01 1.334580e+01 4.751050e-01 6.759197e-01 9.303182e-01 1.228884e+00 1.478547e+00 1.243868e+00 3.118647e+00 1.883460e+00 2.791318e+00 3.105245e+00 1.905553e+00 1.347521e+00 8.164936e-01
<GCONST> 9.008268e+01
<TRANSP> 5
 0.000000e+00 1.000000e+00 0.000000e+00 0.000000e+00 0.000000e+00
 0.000000e+00 7.911618e-01 2.088382e-01 0.000000e+00 0.000000e+00
 0.000000e+00 0.000000e+00 6.228288e-01 3.771712e-01 0.000000e+00
 0.000000e+00 0.000000e+00 0.000000e+00 5.683668e-01 4.316332e-01
 0.000000e+00 0.000000e+00 0.000000e+00 0.000000e+00 0.000000e+00
<ENDHMM>
~h "y"
<BEGINHMM>
<NUMSTATES> 5
<STATE> 2
<MEAN> 25
 9.064275e-01 1.895306e+00 7.019596e+00 2.041948e+00 -5.793417e+00 -6.232005e-02 -6.871556e+00 -3.907131e+00 -4.273217e+00 -5.326273e+00 -1.814353e-01 -2.126962e-01 3.766358e-01 1.546680e-01 1.463931e+00 -1.314067e+00 -1.742244e+00 -5.994220e-02 -1.737362e+00 -2.593657e+00 -1.442680e+00 -2.086389e+00 -6.767385e-01 -3.825675e-01 1.931117e+00
<VARIANCE> 25
 1.195066e+01 2.577723e+01 6.459608e+01 3.427663e+01 6.248253e+01 5.750026e+01 4.047649e+01 7.764391e+01 3.058852e+01 4.827986e+01 2.618847e+01 1.920546e+01 2.304914e+00 1.649722e+00 6.932582e+00 5.066514e+00 6.215415e+00 5.419156e+00 5.604807e+00 7.784837e+00 3.943300e+00 6.419696e+00 2.967085e+00 3.090656e+00 3.932695e+00
<GCONST> 1.081415e+02
<STATE> 3
<MEAN> 25
 1.701174e+00 -2.506438e+00 3.600948e+00 -1.527806e+00 -7.259671e+00 -5.401765e+00 -9.725649e+00 -8.069248e+00 -7.174074e+00 -7.531704e+00 -2.528433e+00 1.009015e-01 2.342327e-01 -3.204379e-01 -6.574918e-01 -1.899753e-01 1.921352e-01 -1.380464e-01 1.488902e-01 -1.872867e-01 3.419487e-01 4.600435e-01 -1.538732e-01 -2.564219e-01 2.575430e-01
<VARIANCE> 25
 1.451604e+01 1.820902e+01 4.626653e+01 2.978132e+01 2.599602e+01 4.656231e+01 3.310100e+01 4.503173e+01 3.323642e+01 3.937254e+01 3.567495e+01 3.399375e+01 8.893096e-01 1.350922e+00 2.984703e+00 3.168315e+00 2.299706e+00 4.163363e+00 2.921506e+00 4.473731e+00 4.327251e+00 4.537920e+00 2.900471e+00 3.495600e+00 1.788337e+00
<GCONST> 1.005701e+02
<STATE> 4
<MEAN> 25
 3.996666e+00 -1.296548e+00 6.449885e-01 7.039054e-03 -3.683229e+00 -3.597273e+00 -5.808515e+00 -7.976282e+00 -4.428066e+00 -2.169848e+00 -3.041084e+00 -3.917151e+00 4.605227e-02 1.667917e-01 2.776491e-02 1.179563e-01 3.434388e-01 -5.080884e-03 2.411161e-01 2.081471e-01 -2.706720e-03 2.299212e-01 3.069584e-01 1.523767e-01 -5.034404e-01
<VARIANCE> 25
 1.496177e+01 2.057287e+01 3.525906e+01 4.270642e+01 4.280993e+01 3.122394e+01 3.505808e+01 2.939631e+01 2.419880e+01 2.352778e+01 2.113953e+01 2.436224e+01 4.771578e-01 6.211714e-01 1.061586e+00 1.215550e+00 1.541497e+00 2.273668e+00 1.655621e+00 1.866062e+00 1.934148e+00 1.320391e+00 1.514428e+00 1.712574e+00 6.809708e-01
<GCONST> 8.864541e+01
<TRANSP> 5
 0.000000e+00 1.000000e+00 0.000000e+00 0.000000e+00 0.000000e+00
 0.000000e+00 4.944975e-01 5.055025e-01 0.000000e+00 0.000000e+00
 0.000000e+00 0.000000e+00 7.609453e-01 2.390547e-01 0.000000e+00
 0.000000e+00 0.000000e+00 0.000000e+00 7.879601e-01 2.120399e-01
 0.000000e+00 0.000000e+00 0.000000e+00 0.000000e+00 0.000000e+00
<ENDHMM>
~h "z"
<BEGINHMM>
<NUMSTATES> 5
<STATE> 2
<MEAN> 25
 -6.731283e+00 8.997178e+00 -6.725531e-01 2.395949e+00 4.913668e+00 -8.643704e-01 2.343670e-01 4.358623e+00 -1.968443e+00 -1.180771e-01 -2.315660e+00 1.062739e-01 -1.483222e+00 9.709548e-01 -2.433922e-01 -9.790721e-02 6.666296e-01 -1.588947e-01 4.101342e-01 3.919374e-01 -8.544466e-02 -3.713246e-02 -1.057361e-01 -1.491285e-01 6.785070e-01
<VARIANCE> 25
 2.692202e+01 1.644808e+01 2.335089e+01 2.154117e+01 2.586933e+01 3.678406e+01 2.127476e+01 2.213467e+01 1.682146e+01 2.437639e+01 3.227538e+01 1.749752e+01 1.928095e+00 2.103605e+00 1.505651e+00 1.873370e+00 2.239105e+00 3.458102e+00 2.398262e+00 1.628813e+00 1.734161e+00 2.023143e+00 2.492624e+00 1.403566e+00 8.493840e-01
<GCONST> 9.181693e+01
<STATE> 3
<MEAN> 25
 -1.217705e+01 8.807852e+00 -2.077849e+00 1.783362e+00 8.620517e+00 -1.733281e+00 3.947509e+00 8.582897e+00 -1.887657e+00 2.899113e+00 2.494086e-01 5.712860e-01 6.419339e-01 -7.298157e-01 3.660283e-01 9.654457e-02 -1.387664e-01 -4.832335e-01 -3.523990e-01 -2.774999e-02 -8.223390e-02 -3.582356e-01 4.068755e-02 1.593100e-01 2.094500e-02
<VARIANCE> 25
 1.436232e+01 1.527797e+01 1.045094e+01 1.459259e+01 2.450040e+01 2.260233e+01 1.785394e+01 3.381814e+01 2.103582e+01 2.111989e+01 3.079756e+01 1.789459e+01 1.435519e+00 1.147290e+00 1.095608e+00 1.454963e+00 1.797295e+00 2.516333e+00 2.568348e+00 3.027079e+00 2.346588e+00 2.084460e+00 2.161916e+00 1.183271e+00 1.095130e+00
<GCONST> 8.863628e+01
<STATE> 4
<MEAN> 25
 -2.446782e+00 1.722580e+00 3.012035e-01 3.888559e+00 6.685957e+00 1.882334e+00 3.894049e+00 5.072296e+00 1.282071e+00 1.271276e+00 -5.925586e-01 -2.008921e-01 6.030485e-01 -2.271871e-01 3.039822e-01 -5.447760e-02 -5.043530e-01 8.012111e-01 1.145428e-01 -7.836840e-01 2.792294e-01 6.929903e-02 -1.009975e-01 -5.885259e-02 -2.706371e-01
<VARIANCE> 25
 1.073806e+01 8.291363e+00 1.144273e+01 1.116132e+01 2.473545e+01 4.031797e+01 2.739811e+01 3.091047e+01 2.355546e+01 1.502695e+01 1.872211e+01 9.756876e+00 8.481191e-01 7.334442e-01 1.101102e+00 1.144651e+00 1.117583e+00 2.189188e+00 3.007953e+00 2.384570e+00 2.171548e+00 2.250026e+00 1.935861e+00 1.188327e+00 4.662998e-01
<GCONST> 8.428743e+01
<TRANSP> 5
 0.000000e+00 1.000000e+00 0.000000e+00 0.000000e+00 0.000000e+00
 0.000000e+00 7.489678e-01 2.510323e-01 0.000000e+00 0.000000e+00
 0.000000e+00 0.000000e+00 8.545365e-01 1.454635e-01 0.000000e+00
 0.000000e+00 0.000000e+00 0.000000e+00 7.469952e-01 2.530048e-01
 0.000000e+00 0.000000e+00 0.000000e+00 0.000000e+00 0.000000e+00
<ENDHMM>
~h "aa"
<BEGINHMM>
<NUMSTATES> 5
<STATE> 2
<MEAN> 25
 1.266170e+00 -7.285735e+00 -6.058513e+00 -1.154835e+01 -4.709788e+00 1.735741e+00 -2.540334e-01 -5.421238e+00 -3.274470e+00 -1.693466e+00 -1.545946e+00 -2.425486e+00 1.821267e-01 -3.804686e-01 -2.511500e-01 -5.013198e-01 -2.613956e-01 3.134845e-01 2.117676e-01 -3.716783e-01 -1.534080e-01 -1.061521e-01 -2.411762e-01 -2.019571e-01 4.680541e-01
<VARIANCE> 25
 1.393374e+01 1.833523e+01 1.227676e+01 2.686957e+01 3.338376e+01 3.834815e+01 5.827399e+01 2.589033e+01 2.428754e+01 2.995804e+01 1.981044e+01 4.086396e+01 1.219367e+00 1.237917e+00 7.472712e-01 1.844904e+00 2.212299e+00 2.691795e+00 2.645035e+00 2.630565e+00 2.371526e+00 2.872057e+00 1.916314e+00 1.970978e+00 2.571672e+00
<GCONST> 9.369783e+01
<STATE> 3
<MEAN> 25
 2.486981e+00 -7.579107e+00 -7.905676e+00 -9.607018e+00 -1.307133e+00 7.098642e+00 4.777749e+00 -5.972616e+00 -3.764791e+00 1.218320e-01 -4.149081e+00 -4.947166e+00 3.728845e-02 3.231972e-01 1.546439e-01 4.197178e-01 2.801130e-01 -4.768956e-01 -4.744145e-01 3.596044e-01 2.942872e-01 2.601404e-02 -1.410884e-01 2.154260e-02 -4.277678e-01
<VARIANCE> 25
 2.067178e+01 1.222677e+01 9.430074e+00 2.310319e+01 2.430963e+01 3.598357e+01 3.444053e+01 3.424405e+01 2.069378e+01 2.688737e+01 1.220110e+01 1.819486e+01 5.931568e-01 6.385385e-01 6.706864e-01 7.748099e-01 8.761329e-01 2.081135e+00 2.112654e+00 1.821684e+00 1.489354e+00 2.005033e+00 1.444792e+00 1.303820e+00 8.638602e-01
<GCONST> 8.433788e+01
<STATE> 4
<MEAN> 25
 3.217172e+00 -3.427382e+00 -5.420037e+00 -6.121048e+00 -2.084167e+00 2.067596e+00 -1.207076e+00 -2.611677e+00 -1.400198e+00 -2.111992e+00 -3.136741e+00 -2.748544e+00 -9.511264e-02 7.965769e-01 8.294944e-01 1.005210e+00 3.788568e-01 -7.890571e-01 -5.283588e-01 8.991899e-01 1.850457e-01 -1.240772e-01 5.391861e-01 7.212779e-01 -7.194756e-01
<VARIANCE> 25
 2.296277e+01 3.021671e+01 1.880818e+01 1.918662e+01 3.167503e+01 5.629803e+01 4.026476e+01 4.520202e+01 2.391070e+01 2.724901e+01 2.484752e+01 2.865578e+01 2.537280e+00 9.543989e-01 1.487163e+00 1.632835e+00 2.164555e+00 5.427117e+00 2.825169e+00 3.560263e+00 2.831080e+00 2.606247e+00 2.585128e+00 2.246794e+00 1.314993e+00
<GCONST> 9.699326e+01
<TRANSP> 5
 0.000000e+00 1.000000e+00 0.000000e+00 0.000000e+00 0.000000e+00
 0.000000e+00 8.872620e-01 1.127379e-01 0.000000e+00 0.000000e+00
 0.000000e+00 0.000000e+00 7.320429e-01 2.679571e-01 0.000000e+00
 0.000000e+00 0.000000e+00 0.000000e+00 6.967158e-01 3.032842e-01
 0.000000e+00 0.000000e+00 0.000000e+00 0.000000e+00 0.000000e+00
<ENDHMM>
~h "ae"
<BEGINHMM>
<NUMSTATES> 5
<STATE> 2
<MEAN> 25
 -5.473334e-02 -3.061471e+00 -2.387861e+00 -8.316844e-01 -2.369186e-01 -1.226894e+00 8.416155e-01 3.947071e+00 -7.990707e-02 -5.848189e-01 -1.640919e+00 -7.435207e-01 2.401734e-01 -1.374771e+00 -5.593615e-01 -1.414887e+00 -1.176109e+00 -7.495748e-01 -2.945454e-01 4.090931e-01 -4.544909e-01 -1.595188e+00 -2.127334e+00 -7.141865e-01 2.689249e+00
<VARIANCE> 25
 2.415644e+01 2.802265e+01 1.460840e+01 2.924003e+01 3.908196e+01 3.097351e+01 3.720384e+01 7.244324e+01 3.966558e+01 2.779891e+01 3.902726e+01 1.753440e+01 2.260730e+00 2.451062e+00 1.785300e+00 2.252933e+00 3.046351e+00 2.730727e+00 3.400372e+00 6.261183e+00 3.889315e+00 3.120178e+00 3.804043e+00 2.848585e+00 3.905526e+00
<GCONST> 1.015758e+02
<STATE> 3
<MEAN> 25
 -6.686653e-01 -7.927184e+00 -5.131789e+00 -6.533894e+00 -1.373984e+00 -1.220369e+00 6.375700e-01 8.690837e-01 3.985735e-01 -6.314919e+00 -1.042971e+01 -3.388801e+00 4.421676e-02 -1.643988e-01 -1.552910e-01 -2.396172e-01 -6.619513e-02 3.856273e-02 1.050273e-01 -1.745100e-01 1.883948e-01 -1.212336e-01 -4.079356e-01 -3.011777e-01 4.044371e-01
<VARIANCE> 25
 1.383738e+01 7.247077e+00 1.044009e+01 1.062576e+01 2.055128e+01 2.825207e+01 1.318228e+01 4.758446e+01 3.730822e+01 1.822201e+01 2.316171e+01 2.187676e+01 6.719770e-01 5.940422e-01 5.474128e-01 1.106603e+00 1.412579e+00 2.091986e+00 1.362887e+00 1.819024e+00 1.637613e+00 1.623123e+00 2.508703e+00 1.765251e+00 1.926281e+00
<GCONST> 8.451217e+01
<STATE> 4
<MEAN> 25
 2.603858e+00 -5.884943e+00 -1.874498e+00 -3.643734e+00 -4.612072e+00 -2.458024e+00 -1.692340e+00 -1.379103e-01 2.695586e+00 -2.841923e+00 -7.347701e+00 -4.682378e+00 3.464214e-01 5.844983e-01 5.631871e-01 6.744266e-01 1.590484e-01 3.798110e-01 -3.136308e-01 -2.917815e-01 -2.676120e-01 2.227036e-01 6.201969e-01 2.312545e-03 -1.055190e+00
<VARIANCE> 25
 2.062121e+01 1.270924e+01 1.809131e+01 2.103983e+01 1.909064e+01 4.515477e+01 4.844271e+01 5.320398e+01 3.059025e+01 2.293881e+01 2.553535e+01 2.560067e+01 1.659909e+00 8.676161e-01 1.047590e+00 1.769875e+00 2.117157e+00 3.223525e+00 4.679836e+00 3.501665e+00 3.119342e+00 2.710257e+00 2.445318e+00 1.972284e+00 1.881860e+00
<GCONST> 9.514693e+01
<TRANSP> 5
 0.000000e+00 1.000000e+00 0.000000e+00 0.000000e+00 0.000000e+00
 0.000000e+00 6.547514e-01 3.452486e-01 0.000000e+00 0.000000e+00
 0.000000e+00 0.000000e+00 8.256140e-01 1.743861e-01 0.000000e+00
 0.000000e+00 0.000000e+00 0.000000e+00 8.316531e-01 1.683469e-01
 0.000000e+00 0.000000e+00 0.000000e+00 0.000000e+00 0.000000e+00
<ENDHMM>
~h "ah"
<BEGINHMM>
<NUMSTATES> 5
<STATE> 2
<MEAN> 25
 2.538167e-01 -4.743717e+00 -1.949237e+00 -4.925265e+00 -4.343969e+00 -3.866350e+00 -3.734674e+00 -1.737663e+00 9.553229e-01 -1.681071e+00 -4.253476e+00 -2.942813e+00 3.302636e-01 -2.835360e-01 -5.298623e-02 -2.050827e-01 -1.580468e-01 -4.208387e-02 -3.663696e-01 -1.763995e-01 1.915361e-01 1.242820e-01 -3.726434e-01 -4.078832e-01 3.490181e-01
<VARIANCE> 25
 2.080970e+01 2.316964e+01 3.254782e+01 2.978183e+01 4.122867e+01 4.462077e+01 4.348059e+01 4.106959e+01 2.817834e+01 2.630424e+01 3.324367e+01 3.448779e+01 1.946653e+00 1.539402e+00 1.826761e+00 1.865317e+00 2.913367e+00 3.595456e+00 3.096726e+00 3.685488e+00 2.724509e+00 2.787293e+00 3.129892e+00 2.596352e+00 2.975782e+00
<GCONST> 9.997967e+01
<STATE> 3
<MEAN> 25
 4.461733e+00 -3.914529e+00 -7.442844e-01 -4.376323e+00 -3.714729e+00 -1.004719e+00 -6.694955e+00 -4.554508e+00 1.360178e+00 7.944713e-02 -4.382842e+00 -4.267605e+00 4.604929e-01 4.436808e-01 1.711696e-01 5.010184e-01 5.759153e-01 9.856935e-01 3.652405e-01 -2.815353e-01 -3.302134e-01 -4.582363e-02 7.930900e-02 1.723062e-01 -9.196184e-01
<VARIANCE> 25
 2.125282e+01 1.730265e+01 2.725880e+01 3.110700e+01 2.407424e+01 5.422142e+01 4.769174e+01 3.209869e+01 3.114165e+01 3.597330e+01 2.445481e+01 2.725240e+01 1.629838e+00 1.191276e+00 1.579174e+00 2.112918e+00 1.736500e+00 2.866657e+00 2.684369e+00 2.796160e+00 2.394101e+00 2.668116e+00 2.192822e+00 1.847654e+00 1.961473e+00
<GCONST> 9.604453e+01
<STATE> 4
<MEAN> 25
 2.193628e+00 -2.441154e+00 -1.836314e+00 -2.872750e+00 2.326465e-01 1.460127e+00 -1.760762e+00 -2.685699e+00 -3.514526e-02 4.752434e-01 -2.419426e+00 -2.144081e+00 -2.484406e-02 3.604356e-01 9.992080e-02 2.648275e-01 3.599913e-01 1.858675e-01 3.059353e-01 1.877081e-01 -2.417551e-01 -7.590780e-02 3.001629e-01 3.175588e-01 -6.294941e-01
<VARIANCE> 25
 4.016927e+01 2.423258e+01 2.965006e+01 4.251036e+01 3.116265e+01 4.276653e+01 4.154879e+01 5.137777e+01 3.414367e+01 2.977669e+01 2.756136e+01 2.419395e+01 1.480269e+00 1.070979e+00 9.196697e-01 1.289695e+00 1.392805e+00 2.317570e+00 2.198679e+00 2.221502e+00 2.295254e+00 2.370250e+00 1.922373e+00 1.519999e+00 1.064134e+00
<GCONST> 9.447243e+01
<TRANSP> 5
 0.000000e+00 1.000000e+00 0.000000e+00 0.000000e+00 0.000000e+00
 0.000000e+00 8.617095e-01 1.382905e-01 0.000000e+00 0.000000e+00
 0.000000e+00 0.000000e+00 6.313568e-01 3.686432e-01 0.000000e+00
 0.000000e+00 0.000000e+00 0.000000e+00 7.789779e-01 2.210221e-01
 0.000000e+00 0.000000e+00 0.000000e+00 0.000000e+00 0.000000e+00
<ENDHMM>
~h "ao"
<BEGINHMM>
<NUMSTATES> 5
<STATE> 2
<MEAN> 25
 3.916602e+00 -2.815618e+00 -4.573343e+00 -5.943604e+00 -3.450797e+00 1.363420e+00 1.778536e+00 2.648678e-01 -1.768885e+00 -2.092169e-01 1.938606e-01 -4.880731e-02 6.023604e-01 -7.008351e-01 -3.580298e-02 -1.520538e+00 -1.562597e+00 -9.582680e-01 3.085028e-01 -5.572773e-01 -5.400571e-01 -1.078861e+00 -5.984192e-01 -2.545824e-01 1.789053e+00
<VARIANCE> 25
 1.768227e+01 2.107390e+01 7.743263e+00 4.110228e+01 2.559236e+01 4.977612e+01 2.726495e+01 1.880679e+01 1.837196e+01 2.744913e+01 1.211903e+01 1.265662e+01 1.739125e+00 1.476675e+00 1.175981e+00 4.135067e+00 3.592723e+00 5.559781e+00 2.915288e+00 1.848844e+00 2.490391e+00 2.812292e+00 1.305147e+00 1.290972e+00 5.939280e+00
<GCONST> 9.372968e+01
<STATE> 3
<MEAN> 25
 3.427569e+00 -5.522623e+00 -5.073148e+00 -8.642105e+00 -6.270455e+00 -3.320392e+00 7.257870e-01 -1.840585e+00 -1.823751e+00 -1.629541e+00 6.439351e-01 -9.231548e-01 -1.093658e-01 6.931859e-02 -1.341580e-01 -1.383938e-01 -3.259792e-01 -6.085186e-01 3.045129e-01 2.556653e-01 -1.484821e-01 -4.388320e-01 -3.249707e-01 -1.791422e-02 1.912465e-01
<VARIANCE> 25
 1.059510e+01 6.721923e+00 8.202178e+00 2.246275e+01 1.314435e+01 3.117023e+01 2.307316e+01 1.907062e+01 2.357421e+01 2.730551e+01 8.188396e+00 1.621257e+01 6.648527e-01 6.849154e-01 4.571671e-01 1.690472e+00 1.404186e+00 1.877718e+00 2.446449e+00 1.721732e+00 1.078662e+00 1.444426e+00 1.340299e+00 1.158248e+00 1.061579e+00
<GCONST> 8.119311e+01
<STATE> 4
<MEAN> 25
 2.310584e+00 -4.871615e+00 -4.187986e+00 -9.188065e+00 -7.786916e+00 -5.722692e+00 4.273612e+00 4.633205e+00 1.054740e+00 -3.310262e+00 -8.706771e-01 2.035333e+00 3.075837e-02 1.387969e-02 1.683968e-02 1.489357e-01 1.641940e-01 -4.878503e-02 5.589861e-02 1.217535e-01 9.214020e-02 1.537175e-01 8.847988e-02 1.609721e-01 -9.258286e-02
<VARIANCE> 25
 7.365458e+00 3.279086e+00 3.860282e+00 8.183217e+00 1.017783e+01 1.604589e+01 1.866302e+01 1.781315e+01 2.060073e+01 1.586369e+01 8.356523e+00 1.238425e+01 2.674504e-01 3.226786e-01 3.317941e-01 4.690934e-01 6.506357e-01 9.322532e-01 1.432189e+00 1.326334e+00 1.467346e+00 1.201002e+00 1.289371e+00 9.825844e-01 1.238551e-01
<GCONST> 6.846120e+01
<TRANSP> 5
 0.000000e+00 1.000000e+00 0.000000e+00 0.000000e+00 0.000000e+00
 0.000000e+00 5.060459e-01 4.939541e-01 0.000000e+00 0.000000e+00
 0.000000e+00 0.000000e+00 4.009420e-02 9.599058e-01 0.000000e+00
 0.000000e+00 0.000000e+00 0.000000e+00 8.315277e-01 1.684722e-01
 0.000000e+00 0.000000e+00 0.000000e+00 0.000000e+00 0.000000e+00
<ENDHMM>
~h "aw"
<BEGINHMM>
<NUMSTATES> 5
<STATE> 2
<MEAN> 25
 5.370811e+00 -4.879585e+00 -4.036654e+00 -8.137379e+00 -5.239392e-01 4.650851e+00 1.798977e+00 -4.225839e+00 8.748681e-01 5.741472e-01 -2.803111e+00 -2.486076e+00 6.667972e-01 6.343080e-01 1.032491e-01 -9.671244e-02 1.967490e-01 4.377922e-01 -1.072333e+00 -1.576765e-01 4.874031e-01 -4.003657e-02 6.202179e-01 5.278978e-01 -9.168997e-01
<VARIANCE> 25
 1.206085e+01 1.432153e+01 9.690949e+00 2.567443e+01 1.974461e+01 1.776514e+01 2.815054e+01 2.346321e+01 2.060058e+01 1.949544e+01 2.144869e+01 2.514458e+01 4.299706e-01 6.766282e-01 5.600753e-01 7.061965e-01 8.902414e-01 1.230617e+00 3.352263e+00 2.492152e+00 2.130683e+00 2.026668e+00 8.949419e-01 9.908757e-01 5.882815e-01
<GCONST> 8.211821e+01
<STATE> 3
<MEAN> 25
 7.810745e+00 1.239140e+00 -1.643197e+00 -4.532691e+00 5.939211e-01 5.918685e+00 -4.213303e+00 -4.257920e+00 -9.105665e-01 -1.136663e+00 1.187211e+00 7.557460e-01 -5.217437e-01 8.643120e-01 2.180496e-01 1.444724e+00 7.449542e-01 -8.900733e-02 8.487890e-01 2.881981e-01 -9.843547e-01 -4.758813e-01 -4.235977e-01 1.967869e-01 -1.254788e+00
<VARIANCE> 25
 1.023969e+01 7.553329e+00 1.340162e+01 2.961258e+01 1.389028e+01 2.123699e+01 4.738511e+01 2.169453e+01 2.224070e+01 2.174130e+01 1.828170e+01 1.784009e+01 5.589070e-01 9.739448e-01 1.074769e+00 1.527197e+00 1.140983e+00 2.674238e+00 3.392170e+00 2.537073e+00 1.841879e+00 2.889598e+00 1.767781e+00 8.299253e-01 6.115727e-01
<GCONST> 8.558844e+01
<STATE> 4
<MEAN> 25
 3.783536e+00 3.594154e+00 1.582049e-01 9.706119e-01 3.318385e+00 4.192179e+00 8.312342e-01 -1.120837e+00 -2.696486e+00 -2.508056e+00 2.865112e-01 9.037955e-01 -1.053379e+00 -6.510878e-02 -8.856582e-02 3.479306e-01 2.876002e-01 -2.356705e-01 6.182238e-01 8.943093e-01 1.991377e-01 4.750367e-01 -8.790157e-02 1.508977e-01 -4.077925e-01
<VARIANCE> 25
 1.203521e+01 1.068239e+01 1.050943e+01 2.178739e+01 1.813888e+01 1.452956e+01 3.089833e+01 3.084480e+01 2.061584e+01 1.546285e+01 1.720943e+01 2.026586e+01 6.565819e-01 1.145928e+00 1.229072e+00 1.441137e+00 1.504831e+00 2.301529e+00 2.791805e+00 2.245476e+00 1.229170e+00 2.049983e+00 1.493031e+00 1.533919e+00 6.973006e-01
<GCONST> 8.504710e+01
<TRANSP> 5
 0.000000e+00 1.000000e+00 0.000000e+00 0.000000e+00 0.000000e+00
 0.000000e+00 7.460217e-01 2.539783e-01 0.000000e+00 0.000000e+00
 0.000000e+00 0.000000e+00 6.178086e-01 3.821914e-01 0.000000e+00
 0.000000e+00 0.000000e+00 0.000000e+00 6.524443e-01 3.475557e-01
 0.000000e+00 0.000000e+00 0.000000e+00 0.000000e+00 0.000000e+00
<ENDHMM>
~h "ay"
<BEGINHMM>
<NUMSTATES> 5
<STATE> 2
<MEAN> 25
 1.691408e+00 -5.617109e+00 -7.335735e-01 -3.025738e+00 -2.046438e+00 -2.437418e+00 -4.192739e+00 -4.027814e+00 3.014579e-01 -1.368112e+00 -5.730557e+00 -4.726588e+00 -3.532301e-02 -2.449819e-01 1.498806e-01 -1.216254e-01 -2.521301e-01 -3.175528e-01 -1.430414e-01 2.349530e-02 1.392824e-01 -4.366837e-01 -5.136019e-01 -1.714050e-01 6.301465e-01
<VARIANCE> 25
 1.398028e+01 2.272336e+01 6.298744e+01 4.295117e+01 3.928083e+01 3.126669e+01 3.247911e+01 3.516557e+01 3.172978e+01 2.455354e+01 3.867181e+01 2.661045e+01 1.129880e+00 1.095735e+00 3.901875e+00 1.725130e+00 2.502249e+00 2.834550e+00 3.204901e+00 4.626964e+00 2.402297e+00 2.721555e+00 4.201033e+00 1.873721e+00 1.579053e+00
<GCONST> 9.853312e+01
<STATE> 3
<MEAN> 25
 2.548428e+00 -4.191476e+00 2.212584e+00 -3.189269e+00 -7.263758e+00 -5.027715e+00 -1.257900e+00 8.531648e-01 9.638333e-01 -2.440372e+00 -4.419637e+00 -3.067014e+00 2.913823e-01 4.405549e-01 4.030478e-01 5.827847e-01 -1.111284e-01 6.510932e-01 2.133885e-01 -3.764637e-01 -5.524753e-01 1.307471e-01 4.442045e-01 4.494904e-01 -1.030444e+00
<VARIANCE> 25
 1.532638e+01 1.562368e+01 3.924170e+01 2.854261e+01 2.939030e+01 3.798888e+01 2.507154e+01 2.732165e+01 2.378428e+01 1.960572e+01 2.531162e+01 2.415952e+01 9.492057e-01 7.307489e-01 2.843782e+00 1.339231e+00 3.071076e+00 3.086591e+00 3.022334e+00 2.683436e+00 2.336582e+00 1.625062e+00 2.267929e+00 2.477175e+00 1.068031e+00
<GCONST> 9.299426e+01
<STATE> 4
<MEAN> 25
 1.798385e+00 -5.698880e+00 -3.361073e+00 -4.507780e+00 -2.488899e+00 -8.216960e-01 -3.504893e+00 -3.327856e+00 -7.273060e-01 -5.431210e-01 -4.132980e+00 -4.081754e+00 -1.168757e-01 3.336557e-01 9.140248e-02 2.425776e-01 1.252976e-01 1.505748e-01 1.116737e-01 -1.459750e-01 -1.892367e-01 -1.196882e-01 1.831964e-01 4.617850e-01 -3.470874e-01
<VARIANCE> 25
 1.813188e+01 2.472948e+01 5.265074e+01 3.241034e+01 4.026542e+01 4.083618e+01 4.043991e+01 2.443487e+01 1.976205e+01 1.320768e+01 1.581582e+01 2.000866e+01 4.182607e-01 4.868390e-01 1.217946e+00 8.087283e-01 1.967548e+00 1.971247e+00 1.437763e+00 1.747877e+00 1.739366e+00 1.281554e+00 1.464452e+00 1.555756e+00 2.904928e-01
<GCONST> 8.617658e+01
<TRANSP> 5
 0.000000e+00 1.000000e+00 0.000000e+00 0.000000e+00 0.000000e+00
 0.000000e+00 8.324062e-01 1.675938e-01 0.000000e+00 0.000000e+00
 0.000000e+00 0.000000e+00 8.183687e-01 1.816313e-01 0.000000e+00
 0.000000e+00 0.000000e+00 0.000000e+00 7.441889e-01 2.558111e-01
 0.000000e+00 0.000000e+00 0.000000e+00 0.000000e+00 0.000000e+00
<ENDHMM>
~h "ch"
<BEGINHMM>
<NUMSTATES> 5
<STATE> 2
<MEAN> 25
 -1.570408e-01 9.618303e-01 1.869611e+00 4.447627e+00 3.535894e+00 3.495884e+00 2.284351e+00 6.543520e-02 3.843137e+00 1.654643e+00 2.168784e+00 4.845902e-01 -2.661466e-01 -2.975494e-01 -1.757639e-01 -2.032526e-01 -2.101723e-01 3.534251e-01 -4.222219e-01 -1.563447e-01 5.450073e-02 1.149392e-01 3.479757e-01 3.638618e-01 2.443466e-01
<VARIANCE> 25
 2.005601e+01 5.201196e+00 7.563356e+00 1.925870e+01 1.568034e+01 2.589642e+01 3.697854e+01 3.713498e+01 2.257225e+01 3.298751e+01 7.185144e+00 1.606463e+01 5.581866e-01 7.429252e-01 6.227552e-01 1.517083e+00 9.520773e-01 2.707983e+00 1.542034e+00 2.253180e+00 2.287679e+00 2.774374e+00 1.421133e+00 1.947248e+00 4.958350e-01
<GCONST> 8.358834e+01
<STATE> 3
<MEAN> 25
 -1.038490e+01 2.064387e+00 8.273869e-01 -1.527295e+00 1.792090e+00 3.000302e+00 -2.833783e+00 5.279854e-01 3.107270e+00 -3.934979e+00 3.165109e+00 4.066080e+00 -1.480098e+00 -5.625659e-01 -4.124335e-01 -8.164021e-01 -6.341287e-01 -1.339455e+00 -1.945494e-01 -4.070817e-02 4.129814e-01 -2.820983e-02 5.513809e-01 1.037290e+00 1.648141e+00
<VARIANCE> 25
 4.070021e+01 8.598305e+00 8.081001e+00 2.900260e+01 2.591658e+01 7.211260e+01 2.798819e+01 5.946891e+01 1.018247e+01 1.916678e+01 9.407611e+00 1.524278e+01 2.729984e+00 1.008039e+00 1.158718e+00 1.306261e+00 1.027653e+00 8.402749e+00 3.341357e+00 1.371599e+00 1.775952e+00 3.349414e+00 1.354658e+00 1.077170e+00 2.020350e+00
<GCONST> 9.042068e+01
<STATE> 4
<MEAN> 25
 -1.191183e+01 -7.207711e-01 2.738204e+00 -1.426089e+00 -2.149755e+00 -4.073502e+00 -1.491862e-01 -6.622272e-01 4.187859e+00 -2.570996e+00 3.937661e+00 3.670972e+00 2.248465e+00 -2.352982e-01 7.389393e-01 8.784429e-01 -1.198353e+00 -7.823898e-01 -5.492611e-01 -1.351915e-01 -1.515357e-01 -1.058696e-01 -9.515070e-01 -3.731037e-01 -1.300265e-01
<VARIANCE> 25
 5.064477e+01 6.326959e+00 2.104285e+01 1.796857e+01 2.048804e+01 2.829619e+01 5.024015e+01 3.189293e+01 2.486336e+01 1.720607e+01 8.140260e+00 1.844658e+01 3.431860e+00 5.796021e-01 3.029365e+00 2.777534e+00 1.191671e+00 3.304579e+00 3.953326e+00 3.381808e+00 3.356067e+00 1.101291e+00 1.795328e+00 1.194239e+00 1.643240e+00
<GCONST> 9.181174e+01
<TRANSP> 5
 0.000000e+00 1.000000e+00 0.000000e+00 0.000000e+00 0.000000e+00
 0.000000e+00 7.301567e-01 2.698433e-01 0.000000e+00 0.000000e+00
 0.000000e+00 0.000000e+00 6.590815e-01 3.409185e-01 0.000000e+00
 0.000000e+00 0.000000e+00 0.000000e+00 6.930037e-01 3.069963e-01
 0.000000e+00 0.000000e+00 0.000000e+00 0.000000e+00 0.000000e+00
<ENDHMM>
~h "dh"
<BEGINHMM>
<NUMSTATES> 5
<STATE> 2
<MEAN> 25
 -5.275420e-01 4.681627e-01 4.606734e+00 -3.917699e+00 -6.939642e+00 -6.078805e+00 -8.147265e+00 -5.939634e+00 -6.792480e-01 -2.242297e+00 -2.879706e+00 -2.014567e+00 -4.960790e-01 -5.670699e-01 -1.375332e-01 -8.169336e-01 -1.756110e+00 -2.461833e+00 -8.276486e-01 3.745269e-01 4.990603e-01 1.195309e+00 2.752205e-01 2.688137e-01 1.932240e+00
<VARIANCE> 25
 1.896813e+01 1.829380e+01 1.413043e+01 9.492693e+00 4.666510e+01 2.549596e+01 2.197021e+01 2.107496e+01 2.414986e+01 2.570580e+01 3.308414e+01 1.308711e+01 3.385267e+00 1.591593e+00 1.657283e+00 9.957116e-01 4.044326e+00 3.135891e+00 4.521692e+00 3.821539e+00 1.997620e+00 3.240300e+00 2.974226e+00 2.620338e+00 2.328981e+00
<GCONST> 9.475723e+01
<STATE> 3
<MEAN> 25
 2.663446e+00 -3.641363e+00 2.033316e+00 -3.212743e+00 -8.329638e+00 -9.708899e+00 -6.842846e+00 1.970363e+00 4.982421e+00 5.410649e-01 -5.782055e+00 -6.268373e-01 3.734322e-01 -2.191781e-01 -3.892823e-01 3.761241e-01 1.318836e-01 2.025877e-01 3.167489e-01 4.808013e-01 2.886789e-01 4.032494e-01 1.535907e-01 2.176198e-01 -1.124109e-01
<VARIANCE> 25
 9.806908e+00 1.225491e+01 1.177041e+01 2.273038e+01 1.536414e+01 8.437984e+00 2.451772e+01 2.564404e+01 2.953803e+01 1.649530e+01 1.483833e+01 1.094544e+01 7.732932e-01 4.765768e-01 7.747951e-01 1.488480e+00 7.773311e-01 1.422058e+00 1.458201e+00 1.820998e+00 1.348559e+00 1.458639e+00 7.912985e-01 1.319147e+00 8.604242e-01
<GCONST> 7.970291e+01
<STATE> 4
<MEAN> 25
 4.172767e+00 -3.613532e+00 -1.243962e-01 -3.800085e-01 -8.774356e+00 -7.298287e+00 -4.462460e+00 2.821674e+00 5.881601e+00 8.503332e-01 -4.125090e+00 4.045933e-01 8.976158e-01 3.537347e-01 -3.759883e-01 1.494604e+00 2.698904e-01 6.744863e-01 2.928956e-01 6.587602e-01 -3.237940e-02 1.484910e-01 -6.369539e-02 2.833798e-01 -1.234490e+00
<VARIANCE> 25
 2.909516e+01 8.352089e+00 8.733119e+00 3.831886e+01 3.143135e+01 8.416903e+00 1.941127e+01 4.242325e+01 1.127828e+01 1.234255e+01 1.830945e+01 1.458142e+01 6.516975e-01 5.498420e-01 5.691577e-01 1.975011e+00 1.951661e+00 2.187585e+00 1.070350e+00 1.500957e+00 7.598698e-01 1.345105e+00 1.271397e+00 1.537616e+00 1.132173e+00
<GCONST> 8.190036e+01
<TRANSP> 5
 0.000000e+00 1.000000e+00 0.000000e+00 0.000000e+00 0.000000e+00
 0.000000e+00 6.127741e-01 3.872259e-01 0.000000e+00 0.000000e+00
 0.000000e+00 0.000000e+00 7.492691e-01 2.507309e-01 0.000000e+00
 0.000000e+00 0.000000e+00 0.000000e+00 7.117558e-01 2.882442e-01
 0.000000e+00 0.000000e+00 0.000000e+00 0.000000e+00 0.000000e+00
<ENDHMM>
~h "eh"
<BEGINHMM>
<NUMSTATES> 5
<STATE> 2
<MEAN> 25
 1.191972e-01 -3.862898e+00 -2.362164e-01 -3.217645e+00 -7.072925e+00 -6.812989e+00 -1.733464e+00 -5.264235e-01 5.922359e-02 -2.754137e+00 -3.986678e+00 -1.688183e+00 2.756236e-02 -7.927601e-01 -9.635296e-02 -5.348952e-01 -8.143933e-01 -5.950186e-01 5.071945e-02 2.578618e-01 5.178866e-01 -6.203399e-01 -9.082468e-01 -5.390365e-01 1.213082e+00
<VARIANCE> 25
 1.788449e+01 1.619014e+01 2.977019e+01 3.425687e+01 4.428177e+01 3.017803e+01 4.042006e+01 3.955599e+01 3.507339e+01 2.796393e+01 3.732859e+01 1.700914e+01 2.384669e+00 1.542883e+00 2.238719e+00 1.606069e+00 2.568639e+00 3.090200e+00 3.528730e+00 4.273642e+00 3.866558e+00 3.368738e+00 3.313035e+00 1.849829e+00 3.111139e+00
<GCONST> 9.934152e+01
<STATE> 3
<MEAN> 25
 1.403192e+00 -5.357905e+00 -1.221561e-01 -6.137536e+00 -7.194507e+00 -5.019966e+00 -3.073448e+00 -2.240078e+00 2.615438e-01 -3.778596e+00 -5.427581e+00 -3.683103e+00 3.180164e-02 7.178379e-02 -1.616729e-01 1.300479e-02 4.003785e-01 4.969110e-01 1.726763e-02 -5.151250e-02 8.455481e-02 -1.051727e-01 -3.109311e-01 1.670521e-03 -1.927404e-01
<VARIANCE> 25
 1.243579e+01 1.113854e+01 2.886110e+01 2.766394e+01 3.231032e+01 2.793569e+01 3.541331e+01 4.092227e+01 4.430983e+01 2.694397e+01 3.828207e+01 1.986073e+01 1.055241e+00 6.082119e-01 9.678806e-01 1.068165e+00 1.327828e+00 1.833170e+00 2.027844e+00 1.989963e+00 2.295088e+00 2.317135e+00 2.411690e+00 1.947804e+00 1.495419e+00
<GCONST> 9.085835e+01
<STATE> 4
<MEAN> 25
 -8.815564e-02 -5.917333e+00 -2.287116e+00 -5.094279e+00 -4.248889e+00 -2.938719e+00 -1.094904e+00 3.166423e-02 2.309806e+00 -3.778713e+00 -6.224905e+00 -3.190480e+00 2.698451e-01 2.330110e-01 1.886817e-01 9.685638e-02 -9.464253e-02 3.233047e-01 -2.404311e-01 -1.964601e-01 -3.399472e-02 2.744510e-01 2.976487e-01 1.292268e-01 -4.355346e-01
<VARIANCE> 25
 2.237631e+01 1.790083e+01 1.794147e+01 2.179268e+01 2.265692e+01 3.556955e+01 3.691737e+01 2.695597e+01 2.899233e+01 3.082185e+01 4.336211e+01 2.656088e+01 1.519006e+00 6.342738e-01 1.052236e+00 9.714916e-01 1.291594e+00 3.174175e+00 2.993914e+00 2.081673e+00 2.070885e+00 2.280842e+00 2.540425e+00 2.125551e+00 1.222835e+00
<GCONST> 9.201308e+01
<TRANSP> 5
 0.000000e+00 1.000000e+00 0.000000e+00 0.000000e+00 0.000000e+00
 0.000000e+00 7.911338e-01 2.088662e-01 0.000000e+00 0.000000e+00
 0.000000e+00 0.000000e+00 7.591677e-01 2.408323e-01 0.000000e+00
 0.000000e+00 0.000000e+00 0.000000e+00 8.782314e-01 1.217686e-01
 0.000000e+00 0.000000e+00 0.000000e+00 0.000000e+00 0.000000e+00
<ENDHMM>
~h "er"
<BEGINHMM>
<NUMSTATES> 5
<STATE> 2
<MEAN> 25
 7.520206e+00 -3.381175e+00 -9.423638e-01 1.294825e+00 -8.218446e+00 -9.976437e+00 -9.665164e+00 -1.358698e+00 1.839249e+00 -2.506560e-01 -2.502116e+00 3.155162e+00 5.102023e-01 3.017370e-01 -2.380873e-01 1.096869e+00 7.096420e-01 -1.659274e-01 2.227255e-01 8.061198e-01 -1.269786e-01 -2.574680e-01 -1.114093e-01 2.258432e-01 -7.678707e-01
<VARIANCE> 25
 1.818965e+01 1.150462e+01 1.225926e+01 3.129206e+01 2.679235e+01 2.258308e+01 2.494939e+01 4.621766e+01 3.697786e+01 1.619322e+01 2.212844e+01 1.423945e+01 7.917111e-01 5.033801e-01 8.059134e-01 1.468384e+00 1.976193e+00 1.471583e+00 1.217007e+00 1.300574e+00 1.401588e+00 1.343096e+00 1.621672e+00 1.133983e+00 5.543890e-01
<GCONST> 8.427050e+01
<STATE> 3
<MEAN> 25
 5.061867e+00 -5.118220e-01 -7.899704e-01 6.272091e+00 -7.765716e-02 -7.497092e+00 -4.526004e+00 3.873503e+00 3.371625e+00 1.163141e-01 -1.530056e+00 2.557158e+00 -1.053645e+00 4.292289e-01 9.593804e-02 -2.545240e-01 1.049469e+00 1.056497e+00 1.214677e+00 9.746339e-02 -2.467385e-02 2.818632e-01 4.238135e-01 -5.123145e-01 -9.561169e-01
<VARIANCE> 25
 2.193449e+01 1.052790e+01 1.209163e+01 3.190461e+01 2.569783e+01 2.263528e+01 2.442755e+01 3.077164e+01 2.540658e+01 2.020805e+01 1.798476e+01 1.512110e+01 1.345319e+00 8.449702e-01 9.332249e-01 1.650529e+00 1.723034e+00 1.809798e+00 1.655484e+00 1.648627e+00 1.840438e+00 1.983454e+00 1.835125e+00 1.245389e+00 7.063125e-01
<GCONST> 8.665440e+01
<STATE> 4
<MEAN> 25
 1.232619e+00 -4.063797e+00 -2.927041e+00 -1.161052e+00 -9.871636e-01 -4.095697e+00 -1.146746e+00 3.544089e-01 2.323546e+00 8.819613e-01 -2.236632e+00 -1.479556e+00 -1.767621e-01 7.588357e-02 4.474118e-02 8.956672e-02 2.907946e-01 3.643199e-01 3.409449e-01 3.178786e-02 1.268991e-01 1.157874e-01 3.246741e-02 -2.072231e-01 -3.292206e-01
<VARIANCE> 25
 1.512206e+01 1.741680e+01 1.339358e+01 4.267899e+01 2.868625e+01 2.734979e+01 3.366081e+01 3.095918e+01 1.972540e+01 1.922712e+01 2.531907e+01 1.559751e+01 7.955991e-01 4.114998e-01 8.026269e-01 7.686364e-01 1.212402e+00 1.613770e+00 1.491062e+00 1.305957e+00 1.854785e+00 2.028868e+00 1.836691e+00 1.525160e+00 3.756079e-01
<GCONST> 8.451413e+01
<TRANSP> 5
 0.000000e+00 1.000000e+00 0.000000e+00 0.000000e+00 0.000000e+00
 0.000000e+00 6.889189e-01 3.110811e-01 0.000000e+00 0.000000e+00
 0.000000e+00 0.000000e+00 7.014452e-01 2.985548e-01 0.000000e+00
 0.000000e+00 0.000000e+00 0.000000e+00 8.370232e-01 1.629768e-01
 0.000000e+00 0.000000e+00 0.000000e+00 0.000000e+00 0.000000e+00
<ENDHMM>
~h "ey"
<BEGINHMM>
<NUMSTATES> 5
<STATE> 2
<MEAN> 25
 -2.129211e+00 -3.028332e+00 4.431643e+00 -4.671758e+00 -1.278825e+01 -8.508942e+00 -2.910354e+00 -4.891360e+00 -1.908463e+00 -1.568687e+00 1.474110e+00 7.777647e-01 -9.155141e-02 2.884850e-01 6.622704e-01 -1.632771e-01 -5.972243e-01 2.353249e-01 -2.761118e-01 -8.252163e-01 -5.862057e-01 5.718698e-02 2.145567e-01 -1.903439e-01 2.049346e-01
<VARIANCE> 25
 1.134932e+01 9.603407e+00 1.712869e+01 1.496203e+01 1.802728e+01 2.040313e+01 3.840956e+01 5.551959e+01 3.093415e+01 2.106645e+01 2.582478e+01 1.376184e+01 4.273639e-01 7.996598e-01 1.261563e+00 1.523876e+00 2.554144e+00 2.397755e+00 2.293945e+00 3.099258e+00 2.372695e+00 1.966282e+00 2.319552e+00 1.358240e+00 2.381657e+00
<GCONST> 8.901903e+01
<STATE> 3
<MEAN> 25
 -2.301893e+00 1.746405e-01 1.010998e+01 -4.328074e+00 -1.364199e+01 -4.057421e+00 -4.333775e+00 -9.122165e+00 -4.549768e+00 -1.806915e+00 1.675246e+00 3.160716e-01 1.585605e-01 4.399993e-01 5.059830e-01 3.599175e-01 1.101820e-01 4.920206e-01 -2.358364e-01 -1.073843e-01 -2.492866e-01 -3.440968e-01 -8.833586e-02 3.494471e-03 -5.619010e-01
<VARIANCE> 25
 1.076308e+01 1.245791e+01 3.004979e+01 1.000283e+01 1.249036e+01 3.240002e+01 3.421021e+01 2.832988e+01 1.955821e+01 1.831990e+01 1.644952e+01 1.237015e+01 4.427125e-01 4.549085e-01 7.511968e-01 7.514880e-01 1.424119e+00 1.391485e+00 1.700632e+00 2.411375e+00 1.020758e+00 1.452785e+00 1.362658e+00 1.139674e+00 5.116348e-01
<GCONST> 8.071255e+01
<STATE> 4
<MEAN> 25
 2.050804e-01 2.441300e-01 7.847478e+00 -1.196168e+00 -9.167390e+00 -1.762949e+00 -3.877551e+00 -6.830953e+00 -2.922490e+00 -3.334291e+00 6.270754e-01 3.019122e-01 3.973438e-01 1.135109e-01 -4.573343e-01 4.841844e-01 8.784915e-01 4.767242e-01 6.513480e-02 5.167174e-01 3.963789e-01 -3.071518e-02 -2.775598e-01 1.380256e-03 -9.588184e-01
<VARIANCE> 25
 1.650561e+01 1.581939e+01 3.468571e+01 2.659728e+01 2.852075e+01 4.064078e+01 3.141036e+01 3.464013e+01 3.007866e+01 4.015552e+01 2.305987e+01 1.644716e+01 1.410647e+00 8.028921e-01 1.953413e+00 1.713469e+00 1.816565e+00 2.287807e+00 2.379438e+00 2.242480e+00 2.205192e+00 3.166107e+00 1.912084e+00 1.786980e+00 1.035854e+00
<GCONST> 9.306023e+01
<TRANSP> 5
 0.000000e+00 1.000000e+00 0.000000e+00 0.000000e+00 0.000000e+00
 0.000000e+00 8.481165e-01 1.518835e-01 0.000000e+00 0.000000e+00
 0.000000e+00 0.000000e+00 6.248521e-01 3.751480e-01 0.000000e+00
 0.000000e+00 0.000000e+00 0.000000e+00 8.566895e-01 1.433105e-01
 0.000000e+00 0.000000e+00 0.000000e+00 0.000000e+00 0.000000e+00
<ENDHMM>
~h "hh"
<BEGINHMM>
<NUMSTATES> 5
<STATE> 2
<MEAN> 25
 -2.688359e+00 -6.175671e+00 -4.210177e+00 -5.555945e+00 -4.838452e-01 1.329254e+00 4.902819e-01 -8.094010e-01 9.092713e-01 -3.385517e+00 -5.945882e+00 -2.191353e+00 9.131820e-02 -1.486180e-01 -6.590252e-02 -1.480238e-01 1.640203e-01 1.676095e-01 2.824947e-01 9.224899e-02 2.861508e-01 2.708092e-01 3.514388e-02 -4.268755e-01 1.448850e-02
<VARIANCE> 25
 6.743149e+00 1.712610e+01 1.527145e+01 3.014511e+01 3.552346e+01 5.159702e+01 2.635197e+01 4.597192e+01 1.523545e+01 3.872226e+01 2.788649e+01 2.700937e+01 4.420657e-01 4.362226e-01 5.513313e-01 1.235505e+00 1.042799e+00 1.609473e+00 1.310913e+00 1.699719e+00 8.672749e-01 2.358707e+00 1.865310e+00 2.731822e+00 1.020671e+00
<GCONST> 8.609939e+01
<STATE> 3
<MEAN> 25
 -1.222051e+00 -2.096903e+00 -2.012320e+00 -1.063437e+00 3.444218e+00 3.213265e+00 1.444447e+00 1.604122e-01 1.551628e+00 2.460894e-01 -1.755173e+00 -3.343276e-01 2.369203e-01 1.495962e-01 2.783715e-01 1.664429e-01 -3.588482e-02 -2.152637e-01 -3.062670e-02 4.093257e-02 -7.575567e-02 7.183381e-01 -5.903067e-02 -4.972278e-02 -3.579401e-01
<VARIANCE> 25
 8.643548e+00 3.234491e+01 2.717757e+01 3.928283e+01 4.232127e+01 4.546720e+01 3.323036e+01 3.829342e+01 1.546180e+01 3.228654e+01 3.745720e+01 1.587160e+01 4.119309e-01 8.152394e-01 7.213261e-01 5.229183e-01 8.194899e-01 1.927863e+00 1.313484e+00 1.191913e+00 1.451794e+00 1.901654e+00 2.746986e+00 1.585195e+00 3.542403e-01
<GCONST> 8.615351e+01
<STATE> 4
<MEAN> 25
 -1.451631e-01 2.935629e+00 2.011097e+00 4.569525e+00 3.665438e+00 2.725054e+00 4.019093e+00 2.302880e+00 1.888197e+00 2.984701e+00 3.608198e+00 1.681019e+00 5.550985e-02 -1.176177e-01 -5.170047e-02 9.486321e-03 -7.385546e-02 -1.051352e-01 8.188719e-02 3.052915e-03 -1.182400e-01 -1.304152e-01 -1.031220e-01 2.934568e-02 1.275459e-01
<VARIANCE> 25
 2.534775e+00 1.005752e+01 6.839646e+00 9.730165e+00 9.356823e+00 1.085015e+01 1.249487e+01 1.281548e+01 1.301670e+01 2.197056e+01 1.367725e+01 8.058118e+00 3.482542e-01 6.583951e-01 4.430972e-01 4.648977e-01 8.270907e-01 9.334368e-01 9.948985e-01 1.202278e+00 1.373302e+00 1.829447e+00 1.143333e+00 9.734702e-01 4.875312e-01
<GCONST> 7.061551e+01
<TRANSP> 5
 0.000000e+00 1.000000e+00 0.000000e+00 0.000000e+00 0.000000e+00
 0.000000e+00 7.921551e-01 2.078448e-01 0.000000e+00 0.000000e+00
 0.000000e+00 0.000000e+00 2.574605e-01 7.425395e-01 0.000000e+00
 0.000000e+00 0.000000e+00 0.000000e+00 9.153448e-01 8.465523e-02
 0.000000e+00 0.000000e+00 0.000000e+00 0.000000e+00 0.000000e+00
<ENDHMM>
~h "ih"
<BEGINHMM>
<NUMSTATES> 5
<STATE> 2
<MEAN> 25
 -5.665601e-01 2.468090e-01 8.066258e+00 -1.905865e+00 -1.019275e+01 -3.456758e+00 -6.045448e+00 -8.904108e+00 -6.852158e+00 -6.759178e+00 -5.958379e-01 6.193408e-01 2.042746e-01 4.001125e-02 1.885822e-01 4.793726e-02 -2.572606e-01 3.393404e-01 6.796786e-02 -1.341783e-01 -1.038220e-01 1.035825e-01 4.386208e-02 5.518642e-02 -2.748884e-01
<VARIANCE> 25
 1.742268e+01 1.411882e+01 4.104751e+01 2.631850e+01 3.047873e+01 3.456508e+01 2.985073e+01 5.395402e+01 2.871916e+01 3.557219e+01 2.421975e+01 2.156983e+01 1.919404e+00 1.232179e+00 3.020283e+00 2.032552e+00 4.262232e+00 3.167336e+00 3.495751e+00 3.741096e+00 3.432268e+00 3.938198e+00 2.223408e+00 1.894521e+00 2.929432e+00
<GCONST> 9.893484e+01
<STATE> 3
<MEAN> 25
 -1.394634e+00 2.711263e+00 3.775029e+00 1.786447e+00 -3.009483e+00 -1.290427e+00 -2.565806e+00 -3.224626e+00 -3.221269e+00 -2.171623e+00 -9.046317e-01 1.500039e+00 -1.104714e+00 -6.272971e-02 -1.223434e+00 -5.804684e-01 6.959212e-01 -1.230894e-01 3.715695e-01 6.047707e-01 7.401704e-01 5.970454e-01 1.630159e-01 8.092321e-02 4.549538e-01
<VARIANCE> 25
 4.507396e+01 1.842499e+01 2.222468e+01 2.704274e+01 2.368405e+01 2.754494e+01 3.685797e+01 4.134673e+01 2.086838e+01 2.627844e+01 1.827958e+01 1.701979e+01 2.719495e+00 1.191024e+00 1.842787e+00 1.502994e+00 2.544188e+00 2.242676e+00 3.233412e+00 3.022371e+00 2.338916e+00 2.674381e+00 1.920534e+00 1.586531e+00 2.294088e+00
<GCONST> 9.491734e+01
<STATE> 4
<MEAN> 25
 -6.169593e+00 -3.503599e-01 -1.311220e+00 -1.753669e+00 -2.586787e+00 -2.086918e+00 -8.840165e-01 2.107007e+00 5.584772e-01 -1.246392e-01 3.909060e-02 7.936829e-01 1.354354e-01 -1.670781e-01 -1.788040e-01 1.177165e-01 3.045345e-01 1.699297e-01 2.759598e-01 2.122461e-01 -3.501957e-02 6.563755e-02 3.652765e-02 -5.072778e-02 -3.219098e-01
<VARIANCE> 25
 5.841917e+01 2.648354e+01 2.125887e+01 2.318884e+01 2.453245e+01 3.335923e+01 2.864650e+01 4.540463e+01 2.633230e+01 2.568889e+01 3.069262e+01 1.776861e+01 1.227540e+00 9.786621e-01 1.189289e+00 9.898837e-01 1.378823e+00 1.182521e+00 1.701617e+00 1.773004e+00 1.471802e+00 1.648879e+00 1.768242e+00 1.368807e+00 7.471579e-01
<GCONST> 8.960661e+01
<TRANSP> 5
 0.000000e+00 1.000000e+00 0.000000e+00 0.000000e+00 0.000000e+00
 0.000000e+00 8.906910e-01 1.093090e-01 0.000000e+00 0.000000e+00
 0.000000e+00 0.000000e+00 6.753257e-01 3.246743e-01 0.000000e+00
 0.000000e+00 0.000000e+00 0.000000e+00 7.989115e-01 2.010885e-01
 0.000000e+00 0.000000e+00 0.000000e+00 0.000000e+00 0.000000e+00
<ENDHMM>
~h "iy"
<BEGINHMM>
<NUMSTATES> 5
<STATE> 2
<MEAN> 25
 -2.186886e+00 1.548253e+00 1.022859e+01 -2.563017e+00 -1.095459e+01 -3.736586e+00 -6.037681e+00 -1.037289e+01 -7.948565e+00 -9.049072e+00 -1.446976e+00 -1.644935e+00 2.034840e-01 3.843816e-02 7.600657e-01 -1.544529e-01 -6.399685e-01 7.288379e-01 -9.043291e-02 -5.323043e-01 -6.483531e-02 -1.845226e-01 9.734548e-02 -3.581532e-01 -7.726623e-02
<VARIANCE> 25
 8.252779e+00 1.081425e+01 2.317390e+01 1.142157e+01 2.147522e+01 3.775988e+01 2.924574e+01 2.461516e+01 2.517980e+01 1.938202e+01 2.598882e+01 1.853829e+01 5.117677e-01 8.526494e-01 1.318443e+00 1.242207e+00 1.761472e+00 1.467054e+00 1.882412e+00 2.335569e+00 1.485742e+00 1.963921e+00 1.449199e+00 1.281324e+00 1.048942e+00
<GCONST> 8.549381e+01
<STATE> 3
<MEAN> 25
 -9.982275e-01 1.629498e-01 9.960468e+00 -1.360342e+00 -1.282525e+01 -4.832770e+00 -4.043707e+00 -1.093946e+01 -6.367860e+00 -6.917387e+00 -3.212579e-01 -1.481783e+00 5.063400e-01 -1.314541e-01 -6.276716e-02 8.484043e-01 2.978987e-01 -2.582768e-01 1.284631e-01 3.818639e-01 -6.921438e-02 4.612762e-01 2.465490e-01 4.048313e-01 -8.140742e-01
<VARIANCE> 25
 1.916110e+01 8.084991e+00 2.716857e+01 3.444305e+01 2.093419e+01 3.363170e+01 2.536011e+01 2.610441e+01 2.851942e+01 2.186697e+01 3.045922e+01 2.076541e+01 6.847723e-01 6.145675e-01 1.616483e+00 1.796013e+00 2.100428e+00 2.260626e+00 2.303537e+00 2.009558e+00 1.969807e+00 2.459001e+00 2.261606e+00 1.670660e+00 1.312318e+00
<GCONST> 9.023781e+01
<STATE> 4
<MEAN> 25
 1.678619e+00 6.753742e-01 5.850255e+00 4.031618e+00 -4.198107e+00 -4.580308e+00 -3.303981e+00 -4.860581e+00 -4.504397e+00 -2.554320e+00 3.614363e-02 1.407571e+00 -2.276292e-01 4.640413e-02 -8.194986e-01 -2.490968e-02 1.107091e+00 1.334552e-01 3.283821e-01 7.545527e-01 7.595147e-01 2.723904e-01 -2.738762e-01 4.013652e-02 -3.958092e-01
<VARIANCE> 25
 1.270583e+01 1.531603e+01 2.183549e+01 2.480234e+01 4.030532e+01 3.924339e+01 3.044907e+01 2.567032e+01 2.715953e+01 1.837006e+01 2.066177e+01 1.446424e+01 6.077415e-01 7.665968e-01 1.361708e+00 1.059327e+00 2.042960e+00 1.555483e+00 1.961869e+00 1.884802e+00 2.978050e+00 2.143032e+00 2.195055e+00 1.389112e+00 5.520107e-01
<GCONST> 8.789309e+01
<TRANSP> 5
 0.000000e+00 1.000000e+00 0.000000e+00 0.000000e+00 0.000000e+00
 0.000000e+00 7.554079e-01 2.445921e-01 0.000000e+00 0.000000e+00
 0.000000e+00 0.000000e+00 8.247282e-01 1.752718e-01 0.000000e+00
 0.000000e+00 0.000000e+00 0.000000e+00 8.350946e-01 1.649054e-01
 0.000000e+00 0.000000e+00 0.000000e+00 0.000000e+00 0.000000e+00
<ENDHMM>
~h "jh"
<BEGINHMM>
<NUMSTATES> 5
<STATE> 2
<MEAN> 25
 -2.043396e+00 -4.976918e+00 -1.798385e-01 -5.314592e+00 -7.651092e+00 -7.602958e+00 -3.177182e+00 -9.522093e+00 -6.861700e+00 -6.026733e+00 -8.358719e-01 -3.538921e-01 3.097485e-01 -6.821664e-02 1.008337e+00 1.881598e-01 -3.524151e-01 9.468371e-01 -4.184504e-01 -5.757610e-02 4.692044e-01 1.364348e-01 -1.221639e+00 -9.962666e-01 -5.888104e-01
<VARIANCE> 25
 2.509010e+00 2.105676e+00 6.818189e+00 1.727709e+01 1.451952e+01 1.337104e+01 8.785794e+00 2.561083e+01 1.971119e+01 1.618840e+01 6.069883e+00 1.754643e+01 1.423359e+00 2.253661e-01 1.543364e+00 1.407131e+00 1.283654e+00 8.606491e-01 1.052287e+00 1.694930e+00 2.456788e+00 2.158701e+00 7.296869e-01 3.596740e-01 1.326546e+00
<GCONST> 7.442883e+01
<STATE> 3
<MEAN> 25
 3.913020e-01 -4.316103e+00 1.626917e+00 -5.683414e+00 -8.144444e+00 -5.038342e+00 -5.104665e+00 -8.091970e+00 -5.520607e+00 -4.374702e+00 -2.129253e+00 -3.370995e-02 5.991125e-01 2.025290e-01 1.264906e+00 3.638939e-01 -5.316574e-01 1.548021e+00 -1.110032e+00 1.806704e-01 5.634890e-01 -4.766405e-01 -1.487923e+00 -5.188186e-01 -1.052803e+00
<VARIANCE> 25
 1.663562e+01 5.382728e+00 7.850509e+00 1.873116e+01 9.840755e+00 1.362541e+01 1.502264e+01 1.577809e+01 2.070335e+01 1.571630e+01 1.325217e+01 1.879743e+01 1.115042e+00 3.504133e-01 2.062367e+00 1.352362e+00 2.192761e+00 1.564089e+00 1.519220e+00 9.504486e-01 4.877727e+00 1.669282e+00 1.686941e+00 8.250498e-01 1.758900e+00
<GCONST> 8.178013e+01
<STATE> 4
<MEAN> 25
 -2.425342e+00 6.501774e-01 7.173905e+00 -1.125922e+00 -8.741390e+00 -5.284731e-03 -3.408753e+00 -5.341994e+00 -5.305180e+00 -7.584488e+00 -3.184278e+00 -3.081010e+00 5.463812e-02 1.307738e-01 2.508031e-01 3.485537e-01 2.397757e-02 -3.295452e-02 -2.594528e-01 4.095462e-01 4.735947e-01 -1.597268e-02 5.743321e-02 2.971454e-01 -2.560789e-01
<VARIANCE> 25
 4.068675e+01 2.039826e+01 3.014098e+01 2.233214e+01 4.319039e+01 2.852489e+01 2.081574e+01 2.164507e+01 2.079383e+01 1.945153e+01 1.881734e+01 3.121148e+01 6.357383e+00 1.902412e+00 4.756523e+00 2.883950e+00 6.552330e+00 3.298956e+00 1.165953e+00 2.609051e+00 2.281899e+00 2.138206e+00 2.135350e+00 1.585207e+00 3.698237e+00
<GCONST> 9.819475e+01
<TRANSP> 5
 0.000000e+00 1.000000e+00 0.000000e+00 0.000000e+00 0.000000e+00
 0.000000e+00 6.677802e-02 9.332220e-01 0.000000e+00 0.000000e+00
 0.000000e+00 0.000000e+00 1.979912e-01 8.020089e-01 0.000000e+00
 0.000000e+00 0.000000e+00 0.000000e+00 8.738862e-01 1.261138e-01
 0.000000e+00 0.000000e+00 0.000000e+00 0.000000e+00 0.000000e+00
<ENDHMM>
~h "ng"
<BEGINHMM>
<NUMSTATES> 5
<STATE> 2
<MEAN> 25
 4.504258e+00 3.538448e+00 1.569155e+00 4.452375e+00 3.763353e+00 3.007659e+00 2.110418e+00 -2.929344e+00 -2.102506e+00 8.265312e-01 -1.209257e+00 4.633775e-01 -3.005571e-01 2.411755e-01 -5.437480e-01 3.342522e-01 7.563186e-01 9.094065e-02 3.188842e-01 1.783591e-01 3.511996e-01 5.418355e-01 4.909307e-01 -9.198099e-02 -6.942846e-01
<VARIANCE> 25
 2.236930e+01 2.413945e+01 1.506104e+01 1.144375e+01 1.723188e+01 1.198020e+01 1.079268e+01 2.963357e+01 1.581109e+01 7.620677e+00 1.527198e+01 1.231128e+01 4.435345e-01 4.621431e-01 6.620891e-01 6.238152e-01 1.000236e+00 6.942949e-01 7.015506e-01 1.389338e+00 1.384644e+00 8.039694e-01 1.131435e+00 8.631541e-01 1.460042e-01
<GCONST> 7.381400e+01
<STATE> 3
<MEAN> 25
 5.092437e-01 8.595556e-01 -7.943875e-01 5.227970e+00 6.878116e+00 2.151664e+00 3.010997e+00 2.446075e+00 2.144960e+00 3.984277e+00 3.413661e-01 -1.362387e-01 -3.421322e-01 -4.103235e-01 -7.426931e-01 -2.701054e-01 1.853056e-02 -5.360373e-02 2.877442e-01 4.133121e-01 7.266526e-01 6.668383e-01 6.830316e-01 2.149000e-01 -4.046836e-01
<VARIANCE> 25
 6.861697e+00 3.039546e+01 1.680621e+01 1.893727e+01 1.455873e+01 6.584612e+00 1.168802e+01 2.470021e+01 1.155257e+01 1.314060e+01 2.040510e+01 1.959366e+01 3.708595e-01 4.890966e-01 8.877276e-01 9.106920e-01 5.886295e-01 1.425650e+00 8.291399e-01 1.343693e+00 1.009020e+00 1.087345e+00 9.742591e-01 7.030345e-01 1.210202e-01
<GCONST> 7.390741e+01
<STATE> 4
<MEAN> 25
 -6.675920e-01 9.257132e-01 -1.317978e+00 5.092178e+00 6.552836e+00 3.652350e+00 6.207540e+00 4.709155e+00 3.818366e+00 5.381110e+00 3.150729e+00 1.755472e+00 -8.251688e-02 3.988792e-03 -7.276023e-02 -1.131655e-01 -2.684623e-03 1.282907e-01 1.292367e-01 9.329899e-02 -2.293288e-02 6.149704e-02 9.042948e-02 4.105871e-02 -4.701337e-02
<VARIANCE> 25
 1.820525e+00 5.347432e+00 5.740285e+00 8.722510e+00 1.040225e+01 1.220280e+01 1.427227e+01 1.399703e+01 1.324152e+01 1.216453e+01 9.253092e+00 1.284215e+01 1.614112e-01 1.891891e-01 4.363594e-01 7.659679e-01 7.661781e-01 1.118873e+00 1.211310e+00 1.364152e+00 1.310123e+00 1.477921e+00 9.663419e-01 9.488016e-01 2.723536e-02
<GCONST> 6.487073e+01
<TRANSP> 5
 0.000000e+00 1.000000e+00 0.000000e+00 0.000000e+00 0.000000e+00
 0.000000e+00 6.828371e-01 3.171629e-01 0.000000e+00 0.000000e+00
 0.000000e+00 0.000000e+00 1.690206e-01 8.309794e-01 0.000000e+00
 0.000000e+00 0.000000e+00 0.000000e+00 8.752604e-01 1.247396e-01
 0.000000e+00 0.000000e+00 0.000000e+00 0.000000e+00 0.000000e+00
<ENDHMM>
~h "ow"
<BEGINHMM>
<NUMSTATES> 5
<STATE> 2
<MEAN> 25
 5.953486e+00 -3.693582e+00 -3.247252e+00 -8.151603e+00 -5.158737e+00 -2.716494e+00 -4.113252e+00 -3.589327e+00 -1.441267e+00 1.086924e+00 2.640304e+00 -2.637677e-01 3.789273e-01 2.832413e-01 9.673310e-03 4.846394e-02 -1.110270e-01 4.780316e-01 1.373447e-01 -1.677168e-01 -1.618334e-01 -1.675705e-01 -3.036194e-03 2.598817e-01 -3.617626e-01
<VARIANCE> 25
 1.059705e+01 1.384557e+01 4.946011e+00 1.139226e+01 1.047074e+01 3.592805e+01 2.362226e+01 1.849530e+01 1.857866e+01 2.120153e+01 1.739722e+01 2.050729e+01 5.937030e-01 8.685217e-01 4.860387e-01 1.346084e+00 1.258657e+00 2.541902e+00 1.550597e+00 1.258816e+00 1.444017e+00 1.137396e+00 1.005195e+00 1.402277e+00 2.707424e+00
<GCONST> 8.141058e+01
<STATE> 3
<MEAN> 25
 6.993918e+00 1.792562e+00 -1.799562e+00 -3.221267e+00 -2.839052e+00 2.201252e+00 -1.604105e-01 -3.887584e+00 -3.441889e+00 -3.477147e+00 -1.224151e+00 -1.172945e-02 -2.507774e-01 4.114555e-01 2.189686e-01 8.182605e-01 8.411282e-01 8.304972e-02 4.765425e-01 3.536439e-01 3.166000e-02 7.462271e-02 -1.457604e-01 -7.494327e-02 -1.018552e+00
<VARIANCE> 25
 1.323279e+01 2.402089e+01 1.629347e+01 2.838585e+01 2.054787e+01 3.707390e+01 2.680655e+01 2.141347e+01 2.801320e+01 3.167406e+01 3.249855e+01 3.970250e+01 8.544239e-01 8.615019e-01 5.834809e-01 8.447952e-01 1.083634e+00 2.221160e+00 2.412648e+00 1.811232e+00 2.242765e+00 1.946633e+00 1.912070e+00 2.366584e+00 5.334581e-01
<GCONST> 8.847865e+01
<STATE> 4
<MEAN> 25
 1.276570e+00 1.853314e+00 -9.521984e-02 3.206728e+00 4.022164e+00 2.551935e+00 3.207518e+00 1.771465e+00 5.967408e-01 2.448517e+00 2.756213e+00 1.147921e+00 -2.164928e-01 -6.736859e-02 5.241364e-02 1.310105e-01 1.421940e-01 -2.985701e-02 7.239447e-03 1.415904e-01 1.379786e-01 1.131112e-01 5.034946e-02 3.500360e-03 -1.676997e-01
<VARIANCE> 25
 5.858478e+00 6.089953e+00 6.711921e+00 1.526128e+01 1.050226e+01 1.250930e+01 1.337006e+01 1.731438e+01 1.689165e+01 1.313108e+01 1.243750e+01 1.041937e+01 1.833301e-01 2.857988e-01 4.986086e-01 6.062350e-01 8.297353e-01 1.233544e+00 1.323173e+00 1.553378e+00 1.532908e+00 1.207385e+00 1.179218e+00 9.752787e-01 1.013722e-01
<GCONST> 6.980431e+01
<TRANSP> 5
 0.000000e+00 1.000000e+00 0.000000e+00 0.000000e+00 0.000000e+00
 0.000000e+00 8.942419e-01 1.057581e-01 0.000000e+00 0.000000e+00
 0.000000e+00 0.000000e+00 8.615063e-01 1.384936e-01 0.000000e+00
 0.000000e+00 0.000000e+00 0.000000e+00 9.303914e-01 6.960859e-02
 0.000000e+00 0.000000e+00 0.000000e+00 0.000000e+00 0.000000e+00
<ENDHMM>
~h "oy"
<BEGINHMM>
<NUMSTATES> 5
<STATE> 2
<MEAN> 25
 6.043988e+00 -4.856228e+00 1.900424e+00 -4.339924e+00 -1.071901e+01 -7.177803e+00 -8.094414e+00 -6.213173e+00 -3.752664e+00 -3.066897e+00 -6.483267e-01 6.577706e-01 1.542680e-01 1.834751e-01 6.770632e-01 2.796099e-01 -2.779090e-01 7.666797e-02 -3.311784e-01 -1.093203e-01 -8.075359e-01 -2.485998e-01 -7.372587e-02 -2.390071e-02 -2.543429e-01
<VARIANCE> 25
 1.317706e+01 6.230626e+00 3.258863e+01 2.262780e+01 1.234342e+01 7.079972e+00 3.637737e+01 3.055360e+01 3.128095e+01 2.161479e+01 1.668161e+01 1.305680e+01 1.489475e+00 7.122223e-01 1.355920e+00 2.006493e+00 1.498863e+00 1.058872e+00 2.521999e+00 2.353990e+00 2.567257e+00 2.544838e+00 1.717445e+00 1.723408e+00 5.541216e-01
<GCONST> 8.601653e+01
<STATE> 3
<MEAN> 25
 -3.342416e+00 5.703655e+00 6.340646e+00 -6.848112e-01 -3.228343e+00 -6.833147e+00 -7.079611e+00 -4.581387e+00 -1.196421e+01 -5.701707e+00 -1.027264e+00 -1.872721e-01 -2.503155e+00 1.467017e+00 -2.050890e+00 -7.101877e-01 2.406136e+00 8.580522e-01 2.174300e+00 1.346794e+00 1.347539e+00 1.155911e+00 -1.793451e-01 -4.841545e-01 1.270245e-02
<VARIANCE> 25
 5.391288e+01 3.739891e+01 2.654762e+01 1.659668e+01 3.707368e+01 2.334842e+01 2.762215e+01 9.597426e+00 2.721675e+01 1.863692e+01 1.657353e+01 2.025686e+01 3.627485e+00 4.911958e+00 9.265183e-01 8.415375e-01 1.846488e+00 2.680674e+00 1.457702e+00 5.540634e-01 2.499267e+00 1.737147e+00 2.968773e+00 1.456764e+00 7.826483e-01
<GCONST> 9.073756e+01
<STATE> 4
<MEAN> 25
 -3.901975e+00 3.326168e+00 2.788133e+00 -2.026623e+00 -2.206199e+00 -2.504762e+00 -5.496846e+00 -1.561843e-01 -2.251515e+00 -3.081450e+00 -5.273508e+00 -4.888123e+00 -3.275478e-01 -3.430437e-02 -6.230034e-01 2.887463e-01 1.303453e+00 1.269150e+00 1.447169e+00 6.528928e-01 1.934304e+00 6.577811e-01 -1.204486e+00 -1.313665e+00 -5.254835e-01
<VARIANCE> 25
 9.643001e+01 4.378623e+01 1.248299e+01 3.260498e+01 4.474859e+01 2.037713e+01 4.656783e+01 5.993166e+00 1.933548e+01 3.586852e+01 1.197203e+01 1.544978e+01 5.960335e-01 1.840905e-01 1.812545e-01 1.262131e+00 4.865010e-01 1.042745e+00 4.812446e-01 3.162042e-01 2.125906e-01 9.966807e-01 1.504676e+00 8.386532e-01 1.453677e-01
<GCONST> 7.501904e+01
<TRANSP> 5
 0.000000e+00 1.000000e+00 0.000000e+00 0.000000e+00 0.000000e+00
 0.000000e+00 9.384335e-01 6.156649e-02 0.000000e+00 0.000000e+00
 0.000000e+00 0.000000e+00 6.431692e-01 3.568307e-01 0.000000e+00
 0.000000e+00 0.000000e+00 0.000000e+00 3.321249e-01 6.678751e-01
 0.000000e+00 0.000000e+00 0.000000e+00 0.000000e+00 0.000000e+00
<ENDHMM>
~h "sh"
<BEGINHMM>
<NUMSTATES> 5
<STATE> 2
<MEAN> 25
 -1.718745e+01 3.232463e+00 8.116858e+00 -1.113116e+00 -1.837869e+00 1.169101e+00 2.127280e+00 2.604837e+00 8.174294e-01 -5.504013e+00 2.444975e+00 1.572912e+00 -3.867127e-01 -2.057172e-01 -5.334194e-03 2.959507e-02 8.620738e-02 3.544462e-02 6.880276e-01 2.104519e-01 6.213754e-01 -2.664161e-02 7.897321e-02 4.941829e-01 5.138242e-02
<VARIANCE> 25
 1.656751e+01 9.615082e+00 1.788077e+01 1.081156e+01 1.430806e+01 2.052065e+01 2.742409e+01 1.832350e+01 1.937675e+01 1.366766e+01 1.379092e+01 2.073508e+01 2.879785e+00 5.509631e-01 1.012081e+00 1.202134e+00 1.809661e+00 2.217519e+00 2.453501e+00 1.603760e+00 1.945881e+00 1.376263e+00 1.412433e+00 1.627826e+00 6.595778e-01
<GCONST> 8.423747e+01
<STATE> 3
<MEAN> 25
 -7.091036e+00 -2.575151e-01 6.655708e+00 8.169170e-01 -5.706046e+00 -1.657861e+00 -3.458649e-01 5.485512e+00 4.110785e+00 -6.056359e+00 1.018732e+00 5.833349e+00 2.089727e+00 -1.362103e-01 -5.967138e-01 4.179953e-02 -1.488976e-01 -2.292580e-01 -5.870083e-01 6.808777e-02 8.256516e-02 1.228641e-01 -4.750802e-01 -2.684968e-01 -6.374027e-01
<VARIANCE> 25
 5.677345e+01 6.058909e+00 1.782916e+01 1.361500e+01 6.190001e+01 4.255398e+01 3.568578e+01 1.632538e+01 2.500560e+01 3.351761e+01 1.976493e+01 2.546178e+01 1.385281e+00 5.432115e-01 1.271075e+00 1.420552e+00 3.858580e+00 2.945671e+00 2.672993e+00 2.415741e+00 2.209000e+00 1.668348e+00 1.574597e+00 3.064935e+00 2.021222e+00
<GCONST> 9.266005e+01
<STATE> 4
<MEAN> 25
 -4.584654e+00 2.226848e-01 3.142677e+00 4.130706e-01 -2.780193e+00 -1.160904e+00 1.388291e+00 3.784792e+00 2.256180e+00 -3.516579e+00 1.803467e+00 2.293182e+00 1.928184e+00 -9.637921e-02 -4.363269e-01 -2.320037e-01 -4.446748e-01 -1.308290e+00 -1.079832e+00 -1.367970e+00 -1.017272e+00 -2.963247e-01 -5.555310e-01 -3.169622e-01 3.329301e-01
<VARIANCE> 25
 5.106441e+01 7.922103e+00 1.382032e+01 2.065597e+01 4.399987e+01 3.111396e+01 4.479425e+01 2.848340e+01 3.682763e+01 1.850195e+01 2.640404e+01 1.771805e+01 3.425342e+00 4.631200e-01 6.243377e-01 7.366089e-01 3.253453e+00 3.192700e+00 2.902334e+00 1.726848e+00 1.934692e+00 2.039118e+00 2.535863e+00 2.742400e+00 2.233588e+00
<GCONST> 9.240179e+01
<TRANSP> 5
 0.000000e+00 1.000000e+00 0.000000e+00 0.000000e+00 0.000000e+00
 0.000000e+00 8.817947e-01 1.182054e-01 0.000000e+00 0.000000e+00
 0.000000e+00 0.000000e+00 6.848609e-01 3.151391e-01 0.000000e+00
 0.000000e+00 0.000000e+00 0.000000e+00 4.343240e-02 9.565676e-01
 0.000000e+00 0.000000e+00 0.000000e+00 0.000000e+00 0.000000e+00
<ENDHMM>
~h "sp"
<BEGINHMM>
<NUMSTATES> 3
<STATE> 2
~s "silst"
<TRANSP> 3
 0.000000e+00 6.190590e-01 3.809411e-01
 0.000000e+00 9.489640e-01 5.103600e-02
 0.000000e+00 0.000000e+00 0.000000e+00
<ENDHMM>
~h "th"
<BEGINHMM>
<NUMSTATES> 5
<STATE> 2
<MEAN> 25
 -4.315871e+00 6.921589e-01 -2.253353e+00 2.116357e+00 5.191273e+00 4.554928e-01 1.582064e+00 3.751625e+00 -1.926400e+00 -5.511923e-01 2.959105e+00 1.026191e+00 -3.552503e-01 -2.314129e-01 -8.601899e-02 -1.365109e-01 -3.281870e-01 -1.119499e-01 -1.373313e-01 -1.236698e-01 2.469763e-02 4.210437e-01 5.364267e-01 4.455910e-01 -4.196223e-02
<VARIANCE> 25
 1.121008e+01 1.493403e+01 1.206436e+01 1.321977e+01 1.324449e+01 1.370778e+01 1.693835e+01 1.328234e+01 1.860278e+01 1.860579e+01 2.313499e+01 1.338351e+01 2.854744e-01 5.056041e-01 6.444591e-01 7.732910e-01 5.822267e-01 1.167023e+00 1.268128e+00 1.428648e+00 9.637311e-01 1.576345e+00 1.568542e+00 7.498845e-01 3.889304e-01
<GCONST> 7.555098e+01
<STATE> 3
<MEAN> 25
 -1.093628e+00 7.244683e-01 -1.048278e+00 2.573419e+00 4.900180e+00 2.535251e+00 3.234680e+00 4.568730e+00 2.616683e+00 3.018310e+00 4.561553e+00 2.542872e+00 1.949978e-01 1.056006e-01 5.918669e-02 6.197980e-02 5.585320e-02 3.196301e-01 2.060678e-01 -5.373402e-02 2.617478e-01 4.134968e-02 -8.656254e-02 -5.172781e-02 -2.630404e-01
<VARIANCE> 25
 8.289821e+00 3.580796e+00 7.435852e+00 7.041928e+00 7.069291e+00 1.304197e+01 1.372587e+01 1.427380e+01 1.417795e+01 1.509910e+01 1.424542e+01 1.361277e+01 2.684101e-01 1.406577e-01 2.932360e-01 3.296516e-01 6.655237e-01 1.208838e+00 1.356361e+00 1.362523e+00 1.566783e+00 1.601900e+00 1.132536e+00 1.207432e+00 2.243183e-01
<GCONST> 6.825309e+01
<STATE> 4
<MEAN> 25
 -4.067210e+00 1.130412e+00 -5.871018e-02 2.335379e+00 4.673645e+00 2.626286e+00 2.216078e+00 5.759684e+00 1.956238e+00 2.134739e+00 1.722375e+00 1.260596e+00 -6.492457e-01 -4.641046e-02 2.479462e-01 -2.295652e-01 -4.160618e-01 -1.186329e-01 -3.880764e-01 1.742864e-01 -1.739962e-01 -1.438983e-01 -1.511586e-01 5.609591e-02 7.504159e-01
<VARIANCE> 25
 3.882536e+01 5.406012e+00 1.723345e+01 1.285210e+01 1.612426e+01 1.972075e+01 1.887249e+01 2.115970e+01 1.187164e+01 1.320420e+01 1.747095e+01 1.638175e+01 3.369532e+00 6.269284e-01 1.238056e+00 2.026845e+00 1.837579e+00 1.848013e+00 2.135491e+00 2.658315e+00 1.948761e+00 1.500457e+00 1.477619e+00 2.275568e+00 2.681664e+00
<GCONST> 8.705595e+01
<TRANSP> 5
 0.000000e+00 1.000000e+00 0.000000e+00 0.000000e+00 0.000000e+00
 0.000000e+00 5.569676e-01 4.430324e-01 0.000000e+00 0.000000e+00
 0.000000e+00 0.000000e+00 8.383601e-01 1.616399e-01 0.000000e+00
 0.000000e+00 0.000000e+00 0.000000e+00 8.714577e-01 1.285423e-01
 0.000000e+00 0.000000e+00 0.000000e+00 0.000000e+00 0.000000e+00
<ENDHMM>
~h "uh"
<BEGINHMM>
<NUMSTATES> 5
<STATE> 2
<MEAN> 25
 3.999509e+00 -1.017478e+00 -3.122572e+00 -5.545720e+00 -5.114460e+00 -3.649501e+00 -1.007715e+01 -8.351920e+00 -5.906384e+00 -3.634437e+00 1.949635e+00 1.218298e+00 -3.634286e-01 -1.544767e-01 3.399355e-01 -1.279711e-01 2.750686e-01 2.297524e-01 -8.677512e-02 4.921103e-01 4.650978e-01 -5.725183e-02 -9.168838e-02 1.943950e-01 -4.910908e-02
<VARIANCE> 25
 9.491965e+00 3.319719e+01 1.340983e+01 2.661802e+01 2.917448e+01 6.118737e+01 2.683605e+01 5.677845e+01 1.963621e+01 2.871547e+01 2.050114e+01 1.253488e+01 1.253272e+00 1.936109e+00 1.366451e+00 2.066044e+00 2.001786e+00 4.366457e+00 3.457505e+00 5.624724e+00 1.831422e+00 2.552243e+00 2.881548e+00 2.093673e+00 2.386388e+00
<GCONST> 9.554647e+01
<STATE> 3
<MEAN> 25
 -1.009102e-01 5.337575e-01 5.878319e+00 -2.767523e+00 -6.076001e+00 -4.826103e+00 -3.930892e+00 -3.253747e+00 -2.316292e+00 -4.370563e+00 2.523839e+00 -2.256057e-01 1.042600e-01 8.421525e-01 1.097469e+00 1.705107e-01 -3.240134e-01 1.138939e+00 8.635507e-01 -1.440083e-01 -6.068170e-01 -2.999808e-01 2.204689e-01 -1.010022e-01 -6.379853e-01
<VARIANCE> 25
 1.718075e+01 1.802352e+01 1.933852e+01 2.150364e+01 3.914983e+01 9.853893e+01 1.868139e+01 5.958969e+01 1.085007e+01 1.012687e+01 7.243558e+00 9.782022e+00 5.729573e-01 4.837078e-01 1.693717e+00 1.596202e+00 2.142103e+00 3.843716e+00 6.323867e+00 1.753804e+00 1.620389e+00 2.627472e+00 2.230737e+00 1.402521e+00 1.189731e+00
<GCONST> 8.893429e+01
<STATE> 4
<MEAN> 25
 6.586723e+00 2.823339e+00 7.955548e+00 1.231274e+00 -2.828609e+00 3.130921e+00 -3.644011e+00 -3.627255e+00 -3.979342e+00 -3.936172e+00 -6.507763e-01 -2.437360e-01 3.677191e-01 5.016536e-01 -5.937451e-01 3.307059e-01 5.272440e-01 -3.063326e-01 1.005713e+00 5.828060e-01 -1.776554e-01 3.587922e-01 -1.800067e-01 2.570859e-01 -8.483058e-01
<VARIANCE> 25
 1.908263e+01 1.727418e+01 2.747164e+01 1.954381e+01 1.475865e+01 2.425558e+01 3.098499e+01 3.670784e+01 5.137867e+00 8.036380e+00 6.635526e+00 1.332938e+01 1.549102e+00 7.644392e-01 6.143384e-01 7.578642e-01 1.700994e+00 2.668818e+00 2.556717e+00 2.016893e+00 5.731575e-01 1.769586e+00 6.613852e-01 8.525848e-01 7.702543e-01
<GCONST> 8.088866e+01
<TRANSP> 5
 0.000000e+00 1.000000e+00 0.000000e+00 0.000000e+00 0.000000e+00
 0.000000e+00 8.969517e-01 1.030484e-01 0.000000e+00 0.000000e+00
 0.000000e+00 0.000000e+00 4.920499e-01 5.079501e-01 0.000000e+00
 0.000000e+00 0.000000e+00 0.000000e+00 6.594592e-01 3.405408e-01
 0.000000e+00 0.000000e+00 0.000000e+00 0.000000e+00 0.000000e+00
<ENDHMM>
~h "uw"
<BEGINHMM>
<NUMSTATES> 5
<STATE> 2
<MEAN> 25
 5.163562e+00 9.018086e-01 5.889953e-01 -1.105780e+00 -7.751649e+00 -3.393682e+00 -1.087354e+01 -1.008751e+01 -7.318920e+00 -6.714534e+00 8.830509e-01 -7.933047e-01 2.966085e-01 3.991839e-01 -2.152247e-01 -3.042885e-02 4.442114e-01 4.772589e-01 2.369145e-01 -1.733065e-01 5.807465e-02 1.992006e-02 1.681526e-01 1.736489e-01 -4.680616e-01
<VARIANCE> 25
 7.970606e+00 1.360744e+01 3.338686e+01 3.901509e+01 2.612514e+01 3.577854e+01 1.812520e+01 2.017425e+01 2.251943e+01 3.006038e+01 1.677024e+01 2.146759e+01 4.564947e-01 7.066038e-01 7.276613e-01 1.566513e+00 1.809197e+00 1.906219e+00 1.298187e+00 1.261835e+00 1.733605e+00 1.713377e+00 1.467156e+00 1.087363e+00 6.241917e-01
<GCONST> 8.476656e+01
<STATE> 3
<MEAN> 25
 5.297917e+00 4.755448e+00 1.758194e+00 2.230965e+00 4.037649e-01 4.300690e-01 -4.944603e+00 -7.335652e+00 -5.734048e+00 -3.110852e+00 1.198014e+00 1.034395e+00 -5.325550e-01 -1.414319e-02 1.148730e-01 3.436852e-01 9.236693e-01 -3.634643e-02 1.075822e+00 9.239994e-01 4.316083e-01 5.274683e-01 -2.591568e-01 8.743920e-02 -8.986848e-01
<VARIANCE> 25
 1.203968e+01 1.480248e+01 1.135607e+01 1.824309e+01 1.991442e+01 3.052878e+01 3.240375e+01 2.876969e+01 2.323763e+01 2.212925e+01 2.136871e+01 2.269153e+01 4.817589e-01 5.949700e-01 8.592319e-01 7.726085e-01 1.324180e+00 1.869184e+00 1.811718e+00 1.307415e+00 1.663061e+00 2.154324e+00 1.393316e+00 1.816327e+00 7.835352e-01
<GCONST> 8.420785e+01
<STATE> 4
<MEAN> 25
 2.289018e-01 2.503271e+00 7.623265e-01 4.211489e+00 5.697954e+00 2.764266e+00 3.605808e+00 2.138681e+00 5.995249e-01 2.228903e+00 1.814740e+00 6.759721e-01 -2.318915e-01 -1.597350e-01 -1.433060e-01 -8.038206e-02 8.802427e-02 1.431447e-01 1.842839e-01 3.440846e-01 3.196196e-01 2.240773e-01 8.087607e-02 1.102385e-02 -5.834425e-02
<VARIANCE> 25
 5.396145e+00 6.301391e+00 4.739920e+00 1.031791e+01 2.034627e+01 2.014755e+01 2.493909e+01 2.377581e+01 2.333254e+01 2.148584e+01 1.641559e+01 1.075188e+01 2.837875e-01 2.973050e-01 3.517237e-01 5.323705e-01 9.096165e-01 1.171299e+00 1.456795e+00 1.371842e+00 1.730821e+00 1.596326e+00 1.353492e+00 9.004602e-01 9.526396e-02
<GCONST> 7.262589e+01
<TRANSP> 5
 0.000000e+00 1.000000e+00 0.000000e+00 0.000000e+00 0.000000e+00
 0.000000e+00 8.365155e-01 1.634845e-01 0.000000e+00 0.000000e+00
 0.000000e+00 0.000000e+00 8.056895e-01 1.943105e-01 0.000000e+00
 0.000000e+00 0.000000e+00 0.000000e+00 8.110375e-01 1.889625e-01
 0.000000e+00 0.000000e+00 0.000000e+00 0.000000e+00 0.000000e+00
<ENDHMM>
~h "zh"
<BEGINHMM>
<NUMSTATES> 5
<STATE> 2
<MEAN> 25
 -6.519948e+00 3.832517e+00 6.829613e+00 -3.975743e+00 -5.183230e+00 -9.942830e-01 -2.093116e+00 -5.236962e+00 -5.131036e+00 -7.073851e+00 7.436394e-01 9.277516e-02 -2.552256e-01 3.400637e-01 4.129021e-01 2.627124e-01 4.199730e-01 2.654317e-01 4.466918e-01 2.672181e-01 4.798652e-02 -2.989673e-01 1.236651e-02 -1.770422e-03 -2.261219e-01
<VARIANCE> 25
 1.549210e+01 1.449624e+01 1.343174e+01 9.178044e+00 2.780915e+01 1.698059e+01 1.813525e+01 2.812826e+01 1.921360e+01 2.113823e+01 1.525206e+01 1.967707e+01 1.048870e+00 7.955101e-01 9.833928e-01 8.376655e-01 1.958336e+00 1.214478e+00 1.596928e+00 2.425223e+00 2.398371e+00 2.451649e+00 1.942051e+00 2.598908e+00 2.007891e-01
<GCONST> 8.390887e+01
<STATE> 3
<MEAN> 25
 -4.370432e+00 1.662130e+00 6.336627e+00 -9.938709e-01 -3.235214e+00 -1.108984e+00 6.466601e-01 -1.205161e+00 -3.097248e+00 -5.405712e+00 6.029854e-01 4.113612e+00 1.378671e+00 -1.261231e+00 -8.985542e-01 1.672188e-02 -5.687760e-01 -1.010401e+00 -3.316699e-01 7.037733e-01 1.078543e-01 9.068877e-01 -1.379148e-01 5.886568e-01 -1.311232e-01
<VARIANCE> 25
 3.033749e+01 1.573960e+01 1.666674e+01 6.617732e+00 3.820105e+01 3.899686e+01 1.787214e+01 3.115618e+01 1.386115e+01 2.307056e+01 1.328891e+01 1.940143e+01 8.415253e-01 8.732520e-01 7.860031e-01 1.275866e+00 1.333858e+00 2.658779e+00 1.393315e+00 3.218976e+00 2.219062e+00 1.964759e+00 1.773340e+00 1.366119e+00 9.722376e-01
<GCONST> 8.655777e+01
<STATE> 4
<MEAN> 25
 -1.232888e-01 -1.780829e-01 -4.388154e+00 1.885966e+00 5.181913e+00 3.476840e+00 2.860878e+00 3.517221e+00 2.643276e+00 4.029212e+00 2.969992e+00 1.556985e+00 7.972088e-02 -1.061221e-01 -1.364940e-01 7.838548e-02 -1.121938e-02 -6.882173e-02 -8.288755e-02 1.038536e-01 8.008046e-02 9.484040e-02 1.214450e-02 -6.514443e-02 -4.039051e-02
<VARIANCE> 25
 3.958289e+00 2.848210e+00 1.128333e+01 7.784186e+00 2.172693e+01 2.414179e+01 1.056767e+01 1.245902e+01 1.290985e+01 1.817005e+01 1.217447e+01 8.471690e+00 2.313039e-01 3.171613e-01 6.493354e-01 5.670294e-01 7.690535e-01 7.857015e-01 9.149598e-01 1.300260e+00 1.295460e+00 1.770683e+00 1.506535e+00 7.628630e-01 6.878002e-02
<GCONST> 6.843235e+01
<TRANSP> 5
