~o
<STREAMINFO> 1 25
<VECSIZE> 25<NULLD><MFCC_D_N_Z_0><DIAGC>
~s "silst"
<MEAN> 25
 -5.619414e-01 1.667652e+00 -1.511792e-01 4.314087e+00 6.209365e+00 3.942179e+00 5.210235e+00 3.993281e+00 3.033224e+00 3.868351e+00 2.517646e+00 1.042826e+00 -3.443800e-02 -8.509290e-03 7.920531e-03 3.246190e-03 5.335388e-04 1.435058e-02 4.459971e-03 3.297426e-02 1.551653e-02 3.024843e-02 2.323023e-02 2.012359e-03 -2.436169e-02
<VARIANCE> 25
 2.238442e+00 2.933734e+00 5.746243e+00 6.513899e+00 9.007529e+00 1.034851e+01 1.164813e+01 1.320447e+01 1.278772e+01 1.288518e+01 1.253582e+01 1.051190e+01 1.414160e-01 2.471020e-01 3.890404e-01 5.907198e-01 7.965295e-01 9.886929e-01 1.170310e+00 1.362033e+00 1.319145e+00 1.397106e+00 1.237574e+00 1.061952e+00 7.056070e-02
<GCONST> 6.464399e+01
~h "b"
<BEGINHMM>
<NUMSTATES> 5
<STATE> 2
<MEAN> 25
 5.717496e+00 5.947848e+00 2.262525e+00 4.709725e+00 4.032611e+00 2.835854e+00 1.903394e+00 -2.490852e+00 -2.022725e+00 3.176439e-01 -1.570245e+00 -4.424461e+00 5.041224e-01 6.764371e-01 8.318048e-02 -7.236817e-02 -1.665153e-01 -3.621487e-01 -5.124022e-01 -4.266487e-01 -7.118581e-01 -5.672575e-01 -9.055968e-02 7.523470e-02 3.708413e-01
<VARIANCE> 25
 1.254594e+01 1.028375e+01 8.116284e+00 6.759761e+00 1.427269e+01 1.496383e+01 1.708916e+01 2.014857e+01 1.749787e+01 1.687708e+01 1.999766e+01 1.697143e+01 1.055281e+00 9.632409e-01 1.041739e+00 7.674589e-01 1.337708e+00 1.235350e+00 1.677371e+00 1.604858e+00 2.091160e+00 1.511175e+00 1.982876e+00 2.388571e+00 5.402614e-01
<GCONST> 8.090779e+01
<STATE> 3
<MEAN> 25
 5.757127e+00 5.224012e+00 1.105384e+00 4.227062e+00 1.918208e+00 1.066402e+00 -9.174581e-01 -2.063423e+00 -4.105260e+00 -2.325392e+00 -1.281126e+00 -9.773630e-01 -3.971382e-01 -1.817102e+00 -9.214337e-01 -1.872466e+00 -2.242608e+00 -2.388448e+00 -2.023896e+00 -8.135202e-01 -6.404985e-01 -4.524131e-01 3.038024e-01 1.096612e+00 3.631280e+00
<VARIANCE> 25
 1.385021e+01 1.022127e+01 1.126332e+01 1.649055e+01 1.931843e+01 2.571155e+01 2.503466e+01 3.337040e+01 2.698914e+01 2.576281e+01 1.590461e+01 1.863485e+01 2.924560e+00 2.097675e+00 1.317402e+00 2.489304e+00 1.911725e+00 1.759929e+00 2.221514e+00 3.551627e+00 4.150672e+00 3.186061e+00 3.016249e+00 1.913797e+00 2.196689e+00
<GCONST> 9.269859e+01
<STATE> 4
<MEAN> 25
 3.473190e+00 -3.157080e+00 -3.322240e+00 -5.409805e+00 -4.443588e+00 -3.511870e+00 -4.680314e+00 -6.780628e+00 -4.276430e+00 -9.761000e-01 8.370433e-02 1.328072e-01 -1.445307e+00 -2.251889e+00 -9.848856e-01 -2.209009e+00 -1.345413e+00 -1.124576e+00 -2.960357e-01 -2.895482e-01 4.874564e-01 6.319119e-01 2.355524e-01 -2.208781e-01 3.252609e+00
<VARIANCE> 25
 1.846524e+01 2.084162e+01 2.278405e+01 2.939095e+01 1.615723e+01 3.660567e+01 2.837195e+01 2.151967e+01 3.753976e+01 3.797818e+01 2.135833e+01 2.642156e+01 1.829889e+00 2.379735e+00 1.899408e+00 2.524736e+00 3.135701e+00 4.264348e+00 2.985415e+00 4.872427e+00 3.678677e+00 2.429340e+00 2.900537e+00 2.630293e+00 4.013144e+00
<GCONST> 9.872262e+01
<TRANSP> 5
 0.000000e+00 1.000000e+00 0.000000e+00 0.000000e+00 0.000000e+00
 0.000000e+00 7.290512e-01 2.709487e-01 0.000000e+00 0.000000e+00
 0.000000e+00 0.000000e+00 4.609988e-01 5.390012e-01 0.000000e+00
 0.000000e+00 0.000000e+00 0.000000e+00 5.587519e-01 4.412481e-01
 0.000000e+00 0.000000e+00 0.000000e+00 0.000000e+00 0.000000e+00
<ENDHMM>
~h "d"
<BEGINHMM>
<NUMSTATES> 5
<STATE> 2
<MEAN> 25
 3.044599e+00 4.998689e+00 2.250464e+00 4.263176e+00 3.545072e+00 1.300209e+00 3.453428e-01 1.251263e+00 -1.278128e+00 4.593994e-01 -1.137532e+00 -1.947395e+00 3.436562e-02 3.482465e-01 1.889819e-01 -1.758018e-01 -1.467088e-01 -6.641666e-01 -5.378774e-01 -1.994828e-01 -5.675775e-01 -3.087749e-01 -1.764212e-01 -1.070545e-01 6.403913e-01
<VARIANCE> 25
 2.881422e+01 1.532717e+01 1.516378e+01 1.384972e+01 2.133288e+01 2.182346e+01 3.542247e+01 3.875519e+01 1.797766e+01 1.622448e+01 1.859539e+01 1.994351e+01 2.242034e+00 1.474179e+00 1.556315e+00 1.182282e+00 2.015139e+00 2.778819e+00 2.867653e+00 2.629823e+00 2.030989e+00 1.903953e+00 2.329212e+00 2.144566e+00 1.083658e+00
<GCONST> 9.093357e+01
<STATE> 3
<MEAN> 25
 1.536776e+00 1.494375e+00 2.340816e+00 5.229557e-01 7.475231e-01 -2.859958e+00 -3.878539e+00 2.923706e-03 -3.353113e+00 -3.337537e+00 -1.375034e+00 -5.345101e-01 -5.909272e-01 -1.602406e+00 -4.594804e-01 -2.088970e+00 -2.103102e+00 -1.723567e+00 -1.956202e+00 -1.419050e+00 -3.547189e-02 -1.881061e-02 -3.577642e-02 3.198045e-01 3.466260e+00
<VARIANCE> 25
 1.238905e+01 1.816772e+01 1.815611e+01 2.174827e+01 3.146873e+01 3.949424e+01 6.747583e+01 4.674508e+01 2.469934e+01 2.311230e+01 2.304260e+01 2.271064e+01 2.284999e+00 2.760229e+00 2.085227e+00 2.646825e+00 3.676798e+00 3.765919e+00 3.936495e+00 5.025178e+00 4.551476e+00 4.206300e+00 2.821318e+00 2.307829e+00 3.583608e+00
<GCONST> 1.003955e+02
<STATE> 4
<MEAN> 25
 1.020296e+00 -2.601208e+00 -4.370754e-02 -4.860176e+00 -6.419234e+00 -6.974551e+00 -8.292017e+00 -3.887818e+00 6.788341e-01 1.221521e-01 -2.729564e+00 -1.276099e+00 -4.806657e-01 -7.085423e-01 -7.677569e-01 -9.348457e-01 -5.979514e-01 -1.994868e-01 5.573320e-01 -8.133572e-02 9.949700e-01 7.010769e-01 2.978940e-01 -2.506720e-01 1.095733e+00
<VARIANCE> 25
 8.751044e+00 1.398580e+01 1.238151e+01 2.470108e+01 3.221114e+01 3.525311e+01 3.514449e+01 5.265196e+01 3.565284e+01 3.444453e+01 2.035028e+01 2.005802e+01 1.034406e+00 1.881377e+00 1.634268e+00 2.976002e+00 2.981851e+00 1.809996e+00 3.255258e+00 3.522275e+00 2.609436e+00 2.327427e+00 2.315849e+00 1.854492e+00 2.735088e+00
<GCONST> 9.480045e+01
<TRANSP> 5
 0.000000e+00 1.000000e+00 0.000000e+00 0.000000e+00 0.000000e+00
 0.000000e+00 7.362806e-01 2.637195e-01 0.000000e+00 0.000000e+00
 0.000000e+00 0.000000e+00 5.263561e-01 4.736439e-01 0.000000e+00
 0.000000e+00 0.000000e+00 0.000000e+00 5.650081e-01 4.349919e-01
 0.000000e+00 0.000000e+00 0.000000e+00 0.000000e+00 0.000000e+00
<ENDHMM>
~h "f"
<BEGINHMM>
<NUMSTATES> 5
<STATE> 2
<MEAN> 25
 -2.656907e+00 1.021040e+00 -1.843315e+00 3.074469e+00 4.479658e+00 2.338754e+00 3.594653e+00 4.195820e+00 1.235736e+00 2.502984e+00 2.110993e+00 1.130959e+00 -2.702794e-01 -9.930481e-02 -8.052231e-02 1.283048e-01 -2.075814e-02 1.417073e-01 -5.629319e-02 2.382433e-01 7.978758e-02 8.127421e-02 2.389975e-02 2.566937e-02 1.891444e-01
<VARIANCE> 25
 8.399210e+00 2.812802e+00 4.681040e+00 1.309681e+01 8.513799e+00 1.045865e+01 9.701324e+00 1.725167e+01 1.455389e+01 1.395173e+01 1.088360e+01 1.006474e+01 5.590886e-01 3.867772e-01 4.693880e-01 1.231039e+00 9.717455e-01 1.113570e+00 9.972351e-01 1.480612e+00 1.404496e+00 1.097422e+00 1.355073e+00 9.902278e-01 4.131719e-01
<GCONST> 7.107575e+01
<STATE> 3
<MEAN> 25
 -4.450624e+00 -4.885401e-01 -4.617549e+00 3.757720e+00 3.009481e+00 2.310397e+00 1.002112e+00 5.455029e+00 1.405965e+00 2.045946e+00 3.339352e-01 1.671633e+00 1.091838e+00 -2.633180e-01 -1.094043e-01 -1.339680e+00 -1.054175e+00 -8.084117e-01 -5.293949e-01 -8.974941e-01 -4.921756e-01 -7.185177e-01 -5.324151e-01 -8.634693e-02 1.259864e+00
<VARIANCE> 25
 2.986695e+01 1.091415e+01 1.156403e+01 2.693527e+01 2.029779e+01 1.703027e+01 1.809243e+01 1.785398e+01 2.122090e+01 2.364935e+01 1.686359e+01 1.300022e+01 3.928122e+00 1.388484e+00 2.172862e+00 2.491323e+00 2.320616e+00 2.441742e+00 1.819294e+00 1.758356e+00 2.573751e+00 2.100424e+00 1.355614e+00 1.634495e+00 2.066987e+00
<GCONST> 9.019853e+01
<STATE> 4
<MEAN> 25
 2.125078e+00 -5.546934e+00 -4.184350e+00 -9.600149e+00 -5.210463e+00 -2.363669e+00 2.782498e+00 6.261761e-01 -5.684655e-01 -1.758067e+00 1.490594e-01 -6.738293e-01 -8.699716e-02 -4.141938e-01 -1.238014e-01 -2.774303e-01 1.148160e-01 2.255760e-01 1.053705e-01 -3.211968e-01 6.244754e-02 3.583786e-01 2.202600e-01 -3.263004e-01 4.212599e-01
<VARIANCE> 25
 5.722735e+00 6.840774e+00 7.390975e+00 9.776073e+00 1.407558e+01 2.509448e+01 2.914218e+01 3.286585e+01 2.039573e+01 2.276506e+01 1.327617e+01 2.394814e+01 6.103047e-01 9.191969e-01 6.579695e-01 1.222651e+00 1.564359e+00 2.164488e+00 2.454702e+00 2.565371e+00 2.351573e+00 2.015379e+00 9.444505e-01 1.805417e+00 1.040345e+00
<GCONST> 8.292181e+01
<TRANSP> 5
 0.000000e+00 1.000000e+00 0.000000e+00 0.000000e+00 0.000000e+00
 0.000000e+00 8.915861e-01 1.084140e-01 0.000000e+00 0.000000e+00
 0.000000e+00 0.000000e+00 8.576925e-01 1.423075e-01 0.000000e+00
 0.000000e+00 0.000000e+00 0.000000e+00 8.533605e-01 1.466395e-01
 0.000000e+00 0.000000e+00 0.000000e+00 0.000000e+00 0.000000e+00
<ENDHMM>
~h "g"
<BEGINHMM>
<NUMSTATES> 5
<STATE> 2
<MEAN> 25
 5.565063e-01 3.088063e+00 1.857603e+00 4.413101e+00 5.561807e+00 3.609856e+00 1.807884e+00 4.078537e+00 1.702563e+00 9.088393e-01 -1.651327e+00 -1.981727e+00 -3.201960e-01 6.843078e-01 3.047815e-01 -1.970374e-01 -5.130323e-01 -1.702227e+00 -2.076120e+00 -1.515815e-02 -1.751875e+00 -6.484782e-01 2.565248e-01 -5.156149e-01 1.606306e+00
<VARIANCE> 25
 2.029361e+01 1.834208e+01 1.757428e+01 1.244896e+01 3.103327e+01 2.385089e+01 4.185118e+01 4.174623e+01 1.929010e+01 2.402838e+01 1.281128e+01 1.691133e+01 2.905466e+00 2.590925e+00 4.219763e+00 1.686448e+00 4.491982e+00 2.169830e+00 4.380175e+00 7.526818e+00 2.685752e+00 3.056737e+00 2.825467e+00 2.731692e+00 1.034008e+00
<GCONST> 9.678011e+01
<STATE> 3
<MEAN> 25
 4.725028e-01 5.581620e+00 3.249393e+00 1.864105e+00 1.828585e+00 -1.852158e+00 -5.526347e+00 2.601103e+00 -4.932709e+00 6.954592e-02 9.658829e-01 -2.411515e+00 -5.011676e-01 -4.565204e-01 6.915925e-01 -1.778337e+00 -2.134839e+00 -9.093428e-01 -1.348108e+00 -1.454034e+00 -7.488974e-01 -5.616572e-01 5.838049e-01 6.191517e-01 2.663637e+00
<VARIANCE> 25
 1.892945e+01 4.511255e+01 3.468236e+01 2.126685e+01 4.578017e+01 1.654602e+01 3.928295e+01 4.836839e+01 1.604334e+01 1.736220e+01 1.887701e+01 1.491446e+01 3.418746e+00 2.353562e+00 1.385048e+00 1.752870e+00 4.940204e+00 2.330607e+00 5.690843e+00 7.450952e+00 3.116426e+00 2.736672e+00 1.476597e+00 1.981998e+00 2.520436e+00
<GCONST> 9.805431e+01
<STATE> 4
<MEAN> 25
 -2.311588e+00 -1.137021e-01 7.377524e+00 -3.082373e+00 -8.815542e+00 -4.743330e+00 -3.191771e+00 -6.933976e+00 -3.149624e+00 -2.653353e+00 9.213696e-01 1.411437e+00 2.392133e-02 -2.134074e-01 -1.405651e-01 -8.101594e-02 -2.540595e-01 -3.179103e-02 9.841964e-02 -4.900486e-01 1.261063e-01 -3.903195e-02 -7.679882e-02 1.919002e-01 2.558812e-01
<VARIANCE> 25
 8.709401e+00 8.177571e+00 2.988819e+01 1.053496e+01 1.538818e+01 1.954316e+01 2.364020e+01 3.368807e+01 2.620321e+01 2.273369e+01 1.202256e+01 1.428212e+01 1.173569e+00 1.060452e+00 2.727876e+00 1.592852e+00 4.157532e+00 1.856822e+00 2.302074e+00 6.097117e+00 3.387733e+00 3.095231e+00 1.360623e+00 2.362440e+00 2.545938e+00
<GCONST> 9.071210e+01
<TRANSP> 5
 0.000000e+00 1.000000e+00 0.000000e+00 0.000000e+00 0.000000e+00
 0.000000e+00 5.453818e-01 4.546182e-01 0.000000e+00 0.000000e+00
 0.000000e+00 0.000000e+00 7.165827e-01 2.834173e-01 0.000000e+00
 0.000000e+00 0.000000e+00 0.000000e+00 8.914158e-01 1.085842e-01
 0.000000e+00 0.000000e+00 0.000000e+00 0.000000e+00 0.000000e+00
<ENDHMM>
~h "k"
<BEGINHMM>
<NUMSTATES> 5
<STATE> 2
<MEAN> 25
 -3.735743e+00 6.718014e-01 -7.844328e-01 2.655891e+00 1.095036e+00 8.635640e-01 3.249724e+00 3.739794e+00 3.136041e-01 1.778751e+00 3.429328e+00 1.347422e+00 -1.145684e+00 -8.312238e-01 -1.138290e+00 -5.617493e-01 -6.474812e-01 -6.037540e-01 -1.513154e+00 6.086186e-01 -1.371390e+00 -7.148297e-01 9.099352e-01 1.857566e-01 2.452698e+00
<VARIANCE> 25
 2.991336e+01 1.012415e+01 2.235123e+01 2.853766e+01 3.758443e+01 2.236769e+01 2.823536e+01 2.467742e+01 3.123410e+01 2.121090e+01 2.161662e+01 1.901603e+01 2.583660e+00 1.303202e+00 4.814645e+00 5.149679e+00 4.646472e+00 3.017577e+00 6.616354e+00 3.200153e+00 4.560619e+00 2.053840e+00 2.204430e+00 2.473605e+00 2.542466e+00
<GCONST> 9.889807e+01
<STATE> 3
<MEAN> 25
 -3.726216e+00 -2.303475e+00 -6.372673e+00 5.877384e-01 2.890645e+00 6.369639e-01 -4.480003e+00 4.866211e+00 -4.079149e+00 3.456605e+00 6.437258e+00 2.013200e-01 1.721129e-01 2.720088e-01 -1.315436e-01 -2.434473e-01 -1.077374e-01 4.749052e-02 -5.593929e-01 -4.543811e-01 -6.470291e-01 9.683478e-02 -1.505664e-01 1.242517e-01 9.058250e-01
<VARIANCE> 25
 2.325850e+01 1.828790e+01 6.086975e+01 5.438918e+01 6.302641e+01 5.879839e+01 6.495185e+01 3.656439e+01 3.495218e+01 5.548334e+01 2.926614e+01 2.535189e+01 2.662806e+00 1.692011e+00 4.706280e+00 3.786286e+00 2.445949e+00 3.450361e+00 7.385696e+00 4.297804e+00 3.559575e+00 4.684553e+00 4.493184e+00 2.623548e+00 2.878866e+00
<GCONST> 1.065890e+02
<STATE> 4
<MEAN> 25
 -3.431948e-01 -3.912892e-01 -9.172273e-01 -1.433873e+00 -4.125831e+00 -4.099292e-01 -1.947280e+00 2.479976e-01 -4.342199e+00 -1.686114e+00 -1.114344e-01 5.506686e-01 1.100052e+00 -2.838920e-01 6.196939e-01 -6.775208e-01 -1.234243e+00 -1.322391e+00 -4.610780e-01 -1.505635e+00 6.699963e-01 -1.082460e+00 -1.393883e+00 -6.075593e-02 1.280989e+00
<VARIANCE> 25
 4.296313e+01 1.929669e+01 5.714707e+01 3.976507e+01 7.534554e+01 5.153337e+01 2.661565e+01 4.370127e+01 2.543569e+01 3.303851e+01 3.167194e+01 2.655489e+01 3.428221e+00 1.990987e+00 3.252963e+00 3.363692e+00 4.698091e+00 4.353133e+00 5.032462e+00 4.790605e+00 3.034874e+00 4.521681e+00 4.131391e+00 2.688620e+00 3.312998e+00
<GCONST> 1.059259e+02
<TRANSP> 5
 0.000000e+00 1.000000e+00 0.000000e+00 0.000000e+00 0.000000e+00
 0.000000e+00 5.933635e-01 4.066364e-01 0.000000e+00 0.000000e+00
 0.000000e+00 0.000000e+00 5.688920e-01 4.311081e-01 0.000000e+00
 0.000000e+00 0.000000e+00 0.000000e+00 6.094790e-01 3.905210e-01
 0.000000e+00 0.000000e+00 0.000000e+00 0.000000e+00 0.000000e+00
<ENDHMM>
~h "l"
<BEGINHMM>
<NUMSTATES> 5
<STATE> 2
<MEAN> 25
 6.202449e+00 -1.555192e+00 -1.612587e+00 -9.888495e+00 -5.411433e+00 -2.015818e+00 -6.310160e+00 -4.179360e+00 -2.488127e+00 -1.094710e+00 2.037069e+00 1.019970e+00 7.156164e-01 1.074936e+00 3.252819e-01 -2.879076e-01 2.529678e-01 1.194312e+00 -4.161490e-01 -4.309114e-01 -8.530461e-01 -9.907805e-01 3.767969e-01 5.933312e-01 -1.070647e+00
<VARIANCE> 25
 1.526758e+01 1.861348e+01 8.645695e+00 1.921832e+01 1.429605e+01 4.079896e+01 2.431299e+01 3.157452e+01 3.229591e+01 4.002422e+01 1.658239e+01 2.056065e+01 5.020809e-01 7.210490e-01 6.870675e-01 1.363456e+00 1.058573e+00 3.257412e+00 2.177862e+00 1.941232e+00 2.338882e+00 2.678150e+00 1.547015e+00 1.536149e+00 6.175821e-01
<GCONST> 8.653423e+01
<STATE> 3
<MEAN> 25
 6.555942e+00 2.613973e+00 -7.158137e-01 -7.425857e+00 -3.456248e+00 1.256855e+00 -6.254734e+00 -5.719094e+00 -3.369787e+00 -2.131459e+00 1.857629e+00 7.697628e-01 -5.852007e-01 -1.638028e-01 -1.354901e-01 9.731081e-01 1.812793e-01 -7.386205e-01 9.338167e-01 6.567475e-01 6.727098e-01 6.137698e-01 -3.855352e-01 -1.946109e-01 -2.976120e-01
<VARIANCE> 25
 1.231956e+01 2.419900e+01 1.555287e+01 2.462458e+01 2.070041e+01 4.459311e+01 4.069650e+01 3.451590e+01 3.444704e+01 3.819788e+01 3.026324e+01 2.735790e+01 1.071856e+00 1.218372e+00 9.678186e-01 2.754856e+00 1.973300e+00 2.031814e+00 4.431303e+00 2.844991e+00 3.281502e+00 2.993431e+00 2.167634e+00 1.729786e+00 2.022892e+00
<GCONST> 9.505019e+01
<STATE> 4
<MEAN> 25
 3.154114e+00 3.040956e+00 -6.952744e-01 -1.060194e+00 3.407049e-01 5.706354e-01 1.605017e+00 -3.350817e-01 -7.289729e-01 -9.228492e-02 1.147163e+00 1.053932e+00 -8.512643e-01 -2.354364e-01 1.601588e-01 1.111000e+00 7.048747e-01 -1.157732e-01 5.870932e-01 5.497958e-01 1.004771e-01 3.127137e-01 -1.614505e-02 -2.193332e-01 -4.812212e-01
<VARIANCE> 25
 8.466395e+00 1.529845e+01 9.763077e+00 1.902688e+01 1.988985e+01 2.624454e+01 2.848251e+01 1.805370e+01 1.963395e+01 1.926627e+01 1.781633e+01 1.620429e+01 3.479760e-01 5.194664e-01 6.897327e-01 9.239273e-01 1.585679e+00 1.311607e+00 1.716158e+00 1.465575e+00 1.721055e+00 1.792526e+00 1.693537e+00 1.371765e+00 2.700961e-01
<GCONST> 8.029053e+01
<TRANSP> 5
 0.000000e+00 1.000000e+00 0.000000e+00 0.000000e+00 0.000000e+00
 0.000000e+00 7.807810e-01 2.192190e-01 0.000000e+00 0.000000e+00
 0.000000e+00 0.000000e+00 7.112786e-01 2.887214e-01 0.000000e+00
 0.000000e+00 0.000000e+00 0.000000e+00 6.829011e-01 3.170988e-01
 0.000000e+00 0.000000e+00 0.000000e+00 0.000000e+00 0.000000e+00
<ENDHMM>
~h "m"
<BEGINHMM>
<NUMSTATES> 5
<STATE> 2
<MEAN> 25
 5.240647e+00 1.326843e+00 2.869480e+00 2.983256e+00 5.017160e-01 6.010457e-01 -3.462801e+00 -4.890029e+00 -4.601686e+00 -5.624807e+00 -2.136084e+00 -6.923887e-01 1.231970e+00 1.021855e-01 1.241282e+00 8.451135e-01 -6.912138e-01 -6.388877e-01 -1.770320e+00 -1.509655e+00 -1.339907e+00 -1.704287e+00 -5.117251e-01 -2.394935e-01 6.446913e-01
<VARIANCE> 25
 1.524114e+01 2.364609e+01 1.979150e+01 3.898627e+01 4.662780e+01 3.445599e+01 4.621011e+01 3.985092e+01 2.131567e+01 3.625195e+01 1.735370e+01 2.229173e+01 1.299192e+00 1.388968e+00 1.919091e+00 1.130926e+00 2.188278e+00 5.319131e+00 6.350305e+00 3.694360e+00 2.312890e+00 3.846545e+00 2.732594e+00 1.341671e+00 2.587105e+00
<GCONST> 9.740107e+01
<STATE> 3
<MEAN> 25
 7.558467e+00 6.133271e-02 4.964447e+00 1.769375e+00 -2.302576e+00 2.293249e+00 -5.247897e+00 -8.363341e+00 -7.497982e+00 -8.858590e+00 -3.733755e+00 -1.347477e+00 -1.319943e-01 4.979741e-02 2.362707e-01 2.216522e-01 1.243768e-01 1.524688e-01 -4.833455e-02 -7.557347e-02 4.981959e-02 1.215412e-01 3.257689e-01 1.300289e-01 -1.108474e-01
<VARIANCE> 25
 3.775397e+00 1.726290e+01 1.381036e+01 3.961117e+01 2.777050e+01 3.102745e+01 2.486529e+01 1.780827e+01 2.181925e+01 2.857243e+01 2.510895e+01 2.013037e+01 3.247640e-01 8.089189e-01 6.949685e-01 1.715334e+00 1.688925e+00 1.369787e+00 1.569251e+00 9.640444e-01 1.375148e+00 1.900980e+00 1.313363e+00 1.891737e+00 9.629881e-01
<GCONST> 8.386622e+01
<STATE> 4
<MEAN> 25
 2.699988e+00 -2.291247e-02 5.668853e+00 -2.396893e-01 -5.341256e+00 -1.992222e+00 -7.246073e+00 -6.737250e+00 -4.207989e+00 -6.911994e+00 -1.604208e+00 -1.172274e+00 -9.032182e-01 -2.532439e-01 -5.570914e-01 -6.647462e-01 -3.240824e-01 -7.322007e-01 6.216339e-01 1.047102e+00 9.294236e-01 6.034351e-01 -2.085772e-01 1.848232e-01 7.235294e-01
<VARIANCE> 25
 1.816865e+01 2.451412e+01 3.635317e+01 2.774430e+01 3.821660e+01 5.563454e+01 4.057277e+01 3.571304e+01 2.438694e+01 2.870044e+01 2.106201e+01 2.809344e+01 1.256293e+00 1.000450e+00 1.843890e+00 2.657220e+00 1.839223e+00 2.811603e+00 2.916674e+00 2.947893e+00 3.438628e+00 3.300699e+00 2.794593e+00 1.921120e+00 2.664789e+00
<GCONST> 9.753915e+01
<TRANSP> 5
 0.000000e+00 1.000000e+00 0.000000e+00 0.000000e+00 0.000000e+00
 0.000000e+00 4.128562e-01 5.871438e-01 0.000000e+00 0.000000e+00
 0.000000e+00 0.000000e+00 7.189807e-01 2.810194e-01 0.000000e+00
 0.000000e+00 0.000000e+00 0.000000e+00 7.311400e-01 2.688600e-01
 0.000000e+00 0.000000e+00 0.000000e+00 0.000000e+00 0.000000e+00
<ENDHMM>
~h "n"
<BEGINHMM>
<NUMSTATES> 5
<STATE> 2
<MEAN> 25
 8.028072e+00 5.104642e-01 5.775388e+00 4.241366e+00 -2.653118e+00 5.313922e-01 -5.641417e+00 -4.661192e+00 2.829243e-01 -4.318453e+00 -7.674484e+00 -1.064106e+00 -6.669760e-02 8.882683e-01 -9.043778e-02 7.253218e-01 8.192149e-01 9.051776e-02 8.382017e-01 1.122091e-01 -1.805718e-01 3.230690e-01 2.266500e-01 3.269241e-01 -1.151966e+00
<VARIANCE> 25
 5.686378e+00 9.886058e+00 1.249456e+01 1.331914e+01 2.146972e+01 1.309701e+01 2.592680e+01 2.283469e+01 2.649240e+01 1.837760e+01 2.565630e+01 1.643259e+01 6.948347e-01 5.582457e-01 8.056650e-01 8.406045e-01 1.566267e+00 1.394831e+00 1.608584e+00 1.679034e+00 1.409644e+00 9.973769e-01 1.741242e+00 1.336548e+00 4.162663e-01
<GCONST> 8.009250e+01
<STATE> 3
<MEAN> 25
 2.630109e+00 3.772239e+00 2.516277e+00 5.395021e+00 4.653820e+00 1.992111e+00 1.264296e+00 7.139572e-01 -8.015111e-02 -3.493205e-01 -1.203580e+00 -2.445771e-01 -8.662464e-01 4.058855e-02 -5.016595e-01 -1.076229e-01 6.383852e-01 4.743342e-02 6.873133e-01 6.524603e-01 3.879698e-02 4.726495e-01 8.011843e-01 5.013630e-02 -5.011551e-01
<VARIANCE> 25
 1.814738e+01 8.328135e+00 1.073406e+01 1.488309e+01 2.291098e+01 2.264909e+01 2.189310e+01 2.726690e+01 2.275881e+01 1.764992e+01 1.970763e+01 1.513386e+01 9.685669e-01 7.902951e-01 8.229614e-01 1.233362e+00 1.486036e+00 1.881013e+00 2.136063e+00 2.133801e+00 2.093249e+00 1.716865e+00 1.817737e+00 1.431292e+00 6.334564e-01
<GCONST> 8.444717e+01
<STATE> 4
<MEAN> 25
 3.503779e-01 2.061664e+00 -6.039001e-01 4.573338e+00 6.282876e+00 3.862279e+00 4.667691e+00 3.232990e+00 1.879145e+00 3.177887e+00 2.443342e+00 8.155684e-01 -1.570466e-01 -1.065210e-01 -1.129627e-01 -5.008779e-02 1.048341e-02 2.067776e-02 1.139184e-01 2.200609e-01 1.347032e-01 1.577801e-01 2.103074e-01 1.192130e-01 -8.035443e-02
<VARIANCE> 25
 2.880872e+00 3.826265e+00 6.721085e+00 7.593174e+00 1.652578e+01 1.148342e+01 1.343898e+01 1.459558e+01 1.426341e+01 1.511507e+01 1.350252e+01 1.095296e+01 1.875045e-01 2.796707e-01 4.717046e-01 6.267694e-01 8.288795e-01 1.033714e+00 1.230204e+00 1.461298e+00 1.458256e+00 1.314596e+00 1.272500e+00 1.138447e+00 7.610357e-02
<GCONST> 6.788504e+01
<TRANSP> 5
 0.000000e+00 1.000000e+00 0.000000e+00 0.000000e+00 0.000000e+00
 0.000000e+00 7.570488e-01 2.429513e-01 0.000000e+00 0.000000e+00
 0.000000e+00 0.000000e+00 8.253163e-01 1.746837e-01 0.000000e+00
 0.000000e+00 0.000000e+00 0.000000e+00 8.837730e-01 1.162270e-01
 0.000000e+00 0.000000e+00 0.000000e+00 0.000000e+00 0.000000e+00
<ENDHMM>
~h "p"
<BEGINHMM>
<NUMSTATES> 5
<STATE> 2
<MEAN> 25
 8.738510e-01 8.969278e-01 -3.346157e+00 2.397374e+00 2.651028e+00 2.029169e+00 2.697526e+00 2.742394e+00 7.117391e-01 2.276353e-01 -2.475242e-01 2.127905e-01 -3.587435e-01 1.061706e-01 -6.140995e-01 1.002835e-01 7.785086e-02 -7.013109e-01 -8.742328e-01 5.105051e-01 -3.249275e-01 -5.949003e-02 5.014206e-01 5.553026e-01 8.072619e-01
<VARIANCE> 25
 6.266677e+00 1.174492e+01 1.389654e+01 1.423851e+01 1.900787e+01 2.320333e+01 1.947276e+01 2.188192e+01 1.839795e+01 1.884784e+01 1.744321e+01 2.433523e+01 1.057655e+00 1.504269e+00 1.223290e+00 1.592542e+00 2.678940e+00 2.500435e+00 2.235313e+00 2.684011e+00 2.409709e+00 2.067130e+00 1.775376e+00 2.764274e+00 2.111279e+00
<GCONST> 8.834509e+01
<STATE> 3
<MEAN> 25
 2.925796e+00 2.057011e+00 -3.661229e+00 -1.944898e+00 -8.433294e-01 -9.890556e-01 -6.447415e+00 -3.892201e+00 -4.254624e+00 -3.182697e+00 2.784687e-01 6.976889e-01 7.021409e-01 -9.135311e-01 4.840772e-01 -2.122682e+00 -1.709628e+00 -1.523888e+00 -2.892812e+00 -3.025020e+00 -1.164254e+00 -4.222488e-01 5.209444e-01 -4.559754e-02 2.889560e+00
<VARIANCE> 25
 1.089255e+01 2.086605e+01 1.327124e+01 3.343359e+01 4.402032e+01 2.974050e+01 5.221400e+01 5.245273e+01 2.697046e+01 3.102544e+01 1.974579e+01 1.287275e+01 1.330778e+00 2.731411e+00 1.701856e+00 2.735890e+00 1.883151e+00 2.162205e+00 2.775231e+00 4.981022e+00 3.611198e+00 4.931536e+00 2.219604e+00 2.958382e+00 1.500108e+00
<GCONST> 9.685474e+01
<STATE> 4
<MEAN> 25
 2.257058e+00 -3.859840e+00 -3.964787e+00 -6.011558e+00 -5.199571e+00 -8.041017e+00 -1.054734e+01 -7.417505e+00 -9.524276e-01 2.474390e+00 2.678439e+00 1.357449e-01 -3.174827e-01 -4.998142e-01 1.148525e-01 -8.115661e-02 -3.095860e-01 -4.264884e-01 2.106361e-01 7.011049e-01 8.789442e-01 2.846159e-01 -2.857879e-01 -6.828469e-02 3.226312e-01
<VARIANCE> 25
 7.276095e+00 1.155059e+01 1.480532e+01 1.422208e+01 3.144890e+01 1.693772e+01 3.312646e+01 5.069430e+01 4.088668e+01 3.289421e+01 3.450077e+01 3.602790e+01 3.743948e-01 7.265262e-01 6.832913e-01 1.024094e+00 7.575360e-01 2.070058e+00 1.729224e+00 2.917192e+00 2.220295e+00 3.241976e+00 2.778941e+00 1.986479e+00 4.237937e-01
<GCONST> 8.699447e+01
<TRANSP> 5
 0.000000e+00 1.000000e+00 0.000000e+00 0.000000e+00 0.000000e+00
 0.000000e+00 7.582691e-01 2.417309e-01 0.000000e+00 0.000000e+00
 0.000000e+00 0.000000e+00 6.260653e-01 3.739348e-01 0.000000e+00
 0.000000e+00 0.000000e+00 0.000000e+00 7.703195e-01 2.296806e-01
 0.000000e+00 0.000000e+00 0.000000e+00 0.000000e+00 0.000000e+00
<ENDHMM>
~h "r"
<BEGINHMM>
<NUMSTATES> 5
<STATE> 2
<MEAN> 25
 -8.891705e-02 -3.281311e+00 -1.237335e+00 4.196152e-01 -3.322960e+00 -4.710137e+00 -5.481869e+00 -2.603737e+00 -1.205462e+00 3.708921e-01 7.133291e-01 -7.766820e-02 1.692327e+00 -6.593308e-01 -1.902355e-01 -4.592641e-02 -2.587230e-01 -1.445392e+00 -1.988817e+00 -1.625184e+00 -3.962521e-01 -4.932829e-03 -4.907403e-01 -3.774545e-01 7.970290e-01
<VARIANCE> 25
 7.623413e+01 2.103675e+01 2.325732e+01 5.125013e+01 2.416838e+01 3.096984e+01 4.939245e+01 5.724725e+01 2.823728e+01 3.110415e+01 1.571056e+01 2.272952e+01 4.260684e+00 1.026146e+00 2.219018e+00 6.013597e+00 3.023823e+00 2.440278e+00 4.116899e+00 5.334122e+00 3.773981e+00 4.151073e+00 1.969362e+00 2.057753e+00 2.023159e+00
<GCONST> 1.016412e+02
<STATE> 3
<MEAN> 25
 4.700023e+00 -5.232708e+00 -2.288000e+00 -1.434309e+00 -4.627084e+00 -8.106809e+00 -8.631140e+00 -6.344012e+00 -1.510731e+00 -3.938573e-01 -9.685951e-01 -3.086491e-01 -2.745217e-01 3.925807e-02 -4.320531e-02 -4.087754e-02 5.196914e-02 2.740951e-01 7.700530e-01 3.415905e-01 1.067497e-01 -2.833917e-01 -1.101575e-01 4.821144e-02 -1.935267e-01
<VARIANCE> 25
 1.942514e+01 5.854517e+00 1.811004e+01 2.427774e+01 1.537092e+01 3.342357e+01 3.015754e+01 3.930435e+01 3.511628e+01 2.622213e+01 1.341076e+01 1.437053e+01 1.325259e+00 6.619714e-01 1.936587e+00 3.076584e+00 1.515229e+00 2.137286e+00 2.675996e+00 2.351628e+00 4.273232e+00 3.339100e+00 1.777253e+00 1.493000e+00 1.904926e+00
<GCONST> 9.111945e+01
<STATE> 4
<MEAN> 25
 9.561958e-01 -5.168149e+00 -3.805997e+00 -4.769585e+00 -3.431515e+00 -6.364701e+00 -5.791019e+00 -3.417274e+00 5.528278e-01 2.939723e-01 -1.248713e+00 -2.198756e+00 -2.497856e-01 1.838002e-01 1.784059e-01 -5.142762e-02 2.754483e-01 4.484218e-01 4.155549e-01 -1.552885e-01 -4.232639e-01 -2.508035e-01 -2.705202e-02 -2.213015e-01 -2.048410e-01
<VARIANCE> 25
 1.927147e+01 8.175630e+00 1.475366e+01 2.169872e+01 1.701256e+01 4.983825e+01 5.200298e+01 3.907699e+01 2.769906e+01 2.430663e+01 2.812939e+01 2.235118e+01 4.681660e-01 5.266485e-01 1.154302e+00 9.058620e-01 1.295603e+00 1.748301e+00 1.987224e+00 1.419535e+00 2.494054e+00 1.990518e+00 1.705376e+00 2.031122e+00 4.196785e-01
<GCONST> 8.656644e+01
<TRANSP> 5
 0.000000e+00 1.000000e+00 0.000000e+00 0.000000e+00 0.000000e+00
 0.000000e+00 6.402175e-01 3.597825e-01 0.000000e+00 0.000000e+00
 0.000000e+00 0.000000e+00 6.949832e-01 3.050168e-01 0.000000e+00
 0.000000e+00 0.000000e+00 0.000000e+00 7.476435e-01 2.523565e-01
 0.000000e+00 0.000000e+00 0.000000e+00 0.000000e+00 0.000000e+00
<ENDHMM>
~h "s"
<BEGINHMM>
<NUMSTATES> 5
<STATE> 2
<MEAN> 25
 -8.252414e+00 6.222653e+00 -7.989171e-01 2.799908e+00 6.268537e+00 -8.230297e-01 1.570721e+00 5.741788e+00 -2.545519e-01 1.229684e+00 1.769654e+00 1.500058e+00 -2.701104e+00 1.430390e+00 -1.065428e+00 -2.276897e-01 3.390583e-01 -3.543257e-01 5.100650e-01 5.867415e-01 -8.752226e-02 9.753866e-02 -1.395227e-02 2.984340e-01 1.158784e+00
<VARIANCE> 25
 3.398678e+01 2.364472e+01 1.568387e+01 1.499914e+01 3.508085e+01 3.353749e+01 2.989079e+01 3.039128e+01 2.482950e+01 2.403383e+01 2.411233e+01 1.815281e+01 1.909564e+00 1.647033e+00 1.368017e+00 1.234906e+00 2.725253e+00 2.374628e+00 2.767323e+00 2.169287e+00 2.217089e+00 2.296632e+00 1.785545e+00 1.423363e+00 1.082000e+00
<GCONST> 9.242082e+01
<STATE> 3
<MEAN> 25
 -1.500299e+01 6.670818e+00 -4.183744e+00 1.734662e+00 2.250374e+00 1.726686e-01 3.604732e+00 4.597880e+00 -4.607685e-01 1.253479e+00 -1.016948e-01 1.768970e+00 1.453916e-01 -2.534541e-01 4.552737e-02 -5.927476e-02 -1.573832e-02 8.879133e-02 2.168844e-02 5.624496e-02 7.698335e-02 -4.238671e-02 1.195350e-01 -1.102562e-02 -5.597242e-02
<VARIANCE> 25
 5.004368e+00 1.835175e+01 9.200808e+00 1.681098e+01 2.497455e+01 1.619178e+01 1.672955e+01 2.151061e+01 1.543252e+01 1.606515e+01 1.450757e+01 1.380713e+01 7.162977e-01 1.245358e+00 5.974299e-01 1.221027e+00 2.234697e+00 1.657955e+00 1.550651e+00 1.829887e+00 1.435060e+00 1.666467e+00 1.553739e+00 1.163928e+00 8.490098e-01
<GCONST> 8.143300e+01
<STATE> 4
<MEAN> 25
 -7.080355e+00 4.470202e+00 -2.082483e+00 3.078096e+00 5.001487e+00 2.314505e-04 2.749801e+00 5.545806e+00 1.274630e+00 1.997448e+00 1.623019e+00 2.031941e+00 1.861478e+00 -4.050867e-01 4.797044e-01 1.825819e-01 -4.679116e-01 -1.779006e-01 -7.354846e-01 -8.222405e-01 -8.784058e-02 -2.510651e-01 -3.059146e-01 -2.809368e-01 -3.549890e-01
<VARIANCE> 25
 2.928812e+01 1.423765e+01 1.563132e+01 1.847177e+01 3.307344e+01 2.818301e+01 2.593243e+01 3.191710e+01 2.054632e+01 2.671340e+01 1.964007e+01 1.614387e+01 2.600948e+00 1.973218e+00 1.745957e+00 2.019093e+00 3.246549e+00 3.394131e+00 3.700026e+00 3.906493e+00 2.644946e+00 2.278916e+00 1.789777e+00 1.529191e+00 2.012193e+00
<GCONST> 9.473708e+01
<TRANSP> 5
 0.000000e+00 1.000000e+00 0.000000e+00 0.000000e+00 0.000000e+00
 0.000000e+00 7.481626e-01 2.518374e-01 0.000000e+00 0.000000e+00
 0.000000e+00 0.000000e+00 8.916752e-01 1.083248e-01 0.000000e+00
 0.000000e+00 0.000000e+00 0.000000e+00 7.870257e-01 2.129743e-01
 0.000000e+00 0.000000e+00 0.000000e+00 0.000000e+00 0.000000e+00
<ENDHMM>
~h "t"
<BEGINHMM>
<NUMSTATES> 5
<STATE> 2
<MEAN> 25
 -4.681050e+00 4.073661e+00 7.619443e-02 2.290945e+00 2.039444e+00 1.272358e+00 -4.144696e-01 4.017681e+00 -1.870616e+00 -1.325739e+00 1.657112e-01 1.316600e+00 -2.091148e+00 5.973016e-01 -5.206460e-01 -4.474884e-01 1.449589e-01 -7.089149e-01 -4.391991e-01 1.442727e+00 -4.016078e-01 -3.679901e-01 1.559516e-01 2.078912e-01 1.510362e+00
<VARIANCE> 25
 3.058071e+01 2.017568e+01 2.042039e+01 1.707225e+01 2.094535e+01 2.465722e+01 3.544809e+01 5.170989e+01 2.110148e+01 2.300936e+01 2.020871e+01 1.652209e+01 2.597225e+00 1.799464e+00 2.487009e+00 1.609294e+00 3.169438e+00 2.244569e+00 3.599129e+00 5.355121e+00 2.031029e+00 2.535532e+00 2.029451e+00 1.858293e+00 1.447837e+00
<GCONST> 9.516858e+01
<STATE> 3
<MEAN> 25
 -8.091534e+00 2.391929e+00 -2.309833e-01 2.623123e-01 3.897887e-01 -2.459874e+00 -2.310479e+00 7.774374e+00 -3.749183e-01 -1.870932e+00 1.603245e+00 2.473543e+00 1.303476e+00 -1.003146e+00 2.980390e-01 -1.635499e-01 -6.390186e-01 -6.248091e-01 -5.954795e-01 -9.703528e-01 3.561207e-01 5.494071e-04 -8.944564e-02 -1.169482e-01 2.862637e-01
<VARIANCE> 25
 3.391715e+01 1.826096e+01 1.557824e+01 1.582635e+01 3.288726e+01 2.598765e+01 4.358325e+01 7.125680e+01 2.690684e+01 2.136437e+01 2.603277e+01 2.255108e+01 3.080933e+00 1.609122e+00 1.302402e+00 2.115676e+00 3.677814e+00 2.295348e+00 3.385025e+00 7.729394e+00 2.864023e+00 1.903506e+00 2.611396e+00 2.476331e+00 1.945095e+00
<GCONST> 9.764407e+01
<STATE> 4
<MEAN> 25
 -7.978948e-01 2.394646e-03 -7.796274e-01 1.739918e+00 3.210503e+00 1.118920e+00 1.498677e+00 3.204738e+00 2.221576e+00 9.191140e-01 1.566798e+00 1.177141e+00 3.320045e-01 -1.291544e-01 -6.343840e-02 -4.601559e-02 -1.210598e-01 3.060902e-01 1.445663e-01 -6.364152e-01 1.940763e-01 3.798188e-01 6.562117e-02 -1.905737e-01 -2.030898e-01
<VARIANCE> 25
 8.391270e+00 8.886255e+00 9.870671e+00 1.576723e+01 4.487521e+01 3.103086e+01 4.401044e+01 4.812555e+01 2.500104e+01 1.844077e+01 1.631321e+01 1.621692e+01 8.842591e-01 7.725675e-01 7.637898e-01 1.345722e+00 2.253276e+00 1.463200e+00 1.586543e+00 2.301004e+00 1.974602e+00 1.934713e+00 1.745116e+00 1.556187e+00 9.813211e-01
<GCONST> 8.636961e+01
<TRANSP> 5
 0.000000e+00 1.000000e+00 0.000000e+00 0.000000e+00 0.000000e+00
 0.000000e+00 7.317870e-01 2.682130e-01 0.000000e+00 0.000000e+00
 0.000000e+00 0.000000e+00 7.806035e-01 2.193965e-01 0.000000e+00
 0.000000e+00 0.000000e+00 0.000000e+00 7.088595e-01 2.911405e-01
 0.000000e+00 0.000000e+00 0.000000e+00 0.000000e+00 0.000000e+00
<ENDHMM>
~h "v"
<BEGINHMM>
<NUMSTATES> 5
<STATE> 2
<MEAN> 25
 2.098037e+00 -1.965683e+00 1.153589e+00 6.700572e-01 -9.724360e-01 -2.500437e+00 -1.537152e+00 -3.374126e-01 1.059886e+00 2.196407e+00 -1.231677e+00 8.960859e-01 -4.280710e-01 2.000485e-01 -7.617999e-01 3.589216e-01 5.389734e-01 5.363727e-01 1.135401e+00 7.697037e-01 8.838527e-01 1.027769e+00 1.607365e-01 -2.993575e-01 -7.288873e-01
<VARIANCE> 25
 1.796858e+01 1.617487e+01 1.933052e+01 4.531662e+01 4.242307e+01 3.501612e+01 4.142997e+01 3.360170e+01 3.546225e+01 4.425418e+01 3.064881e+01 9.067125e+00 8.242932e-01 1.081829e+00 1.059991e+00 1.825588e+00 1.463163e+00 2.868718e+00 2.330612e+00 1.871982e+00 2.898284e+00 3.659492e+00 1.999034e+00 1.231262e+00 1.397830e+00
<GCONST> 9.297237e+01
<STATE> 3
<MEAN> 25
 -6.170422e-01 1.346522e+00 3.482191e-01 4.703590e+00 1.584168e+00 -1.729920e-01 1.929872e+00 2.643404e+00 1.320306e+00 1.969880e+00 -1.222167e-01 3.206094e-01 -1.360720e-01 1.200782e-01 -1.677512e-01 1.342674e-02 4.956438e-01 1.872710e-01 2.436703e-01 3.118683e-01 3.206825e-01 1.497619e-01 2.877652e-01 -1.703890e-01 -4.974845e-01
<VARIANCE> 25
 9.304598e+00 1.302247e+01 1.240106e+01 3.302747e+01 2.801138e+01 1.457552e+01 1.961569e+01 2.009595e+01 1.432553e+01 1.668375e+01 1.488486e+01 1.166812e+01 8.554772e-01 7.646160e-01 7.084883e-01 9.185093e-01 1.526987e+00 1.245088e+00 1.743228e+00 1.379987e+00 1.860080e+00 2.208612e+00 1.751918e+00 1.359308e+00 3.976150e-01
<GCONST> 8.140635e+01
<STATE> 4
<MEAN> 25
 -5.276057e-01 8.909307e-01 -7.445438e-01 3.724283e+00 5.554052e+00 2.459446e+00 3.670335e+00 2.729443e+00 2.295434e+00 3.245924e+00 1.912740e+00 3.534268e-01 -1.945419e-02 3.827775e-03 -4.363564e-02 1.281732e-03 1.035987e-01 1.424360e-02 -1.028675e-02 -2.537630e-02 -4.498311e-02 1.821460e-02 6.648980e-02 9.969222e-03 -3.801240e-02
<VARIANCE> 25
 2.211934e+00 4.130049e+00 5.239655e+00 1.171147e+01 1.303144e+01 1.198408e+01 1.058187e+01 1.132702e+01 1.417303e+01 1.376589e+01 1.306488e+01 1.094313e+01 1.669442e-01 2.562734e-01 4.668841e-01 6.480508e-01 9.309946e-01 9.845023e-01 1.219823e+00 1.254095e+00 1.671112e+00 1.366966e+00 1.151128e+00 1.238905e+00 8.054916e-02
<GCONST> 6.700246e+01
<TRANSP> 5
 0.000000e+00 1.000000e+00 0.000000e+00 0.000000e+00 0.000000e+00
 0.000000e+00 4.198686e-01 5.801313e-01 0.000000e+00 0.000000e+00
 0.000000e+00 0.000000e+00 7.003338e-01 2.996663e-01 0.000000e+00
 0.000000e+00 0.000000e+00 0.000000e+00 9.085858e-01 9.141419e-02
 0.000000e+00 0.000000e+00 0.000000e+00 0.000000e+00 0.000000e+00
<ENDHMM>
~h "w"
<BEGINHMM>
<NUMSTATES> 5
<STATE> 2
<MEAN> 25
 7.581503e+00 4.678121e+00 1.623562e+00 -3.490584e+00 -5.989035e+00 2.506820e-01 -4.400587e+00 -5.170732e+00 -3.638793e+00 -5.635460e+00 -3.460595e+00 -1.080218e-01 8.097405e-01 -4.402012e-01 7.381387e-03 -1.345460e+00 -1.794754e+00 -9.520849e-01 -1.670728e+00 -1.418851e+00 -5.742810e-01 -5.836828e-01 -2.215945e-01 -9.400629e-02 1.934395e+00
<VARIANCE> 25
 1.577493e+01 2.218485e+01 1.757059e+01 4.038199e+01 5.882768e+01 2.274410e+01 3.987333e+01 3.139016e+01 3.161286e+01 4.331282e+01 2.762973e+01 1.681672e+01 2.616378e+00 2.787309e+00 1.278493e+00 2.199478e+00 6.361880e+00 4.108355e+00 2.940369e+00 3.655496e+00 3.509060e+00 7.186693e+00 4.616582e+00 1.713958e+00 1.349857e+00
<GCONST> 1.003187e+02
<STATE> 3
<MEAN> 25
 3.673123e+00 -5.289027e+00 -1.481493e+00 -6.062422e+00 -8.294271e+00 -7.900203e+00 -1.097241e+01 -1.204263e+01 -7.920442e+00 -1.714020e+00 4.014668e+00 3.477141e+00 -3.579773e-01 -3.848401e-01 -3.591809e-01 -2.274942e-01 3.470552e-01 -1.475675e-01 1.874868e-01 -9.779865e-02 2.385671e-01 6.732334e-01 3.397076e-01 -2.250021e-01 4.909188e-01
<VARIANCE> 25
 1.297691e+01 9.482458e+00 2.322729e+01 1.133587e+01 1.613315e+01 1.693461e+01 2.258460e+01 3.031868e+01 3.989456e+01 5.549440e+01 3.098391e+01 2.601221e+01 1.367502e+00 1.524260e+00 1.338722e+00 1.806825e+00 9.568823e-01 2.578596e+00 2.597709e+00 3.611260e+00 4.355476e+00 3.950745e+00 3.799403e+00 2.293553e+00 1.321718e+00
<GCONST> 9.291553e+01
<STATE> 4
<MEAN> 25
 3.907970e+00 -4.038503e+00 -2.250334e+00 -9.740910e+00 -8.245903e+00 -6.573289e+00 -4.507551e+00 -3.323697e+00 -1.250733e+00 -7.124907e-01 -4.046861e-01 1.200353e-01 -1.148107e+00 -6.654023e-01 -4.614570e-01 -1.028467e+00 -4.631326e-01 2.932914e-01 2.627477e+00 1.771311e+00 9.171125e-01 -4.311437e-01 -7.830967e-01 -1.038187e-01 9.663453e-01
<VARIANCE> 25
 8.452188e+00 1.035916e+01 9.668462e+00 1.340956e+01 1.015362e+01 2.082495e+01 4.498236e+01 4.296049e+01 3.372989e+01 4.615567e+01 1.363678e+01 1.411005e+01 8.039171e-01 5.773252e-01 1.121212e+00 9.824113e-01 8.690327e-01 2.750691e+00 4.901156e+00 3.088583e+00 2.898966e+00 3.966537e+00 2.130744e+00 2.497329e+00 4.643195e-01
<GCONST> 8.707912e+01
<TRANSP> 5
 0.000000e+00 1.000000e+00 0.000000e+00 0.000000e+00 0.000000e+00
 0.000000e+00 8.258748e-01 1.741252e-01 0.000000e+00 0.000000e+00
 0.000000e+00 0.000000e+00 7.199208e-01 2.800792e-01 0.000000e+00
 0.000000e+00 0.000000e+00 0.000000e+00 5.928031e-01 4.071969e-01
 0.000000e+00 0.000000e+00 0.000000e+00 0.000000e+00 0.000000e+00
<ENDHMM>
~h "y"
<BEGINHMM>
<NUMSTATES> 5
<STATE> 2
<MEAN> 25
 5.614673e-01 2.161442e+00 8.869099e+00 2.177920e+00 -6.610587e+00 2.065522e-02 -7.277893e+00 -3.144060e+00 -4.495892e+00 -6.400873e+00 -3.118281e-01 -1.046461e+00 6.293701e-02 5.075565e-02 1.482009e+00 -1.167313e+00 -2.045284e+00 -1.929788e-02 -1.071153e+00 -2.903922e+00 -1.179406e+00 -1.930254e+00 -7.386818e-01 -3.780708e-01 1.998920e+00
<VARIANCE> 25
 9.370269e+00 1.724041e+01 5.949023e+01 4.548135e+01 6.171234e+01 6.458659e+01 5.386883e+01 7.105964e+01 3.803053e+01 4.997058e+01 2.667889e+01 1.367899e+01 2.067155e+00 1.601793e+00 6.795341e+00 4.538608e+00 5.729899e+00 6.238820e+00 6.090188e+00 6.176495e+00 4.191635e+00 5.444177e+00 2.676844e+00 3.283273e+00 3.389821e+00
<GCONST> 1.072769e+02
<STATE> 3
<MEAN> 25
 -6.860065e-01 -2.492420e+00 5.441252e+00 -1.840879e+00 -9.583561e+00 -7.098557e+00 -7.945140e+00 -1.011126e+01 -6.708988e+00 -6.942241e+00 -2.075687e+00 9.350244e-01 1.841897e-01 -3.546076e-01 -3.579220e-01 -1.036590e-01 4.468065e-02 -3.633377e-01 -2.084768e-02 3.114014e-01 3.565046e-01 7.515898e-01 1.051144e-01 1.054689e-01 3.279310e-02
<VARIANCE> 25
 1.574636e+01 1.089517e+01 3.502067e+01 2.172969e+01 3.032976e+01 3.830770e+01 2.237418e+01 4.342614e+01 3.615635e+01 4.629903e+01 2.035011e+01 2.781527e+01 6.421410e-01 1.132108e+00 2.488325e+00 2.888486e+00 1.719003e+00 3.965841e+00 2.122718e+00 4.224129e+00 4.764335e+00 4.745404e+00 2.015384e+00 2.765957e+00 1.380348e+00
<GCONST> 9.635020e+01
<STATE> 4
<MEAN> 25
 3.904009e+00 -1.830401e+00 8.529873e-01 -9.173661e-01 -6.764897e+00 -6.410177e+00 -6.390609e+00 -7.405823e+00 -5.755189e+00 -3.451069e+00 -2.911702e+00 -2.943673e+00 2.665134e-01 2.431656e-01 -1.710856e-01 9.555245e-02 5.322981e-01 9.260362e-02 3.074980e-01 9.708924e-02 4.610123e-02 9.513976e-02 3.895961e-01 -7.298760e-02 -5.150632e-01
<VARIANCE> 25
 1.262452e+01 8.695448e+00 3.725945e+01 4.337775e+01 3.267776e+01 1.654003e+01 3.023128e+01 2.584566e+01 2.182533e+01 2.246609e+01 3.690012e+01 2.616293e+01 3.202873e-01 4.937080e-01 1.154948e+00 1.438949e+00 1.023433e+00 1.892642e+00 1.752890e+00 2.059126e+00 1.828769e+00 1.352003e+00 2.014889e+00 2.570849e+00 8.655087e-01
<GCONST> 8.706825e+01
<TRANSP> 5
 0.000000e+00 1.000000e+00 0.000000e+00 0.000000e+00 0.000000e+00
 0.000000e+00 6.204692e-01 3.795308e-01 0.000000e+00 0.000000e+00
 0.000000e+00 0.000000e+00 7.937354e-01 2.062646e-01 0.000000e+00
 0.000000e+00 0.000000e+00 0.000000e+00 7.113724e-01 2.886276e-01
 0.000000e+00 0.000000e+00 0.000000e+00 0.000000e+00 0.000000e+00
<ENDHMM>
~h "z"
<BEGINHMM>
<NUMSTATES> 5
<STATE> 2
<MEAN> 25
 -5.116919e+00 7.391139e+00 -1.484841e+00 3.114612e+00 3.533323e+00 7.600238e-01 3.540844e-01 4.308098e+00 -1.201451e+00 8.125243e-01 -1.345913e+00 6.464862e-02 -1.532915e+00 1.210479e+00 -1.512405e-01 1.333766e-01 6.805787e-01 -8.815668e-02 3.277776e-01 4.959642e-01 -2.411205e-01 1.976368e-02 1.471402e-02 -1.384352e-01 6.039925e-01
<VARIANCE> 25
 2.027833e+01 1.944044e+01 1.991605e+01 1.984992e+01 2.026546e+01 4.236731e+01 2.201479e+01 1.993889e+01 1.647732e+01 2.336154e+01 2.759927e+01 1.494294e+01 2.071947e+00 1.987249e+00 1.511855e+00 1.874503e+00 2.241683e+00 3.809818e+00 2.738729e+00 1.962892e+00 1.449292e+00 2.159333e+00 2.324357e+00 1.383325e+00 7.855160e-01
<GCONST> 9.106938e+01
<STATE> 3
<MEAN> 25
 -1.364525e+01 9.686180e+00 -2.920996e+00 2.417051e+00 6.602931e+00 9.405438e-01 3.487248e+00 8.928042e+00 -1.084562e+00 2.609352e+00 1.587519e+00 6.296532e-01 2.234187e-01 -4.374404e-01 2.854066e-01 -1.525389e-01 2.988794e-02 -4.599268e-01 -2.508892e-01 1.946811e-01 -7.775082e-02 -1.963148e-01 1.763989e-01 1.810960e-01 7.597695e-02
<VARIANCE> 25
 7.160191e+00 6.935911e+00 9.103706e+00 1.726300e+01 2.369738e+01 2.436259e+01 2.340310e+01 2.996243e+01 1.907412e+01 1.823281e+01 3.051114e+01 1.636271e+01 1.165579e+00 8.669620e-01 8.719798e-01 9.593428e-01 1.431160e+00 2.017693e+00 1.666918e+00 2.417315e+00 1.806698e+00 1.451155e+00 1.566666e+00 1.108071e+00 6.902987e-01
<GCONST> 8.331615e+01
<STATE> 4
<MEAN> 25
 -4.436189e+00 2.291547e+00 2.069745e-01 4.316697e+00 8.116330e+00 -9.012673e-01 2.733831e+00 8.092392e+00 1.225596e+00 1.041571e+00 8.162487e-01 1.639637e+00 1.259006e+00 -7.304997e-01 4.152215e-01 3.950584e-01 -3.146014e-01 8.100827e-01 1.349056e-01 -8.417515e-01 5.019098e-01 -1.153698e-01 -5.027022e-01 -3.686740e-02 -6.589497e-01
<VARIANCE> 25
 9.593885e+00 1.063783e+01 6.874936e+00 1.305863e+01 2.445280e+01 4.305409e+01 3.515109e+01 4.644881e+01 2.378005e+01 1.649634e+01 3.249687e+01 1.476433e+01 9.612427e-01 1.430000e+00 1.389974e+00 2.056611e+00 1.802897e+00 3.437948e+00 4.103418e+00 2.369792e+00 2.104128e+00 2.711507e+00 2.583788e+00 1.426405e+00 8.893120e-01
<GCONST> 8.996825e+01
<TRANSP> 5
 0.000000e+00 1.000000e+00 0.000000e+00 0.000000e+00 0.000000e+00
 0.000000e+00 8.255237e-01 1.744764e-01 0.000000e+00 0.000000e+00
 0.000000e+00 0.000000e+00 8.952772e-01 1.047228e-01 0.000000e+00
 0.000000e+00 0.000000e+00 0.000000e+00 7.549388e-01 2.450613e-01
 0.000000e+00 0.000000e+00 0.000000e+00 0.000000e+00 0.000000e+00
<ENDHMM>
~h "aa"
<BEGINHMM>
<NUMSTATES> 5
<STATE> 2
<MEAN> 25
 3.674471e+00 -2.373585e+00 -3.155393e+00 -8.790755e+00 -6.387553e+00 -1.775316e+00 -3.116748e+00 -4.985564e+00 -4.154028e+00 -4.222286e+00 -8.430948e-01 8.460389e-01 1.629765e-01 -6.802588e-01 -4.173598e-01 -1.128307e+00 -7.473951e-01 -3.909112e-02 1.772217e-01 -4.554477e-01 -2.146970e-01 -3.541766e-01 -3.906691e-01 -8.620647e-02 1.184422e+00
<VARIANCE> 25
 1.825321e+01 4.275068e+01 1.108415e+01 3.977821e+01 4.026743e+01 3.999986e+01 4.810967e+01 3.281963e+01 3.533306e+01 2.585938e+01 2.429124e+01 2.087127e+01 1.525647e+00 2.241755e+00 8.136012e-01 1.795492e+00 3.601902e+00 3.599498e+00 3.040460e+00 3.635366e+00 2.974167e+00 2.985123e+00 2.270485e+00 1.865951e+00 2.821306e+00
<GCONST> 9.772861e+01
<STATE> 3
<MEAN> 25
 9.429443e-01 -8.973603e+00 -8.156089e+00 -1.176445e+01 -2.398520e+00 5.246189e+00 3.757535e+00 -7.064178e+00 -4.687002e+00 -2.605769e-01 -3.704226e+00 -5.325075e+00 2.705634e-01 3.364111e-02 9.607571e-02 4.339505e-01 3.021139e-01 -8.810986e-02 -3.011642e-01 1.891932e-01 3.476235e-01 1.846773e-01 -4.108567e-02 -2.136947e-01 -3.291127e-01
<VARIANCE> 25
 1.687289e+01 4.470719e+00 6.952603e+00 1.245641e+01 2.425878e+01 3.468564e+01 3.688126e+01 2.720778e+01 1.816677e+01 2.142377e+01 1.311940e+01 1.888852e+01 8.064779e-01 4.361107e-01 5.071008e-01 7.158609e-01 8.268479e-01 2.223596e+00 2.161773e+00 1.818523e+00 1.576005e+00 1.924108e+00 1.336711e+00 1.438377e+00 7.197925e-01
<GCONST> 8.120859e+01
<STATE> 4
<MEAN> 25
 4.908637e+00 -3.002181e+00 -5.390740e+00 -4.891462e+00 -2.265447e+00 4.679412e-01 -1.598628e+00 -1.122930e+00 1.211553e-01 -6.087229e-01 -3.092902e+00 -3.334463e+00 -3.603019e-01 9.570058e-01 3.489801e-01 8.557442e-01 5.954934e-01 2.460227e-02 -9.684659e-02 5.055379e-01 -1.740177e-01 -3.185271e-02 3.009230e-01 5.349580e-01 -1.116672e+00
<VARIANCE> 25
 2.077374e+01 2.950937e+01 1.983217e+01 2.485700e+01 3.703099e+01 6.236203e+01 4.924226e+01 3.546293e+01 2.579049e+01 3.130324e+01 1.644634e+01 2.925143e+01 2.275335e+00 9.904610e-01 1.807092e+00 1.859758e+00 1.640754e+00 4.763377e+00 3.590464e+00 3.247112e+00 2.904059e+00 2.823349e+00 1.646271e+00 2.210365e+00 1.331754e+00
<GCONST> 9.686456e+01
<TRANSP> 5
 0.000000e+00 1.000000e+00 0.000000e+00 0.000000e+00 0.000000e+00
 0.000000e+00 8.929313e-01 1.070687e-01 0.000000e+00 0.000000e+00
 0.000000e+00 0.000000e+00 8.646753e-01 1.353246e-01 0.000000e+00
 0.000000e+00 0.000000e+00 0.000000e+00 7.938718e-01 2.061282e-01
 0.000000e+00 0.000000e+00 0.000000e+00 0.000000e+00 0.000000e+00
<ENDHMM>
~h "ae"
<BEGINHMM>
<NUMSTATES> 5
<STATE> 2
<MEAN> 25
 5.748841e-01 -3.732453e+00 -2.334122e+00 -1.327307e+00 -1.040013e+00 -1.011282e+00 4.038065e-01 4.570738e+00 -7.463441e-01 -1.756761e+00 -3.432863e+00 -1.385776e+00 2.716883e-01 -1.399369e+00 -7.794397e-01 -1.613995e+00 -1.181429e+00 -9.047734e-01 -2.426361e-01 -3.817049e-01 1.023959e-01 -1.300449e+00 -2.016158e+00 -3.869250e-01 3.023014e+00
<VARIANCE> 25
 2.160035e+01 2.841681e+01 1.125239e+01 2.792740e+01 4.631767e+01 3.430494e+01 4.195607e+01 7.704339e+01 3.506404e+01 2.773401e+01 4.591859e+01 2.145017e+01 2.438263e+00 2.185980e+00 1.614590e+00 2.115319e+00 3.063220e+00 2.525664e+00 3.838683e+00 8.699512e+00 5.221232e+00 2.936252e+00 3.747992e+00 2.931787e+00 2.634478e+00
<GCONST> 1.018925e+02
<STATE> 3
<MEAN> 25
 -1.470247e+00 -8.375438e+00 -5.984397e+00 -7.290166e+00 -1.230699e+00 -1.667688e+00 -4.773333e-01 -1.799015e+00 8.466366e-01 -6.110038e+00 -1.065261e+01 -2.843402e+00 -1.076753e-01 -9.473202e-02 -5.795980e-02 -8.219770e-02 2.023006e-02 -8.728854e-02 -1.066676e-02 -1.549510e-01 1.735274e-01 1.123086e-01 4.925177e-02 -2.277259e-01 1.906310e-01
<VARIANCE> 25
 1.186243e+01 4.233532e+00 7.009707e+00 8.407355e+00 2.581929e+01 3.931401e+01 1.458023e+01 3.024501e+01 3.957425e+01 1.962541e+01 2.335517e+01 1.938470e+01 5.028341e-01 3.616423e-01 4.331903e-01 6.215488e-01 1.217406e+00 2.031505e+00 1.676792e+00 1.523606e+00 1.615430e+00 2.156196e+00 2.403133e+00 1.475712e+00 4.288784e-01
<GCONST> 8.021577e+01
<STATE> 4
<MEAN> 25
 3.176286e+00 -6.242453e+00 -6.892638e-01 -3.796724e+00 -5.977585e+00 -2.672091e+00 -3.595386e+00 -7.506526e-01 3.293638e+00 -2.020907e+00 -6.321307e+00 -4.545470e+00 6.674959e-01 6.237993e-01 7.447484e-01 9.663435e-01 1.426265e-01 7.816872e-01 -3.828821e-01 1.145345e-01 -4.062911e-01 6.772083e-04 3.428362e-01 -1.153592e-01 -1.541414e+00
<VARIANCE> 25
 1.604647e+01 1.185957e+01 1.658559e+01 1.687551e+01 1.932708e+01 4.486504e+01 6.165393e+01 4.920043e+01 3.858321e+01 2.262861e+01 1.946736e+01 2.880635e+01 1.608488e+00 8.921394e-01 1.490796e+00 1.390312e+00 2.006194e+00 3.319822e+00 4.891117e+00 2.550447e+00 3.115126e+00 3.230783e+00 2.224998e+00 2.391869e+00 1.018945e+00
<GCONST> 9.422337e+01
<TRANSP> 5
 0.000000e+00 1.000000e+00 0.000000e+00 0.000000e+00 0.000000e+00
 0.000000e+00 7.617345e-01 2.382654e-01 0.000000e+00 0.000000e+00
 0.000000e+00 0.000000e+00 8.776580e-01 1.223420e-01 0.000000e+00
 0.000000e+00 0.000000e+00 0.000000e+00 8.472152e-01 1.527848e-01
 0.000000e+00 0.000000e+00 0.000000e+00 0.000000e+00 0.000000e+00
<ENDHMM>
~h "ah"
<BEGINHMM>
<NUMSTATES> 5
<STATE> 2
<MEAN> 25
 -1.878243e-01 -5.686218e+00 -2.499506e+00 -5.626338e+00 -4.263645e+00 -4.132954e+00 -2.921059e+00 -1.956962e+00 6.391906e-01 -1.585055e+00 -3.772460e+00 -3.191622e+00 2.519811e-01 -4.050938e-01 -2.620241e-01 -3.664307e-01 9.954977e-02 1.264578e-01 -4.802065e-01 -3.370788e-01 3.946468e-01 4.582414e-01 -3.652072e-01 -6.580960e-01 4.959553e-01
<VARIANCE> 25
 9.745964e+00 1.318615e+01 2.779555e+01 2.384844e+01 5.011887e+01 4.244543e+01 3.749112e+01 4.336682e+01 2.829435e+01 2.867410e+01 3.445712e+01 3.291634e+01 8.765044e-01 9.958649e-01 1.310577e+00 1.551367e+00 2.727412e+00 3.193505e+00 2.449444e+00 3.591422e+00 2.490335e+00 2.658134e+00 2.966552e+00 2.401029e+00 2.622815e+00
<GCONST> 9.581842e+01
<STATE> 3
<MEAN> 25
 4.851130e+00 -3.621300e+00 1.059049e+00 -4.336850e+00 -5.183828e+00 -2.224128e+00 -9.058733e+00 -4.895522e+00 1.544273e+00 -7.720692e-02 -3.900056e+00 -3.735327e+00 8.640760e-01 5.192315e-01 6.077321e-01 7.597482e-01 1.882367e-01 1.144447e+00 5.525734e-02 -1.802569e-01 -1.893534e-01 -2.300394e-01 -3.024062e-01 -4.878021e-02 -1.289428e+00
<VARIANCE> 25
 1.319019e+01 1.470113e+01 2.786293e+01 2.562453e+01 2.509763e+01 3.236902e+01 3.407801e+01 2.708358e+01 3.376467e+01 3.768301e+01 2.033563e+01 2.287328e+01 1.018601e+00 6.270227e-01 1.314198e+00 1.597081e+00 1.609754e+00 2.455708e+00 2.492232e+00 2.261708e+00 1.918384e+00 2.556569e+00 2.005936e+00 1.660827e+00 1.080438e+00
<GCONST> 9.087149e+01
<STATE> 4
<MEAN> 25
 3.439487e+00 -3.253791e+00 -2.083266e+00 -2.777399e+00 -7.340368e-02 2.843291e+00 6.957828e-02 -1.477524e+00 7.291270e-01 1.406412e-02 -4.700469e+00 -3.559675e+00 -1.564257e-01 4.030576e-01 1.973090e-02 5.253423e-01 6.071957e-01 2.682572e-01 6.130650e-01 3.330262e-01 -1.381109e-01 -1.547681e-02 1.570099e-01 3.398418e-01 -8.219955e-01
<VARIANCE> 25
 3.702275e+01 2.257427e+01 3.292750e+01 3.992559e+01 3.664415e+01 5.827360e+01 4.237305e+01 4.835946e+01 2.964948e+01 2.526942e+01 2.367282e+01 3.193176e+01 1.876698e+00 1.168956e+00 9.858693e-01 1.241676e+00 1.771891e+00 2.632675e+00 2.147534e+00 2.661123e+00 2.321621e+00 2.030639e+00 1.881637e+00 1.478744e+00 1.226831e+00
<GCONST> 9.544450e+01
<TRANSP> 5
 0.000000e+00 1.000000e+00 0.000000e+00 0.000000e+00 0.000000e+00
 0.000000e+00 7.842116e-01 2.157884e-01 0.000000e+00 0.000000e+00
 0.000000e+00 0.000000e+00 7.212294e-01 2.787706e-01 0.000000e+00
 0.000000e+00 0.000000e+00 0.000000e+00 7.371801e-01 2.628199e-01
 0.000000e+00 0.000000e+00 0.000000e+00 0.000000e+00 0.000000e+00
<ENDHMM>
~h "ao"
<BEGINHMM>
<NUMSTATES> 5
<STATE> 2
<MEAN> 25
 4.679631e+00 -2.246649e+00 -2.878746e+00 -6.698583e+00 -5.135743e+00 -1.094799e+00 -3.169970e-01 -7.950337e-01 -1.900309e+00 -2.280443e+00 -3.531561e-01 1.551577e+00 3.392313e-01 -1.751591e+00 -4.214292e-02 -2.425164e+00 -2.234877e+00 -1.824682e+00 4.909671e-01 -2.513929e-01 2.454834e-01 -7.669169e-01 -2.233847e-01 1.850130e-01 2.942207e+00
<VARIANCE> 25
 1.072573e+01 1.562392e+01 5.057477e+00 2.905650e+01 2.679021e+01 4.977562e+01 5.088937e+01 2.297782e+01 1.582847e+01 1.459943e+01 1.367299e+01 9.524060e+00 2.176193e+00 7.673637e-01 8.182362e-01 2.813982e+00 2.286934e+00 4.413896e+00 2.154191e+00 2.198421e+00 3.400661e+00 3.785205e+00 1.209529e+00 1.294259e+00 2.156974e+00
<GCONST> 8.961612e+01
<STATE> 3
<MEAN> 25
 3.456099e+00 -6.002362e+00 -4.114515e+00 -1.091860e+01 -8.413614e+00 -6.628416e+00 -6.269045e-01 -1.281910e+00 -6.881613e-01 -1.915151e+00 -5.236912e-01 5.492520e-01 -8.171915e-01 -3.435209e-01 -4.963608e-01 -7.758536e-01 -5.554510e-01 -5.741538e-01 1.446062e+00 9.516811e-01 6.563646e-01 -4.351019e-01 -2.602603e-01 3.107862e-02 6.795904e-01
<VARIANCE> 25
 4.728078e+00 3.961924e+00 4.312188e+00 6.267175e+00 1.025618e+01 2.076323e+01 2.226446e+01 1.991570e+01 3.161098e+01 1.094752e+01 1.001029e+01 8.670026e+00 3.255051e-01 6.332953e-01 5.411672e-01 9.111772e-01 8.306490e-01 1.086638e+00 1.385424e+00 1.609278e+00 2.438126e+00 1.303044e+00 1.105938e+00 1.289327e+00 3.633176e-01
<GCONST> 7.285097e+01
<STATE> 4
<MEAN> 25
 1.155992e+00 -5.567757e+00 -4.345831e+00 -1.077867e+01 -8.620244e+00 -5.715724e+00 3.234757e+00 2.877071e+00 4.903535e-01 -2.987685e+00 -4.045560e-01 1.426539e+00 -6.541014e-02 -2.661558e-02 2.584882e-03 7.831679e-02 1.809161e-01 5.313797e-02 -8.789601e-02 -1.201657e-01 2.250342e-02 2.983327e-01 2.840696e-01 -7.708897e-02 1.799357e-02
<VARIANCE> 25
 7.251169e+00 3.994636e+00 5.216732e+00 5.559307e+00 7.150787e+00 1.320766e+01 1.625434e+01 2.187384e+01 2.035070e+01 1.422794e+01 1.326379e+01 1.406337e+01 3.783863e-01 3.216628e-01 5.126082e-01 3.369610e-01 5.862166e-01 1.092838e+00 1.587283e+00 1.868822e+00 1.881616e+00 1.666335e+00 1.176286e+00 1.102870e+00 8.395910e-02
<GCONST> 6.970451e+01
<TRANSP> 5
 0.000000e+00 1.000000e+00 0.000000e+00 0.000000e+00 0.000000e+00
 0.000000e+00 5.457664e-01 4.542337e-01 0.000000e+00 0.000000e+00
 0.000000e+00 0.000000e+00 5.130649e-01 4.869350e-01 0.000000e+00
 0.000000e+00 0.000000e+00 0.000000e+00 9.179340e-01 8.206600e-02
 0.000000e+00 0.000000e+00 0.000000e+00 0.000000e+00 0.000000e+00
<ENDHMM>
~h "aw"
<BEGINHMM>
<NUMSTATES> 5
<STATE> 2
<MEAN> 25
 -1.199147e+00 -8.474784e+00 -8.206947e+00 -1.095499e+01 -1.363606e+00 4.770274e+00 2.476582e+00 -7.380100e+00 -5.025856e+00 -4.682308e-01 -3.281179e+00 -4.096903e+00 3.135416e-01 9.392234e-02 1.691606e-01 -8.293372e-02 -1.362716e-01 -7.591092e-03 -2.599752e-02 6.050776e-02 9.272229e-02 -1.037279e-01 2.804099e-01 2.027894e-01 -2.645838e-01
<VARIANCE> 25
 1.066104e+01 3.907902e+00 6.009911e+00 7.716115e+00 1.585293e+01 1.197645e+01 2.084905e+01 1.717100e+01 2.025599e+01 1.391893e+01 1.133711e+01 1.560298e+01 6.066439e-01 4.122677e-01 5.363562e-01 3.786623e-01 6.778098e-01 1.455232e+00 2.023761e+00 2.007597e+00 1.990263e+00 1.639940e+00 1.058784e+00 1.304437e+00 2.146380e-01
<GCONST> 7.383253e+01
<STATE> 3
<MEAN> 25
 8.129048e+00 -1.186430e+00 -2.299040e+00 -9.435907e+00 -2.182535e+00 5.278175e+00 -4.829087e+00 -5.025888e+00 -1.938078e-01 -1.521800e+00 3.528738e-01 -5.358869e-01 2.850067e-01 1.299255e+00 4.177442e-01 1.092617e+00 8.408144e-01 1.091316e+00 -3.217094e-01 7.259257e-02 8.372401e-02 -1.581212e-01 -5.209930e-01 7.761184e-02 -1.754032e+00
<VARIANCE> 25
 8.471181e+00 1.986398e+01 9.463290e+00 1.329088e+01 1.728891e+01 4.141693e+01 4.934772e+01 2.163898e+01 2.409730e+01 3.590247e+01 1.783137e+01 2.559437e+01 1.402826e+00 8.626466e-01 1.019447e+00 1.164862e+00 7.575353e-01 5.122948e+00 6.987920e+00 3.144470e+00 2.290443e+00 2.355997e+00 1.367787e+00 1.413338e+00 3.049913e-01
<GCONST> 8.830622e+01
<STATE> 4
<MEAN> 25
 4.385226e+00 2.766618e+00 -3.482205e+00 -3.524662e+00 1.664996e+00 6.257433e+00 2.878608e+00 9.216430e-01 -1.458489e+00 -2.757470e+00 -1.344923e+00 -9.867144e-01 -8.842772e-01 1.519158e-01 6.122938e-01 9.338428e-01 4.089084e-01 -4.386726e-01 3.091989e-01 9.396696e-01 -2.481713e-01 1.244807e-01 1.672654e-01 5.837485e-01 -6.504878e-01
<VARIANCE> 25
 1.136539e+01 9.326284e+00 1.368281e+01 1.497940e+01 1.025844e+01 1.727355e+01 3.609330e+01 3.332544e+01 1.495198e+01 2.712211e+01 1.989919e+01 2.737755e+01 1.398839e+00 8.801998e-01 5.839864e-01 1.113640e+00 1.005113e+00 3.505817e+00 2.206297e+00 2.946171e+00 1.195098e+00 1.941963e+00 1.488247e+00 2.217420e+00 1.051724e+00
<GCONST> 8.550388e+01
<TRANSP> 5
 0.000000e+00 1.000000e+00 0.000000e+00 0.000000e+00 0.000000e+00
 0.000000e+00 9.515778e-01 4.842218e-02 0.000000e+00 0.000000e+00
 0.000000e+00 0.000000e+00 8.155131e-01 1.844869e-01 0.000000e+00
 0.000000e+00 0.000000e+00 0.000000e+00 6.981975e-01 3.018025e-01
 0.000000e+00 0.000000e+00 0.000000e+00 0.000000e+00 0.000000e+00
<ENDHMM>
~h "ay"
<BEGINHMM>
<NUMSTATES> 5
<STATE> 2
<MEAN> 25
 -5.144354e-02 -7.711484e+00 -4.933505e+00 -5.930610e+00 5.309114e-01 1.655930e+00 -1.759001e+00 -4.082912e+00 -1.358506e-01 -9.690263e-01 -7.198366e+00 -6.294216e+00 -1.362049e-01 -3.030616e-01 5.612382e-02 1.216657e-01 -5.752239e-02 -6.049150e-01 -2.526605e-01 2.389622e-01 3.111247e-01 -3.180266e-01 -7.059342e-01 -1.363011e-01 6.139495e-01
<VARIANCE> 25
 1.547908e+01 1.646688e+01 4.894501e+01 4.334712e+01 2.725445e+01 2.859930e+01 3.812244e+01 3.167597e+01 3.082382e+01 1.766393e+01 2.800829e+01 2.197343e+01 8.917564e-01 8.996614e-01 3.321755e+00 1.661117e+00 2.626253e+00 3.370885e+00 3.061574e+00 4.565022e+00 2.229180e+00 1.973357e+00 3.405159e+00 2.115819e+00 1.081798e+00
<GCONST> 9.546532e+01
<STATE> 3
<MEAN> 25
 1.768362e+00 -3.909453e+00 3.889717e+00 -2.227264e+00 -8.194362e+00 -5.425045e+00 -1.346561e+00 1.512826e-01 4.002709e-01 -3.302310e+00 -3.267103e+00 -1.588309e+00 4.286089e-01 5.297374e-01 8.259988e-01 7.711897e-01 -4.429674e-01 5.134145e-01 1.795558e-01 -2.129283e-01 -4.655284e-01 -2.788446e-03 6.284680e-01 5.589396e-01 -1.271751e+00
<VARIANCE> 25
 1.395899e+01 1.415667e+01 3.983876e+01 2.659709e+01 1.910835e+01 3.866264e+01 2.179687e+01 2.763528e+01 2.312973e+01 1.829535e+01 1.898592e+01 1.597525e+01 9.038574e-01 7.066914e-01 2.650936e+00 1.152884e+00 3.051131e+00 3.484372e+00 2.748218e+00 2.508662e+00 2.623081e+00 1.741070e+00 2.566241e+00 2.363968e+00 9.715594e-01
<GCONST> 9.122346e+01
<STATE> 4
<MEAN> 25
 -7.162784e-01 -6.733636e+00 -4.245075e+00 -3.988512e+00 -1.398476e+00 -9.521016e-01 -2.000054e+00 -2.782683e+00 -1.552095e-01 -7.712245e-01 -4.659361e+00 -4.117443e+00 -1.196462e-01 3.173908e-01 3.861064e-01 2.974232e-01 -2.037508e-01 -2.123577e-01 8.641808e-02 -9.933181e-02 -1.946882e-01 -2.674353e-01 1.057589e-01 4.967733e-01 -2.524415e-01
<VARIANCE> 25
 8.738745e+00 1.724896e+01 5.017353e+01 2.940274e+01 3.841355e+01 3.854190e+01 1.736177e+01 1.944854e+01 1.698972e+01 1.504935e+01 1.827019e+01 2.971517e+01 3.364015e-01 3.988161e-01 1.509567e+00 5.775319e-01 2.255469e+00 2.023479e+00 1.245786e+00 1.744111e+00 1.753667e+00 1.657272e+00 1.805024e+00 2.721881e+00 2.326039e-01
<GCONST> 8.457076e+01
<TRANSP> 5
 0.000000e+00 1.000000e+00 0.000000e+00 0.000000e+00 0.000000e+00
 0.000000e+00 8.907437e-01 1.092562e-01 0.000000e+00 0.000000e+00
 0.000000e+00 0.000000e+00 8.524106e-01 1.475895e-01 0.000000e+00
 0.000000e+00 0.000000e+00 0.000000e+00 8.002290e-01 1.997710e-01
 0.000000e+00 0.000000e+00 0.000000e+00 0.000000e+00 0.000000e+00
<ENDHMM>
~h "ch"
<BEGINHMM>
<NUMSTATES> 5
<STATE> 2
<MEAN> 25
 -3.373307e+00 1.015726e+00 3.241243e+00 5.132747e-01 1.854014e-01 6.341472e-01 -2.907537e+00 -4.190435e+00 -3.348967e-01 -6.922769e-01 2.297928e+00 8.394829e-01 -2.324610e+00 2.854313e-02 -1.122046e+00 -5.242459e-01 4.792697e-01 3.916731e-01 -1.596003e+00 5.805603e-02 1.296364e-01 1.356466e+00 7.475579e-01 8.936731e-01 1.523469e+00
<VARIANCE> 25
 4.646599e+01 8.945145e+00 2.231213e+01 1.471222e+01 2.183952e+01 3.656426e+01 6.696185e+01 3.384167e+01 2.640141e+01 3.251738e+01 1.058181e+01 2.422045e+00 2.582233e+00 2.915222e+00 2.821371e+00 3.033163e+00 2.141866e+00 3.463038e+00 1.288319e+00 3.572212e+00 1.319422e+00 2.238444e+00 1.590532e+00 7.791954e-01 3.821356e-01
<GCONST> 9.020946e+01
<STATE> 3
<MEAN> 25
 -1.382252e+01 3.432826e+00 -4.630571e-01 -2.380814e+00 3.071333e+00 2.384793e+00 -2.900894e+00 7.228846e-01 1.009080e+00 -3.205840e+00 4.033722e+00 1.119958e+00 -1.506935e+00 -5.837418e-01 -6.061988e-01 -1.025212e+00 -2.820203e-01 -1.132677e+00 4.592950e-01 1.829777e-01 6.960991e-01 -1.121117e-01 4.522893e-01 3.979134e-01 1.597180e+00
<VARIANCE> 25
 3.244432e+01 1.040919e+01 8.356157e+00 2.350597e+01 1.024443e+01 5.088808e+01 1.889865e+01 3.728543e+01 2.385046e+01 1.168832e+01 1.644247e+01 2.881493e+01 2.365021e+00 8.603095e-01 1.307548e+00 7.726418e-01 1.662457e+00 5.622664e+00 2.436229e+00 1.066462e+00 1.632603e+00 2.699664e+00 3.455004e+00 1.635860e+00 2.077017e+00
<GCONST> 8.951125e+01
<STATE> 4
<MEAN> 25
 -1.111836e+01 9.530711e-01 2.957319e+00 -1.130362e+00 -8.325747e-01 -2.673520e+00 -6.153705e-01 -1.913965e-01 3.214010e+00 -2.139500e+00 3.393587e+00 2.423060e+00 2.410067e+00 -1.529320e-01 6.348944e-01 4.799490e-01 -1.107603e+00 -5.004186e-01 -9.086083e-01 -7.401515e-01 -8.428285e-01 -3.105610e-01 -9.821535e-01 -6.304424e-01 4.198875e-03
<VARIANCE> 25
 7.063486e+01 1.871276e+01 2.544262e+01 1.501870e+01 1.462312e+01 3.195342e+01 4.081032e+01 3.033819e+01 3.557420e+01 2.746599e+01 2.198865e+01 1.962150e+01 3.614825e+00 1.313339e+00 2.878742e+00 2.521142e+00 2.154574e+00 2.807406e+00 3.373728e+00 4.203379e+00 4.851474e+00 3.516688e+00 3.337198e+00 2.631130e+00 1.648536e+00
<GCONST> 9.880000e+01
<TRANSP> 5
 0.000000e+00 1.000000e+00 0.000000e+00 0.000000e+00 0.000000e+00
 0.000000e+00 1.643542e-01 8.356459e-01 0.000000e+00 0.000000e+00
 0.000000e+00 0.000000e+00 7.607408e-01 2.392593e-01 0.000000e+00
 0.000000e+00 0.000000e+00 0.000000e+00 8.183432e-01 1.816569e-01
 0.000000e+00 0.000000e+00 0.000000e+00 0.000000e+00 0.000000e+00
<ENDHMM>
~h "dh"
<BEGINHMM>
<NUMSTATES> 5
<STATE> 2
<MEAN> 25
 2.339929e+00 -1.931124e+00 2.773669e+00 -4.301698e+00 -6.485491e+00 -6.231374e+00 -8.974504e+00 -4.516739e+00 -5.029996e-02 -2.174780e+00 -5.409610e+00 -2.681888e+00 -1.274781e+00 1.444758e-01 3.143888e-01 -6.874986e-01 -1.979988e+00 -3.439842e+00 -1.389786e+00 2.701542e-01 7.110592e-01 1.294535e+00 1.006382e+00 8.019342e-01 2.245162e+00
<VARIANCE> 25
 1.092077e+01 2.214471e+01 9.917213e+00 1.325290e+01 4.712511e+01 3.372702e+01 2.064778e+01 2.344659e+01 2.634936e+01 2.993945e+01 3.902909e+01 1.446327e+01 2.648712e+00 1.794965e+00 1.158428e+00 8.466581e-01 2.889429e+00 2.147784e+00 3.409091e+00 2.887490e+00 2.434813e+00 2.535822e+00 2.928077e+00 2.551064e+00 6.792229e-01
<GCONST> 9.197010e+01
<STATE> 3
<MEAN> 25
 8.681077e-01 -3.677938e+00 1.642177e+00 -3.346464e+00 -8.351026e+00 -1.064684e+01 -6.851690e+00 4.320521e-02 5.526063e+00 1.766245e-01 -5.825658e+00 -4.765604e-01 1.791990e-01 -2.307831e-01 -2.218370e-01 3.778102e-01 1.561190e-01 1.651925e-01 7.041229e-01 4.811620e-01 2.915359e-01 2.892333e-01 -1.211158e-01 1.114537e-01 1.201779e-01
<VARIANCE> 25
 9.696328e+00 8.784838e+00 9.044079e+00 1.557357e+01 1.223898e+01 7.022423e+00 2.137063e+01 2.152061e+01 2.797413e+01 1.730635e+01 1.084079e+01 9.926858e+00 9.438140e-01 5.044586e-01 8.041332e-01 7.835997e-01 1.164928e+00 1.052851e+00 1.301583e+00 1.747833e+00 2.006004e+00 2.206526e+00 1.415277e+00 1.132397e+00 8.079057e-01
<GCONST> 7.835316e+01
<STATE> 4
<MEAN> 25
 5.043510e+00 -3.731953e+00 -6.126927e-01 -1.868860e+00 -8.146543e+00 -7.303269e+00 -3.963517e+00 5.401667e+00 6.622214e+00 9.536815e-01 -5.106597e+00 -9.862475e-01 1.116966e+00 2.284276e-01 -3.218247e-01 1.478191e+00 1.617923e-01 7.053320e-01 -3.195264e-02 8.181941e-01 -1.923587e-01 1.423869e-01 2.922888e-01 2.901295e-01 -1.132414e+00
<VARIANCE> 25
 1.507769e+01 8.436422e+00 7.009597e+00 2.844904e+01 3.129020e+01 7.421395e+00 1.562665e+01 2.951631e+01 1.130587e+01 9.284099e+00 1.959373e+01 1.049643e+01 2.750752e-01 3.996130e-01 5.448498e-01 2.254507e+00 2.113146e+00 1.628908e+00 8.217564e-01 1.467687e+00 1.296990e+00 1.298861e+00 1.112593e+00 1.385841e+00 6.014395e-01
<GCONST> 7.751685e+01
<TRANSP> 5
 0.000000e+00 1.000000e+00 0.000000e+00 0.000000e+00 0.000000e+00
 0.000000e+00 6.179706e-01 3.820294e-01 0.000000e+00 0.000000e+00
 0.000000e+00 0.000000e+00 7.948908e-01 2.051092e-01 0.000000e+00
 0.000000e+00 0.000000e+00 0.000000e+00 7.609969e-01 2.390031e-01
 0.000000e+00 0.000000e+00 0.000000e+00 0.000000e+00 0.000000e+00
<ENDHMM>
~h "eh"
<BEGINHMM>
<NUMSTATES> 5
<STATE> 2
<MEAN> 25
 9.118138e-01 -3.001375e+00 9.121669e-01 -1.192203e+00 -5.140814e+00 -5.633060e+00 -1.822770e+00 -1.122746e+00 -1.130644e+00 -3.474093e+00 -2.805791e+00 -1.066027e-01 -5.815531e-03 -8.785255e-01 -5.256649e-01 -8.330688e-01 -1.028709e+00 -1.010220e+00 -1.480993e-01 9.195730e-02 9.275115e-01 -5.721658e-01 -7.853618e-01 -2.856264e-01 1.778754e+00
<VARIANCE> 25
 1.755523e+01 1.756419e+01 3.633544e+01 2.689824e+01 5.062019e+01 2.569168e+01 5.000544e+01 4.406015e+01 2.675583e+01 3.191043e+01 4.053359e+01 1.471318e+01 2.686497e+00 1.924079e+00 2.277484e+00 1.610265e+00 3.154010e+00 3.001032e+00 3.509576e+00 4.831521e+00 3.454197e+00 3.715751e+00 3.488482e+00 1.956044e+00 2.679787e+00
<GCONST> 1.000505e+02
<STATE> 3
<MEAN> 25
 -2.027995e+00 -5.152553e+00 -1.558351e+00 -5.267904e+00 -7.563570e+00 -8.308362e+00 -1.813550e+00 -8.159898e-01 3.573935e+00 -3.205631e+00 -5.121437e+00 -2.130566e+00 -1.405219e-01 -2.281704e-01 -2.619540e-01 -4.112747e-02 4.283184e-01 3.603975e-01 1.632478e-01 2.505746e-01 -5.096871e-02 -4.006405e-01 -7.840484e-01 -3.261032e-01 1.027522e-01
<VARIANCE> 25
 6.412813e+00 6.642667e+00 1.401056e+01 1.725289e+01 1.964548e+01 1.736825e+01 2.148769e+01 2.404126e+01 2.505653e+01 2.224576e+01 3.174193e+01 1.748597e+01 3.676748e-01 3.948874e-01 7.402673e-01 5.698676e-01 1.302871e+00 9.295537e-01 2.129263e+00 1.627843e+00 1.669983e+00 1.825345e+00 1.385740e+00 1.192377e+00 1.529341e-01
<GCONST> 7.828936e+01
<STATE> 4
<MEAN> 25
 3.565764e-01 -7.303328e+00 -3.027998e+00 -6.055249e+00 -4.277071e+00 -2.867017e+00 -9.416413e-01 4.844841e-01 2.745613e+00 -4.220584e+00 -7.522688e+00 -4.137400e+00 5.327815e-01 1.381288e-01 3.392705e-01 1.312352e-01 -2.344828e-01 2.989864e-01 -2.316112e-01 -1.923902e-01 -1.362928e-01 3.201903e-01 4.398993e-01 8.210236e-02 -6.459313e-01
<VARIANCE> 25
 1.767561e+01 6.476084e+00 1.452754e+01 1.959641e+01 1.667846e+01 3.229921e+01 3.423458e+01 2.821988e+01 2.431088e+01 3.166728e+01 3.566558e+01 2.722844e+01 1.073652e+00 4.732811e-01 9.646988e-01 7.636292e-01 1.009908e+00 3.010873e+00 2.755116e+00 1.992865e+00 1.815792e+00 2.392950e+00 2.746846e+00 2.294121e+00 1.141631e+00
<GCONST> 8.830051e+01
<TRANSP> 5
 0.000000e+00 1.000000e+00 0.000000e+00 0.000000e+00 0.000000e+00
 0.000000e+00 7.039174e-01 2.960825e-01 0.000000e+00 0.000000e+00
 0.000000e+00 0.000000e+00 7.809001e-01 2.190999e-01 0.000000e+00
 0.000000e+00 0.000000e+00 0.000000e+00 8.756335e-01 1.243665e-01
 0.000000e+00 0.000000e+00 0.000000e+00 0.000000e+00 0.000000e+00
<ENDHMM>
~h "er"
<BEGINHMM>
<NUMSTATES> 5
<STATE> 2
<MEAN> 25
 6.198984e+00 -4.957834e+00 -1.199801e+00 -1.059108e-01 -8.076085e+00 -1.004516e+01 -9.438403e+00 -2.289088e+00 2.492776e+00 1.222150e+00 -2.122077e+00 1.368920e+00 7.665476e-01 3.549457e-01 -2.250466e-01 1.262499e+00 4.118332e-01 -8.089393e-02 1.059783e-01 8.250805e-01 -1.114292e-01 -2.266628e-01 -2.457597e-01 2.685122e-01 -8.736471e-01
<VARIANCE> 25
 1.534214e+01 7.642162e+00 1.147120e+01 3.128960e+01 2.175266e+01 1.592184e+01 1.888871e+01 4.047923e+01 3.177815e+01 1.753829e+01 2.085262e+01 2.015716e+01 5.313049e-01 5.039683e-01 7.308930e-01 1.602537e+00 1.406722e+00 1.169770e+00 1.284664e+00 1.326658e+00 1.361012e+00 1.400773e+00 1.309991e+00 1.299292e+00 5.765045e-01
<GCONST> 8.194331e+01
<STATE> 3
<MEAN> 25
 5.568303e+00 -2.698284e-01 -1.409330e+00 7.092789e+00 3.213133e-01 -7.009799e+00 -3.615956e+00 4.998004e+00 4.343857e+00 7.389753e-01 -1.740590e+00 2.336320e+00 -1.066321e+00 5.055209e-01 2.115957e-01 -3.177342e-01 1.243290e+00 1.056991e+00 1.171074e+00 -4.828131e-02 2.369965e-02 4.823017e-02 2.278405e-01 -4.513515e-01 -1.061527e+00
<VARIANCE> 25
 1.714941e+01 7.700704e+00 1.077870e+01 2.152874e+01 2.304625e+01 2.459499e+01 2.477001e+01 2.648391e+01 1.807767e+01 1.909835e+01 1.502861e+01 1.473503e+01 7.986485e-01 6.550142e-01 6.780573e-01 1.401289e+00 1.345756e+00 1.560035e+00 1.309881e+00 1.609530e+00 1.508217e+00 1.783080e+00 1.593535e+00 1.260982e+00 4.849305e-01
<GCONST> 8.209969e+01
<STATE> 4
<MEAN> 25
 2.121070e+00 -4.399378e+00 -3.735083e+00 -1.481423e+00 -9.782306e-01 -3.543523e+00 -2.034655e+00 -8.436944e-01 2.945603e+00 2.045249e+00 -1.365049e+00 -2.358397e+00 -1.567305e-01 2.148433e-01 8.614212e-02 6.465890e-02 3.813284e-01 5.109168e-01 4.855025e-01 7.396847e-02 -2.635068e-03 1.245188e-01 6.008879e-02 -1.572072e-01 -4.628866e-01
<VARIANCE> 25
 1.560257e+01 2.071766e+01 1.357227e+01 4.097633e+01 2.858811e+01 3.177958e+01 4.144047e+01 3.173719e+01 1.861283e+01 2.676185e+01 2.877509e+01 1.113743e+01 1.038994e+00 5.097459e-01 6.431682e-01 8.527682e-01 1.174209e+00 1.632549e+00 1.726433e+00 1.609882e+00 2.070883e+00 1.928019e+00 1.824609e+00 1.309357e+00 4.940708e-01
<GCONST> 8.600762e+01
<TRANSP> 5
 0.000000e+00 1.000000e+00 0.000000e+00 0.000000e+00 0.000000e+00
 0.000000e+00 8.378741e-01 1.621259e-01 0.000000e+00 0.000000e+00
 0.000000e+00 0.000000e+00 8.009074e-01 1.990925e-01 0.000000e+00
 0.000000e+00 0.000000e+00 0.000000e+00 7.866555e-01 2.133445e-01
 0.000000e+00 0.000000e+00 0.000000e+00 0.000000e+00 0.000000e+00
<ENDHMM>
~h "ey"
<BEGINHMM>
<NUMSTATES> 5
<STATE> 2
<MEAN> 25
 -2.596015e+00 -4.393119e+00 1.590757e+00 -5.567498e+00 -1.110056e+01 -9.251110e+00 -3.244277e+00 -3.430919e+00 4.108393e-01 -1.877526e+00 5.361775e-01 1.890060e+00 -2.169047e-01 1.331151e-01 5.070180e-01 -2.049404e-01 -6.891695e-01 -7.806053e-02 -8.701733e-02 -7.593279e-01 -3.854531e-01 1.631340e-02 1.808036e-01 4.435272e-02 4.224624e-01
<VARIANCE> 25
 5.580445e+00 5.455784e+00 1.359900e+01 1.289033e+01 2.412549e+01 1.803885e+01 4.435124e+01 6.381337e+01 2.436631e+01 2.396485e+01 4.168227e+01 1.640773e+01 3.695433e-01 6.706425e-01 1.209198e+00 1.163258e+00 2.414544e+00 2.006378e+00 2.412768e+00 2.818230e+00 2.356083e+00 2.185865e+00 2.648033e+00 1.630710e+00 2.027578e+00
<GCONST> 8.770043e+01
<STATE> 3
<MEAN> 25
 -4.050203e+00 -9.304479e-01 7.889776e+00 -3.980723e+00 -1.269534e+01 -5.796773e+00 -3.005712e+00 -9.855408e+00 -3.785110e+00 -3.822685e+00 9.122141e-01 5.650279e-01 1.837184e-01 4.610823e-01 6.923023e-01 1.160714e-01 -2.946459e-02 6.838843e-01 -1.637283e-01 -2.631704e-01 -3.802435e-01 -6.422663e-01 -6.115207e-02 -3.749412e-01 -4.263521e-01
<VARIANCE> 25
 3.555155e+00 6.155180e+00 1.363141e+01 8.008944e+00 6.711313e+00 2.297482e+01 3.367342e+01 2.722234e+01 1.671994e+01 2.624240e+01 1.980963e+01 1.162773e+01 3.135907e-01 3.303634e-01 8.390139e-01 8.531995e-01 9.458348e-01 1.326785e+00 1.871716e+00 2.696925e+00 1.730980e+00 1.990792e+00 1.820712e+00 1.371648e+00 2.030376e-01
<GCONST> 7.691066e+01
<STATE> 4
<MEAN> 25
 1.252305e+00 1.393999e+00 1.096667e+01 -3.281564e-01 -1.116516e+01 -7.925927e-01 -4.492853e+00 -6.638141e+00 -5.001414e+00 -3.543937e+00 1.474269e+00 -2.345172e-01 4.560034e-01 3.540729e-01 -2.058442e-01 9.329031e-01 9.201577e-01 6.684285e-01 3.156692e-01 8.962820e-01 3.376842e-01 3.699607e-01 -1.906467e-01 2.548242e-02 -1.467934e+00
<VARIANCE> 25
 1.413176e+01 1.530057e+01 2.735182e+01 1.952330e+01 2.707604e+01 3.767691e+01 2.521949e+01 2.297916e+01 3.549764e+01 3.285234e+01 2.212663e+01 1.653200e+01 1.872283e+00 1.265411e+00 2.909155e+00 1.623002e+00 3.090165e+00 2.783169e+00 2.724356e+00 2.564227e+00 2.351701e+00 2.703506e+00 2.511128e+00 1.692591e+00 9.338958e-01
<GCONST> 9.359580e+01
<TRANSP> 5
 0.000000e+00 1.000000e+00 0.000000e+00 0.000000e+00 0.000000e+00
 0.000000e+00 8.779166e-01 1.220834e-01 0.000000e+00 0.000000e+00
 0.000000e+00 0.000000e+00 8.205642e-01 1.794358e-01 0.000000e+00
 0.000000e+00 0.000000e+00 0.000000e+00 8.281360e-01 1.718640e-01
 0.000000e+00 0.000000e+00 0.000000e+00 0.000000e+00 0.000000e+00
<ENDHMM>
~h "hh"
<BEGINHMM>
<NUMSTATES> 5
<STATE> 2
<MEAN> 25
 -2.101520e+00 -3.803740e+00 -4.048879e+00 -2.833890e+00 1.512074e+00 -3.493906e-02 1.107467e+00 -4.235811e-01 -8.439522e-01 -3.885558e+00 -4.577238e+00 -1.195237e+00 -2.498266e-02 -2.323539e-01 -2.783995e-01 -5.498149e-01 -8.897574e-02 1.192882e-01 -8.852240e-02 -3.079476e-01 -1.980390e-01 1.044571e-01 2.753683e-02 -4.381454e-01 7.299117e-01
<VARIANCE> 25
 7.284396e+00 2.194264e+01 1.863252e+01 1.888489e+01 3.725425e+01 4.795399e+01 2.684766e+01 5.403788e+01 2.950947e+01 4.277000e+01 5.140142e+01 6.450443e+01 4.799075e-01 6.799017e-01 9.408173e-01 1.229039e+00 1.928351e+00 1.935869e+00 1.271233e+00 2.685130e+00 2.293796e+00 3.404439e+00 3.315648e+00 3.418629e+00 1.654414e+00
<GCONST> 9.345601e+01
<STATE> 3
<MEAN> 25
 -2.884311e+00 -1.520994e+00 -6.520984e-01 -7.057888e-01 3.652385e+00 1.278205e-01 4.935939e-02 2.836846e+00 1.140651e+00 2.588110e+00 3.298312e+00 1.479090e-01 6.143695e-01 -1.984003e-01 -2.563967e-02 8.945258e-03 -3.579073e-01 -2.068232e-01 -1.593754e-02 -7.863522e-01 -3.437430e-01 4.583547e-01 3.394288e-01 4.163159e-01 -3.190428e-01
<VARIANCE> 25
 1.046653e+01 3.132082e+01 2.877144e+01 3.064121e+01 3.211540e+01 3.080531e+01 2.765218e+01 5.060247e+01 3.854945e+01 4.436140e+01 4.853241e+01 2.148751e+01 6.584119e-01 9.432977e-01 7.076336e-01 6.070622e-01 7.020080e-01 1.442355e+00 1.634329e+00 1.784484e+00 2.858899e+00 1.226672e+00 2.374047e+00 3.717457e+00 6.024945e-01
<GCONST> 8.974316e+01
<STATE> 4
<MEAN> 25
 -4.380912e-01 2.737699e+00 2.009716e+00 4.251806e+00 3.450913e+00 2.004859e+00 3.083887e+00 1.986129e+00 1.951712e+00 3.651664e+00 3.936267e+00 1.455047e+00 9.562957e-02 -3.155806e-04 7.501762e-03 4.376342e-02 -5.126753e-02 -7.486880e-04 8.136217e-02 -5.939095e-02 -1.047731e-01 -2.009949e-01 -9.410775e-02 1.684580e-02 4.016031e-02
<VARIANCE> 25
 1.733236e+00 5.799470e+00 5.674331e+00 8.967937e+00 7.462138e+00 1.068223e+01 1.039637e+01 1.347702e+01 1.290231e+01 1.813072e+01 1.207592e+01 8.304468e+00 1.821227e-01 3.493985e-01 3.388937e-01 4.098264e-01 8.689873e-01 8.760285e-01 9.786821e-01 1.405338e+00 1.295450e+00 1.778322e+00 1.116986e+00 8.137904e-01 2.289155e-01
<GCONST> 6.615012e+01
<TRANSP> 5
 0.000000e+00 1.000000e+00 0.000000e+00 0.000000e+00 0.000000e+00
 0.000000e+00 8.472023e-01 1.527977e-01 0.000000e+00 0.000000e+00
 0.000000e+00 0.000000e+00 3.208613e-01 6.791387e-01 0.000000e+00
 0.000000e+00 0.000000e+00 0.000000e+00 9.331418e-01 6.685825e-02
 0.000000e+00 0.000000e+00 0.000000e+00 0.000000e+00 0.000000e+00
<ENDHMM>
~h "ih"
<BEGINHMM>
<NUMSTATES> 5
<STATE> 2
<MEAN> 25
 -1.113144e+00 7.594101e-01 9.305750e+00 -2.386736e+00 -1.088437e+01 -3.501671e+00 -6.087473e+00 -9.134818e+00 -7.079590e+00 -8.053717e+00 -9.652943e-01 5.980160e-01 4.127393e-01 -1.560792e-02 5.548737e-01 2.819029e-01 -4.276319e-01 4.453878e-01 1.143016e-01 -1.172819e-01 -1.794228e-02 8.279879e-02 -1.336901e-02 -1.586027e-01 -5.401200e-01
<VARIANCE> 25
 1.334649e+01 1.082108e+01 3.320651e+01 2.326597e+01 2.313215e+01 2.785041e+01 2.816866e+01 4.926976e+01 2.463061e+01 3.341841e+01 2.790277e+01 2.171849e+01 1.562027e+00 1.112352e+00 2.526405e+00 1.967012e+00 3.664571e+00 2.392846e+00 2.941654e+00 3.430218e+00 3.140406e+00 4.135787e+00 2.254737e+00 1.871088e+00 2.851581e+00
<GCONST> 9.608301e+01
<STATE> 3
<MEAN> 25
 4.727691e-02 3.558506e+00 6.114118e+00 3.077711e+00 -3.258940e+00 -1.825348e-01 -2.043197e+00 -2.994980e+00 -3.934884e+00 -3.126845e+00 -1.199499e+00 8.853162e-01 -1.234352e+00 2.657118e-01 -1.263692e+00 -6.002547e-01 1.046750e+00 -1.715101e-02 3.592029e-01 6.417894e-01 5.480148e-01 6.985264e-01 1.195501e-01 3.117637e-01 2.713153e-01
<VARIANCE> 25
 3.907109e+01 1.236835e+01 3.020279e+01 2.373043e+01 3.164842e+01 2.444932e+01 2.163730e+01 3.892401e+01 1.947397e+01 2.170858e+01 2.172254e+01 1.891903e+01 2.464064e+00 1.065393e+00 2.088844e+00 1.663213e+00 3.705040e+00 2.243506e+00 2.562059e+00 2.948609e+00 1.983934e+00 2.169352e+00 1.772574e+00 1.738186e+00 2.399635e+00
<GCONST> 9.396527e+01
<STATE> 4
<MEAN> 25
 -5.250118e+00 1.298811e+00 1.790147e+00 -8.067770e-01 -2.067821e+00 -1.329759e+00 -4.600185e-01 1.418494e+00 -5.510527e-01 1.314260e+00 5.202876e-01 1.638828e+00 1.617666e-01 -4.944084e-01 -1.880972e-01 1.747827e-01 6.712065e-01 1.516043e-02 5.272654e-01 2.675076e-01 9.971310e-02 6.915388e-02 -7.773022e-02 -3.409513e-01 -2.774262e-01
<VARIANCE> 25
 3.895393e+01 2.003307e+01 3.037988e+01 2.333385e+01 3.283200e+01 2.811257e+01 3.068509e+01 5.894131e+01 3.570007e+01 2.879075e+01 2.725393e+01 2.253317e+01 1.628777e+00 9.317601e-01 2.053525e+00 1.005420e+00 1.602798e+00 1.186779e+00 2.079983e+00 2.966676e+00 1.856166e+00 1.740799e+00 1.446118e+00 2.017842e+00 9.260707e-01
<GCONST> 9.262559e+01
<TRANSP> 5
 0.000000e+00 1.000000e+00 0.000000e+00 0.000000e+00 0.000000e+00
 0.000000e+00 8.773994e-01 1.226006e-01 0.000000e+00 0.000000e+00
 0.000000e+00 0.000000e+00 7.396713e-01 2.603286e-01 0.000000e+00
 0.000000e+00 0.000000e+00 0.000000e+00 5.449064e-01 4.550936e-01
 0.000000e+00 0.000000e+00 0.000000e+00 0.000000e+00 0.000000e+00
<ENDHMM>
~h "iy"
<BEGINHMM>
<NUMSTATES> 5
<STATE> 2
<MEAN> 25
 -3.360718e+00 9.678863e-01 8.374649e+00 -3.551453e+00 -1.132877e+01 -4.578976e+00 -5.255508e+00 -1.088783e+01 -6.435951e+00 -9.056821e+00 -2.241347e+00 -2.341878e+00 5.100887e-02 2.862215e-02 5.296500e-01 -2.595496e-01 -6.761541e-01 4.208080e-01 3.291512e-01 -7.494479e-01 1.733474e-02 -1.961720e-01 -2.967787e-02 -1.661014e-01 1.398994e-01
<VARIANCE> 25
 7.053084e+00 1.175302e+01 1.512695e+01 1.020013e+01 2.505585e+01 4.492420e+01 2.733794e+01 3.109865e+01 3.041868e+01 1.839616e+01 2.962571e+01 2.681645e+01 5.087958e-01 7.129775e-01 1.340349e+00 1.159653e+00 1.822760e+00 1.331656e+00 2.279430e+00 2.525333e+00 1.830417e+00 2.061903e+00 1.789960e+00 1.567940e+00 7.154394e-01
<GCONST> 8.626915e+01
<STATE> 3
<MEAN> 25
 -1.001169e-01 -4.321017e-01 1.033120e+01 -8.916808e-01 -1.248041e+01 -5.915344e+00 -4.394898e+00 -1.075674e+01 -6.489156e+00 -6.272804e+00 -6.282957e-01 -4.046297e-01 7.054598e-01 -2.193104e-01 2.131141e-01 8.930176e-01 -6.205058e-02 -1.309010e-01 -4.553851e-01 6.582586e-01 -4.975427e-02 5.113676e-01 6.231181e-01 3.718469e-01 -8.268768e-01
<VARIANCE> 25
 1.567877e+01 6.339333e+00 3.054781e+01 3.152489e+01 2.253568e+01 2.275076e+01 2.138469e+01 2.706792e+01 2.164307e+01 1.721739e+01 2.907090e+01 1.742820e+01 7.671798e-01 5.346628e-01 1.750248e+00 1.812316e+00 2.158117e+00 2.465557e+00 1.735363e+00 2.224918e+00 2.285398e+00 2.377652e+00 2.513963e+00 1.770686e+00 1.622474e+00
<GCONST> 8.912086e+01
<STATE> 4
<MEAN> 25
 2.694476e+00 1.555700e+00 7.586389e+00 5.478126e+00 -4.273046e+00 -3.121687e+00 -2.879475e+00 -4.543178e+00 -5.403112e+00 -2.142815e+00 8.454041e-01 5.912230e-01 -2.637732e-01 1.689282e-01 -1.076220e+00 -9.583776e-02 1.519893e+00 1.614052e-01 5.124216e-01 6.049134e-01 6.305379e-01 2.844564e-01 -4.329615e-01 8.804509e-03 -6.023344e-01
<VARIANCE> 25
 7.733932e+00 1.110246e+01 2.390175e+01 1.533217e+01 4.305312e+01 3.260603e+01 2.734906e+01 1.915693e+01 2.528978e+01 1.735886e+01 1.791559e+01 1.417364e+01 3.942977e-01 6.624470e-01 1.199194e+00 9.765192e-01 2.024872e+00 1.472326e+00 2.086959e+00 1.913200e+00 3.065460e+00 2.252150e+00 1.907894e+00 1.305076e+00 4.381797e-01
<GCONST> 8.474494e+01
<TRANSP> 5
 0.000000e+00 1.000000e+00 0.000000e+00 0.000000e+00 0.000000e+00
 0.000000e+00 8.614838e-01 1.385162e-01 0.000000e+00 0.000000e+00
 0.000000e+00 0.000000e+00 8.279946e-01 1.720054e-01 0.000000e+00
 0.000000e+00 0.000000e+00 0.000000e+00 7.970221e-01 2.029779e-01
 0.000000e+00 0.000000e+00 0.000000e+00 0.000000e+00 0.000000e+00
<ENDHMM>
~h "jh"
<BEGINHMM>
<NUMSTATES> 5
<STATE> 2
<MEAN> 25
 -2.513386e+00 -4.454501e+00 6.003917e-01 -3.538425e+00 -7.184575e+00 -9.387148e+00 -3.588869e+00 -9.580297e+00 -6.944714e+00 -5.911941e+00 -7.858606e-01 -1.258400e+00 4.418711e-01 1.158004e-01 5.616809e-01 5.357919e-01 4.579427e-01 6.061904e-01 5.338266e-01 -2.074302e-02 -7.447166e-01 -9.470754e-01 -1.136321e+00 -7.126195e-01 -4.345560e-01
<VARIANCE> 25
 6.109221e+00 2.216394e+00 7.726936e+00 4.502838e+00 9.938508e+00 7.825278e+00 6.186117e+00 1.719550e+01 1.090754e+01 1.122606e+01 6.321441e+00 2.947371e+01 9.695244e-01 2.356776e-01 1.244381e+00 7.022614e-01 1.019020e+00 1.485972e+00 1.195182e+00 1.766559e+00 1.591422e+00 1.573760e+00 5.587069e-01 4.705811e-01 8.112081e-01
<GCONST> 7.008205e+01
<STATE> 3
<MEAN> 25
 1.489396e+00 -2.301234e+00 2.295842e+00 -4.986846e+00 -6.886398e+00 -2.347129e+00 -5.877700e+00 -8.472626e+00 -8.274101e+00 -7.096716e+00 -4.002881e+00 -2.747173e+00 7.150190e-01 6.447055e-01 1.167145e+00 7.354423e-01 1.817358e-02 2.191645e+00 -2.473803e-01 2.021386e-01 4.663746e-02 -1.605988e+00 -9.950576e-01 -2.551224e-01 -1.157483e+00
<VARIANCE> 25
 3.274183e+01 5.586504e+00 5.634609e+00 1.202103e+01 2.701443e+00 2.688427e+01 3.240981e+01 1.016874e+01 2.441701e+01 9.794635e+00 3.000484e+01 2.926758e+01 5.472208e-01 2.608365e-01 1.357530e+00 7.124159e-01 1.788780e+00 1.154999e+00 2.314670e+00 9.084561e-01 5.842939e+00 1.101955e+00 3.928072e+00 1.615469e+00 8.667716e-01
<GCONST> 8.076538e+01
<STATE> 4
<MEAN> 25
 1.814533e+00 3.691253e+00 8.678138e+00 1.270868e+00 -6.078022e+00 2.461241e+00 -3.229726e+00 -3.552141e+00 -2.464386e+00 -8.624023e+00 -5.083041e+00 -3.787044e+00 -2.075407e-01 3.215522e-01 1.806106e-01 4.934366e-01 3.546134e-01 -2.169565e-01 -3.500192e-02 6.092700e-01 5.103986e-01 5.366266e-01 3.613624e-01 3.143004e-01 -3.972434e-01
<VARIANCE> 25
 6.294612e+01 1.904324e+01 2.006352e+01 2.030205e+01 6.933461e+01 2.412498e+01 1.912384e+01 1.639452e+01 2.175610e+01 2.094381e+01 2.153268e+01 2.491354e+01 5.625123e+00 1.587073e+00 4.116458e+00 2.578679e+00 6.632429e+00 2.891359e+00 1.632355e+00 1.741817e+00 1.556124e+00 1.878518e+00 1.629375e+00 1.282397e+00 3.368473e+00
<GCONST> 9.619646e+01
<TRANSP> 5
 0.000000e+00 1.000000e+00 0.000000e+00 0.000000e+00 0.000000e+00
 0.000000e+00 5.758165e-01 4.241835e-01 0.000000e+00 0.000000e+00
 0.000000e+00 0.000000e+00 7.049711e-01 2.950288e-01 0.000000e+00
 0.000000e+00 0.000000e+00 0.000000e+00 9.016485e-01 9.835146e-02
 0.000000e+00 0.000000e+00 0.000000e+00 0.000000e+00 0.000000e+00
<ENDHMM>
~h "ng"
<BEGINHMM>
<NUMSTATES> 5
<STATE> 2
<MEAN> 25
 6.291628e+00 4.410620e+00 3.968483e+00 3.994372e+00 9.407163e-01 3.307329e+00 1.572767e+00 -4.012231e+00 -2.614093e+00 6.794470e-01 -4.926527e-01 1.377118e+00 -9.971286e-02 4.041521e-01 -6.898422e-01 5.420857e-01 1.206074e+00 -2.088751e-03 4.123972e-01 3.299436e-01 2.894558e-01 4.592773e-01 6.598518e-01 -8.135656e-02 -1.011878e+00
<VARIANCE> 25
 2.008918e+01 1.063654e+01 7.475407e+00 8.715644e+00 2.593880e+01 1.158531e+01 1.201718e+01 4.011690e+01 1.408519e+01 8.725793e+00 1.435511e+01 8.016562e+00 1.050277e+00 4.450200e-01 6.010074e-01 8.332762e-01 1.134192e+00 1.221524e+00 8.667884e-01 1.483947e+00 1.289331e+00 8.147516e-01 1.388182e+00 7.372748e-01 1.419079e-01
<GCONST> 7.417430e+01
<STATE> 3
<MEAN> 25
 1.088646e+00 1.943636e+00 -2.152413e-01 6.246164e+00 6.459542e+00 1.538805e+00 4.005800e+00 3.196886e+00 7.018948e-01 2.529281e+00 6.441590e-01 1.535381e+00 -1.741040e-02 2.816572e-01 -8.462129e-01 8.639280e-02 7.049025e-03 -4.932616e-02 2.822531e-01 -4.996011e-01 2.919537e-01 1.558917e-01 2.086558e-01 -1.031246e-01 -6.395364e-01
<VARIANCE> 25
 3.515551e+00 8.792331e+00 7.525246e+00 8.564251e+00 1.024932e+01 8.297136e+00 3.230380e+00 1.972713e+01 1.259150e+01 1.607701e+01 1.185563e+01 7.478195e+00 4.605134e-01 5.935295e-01 1.232224e+00 1.331006e+00 7.056148e-01 1.496047e+00 1.012989e+00 2.123860e+00 1.357311e+00 1.558127e+00 1.310784e+00 6.089834e-01 6.500185e-02
<GCONST> 6.974505e+01
<STATE> 4
<MEAN> 25
 -5.588425e-01 1.383318e+00 -1.018191e+00 5.323919e+00 6.053501e+00 2.725706e+00 5.703974e+00 4.558555e+00 3.778060e+00 5.006922e+00 2.871321e+00 1.751224e+00 -6.729296e-02 1.503726e-03 8.479832e-03 -3.565850e-02 -4.623390e-03 1.588336e-01 1.593857e-01 1.413777e-01 7.461372e-02 6.037266e-02 7.007384e-02 6.683382e-02 -6.039486e-02
<VARIANCE> 25
 1.810891e+00 2.761393e+00 6.435352e+00 8.578273e+00 1.058723e+01 1.736063e+01 1.430529e+01 1.347219e+01 1.347540e+01 1.211111e+01 8.829989e+00 9.700074e+00 1.066488e-01 2.450855e-01 4.911954e-01 7.558195e-01 7.440339e-01 1.465068e+00 1.384483e+00 1.239011e+00 1.186339e+00 1.360369e+00 9.668725e-01 9.516091e-01 3.978482e-02
<GCONST> 6.474962e+01
<TRANSP> 5
 0.000000e+00 1.000000e+00 0.000000e+00 0.000000e+00 0.000000e+00
 0.000000e+00 7.129576e-01 2.870425e-01 0.000000e+00 0.000000e+00
 0.000000e+00 0.000000e+00 3.696438e-01 6.303563e-01 0.000000e+00
 0.000000e+00 0.000000e+00 0.000000e+00 9.037951e-01 9.620494e-02
 0.000000e+00 0.000000e+00 0.000000e+00 0.000000e+00 0.000000e+00
<ENDHMM>
~h "ow"
<BEGINHMM>
<NUMSTATES> 5
<STATE> 2
<MEAN> 25
 4.228484e+00 -4.878146e+00 -3.451832e+00 -8.808735e+00 -5.654556e+00 -4.350860e+00 -3.601011e+00 -2.677249e+00 -6.634980e-01 8.168743e-01 2.179279e+00 -2.707341e-01 4.643838e-01 1.121645e-01 2.456045e-03 -1.354600e-01 -1.660758e-01 2.310286e-01 -1.101153e-01 -1.275792e-01 -2.463325e-01 -1.675026e-01 2.038659e-02 1.666236e-01 -4.533673e-02
<VARIANCE> 25
 9.769708e+00 1.009989e+01 5.104845e+00 1.153686e+01 1.258434e+01 1.848257e+01 2.080293e+01 1.919605e+01 2.062053e+01 2.310102e+01 1.436770e+01 1.994251e+01 5.933493e-01 7.632704e-01 4.777441e-01 1.535588e+00 1.239408e+00 1.877469e+00 1.607648e+00 1.268927e+00 1.603599e+00 1.612486e+00 1.265472e+00 1.673704e+00 2.374258e+00
<GCONST> 8.089837e+01
<STATE> 3
<MEAN> 25
 8.918786e+00 2.520793e+00 -1.874631e+00 -3.995620e+00 -2.198852e+00 5.202891e+00 -1.349028e+00 -4.108027e+00 -2.255487e+00 -7.794464e-01 9.253729e-01 2.197706e+00 -4.169149e-01 7.034761e-01 1.525232e-01 9.668046e-01 9.466059e-01 4.907916e-01 7.783820e-01 1.436571e-01 -5.053210e-02 -7.174344e-02 -2.422652e-01 -1.121033e-01 -1.485808e+00
<VARIANCE> 25
 7.719413e+00 1.344452e+01 7.507215e+00 2.027154e+01 2.440152e+01 2.947290e+01 3.172402e+01 2.098278e+01 1.696108e+01 2.422276e+01 2.759122e+01 2.468298e+01 8.906728e-01 9.276468e-01 7.671684e-01 1.086851e+00 1.180790e+00 3.284134e+00 2.300503e+00 2.047325e+00 2.062123e+00 1.785478e+00 2.146357e+00 1.651748e+00 4.574845e-01
<GCONST> 8.555437e+01
<STATE> 4
<MEAN> 25
 1.087176e+00 2.532665e+00 -1.326616e-01 3.054111e+00 3.246270e+00 1.795216e+00 1.882792e+00 5.201052e-01 -2.554300e-01 1.776069e+00 2.324623e+00 1.020801e+00 -3.218709e-01 -1.481272e-01 1.023670e-01 2.542960e-01 1.399879e-01 -8.374444e-02 5.697512e-02 2.648283e-01 2.977419e-01 1.470196e-01 -2.141142e-02 -4.574822e-02 -1.906034e-01
<VARIANCE> 25
 6.592033e+00 4.841690e+00 6.070623e+00 6.101095e+00 8.230895e+00 1.247987e+01 1.090593e+01 1.417068e+01 1.425632e+01 1.360145e+01 1.235683e+01 1.225241e+01 1.667622e-01 2.567015e-01 5.133504e-01 6.969886e-01 7.169310e-01 1.276517e+00 1.187596e+00 1.384053e+00 1.273276e+00 1.272580e+00 1.175774e+00 1.046178e+00 7.273158e-02
<GCONST> 6.728001e+01
<TRANSP> 5
 0.000000e+00 1.000000e+00 0.000000e+00 0.000000e+00 0.000000e+00
 0.000000e+00 9.234403e-01 7.655969e-02 0.000000e+00 0.000000e+00
 0.000000e+00 0.000000e+00 8.623023e-01 1.376977e-01 0.000000e+00
 0.000000e+00 0.000000e+00 0.000000e+00 8.908533e-01 1.091466e-01
 0.000000e+00 0.000000e+00 0.000000e+00 0.000000e+00 0.000000e+00
<ENDHMM>
~h "oy"
<BEGINHMM>
<NUMSTATES> 5
<STATE> 2
<MEAN> 25
 5.510762e+00 -5.967849e+00 2.293372e-01 -6.287095e+00 -1.065107e+01 -7.336648e+00 -6.795786e+00 -5.926128e+00 -2.558333e+00 -2.069620e+00 -4.686552e-01 6.180050e-01 -1.127712e-01 1.138575e-01 6.367087e-01 3.621716e-01 -2.502500e-01 -4.019672e-03 -3.477732e-01 -9.662490e-02 -2.722745e-01 8.213996e-02 2.644698e-02 -1.394497e-01 -1.506245e-01
<VARIANCE> 25
 1.097720e+01 5.683459e+00 2.732257e+01 2.052621e+01 6.925668e+00 6.262994e+00 3.237815e+01 2.669992e+01 2.563024e+01 2.331654e+01 1.542539e+01 1.507364e+01 3.311954e-01 4.040701e-01 1.397773e+00 1.725747e+00 8.390560e-01 9.276793e-01 2.197658e+00 1.937967e+00 2.488354e+00 3.126117e+00 1.473229e+00 2.043381e+00 3.756115e-01
<GCONST> 8.102575e+01
<STATE> 3
<MEAN> 25
 -1.033398e+00 3.918875e+00 7.887532e+00 4.434153e-01 -5.633440e+00 -7.282009e+00 -8.993269e+00 -4.617263e+00 -1.178518e+01 -6.329903e+00 -6.758178e-01 2.345736e-01 -2.126622e+00 1.602111e+00 -1.785145e+00 -5.105311e-01 2.491197e+00 6.632605e-01 2.094782e+00 1.411652e+00 7.418069e-01 7.071939e-01 -6.319624e-01 -5.558161e-01 -2.925517e-01
<VARIANCE> 25
 5.697521e+01 3.856556e+01 2.977406e+01 1.928119e+01 4.554894e+01 1.737482e+01 3.917744e+01 8.792850e+00 2.777877e+01 2.357435e+01 1.500670e+01 2.050696e+01 4.003830e+00 4.108898e+00 1.065970e+00 8.974227e-01 1.464049e+00 3.221980e+00 1.289033e+00 4.440108e-01 3.365396e+00 2.403517e+00 3.426898e+00 1.366175e+00 1.084779e+00
<GCONST> 9.218898e+01
<STATE> 4
<MEAN> 25
 -4.833966e+00 3.897789e+00 2.631866e+00 -2.179058e+00 -1.798911e+00 -1.889705e+00 -5.946150e+00 5.610500e-02 -2.111867e+00 -3.569281e+00 -4.810369e+00 -5.518857e+00 -3.470195e-01 -1.030131e-01 -6.803603e-01 2.849975e-01 1.165670e+00 1.016122e+00 1.477399e+00 6.750742e-01 1.857821e+00 7.927831e-01 -8.345475e-01 -1.059206e+00 -4.906099e-01
<VARIANCE> 25
 8.944238e+01 4.529810e+01 1.142492e+01 2.969855e+01 4.233606e+01 2.016995e+01 3.888271e+01 4.744473e+00 2.054882e+01 3.597144e+01 1.215919e+01 1.632171e+01 5.467775e-01 1.260072e-01 1.923648e-01 1.136739e+00 5.593879e-01 1.219964e+00 3.872056e-01 2.625737e-01 1.865150e-01 9.242126e-01 2.028772e+00 1.402573e+00 1.079651e-01
<GCONST> 7.414246e+01
<TRANSP> 5
 0.000000e+00 1.000000e+00 0.000000e+00 0.000000e+00 0.000000e+00
 0.000000e+00 9.490267e-01 5.097328e-02 0.000000e+00 0.000000e+00
 0.000000e+00 0.000000e+00 7.142745e-01 2.857255e-01 0.000000e+00
 0.000000e+00 0.000000e+00 0.000000e+00 4.929598e-01 5.070402e-01
 0.000000e+00 0.000000e+00 0.000000e+00 0.000000e+00 0.000000e+00
<ENDHMM>
~h "sh"
<BEGINHMM>
<NUMSTATES> 5
<STATE> 2
<MEAN> 25
 -1.723242e+01 3.062671e+00 7.549671e+00 -1.451905e+00 -1.236409e+00 1.214847e+00 1.646873e+00 3.136629e+00 4.682721e-01 -5.335140e+00 2.322075e+00 7.689117e-01 -7.019684e-01 -2.984070e-01 -9.216791e-03 2.114622e-02 1.577857e-01 1.649401e-01 7.295861e-01 2.904108e-01 7.318893e-01 4.622749e-02 2.687167e-01 5.668917e-01 1.048933e-01
<VARIANCE> 25
 1.374102e+01 1.030815e+01 1.761773e+01 1.102257e+01 1.437136e+01 1.943747e+01 2.495622e+01 1.774796e+01 2.071077e+01 1.458229e+01 1.462989e+01 2.381644e+01 1.816433e+00 4.700410e-01 1.035950e+00 1.136999e+00 1.347578e+00 1.671431e+00 1.839676e+00 1.425771e+00 1.622212e+00 1.297122e+00 1.581014e+00 1.526636e+00 5.878128e-01
<GCONST> 8.233450e+01
<STATE> 3
<MEAN> 25
 -9.046184e+00 -1.306228e-01 7.398409e+00 1.163893e+00 -5.570687e+00 -2.085450e+00 1.018847e+00 5.260753e+00 3.494795e+00 -6.424695e+00 1.360978e+00 5.709959e+00 2.465808e+00 -1.078943e-01 -3.541548e-01 4.124226e-02 -5.818856e-01 -7.358604e-01 -9.009653e-01 -1.085820e-01 7.975136e-02 -3.145088e-01 -6.369292e-01 -1.548651e-01 -5.359963e-01
<VARIANCE> 25
 4.894175e+01 5.983951e+00 1.660110e+01 1.088388e+01 5.523669e+01 4.887862e+01 3.201723e+01 1.813095e+01 2.379975e+01 2.897904e+01 1.628452e+01 2.471083e+01 1.695157e+00 5.904770e-01 1.620786e+00 2.237276e+00 4.427453e+00 3.622524e+00 3.123386e+00 2.124295e+00 1.713574e+00 2.028480e+00 1.771458e+00 2.350239e+00 2.581769e+00
<GCONST> 9.319908e+01
<STATE> 4
<MEAN> 25
 -5.088399e+00 7.201509e-01 5.898008e+00 1.964287e-01 -5.790791e+00 -5.925374e+00 -4.054614e-01 7.867015e-01 1.309547e+00 -6.525768e+00 4.081066e-01 3.373187e+00 2.674774e+00 -6.030098e-01 -8.072472e-01 -8.168113e-01 -1.368384e+00 -2.055896e+00 -2.563691e+00 -1.747039e+00 -1.160538e+00 -3.981245e-01 -1.161317e+00 -7.201994e-01 1.572989e+00
<VARIANCE> 25
 2.971791e+01 7.732062e+00 1.887827e+01 1.516635e+01 3.515643e+01 4.293155e+01 3.677953e+01 2.337087e+01 2.297888e+01 2.049805e+01 2.749835e+01 1.423358e+01 3.333641e+00 9.208058e-01 1.002512e+00 1.238350e+00 3.523983e+00 3.554420e+00 3.057149e+00 1.899342e+00 3.743320e+00 3.181426e+00 2.517261e+00 3.250562e+00 2.507033e+00
<GCONST> 9.436465e+01
<TRANSP> 5
 0.000000e+00 1.000000e+00 0.000000e+00 0.000000e+00 0.000000e+00
 0.000000e+00 8.981666e-01 1.018334e-01 0.000000e+00 0.000000e+00
 0.000000e+00 0.000000e+00 7.040224e-01 2.959775e-01 0.000000e+00
 0.000000e+00 0.000000e+00 0.000000e+00 5.123544e-01 4.876456e-01
 0.000000e+00 0.000000e+00 0.000000e+00 0.000000e+00 0.000000e+00
<ENDHMM>
~h "sp"
<BEGINHMM>
<NUMSTATES> 3
<STATE> 2
~s "silst"
<TRANSP> 3
 0.000000e+00 7.433203e-01 2.566797e-01
 0.000000e+00 9.653701e-01 3.462991e-02
 0.000000e+00 0.000000e+00 0.000000e+00
<ENDHMM>
~h "th"
<BEGINHMM>
<NUMSTATES> 5
<STATE> 2
<MEAN> 25
 -5.420105e+00 1.430288e+00 -1.493136e+00 2.198960e+00 4.953735e+00 9.971819e-01 1.322573e+00 4.384085e+00 -2.135636e+00 -6.081830e-01 2.828710e+00 1.589173e+00 -3.136915e-01 -3.354626e-01 1.594252e-01 -8.210998e-02 -3.382103e-01 -1.677537e-01 1.236448e-01 1.107277e-01 9.350010e-02 7.698218e-02 3.265154e-01 8.785880e-01 -2.630194e-02
<VARIANCE> 25
 1.638726e+01 1.173920e+01 2.037745e+01 1.088383e+01 1.433903e+01 1.704264e+01 1.489998e+01 9.447388e+00 1.592807e+01 1.041928e+01 1.934531e+01 1.047024e+01 5.618390e-01 8.109577e-01 1.347657e+00 1.372969e+00 5.274578e-01 1.324055e+00 1.775747e+00 1.914888e+00 1.111359e+00 1.731722e+00 1.637828e+00 1.071973e+00 4.469835e-01
<GCONST> 7.858309e+01
<STATE> 3
<MEAN> 25
 -1.921020e+00 6.856343e-01 -1.300345e+00 2.388850e+00 5.034232e+00 1.398071e+00 2.322103e+00 5.107852e+00 2.260074e+00 2.047204e+00 3.877640e+00 3.111595e+00 3.286207e-01 5.644519e-02 -3.903146e-02 2.222410e-02 4.496492e-02 1.002503e-01 2.134558e-01 1.370256e-01 4.760993e-01 1.483575e-01 -1.249024e-01 2.212423e-02 -4.451595e-01
<VARIANCE> 25
 1.178565e+01 1.419236e+00 7.130175e+00 8.907336e+00 5.769488e+00 1.052568e+01 1.022247e+01 1.988861e+01 1.311193e+01 1.331595e+01 1.684188e+01 9.692754e+00 5.173846e-01 1.922345e-01 5.833040e-01 5.086401e-01 6.403204e-01 1.263297e+00 1.162010e+00 1.524374e+00 1.616687e+00 1.041713e+00 1.277118e+00 1.785773e+00 3.349047e-01
<GCONST> 6.968240e+01
<STATE> 4
<MEAN> 25
 -6.496120e+00 1.125577e+00 -9.584371e-01 3.724689e-01 4.307277e+00 1.301607e+00 5.068784e-01 7.701864e+00 2.016539e+00 1.350892e+00 1.330720e+00 2.079305e+00 -1.030981e+00 -1.880625e-01 4.850887e-01 -2.598617e-01 -1.143879e+00 -1.839846e-01 -5.889553e-01 1.072774e-01 -1.682593e-02 -1.629779e-01 -7.146490e-02 -5.285010e-02 1.356109e+00
<VARIANCE> 25
 4.465504e+01 5.490914e+00 1.506170e+01 1.289804e+01 2.002869e+01 2.012838e+01 1.987053e+01 2.716385e+01 1.609729e+01 1.567068e+01 2.097393e+01 1.597393e+01 5.121160e+00 8.456990e-01 8.125288e-01 2.882825e+00 3.054729e+00 2.344322e+00 3.281853e+00 3.675984e+00 2.847946e+00 2.130303e+00 2.006320e+00 1.864689e+00 3.903094e+00
<GCONST> 9.161321e+01
<TRANSP> 5
 0.000000e+00 1.000000e+00 0.000000e+00 0.000000e+00 0.000000e+00
 0.000000e+00 6.614716e-01 3.385285e-01 0.000000e+00 0.000000e+00
 0.000000e+00 0.000000e+00 7.415640e-01 2.584360e-01 0.000000e+00
 0.000000e+00 0.000000e+00 0.000000e+00 8.057202e-01 1.942798e-01
 0.000000e+00 0.000000e+00 0.000000e+00 0.000000e+00 0.000000e+00
<ENDHMM>
~h "uh"
<BEGINHMM>
<NUMSTATES> 5
<STATE> 2
<MEAN> 25
 3.235187e+00 -3.083728e+00 -3.414603e+00 -6.662915e+00 -5.594172e+00 -6.072958e+00 -1.099484e+01 -1.020331e+01 -5.913080e+00 -1.596830e+00 3.252522e+00 2.164201e+00 -6.766323e-02 1.022146e-01 3.973144e-01 -4.626503e-01 1.093503e-01 6.658391e-01 2.425495e-01 4.108533e-01 5.085035e-01 -5.013291e-01 -5.741910e-01 2.035800e-02 -2.632129e-01
<VARIANCE> 25
 5.190706e+00 2.027991e+01 7.179332e+00 1.253128e+01 2.602221e+01 3.633741e+01 1.677402e+01 2.365378e+01 1.751987e+01 1.313246e+01 2.056458e+01 1.221430e+01 9.596621e-01 9.815806e-01 1.027408e+00 1.120455e+00 1.487885e+00 3.836915e+00 2.049025e+00 2.963724e+00 1.627349e+00 2.182736e+00 2.437163e+00 2.176514e+00 1.757260e+00
<GCONST> 8.602929e+01
<STATE> 3
<MEAN> 25
 7.430941e-01 -2.769624e-01 4.344292e+00 -5.161235e+00 -7.136853e+00 -3.728175e+00 -4.541753e+00 -4.445008e+00 -2.680342e+00 -5.103728e+00 1.937792e+00 3.310405e-02 1.611519e-01 1.123501e+00 1.163627e+00 5.875875e-01 -5.985208e-02 2.038363e+00 5.834607e-01 -6.322238e-01 -8.087610e-01 -5.202276e-01 3.202997e-01 -2.218900e-01 -1.037908e+00
<VARIANCE> 25
 1.844108e+01 1.480847e+01 2.804035e+01 1.735962e+01 2.158733e+01 1.112487e+02 2.483073e+01 3.274263e+01 2.039865e+01 9.918291e+00 1.433502e+01 6.123496e+00 4.444639e-01 4.438065e-01 1.378272e+00 1.111388e+00 2.722260e+00 3.416920e+00 3.545199e+00 1.454821e+00 1.096754e+00 1.036487e+00 2.224565e+00 1.019213e+00 9.907539e-01
<GCONST> 8.562516e+01
<STATE> 4
<MEAN> 25
 7.286847e+00 3.747051e+00 6.386214e+00 -6.346771e-01 -2.511635e+00 5.709838e+00 -2.437512e+00 -5.622269e+00 -4.432972e+00 -3.738244e+00 -3.456347e-01 -6.471950e-01 1.177019e-01 5.129308e-01 -4.994588e-01 8.138783e-01 9.962111e-01 -4.121801e-01 1.140749e+00 8.586962e-01 9.598746e-02 3.842827e-01 -4.727656e-01 -1.245688e-01 -1.094485e+00
<VARIANCE> 25
 1.081122e+01 1.342413e+01 3.525745e+01 2.380304e+01 1.121117e+01 2.156492e+01 3.645664e+01 2.467331e+01 5.989855e+00 9.061837e+00 7.813213e+00 1.140377e+01 1.613411e+00 8.462195e-01 4.090188e-01 7.571892e-01 1.056469e+00 2.455589e+00 2.098938e+00 2.728692e+00 1.121330e+00 9.550834e-01 7.085378e-01 4.367959e-01 5.075031e-01
<GCONST> 7.848602e+01
<TRANSP> 5
 0.000000e+00 1.000000e+00 0.000000e+00 0.000000e+00 0.000000e+00
 0.000000e+00 8.455390e-01 1.544610e-01 0.000000e+00 0.000000e+00
 0.000000e+00 0.000000e+00 5.674002e-01 4.325998e-01 0.000000e+00
 0.000000e+00 0.000000e+00 0.000000e+00 7.071427e-01 2.928573e-01
 0.000000e+00 0.000000e+00 0.000000e+00 0.000000e+00 0.000000e+00
<ENDHMM>
~h "uw"
<BEGINHMM>
<NUMSTATES> 5
<STATE> 2
<MEAN> 25
 5.321201e+00 1.362608e+00 -4.449518e-01 -2.005693e+00 -7.212368e+00 -2.587307e+00 -1.044402e+01 -1.111959e+01 -8.067032e+00 -7.129911e+00 8.452061e-01 -1.332901e+00 4.296491e-01 4.968209e-01 1.991516e-02 1.420449e-01 4.075095e-01 5.171574e-01 1.518437e-01 -6.415902e-02 9.655473e-02 4.475038e-02 1.161720e-01 8.834729e-02 -6.351956e-01
<VARIANCE> 25
 8.807003e+00 1.222051e+01 2.637135e+01 3.319763e+01 1.752701e+01 3.174658e+01 2.031996e+01 1.137455e+01 1.988927e+01 2.578215e+01 1.719471e+01 2.020532e+01 3.481592e-01 6.642203e-01 9.849299e-01 1.215112e+00 1.612681e+00 1.884816e+00 1.214151e+00 7.032178e-01 1.615488e+00 1.843111e+00 1.517838e+00 1.542764e+00 6.500430e-01
<GCONST> 8.243562e+01
<STATE> 3
<MEAN> 25
 5.839118e+00 5.577772e+00 3.125388e+00 2.439296e+00 7.484177e-02 2.399413e-01 -4.404649e+00 -7.677396e+00 -6.249420e+00 -3.357462e+00 7.271051e-01 3.019364e-01 -5.945202e-01 5.303108e-02 3.722812e-02 4.523058e-01 1.141064e+00 3.736753e-02 1.117358e+00 9.202838e-01 3.481206e-01 4.178976e-01 -3.905026e-01 1.840860e-01 -1.097385e+00
<VARIANCE> 25
 1.135567e+01 7.966036e+00 1.330756e+01 1.666651e+01 1.703449e+01 2.360930e+01 2.617729e+01 2.039366e+01 2.379906e+01 1.789782e+01 1.740609e+01 2.041492e+01 4.145494e-01 6.438283e-01 1.108128e+00 8.775004e-01 1.611787e+00 2.039067e+00 1.672008e+00 1.416411e+00 1.859576e+00 1.955279e+00 1.296478e+00 1.938526e+00 6.145094e-01
<GCONST> 8.248659e+01
<STATE> 4
<MEAN> 25
 1.441774e+00 3.860632e+00 2.582639e+00 4.886588e+00 4.495804e+00 1.075515e+00 8.658517e-01 -7.050365e-01 -2.359377e+00 -7.639428e-01 -2.956098e-01 -1.705621e-01 -5.476471e-01 -2.723594e-01 -3.350901e-01 -5.459077e-02 3.491642e-01 2.547669e-01 4.783252e-01 8.503087e-01 5.167555e-01 4.144625e-01 1.563843e-01 1.102655e-02 -1.445834e-01
<VARIANCE> 25
 6.226626e+00 5.404118e+00 5.607206e+00 1.121280e+01 1.637969e+01 1.380064e+01 1.914572e+01 1.824488e+01 1.812467e+01 1.653797e+01 1.722595e+01 1.405586e+01 3.420631e-01 3.422146e-01 4.937906e-01 4.643069e-01 1.129358e+00 1.450669e+00 1.560728e+00 2.208986e+00 2.267994e+00 1.615917e+00 1.358320e+00 9.406832e-01 8.989280e-02
<GCONST> 7.332133e+01
<TRANSP> 5
 0.000000e+00 1.000000e+00 0.000000e+00 0.000000e+00 0.000000e+00
 0.000000e+00 8.528756e-01 1.471244e-01 0.000000e+00 0.000000e+00
 0.000000e+00 0.000000e+00 8.011572e-01 1.988427e-01 0.000000e+00
 0.000000e+00 0.000000e+00 0.000000e+00 7.634119e-01 2.365880e-01
 0.000000e+00 0.000000e+00 0.000000e+00 0.000000e+00 0.000000e+00
<ENDHMM>
~h "zh"
<BEGINHMM>
<NUMSTATES> 5
<STATE> 2
<MEAN> 25
 -6.736151e+00 4.135319e+00 6.883550e+00 -3.430856e+00 -4.979024e+00 -1.018341e+00 -1.290873e+00 -3.832528e+00 -4.662989e+00 -6.745193e+00 5.174956e-01 4.242789e-01 -3.666804e-01 3.377501e-01 3.484495e-01 5.570559e-02 4.372660e-01 3.459594e-01 2.824928e-01 2.558174e-02 1.058024e-01 -1.938559e-01 6.094082e-02 1.388135e-01 -1.839625e-01
<VARIANCE> 25
 1.271463e+01 1.303310e+01 1.098461e+01 8.273726e+00 2.317735e+01 1.850331e+01 1.456571e+01 2.384895e+01 1.815078e+01 1.906878e+01 2.032372e+01 2.008352e+01 1.063692e+00 6.686403e-01 9.495456e-01 7.370274e-01 2.149482e+00 1.021236e+00 1.348111e+00 1.952113e+00 2.198825e+00 2.132560e+00 1.861948e+00 2.389646e+00 1.898180e-01
<GCONST> 8.176926e+01
<STATE> 3
<MEAN> 25
 -6.295706e+00 2.099821e+00 5.496161e+00 -9.625565e-01 -1.502986e+00 -2.458439e+00 4.960877e-01 -7.668613e-01 -3.220384e+00 -5.791988e+00 8.553883e-01 4.947946e+00 1.088745e+00 -1.305403e+00 -6.859450e-01 1.103573e-02 -7.703747e-01 -9.142550e-01 -3.478469e-01 5.297974e-01 2.041917e-01 9.903220e-01 1.134296e-01 1.993711e-01 8.693666e-02
<VARIANCE> 25
 2.277909e+01 1.945665e+01 1.033657e+01 7.381163e+00 3.789001e+01 2.753703e+01 1.693099e+01 2.847638e+01 1.205768e+01 1.776707e+01 1.291144e+01 1.274847e+01 8.777974e-01 6.673898e-01 6.345307e-01 9.308729e-01 1.026115e+00 2.542634e+00 1.470376e+00 2.858414e+00 1.659446e+00 2.170136e+00 1.663829e+00 1.968399e+00 5.901850e-01
<GCONST> 8.324844e+01
<STATE> 4
<MEAN> 25
 -3.156370e-01 -2.127082e-01 -4.228722e+00 1.826990e+00 4.934852e+00 3.519828e+00 2.836927e+00 3.373252e+00 2.709751e+00 4.356444e+00 3.181355e+00 1.282717e+00 3.652925e-02 -9.966046e-02 -8.460347e-02 1.765180e-03 -4.146643e-02 4.466247e-02 -2.478661e-02 1.454660e-01 1.884379e-01 8.184769e-02 -5.159976e-02 -5.885569e-02 -3.184047e-02
<VARIANCE> 25
 1.650684e+00 3.017336e+00 1.398289e+01 7.755695e+00 2.765641e+01 2.234717e+01 1.138387e+01 1.259670e+01 1.167754e+01 1.760411e+01 1.164983e+01 9.562221e+00 1.825408e-01 2.987704e-01 7.281411e-01 6.648557e-01 7.860507e-01 7.546359e-01 7.252947e-01 1.526363e+00 1.621877e+00 1.519790e+00 1.651113e+00 7.424726e-01 4.955593e-02
<GCONST> 6.771619e+01
<TRANSP> 5
