~o
<STREAMINFO> 1 25
<VECSIZE> 25<NULLD><MFCC_D_N_Z_0><DIAGC>
~h "b"
<BEGINHMM>
<NUMSTATES> 5
<STATE> 2
<MEAN> 25
 7.370267e-01 -4.578095e-01 -5.046579e+00 2.314492e+00 2.619298e+00 3.754074e+00 1.674797e+00 -1.637236e+00 3.781911e-01 2.903940e+00 -5.226444e+00 -3.687206e+00 -1.027469e-02 -3.358362e-01 -2.973901e-01 -3.924975e-01 -1.616735e-01 -3.234544e-02 -2.226441e-01 -1.321213e-01 9.908878e-02 -2.132558e-02 -1.577169e-01 -9.875877e-02 5.635119e-01
<VARIANCE> 25
 2.996952e+01 3.912726e+01 3.931472e+01 3.954635e+01 2.667965e+01 3.930378e+01 2.782448e+01 2.885520e+01 2.831991e+01 3.328616e+01 3.139441e+01 2.314896e+01 1.520784e+00 3.610422e+00 2.317030e+00 2.790578e+00 2.241144e+00 4.058500e+00 2.279854e+00 2.373904e+00 2.260693e+00 2.601482e+00 2.558620e+00 2.395959e+00 4.517619e+00
<GCONST> 1.000027e+02
<STATE> 3
<MEAN> 25
 5.808089e-01 -1.471572e+00 -4.348722e+00 8.196510e-01 1.813440e+00 3.178794e+00 1.141876e+00 -1.775292e+00 6.764900e-01 2.221103e+00 -4.737165e+00 -3.424174e+00 -7.260896e-02 -2.991412e-01 2.504932e-01 -4.044816e-01 -3.693576e-01 -3.751395e-01 -1.121282e-01 6.179896e-03 -1.738175e-02 -1.233707e-01 1.380866e-01 1.490079e-01 9.199988e-01
<VARIANCE> 25
 2.943715e+01 4.118018e+01 5.079530e+01 5.588874e+01 3.257284e+01 5.251785e+01 3.435089e+01 2.847900e+01 2.900926e+01 3.711733e+01 3.359352e+01 2.484932e+01 1.765990e+00 3.490481e+00 3.097595e+00 3.923939e+00 2.808918e+00 5.830010e+00 2.655651e+00 2.695179e+00 2.967623e+00 2.809243e+00 2.412916e+00 1.873563e+00 4.961140e+00
<GCONST> 1.033490e+02
<STATE> 4
<MEAN> 25
 2.567842e-01 -1.071142e+00 -3.512294e-01 -8.074737e-01 -1.393907e+00 7.177459e-01 1.361941e+00 -5.541527e-01 7.732265e-02 2.544945e-01 -2.981604e+00 -1.930376e+00 1.013061e-01 -1.530241e-01 4.000424e-01 -3.817566e-01 -6.116328e-01 -7.585362e-01 5.300753e-02 1.744252e-01 -1.847880e-01 -1.409568e-01 3.165816e-01 3.306467e-01 9.869383e-01
<VARIANCE> 25
 2.879290e+01 3.703183e+01 9.298137e+01 5.411087e+01 6.861592e+01 7.875297e+01 3.468530e+01 2.966618e+01 3.094530e+01 4.574934e+01 4.123150e+01 2.224523e+01 1.938118e+00 3.174667e+00 3.263605e+00 5.059307e+00 3.772810e+00 7.621744e+00 2.736159e+00 2.600509e+00 2.906720e+00 2.605895e+00 2.619036e+00 1.816234e+00 5.453440e+00
<GCONST> 1.062729e+02
<TRANSP> 5
 0.000000e+00 1.000000e+00 0.000000e+00 0.000000e+00 0.000000e+00
 0.000000e+00 7.497942e-01 2.502058e-01 0.000000e+00 0.000000e+00
 0.000000e+00 0.000000e+00 7.109085e-01 2.890916e-01 0.000000e+00
 0.000000e+00 0.000000e+00 0.000000e+00 7.986263e-01 2.013738e-01
 0.000000e+00 0.000000e+00 0.000000e+00 0.000000e+00 0.000000e+00
<ENDHMM>
~h "d"
<BEGINHMM>
<NUMSTATES> 5
<STATE> 2
<MEAN> 25
 3.062249e+00 -2.660412e+00 -5.018410e+00 -2.439983e-01 1.687811e+00 1.935069e+00 -1.911895e+00 7.434638e-01 1.420550e+00 1.978189e+00 4.883078e-01 -2.703232e+00 4.821213e-01 -2.179489e-01 -1.434596e-01 -4.198186e-01 -3.210056e-01 -3.651413e-01 -2.024526e-01 -8.207273e-02 -2.000948e-01 1.617002e-01 2.427815e-01 -1.824503e-01 7.996619e-01
<VARIANCE> 25
 4.544235e+01 3.486258e+01 6.227410e+01 5.976301e+01 4.126287e+01 5.176225e+01 5.764895e+01 4.554337e+01 3.290362e+01 2.537751e+01 1.064524e+02 2.844689e+01 2.065868e+00 3.040527e+00 4.973013e+00 3.765777e+00 3.013768e+00 4.770125e+00 4.663064e+00 4.770232e+00 3.581649e+00 2.559141e+00 4.909408e+00 2.574090e+00 6.071693e+00
<GCONST> 1.089105e+02
<STATE> 3
<MEAN> 25
 5.614347e+00 -3.187739e+00 -6.945499e+00 -1.060527e+00 6.089245e-01 8.494016e-01 -2.112259e+00 1.029036e+00 1.309048e+00 2.040312e+00 2.719671e+00 -3.253991e+00 1.139960e-01 8.588672e-02 -1.083800e-01 -9.801252e-02 -3.200786e-04 -1.031881e-01 -1.310571e-01 -4.201872e-02 -6.833291e-02 -1.269409e-01 -1.960850e-01 2.130452e-02 5.916409e-02
<VARIANCE> 25
 5.031245e+01 3.136500e+01 5.820442e+01 5.449945e+01 4.660699e+01 5.050644e+01 6.869885e+01 5.618025e+01 3.551547e+01 3.341805e+01 1.322940e+02 3.402593e+01 2.047343e+00 1.996191e+00 3.552174e+00 3.256700e+00 3.402512e+00 4.361850e+00 4.707322e+00 4.575837e+00 3.570906e+00 3.093429e+00 4.384441e+00 3.785928e+00 4.350100e+00
<GCONST> 1.091914e+02
<STATE> 4
<MEAN> 25
 4.029300e+00 -2.252928e+00 -6.289928e+00 -4.175279e-01 2.148027e+00 5.472841e-01 -2.862550e+00 1.112974e+00 1.639545e+00 1.804973e+00 -6.988363e-01 -2.411613e+00 -4.163903e-01 1.684942e-01 2.642292e-01 -2.662100e-01 3.121047e-02 -1.677520e-01 2.274167e-03 -2.096021e-01 -8.609896e-02 -2.278636e-02 -1.393703e-01 1.483719e-01 -9.909355e-02
<VARIANCE> 25
 5.099171e+01 2.914920e+01 4.390181e+01 4.439668e+01 4.811739e+01 5.226807e+01 5.567751e+01 5.011286e+01 3.838035e+01 4.282930e+01 8.936478e+01 3.057358e+01 2.553689e+00 1.948109e+00 3.006183e+00 3.463507e+00 3.748173e+00 4.039297e+00 4.088467e+00 4.193730e+00 4.032507e+00 4.399055e+00 4.617840e+00 3.644961e+00 4.311784e+00
<GCONST> 1.085745e+02
<TRANSP> 5
 0.000000e+00 1.000000e+00 0.000000e+00 0.000000e+00 0.000000e+00
 0.000000e+00 7.371883e-01 2.628117e-01 0.000000e+00 0.000000e+00
 0.000000e+00 0.000000e+00 7.180240e-01 2.819760e-01 0.000000e+00
 0.000000e+00 0.000000e+00 0.000000e+00 7.606337e-01 2.393663e-01
 0.000000e+00 0.000000e+00 0.000000e+00 0.000000e+00 0.000000e+00
<ENDHMM>
~h "f"
<BEGINHMM>
<NUMSTATES> 5
<STATE> 2
<MEAN> 25
 -6.716728e-01 1.221748e+00 -7.604223e-01 2.170346e+00 2.363496e+00 1.334778e-01 1.953264e+00 2.923256e+00 6.189917e-01 1.105130e+00 1.201764e+00 1.030101e+00 -1.762380e-01 -1.570278e-01 -1.376499e-01 -1.893828e-01 1.302191e-01 1.286539e-01 1.942698e-01 2.300702e-01 1.636330e-01 -2.098376e-02 9.064649e-02 1.244960e-02 4.485439e-02
<VARIANCE> 25
 2.008047e+01 1.498367e+01 1.233406e+01 3.845102e+01 3.253748e+01 2.382061e+01 1.559076e+01 2.596902e+01 2.576288e+01 1.813383e+01 1.324574e+01 1.087261e+01 9.864302e-01 6.834565e-01 7.233175e-01 1.347848e+00 1.598730e+00 1.401083e+00 1.559474e+00 1.700779e+00 2.022874e+00 1.613168e+00 1.055957e+00 1.121418e+00 6.261963e-01
<GCONST> 8.383445e+01
<STATE> 3
<MEAN> 25
 -8.630569e-02 -8.555675e-01 -1.662009e+00 -1.094347e+00 4.744030e-01 -8.996417e-01 2.147259e+00 3.215998e+00 1.230047e+00 5.501298e-01 9.969264e-01 5.083736e-01 1.161317e-02 -1.246006e-01 -6.607389e-02 -1.063864e-01 1.134211e-01 1.445413e-01 1.268116e-01 1.022981e-01 1.325591e-01 1.239178e-01 1.019876e-01 -3.448360e-02 -2.312206e-03
<VARIANCE> 25
 1.736534e+01 1.990414e+01 1.168340e+01 5.427373e+01 4.224077e+01 2.494219e+01 1.872185e+01 2.528148e+01 2.320518e+01 2.116548e+01 1.445830e+01 1.265800e+01 9.863021e-01 6.183008e-01 6.564353e-01 1.361008e+00 1.417834e+00 1.571722e+00 1.666617e+00 1.894824e+00 2.088044e+00 1.707786e+00 1.110269e+00 1.215336e+00 6.987705e-01
<GCONST> 8.532713e+01
<STATE> 4
<MEAN> 25
 -3.511164e-01 2.726445e-01 -1.439106e+00 1.782302e+00 3.350760e+00 2.012908e+00 3.381345e+00 3.596084e+00 2.207262e+00 2.508989e+00 1.729311e+00 4.826186e-01 -3.039620e-02 -2.326650e-02 -2.945692e-02 -3.807923e-02 -1.038320e-02 4.720701e-02 1.116331e-02 2.315033e-02 -8.910191e-03 -1.462598e-03 -1.513590e-02 -5.461728e-03 5.159125e-02
<VARIANCE> 25
 1.701704e+01 1.006507e+01 1.106047e+01 2.709353e+01 2.352653e+01 1.890894e+01 1.728812e+01 1.688640e+01 1.540800e+01 1.668130e+01 1.371022e+01 1.196132e+01 8.958216e-01 4.703746e-01 7.495253e-01 1.300657e+00 1.189954e+00 1.368667e+00 1.370316e+00 1.668898e+00 1.576860e+00 1.492142e+00 1.188532e+00 1.170059e+00 9.676867e-01
<GCONST> 8.079401e+01
<TRANSP> 5
 0.000000e+00 1.000000e+00 0.000000e+00 0.000000e+00 0.000000e+00
 0.000000e+00 8.743138e-01 1.256862e-01 0.000000e+00 0.000000e+00
 0.000000e+00 0.000000e+00 8.368003e-01 1.631997e-01 0.000000e+00
 0.000000e+00 0.000000e+00 0.000000e+00 9.745097e-01 2.549034e-02
 0.000000e+00 0.000000e+00 0.000000e+00 0.000000e+00 0.000000e+00
<ENDHMM>
~h "g"
<BEGINHMM>
<NUMSTATES> 5
<STATE> 2
<MEAN> 25
 -2.546051e-01 -1.223227e-01 7.189577e+00 -4.212301e+00 -8.334129e+00 -2.587113e+00 -1.742342e+00 -2.231300e+00 -5.086405e-02 -4.252640e+00 4.618895e+00 9.028913e-01 4.116213e-01 -6.490254e-01 -5.388882e-02 3.328847e-01 -1.372394e+00 -1.855014e-01 -5.046461e-01 -5.076301e-01 -1.982499e-01 -2.597820e-01 4.159650e-01 -8.463083e-03 5.902802e-01
<VARIANCE> 25
 1.666731e+01 1.611601e+01 2.741940e+01 2.022936e+01 4.606286e+01 3.572545e+01 3.208413e+01 3.467815e+01 2.695861e+01 2.832476e+01 3.453378e+01 1.322435e+01 9.723279e-01 1.352307e+00 1.547251e+00 1.837024e+00 4.201270e+00 2.830086e+00 2.509759e+00 3.510309e+00 2.658371e+00 2.267554e+00 2.133598e+00 1.497381e+00 2.472013e+00
<GCONST> 9.487389e+01
<STATE> 3
<MEAN> 25
 1.124003e-01 -9.369216e-01 7.006632e+00 -1.486297e+00 -9.480627e+00 -4.669224e+00 -4.143062e+00 -5.076428e+00 -3.788612e+00 -4.720597e+00 1.833403e+00 1.642643e+00 -3.684681e-02 -5.775395e-02 3.633292e-02 1.721858e-01 4.032641e-01 -1.715696e-01 -1.493087e-01 1.576110e-01 -6.325907e-02 -1.684803e-01 -4.142306e-01 2.175584e-01 -2.975983e-01
<VARIANCE> 25
 1.842392e+01 1.315381e+01 3.699947e+01 1.461959e+01 3.465747e+01 3.312428e+01 3.283396e+01 5.474513e+01 3.097322e+01 4.160981e+01 3.863363e+01 1.981418e+01 1.311326e+00 1.071833e+00 2.121496e+00 1.267174e+00 3.359569e+00 3.039562e+00 2.961993e+00 4.074324e+00 3.199057e+00 3.077186e+00 3.581879e+00 1.948689e+00 2.426443e+00
<GCONST> 9.733222e+01
<STATE> 4
<MEAN> 25
 -4.265809e-01 -1.819309e+00 5.901547e+00 2.812078e+00 -1.681029e+00 -4.059707e+00 -4.722070e+00 -2.064373e-01 -1.444466e+00 -4.855655e+00 -3.057017e+00 2.583955e+00 4.116521e-02 2.243779e-02 -5.979350e-01 2.576039e-01 4.913102e-01 2.076489e-01 2.759187e-02 -6.165485e-02 9.278886e-03 3.075844e-01 -3.728309e-01 -1.733368e-01 -5.100857e-01
<VARIANCE> 25
 2.127761e+01 1.679180e+01 5.810453e+01 3.440852e+01 4.277990e+01 5.577315e+01 3.928013e+01 6.476797e+01 4.618591e+01 3.284913e+01 3.704469e+01 3.273717e+01 2.537364e+00 1.465544e+00 3.177894e+00 2.460400e+00 3.592999e+00 4.939837e+00 3.753924e+00 5.167390e+00 3.456258e+00 2.221284e+00 2.368570e+00 2.901256e+00 4.098002e+00
<GCONST> 1.040577e+02
<TRANSP> 5
 0.000000e+00 1.000000e+00 0.000000e+00 0.000000e+00 0.000000e+00
 0.000000e+00 8.552556e-01 1.447444e-01 0.000000e+00 0.000000e+00
 0.000000e+00 0.000000e+00 8.911096e-01 1.088904e-01 0.000000e+00
 0.000000e+00 0.000000e+00 0.000000e+00 8.884743e-01 1.115257e-01
 0.000000e+00 0.000000e+00 0.000000e+00 0.000000e+00 0.000000e+00
<ENDHMM>
~h "k"
<BEGINHMM>
<NUMSTATES> 5
<STATE> 2
<MEAN> 25
 -2.146276e+00 1.663966e-01 -2.268031e+00 -9.095977e-02 1.581816e+00 -1.230134e+00 9.956073e-01 1.875264e+00 -2.381951e+00 1.293132e+00 1.462411e+00 6.892772e-01 3.299244e-02 -2.857649e-01 -3.837694e-01 -3.000279e-01 1.440194e-02 -3.696288e-01 -6.995547e-01 -1.505892e-02 -3.978502e-01 -1.108718e-01 8.663908e-02 9.705015e-02 9.472116e-01
<VARIANCE> 25
 5.612520e+01 4.011680e+01 6.207444e+01 4.866481e+01 7.240057e+01 7.001084e+01 4.343591e+01 5.300702e+01 4.721580e+01 5.074557e+01 4.893814e+01 3.197369e+01 5.114493e+00 3.809355e+00 4.556862e+00 4.099292e+00 5.049705e+00 5.746463e+00 4.695771e+00 5.052152e+00 4.278560e+00 4.149806e+00 4.913648e+00 3.465729e+00 6.355613e+00
<GCONST> 1.130815e+02
<STATE> 3
<MEAN> 25
 -1.465703e+00 -2.310793e-01 -2.762373e+00 -6.794688e-01 9.280316e-01 -1.829835e+00 -6.883516e-01 5.614070e-01 -3.017072e+00 6.378322e-01 1.057113e+00 7.900600e-01 -5.456856e-02 -2.160810e-01 1.512667e-02 -2.877986e-01 -2.692454e-01 -3.356276e-01 -3.582125e-01 -3.084399e-01 1.649013e-01 -3.904111e-02 -2.662129e-01 6.715594e-02 8.623363e-01
<VARIANCE> 25
 6.134202e+01 3.918480e+01 6.097654e+01 6.012094e+01 7.379697e+01 6.774138e+01 4.394895e+01 5.908893e+01 4.850124e+01 4.639948e+01 5.439907e+01 3.614143e+01 5.786229e+00 3.522027e+00 4.039618e+00 3.979388e+00 4.672849e+00 5.382941e+00 4.412228e+00 5.898083e+00 4.558643e+00 4.057027e+00 4.911321e+00 3.970224e+00 5.620309e+00
<GCONST> 1.135103e+02
<STATE> 4
<MEAN> 25
 -2.106665e+00 -1.177169e+00 -2.495249e+00 -1.943114e+00 -8.391407e-01 -1.917206e+00 -8.751976e-01 -2.381932e-01 -1.470331e+00 4.640979e-01 -7.453949e-01 6.422434e-01 -3.267150e-02 -2.179445e-01 1.013725e-01 -4.013923e-01 -3.511738e-01 -5.330024e-02 -8.577227e-04 -3.447698e-01 3.632457e-01 -1.427304e-01 -1.285212e-01 -1.440165e-01 7.317295e-01
<VARIANCE> 25
 6.346794e+01 3.321050e+01 5.242014e+01 5.774396e+01 7.250300e+01 5.974385e+01 4.441706e+01 5.688567e+01 3.839999e+01 3.846642e+01 4.660805e+01 4.045271e+01 4.290901e+00 2.455069e+00 3.006190e+00 3.315813e+00 4.145686e+00 4.761487e+00 3.702862e+00 4.836501e+00 3.876662e+00 3.513879e+00 3.696699e+00 3.192275e+00 3.522991e+00
<GCONST> 1.095249e+02
<TRANSP> 5
 0.000000e+00 1.000000e+00 0.000000e+00 0.000000e+00 0.000000e+00
 0.000000e+00 6.464752e-01 3.535248e-01 0.000000e+00 0.000000e+00
 0.000000e+00 0.000000e+00 6.432480e-01 3.567519e-01 0.000000e+00
 0.000000e+00 0.000000e+00 0.000000e+00 7.030126e-01 2.969873e-01
 0.000000e+00 0.000000e+00 0.000000e+00 0.000000e+00 0.000000e+00
<ENDHMM>
~h "l"
<BEGINHMM>
<NUMSTATES> 5
<STATE> 2
<MEAN> 25
 3.055537e+00 -2.239684e+00 -2.479719e+00 -7.810310e+00 -4.439400e+00 -2.712173e+00 -2.794878e+00 -1.690760e+00 2.348932e-01 -4.407840e-01 5.705898e-01 4.930230e-01 1.089317e-01 1.843068e-01 6.560808e-03 -8.353207e-02 5.964614e-02 1.641501e-01 -1.680495e-02 -5.505470e-02 -1.613629e-01 -1.324036e-01 1.739753e-01 2.134610e-01 -2.274180e-01
<VARIANCE> 25
 1.966783e+01 2.498595e+01 1.178581e+01 3.770013e+01 3.635026e+01 3.879342e+01 5.233046e+01 4.388647e+01 3.698265e+01 3.321132e+01 2.219818e+01 2.100908e+01 8.058959e-01 9.561516e-01 8.407792e-01 1.524858e+00 1.301536e+00 2.474979e+00 2.858359e+00 2.397435e+00 2.765540e+00 2.761090e+00 2.056132e+00 1.573383e+00 1.142515e+00
<GCONST> 9.291215e+01
<STATE> 3
<MEAN> 25
 3.914837e+00 -1.874184e-01 -1.822053e+00 -6.697423e+00 -3.136614e+00 -1.066659e+00 -3.245334e+00 -2.250989e+00 -4.270079e-01 -9.976812e-01 1.196831e+00 1.198740e+00 -7.652005e-02 2.726605e-01 1.299011e-01 3.736232e-01 2.343497e-01 2.289930e-01 1.850007e-01 2.417265e-02 -7.336542e-02 -1.218603e-01 3.020581e-02 9.390612e-02 -5.344216e-01
<VARIANCE> 25
 2.317546e+01 2.870557e+01 1.095114e+01 4.292613e+01 3.724198e+01 4.492379e+01 5.001206e+01 3.989919e+01 3.517178e+01 3.420274e+01 2.179683e+01 1.985090e+01 8.446774e-01 9.924330e-01 7.381935e-01 1.817999e+00 1.367199e+00 2.892359e+00 2.736105e+00 2.183860e+00 2.423149e+00 2.529339e+00 1.924509e+00 1.539753e+00 9.799603e-01
<GCONST> 9.294296e+01
<STATE> 4
<MEAN> 25
 5.618038e-01 1.712177e+00 -2.475671e-01 1.541847e+00 3.449759e+00 2.247170e+00 2.650018e+00 2.091660e+00 1.673275e+00 2.187789e+00 2.107291e+00 1.294332e+00 -1.603218e-01 9.880372e-03 6.846377e-02 2.714185e-01 1.509474e-01 4.307017e-02 1.655831e-01 1.385695e-01 5.165929e-02 8.635189e-02 -1.793526e-02 -1.753178e-02 -1.971352e-01
<VARIANCE> 25
 1.451615e+01 1.146254e+01 8.528939e+00 3.782607e+01 3.341327e+01 2.447184e+01 3.759177e+01 3.059053e+01 2.292454e+01 2.524617e+01 1.590765e+01 1.325573e+01 4.074471e-01 4.678582e-01 5.330204e-01 1.154028e+00 1.091545e+00 1.481064e+00 1.719617e+00 1.656900e+00 1.658621e+00 1.728679e+00 1.442549e+00 1.289001e+00 3.885191e-01
<GCONST> 8.241604e+01
<TRANSP> 5
 0.000000e+00 1.000000e+00 0.000000e+00 0.000000e+00 0.000000e+00
 0.000000e+00 7.723930e-01 2.276070e-01 0.000000e+00 0.000000e+00
 0.000000e+00 0.000000e+00 7.375911e-01 2.624089e-01 0.000000e+00
 0.000000e+00 0.000000e+00 0.000000e+00 9.311955e-01 6.880454e-02
 0.000000e+00 0.000000e+00 0.000000e+00 0.000000e+00 0.000000e+00
<ENDHMM>
~h "m"
<BEGINHMM>
<NUMSTATES> 5
<STATE> 2
<MEAN> 25
 2.755033e+00 -1.403249e+00 1.743165e+00 -1.485219e+00 -3.996513e+00 -2.146408e+00 -5.733453e+00 -6.467649e+00 -4.192262e+00 -6.528786e+00 -2.100620e+00 -5.397652e-01 -6.491190e-02 -1.987705e-01 1.557953e-01 -1.140723e-01 -2.708844e-01 -3.010321e-01 -2.779326e-01 -4.935210e-01 -3.078025e-01 -2.311870e-01 -8.412591e-02 1.146729e-01 4.865934e-01
<VARIANCE> 25
 2.542138e+01 1.402044e+01 2.943402e+01 3.830573e+01 4.940611e+01 4.919937e+01 5.407982e+01 5.939753e+01 2.891698e+01 4.209176e+01 3.462743e+01 2.093988e+01 1.384005e+00 8.105055e-01 1.539270e+00 2.277022e+00 2.297228e+00 3.288382e+00 4.586226e+00 3.740567e+00 2.414966e+00 3.229445e+00 2.986521e+00 2.030687e+00 2.307249e+00
<GCONST> 9.933802e+01
<STATE> 3
<MEAN> 25
 1.705462e+00 -2.382534e+00 1.648655e+00 -2.764028e+00 -5.305798e+00 -3.586135e+00 -6.389976e+00 -7.026877e+00 -4.181402e+00 -5.861532e+00 -2.068937e+00 -2.076415e-01 -2.327478e-01 -1.171004e-01 1.816914e-02 -2.297551e-01 -1.785846e-01 -1.181991e-01 1.008153e-01 1.215747e-01 8.778198e-02 1.990819e-01 -4.367162e-02 1.132424e-01 2.249305e-01
<VARIANCE> 25
 2.619726e+01 1.245986e+01 2.813992e+01 3.484885e+01 4.971527e+01 5.446121e+01 4.871617e+01 5.469378e+01 3.460005e+01 4.775633e+01 3.374109e+01 2.169077e+01 9.381231e-01 6.865903e-01 1.350203e+00 1.778049e+00 2.095469e+00 3.154269e+00 3.288351e+00 3.395595e+00 2.779553e+00 2.699252e+00 2.550794e+00 1.912672e+00 1.570853e+00
<GCONST> 9.720950e+01
<STATE> 4
<MEAN> 25
 2.114289e-01 -1.179945e+00 2.837839e+00 -3.018488e+00 -6.623175e+00 -3.918239e+00 -5.473147e+00 -6.313014e+00 -4.055194e+00 -5.267544e+00 -1.585860e+00 -3.539695e-02 -4.603428e-02 1.048436e-01 1.544867e-01 6.158861e-02 5.143911e-02 1.562138e-01 2.096651e-01 2.076935e-01 4.649014e-02 1.756240e-01 5.607805e-02 2.641437e-02 -1.410857e-01
<VARIANCE> 25
 3.029585e+01 1.685287e+01 3.192181e+01 2.835069e+01 4.466452e+01 4.854688e+01 3.928930e+01 5.108813e+01 2.882581e+01 4.129645e+01 2.860249e+01 2.258299e+01 9.129183e-01 7.664965e-01 1.213584e+00 1.331178e+00 2.099498e+00 2.118610e+00 2.220398e+00 2.992084e+00 2.487952e+00 2.238556e+00 1.988016e+00 1.723782e+00 9.547320e-01
<GCONST> 9.424069e+01
<TRANSP> 5
 0.000000e+00 1.000000e+00 0.000000e+00 0.000000e+00 0.000000e+00
 0.000000e+00 7.154799e-01 2.845201e-01 0.000000e+00 0.000000e+00
 0.000000e+00 0.000000e+00 6.865214e-01 3.134786e-01 0.000000e+00
 0.000000e+00 0.000000e+00 0.000000e+00 8.177639e-01 1.822361e-01
 0.000000e+00 0.000000e+00 0.000000e+00 0.000000e+00 0.000000e+00
<ENDHMM>
~h "n"
<BEGINHMM>
<NUMSTATES> 5
<STATE> 2
<MEAN> 25
 3.692115e+00 -2.854004e-01 2.667196e+00 2.473811e+00 -5.898071e-01 -9.853160e-02 -3.091108e+00 -1.638889e+00 1.130057e+00 -1.886081e+00 -4.512462e+00 -6.812853e-01 1.669948e-01 3.170559e-01 8.807925e-02 3.737348e-01 3.885958e-01 2.535990e-01 1.435611e-01 -4.735792e-02 -4.771336e-02 4.754805e-03 -1.496667e-01 2.682339e-02 -5.874432e-01
<VARIANCE> 25
 3.163210e+01 1.888012e+01 2.983228e+01 2.528493e+01 4.459625e+01 3.337637e+01 4.787604e+01 3.578091e+01 2.421307e+01 3.268222e+01 3.908189e+01 1.729894e+01 1.286592e+00 9.172925e-01 2.013380e+00 1.573544e+00 2.330842e+00 1.951068e+00 3.082077e+00 2.648039e+00 1.803700e+00 2.112957e+00 2.964481e+00 1.604797e+00 1.500382e+00
<GCONST> 9.514276e+01
<STATE> 3
<MEAN> 25
 3.436787e+00 9.033077e-01 2.061921e+00 3.192226e+00 1.164029e+00 8.784834e-01 -1.513760e+00 -8.636820e-01 9.350272e-01 -9.492648e-01 -3.703286e+00 -7.251957e-01 -2.489193e-01 2.427050e-01 -2.782375e-01 1.264959e-01 4.971153e-01 1.672539e-01 4.857589e-01 2.758187e-01 -5.115391e-02 2.687837e-01 3.323757e-01 -2.165687e-02 -5.321978e-01
<VARIANCE> 25
 3.210887e+01 1.940095e+01 2.991540e+01 2.422819e+01 3.630588e+01 2.892095e+01 4.661574e+01 3.410872e+01 2.299523e+01 3.065400e+01 3.485260e+01 1.646853e+01 1.205575e+00 8.812835e-01 1.582797e+00 1.462987e+00 1.819734e+00 1.883065e+00 2.464963e+00 2.058289e+00 1.749476e+00 1.763514e+00 2.367108e+00 1.481296e+00 1.259322e+00
<GCONST> 9.257362e+01
<STATE> 4
<MEAN> 25
 4.173332e-01 1.785024e+00 -3.393638e-01 4.051820e+00 5.690858e+00 3.553868e+00 4.010333e+00 2.911662e+00 1.999463e+00 2.501949e+00 1.020459e+00 3.515817e-01 -1.525672e-01 -6.339575e-03 -1.104574e-01 -1.174914e-02 1.131501e-01 3.254596e-02 1.400649e-01 1.485629e-01 1.148389e-02 1.144947e-01 1.589861e-01 1.789844e-02 -1.423076e-01
<VARIANCE> 25
 1.427336e+01 8.689150e+00 1.347472e+01 1.177835e+01 2.142943e+01 1.816630e+01 2.531658e+01 2.317614e+01 1.740182e+01 2.173973e+01 2.333727e+01 1.304055e+01 5.213471e-01 5.123916e-01 7.710829e-01 8.924329e-01 1.171569e+00 1.274117e+00 1.648059e+00 1.690594e+00 1.654511e+00 1.526576e+00 1.585902e+00 1.205285e+00 4.948720e-01
<GCONST> 8.042966e+01
<TRANSP> 5
 0.000000e+00 1.000000e+00 0.000000e+00 0.000000e+00 0.000000e+00
 0.000000e+00 6.947935e-01 3.052066e-01 0.000000e+00 0.000000e+00
 0.000000e+00 0.000000e+00 6.898246e-01 3.101754e-01 0.000000e+00
 0.000000e+00 0.000000e+00 0.000000e+00 9.344184e-01 6.558161e-02
 0.000000e+00 0.000000e+00 0.000000e+00 0.000000e+00 0.000000e+00
<ENDHMM>
~h "p"
<BEGINHMM>
<NUMSTATES> 5
<STATE> 2
<MEAN> 25
 1.923237e+00 -1.615389e+00 -1.434945e+00 -2.269761e+00 -2.984977e+00 -2.846989e+00 -3.178906e+00 -3.441586e+00 1.795435e-01 -5.078680e-01 -1.311707e+00 -1.175591e+00 -2.475475e-02 -1.220488e-01 7.977995e-03 1.262744e-01 -4.385192e-02 -3.044634e-01 -1.117030e-01 7.799397e-02 1.725838e-01 1.809645e-01 7.115818e-02 -4.160866e-02 6.771563e-02
<VARIANCE> 25
 1.451243e+01 2.050807e+01 1.196983e+01 2.345897e+01 4.754379e+01 5.685365e+01 5.692747e+01 4.501963e+01 2.802191e+01 2.505043e+01 2.529152e+01 1.675804e+01 7.525386e-01 8.291369e-01 6.921333e-01 1.513782e+00 1.691847e+00 1.732567e+00 3.111917e+00 3.668797e+00 2.558191e+00 2.408798e+00 1.707210e+00 1.589068e+00 1.676007e+00
<GCONST> 9.205297e+01
<STATE> 3
<MEAN> 25
 2.178471e+00 -1.936041e+00 -1.152343e+00 -1.042691e+00 -2.922670e+00 -3.492801e+00 -3.466839e+00 -2.733101e+00 5.236938e-01 -1.899998e-01 -1.267825e+00 -9.097002e-01 2.636623e-02 -2.345513e-02 5.750184e-02 3.323407e-01 1.220960e-01 -5.233413e-02 7.497096e-02 3.729577e-01 1.425460e-01 8.280795e-02 1.334396e-02 8.406553e-02 -2.845568e-01
<VARIANCE> 25
 1.395220e+01 1.975712e+01 1.192466e+01 2.933825e+01 4.700427e+01 5.116716e+01 5.288327e+01 4.190546e+01 2.819687e+01 2.698763e+01 2.605897e+01 1.677249e+01 6.748085e-01 6.579849e-01 6.453989e-01 1.455604e+00 1.433594e+00 1.760594e+00 2.425051e+00 2.726284e+00 2.374213e+00 2.153270e+00 1.663125e+00 1.678473e+00 1.186795e+00
<GCONST> 9.039684e+01
<STATE> 4
<MEAN> 25
 1.613756e-01 3.046168e-01 -3.553966e-01 3.045586e+00 3.949341e+00 1.556968e+00 2.508299e+00 1.844399e+00 2.227367e+00 2.244914e+00 8.675644e-01 2.377474e-01 -6.497851e-02 4.295306e-02 -1.152024e-02 3.102227e-02 6.415493e-02 6.375851e-02 8.602522e-02 1.411263e-01 3.871470e-02 -6.557632e-03 1.868484e-02 4.863913e-03 -9.973934e-02
<VARIANCE> 25
 8.173162e+00 7.424591e+00 6.700997e+00 1.628493e+01 2.916691e+01 2.804806e+01 3.405552e+01 2.572620e+01 1.714334e+01 1.772377e+01 1.560368e+01 1.225889e+01 2.917007e-01 4.146006e-01 5.376191e-01 8.700637e-01 1.083735e+00 1.397066e+00 1.497460e+00 1.616607e+00 1.551412e+00 1.459140e+00 1.305067e+00 1.267598e+00 5.150846e-01
<GCONST> 7.828139e+01
<TRANSP> 5
 0.000000e+00 1.000000e+00 0.000000e+00 0.000000e+00 0.000000e+00
 0.000000e+00 7.181146e-01 2.818855e-01 0.000000e+00 0.000000e+00
 0.000000e+00 0.000000e+00 7.068326e-01 2.931674e-01 0.000000e+00
 0.000000e+00 0.000000e+00 0.000000e+00 9.530614e-01 4.693862e-02
 0.000000e+00 0.000000e+00 0.000000e+00 0.000000e+00 0.000000e+00
<ENDHMM>
~h "r"
<BEGINHMM>
<NUMSTATES> 5
<STATE> 2
<MEAN> 25
 4.470987e-01 -1.299819e+00 1.019536e-02 -1.997091e+00 -2.967222e+00 -3.372963e+00 -4.111113e+00 -3.654815e+00 -2.410449e+00 -1.810902e+00 -8.117816e-01 5.935124e-01 -1.257783e-01 -1.462288e-01 -6.794775e-02 -1.105489e-01 -2.649899e-01 -2.742510e-01 -1.789198e-01 -2.128231e-01 1.845917e-02 4.219379e-02 1.384419e-01 4.690532e-02 2.978313e-01
<VARIANCE> 25
 3.591312e+01 2.271505e+01 2.930493e+01 3.034135e+01 4.882870e+01 5.137111e+01 4.660965e+01 5.329266e+01 3.353643e+01 3.569697e+01 2.399101e+01 1.788225e+01 2.061940e+00 9.791442e-01 1.170429e+00 2.096426e+00 1.633132e+00 1.855220e+00 2.902431e+00 2.645763e+00 2.269299e+00 2.188470e+00 1.708544e+00 1.588966e+00 1.504987e+00
<GCONST> 9.599289e+01
<STATE> 3
<MEAN> 25
 -6.572725e-02 -1.586646e+00 -4.179240e-02 -1.963460e+00 -3.392663e+00 -4.292936e+00 -4.309188e+00 -3.708308e+00 -2.155509e+00 -1.692005e+00 -5.938780e-01 7.191494e-01 -4.106748e-02 -1.418401e-01 -1.123060e-01 -1.140246e-01 -1.701950e-01 -1.574017e-01 -1.602413e-01 -2.996485e-02 4.845474e-02 5.887831e-02 7.090104e-02 -5.650251e-02 2.174083e-01
<VARIANCE> 25
 4.306575e+01 2.298127e+01 2.823079e+01 2.919853e+01 4.800834e+01 5.357138e+01 4.549336e+01 5.782157e+01 3.201798e+01 2.977961e+01 2.347130e+01 1.615796e+01 2.303072e+00 1.008738e+00 1.120748e+00 1.832392e+00 1.596897e+00 2.081485e+00 2.947548e+00 2.688182e+00 2.375077e+00 2.246070e+00 1.727603e+00 1.537745e+00 1.429060e+00
<GCONST> 9.592632e+01
<STATE> 4
<MEAN> 25
 7.745840e-01 -1.881343e+00 9.893100e-01 -1.794310e+00 -4.492654e+00 -5.389671e+00 -4.700266e+00 -4.251295e+00 -2.221359e+00 -1.756294e+00 -6.487479e-01 3.522809e-01 1.461276e-02 -2.637470e-02 -1.122988e-01 2.107230e-02 9.033674e-02 1.882806e-01 6.824980e-02 1.204409e-01 1.467257e-01 1.858774e-01 1.680344e-01 -1.954596e-01 -9.852887e-02
<VARIANCE> 25
 3.638437e+01 2.130453e+01 3.590768e+01 2.602942e+01 4.534617e+01 4.839437e+01 4.224279e+01 5.667582e+01 3.020841e+01 2.479024e+01 2.568585e+01 1.856320e+01 1.255596e+00 7.724248e-01 1.350826e+00 1.499273e+00 1.523411e+00 1.829144e+00 1.933080e+00 2.409270e+00 2.263506e+00 2.104612e+00 2.112863e+00 1.782290e+00 1.077951e+00
<GCONST> 9.390073e+01
<TRANSP> 5
 0.000000e+00 1.000000e+00 0.000000e+00 0.000000e+00 0.000000e+00
 0.000000e+00 5.177287e-01 4.822713e-01 0.000000e+00 0.000000e+00
 0.000000e+00 0.000000e+00 5.367716e-01 4.632284e-01 0.000000e+00
 0.000000e+00 0.000000e+00 0.000000e+00 7.253540e-01 2.746461e-01
 0.000000e+00 0.000000e+00 0.000000e+00 0.000000e+00 0.000000e+00
<ENDHMM>
~h "s"
<BEGINHMM>
<NUMSTATES> 5
<STATE> 2
<MEAN> 25
 -9.802065e+00 4.894127e+00 -2.334083e+00 2.246161e+00 3.047888e+00 -9.620039e-01 2.390968e+00 3.480018e+00 -1.960307e-01 1.339817e+00 2.017553e-01 1.539730e+00 -9.423075e-01 3.759442e-01 -3.497737e-01 -9.215287e-03 2.064338e-01 1.589998e-01 3.006168e-01 3.868727e-01 4.002996e-02 8.579059e-02 1.113397e-01 7.762624e-02 2.649518e-01
<VARIANCE> 25
 5.369899e+01 2.059474e+01 2.114654e+01 1.566268e+01 3.578512e+01 2.320139e+01 2.673712e+01 2.801994e+01 2.327631e+01 1.975521e+01 1.665084e+01 1.315970e+01 3.167616e+00 1.879779e+00 1.156163e+00 1.284065e+00 2.361523e+00 2.324407e+00 2.338632e+00 2.066342e+00 1.861348e+00 2.023901e+00 1.594516e+00 1.241170e+00 1.199504e+00
<GCONST> 9.126754e+01
<STATE> 3
<MEAN> 25
 -1.083412e+01 5.573095e+00 -2.862950e+00 2.663981e+00 3.687947e+00 -3.687314e-01 2.745531e+00 4.381500e+00 6.859004e-02 1.398828e+00 6.128318e-01 1.655380e+00 -1.316024e-01 -2.421673e-02 -8.845245e-02 2.224231e-02 5.636107e-02 7.918923e-02 7.583228e-02 1.730897e-01 6.887556e-02 -1.182459e-02 8.329152e-02 2.133008e-02 1.085829e-02
<VARIANCE> 25
 4.866133e+01 2.320415e+01 2.046180e+01 1.584020e+01 3.691077e+01 2.201017e+01 2.663028e+01 2.667636e+01 2.381850e+01 1.952307e+01 1.743555e+01 1.401622e+01 2.724341e+00 1.629986e+00 9.502828e-01 1.230215e+00 2.444115e+00 1.892924e+00 2.059714e+00 2.081151e+00 1.720134e+00 1.713918e+00 1.595816e+00 1.277628e+00 1.247198e+00
<GCONST> 9.031263e+01
<STATE> 4
<MEAN> 25
 -6.223190e+00 3.410143e+00 -2.137612e+00 2.774799e+00 4.398093e+00 1.235753e+00 3.252404e+00 4.227724e+00 1.665428e+00 2.215301e+00 1.450698e+00 1.403491e+00 3.446277e-01 -1.103592e-01 1.302561e-01 -2.326095e-02 -3.694791e-02 -6.001910e-02 -7.668164e-02 -2.006283e-02 3.456063e-02 -2.201134e-02 2.084911e-02 -2.070131e-02 -5.914532e-02
<VARIANCE> 25
 5.665228e+01 1.833305e+01 1.171368e+01 1.322567e+01 2.660898e+01 1.953534e+01 1.826958e+01 2.296479e+01 1.839363e+01 1.901881e+01 1.627412e+01 1.283291e+01 1.746549e+00 1.200589e+00 7.254855e-01 1.066371e+00 1.946526e+00 1.643478e+00 1.837379e+00 2.120143e+00 1.553580e+00 1.650550e+00 1.576948e+00 1.250746e+00 9.669553e-01
<GCONST> 8.602095e+01
<TRANSP> 5
 0.000000e+00 1.000000e+00 0.000000e+00 0.000000e+00 0.000000e+00
 0.000000e+00 8.145742e-01 1.854258e-01 0.000000e+00 0.000000e+00
 0.000000e+00 0.000000e+00 7.862340e-01 2.137660e-01 0.000000e+00
 0.000000e+00 0.000000e+00 0.000000e+00 9.061027e-01 9.389739e-02
 0.000000e+00 0.000000e+00 0.000000e+00 0.000000e+00 0.000000e+00
<ENDHMM>
~h "t"
<BEGINHMM>
<NUMSTATES> 5
<STATE> 2
<MEAN> 25
 -1.995887e+00 1.568415e+00 -1.261146e+00 2.717136e-01 1.133760e+00 1.533794e+00 -2.386994e+00 1.758052e+00 4.153641e-01 -4.003131e-01 8.500981e-01 4.929500e-01 -9.850065e-02 -5.656523e-02 -1.038044e-01 -2.366740e-01 -2.634119e-01 -1.129094e-01 -4.739971e-01 1.087211e-01 -2.640434e-01 -2.724517e-01 -1.258736e-01 5.808389e-03 4.719579e-01
<VARIANCE> 25
 4.990104e+01 2.914092e+01 2.996420e+01 3.437943e+01 5.007135e+01 3.264280e+01 5.306413e+01 8.117657e+01 3.706653e+01 2.713503e+01 3.117362e+01 1.987694e+01 3.690541e+00 1.990351e+00 2.106653e+00 2.547467e+00 3.061692e+00 2.292159e+00 3.773036e+00 5.786450e+00 2.729733e+00 2.558664e+00 2.527457e+00 1.900060e+00 2.568164e+00
<GCONST> 1.024386e+02
<STATE> 3
<MEAN> 25
 -8.546205e-01 4.595542e-01 -1.511906e+00 -4.079541e-01 -4.596594e-01 8.343646e-01 -3.688953e+00 2.945145e-01 2.648984e-01 -8.618811e-01 -2.171062e-01 6.687744e-01 9.649431e-02 -2.277991e-01 -8.215832e-02 -2.161194e-01 -2.339726e-01 -1.867694e-01 -2.227725e-01 -2.514399e-01 -1.525014e-01 -1.797330e-01 -1.928910e-01 -1.070829e-02 3.776306e-01
<VARIANCE> 25
 4.353352e+01 2.583916e+01 3.079462e+01 4.035728e+01 4.874045e+01 3.716331e+01 5.406124e+01 8.303948e+01 3.726959e+01 2.754186e+01 3.252381e+01 2.211028e+01 2.978775e+00 1.708315e+00 1.909015e+00 2.560497e+00 3.031288e+00 2.511133e+00 3.289483e+00 5.995707e+00 2.631669e+00 2.473451e+00 2.468587e+00 2.060364e+00 2.592994e+00
<GCONST> 1.021985e+02
<STATE> 4
<MEAN> 25
 -1.128884e+00 -5.690109e-01 -3.187641e+00 2.289864e-01 9.110035e-01 2.578890e+00 -2.234848e+00 1.071493e-01 5.286735e-01 -4.679891e-01 -1.759177e+00 1.491861e-01 -4.123496e-02 -8.863106e-02 -1.977510e-02 -1.868965e-02 1.224239e-03 -1.358802e-01 -1.739840e-02 -2.556741e-02 -7.521735e-02 -1.079604e-01 -5.778659e-02 2.796461e-03 1.018594e-01
<VARIANCE> 25
 2.982551e+01 2.257702e+01 3.052517e+01 3.583475e+01 4.239201e+01 3.981477e+01 4.122586e+01 6.150171e+01 3.191180e+01 2.445803e+01 3.210790e+01 1.876260e+01 1.911368e+00 1.178345e+00 1.413832e+00 1.818562e+00 2.081929e+00 2.239871e+00 2.320278e+00 4.142758e+00 2.218445e+00 2.047176e+00 1.928281e+00 1.723985e+00 1.812654e+00
<GCONST> 9.665529e+01
<TRANSP> 5
 0.000000e+00 1.000000e+00 0.000000e+00 0.000000e+00 0.000000e+00
 0.000000e+00 6.230616e-01 3.769384e-01 0.000000e+00 0.000000e+00
 0.000000e+00 0.000000e+00 5.891886e-01 4.108113e-01 0.000000e+00
 0.000000e+00 0.000000e+00 0.000000e+00 7.686290e-01 2.313710e-01
 0.000000e+00 0.000000e+00 0.000000e+00 0.000000e+00 0.000000e+00
<ENDHMM>
~h "v"
<BEGINHMM>
<NUMSTATES> 5
<STATE> 2
<MEAN> 25
 -1.775079e+00 1.238033e-01 4.190096e+00 -3.173887e+00 -8.544092e+00 -3.052794e+00 -3.063791e+00 -6.720646e+00 -1.413752e+00 -3.732788e+00 4.205375e-01 -2.499645e+00 6.583911e-02 9.186913e-03 1.462738e-01 7.965363e-02 -1.414171e-01 6.545648e-02 2.580563e-01 -6.246419e-02 -1.116656e-01 4.868215e-02 2.914226e-01 1.029028e-01 -1.446499e-01
<VARIANCE> 25
 1.718380e+01 1.456467e+01 2.717306e+01 3.299692e+01 6.810899e+01 2.972699e+01 2.767803e+01 4.826518e+01 3.231952e+01 3.683596e+01 1.965949e+01 2.631427e+01 4.235398e-01 4.399158e-01 8.278692e-01 1.014333e+00 1.740719e+00 1.565444e+00 1.385655e+00 1.592153e+00 1.876704e+00 1.709022e+00 1.797440e+00 1.472697e+00 4.112861e-01
<GCONST> 8.759866e+01
<STATE> 3
<MEAN> 25
 2.471293e-01 -2.886190e-01 5.095273e+00 -7.662578e-01 -7.425231e+00 -3.960093e+00 -3.179594e+00 -5.547015e+00 -2.778141e+00 -3.364917e+00 2.283903e-01 -1.065255e+00 2.626663e-01 -3.542234e-02 -3.373782e-02 4.028430e-01 3.816255e-01 5.421782e-02 1.110375e-01 3.363554e-01 -1.002086e-01 2.360190e-01 3.897562e-02 1.599250e-01 -5.642681e-01
<VARIANCE> 25
 1.696991e+01 1.613970e+01 3.301884e+01 4.798162e+01 5.513577e+01 3.218452e+01 3.059525e+01 4.549638e+01 3.521400e+01 4.313855e+01 2.154001e+01 1.902553e+01 6.103953e-01 4.830413e-01 8.686947e-01 1.441261e+00 1.756398e+00 1.868747e+00 1.893420e+00 1.694220e+00 2.113919e+00 2.158412e+00 1.638784e+00 1.423438e+00 8.015158e-01
<GCONST> 9.049016e+01
<STATE> 4
<MEAN> 25
 9.474216e-01 3.506361e-01 1.867625e+00 2.922018e+00 -1.986418e-01 -1.778699e+00 -5.186365e-01 -9.407046e-01 -5.931374e-01 8.882567e-01 4.920646e-01 2.283312e-01 -4.132428e-02 4.415737e-02 -3.080540e-01 5.921450e-02 4.851124e-01 2.201859e-01 2.081374e-01 2.817855e-01 6.171008e-02 2.048203e-01 3.088279e-02 1.755887e-02 -3.462148e-01
<VARIANCE> 25
 1.148652e+01 1.528782e+01 2.415020e+01 4.402305e+01 5.549465e+01 2.879591e+01 3.467665e+01 3.619296e+01 3.324948e+01 3.522775e+01 2.167569e+01 1.328869e+01 6.161147e-01 5.243785e-01 7.878602e-01 1.176033e+00 1.564504e+00 1.756456e+00 2.031438e+00 1.535994e+00 2.383976e+00 2.221780e+00 1.772838e+00 1.243797e+00 6.759771e-01
<GCONST> 8.833347e+01
<TRANSP> 5
 0.000000e+00 1.000000e+00 0.000000e+00 0.000000e+00 0.000000e+00
 0.000000e+00 7.682055e-01 2.317945e-01 0.000000e+00 0.000000e+00
 0.000000e+00 0.000000e+00 7.803903e-01 2.196098e-01 0.000000e+00
 0.000000e+00 0.000000e+00 0.000000e+00 8.791963e-01 1.208037e-01
 0.000000e+00 0.000000e+00 0.000000e+00 0.000000e+00 0.000000e+00
<ENDHMM>
~h "w"
<BEGINHMM>
<NUMSTATES> 5
<STATE> 2
<MEAN> 25
 2.336387e+00 -5.112511e+00 -3.050629e+00 -8.765857e+00 -5.260437e+00 -7.515818e-01 -2.863698e+00 -3.743792e+00 1.742586e+00 -1.108250e+00 -4.779897e+00 -3.099319e+00 -5.884720e-02 -7.985920e-02 3.920760e-03 1.735079e-01 2.817009e-01 1.340061e-01 1.710605e-01 1.841886e-01 4.046181e-01 2.093475e-01 -3.048121e-01 -2.139978e-01 -8.504391e-02
<VARIANCE> 25
 1.750541e+01 1.899992e+01 1.556561e+01 2.904317e+01 3.743987e+01 5.350154e+01 5.410211e+01 5.927708e+01 5.692736e+01 3.348810e+01 4.213428e+01 3.273962e+01 1.262316e+00 8.910805e-01 9.057451e-01 1.198891e+00 1.728710e+00 3.578123e+00 3.879178e+00 4.298802e+00 3.787286e+00 4.051408e+00 2.289719e+00 2.463402e+00 1.355646e+00
<GCONST> 9.792685e+01
<STATE> 3
<MEAN> 25
 2.526228e+00 -3.462896e+00 -1.634017e+00 -4.852681e+00 -2.678815e+00 1.748024e-01 -1.485316e+00 -2.855039e+00 1.926315e+00 5.811206e-01 -3.955535e+00 -2.844303e+00 8.459904e-02 2.320142e-01 9.623773e-02 5.057802e-01 3.236912e-01 6.269709e-02 2.237958e-02 2.205977e-01 1.281127e-01 2.741685e-01 5.882008e-03 -7.890572e-03 -4.496426e-01
<VARIANCE> 25
 1.782487e+01 2.297319e+01 2.215494e+01 4.730381e+01 4.804473e+01 5.767524e+01 4.881256e+01 5.182311e+01 4.190083e+01 2.645058e+01 3.922410e+01 2.840344e+01 9.791834e-01 7.281247e-01 1.036073e+00 1.115952e+00 1.845857e+00 2.703188e+00 2.688282e+00 3.111290e+00 2.698709e+00 2.936414e+00 2.341125e+00 1.937976e+00 1.043667e+00
<GCONST> 9.586879e+01
<STATE> 4
<MEAN> 25
 4.255333e-01 9.843132e-01 -6.773633e-01 2.416339e+00 4.639394e+00 2.919917e+00 2.801511e+00 2.894776e+00 2.584393e+00 2.956226e+00 1.459534e+00 1.492317e-01 -1.183935e-02 5.605177e-02 -6.948648e-03 8.525021e-02 6.328102e-02 -1.525178e-02 4.015684e-02 1.242792e-01 2.955397e-03 1.910501e-02 3.549244e-02 3.795572e-02 -1.419368e-01
<VARIANCE> 25
 9.852891e+00 1.059161e+01 8.489127e+00 2.067596e+01 2.275870e+01 1.931103e+01 2.594606e+01 2.510702e+01 2.041763e+01 1.512173e+01 2.017774e+01 1.536222e+01 5.311816e-01 5.091186e-01 5.192634e-01 8.484493e-01 1.017475e+00 1.383400e+00 1.848141e+00 1.569059e+00 1.621718e+00 1.700208e+00 1.754716e+00 1.335925e+00 3.509654e-01
<GCONST> 7.989455e+01
<TRANSP> 5
 0.000000e+00 1.000000e+00 0.000000e+00 0.000000e+00 0.000000e+00
 0.000000e+00 8.689018e-01 1.310982e-01 0.000000e+00 0.000000e+00
 0.000000e+00 0.000000e+00 7.435496e-01 2.564504e-01 0.000000e+00
 0.000000e+00 0.000000e+00 0.000000e+00 9.308335e-01 6.916648e-02
 0.000000e+00 0.000000e+00 0.000000e+00 0.000000e+00 0.000000e+00
<ENDHMM>
~h "y"
<BEGINHMM>
<NUMSTATES> 5
<STATE> 2
<MEAN> 25
 1.500661e+00 -1.270560e+00 2.725409e+00 -2.351916e-01 -5.175629e+00 -3.975932e+00 -6.179669e+00 -4.799324e+00 -4.339738e+00 -3.313414e+00 9.282373e-02 7.571316e-01 9.206312e-02 -2.570976e-02 3.094834e-01 -1.752451e-01 -2.624660e-01 -6.565545e-02 -5.123172e-01 -5.089803e-01 -3.933997e-01 -2.947626e-01 -4.003498e-02 5.004964e-02 2.624974e-01
<VARIANCE> 25
 1.520343e+01 2.664889e+01 5.430426e+01 4.128031e+01 5.884258e+01 5.227792e+01 5.079035e+01 7.809914e+01 4.609146e+01 5.086767e+01 3.838113e+01 2.838891e+01 1.091756e+00 1.378286e+00 3.078714e+00 2.645433e+00 3.501177e+00 2.774740e+00 3.396861e+00 5.772733e+00 3.622022e+00 4.545757e+00 2.478832e+00 2.644454e+00 2.293529e+00
<GCONST> 1.040039e+02
<STATE> 3
<MEAN> 25
 1.316713e+00 -1.056133e+00 3.263447e+00 -8.648550e-01 -4.540204e+00 -3.064254e+00 -6.547451e+00 -5.671398e+00 -4.297505e+00 -3.608353e+00 -5.156730e-01 6.471539e-01 4.151042e-02 -6.551969e-02 -8.180393e-02 -1.978662e-01 -7.381379e-02 -4.786216e-02 -1.448392e-01 -2.320891e-01 -5.268413e-02 -7.871658e-03 -1.517619e-01 -1.206231e-01 1.414733e-01
<VARIANCE> 25
 1.365963e+01 2.779993e+01 6.402711e+01 3.855676e+01 6.250652e+01 5.803675e+01 5.248745e+01 7.748837e+01 4.335194e+01 5.414813e+01 4.541519e+01 3.337304e+01 8.638174e-01 1.337182e+00 3.050714e+00 2.111481e+00 2.928240e+00 2.848394e+00 3.213575e+00 4.997157e+00 3.282370e+00 4.258112e+00 2.473022e+00 2.607112e+00 2.361005e+00
<GCONST> 1.035541e+02
<STATE> 4
<MEAN> 25
 1.447048e+00 -1.343777e+00 2.906582e+00 -5.331197e-01 -4.113337e+00 -2.743134e+00 -4.613220e+00 -3.784570e+00 -2.642164e+00 -2.755317e+00 -1.558967e+00 -8.432325e-01 1.739736e-02 -1.356092e-01 -3.012162e-01 1.424721e-02 -6.659997e-04 -1.150834e-01 2.033909e-01 1.855588e-01 1.916238e-01 2.059747e-01 -1.316441e-01 -1.555377e-01 -7.132638e-03
<VARIANCE> 25
 1.437623e+01 2.267647e+01 5.622804e+01 3.555108e+01 6.310495e+01 5.723634e+01 5.226804e+01 7.005357e+01 3.916893e+01 4.213654e+01 4.413064e+01 2.599717e+01 8.924645e-01 1.168900e+00 2.679534e+00 1.311559e+00 3.096013e+00 3.271302e+00 3.130640e+00 4.133078e+00 3.269333e+00 3.857344e+00 2.492587e+00 2.079419e+00 1.769639e+00
<GCONST> 1.011112e+02
<TRANSP> 5
 0.000000e+00 1.000000e+00 0.000000e+00 0.000000e+00 0.000000e+00
 0.000000e+00 7.840068e-01 2.159932e-01 0.000000e+00 0.000000e+00
 0.000000e+00 0.000000e+00 7.238052e-01 2.761949e-01 0.000000e+00
 0.000000e+00 0.000000e+00 0.000000e+00 7.935126e-01 2.064873e-01
 0.000000e+00 0.000000e+00 0.000000e+00 0.000000e+00 0.000000e+00
<ENDHMM>
~h "z"
<BEGINHMM>
<NUMSTATES> 5
<STATE> 2
<MEAN> 25
 -6.420255e+00 7.609970e+00 9.747027e-01 3.903817e-02 5.762968e+00 1.588935e+00 -1.997206e+00 -4.822684e-03 2.367933e-01 -2.977041e-01 -5.824484e-01 1.766651e-01 -1.382863e+00 4.744898e-01 -2.994648e-01 -1.375827e-01 7.753174e-01 2.516500e-02 1.756846e-01 6.037686e-01 1.213843e-01 2.016400e-01 -2.732678e-01 -1.726848e-01 -8.147246e-02
<VARIANCE> 25
 6.731561e+01 3.730798e+01 5.666305e+01 5.662345e+01 3.975134e+01 6.632411e+01 8.338622e+01 7.736425e+01 3.062242e+01 3.634408e+01 2.617723e+01 2.005084e+01 3.171753e+00 2.743244e+00 2.500593e+00 2.021768e+00 2.447324e+00 3.676093e+00 3.195105e+00 2.811070e+00 2.900099e+00 2.377090e+00 2.292548e+00 1.632881e+00 1.190303e+00
<GCONST> 1.033770e+02
<STATE> 3
<MEAN> 25
 -9.971054e+00 7.009204e+00 4.135168e-01 -6.733796e-01 7.387844e+00 2.506353e+00 -1.858159e+00 1.625240e+00 1.166555e+00 5.061547e-02 -1.495536e+00 -3.282542e-01 -3.238003e-01 -3.423724e-01 -2.363484e-01 -7.800709e-02 5.319613e-02 8.613928e-02 4.124890e-02 3.234714e-01 8.924255e-02 8.243637e-02 -3.218030e-01 -1.445392e-01 -1.449772e-01
<VARIANCE> 25
 4.911695e+01 3.929016e+01 5.348684e+01 5.432466e+01 3.355748e+01 6.250865e+01 8.068832e+01 7.497050e+01 3.861164e+01 3.109431e+01 2.742302e+01 1.941316e+01 3.351933e+00 2.549921e+00 2.527582e+00 2.367954e+00 2.338227e+00 3.438314e+00 3.557852e+00 3.339958e+00 2.463977e+00 2.324509e+00 2.365732e+00 1.487406e+00 1.471008e+00
<GCONST> 1.030944e+02
<STATE> 4
<MEAN> 25
 -9.542448e+00 5.146205e+00 -1.206270e+00 6.436139e-02 6.420478e+00 2.793934e+00 -7.958744e-01 4.169936e+00 1.007704e+00 6.198567e-01 -9.964654e-01 -2.066851e-01 5.221627e-01 -6.116610e-01 -1.130663e-01 6.337191e-02 -2.421355e-01 5.614404e-02 -3.790705e-02 9.568965e-02 7.204098e-02 -1.242740e-01 -1.490930e-01 8.142176e-02 -2.230589e-01
<VARIANCE> 25
 4.400161e+01 3.784053e+01 3.302738e+01 3.592012e+01 3.004480e+01 4.929717e+01 5.827414e+01 6.668361e+01 3.842992e+01 2.441831e+01 3.568718e+01 1.728738e+01 1.990668e+00 1.767522e+00 2.176600e+00 2.317294e+00 1.907047e+00 2.769035e+00 2.784847e+00 2.847806e+00 2.123775e+00 2.183313e+00 2.172302e+00 1.490086e+00 1.210764e+00
<GCONST> 9.878870e+01
<TRANSP> 5
 0.000000e+00 1.000000e+00 0.000000e+00 0.000000e+00 0.000000e+00
 0.000000e+00 7.460707e-01 2.539293e-01 0.000000e+00 0.000000e+00
 0.000000e+00 0.000000e+00 7.204308e-01 2.795692e-01 0.000000e+00
 0.000000e+00 0.000000e+00 0.000000e+00 7.764018e-01 2.235982e-01
 0.000000e+00 0.000000e+00 0.000000e+00 0.000000e+00 0.000000e+00
<ENDHMM>
~h "aa"
<BEGINHMM>
<NUMSTATES> 5
<STATE> 2
<MEAN> 25
 3.756158e+00 -1.536975e+00 -1.277109e+00 -5.156775e+00 -2.717825e+00 2.565980e+00 9.170508e-01 -1.996458e+00 1.420380e+00 -2.590190e+00 5.602871e-01 1.822502e+00 3.686076e-01 -1.522486e-01 2.084887e-02 -4.070658e-01 -3.108958e-01 1.600952e-01 -3.462508e-02 -3.264684e-01 1.119112e-01 -3.326855e-01 -1.023467e-01 -3.526099e-01 5.377086e-01
<VARIANCE> 25
 3.982409e+01 3.467527e+01 5.471276e+01 4.479969e+01 6.236152e+01 4.869870e+01 4.636656e+01 8.192454e+01 6.540725e+01 4.884557e+01 1.023724e+02 7.430760e+01 1.779100e+00 2.426098e+00 4.377861e+00 3.701823e+00 4.235808e+00 3.706039e+00 2.925261e+00 4.818059e+00 4.171971e+00 4.217244e+00 8.307078e+00 4.026672e+00 3.316314e+00
<GCONST> 1.114724e+02
<STATE> 3
<MEAN> 25
 3.978685e+00 -3.412805e+00 -2.183424e+00 -5.126564e+00 -2.993075e+00 1.841396e+00 -1.638576e+00 1.379409e-01 1.377209e+00 -4.299898e+00 2.275972e+00 -2.658267e+00 1.919244e-02 -1.573299e-01 -2.264752e-01 -2.022188e-01 -8.290648e-02 1.076536e-01 -6.934361e-02 -5.206880e-02 2.117584e-02 1.193490e-02 6.169007e-02 -3.422565e-01 2.117062e-01
<VARIANCE> 25
 2.577865e+01 2.577886e+01 5.336654e+01 4.357086e+01 5.711714e+01 5.756830e+01 4.988747e+01 8.361800e+01 6.667913e+01 4.312774e+01 7.235258e+01 5.383477e+01 1.127694e+00 1.823350e+00 3.102628e+00 2.696523e+00 3.724181e+00 3.483928e+00 2.968812e+00 5.883633e+00 3.975948e+00 3.057811e+00 4.522018e+00 3.397936e+00 2.296716e+00
<GCONST> 1.071932e+02
<STATE> 4
<MEAN> 25
 3.088606e+00 -5.743468e+00 -4.038862e+00 -6.693135e+00 -2.088300e+00 2.614411e+00 2.231198e-01 -1.229192e+00 -5.370136e-01 -2.555319e+00 -5.044519e-01 -4.819677e+00 7.620683e-02 1.340578e-01 3.046891e-02 2.480416e-01 1.720037e-01 -6.120566e-02 3.205485e-02 1.014727e-02 7.514715e-02 7.891206e-02 -6.332809e-02 6.601493e-02 -3.781513e-01
<VARIANCE> 25
 2.309759e+01 2.364629e+01 3.650533e+01 4.766629e+01 4.920584e+01 5.081974e+01 5.146724e+01 8.107083e+01 4.841679e+01 3.453632e+01 5.092797e+01 3.373241e+01 8.964202e-01 1.119298e+00 1.626219e+00 1.691001e+00 2.240278e+00 2.921735e+00 2.972275e+00 4.158479e+00 2.759955e+00 2.426006e+00 2.005530e+00 2.430976e+00 1.165482e+00
<GCONST> 9.978983e+01
<TRANSP> 5
 0.000000e+00 1.000000e+00 0.000000e+00 0.000000e+00 0.000000e+00
 0.000000e+00 7.832700e-01 2.167300e-01 0.000000e+00 0.000000e+00
 0.000000e+00 0.000000e+00 7.456555e-01 2.543445e-01 0.000000e+00
 0.000000e+00 0.000000e+00 0.000000e+00 8.442298e-01 1.557702e-01
 0.000000e+00 0.000000e+00 0.000000e+00 0.000000e+00 0.000000e+00
<ENDHMM>
~h "ae"
<BEGINHMM>
<NUMSTATES> 5
<STATE> 2
<MEAN> 25
 2.454143e-01 -1.767670e+00 -2.617233e+00 7.274848e-01 4.144412e+00 1.913165e+00 1.829599e+00 1.677193e+00 9.146142e-01 -4.449185e-01 -2.583347e+00 -9.652126e-01 -1.134675e-02 -1.132265e-01 -1.091420e-01 -5.933759e-02 1.319380e-01 2.077339e-01 1.603791e-01 -2.357253e-01 4.908178e-02 -1.857226e-02 -1.102308e-01 -1.158346e-02 2.227804e-02
<VARIANCE> 25
 1.162813e+01 2.289985e+01 1.415870e+01 3.235999e+01 2.616609e+01 2.827221e+01 2.544072e+01 4.676783e+01 2.681352e+01 3.049841e+01 4.229915e+01 1.747715e+01 5.606655e-01 5.899511e-01 5.496226e-01 1.234128e+00 1.186732e+00 1.744774e+00 1.593717e+00 2.148252e+00 1.845441e+00 1.948618e+00 1.924388e+00 1.081265e+00 1.315361e+00
<GCONST> 8.740960e+01
<STATE> 3
<MEAN> 25
 3.185021e-01 -2.123156e+00 -2.837396e+00 5.029210e-01 4.058720e+00 2.596387e+00 2.224344e+00 1.002682e+00 1.210340e+00 4.764650e-02 -2.709763e+00 -1.244295e+00 -2.883885e-03 3.089746e-02 1.819493e-02 3.488223e-02 2.065686e-02 6.747551e-02 7.298104e-02 1.321459e-02 1.037770e-01 1.461785e-01 8.842308e-02 -1.558060e-02 -1.441764e-01
<VARIANCE> 25
 1.365348e+01 2.463829e+01 1.415350e+01 2.977765e+01 2.570918e+01 2.561069e+01 2.803958e+01 3.265635e+01 2.372165e+01 3.435602e+01 4.565905e+01 1.909260e+01 4.726303e-01 4.746193e-01 5.273353e-01 9.110599e-01 1.076068e+00 1.453194e+00 1.700101e+00 1.521875e+00 1.600536e+00 1.616438e+00 1.592600e+00 1.316716e+00 7.654744e-01
<GCONST> 8.518590e+01
<STATE> 4
<MEAN> 25
 -1.011257e-02 -6.019459e-01 -1.403258e+00 1.570057e+00 4.189464e+00 2.357984e+00 3.046565e+00 2.043010e+00 2.334896e+00 2.281512e+00 -4.109935e-01 -5.058612e-01 2.150111e-03 2.884455e-02 5.059861e-02 -9.302961e-03 -6.523470e-02 -6.516723e-02 -4.090493e-02 -7.450801e-03 -4.016599e-03 1.220616e-02 5.198311e-02 1.500013e-02 -1.963854e-02
<VARIANCE> 25
 9.117820e+00 1.732156e+01 9.014364e+00 2.422057e+01 3.922766e+01 3.041931e+01 3.967913e+01 2.844344e+01 2.006614e+01 2.685105e+01 3.781216e+01 1.625803e+01 4.417803e-01 4.307446e-01 4.889659e-01 7.653660e-01 1.242529e+00 1.284061e+00 1.766906e+00 1.673566e+00 1.662612e+00 1.547326e+00 1.601043e+00 1.333689e+00 5.479762e-01
<GCONST> 8.323021e+01
<TRANSP> 5
 0.000000e+00 1.000000e+00 0.000000e+00 0.000000e+00 0.000000e+00
 0.000000e+00 8.500507e-01 1.499493e-01 0.000000e+00 0.000000e+00
 0.000000e+00 0.000000e+00 8.589073e-01 1.410927e-01 0.000000e+00
 0.000000e+00 0.000000e+00 0.000000e+00 9.615833e-01 3.841671e-02
 0.000000e+00 0.000000e+00 0.000000e+00 0.000000e+00 0.000000e+00
<ENDHMM>
~h "ah"
<BEGINHMM>
<NUMSTATES> 5
<STATE> 2
<MEAN> 25
 9.241682e-01 -2.592551e+00 -1.541954e+00 -3.581569e+00 -2.764914e+00 -2.094038e+00 -3.242609e+00 -1.969826e+00 2.575702e-01 -1.445456e+00 -3.069968e+00 -2.156431e+00 2.829134e-01 -7.905678e-02 -1.676762e-02 -1.503916e-01 -6.376628e-02 7.924418e-02 -2.608066e-01 -3.200569e-01 7.057822e-02 -2.045048e-02 -2.888723e-01 -2.821173e-01 4.972662e-02
<VARIANCE> 25
 2.899645e+01 2.806128e+01 2.412466e+01 4.288853e+01 4.539505e+01 4.490377e+01 5.004659e+01 4.231735e+01 3.829883e+01 3.569890e+01 3.375687e+01 3.166010e+01 1.841609e+00 1.308935e+00 1.407024e+00 2.209155e+00 2.786161e+00 2.967611e+00 3.069442e+00 3.703287e+00 2.888453e+00 3.083983e+00 2.669562e+00 2.073971e+00 2.148975e+00
<GCONST> 1.002836e+02
<STATE> 3
<MEAN> 25
 1.748058e+00 -2.522307e+00 -1.327589e+00 -3.399378e+00 -2.519104e+00 -1.438330e+00 -3.605795e+00 -2.463730e+00 5.637746e-01 -1.311924e+00 -3.569394e+00 -2.656733e+00 2.203030e-01 9.414165e-02 5.751206e-02 1.302309e-01 1.855412e-01 2.664086e-01 -3.793764e-02 -1.290255e-01 -3.286413e-03 7.159381e-02 -8.859400e-02 -9.309033e-02 -3.046397e-01
<VARIANCE> 25
 3.086331e+01 2.634978e+01 2.454259e+01 4.298000e+01 4.258262e+01 4.830350e+01 5.134718e+01 4.033118e+01 3.640892e+01 3.568115e+01 3.418803e+01 3.097657e+01 1.623445e+00 1.170176e+00 1.381045e+00 2.178622e+00 2.449247e+00 3.138637e+00 2.864984e+00 3.160160e+00 2.601505e+00 2.560689e+00 2.537677e+00 2.042253e+00 1.919471e+00
<GCONST> 9.918804e+01
<STATE> 4
<MEAN> 25
 2.060827e+00 -1.628486e+00 -8.729823e-01 -1.821705e+00 -9.414312e-01 -5.870298e-01 -2.533754e+00 -1.652083e+00 8.876643e-01 2.108147e-01 -2.255390e+00 -1.598775e+00 6.287298e-02 1.802689e-01 1.040419e-01 2.364292e-01 2.167851e-01 1.965077e-01 3.236340e-02 3.610730e-02 -4.913243e-02 1.228317e-01 4.079720e-02 5.108092e-02 -3.540775e-01
<VARIANCE> 25
 2.872768e+01 2.252516e+01 2.106069e+01 4.052704e+01 4.104187e+01 4.162452e+01 5.457570e+01 3.974360e+01 3.121467e+01 3.133489e+01 3.457550e+01 2.645629e+01 1.216315e+00 9.672615e-01 1.133336e+00 1.615676e+00 1.679105e+00 2.597341e+00 2.464764e+00 2.556876e+00 2.242390e+00 2.119551e+00 2.089382e+00 1.646237e+00 1.386465e+00
<GCONST> 9.520033e+01
<TRANSP> 5
 0.000000e+00 1.000000e+00 0.000000e+00 0.000000e+00 0.000000e+00
 0.000000e+00 6.162196e-01 3.837804e-01 0.000000e+00 0.000000e+00
 0.000000e+00 0.000000e+00 6.036442e-01 3.963557e-01 0.000000e+00
 0.000000e+00 0.000000e+00 0.000000e+00 7.490135e-01 2.509865e-01
 0.000000e+00 0.000000e+00 0.000000e+00 0.000000e+00 0.000000e+00
<ENDHMM>
~h "ao"
<BEGINHMM>
<NUMSTATES> 5
<STATE> 2
<MEAN> 25
 4.673949e+00 8.482093e-01 -8.991205e+00 -1.240400e+01 2.152131e+00 6.822859e+00 5.677170e+00 -1.458830e+00 -8.484103e-01 1.833911e-01 2.719077e+00 4.323417e-01 6.751997e-01 4.919323e-01 -3.079246e-01 -7.970077e-01 -3.473265e-01 -5.560692e-02 3.707390e-01 -2.461583e-01 -2.473079e-01 -3.693358e-01 2.495958e-01 2.060841e-01 7.982031e-01
<VARIANCE> 25
 6.120874e+01 6.288856e+01 5.671534e+01 1.629233e+02 4.964229e+01 4.573215e+01 6.379234e+01 4.784064e+01 3.319212e+01 4.278953e+01 5.066023e+01 3.667735e+01 2.841636e+00 3.296235e+00 3.656723e+00 8.802936e+00 3.852016e+00 3.951432e+00 5.152347e+00 5.513131e+00 3.951765e+00 3.763587e+00 4.138723e+00 2.975628e+00 6.034484e+00
<GCONST> 1.126569e+02
<STATE> 3
<MEAN> 25
 5.378948e+00 3.969163e+00 -7.923619e+00 -8.632782e+00 -1.166065e-01 2.337151e+00 4.094701e+00 -5.971265e-01 -8.555164e-01 -9.135121e-01 2.511039e+00 1.083705e+00 -2.171197e-01 -3.403032e-01 6.569047e-02 9.670586e-02 -6.104385e-02 -5.216666e-01 -4.107638e-01 -3.322354e-02 -4.750055e-02 1.348307e-01 -1.682009e-01 -2.671183e-02 1.733313e-01
<VARIANCE> 25
 6.098007e+01 5.274236e+01 3.394344e+01 1.013104e+02 4.011623e+01 6.908687e+01 5.913746e+01 5.779852e+01 7.514598e+01 5.321501e+01 6.472752e+01 2.905390e+01 4.442974e+00 3.673200e+00 3.386415e+00 8.313034e+00 3.848369e+00 6.387233e+00 5.828334e+00 5.914824e+00 6.497093e+00 5.743879e+00 7.985690e+00 2.932885e+00 5.579350e+00
<GCONST> 1.154272e+02
<STATE> 4
<MEAN> 25
 2.983173e+00 1.364964e+00 -4.781245e+00 -6.015442e+00 1.686833e+00 -5.553117e-01 -2.844387e+00 -2.347568e+00 4.480736e+00 7.827474e-01 1.438212e+00 1.947923e+00 4.058495e-01 1.116693e-01 4.398474e-01 -3.500352e-02 -1.048291e-01 -3.021982e-02 -7.269094e-01 -6.416129e-01 8.057268e-02 -1.505167e-01 -2.570447e-01 1.288226e-01 2.729308e-01
<VARIANCE> 25
 5.366013e+01 4.604192e+01 2.514302e+01 5.177906e+01 4.852038e+01 7.590833e+01 6.824722e+01 6.095019e+01 1.130634e+02 4.593794e+01 3.493756e+01 1.561648e+01 4.981322e+00 3.271745e+00 1.866132e+00 4.179427e+00 3.100305e+00 7.894466e+00 3.980691e+00 3.798685e+00 4.280318e+00 3.988902e+00 3.997185e+00 1.575412e+00 4.031719e+00
<GCONST> 1.091632e+02
<TRANSP> 5
 0.000000e+00 1.000000e+00 0.000000e+00 0.000000e+00 0.000000e+00
 0.000000e+00 8.852761e-01 1.147239e-01 0.000000e+00 0.000000e+00
 0.000000e+00 0.000000e+00 8.535764e-01 1.464235e-01 0.000000e+00
 0.000000e+00 0.000000e+00 0.000000e+00 7.993417e-01 2.006583e-01
 0.000000e+00 0.000000e+00 0.000000e+00 0.000000e+00 0.000000e+00
<ENDHMM>
~h "aw"
<BEGINHMM>
<NUMSTATES> 5
<STATE> 2
<MEAN> 25
 -9.921531e-01 -7.330787e+00 -6.698360e+00 -9.552810e+00 -1.823807e+00 3.243737e+00 9.467657e-02 -7.069771e+00 -4.614196e+00 -5.845521e-01 -3.159453e+00 -3.485116e+00 3.912936e-02 -4.701460e-02 1.014844e-02 7.201972e-03 7.906130e-02 2.337921e-01 9.948855e-02 -3.157851e-02 1.220899e-02 -6.049830e-02 1.058632e-01 1.564334e-01 -1.267998e-01
<VARIANCE> 25
 1.331283e+01 1.305236e+01 2.196904e+01 1.698273e+01 2.072178e+01 2.789201e+01 4.229980e+01 2.453448e+01 2.615264e+01 1.606529e+01 1.165865e+01 1.482395e+01 7.510104e-01 5.314820e-01 6.987291e-01 6.914206e-01 9.236531e-01 2.430548e+00 2.267783e+00 2.085705e+00 2.265178e+00 1.784117e+00 1.092360e+00 1.368399e+00 7.353140e-01
<GCONST> 8.373153e+01
<STATE> 3
<MEAN> 25
 1.323779e+00 -5.616925e+00 -4.929557e+00 -6.694157e+00 -8.580176e-01 2.773947e+00 -3.101391e-02 -4.140549e+00 -1.671305e+00 2.036281e-01 -1.979658e+00 -2.612288e+00 2.535742e-01 2.850706e-01 1.455498e-01 2.828059e-01 7.084033e-02 -1.000985e-02 -1.650501e-03 3.048636e-01 1.761100e-01 5.641466e-02 2.170113e-01 1.731076e-01 -5.224138e-01
<VARIANCE> 25
 2.332565e+01 2.211418e+01 2.440822e+01 4.702649e+01 2.691354e+01 4.631027e+01 5.491501e+01 4.816574e+01 2.994221e+01 1.688705e+01 1.597660e+01 2.358724e+01 1.014351e+00 5.675706e-01 5.588455e-01 1.037980e+00 8.867470e-01 1.591467e+00 2.673954e+00 2.344591e+00 2.003510e+00 1.713742e+00 1.213224e+00 1.394702e+00 8.745861e-01
<GCONST> 8.911334e+01
<STATE> 4
<MEAN> 25
 -6.992813e-01 3.112688e-01 -1.364284e+00 5.150275e-01 3.285323e+00 2.893886e+00 3.484917e+00 2.944556e+00 1.302212e+00 1.912603e+00 1.330982e+00 6.728867e-01 -4.147301e-03 7.804577e-02 6.519303e-02 5.141557e-02 9.461945e-04 -2.027806e-02 1.689821e-02 6.834733e-02 1.159135e-02 -1.566557e-02 6.375191e-02 5.109557e-02 -1.466353e-01
<VARIANCE> 25
 1.789474e+01 1.928766e+01 1.503076e+01 5.275990e+01 2.388928e+01 2.030299e+01 2.348831e+01 5.067580e+01 2.779913e+01 2.239127e+01 1.722540e+01 1.773905e+01 8.193488e-01 6.266491e-01 5.173044e-01 8.461602e-01 1.361320e+00 1.544341e+00 1.959844e+00 2.263906e+00 1.700989e+00 1.769976e+00 1.278304e+00 1.153372e+00 7.488456e-01
<GCONST> 8.583015e+01
<TRANSP> 5
 0.000000e+00 1.000000e+00 0.000000e+00 0.000000e+00 0.000000e+00
 0.000000e+00 9.167542e-01 8.324576e-02 0.000000e+00 0.000000e+00
 0.000000e+00 0.000000e+00 8.381208e-01 1.618792e-01 0.000000e+00
 0.000000e+00 0.000000e+00 0.000000e+00 9.776819e-01 2.231814e-02
 0.000000e+00 0.000000e+00 0.000000e+00 0.000000e+00 0.000000e+00
<ENDHMM>
~h "ay"
<BEGINHMM>
<NUMSTATES> 5
<STATE> 2
<MEAN> 25
 1.776904e-03 -6.952958e+00 -5.136318e+00 -5.305488e+00 -4.219242e-03 -2.520679e-01 -1.294627e-01 -1.067946e+00 4.421138e-01 -4.561484e-03 -3.370208e+00 -4.890436e+00 -7.816065e-02 3.268122e-02 1.347875e-01 1.784084e-01 -4.905864e-03 1.823329e-02 1.183516e-01 3.279569e-02 7.979570e-02 5.062550e-03 -5.974365e-02 2.002174e-02 -9.810074e-02
<VARIANCE> 25
 1.040354e+01 1.702736e+01 2.613607e+01 3.473300e+01 3.414951e+01 3.709523e+01 2.545544e+01 2.291735e+01 1.845595e+01 1.685980e+01 2.442185e+01 2.903983e+01 4.887550e-01 4.710628e-01 1.121882e+00 8.448870e-01 1.709391e+00 2.884036e+00 1.720653e+00 1.927198e+00 1.880753e+00 1.684736e+00 1.986279e+00 2.940497e+00 4.760171e-01
<GCONST> 8.720015e+01
<STATE> 3
<MEAN> 25
 1.012737e+00 -3.334257e+00 -4.472982e-01 -1.079231e+00 -1.097779e+00 -1.363170e+00 4.718432e-01 9.012849e-01 1.586118e+00 1.685482e-01 -2.241658e+00 -1.911278e+00 9.036456e-02 3.771265e-01 3.915459e-01 2.864276e-01 -1.672645e-01 1.535167e-02 -3.424042e-02 3.265471e-02 -4.096748e-02 -3.796981e-02 1.540130e-01 3.218739e-01 -5.713457e-01
<VARIANCE> 25
 1.380028e+01 2.545525e+01 3.310254e+01 4.212041e+01 4.656990e+01 4.346925e+01 2.926898e+01 2.185102e+01 1.705094e+01 2.222431e+01 2.608365e+01 2.735971e+01 6.498933e-01 5.135356e-01 1.426424e+00 1.042812e+00 2.302669e+00 2.579821e+00 2.186952e+00 1.703844e+00 1.868912e+00 2.463828e+00 1.778307e+00 2.098225e+00 6.804692e-01
<GCONST> 9.048600e+01
<STATE> 4
<MEAN> 25
 -2.682808e-01 1.802591e+00 5.464268e-01 3.392750e+00 3.970682e+00 2.801316e+00 3.669044e+00 3.236917e+00 2.288142e+00 2.208411e+00 1.883486e+00 1.227427e+00 -7.619722e-02 9.757239e-02 9.997795e-03 8.091931e-02 5.951494e-02 2.497788e-02 4.503092e-02 4.184674e-02 3.486806e-02 4.448744e-02 6.738568e-02 5.240021e-02 -1.911737e-01
<VARIANCE> 25
 1.274498e+01 1.135100e+01 1.068503e+01 1.740820e+01 2.343718e+01 1.792677e+01 1.679240e+01 1.802007e+01 1.640337e+01 2.017701e+01 1.708220e+01 1.435763e+01 5.883226e-01 5.167179e-01 7.052289e-01 8.506485e-01 1.253329e+00 1.174069e+00 1.436667e+00 1.520735e+00 1.523242e+00 1.832612e+00 1.345775e+00 1.186985e+00 4.459534e-01
<GCONST> 7.935803e+01
<TRANSP> 5
 0.000000e+00 1.000000e+00 0.000000e+00 0.000000e+00 0.000000e+00
 0.000000e+00 8.924409e-01 1.075591e-01 0.000000e+00 0.000000e+00
 0.000000e+00 0.000000e+00 7.865021e-01 2.134978e-01 0.000000e+00
 0.000000e+00 0.000000e+00 0.000000e+00 9.452332e-01 5.476687e-02
 0.000000e+00 0.000000e+00 0.000000e+00 0.000000e+00 0.000000e+00
<ENDHMM>
~h "ch"
<BEGINHMM>
<NUMSTATES> 5
<STATE> 2
<MEAN> 25
 2.442392e+00 -2.528614e+00 3.417916e+00 5.334120e+00 -3.130618e+00 -5.244500e+00 -1.957729e+00 1.012967e-01 -4.592964e+00 9.531199e-01 -1.722238e+00 -7.595711e-01 9.296867e-02 -4.509469e-02 6.849501e-01 3.122666e-01 -3.261259e-01 -4.036896e-01 -7.275568e-02 -9.350799e-02 -1.491619e-01 -1.476377e-01 5.894971e-02 2.085100e-01 5.218396e-01
<VARIANCE> 25
 7.068062e+01 8.359839e+01 1.054813e+02 9.612898e+01 8.219897e+01 5.828227e+01 5.919628e+01 5.751849e+01 8.502364e+01 6.544807e+01 5.331745e+01 5.952861e+01 4.081318e+00 4.983562e+00 4.477931e+00 3.879574e+00 4.994831e+00 7.141103e+00 4.870287e+00 5.424352e+00 4.600835e+00 6.969688e+00 4.886065e+00 4.896334e+00 6.696893e+00
<GCONST> 1.184098e+02
<STATE> 3
<MEAN> 25
 -1.882074e+00 -2.745932e+00 4.876503e+00 3.454940e+00 -2.828601e+00 -3.331297e+00 3.238876e-01 2.154940e-01 -2.827792e+00 -1.065817e+00 -2.684343e-01 7.239743e-01 -5.224965e-01 -2.586206e-01 7.058618e-03 -6.361542e-02 -6.822434e-02 -2.881976e-02 4.750088e-02 2.868972e-01 9.234063e-02 -2.311658e-01 4.191271e-01 8.131022e-02 4.681098e-01
<VARIANCE> 25
 1.221769e+02 8.767185e+01 6.401344e+01 1.202626e+02 7.315845e+01 4.003030e+01 6.385402e+01 5.355395e+01 8.078734e+01 5.075813e+01 6.843980e+01 5.609883e+01 7.099397e+00 4.656447e+00 3.345955e+00 3.333393e+00 4.762504e+00 3.933196e+00 4.857797e+00 5.205661e+00 4.358172e+00 5.397814e+00 5.425544e+00 3.935639e+00 5.216742e+00
<GCONST> 1.168079e+02
<STATE> 4
<MEAN> 25
 -4.587449e+00 -2.895229e+00 3.355169e+00 1.910771e+00 -3.199084e+00 -3.887167e+00 4.812468e-01 1.424439e+00 -1.639848e+00 -1.110644e+00 2.231690e+00 1.496233e+00 1.253259e-01 6.025175e-02 -1.922696e-01 -3.126115e-02 7.096689e-03 -2.533914e-02 -1.236345e-01 -1.057610e-02 8.697893e-02 2.437390e-02 -1.367605e-02 -9.842438e-02 -1.962350e-01
<VARIANCE> 25
 1.292108e+02 5.582072e+01 4.938728e+01 9.519320e+01 6.098550e+01 3.670717e+01 5.795270e+01 4.963623e+01 6.002337e+01 3.310027e+01 5.795977e+01 4.723229e+01 7.388874e+00 2.807158e+00 2.509103e+00 2.638110e+00 3.775760e+00 3.723171e+00 4.666558e+00 3.804930e+00 4.217369e+00 2.967953e+00 3.827606e+00 3.334381e+00 3.579670e+00
<GCONST> 1.112641e+02
<TRANSP> 5
 0.000000e+00 1.000000e+00 0.000000e+00 0.000000e+00 0.000000e+00
 0.000000e+00 9.062066e-01 9.379339e-02 0.000000e+00 0.000000e+00
 0.000000e+00 0.000000e+00 8.606129e-01 1.393871e-01 0.000000e+00
 0.000000e+00 0.000000e+00 0.000000e+00 9.512929e-01 4.870715e-02
 0.000000e+00 0.000000e+00 0.000000e+00 0.000000e+00 0.000000e+00
<ENDHMM>
~h "dh"
<BEGINHMM>
<NUMSTATES> 5
<STATE> 2
<MEAN> 25
 2.376726e+00 -2.235482e+00 -1.431434e+00 -1.956357e+00 -3.135467e+00 -2.731218e+00 -2.758769e+00 7.292920e-01 2.695534e+00 6.607332e-01 -4.428736e+00 -2.858554e+00 -1.016860e-01 1.199040e-01 -3.161421e-01 2.291468e-01 4.940948e-01 2.549776e-01 4.167019e-01 4.248008e-01 1.445444e-01 -5.854914e-02 1.177537e-01 1.675946e-01 -4.345663e-01
<VARIANCE> 25
 2.392303e+01 2.117337e+01 3.009960e+01 4.454659e+01 6.061943e+01 4.414859e+01 2.592004e+01 4.770817e+01 2.894334e+01 1.388305e+01 1.607431e+01 2.285892e+01 1.451684e+00 4.760940e-01 8.334867e-01 1.397726e+00 2.609855e+00 2.867068e+00 1.437771e+00 1.246639e+00 1.263628e+00 1.550087e+00 1.187578e+00 1.248022e+00 1.238130e+00
<GCONST> 8.994923e+01
<STATE> 3
<MEAN> 25
 2.133054e+00 -1.074300e+00 -1.243236e+00 1.366050e+00 -2.392610e-01 -1.588400e+00 -3.270195e-01 1.613345e+00 2.219376e+00 4.942054e-01 -2.966089e+00 -1.539870e+00 -1.175675e-01 1.156797e-01 -7.343746e-02 3.157822e-01 5.249752e-01 3.214824e-01 4.187486e-01 3.013224e-01 -2.405613e-02 -5.473928e-02 1.943321e-01 1.038312e-01 -5.457630e-01
<VARIANCE> 25
 1.897077e+01 2.435930e+01 2.058060e+01 4.584201e+01 4.789687e+01 4.142221e+01 2.906277e+01 5.152193e+01 2.648942e+01 1.546983e+01 1.489813e+01 1.852416e+01 1.269819e+00 5.849451e-01 7.230049e-01 1.429345e+00 2.139134e+00 2.726202e+00 1.501112e+00 1.181614e+00 1.247625e+00 1.508699e+00 1.378863e+00 1.178015e+00 9.932117e-01
<GCONST> 8.865524e+01
<STATE> 4
<MEAN> 25
 -6.230327e-01 9.211787e-01 -1.416635e+00 2.545490e+00 4.793021e+00 2.944146e+00 4.469789e+00 3.728578e+00 2.101154e+00 2.856166e+00 -9.406612e-02 -6.882831e-01 -4.825731e-02 -2.201934e-03 -1.339340e-02 -1.650728e-02 3.604367e-02 5.024804e-02 4.704929e-02 7.075519e-03 -1.893987e-02 3.581443e-02 7.808571e-02 2.593948e-02 -6.004427e-02
<VARIANCE> 25
 8.944190e+00 1.136776e+01 7.068666e+00 2.104238e+01 2.850137e+01 1.959142e+01 1.966998e+01 1.807843e+01 1.752578e+01 1.674327e+01 2.451263e+01 1.378703e+01 4.038949e-01 3.732136e-01 4.273357e-01 7.782961e-01 9.392745e-01 1.392059e+00 1.378997e+00 1.297099e+00 1.312753e+00 1.667366e+00 1.396334e+00 1.050081e+00 4.083301e-01
<GCONST> 7.740137e+01
<TRANSP> 5
 0.000000e+00 1.000000e+00 0.000000e+00 0.000000e+00 0.000000e+00
 0.000000e+00 7.882869e-01 2.117132e-01 0.000000e+00 0.000000e+00
 0.000000e+00 0.000000e+00 7.430143e-01 2.569857e-01 0.000000e+00
 0.000000e+00 0.000000e+00 0.000000e+00 9.806060e-01 1.939405e-02
 0.000000e+00 0.000000e+00 0.000000e+00 0.000000e+00 0.000000e+00
<ENDHMM>
~h "eh"
<BEGINHMM>
<NUMSTATES> 5
<STATE> 2
<MEAN> 25
 -3.004514e-01 -1.822737e+00 7.357887e-01 -1.911690e+00 -3.787599e+00 -4.681906e+00 -1.312011e+00 6.548284e-01 7.032939e-01 -1.682272e+00 -3.168598e+00 1.391183e-02 2.456762e-01 -3.641286e-01 -2.981153e-02 -2.853679e-01 -6.434814e-01 -8.296872e-01 1.011526e-01 2.599964e-01 4.879503e-01 -3.429106e-01 -4.488834e-01 5.641011e-02 7.666312e-01
<VARIANCE> 25
 4.429509e+01 3.638093e+01 4.695271e+01 3.063669e+01 4.609143e+01 7.073387e+01 4.027834e+01 4.474664e+01 3.292472e+01 2.811150e+01 4.174075e+01 2.248910e+01 2.995522e+00 1.896982e+00 2.285879e+00 2.445242e+00 3.289126e+00 3.396970e+00 3.372831e+00 3.066837e+00 2.548070e+00 2.797285e+00 2.775480e+00 1.765356e+00 3.092855e+00
<GCONST> 1.027549e+02
<STATE> 3
<MEAN> 25
 -5.077042e-01 -2.603743e+00 3.640317e-01 -2.222977e+00 -4.482669e+00 -5.910011e+00 -6.361045e-01 1.336894e+00 1.689618e+00 -2.349566e+00 -4.133123e+00 -1.752096e-01 -7.225364e-02 -2.423458e-01 -1.461107e-01 -9.790547e-02 -2.000247e-01 -2.695345e-01 2.000652e-01 1.250070e-01 3.080036e-01 -1.266166e-01 -2.183023e-01 -9.222842e-02 3.369251e-01
<VARIANCE> 25
 4.421624e+01 4.049899e+01 4.331259e+01 2.707938e+01 4.180355e+01 7.015109e+01 3.717520e+01 3.825749e+01 3.010314e+01 2.913338e+01 4.384964e+01 2.308797e+01 2.058354e+00 1.474214e+00 1.735628e+00 1.576224e+00 2.652246e+00 3.607952e+00 2.599628e+00 2.740931e+00 2.424460e+00 2.649758e+00 2.396407e+00 1.628907e+00 2.550033e+00
<GCONST> 9.994144e+01
<STATE> 4
<MEAN> 25
 -1.279270e+00 -2.478965e+00 1.189821e+00 -1.460069e+00 -4.413884e+00 -4.187435e+00 2.012534e-01 1.040394e+00 1.074387e+00 -2.742023e+00 -3.522176e+00 -6.670154e-01 1.546311e-01 -5.547028e-02 3.519966e-02 1.619314e-02 -3.653335e-02 1.745052e-01 4.483529e-03 -4.282482e-02 -1.127310e-01 7.978176e-02 7.483870e-02 -1.181754e-01 -1.202802e-01
<VARIANCE> 25
 4.639008e+01 3.761828e+01 5.452766e+01 3.034667e+01 4.659108e+01 6.257390e+01 3.376458e+01 4.677071e+01 2.906385e+01 2.815081e+01 4.281343e+01 2.641704e+01 1.941771e+00 1.401417e+00 1.733089e+00 1.582809e+00 2.075229e+00 2.894282e+00 2.483241e+00 2.559860e+00 2.088794e+00 2.244742e+00 2.246611e+00 1.628830e+00 1.844567e+00
<GCONST> 9.901047e+01
<TRANSP> 5
 0.000000e+00 1.000000e+00 0.000000e+00 0.000000e+00 0.000000e+00
 0.000000e+00 5.548734e-01 4.451267e-01 0.000000e+00 0.000000e+00
 0.000000e+00 0.000000e+00 5.567062e-01 4.432938e-01 0.000000e+00
 0.000000e+00 0.000000e+00 0.000000e+00 7.213437e-01 2.786562e-01
 0.000000e+00 0.000000e+00 0.000000e+00 0.000000e+00 0.000000e+00
<ENDHMM>
~h "er"
<BEGINHMM>
<NUMSTATES> 5
<STATE> 2
<MEAN> 25
 1.777108e+00 -1.864831e+00 -1.332121e-01 1.102116e+00 -2.125072e+00 -3.293679e+00 -3.614203e+00 1.049060e+00 4.073407e-01 -1.280168e+00 -6.179602e-01 -6.499608e-01 3.125681e-01 -4.037244e-01 -2.080053e-01 1.583175e-02 -2.548579e-01 -1.772487e-01 -4.510672e-01 -9.944907e-02 7.440264e-02 -4.745462e-02 -1.348856e-01 -1.691679e-01 2.000867e-01
<VARIANCE> 25
 3.922769e+01 3.049453e+01 7.103262e+01 4.128189e+01 6.891775e+01 6.899513e+01 5.494446e+01 4.064990e+01 3.233067e+01 5.586820e+01 7.102946e+01 2.373745e+01 3.453564e+00 2.428736e+00 3.364191e+00 3.578052e+00 4.933416e+00 5.508379e+00 3.628999e+00 3.800064e+00 2.785023e+00 3.641654e+00 5.928667e+00 2.426787e+00 5.142661e+00
<GCONST> 1.092865e+02
<STATE> 3
<MEAN> 25
 2.874614e+00 -3.151610e+00 -2.308062e+00 1.496650e+00 -2.219840e+00 -2.443255e+00 -4.603391e+00 6.040304e-01 9.320185e-01 -3.674992e-01 -8.474445e-01 -1.259388e+00 1.945882e-01 -1.114619e-01 -3.779724e-01 1.900286e-01 -3.500075e-02 2.746999e-01 -1.035769e-01 -1.798974e-01 7.204533e-02 9.467247e-02 -2.606191e-02 -9.121954e-02 -9.215228e-02
<VARIANCE> 25
 4.766500e+01 2.850215e+01 6.228543e+01 4.782834e+01 5.900234e+01 7.728938e+01 5.527542e+01 3.761030e+01 3.350764e+01 5.213519e+01 9.384611e+01 2.537046e+01 2.397432e+00 2.185398e+00 2.919430e+00 3.279217e+00 3.642205e+00 4.929509e+00 3.368032e+00 3.136117e+00 2.576160e+00 3.397501e+00 4.665840e+00 2.093980e+00 4.721919e+00
<GCONST> 1.076273e+02
<STATE> 4
<MEAN> 25
 3.862490e+00 -3.265098e+00 -5.801154e+00 2.490214e+00 -8.635944e-01 -7.289892e-02 -4.260282e+00 8.582992e-01 2.073131e+00 1.023649e+00 -4.294790e-01 -1.086821e+00 -1.770816e-01 9.065612e-02 -3.553610e-02 2.360448e-01 4.625812e-01 1.626780e-01 2.436437e-01 -8.354492e-03 1.410946e-01 8.967146e-02 -2.426836e-01 1.081759e-01 -4.003071e-01
<VARIANCE> 25
 5.511777e+01 2.572602e+01 5.484243e+01 4.861887e+01 5.323306e+01 7.679470e+01 5.071804e+01 3.124931e+01 2.567728e+01 3.763266e+01 1.119226e+02 2.749344e+01 1.513113e+00 1.419795e+00 2.159798e+00 2.426288e+00 2.375078e+00 3.306193e+00 2.960967e+00 2.258126e+00 1.985206e+00 2.531807e+00 2.674171e+00 1.868487e+00 1.990898e+00
<GCONST> 1.019756e+02
<TRANSP> 5
 0.000000e+00 1.000000e+00 0.000000e+00 0.000000e+00 0.000000e+00
 0.000000e+00 6.563300e-01 3.436700e-01 0.000000e+00 0.000000e+00
 0.000000e+00 0.000000e+00 6.411620e-01 3.588380e-01 0.000000e+00
 0.000000e+00 0.000000e+00 0.000000e+00 7.771662e-01 2.228338e-01
 0.000000e+00 0.000000e+00 0.000000e+00 0.000000e+00 0.000000e+00
<ENDHMM>
~h "ey"
<BEGINHMM>
<NUMSTATES> 5
<STATE> 2
<MEAN> 25
 -2.351633e+00 -2.082642e+00 5.099622e+00 -4.272566e+00 -1.135518e+01 -6.683118e+00 -3.417038e+00 -6.129036e+00 -1.521455e+00 -2.835013e+00 6.538613e-01 1.115497e+00 -7.435766e-02 2.242297e-01 4.505589e-01 4.656852e-02 -2.174341e-01 2.352041e-01 -7.648072e-02 -4.402347e-01 -2.947078e-01 -7.615481e-02 8.189376e-02 -1.579935e-02 -2.566862e-02
<VARIANCE> 25
 8.784050e+00 1.345497e+01 3.434628e+01 1.470424e+01 2.861172e+01 3.738792e+01 3.738190e+01 4.966998e+01 2.879142e+01 2.930500e+01 2.772736e+01 1.426224e+01 6.228663e-01 6.341517e-01 1.265829e+00 1.195841e+00 2.035911e+00 2.099386e+00 2.173500e+00 2.895871e+00 2.320157e+00 2.562444e+00 2.386990e+00 1.527160e+00 1.990300e+00
<GCONST> 9.070570e+01
<STATE> 3
<MEAN> 25
 -1.613415e+00 -2.971001e-02 7.033437e+00 -2.454236e+00 -9.891297e+00 -3.189501e+00 -3.395870e+00 -6.349438e+00 -2.585061e+00 -2.621609e+00 8.441691e-01 8.822482e-01 2.206025e-01 1.996776e-01 2.201275e-02 2.893434e-01 3.498867e-01 3.773079e-01 4.840229e-02 1.914199e-01 2.730913e-02 2.951737e-02 -9.535380e-02 -4.201050e-02 -6.771179e-01
<VARIANCE> 25
 1.861895e+01 2.025612e+01 4.359549e+01 2.118448e+01 4.671071e+01 4.597976e+01 4.033332e+01 3.883394e+01 2.617862e+01 3.106586e+01 2.674544e+01 1.444006e+01 1.020664e+00 6.435743e-01 1.707548e+00 1.189376e+00 1.999984e+00 1.876861e+00 2.398122e+00 2.768462e+00 2.211028e+00 2.361298e+00 2.346561e+00 1.452748e+00 8.999743e-01
<GCONST> 9.267149e+01
<STATE> 4
<MEAN> 25
 -2.615332e-01 1.290008e+00 1.882902e+00 2.355736e+00 9.331743e-01 1.361743e+00 1.793985e+00 8.385518e-01 6.660506e-01 1.166692e+00 1.686212e+00 1.545409e+00 1.074243e-01 1.303827e-02 -2.079286e-01 1.068521e-01 2.910948e-01 9.024985e-02 8.226366e-02 1.574812e-01 7.099552e-02 6.188827e-02 -1.751097e-02 -4.815318e-02 -2.446792e-01
<VARIANCE> 25
 1.501142e+01 1.183086e+01 2.668795e+01 2.481079e+01 7.045675e+01 3.288740e+01 3.490118e+01 4.314668e+01 2.233413e+01 2.707424e+01 2.142906e+01 1.416389e+01 8.282347e-01 4.977617e-01 9.899151e-01 1.168671e+00 1.623185e+00 1.617868e+00 1.692660e+00 2.195187e+00 1.680571e+00 1.747795e+00 1.408906e+00 1.372370e+00 8.582579e-01
<GCONST> 8.792899e+01
<TRANSP> 5
 0.000000e+00 1.000000e+00 0.000000e+00 0.000000e+00 0.000000e+00
 0.000000e+00 8.761473e-01 1.238528e-01 0.000000e+00 0.000000e+00
 0.000000e+00 0.000000e+00 7.813218e-01 2.186783e-01 0.000000e+00
 0.000000e+00 0.000000e+00 0.000000e+00 8.963407e-01 1.036593e-01
 0.000000e+00 0.000000e+00 0.000000e+00 0.000000e+00 0.000000e+00
<ENDHMM>
~h "hh"
<BEGINHMM>
<NUMSTATES> 5
<STATE> 2
<MEAN> 25
 -2.176675e+00 -1.005466e+00 -9.951765e-01 -1.058040e-01 -7.543931e-01 2.825785e-01 1.433298e+00 -6.611213e-01 -2.687626e+00 -2.702851e+00 -3.430081e+00 -2.001080e-01 -1.090782e-01 -1.566226e-01 -1.169747e-01 -4.303257e-03 -1.928930e-02 2.222009e-01 3.851063e-01 -5.175880e-02 -1.228374e-02 1.781306e-02 -2.477353e-01 -7.345218e-02 6.258766e-02
<VARIANCE> 25
 2.212336e+01 2.923316e+01 2.098832e+01 3.291822e+01 2.354442e+01 3.802604e+01 4.516853e+01 5.622995e+01 3.386126e+01 5.921967e+01 5.422690e+01 3.560022e+01 5.648134e-01 8.586205e-01 7.052813e-01 1.125613e+00 1.419924e+00 1.822060e+00 2.592376e+00 2.848967e+00 2.063062e+00 2.140125e+00 2.805158e+00 2.390167e+00 1.475221e+00
<GCONST> 9.453519e+01
<STATE> 3
<MEAN> 25
 -1.870368e+00 -1.062971e+00 -1.754418e+00 4.047821e-02 -3.004504e-01 9.192823e-01 8.760767e-01 -1.931493e+00 -2.659558e+00 -2.213376e+00 -4.760499e+00 -1.446757e+00 4.787179e-03 -1.402795e-01 -7.817375e-02 -2.703033e-02 7.225190e-02 3.494825e-02 7.190701e-02 -2.577648e-03 3.579156e-02 8.095852e-02 -1.438966e-01 -1.357324e-01 8.478474e-02
<VARIANCE> 25
 3.065607e+01 3.205462e+01 2.117376e+01 3.416988e+01 2.218105e+01 3.725895e+01 3.268193e+01 5.126249e+01 3.442299e+01 6.429396e+01 4.251572e+01 3.588539e+01 4.738797e-01 7.787066e-01 7.249585e-01 1.143381e+00 1.172366e+00 1.638744e+00 2.001164e+00 2.373332e+00 1.798510e+00 1.967343e+00 2.231415e+00 2.532979e+00 1.389845e+00
<GCONST> 9.294588e+01
<STATE> 4
<MEAN> 25
 -6.433738e-01 6.208639e-01 2.681496e-02 2.511325e+00 2.129474e+00 1.937048e+00 2.670692e+00 7.569616e-01 -9.515892e-02 4.358470e-01 -1.036394e+00 -1.920172e-01 9.657315e-03 -8.898182e-02 -5.201730e-02 -7.004241e-02 1.376194e-02 2.205823e-02 6.175100e-02 6.081784e-02 1.829002e-02 9.150208e-02 6.492033e-02 2.574784e-03 2.090585e-02
<VARIANCE> 25
 1.710349e+01 2.688043e+01 1.467064e+01 2.811025e+01 1.836653e+01 1.861262e+01 2.269348e+01 3.297839e+01 2.955618e+01 4.551226e+01 4.184755e+01 1.958949e+01 4.156963e-01 6.489683e-01 5.295941e-01 7.130666e-01 9.284242e-01 1.273273e+00 1.752478e+00 1.719319e+00 1.727491e+00 1.934233e+00 1.762316e+00 1.509327e+00 8.282847e-01
<GCONST> 8.544775e+01
<TRANSP> 5
 0.000000e+00 1.000000e+00 0.000000e+00 0.000000e+00 0.000000e+00
 0.000000e+00 7.988462e-01 2.011538e-01 0.000000e+00 0.000000e+00
 0.000000e+00 0.000000e+00 7.808002e-01 2.191998e-01 0.000000e+00
 0.000000e+00 0.000000e+00 0.000000e+00 9.546920e-01 4.530793e-02
 0.000000e+00 0.000000e+00 0.000000e+00 0.000000e+00 0.000000e+00
<ENDHMM>
~h "ih"
<BEGINHMM>
<NUMSTATES> 5
<STATE> 2
<MEAN> 25
 -1.671816e+00 1.362436e+00 3.860816e+00 -5.828679e-01 -2.532686e+00 -2.891408e+00 -2.991060e+00 -1.804928e+00 -2.657727e+00 -3.323817e+00 1.837426e-01 1.290422e+00 5.152764e-01 2.083791e-01 1.095579e+00 -4.007565e-01 -1.272753e+00 -4.172649e-01 -5.899739e-01 -7.369841e-01 -8.902631e-01 -9.096012e-01 1.187506e-01 -5.428082e-02 9.738034e-01
<VARIANCE> 25
 5.883833e+01 2.574805e+01 5.310425e+01 4.454947e+01 6.398655e+01 4.016755e+01 5.181479e+01 5.869535e+01 4.278830e+01 4.166862e+01 3.074031e+01 3.121945e+01 4.383441e+00 2.251280e+00 4.084092e+00 3.597954e+00 6.735151e+00 4.187046e+00 5.222513e+00 4.648167e+00 4.065154e+00 4.380095e+00 2.935163e+00 2.879670e+00 4.250409e+00
<GCONST> 1.092299e+02
<STATE> 3
<MEAN> 25
 -7.779771e-02 1.903422e+00 6.643466e+00 -1.628963e+00 -6.696189e+00 -3.345577e+00 -4.134986e+00 -4.461075e+00 -4.560400e+00 -5.271501e+00 -5.492022e-02 1.238288e+00 2.576945e-01 1.665897e-02 4.106415e-01 -3.451638e-01 -7.043363e-01 1.331321e-01 -5.113917e-02 -5.668743e-01 -2.669872e-01 -2.976244e-01 -3.461990e-02 -1.663277e-01 3.415662e-01
<VARIANCE> 25
 3.718293e+01 2.178944e+01 5.170479e+01 3.601873e+01 5.797270e+01 3.543996e+01 4.155447e+01 5.671773e+01 3.835931e+01 4.948185e+01 4.204292e+01 3.351818e+01 3.015799e+00 1.649614e+00 3.207770e+00 3.272862e+00 4.942754e+00 3.138765e+00 3.760103e+00 4.164833e+00 3.396575e+00 3.984057e+00 3.154309e+00 2.500625e+00 3.304985e+00
<GCONST> 1.056804e+02
<STATE> 4
<MEAN> 25
 -3.673595e-01 1.453494e+00 6.894238e+00 -1.333336e+00 -7.756196e+00 -2.594975e+00 -3.876829e+00 -6.160472e+00 -5.202860e+00 -5.461960e+00 -7.913364e-01 2.325709e-02 -6.010787e-02 3.664177e-02 -1.209667e-01 1.606916e-01 2.546302e-01 1.060492e-01 1.059206e-01 1.322252e-01 1.002419e-01 2.656853e-01 -7.847779e-02 -9.440226e-02 -4.069361e-01
<VARIANCE> 25
 3.458662e+01 1.806738e+01 4.367939e+01 3.165865e+01 4.862692e+01 3.265743e+01 3.046315e+01 5.582433e+01 3.212103e+01 3.909977e+01 3.222120e+01 2.653508e+01 1.900486e+00 1.136867e+00 2.412203e+00 2.278003e+00 3.485834e+00 2.763399e+00 2.472939e+00 3.258487e+00 2.516633e+00 2.754834e+00 2.414448e+00 2.248411e+00 2.233590e+00
<GCONST> 9.956974e+01
<TRANSP> 5
 0.000000e+00 1.000000e+00 0.000000e+00 0.000000e+00 0.000000e+00
 0.000000e+00 6.571231e-01 3.428768e-01 0.000000e+00 0.000000e+00
 0.000000e+00 0.000000e+00 6.913657e-01 3.086344e-01 0.000000e+00
 0.000000e+00 0.000000e+00 0.000000e+00 8.902545e-01 1.097455e-01
 0.000000e+00 0.000000e+00 0.000000e+00 0.000000e+00 0.000000e+00
<ENDHMM>
~h "iy"
<BEGINHMM>
<NUMSTATES> 5
<STATE> 2
<MEAN> 25
 -4.983456e-01 3.560928e+00 6.571121e+00 6.784830e-02 -1.906042e+00 -1.979506e+00 -9.399467e-01 -2.063683e+00 -3.631128e+00 -1.248739e+00 -1.134159e-01 -9.850866e-01 -2.491178e-02 1.754127e-01 7.913213e-01 -1.762080e-01 -6.146670e-01 -3.977831e-01 -1.985438e-01 -3.515445e-01 -3.204827e-01 -3.677396e-01 8.328843e-02 2.670947e-02 6.325520e-01
<VARIANCE> 25
 5.611514e+01 4.249743e+01 1.035015e+02 5.298506e+01 1.015666e+02 6.358872e+01 4.661472e+01 4.347385e+01 4.613246e+01 4.476844e+01 6.763393e+01 4.200648e+01 4.781733e+00 2.944448e+00 6.653586e+00 5.303968e+00 6.774590e+00 5.869980e+00 4.688416e+00 4.372442e+00 3.579860e+00 3.968452e+00 6.296515e+00 3.918418e+00 5.286869e+00
<GCONST> 1.147420e+02
<STATE> 3
<MEAN> 25
 -2.873684e+00 3.333702e+00 7.779480e+00 -6.785484e-01 -2.744611e+00 -4.023890e+00 -1.105786e+00 -2.414080e+00 -3.711437e+00 -2.481539e+00 7.157906e-02 7.162190e-01 9.231767e-03 -1.043460e-01 2.167011e-01 -2.138643e-01 -5.004724e-01 -3.276445e-01 -1.665299e-01 -1.684526e-01 -6.437550e-02 -2.840983e-01 1.390153e-01 1.535967e-01 5.535305e-01
<VARIANCE> 25
 7.161219e+01 4.860166e+01 8.748351e+01 7.055673e+01 1.072832e+02 6.743328e+01 4.098799e+01 4.658761e+01 5.086947e+01 4.808904e+01 5.555015e+01 4.555610e+01 5.810508e+00 3.176773e+00 5.036655e+00 5.575079e+00 7.013090e+00 5.453886e+00 3.641121e+00 4.969191e+00 3.911670e+00 3.488873e+00 4.830612e+00 4.062411e+00 4.538761e+00
<GCONST> 1.148027e+02
<STATE> 4
<MEAN> 25
 -7.872289e-01 2.769409e+00 8.649867e+00 1.427271e+00 -6.510210e+00 -5.594290e+00 -1.251834e+00 -3.536838e+00 -4.163482e+00 -4.183614e+00 4.615765e-01 1.651160e+00 1.101142e-01 -1.788519e-03 -3.056028e-01 2.495043e-01 2.424962e-01 2.671748e-01 5.663497e-02 -9.174325e-02 8.345627e-02 1.328165e-01 -1.374218e-01 -1.290587e-01 -4.762263e-01
<VARIANCE> 25
 4.220835e+01 3.257394e+01 6.374596e+01 5.157071e+01 7.735610e+01 6.057780e+01 3.523536e+01 5.090592e+01 5.096259e+01 3.743267e+01 3.913622e+01 3.237682e+01 2.741700e+00 1.645289e+00 3.340011e+00 2.698485e+00 4.657010e+00 3.517198e+00 2.748262e+00 3.443502e+00 3.364819e+00 2.856772e+00 2.803123e+00 2.394599e+00 2.156280e+00
<GCONST> 1.055975e+02
<TRANSP> 5
 0.000000e+00 1.000000e+00 0.000000e+00 0.000000e+00 0.000000e+00
 0.000000e+00 8.196661e-01 1.803339e-01 0.000000e+00 0.000000e+00
 0.000000e+00 0.000000e+00 8.386393e-01 1.613607e-01 0.000000e+00
 0.000000e+00 0.000000e+00 0.000000e+00 8.855824e-01 1.144176e-01
 0.000000e+00 0.000000e+00 0.000000e+00 0.000000e+00 0.000000e+00
<ENDHMM>
~h "jh"
<BEGINHMM>
<NUMSTATES> 5
<STATE> 2
<MEAN> 25
 -1.423889e+00 -1.962520e+00 3.629001e+00 -3.863401e+00 -8.280711e+00 -3.712656e+00 -1.530457e+00 -6.986845e+00 -6.060243e+00 -6.289355e+00 -1.203349e+00 -4.309612e+00 -2.926363e-01 -2.765803e-01 1.609487e-01 -8.347496e-02 -7.437057e-01 1.832396e-01 -3.301559e-01 -5.262495e-01 -3.683439e-02 -2.565860e-03 -7.672218e-02 -1.072178e-01 4.561234e-01
<VARIANCE> 25
 1.324864e+01 1.103117e+01 2.385422e+01 2.132408e+01 4.225743e+01 2.888085e+01 2.882949e+01 3.398795e+01 2.765816e+01 2.001138e+01 1.697820e+01 4.583410e+01 1.650895e+00 1.145507e+00 1.512242e+00 1.445060e+00 4.971398e+00 2.620201e+00 2.559177e+00 3.170211e+00 2.543905e+00 2.921546e+00 1.475947e+00 2.212205e+00 2.710134e+00
<GCONST> 9.439635e+01
<STATE> 3
<MEAN> 25
 -1.747615e+00 -2.148825e+00 1.833408e+00 -5.227318e+00 -8.245144e+00 -3.184186e+00 -5.903073e+00 -8.188760e+00 -5.173267e+00 -4.820707e+00 -8.610504e-01 4.221144e-02 -2.087510e-01 -1.078848e-01 -3.276955e-01 2.215676e-02 1.987887e-01 -6.994433e-01 -1.465469e-01 1.279038e-01 3.395441e-01 1.487110e-01 2.409861e-01 8.236089e-02 3.277219e-01
<VARIANCE> 25
 1.930464e+01 2.702551e+01 3.668014e+01 1.861689e+01 3.058150e+01 2.598048e+01 1.129694e+01 3.446704e+01 2.699558e+01 2.123155e+01 1.527027e+01 1.616991e+01 2.839461e+00 1.478543e+00 1.953134e+00 7.421565e-01 4.462441e+00 2.111834e+00 1.025698e+00 3.242050e+00 1.741902e+00 2.579287e+00 1.707374e+00 1.641328e+00 1.871787e+00
<GCONST> 9.164345e+01
<STATE> 4
<MEAN> 25
 -6.031198e-01 -2.276463e+00 2.623967e+00 -4.152256e+00 -8.391882e+00 -4.271230e+00 -6.080920e+00 -6.204070e+00 -4.212794e+00 -5.128948e+00 -2.021717e+00 4.116556e-01 2.679720e-01 1.785757e-01 2.216699e-01 3.148083e-01 2.234063e-01 1.133340e-01 -1.720124e-01 2.604375e-01 2.652217e-01 2.758725e-02 -2.271490e-01 -7.604214e-02 -3.415044e-01
<VARIANCE> 25
 2.572112e+01 1.879060e+01 4.095636e+01 2.798091e+01 1.940427e+01 2.802195e+01 1.531145e+01 2.289050e+01 2.782957e+01 2.287737e+01 1.602117e+01 9.673473e+00 3.228913e+00 1.622531e+00 3.705205e+00 1.622584e+00 2.631369e+00 2.977594e+00 1.262850e+00 1.852625e+00 2.437043e+00 2.981960e+00 1.888434e+00 1.450980e+00 2.269132e+00
<GCONST> 9.299819e+01
<TRANSP> 5
 0.000000e+00 1.000000e+00 0.000000e+00 0.000000e+00 0.000000e+00
 0.000000e+00 8.699782e-01 1.300218e-01 0.000000e+00 0.000000e+00
 0.000000e+00 0.000000e+00 8.476974e-01 1.523026e-01 0.000000e+00
 0.000000e+00 0.000000e+00 0.000000e+00 9.454314e-01 5.456864e-02
 0.000000e+00 0.000000e+00 0.000000e+00 0.000000e+00 0.000000e+00
<ENDHMM>
~h "ng"
<BEGINHMM>
<NUMSTATES> 5
<STATE> 2
<MEAN> 25
 4.558988e-01 -7.058787e+00 -3.344777e+00 -3.801005e+00 1.693653e+00 1.079045e+00 -5.124026e+00 -6.351538e+00 2.236920e-01 -6.927662e-01 -5.379260e+00 -6.439599e+00 4.026861e-01 3.080715e-01 5.126725e-01 1.153310e-01 -3.184929e-01 1.755403e-01 -4.197144e-01 -2.764764e-01 5.817356e-02 6.021139e-02 1.208925e-01 1.999875e-01 -4.250639e-01
<VARIANCE> 25
 1.432063e+01 2.236189e+01 5.497782e+01 1.049612e+01 4.344552e+01 3.262783e+01 2.919808e+01 1.654449e+01 2.922995e+01 2.912304e+01 2.096012e+01 2.232947e+01 7.559116e-01 6.451793e-01 1.710882e+00 7.197146e-01 2.244696e+00 2.806944e+00 1.836740e+00 1.980233e+00 2.570338e+00 2.471809e+00 1.433638e+00 1.609574e+00 7.039972e-01
<GCONST> 8.936211e+01
<STATE> 3
<MEAN> 25
 5.585477e+00 -4.385667e-01 5.620004e+00 -2.179475e+00 -5.370784e+00 1.843390e+00 -8.110502e+00 -7.326261e+00 -1.323123e+00 -2.397906e+00 -3.945870e+00 -1.911707e+00 4.932783e-01 6.628749e-01 3.564539e-01 3.212351e-01 -1.703165e-01 2.202179e-01 2.178053e-01 -7.844028e-02 -3.018121e-01 6.278165e-02 2.210074e-02 3.839794e-01 -9.252676e-01
<VARIANCE> 25
 1.005494e+01 1.640192e+01 3.164280e+01 1.350139e+01 2.112988e+01 1.840292e+01 2.842021e+01 1.483522e+01 2.530029e+01 2.283466e+01 1.320979e+01 1.522493e+01 7.194334e-01 3.801705e-01 1.339811e+00 7.351258e-01 1.750630e+00 1.561052e+00 2.014721e+00 1.328855e+00 1.613418e+00 1.561867e+00 1.030654e+00 1.397030e+00 4.212901e-01
<GCONST> 8.188284e+01
<STATE> 4
<MEAN> 25
 4.849750e+00 3.415534e+00 3.691305e+00 2.718572e+00 -5.088271e-01 1.700422e+00 -1.171962e+00 -3.032744e+00 -1.917944e+00 -1.789999e-01 -9.327288e-01 5.901917e-01 -3.215665e-01 1.603016e-01 -3.934966e-01 4.395565e-01 7.200026e-01 -1.107733e-01 6.534237e-01 5.654550e-01 1.178666e-01 2.914448e-01 3.056006e-01 1.408413e-01 -6.881582e-01
<VARIANCE> 25
 2.228785e+01 1.382229e+01 1.795843e+01 1.848882e+01 3.735595e+01 1.456638e+01 3.805954e+01 4.570626e+01 1.655640e+01 2.125632e+01 1.519692e+01 1.243611e+01 1.004130e+00 9.793270e-01 7.989065e-01 9.175566e-01 1.496211e+00 1.121217e+00 1.722326e+00 2.243200e+00 1.369475e+00 1.282190e+00 1.058981e+00 1.277068e+00 1.006379e+00
<GCONST> 8.476105e+01
<TRANSP> 5
 0.000000e+00 1.000000e+00 0.000000e+00 0.000000e+00 0.000000e+00
 0.000000e+00 8.966383e-01 1.033617e-01 0.000000e+00 0.000000e+00
 0.000000e+00 0.000000e+00 7.801758e-01 2.198242e-01 0.000000e+00
 0.000000e+00 0.000000e+00 0.000000e+00 9.192122e-01 8.078781e-02
 0.000000e+00 0.000000e+00 0.000000e+00 0.000000e+00 0.000000e+00
<ENDHMM>
~h "ow"
<BEGINHMM>
<NUMSTATES> 5
<STATE> 2
<MEAN> 25
 3.850456e+00 -2.730675e+00 -2.034568e+00 -5.258914e+00 -2.851604e+00 -2.023883e+00 -1.407393e+00 -1.383578e+00 -1.820274e-01 5.947514e-01 1.578566e+00 1.485651e-01 1.781301e-01 7.504274e-02 -1.586525e-02 5.583654e-02 1.380896e-01 2.595172e-01 1.493747e-01 -1.695326e-02 -9.563883e-02 3.898789e-02 1.347863e-01 1.003933e-01 -2.780726e-01
<VARIANCE> 25
 1.105290e+01 2.087838e+01 8.779771e+00 3.840059e+01 2.762310e+01 3.058721e+01 3.789998e+01 2.696586e+01 1.814993e+01 2.141485e+01 1.478131e+01 1.574550e+01 5.618059e-01 6.073732e-01 4.770810e-01 9.963244e-01 1.143286e+00 1.703917e+00 1.613019e+00 1.703027e+00 1.570236e+00 1.425327e+00 1.212324e+00 1.139191e+00 1.039814e+00
<GCONST> 8.331619e+01
<STATE> 3
<MEAN> 25
 5.474825e+00 7.698724e-02 -1.249742e+00 -2.386223e+00 -5.975240e-01 1.219692e+00 -6.787483e-01 -2.006280e+00 -8.669317e-01 8.469654e-01 1.786856e+00 8.792079e-01 -6.387995e-02 3.091468e-01 6.249462e-02 4.222313e-01 3.681289e-01 3.151091e-01 2.352070e-01 9.802523e-02 -7.106078e-03 4.774266e-02 3.258393e-02 8.813101e-02 -7.693204e-01
<VARIANCE> 25
 1.605416e+01 2.146779e+01 1.049461e+01 3.973978e+01 3.035147e+01 3.192266e+01 3.330827e+01 2.657489e+01 1.735380e+01 2.144662e+01 1.927281e+01 1.655784e+01 7.865664e-01 7.288604e-01 5.549959e-01 1.022090e+00 1.191946e+00 2.065527e+00 2.177034e+00 1.845389e+00 1.439660e+00 1.569777e+00 1.447430e+00 1.142308e+00 8.137121e-01
<GCONST> 8.544991e+01
<STATE> 4
<MEAN> 25
 1.514703e+00 1.410943e+00 -6.444843e-01 1.619993e+00 2.894805e+00 2.345029e+00 2.271020e+00 1.454363e+00 7.730322e-01 2.050970e+00 2.472900e+00 1.482530e+00 -1.124737e-01 -8.433787e-03 -1.418530e-02 6.957483e-02 6.893755e-02 -3.051110e-02 3.208195e-02 1.053211e-01 5.456364e-02 5.521222e-02 1.939909e-02 -1.320915e-02 -8.505843e-02
<VARIANCE> 25
 1.284689e+01 1.108925e+01 7.290456e+00 3.653194e+01 2.938653e+01 2.200012e+01 2.085150e+01 2.431602e+01 2.068318e+01 1.996539e+01 1.407201e+01 1.391803e+01 4.798833e-01 5.242803e-01 5.037199e-01 1.133135e+00 1.186864e+00 1.540743e+00 1.384722e+00 1.627355e+00 1.733608e+00 1.497669e+00 1.345851e+00 1.282908e+00 8.913549e-01
<GCONST> 8.135219e+01
<TRANSP> 5
 0.000000e+00 1.000000e+00 0.000000e+00 0.000000e+00 0.000000e+00
 0.000000e+00 9.047752e-01 9.522477e-02 0.000000e+00 0.000000e+00
 0.000000e+00 0.000000e+00 8.658338e-01 1.341662e-01 0.000000e+00
 0.000000e+00 0.000000e+00 0.000000e+00 9.741766e-01 2.582334e-02
 0.000000e+00 0.000000e+00 0.000000e+00 0.000000e+00 0.000000e+00
<ENDHMM>
~h "oy"
<BEGINHMM>
<NUMSTATES> 5
<STATE> 2
<MEAN> 25
 -1.610253e+00 1.961200e+00 1.556399e+00 3.982107e+00 5.632085e+00 4.304991e+00 3.838967e+00 4.133783e+00 3.419535e+00 1.938425e+00 1.704824e+00 -2.473319e-01 1.574978e-01 -1.568268e-01 -4.662599e-02 6.701306e-02 -9.228371e-02 1.754375e-01 1.529957e-01 -4.810302e-02 2.014368e-01 1.892602e-01 4.527903e-02 9.034752e-02 -1.968094e-01
<VARIANCE> 25
 3.091881e+01 1.306796e+01 5.273474e+00 1.896641e+01 1.524117e+01 1.676072e+01 2.102636e+01 2.070361e+01 1.840670e+01 2.741255e+01 1.396948e+01 1.236018e+01 5.207709e-01 5.230977e-01 5.242819e-01 9.765054e-01 9.645527e-01 1.459646e+00 1.299260e+00 1.816683e+00 1.412716e+00 1.707348e+00 1.501286e+00 1.227650e+00 3.097723e-01
<GCONST> 7.909895e+01
<STATE> 3
<MEAN> 25
 6.938002e-02 -4.249300e-02 -1.061351e-02 2.979059e+00 2.487660e+00 3.746618e+00 2.358980e+00 2.536497e+00 3.175398e+00 1.279217e+00 1.760562e+00 1.762850e+00 -1.777328e-01 -1.907189e-02 -3.229970e-01 -3.922041e-01 -1.810070e-01 -2.028141e-01 -3.673211e-01 4.259605e-02 -1.414575e-01 -1.873749e-01 1.240935e-01 8.065119e-02 5.687349e-01
<VARIANCE> 25
 2.100751e+01 1.068510e+01 1.220904e+01 3.857105e+01 2.839993e+01 4.059631e+01 3.486369e+01 1.958580e+01 2.132201e+01 2.394027e+01 1.329972e+01 1.160635e+01 1.218995e+00 5.133183e-01 1.201638e+00 2.066466e+00 1.088994e+00 3.129800e+00 3.014108e+00 1.563364e+00 2.762543e+00 2.137785e+00 1.910758e+00 1.077034e+00 1.403586e+00
<GCONST> 8.841997e+01
<STATE> 4
<MEAN> 25
 2.989755e+00 -4.644274e+00 -1.880809e+00 -5.712263e+00 -6.873952e+00 -4.616784e+00 -4.673815e+00 -3.442494e+00 1.852869e-01 -7.979336e-01 4.536261e-01 2.155153e-01 1.259369e-01 -3.496565e-02 1.944435e-01 5.887718e-03 -3.270378e-01 -1.884696e-01 -2.270047e-01 -3.581682e-01 -1.801663e-01 7.632638e-02 2.440854e-02 -9.545071e-02 2.076077e-01
<VARIANCE> 25
 2.713327e+01 1.734701e+01 1.585090e+01 3.357913e+01 4.163380e+01 3.841984e+01 3.258378e+01 3.082562e+01 3.042759e+01 2.703171e+01 1.590218e+01 2.430614e+01 1.935490e+00 1.046658e+00 1.541818e+00 2.232162e+00 1.847390e+00 2.748740e+00 2.330197e+00 1.797115e+00 4.042232e+00 2.679270e+00 2.053585e+00 2.028116e+00 1.585145e+00
<GCONST> 9.460610e+01
<TRANSP> 5
 0.000000e+00 1.000000e+00 0.000000e+00 0.000000e+00 0.000000e+00
 0.000000e+00 9.522673e-01 4.773269e-02 0.000000e+00 0.000000e+00
 0.000000e+00 0.000000e+00 8.020226e-01 1.979773e-01 0.000000e+00
 0.000000e+00 0.000000e+00 0.000000e+00 9.484767e-01 5.152334e-02
 0.000000e+00 0.000000e+00 0.000000e+00 0.000000e+00 0.000000e+00
<ENDHMM>
~h "sh"
<BEGINHMM>
<NUMSTATES> 5
<STATE> 2
<MEAN> 25
 -1.899729e+00 -2.111782e+00 9.412802e+00 -3.120257e+00 -8.075404e+00 -7.355324e+00 1.668540e+00 4.361214e+00 -3.606936e+00 -4.513282e-01 2.175576e+00 2.941105e+00 -7.394375e-01 3.756150e-01 4.960707e-01 2.900917e-01 4.767797e-02 5.240586e-01 -4.072352e-02 1.084621e-01 -6.075071e-02 -2.482956e-01 1.181513e-01 1.507626e-02 -1.847462e-01
<VARIANCE> 25
 8.476555e+01 3.263475e+01 4.259576e+01 2.167553e+01 3.839946e+01 6.642065e+01 3.256020e+01 4.486026e+01 3.692377e+01 3.125012e+01 2.319123e+01 3.208316e+01 2.396736e+00 1.132477e+00 1.665905e+00 1.607017e+00 2.543746e+00 3.194471e+00 2.404136e+00 2.248401e+00 3.185877e+00 1.684300e+00 1.918949e+00 1.704075e+00 2.018713e+00
<GCONST> 9.882688e+01
<STATE> 3
<MEAN> 25
 -8.592455e+00 -9.326195e-01 1.137937e+01 -3.800258e-02 -6.693202e+00 -4.132456e+00 1.926026e+00 3.850912e+00 -1.125315e+00 -2.313259e+00 1.939356e+00 2.223445e+00 -5.248797e-01 -9.281141e-02 -8.590842e-02 2.998458e-01 5.350734e-02 3.021397e-01 -4.220413e-02 -6.501891e-02 4.664652e-01 -2.099223e-01 -2.015034e-01 -6.799628e-03 -3.122510e-01
<VARIANCE> 25
 9.093851e+01 2.222114e+01 5.418092e+01 2.419766e+01 3.173490e+01 5.303626e+01 2.392246e+01 2.576075e+01 3.951514e+01 3.663799e+01 2.689738e+01 2.396705e+01 4.267138e+00 1.140969e+00 1.847429e+00 1.491199e+00 2.374367e+00 2.935555e+00 2.608522e+00 2.280401e+00 2.758292e+00 2.307140e+00 2.536016e+00 1.863870e+00 1.510521e+00
<GCONST> 9.847256e+01
<STATE> 4
<MEAN> 25
 -8.863082e+00 -2.557916e+00 3.748184e+00 2.121103e+00 -2.638750e+00 3.790258e-01 1.638463e+00 3.008853e+00 2.882352e+00 -1.204158e+00 -5.368245e-01 1.306588e+00 3.479137e-01 -1.575536e-01 -5.189679e-01 4.479234e-02 1.781679e-01 1.855514e-01 -1.135543e-01 -9.989326e-02 2.068142e-01 6.954182e-02 -2.760903e-01 -1.169737e-01 -4.726374e-01
<VARIANCE> 25
 6.101389e+01 2.044480e+01 9.464848e+01 1.689919e+01 4.855864e+01 5.009150e+01 2.524330e+01 2.541808e+01 2.668127e+01 3.425945e+01 3.092618e+01 2.106583e+01 2.464673e+00 8.760015e-01 1.571751e+00 1.244635e+00 1.742105e+00 2.233016e+00 2.123022e+00 1.985226e+00 2.029810e+00 2.218825e+00 2.022207e+00 1.660939e+00 1.392299e+00
<GCONST> 9.529619e+01
<TRANSP> 5
 0.000000e+00 1.000000e+00 0.000000e+00 0.000000e+00 0.000000e+00
 0.000000e+00 8.274788e-01 1.725212e-01 0.000000e+00 0.000000e+00
 0.000000e+00 0.000000e+00 8.553833e-01 1.446167e-01 0.000000e+00
 0.000000e+00 0.000000e+00 0.000000e+00 9.367365e-01 6.326346e-02
 0.000000e+00 0.000000e+00 0.000000e+00 0.000000e+00 0.000000e+00
<ENDHMM>
~h "th"
<BEGINHMM>
<NUMSTATES> 5
<STATE> 2
<MEAN> 25
 1.950193e+00 1.921848e+00 -1.086976e+00 7.081606e-01 1.012050e-01 1.385888e+00 -2.186934e+00 -1.088953e+00 -2.883744e+00 -2.054801e+00 8.659046e-01 -6.204531e-01 -3.228194e-01 2.846075e-01 -3.490889e-02 2.381330e-01 3.972504e-01 2.379415e-02 3.040299e-01 1.971979e-01 -2.421560e-01 -1.941653e-01 2.143183e-02 1.779275e-01 -4.291365e-01
<VARIANCE> 25
 2.825303e+01 1.540328e+01 1.651257e+01 1.932237e+01 3.746302e+01 1.512770e+01 5.995549e+01 7.767690e+01 2.711428e+01 2.949280e+01 2.297571e+01 2.143644e+01 2.082368e+00 1.342790e+00 7.650300e-01 8.814457e-01 1.263669e+00 1.568046e+00 1.450418e+00 1.606054e+00 2.433013e+00 2.096236e+00 1.809787e+00 1.547512e+00 6.613871e-01
<GCONST> 8.986729e+01
<STATE> 3
<MEAN> 25
 7.575081e-01 2.508918e+00 -7.061431e-01 2.690232e+00 2.533674e+00 2.145556e+00 8.406620e-01 9.183763e-01 -2.435980e+00 -8.576351e-01 1.393501e+00 7.122777e-01 -1.757297e-01 1.065606e-01 2.068466e-01 2.258951e-01 1.880235e-01 4.771989e-02 3.540104e-01 3.017137e-01 8.364187e-02 4.025961e-02 1.010775e-01 1.502106e-01 -3.785943e-01
<VARIANCE> 25
 3.225599e+01 1.462122e+01 1.593141e+01 1.522472e+01 2.520580e+01 1.569177e+01 3.764249e+01 6.556675e+01 3.019174e+01 2.838937e+01 1.964526e+01 1.706429e+01 1.333247e+00 6.346779e-01 6.126316e-01 9.455047e-01 1.269263e+00 1.542964e+00 1.475706e+00 2.074335e+00 2.146858e+00 1.779769e+00 1.667343e+00 1.680314e+00 6.069419e-01
<GCONST> 8.690340e+01
<STATE> 4
<MEAN> 25
 4.138282e-01 2.495024e+00 4.132813e-01 4.130927e+00 4.865909e+00 2.758036e+00 3.492778e+00 2.620809e+00 6.598589e-01 2.164998e+00 2.985569e+00 1.199192e+00 -5.639238e-02 -4.838258e-03 3.523010e-02 -3.335402e-02 5.731217e-02 1.482628e-02 1.423302e-02 1.082247e-01 1.300862e-01 6.719086e-02 1.744753e-02 -1.892366e-02 -4.901638e-02
<VARIANCE> 25
 1.120456e+01 8.127332e+00 8.565969e+00 7.858391e+00 1.295099e+01 1.333876e+01 1.574372e+01 2.372685e+01 2.417892e+01 1.941637e+01 1.427913e+01 1.152988e+01 7.554998e-01 3.331609e-01 4.264406e-01 7.063452e-01 1.112090e+00 1.254466e+00 1.441233e+00 1.613267e+00 1.853525e+00 1.492272e+00 1.086918e+00 1.131422e+00 3.315145e-01
<GCONST> 7.571550e+01
<TRANSP> 5
 0.000000e+00 1.000000e+00 0.000000e+00 0.000000e+00 0.000000e+00
 0.000000e+00 7.063159e-01 2.936842e-01 0.000000e+00 0.000000e+00
 0.000000e+00 0.000000e+00 6.872928e-01 3.127072e-01 0.000000e+00
 0.000000e+00 0.000000e+00 0.000000e+00 9.442464e-01 5.575366e-02
 0.000000e+00 0.000000e+00 0.000000e+00 0.000000e+00 0.000000e+00
<ENDHMM>
~h "uh"
<BEGINHMM>
<NUMSTATES> 5
<STATE> 2
<MEAN> 25
 4.777814e+00 1.680746e+00 3.556575e-01 -1.246547e+00 -2.491671e+00 -2.855883e+00 -6.080207e+00 -8.391105e+00 -6.971116e+00 -2.813522e+00 1.728681e+00 -2.547453e-01 -1.413004e-01 4.135770e-01 2.851588e-01 1.854369e-01 1.781168e-01 -1.989600e-01 3.836373e-01 3.425401e-01 3.497912e-01 -5.207636e-03 -1.568031e-01 2.795730e-01 -7.324541e-01
<VARIANCE> 25
 1.157357e+01 3.068781e+01 2.718128e+01 2.484163e+01 2.915639e+01 5.008438e+01 4.165243e+01 2.607097e+01 2.390420e+01 9.937054e+00 1.504689e+01 1.606471e+01 5.001622e-01 4.563240e-01 8.931522e-01 9.264697e-01 1.958604e+00 1.862759e+00 1.604137e+00 1.610205e+00 1.995443e+00 8.385174e-01 1.659539e+00 1.856682e+00 8.364472e-01
<GCONST> 8.560725e+01
<STATE> 3
<MEAN> 25
 3.010950e+00 2.351549e+00 2.167574e+00 -5.438188e-01 -1.425318e+00 3.101254e-01 -5.824941e-01 -3.075906e+00 -3.454712e+00 -2.270680e+00 -9.427237e-02 -4.862012e-02 -2.828171e-01 7.963540e-02 1.535237e-03 1.221918e-01 -4.633727e-02 -4.083250e-01 6.010703e-01 1.162128e+00 7.084040e-01 2.873416e-01 -2.565519e-01 -1.439157e-01 -4.446399e-01
<VARIANCE> 25
 1.418697e+01 2.462330e+01 3.506205e+01 3.219572e+01 3.239270e+01 3.581665e+01 4.466445e+01 3.651231e+01 2.248688e+01 1.468440e+01 1.243055e+01 1.814340e+01 7.084250e-01 7.517605e-01 7.025157e-01 9.106902e-01 1.559269e+00 2.141261e+00 2.335578e+00 2.442018e+00 1.525287e+00 1.008546e+00 1.523100e+00 1.399113e+00 5.399871e-01
<GCONST> 8.694431e+01
<STATE> 4
<MEAN> 25
 -1.248594e+00 1.669890e+00 1.158781e+00 2.680990e+00 3.032365e+00 8.875460e-01 2.915478e+00 3.781995e+00 2.569371e+00 4.073650e+00 2.675084e+00 6.473204e-01 -5.409569e-02 -1.652035e-02 -5.658973e-03 6.818876e-02 6.695541e-02 -4.390075e-02 4.503443e-02 1.201147e-01 6.261492e-02 7.354610e-02 2.949696e-02 -5.985374e-02 -5.151181e-02
<VARIANCE> 25
 6.810324e+00 6.445479e+00 1.031158e+01 9.081985e+00 1.418762e+01 1.173006e+01 1.595246e+01 1.556704e+01 1.731551e+01 1.921588e+01 1.659611e+01 1.183820e+01 5.039577e-01 4.507656e-01 3.985751e-01 5.845066e-01 9.554766e-01 8.598354e-01 1.376851e+00 1.611684e+00 1.376662e+00 1.640982e+00 1.350275e+00 1.213003e+00 2.840846e-01
<GCONST> 7.369691e+01
<TRANSP> 5
 0.000000e+00 1.000000e+00 0.000000e+00 0.000000e+00 0.000000e+00
 0.000000e+00 8.048794e-01 1.951205e-01 0.000000e+00 0.000000e+00
 0.000000e+00 0.000000e+00 6.003199e-01 3.996801e-01 0.000000e+00
 0.000000e+00 0.000000e+00 0.000000e+00 9.608518e-01 3.914809e-02
 0.000000e+00 0.000000e+00 0.000000e+00 0.000000e+00 0.000000e+00
<ENDHMM>
~h "uw"
<BEGINHMM>
<NUMSTATES> 5
<STATE> 2
<MEAN> 25
 4.366916e+00 1.211304e+00 -4.811880e-01 -7.148811e-01 -3.820872e+00 -9.536588e-01 -7.630895e+00 -7.014267e+00 -6.442830e+00 -3.422154e+00 8.801674e-01 -3.915484e-01 7.958193e-02 8.636574e-02 -4.383086e-02 4.584967e-02 -5.537268e-02 1.746581e-01 -1.483939e-02 -9.251109e-02 9.156357e-02 -9.759121e-02 -1.407004e-01 1.296355e-01 5.908692e-02
<VARIANCE> 25
 3.658961e+01 1.846771e+01 2.608178e+01 4.157933e+01 4.345578e+01 5.797309e+01 3.606861e+01 6.786858e+01 4.661209e+01 5.169292e+01 3.037410e+01 2.253935e+01 1.800725e+00 1.205884e+00 1.350182e+00 1.664329e+00 2.822007e+00 2.900055e+00 2.560358e+00 3.661076e+00 3.134826e+00 2.341147e+00 1.976116e+00 1.975807e+00 2.019703e+00
<GCONST> 9.938573e+01
<STATE> 3
<MEAN> 25
 3.566386e+00 1.603310e+00 -7.131268e-03 -2.113908e-01 -3.180677e+00 -1.718280e-01 -6.509673e+00 -5.868887e+00 -4.732608e+00 -2.636475e+00 5.927330e-01 2.163248e-01 -2.143990e-01 2.247733e-02 4.325172e-02 1.137139e-01 1.024808e-01 -1.049980e-01 3.583818e-02 1.934420e-01 2.590874e-01 8.690493e-03 -2.093808e-01 1.327518e-01 -4.003676e-02
<VARIANCE> 25
 5.141386e+01 2.331448e+01 3.006208e+01 4.676265e+01 4.610981e+01 7.256966e+01 4.069641e+01 8.027270e+01 4.474953e+01 3.845848e+01 3.000025e+01 2.897328e+01 1.947259e+00 1.532753e+00 1.648708e+00 1.640356e+00 2.724462e+00 3.100693e+00 2.658871e+00 3.355128e+00 2.557755e+00 2.467138e+00 2.037380e+00 2.215833e+00 2.327093e+00
<GCONST> 1.013144e+02
<STATE> 4
<MEAN> 25
 1.848951e+00 1.193151e+00 -1.400891e+00 9.671304e-01 -8.376998e-01 6.634403e-01 -4.752855e+00 -4.012269e+00 -2.584229e+00 -1.722551e+00 -8.495449e-01 4.422785e-01 -2.748896e-01 -5.293893e-02 9.661521e-03 3.536168e-03 2.338345e-01 -1.416758e-02 1.774699e-01 3.714333e-01 2.665990e-01 1.090488e-01 -9.536982e-02 2.903347e-02 -1.585188e-01
<VARIANCE> 25
 4.979988e+01 2.587117e+01 3.906203e+01 4.372777e+01 4.413498e+01 6.522276e+01 4.165166e+01 6.679306e+01 4.868726e+01 2.964671e+01 3.147133e+01 2.531296e+01 1.522730e+00 1.256018e+00 1.481541e+00 1.419280e+00 2.205604e+00 2.725523e+00 2.353823e+00 2.678946e+00 1.940840e+00 2.503721e+00 1.703740e+00 1.940150e+00 1.372158e+00
<GCONST> 9.852204e+01
<TRANSP> 5
 0.000000e+00 1.000000e+00 0.000000e+00 0.000000e+00 0.000000e+00
 0.000000e+00 6.852881e-01 3.147120e-01 0.000000e+00 0.000000e+00
 0.000000e+00 0.000000e+00 5.904191e-01 4.095809e-01 0.000000e+00
 0.000000e+00 0.000000e+00 0.000000e+00 7.083963e-01 2.916037e-01
 0.000000e+00 0.000000e+00 0.000000e+00 0.000000e+00 0.000000e+00
<ENDHMM>
~h "zh"
<BEGINHMM>
<NUMSTATES> 5
<STATE> 2
<MEAN> 25
 -5.060477e+00 -6.875865e-03 2.440172e+00 -3.681798e+00 -5.850023e+00 -3.417683e+00 -2.008603e+00 -4.264453e+00 -2.324573e+00 -3.468331e+00 -7.593906e-01 7.482150e-01 -6.776803e-02 4.587132e-02 -7.700210e-03 -3.450834e-02 5.612124e-02 1.627720e-01 -1.552864e-01 -1.735812e-01 6.160196e-02 -4.661379e-02 -2.194223e-01 9.560631e-03 9.819362e-03
<VARIANCE> 25
 1.988778e+01 1.403453e+01 1.516605e+01 1.843062e+01 3.105093e+01 2.958885e+01 2.530076e+01 3.872749e+01 2.340889e+01 2.974850e+01 2.054084e+01 2.244343e+01 7.395701e-01 8.892379e-01 1.083811e+00 9.526899e-01 1.402119e+00 1.496576e+00 1.825697e+00 2.141428e+00 1.810732e+00 1.717364e+00 1.750221e+00 2.503359e+00 1.967128e-01
<GCONST> 8.630476e+01
<STATE> 3
<MEAN> 25
 -4.257740e+00 -5.279096e-01 2.214236e+00 -2.899890e+00 -4.928171e+00 -3.069804e+00 -2.188304e+00 -2.961917e+00 -1.255811e+00 -3.252871e+00 -1.861803e+00 9.348904e-01 2.278778e-01 -2.050582e-01 -2.020849e-01 1.606625e-02 8.002675e-02 3.506404e-02 -3.848068e-02 1.626020e-01 3.005237e-01 3.015477e-01 -6.598351e-02 -5.259598e-02 -1.546733e-01
<VARIANCE> 25
 3.328271e+01 1.930012e+01 2.043595e+01 1.437091e+01 2.505543e+01 2.764533e+01 2.455440e+01 3.620215e+01 2.796769e+01 3.154313e+01 1.624685e+01 2.233842e+01 7.589991e-01 7.819012e-01 8.612114e-01 9.142252e-01 1.339604e+00 1.502239e+00 1.358489e+00 1.801015e+00 1.505784e+00 1.562032e+00 1.721345e+00 2.414301e+00 3.235190e-01
<GCONST> 8.608625e+01
<STATE> 4
<MEAN> 25
 1.506999e+00 -4.274062e-01 -3.508494e+00 9.274015e-01 3.446266e+00 2.605576e+00 1.810995e+00 2.592591e+00 3.049316e+00 3.295287e+00 5.794694e-01 -4.554745e-01 6.593174e-02 1.004142e-01 -5.800611e-02 7.360634e-02 2.309500e-01 2.079678e-01 1.163547e-01 8.854016e-02 -6.913612e-02 1.045550e-01 1.697599e-01 -6.622897e-03 -3.780287e-01
<VARIANCE> 25
 2.992251e+01 1.640294e+01 1.634834e+01 1.884901e+01 4.408092e+01 3.449884e+01 3.010955e+01 3.310292e+01 2.150923e+01 2.449496e+01 2.556656e+01 1.467294e+01 6.216474e-01 6.217681e-01 6.381956e-01 8.431561e-01 1.212667e+00 1.430559e+00 1.329956e+00 1.531178e+00 1.593393e+00 1.543483e+00 1.610094e+00 1.217886e+00 4.090643e-01
<GCONST> 8.467048e+01
<TRANSP> 5
 0.000000e+00 1.000000e+00 0.000000e+00 0.000000e+00 0.000000e+00
 0.000000e+00 8.684379e-01 1.315622e-01 0.000000e+00 0.000000e+00
 0.000000e+00 0.000000e+00 8.632187e-01 1.367812e-01 0.000000e+00
 0.000000e+00 0.000000e+00 0.000000e+00 9.564142e-01 4.358581e-02
 0.000000e+00 0.000000e+00 0.000000e+00 0.000000e+00 0.000000e+00
<ENDHMM>
~h "sil"
<BEGINHMM>
<NUMSTATES> 5
<STATE> 2
<MEAN> 25
 -1.561432e+00 2.097275e+00 -2.489693e-02 4.458376e+00 5.894420e+00 2.872042e+00 4.368635e+00 4.503410e+00 2.732571e+00 2.841374e+00 1.762272e+00 1.366990e+00 -5.116829e-02 3.897624e-02 3.211499e-03 -8.770857e-02 -6.219024e-02 -2.994056e-02 -2.983264e-02 -4.194561e-02 -2.167497e-01 -6.844367e-02 1.317960e-02 -1.411676e-01 1.458499e-01
<VARIANCE> 25
