~o
<STREAMINFO> 1 25
<VECSIZE> 25<NULLD><MFCC_D_N_Z_0><DIAGC>
~h "b"
<BEGINHMM>
<NUMSTATES> 5
<STATE> 2
<MEAN> 25
 3.390922e+00 -4.690648e-01 -2.296664e+00 -1.346745e+00 1.084155e+00 1.427018e+00 5.520208e-01 -2.219077e+00 -1.199571e+00 7.342368e-01 -1.677380e+00 -3.392379e+00 5.938979e-02 -6.880470e-01 -4.389074e-01 -8.807005e-01 -4.887281e-01 -2.537896e-01 -3.111267e-01 -5.521114e-01 -2.523209e-01 -1.640933e-01 -4.383987e-01 -4.500074e-01 1.376775e+00
<VARIANCE> 25
 2.111494e+01 4.351755e+01 1.757203e+01 4.619621e+01 2.841687e+01 4.185518e+01 3.617012e+01 3.913173e+01 3.013552e+01 2.560261e+01 3.429866e+01 3.366916e+01 2.096358e+00 3.119162e+00 1.304289e+00 2.995663e+00 1.916571e+00 3.085668e+00 2.833473e+00 2.827062e+00 2.872279e+00 2.841941e+00 2.973176e+00 2.684744e+00 5.667468e+00
<GCONST> 1.005159e+02
<STATE> 3
<MEAN> 25
 2.642709e+00 -4.368922e+00 -4.306676e+00 -5.523658e+00 -7.085244e-01 1.805115e+00 -4.392712e-01 -4.622193e+00 -1.548894e+00 1.575053e-01 -3.349805e+00 -4.947537e+00 -1.190921e-01 -3.164386e-01 -1.297803e-01 -2.681570e-01 -2.322010e-01 -1.041755e-01 -8.393252e-02 -5.470086e-02 4.917445e-02 -1.137000e-01 -4.807954e-02 3.169632e-02 3.968593e-01
<VARIANCE> 25
 2.169580e+01 3.305691e+01 1.931044e+01 3.509122e+01 2.294991e+01 4.851733e+01 3.369885e+01 3.356775e+01 2.970219e+01 2.827924e+01 3.168139e+01 3.351868e+01 1.521573e+00 2.200141e+00 1.051186e+00 2.101784e+00 1.785546e+00 3.314828e+00 2.461166e+00 2.585963e+00 2.614490e+00 2.569364e+00 2.483109e+00 2.302633e+00 3.741856e+00
<GCONST> 9.738600e+01
<STATE> 4
<MEAN> 25
 3.963263e+00 -3.407538e+00 -2.767120e+00 -4.362587e+00 -2.432606e+00 -3.134063e-01 -2.627892e+00 -4.784012e+00 -2.315944e+00 -1.100898e+00 -1.740391e+00 -2.360304e+00 -1.091635e-01 1.346660e-01 1.336679e-01 1.819415e-01 -1.708778e-01 -1.282130e-01 -1.814310e-04 1.513556e-01 -6.629787e-02 -5.832823e-02 2.579886e-01 2.929376e-01 -1.911843e-01
<VARIANCE> 25
 2.233794e+01 2.381190e+01 1.880834e+01 2.866268e+01 2.704973e+01 5.612795e+01 3.691142e+01 3.821405e+01 4.211417e+01 3.147157e+01 3.902951e+01 2.695878e+01 1.361115e+00 1.730119e+00 9.657486e-01 1.806084e+00 1.739249e+00 3.292466e+00 2.270212e+00 2.632216e+00 3.088588e+00 2.463400e+00 2.865061e+00 2.317256e+00 2.435045e+00
<GCONST> 9.699621e+01
<TRANSP> 5
 0.000000e+00 1.000000e+00 0.000000e+00 0.000000e+00 0.000000e+00
 0.000000e+00 8.007963e-01 1.992038e-01 0.000000e+00 0.000000e+00
 0.000000e+00 0.000000e+00 7.692087e-01 2.307913e-01 0.000000e+00
 0.000000e+00 0.000000e+00 0.000000e+00 8.048760e-01 1.951240e-01
 0.000000e+00 0.000000e+00 0.000000e+00 0.000000e+00 0.000000e+00
<ENDHMM>
~h "d"
<BEGINHMM>
<NUMSTATES> 5
<STATE> 2
<MEAN> 25
 7.525644e-01 -1.536655e+00 -1.617381e+00 -1.297636e+00 5.869679e-01 -1.392807e-01 -4.772218e-01 -3.942951e-01 8.783702e-01 1.796098e-01 -2.442016e+00 -1.889237e+00 -2.146105e-01 -4.236650e-01 -4.959985e-01 -3.836865e-01 -1.713071e-01 -1.367270e-01 -1.773397e-01 -2.223587e-01 -4.144711e-02 -3.042116e-02 -7.133632e-02 1.295776e-01 7.806180e-01
<VARIANCE> 25
 1.208629e+01 3.114865e+01 2.627016e+01 4.915304e+01 3.791260e+01 4.387147e+01 4.803675e+01 3.535713e+01 2.176164e+01 2.915369e+01 3.510682e+01 2.770103e+01 1.052736e+00 1.887773e+00 1.565886e+00 1.922352e+00 2.747153e+00 4.339395e+00 3.109089e+00 2.006474e+00 1.920691e+00 2.778268e+00 1.888764e+00 2.088608e+00 3.565881e+00
<GCONST> 9.764390e+01
<STATE> 3
<MEAN> 25
 -7.002357e-02 -3.092959e+00 -3.177141e+00 -2.399480e+00 5.308656e-01 6.962674e-01 -6.101841e-01 -7.343006e-01 1.250099e+00 6.168194e-01 -2.637872e+00 -1.553760e+00 -1.328679e-01 -5.897456e-02 -2.410863e-01 -8.871774e-02 2.441070e-02 8.826575e-02 -1.001443e-02 -1.161285e-01 -4.276285e-02 2.559508e-02 1.914578e-01 1.662387e-01 1.213183e-01
<VARIANCE> 25
 1.261609e+01 2.682667e+01 2.585525e+01 5.032405e+01 4.099990e+01 4.451174e+01 5.576776e+01 3.878191e+01 2.011888e+01 2.944349e+01 3.636674e+01 2.125172e+01 7.120660e-01 8.580863e-01 1.333222e+00 1.269295e+00 1.665857e+00 3.247351e+00 2.464527e+00 1.889476e+00 1.969394e+00 2.100646e+00 1.655123e+00 1.784731e+00 1.740921e+00
<GCONST> 9.348241e+01
<STATE> 4
<MEAN> 25
 4.954058e-01 -1.178885e+00 -1.857318e+00 -4.178957e-01 1.864966e+00 1.721334e+00 1.004508e+00 7.453589e-01 1.669867e+00 1.746528e+00 -2.510945e-01 -3.828380e-01 3.421751e-02 2.311633e-01 2.830486e-02 5.701285e-02 -2.110918e-03 -8.908223e-02 -8.763190e-02 -2.542206e-02 -1.993673e-01 -1.301957e-01 1.438643e-01 5.922882e-02 -8.952194e-02
<VARIANCE> 25
 1.352769e+01 2.210447e+01 1.865173e+01 4.930288e+01 4.869633e+01 4.978319e+01 5.606904e+01 4.155741e+01 2.118263e+01 3.394312e+01 3.111689e+01 1.959634e+01 7.178378e-01 6.885614e-01 1.033183e+00 1.167745e+00 1.569332e+00 2.483593e+00 2.184422e+00 1.604801e+00 1.958758e+00 2.775682e+00 1.733865e+00 1.682464e+00 1.109922e+00
<GCONST> 9.197514e+01
<TRANSP> 5
 0.000000e+00 1.000000e+00 0.000000e+00 0.000000e+00 0.000000e+00
 0.000000e+00 6.288745e-01 3.711255e-01 0.000000e+00 0.000000e+00
 0.000000e+00 0.000000e+00 5.796092e-01 4.203908e-01 0.000000e+00
 0.000000e+00 0.000000e+00 0.000000e+00 7.293705e-01 2.706296e-01
 0.000000e+00 0.000000e+00 0.000000e+00 0.000000e+00 0.000000e+00
<ENDHMM>
~h "f"
<BEGINHMM>
<NUMSTATES> 5
<STATE> 2
<MEAN> 25
 -1.253202e+00 8.964039e-01 -1.787972e+00 2.172000e+00 2.849699e+00 1.230985e+00 2.771993e+00 4.181127e+00 1.662067e+00 1.996860e+00 1.616547e+00 1.043981e+00 -2.545960e-02 -1.051467e-01 -6.190311e-02 -1.832231e-01 -4.867272e-02 -6.094417e-02 7.386872e-02 1.336208e-01 1.443620e-01 -4.824029e-02 4.027151e-02 8.583820e-02 1.552625e-01
<VARIANCE> 25
 1.677722e+01 1.175780e+01 1.114059e+01 3.136507e+01 2.655936e+01 2.297324e+01 1.672615e+01 2.082224e+01 1.908976e+01 2.007142e+01 1.348745e+01 1.017434e+01 1.382812e+00 7.960433e-01 9.678493e-01 1.569448e+00 1.590996e+00 1.536045e+00 1.610839e+00 2.036951e+00 2.089706e+00 1.816984e+00 1.158846e+00 1.086922e+00 8.197358e-01
<GCONST> 8.418658e+01
<STATE> 3
<MEAN> 25
 -1.880932e-01 -5.875450e-01 -2.128406e+00 -8.992059e-01 7.794512e-01 -1.196607e-01 2.605471e+00 3.923974e+00 1.808000e+00 8.090899e-01 9.418668e-01 7.690105e-01 4.793899e-02 -1.072002e-01 3.402493e-02 -1.294813e-01 3.452289e-02 1.134588e-02 1.227682e-01 2.712580e-02 7.787596e-02 5.113259e-02 4.128787e-02 -4.455969e-02 1.180905e-01
<VARIANCE> 25
 1.580887e+01 1.653166e+01 9.608860e+00 4.808702e+01 4.021819e+01 2.760516e+01 1.875599e+01 2.151087e+01 1.762042e+01 2.216381e+01 1.432908e+01 1.152549e+01 1.198131e+00 7.208493e-01 7.753894e-01 1.502154e+00 1.559200e+00 1.681728e+00 1.605319e+00 2.031762e+00 2.011358e+00 1.767755e+00 1.134729e+00 1.160997e+00 9.079000e-01
<GCONST> 8.533497e+01
<STATE> 4
<MEAN> 25
 -5.448968e-01 1.259348e-01 -1.944652e+00 1.785714e+00 3.252120e+00 1.995255e+00 3.447701e+00 4.026938e+00 2.225188e+00 2.314690e+00 1.574573e+00 5.809659e-01 3.841715e-02 -4.303437e-02 -2.249867e-02 -7.382116e-02 -6.865136e-02 6.177690e-04 -6.298109e-03 -4.269439e-02 -4.383950e-02 -2.822142e-02 -4.261269e-02 -3.686530e-02 1.388602e-01
<VARIANCE> 25
 1.731041e+01 1.054767e+01 9.199009e+00 2.831159e+01 2.346898e+01 1.801141e+01 1.570193e+01 1.684166e+01 1.528332e+01 1.623858e+01 1.308776e+01 1.118046e+01 1.133397e+00 5.334436e-01 6.769444e-01 1.461925e+00 1.286746e+00 1.457988e+00 1.413382e+00 1.921678e+00 1.629369e+00 1.471636e+00 1.205063e+00 1.082009e+00 1.027100e+00
<GCONST> 8.112225e+01
<TRANSP> 5
 0.000000e+00 1.000000e+00 0.000000e+00 0.000000e+00 0.000000e+00
 0.000000e+00 8.656436e-01 1.343564e-01 0.000000e+00 0.000000e+00
 0.000000e+00 0.000000e+00 8.196765e-01 1.803235e-01 0.000000e+00
 0.000000e+00 0.000000e+00 0.000000e+00 9.525396e-01 4.746039e-02
 0.000000e+00 0.000000e+00 0.000000e+00 0.000000e+00 0.000000e+00
<ENDHMM>
~h "g"
<BEGINHMM>
<NUMSTATES> 5
<STATE> 2
<MEAN> 25
 -8.458595e-01 1.618754e+00 1.809469e+00 1.030863e-01 1.079841e+00 -8.604293e-01 -2.688913e+00 -2.078739e-01 -3.254773e+00 -1.091030e-01 1.853781e+00 -9.009090e-01 -2.109555e-01 -4.333835e-01 2.577277e-01 -7.137739e-01 -1.329736e+00 -7.921772e-01 -1.299050e+00 -9.970520e-01 -4.248220e-01 -3.004974e-01 2.318127e-01 6.900862e-02 1.965664e+00
<VARIANCE> 25
 1.770629e+01 2.735553e+01 2.988584e+01 2.347130e+01 5.586085e+01 3.430575e+01 7.912000e+01 7.399012e+01 3.536445e+01 2.636989e+01 2.253620e+01 2.278976e+01 2.436846e+00 2.140987e+00 2.215912e+00 2.073461e+00 5.619465e+00 2.225232e+00 4.423907e+00 5.959142e+00 4.217674e+00 3.216399e+00 2.656138e+00 2.081481e+00 3.461711e+00
<GCONST> 1.025295e+02
<STATE> 3
<MEAN> 25
 -9.538900e-01 -5.351465e-01 2.758007e+00 -2.469788e+00 -5.252393e+00 -3.756227e+00 -6.359070e+00 -6.022788e+00 -3.721175e+00 -1.536430e+00 2.157544e+00 7.761849e-01 8.290760e-02 -5.178441e-01 1.146754e-01 -4.598758e-01 -1.223370e+00 -5.736063e-01 -6.274404e-01 -1.268375e+00 1.339085e-01 -1.810020e-01 3.545676e-02 2.774420e-01 1.298507e+00
<VARIANCE> 25
 1.413690e+01 2.010854e+01 4.118099e+01 1.681007e+01 5.289048e+01 2.774449e+01 5.329792e+01 7.735900e+01 3.726782e+01 2.591005e+01 2.273204e+01 2.591385e+01 1.227883e+00 1.435969e+00 2.563091e+00 2.189042e+00 4.637359e+00 1.997864e+00 4.731764e+00 5.587263e+00 3.755402e+00 3.692088e+00 1.802058e+00 1.993288e+00 4.008007e+00
<GCONST> 1.000930e+02
<STATE> 4
<MEAN> 25
 -4.918041e-01 -5.654842e-01 5.116344e+00 -1.047514e+00 -6.975549e+00 -2.800521e+00 -4.309545e+00 -5.407468e+00 -3.109621e+00 -1.958211e+00 6.283225e-01 4.432746e-01 8.147858e-02 -6.785519e-02 -1.530444e-01 -2.167079e-02 9.684241e-02 2.376505e-03 1.232540e-01 6.341395e-02 2.455016e-02 -4.766711e-02 -5.804904e-02 3.479985e-02 -8.212013e-03
<VARIANCE> 25
 1.841266e+01 1.674679e+01 4.549426e+01 2.044244e+01 5.303588e+01 4.189716e+01 3.886139e+01 5.651513e+01 3.814323e+01 3.136746e+01 2.176016e+01 2.150695e+01 1.898402e+00 1.309447e+00 3.207882e+00 1.793120e+00 4.370011e+00 3.381050e+00 3.307491e+00 4.895029e+00 3.177159e+00 3.112916e+00 1.704318e+00 2.124493e+00 3.402941e+00
<GCONST> 1.000901e+02
<TRANSP> 5
 0.000000e+00 1.000000e+00 0.000000e+00 0.000000e+00 0.000000e+00
 0.000000e+00 6.552503e-01 3.447497e-01 0.000000e+00 0.000000e+00
 0.000000e+00 0.000000e+00 7.240866e-01 2.759134e-01 0.000000e+00
 0.000000e+00 0.000000e+00 0.000000e+00 9.487079e-01 5.129211e-02
 0.000000e+00 0.000000e+00 0.000000e+00 0.000000e+00 0.000000e+00
<ENDHMM>
~h "k"
<BEGINHMM>
<NUMSTATES> 5
<STATE> 2
<MEAN> 25
 -2.907447e+00 -4.986533e-03 -2.856880e+00 1.620106e+00 1.926074e+00 7.395739e-01 6.848952e-01 3.986748e+00 -5.620316e-01 1.533740e+00 3.054238e+00 1.329769e+00 -1.795269e-01 -2.571930e-01 -1.909041e-01 -3.829076e-01 -2.743328e-01 -3.954902e-01 -6.689208e-01 -3.437017e-02 -1.640995e-01 -1.618458e-01 -8.272418e-02 -1.493603e-02 1.061976e+00
<VARIANCE> 25
 3.315335e+01 1.609973e+01 3.370007e+01 4.434069e+01 4.943316e+01 4.101556e+01 4.817321e+01 2.753060e+01 2.853609e+01 3.757684e+01 3.428359e+01 1.952792e+01 3.061495e+00 1.454667e+00 2.959912e+00 3.232764e+00 2.817506e+00 3.296291e+00 5.503726e+00 3.215175e+00 3.240003e+00 2.924598e+00 3.992027e+00 2.294088e+00 2.825419e+00
<GCONST> 1.021812e+02
<STATE> 3
<MEAN> 25
 -1.974600e+00 -6.589821e-01 -1.955203e+00 -2.066123e-01 -8.032893e-02 -7.094272e-01 -6.488171e-01 2.221129e+00 -1.127711e+00 6.049035e-01 1.220544e+00 9.562382e-01 1.796930e-01 -2.278321e-01 2.547206e-01 -4.934616e-01 -4.841194e-01 -4.072330e-01 -1.542601e-01 -5.151386e-01 -1.967978e-02 -2.463624e-01 -4.509653e-01 -8.302579e-02 8.474297e-01
<VARIANCE> 25
 3.640756e+01 1.729111e+01 3.330611e+01 4.739881e+01 5.474014e+01 4.420235e+01 4.095713e+01 3.430949e+01 2.578759e+01 4.061500e+01 3.492010e+01 2.161781e+01 3.050615e+00 1.439270e+00 2.428878e+00 2.960914e+00 2.767466e+00 3.248715e+00 3.879751e+00 3.242324e+00 2.742581e+00 2.850455e+00 3.792726e+00 2.387342e+00 2.820867e+00
<GCONST> 1.018535e+02
<STATE> 4
<MEAN> 25
 -2.577536e-01 -1.872214e+00 -1.080735e+00 -2.372328e+00 -2.325382e+00 -2.174429e+00 -1.103095e+00 -2.476106e-01 -7.136647e-01 1.082814e-01 -1.157971e-01 9.413627e-02 9.479158e-02 -1.647692e-01 1.131042e-01 -2.318483e-01 -2.977946e-01 -1.440869e-01 1.303590e-01 -2.471239e-01 1.401580e-01 -2.562475e-01 -1.685433e-01 -5.852791e-02 2.732500e-01
<VARIANCE> 25
 3.891191e+01 1.869368e+01 2.830710e+01 4.320672e+01 5.935496e+01 3.711913e+01 4.063454e+01 3.500022e+01 2.406306e+01 3.155775e+01 2.444597e+01 2.094715e+01 2.134257e+00 1.268828e+00 1.787573e+00 2.207258e+00 2.429573e+00 3.309551e+00 2.921167e+00 2.427922e+00 2.335661e+00 2.537759e+00 2.251515e+00 1.775271e+00 2.769053e+00
<GCONST> 9.807013e+01
<TRANSP> 5
 0.000000e+00 1.000000e+00 0.000000e+00 0.000000e+00 0.000000e+00
 0.000000e+00 6.935476e-01 3.064524e-01 0.000000e+00 0.000000e+00
 0.000000e+00 0.000000e+00 5.724435e-01 4.275564e-01 0.000000e+00
 0.000000e+00 0.000000e+00 0.000000e+00 6.781182e-01 3.218817e-01
 0.000000e+00 0.000000e+00 0.000000e+00 0.000000e+00 0.000000e+00
<ENDHMM>
~h "l"
<BEGINHMM>
<NUMSTATES> 5
<STATE> 2
<MEAN> 25
 3.182750e+00 -2.207156e+00 -2.070071e+00 -6.560620e+00 -3.606412e+00 -2.326520e+00 -3.708327e+00 -2.130139e+00 6.093478e-01 1.178398e+00 1.012327e+00 6.643501e-02 2.121899e-01 2.508138e-01 3.116151e-02 -8.080951e-03 9.846182e-02 2.942396e-01 -2.665502e-02 -9.449180e-02 -2.273373e-01 -3.566385e-02 2.387573e-01 2.092088e-01 -3.724154e-01
<VARIANCE> 25
 1.899310e+01 2.291536e+01 1.142395e+01 4.024998e+01 4.119580e+01 4.176998e+01 4.337229e+01 3.288685e+01 3.392226e+01 3.291632e+01 2.526894e+01 2.164275e+01 7.676963e-01 7.829450e-01 8.038546e-01 1.281310e+00 1.309791e+00 2.200488e+00 2.595136e+00 2.196781e+00 2.719186e+00 2.859496e+00 2.185407e+00 1.844383e+00 8.284890e-01
<GCONST> 9.176577e+01
<STATE> 3
<MEAN> 25
 3.976178e+00 -7.941541e-02 -1.509245e+00 -5.453204e+00 -2.510168e+00 -2.817110e-01 -3.100274e+00 -2.034438e+00 -4.014972e-01 4.173241e-01 1.666524e+00 8.571949e-01 2.598355e-02 3.798476e-01 1.040887e-01 3.147092e-01 2.003075e-01 3.015739e-01 2.001533e-01 1.703790e-02 -9.387131e-02 -9.903626e-02 8.408350e-02 1.202884e-01 -5.757629e-01
<VARIANCE> 25
 2.357855e+01 2.287709e+01 1.013570e+01 4.499133e+01 4.242527e+01 4.379088e+01 4.938936e+01 3.506061e+01 3.024362e+01 3.137536e+01 2.377190e+01 1.982262e+01 7.887260e-01 8.641177e-01 6.791068e-01 1.416674e+00 1.403636e+00 2.222836e+00 2.389172e+00 1.934799e+00 2.272267e+00 2.504719e+00 1.949235e+00 1.650312e+00 8.489274e-01
<GCONST> 9.134486e+01
<STATE> 4
<MEAN> 25
 5.888363e-01 1.846861e+00 -2.098524e-01 1.802071e+00 3.519425e+00 2.524482e+00 2.756670e+00 2.032860e+00 1.756825e+00 2.653094e+00 2.227134e+00 1.154940e+00 -1.466217e-01 4.977814e-02 5.360500e-02 2.493950e-01 1.281552e-01 1.229560e-02 1.635891e-01 1.325111e-01 4.890395e-02 4.772055e-02 -1.109058e-02 -1.442965e-02 -1.803378e-01
<VARIANCE> 25
 1.460771e+01 9.225427e+00 7.376843e+00 3.344825e+01 3.353382e+01 2.170708e+01 3.704659e+01 2.803639e+01 2.079145e+01 2.020601e+01 1.612218e+01 1.268654e+01 4.179983e-01 4.793718e-01 4.802281e-01 1.034687e+00 1.100141e+00 1.337234e+00 1.658868e+00 1.578877e+00 1.586043e+00 1.650081e+00 1.467993e+00 1.250586e+00 3.976451e-01
<GCONST> 8.094523e+01
<TRANSP> 5
 0.000000e+00 1.000000e+00 0.000000e+00 0.000000e+00 0.000000e+00
 0.000000e+00 7.230773e-01 2.769226e-01 0.000000e+00 0.000000e+00
 0.000000e+00 0.000000e+00 7.048553e-01 2.951448e-01 0.000000e+00
 0.000000e+00 0.000000e+00 0.000000e+00 9.160024e-01 8.399758e-02
 0.000000e+00 0.000000e+00 0.000000e+00 0.000000e+00 0.000000e+00
<ENDHMM>
~h "m"
<BEGINHMM>
<NUMSTATES> 5
<STATE> 2
<MEAN> 25
 2.927032e+00 -6.783867e-01 3.080656e+00 5.593458e-01 -3.635627e+00 -4.173354e+00 -6.333477e+00 -5.054376e+00 -3.762291e+00 -5.242677e+00 -1.169559e+00 2.535630e-01 -1.423589e-02 -3.860373e-01 4.673317e-02 -6.678211e-01 -8.325363e-01 -6.831495e-01 -7.781796e-01 -6.254372e-01 -3.994987e-01 -2.809111e-01 -2.122386e-02 -2.426520e-03 1.291512e+00
<VARIANCE> 25
 2.625265e+01 1.760882e+01 2.754559e+01 3.695360e+01 4.684058e+01 4.273125e+01 5.209911e+01 5.597598e+01 3.029321e+01 3.540692e+01 2.571115e+01 1.833578e+01 2.435448e+00 9.493206e-01 1.599446e+00 2.480856e+00 2.991134e+00 3.060988e+00 5.493916e+00 5.820136e+00 3.449251e+00 3.345635e+00 2.960014e+00 2.157944e+00 2.426410e+00
<GCONST> 1.008043e+02
<STATE> 3
<MEAN> 25
 1.633862e+00 -2.173059e+00 2.462662e+00 -2.401819e+00 -6.481438e+00 -5.828472e+00 -6.753371e+00 -6.001207e+00 -4.188689e+00 -5.388018e+00 -1.484300e+00 4.791523e-01 -2.610669e-01 -1.284035e-01 -8.308805e-02 -5.524490e-01 -4.474949e-01 -3.759793e-02 1.253814e-01 -5.616355e-02 7.432016e-03 2.047592e-01 1.455497e-01 -5.852233e-02 5.491444e-01
<VARIANCE> 25
 2.313457e+01 1.442259e+01 2.276608e+01 2.609566e+01 3.658438e+01 3.923069e+01 4.207747e+01 4.785467e+01 2.903752e+01 3.329691e+01 2.338016e+01 1.823372e+01 1.589205e+00 7.438598e-01 1.211789e+00 1.882827e+00 1.987424e+00 2.737027e+00 3.835098e+00 4.002230e+00 3.415991e+00 2.774575e+00 2.599360e+00 1.991014e+00 1.655423e+00
<GCONST> 9.576396e+01
<STATE> 4
<MEAN> 25
 7.871982e-01 -3.035302e-01 4.337091e+00 -3.029441e+00 -7.809977e+00 -3.497951e+00 -5.415222e+00 -6.414155e+00 -4.636915e+00 -5.920951e+00 -1.303440e+00 -3.445698e-01 2.970333e-02 9.021609e-02 6.116989e-02 2.238075e-02 1.068787e-01 2.764029e-01 1.765244e-01 9.750801e-02 1.377242e-01 2.538812e-01 5.199506e-02 -1.107459e-01 -2.198919e-01
<VARIANCE> 25
 2.852378e+01 1.954626e+01 3.642870e+01 2.332580e+01 3.179969e+01 4.026293e+01 3.221385e+01 4.197269e+01 2.429244e+01 3.597667e+01 2.130863e+01 2.242636e+01 8.557225e-01 6.799611e-01 1.211450e+00 1.494850e+00 1.601204e+00 1.880907e+00 1.997572e+00 2.606705e+00 2.324848e+00 2.420826e+00 1.892413e+00 1.793287e+00 7.774846e-01
<GCONST> 9.182487e+01
<TRANSP> 5
 0.000000e+00 1.000000e+00 0.000000e+00 0.000000e+00 0.000000e+00
 0.000000e+00 7.326711e-01 2.673288e-01 0.000000e+00 0.000000e+00
 0.000000e+00 0.000000e+00 6.861928e-01 3.138072e-01 0.000000e+00
 0.000000e+00 0.000000e+00 0.000000e+00 8.273298e-01 1.726702e-01
 0.000000e+00 0.000000e+00 0.000000e+00 0.000000e+00 0.000000e+00
<ENDHMM>
~h "n"
<BEGINHMM>
<NUMSTATES> 5
<STATE> 2
<MEAN> 25
 4.627517e+00 -9.425634e-02 3.910847e+00 3.410740e+00 -1.040552e+00 4.718228e-01 -2.568726e+00 -1.595173e+00 9.463943e-01 -2.029429e+00 -4.111681e+00 -3.997254e-01 2.422867e-01 4.334483e-01 3.213565e-01 5.684033e-01 3.420403e-01 3.391493e-01 2.018671e-01 -9.398088e-02 -1.275608e-01 -9.477300e-03 -9.232054e-02 1.215435e-01 -8.063278e-01
<VARIANCE> 25
 2.301259e+01 1.384747e+01 2.773681e+01 1.976903e+01 4.494976e+01 2.875769e+01 4.114763e+01 3.508375e+01 2.296798e+01 2.336800e+01 3.877394e+01 1.369026e+01 1.391107e+00 8.306441e-01 1.968215e+00 1.308284e+00 2.032654e+00 1.833528e+00 2.777800e+00 2.594607e+00 1.660331e+00 1.819475e+00 2.829903e+00 1.379843e+00 1.491463e+00
<GCONST> 9.226580e+01
<STATE> 3
<MEAN> 25
 4.366906e+00 1.269273e+00 3.437590e+00 4.554786e+00 1.225457e+00 1.550134e+00 -7.770786e-01 -7.870058e-01 7.895824e-01 -1.080018e+00 -3.024331e+00 -3.033872e-01 -2.547933e-01 3.054923e-01 -2.117419e-01 2.111765e-01 5.539010e-01 1.484993e-01 4.616789e-01 2.674797e-01 -4.598628e-02 2.748272e-01 3.466429e-01 1.634400e-02 -6.323114e-01
<VARIANCE> 25
 1.976070e+01 1.289664e+01 2.607812e+01 1.773641e+01 4.203684e+01 2.369738e+01 4.203062e+01 3.172700e+01 2.135857e+01 2.274081e+01 3.215854e+01 1.339023e+01 1.095804e+00 7.931423e-01 1.573351e+00 1.316788e+00 1.699970e+00 1.639388e+00 2.279590e+00 2.123860e+00 1.671618e+00 1.616165e+00 2.206873e+00 1.402586e+00 1.196085e+00
<GCONST> 8.946772e+01
<STATE> 4
<MEAN> 25
 9.915483e-01 1.774671e+00 2.262611e-01 4.483627e+00 5.735493e+00 3.476519e+00 3.650319e+00 2.728036e+00 1.886604e+00 2.436663e+00 1.143038e+00 3.979300e-01 -1.761466e-01 -1.005095e-02 -1.366412e-01 -5.206506e-02 9.817646e-02 -3.650904e-02 8.443119e-02 1.553772e-01 2.340681e-02 1.084601e-01 1.405760e-01 1.135934e-02 -5.548560e-02
<VARIANCE> 25
 1.029802e+01 6.922941e+00 1.411059e+01 1.084015e+01 2.261137e+01 1.558709e+01 2.532434e+01 2.259944e+01 1.668653e+01 2.021369e+01 2.252157e+01 1.223876e+01 5.373238e-01 5.269050e-01 9.626666e-01 1.010290e+00 1.339602e+00 1.220222e+00 1.700985e+00 1.900794e+00 1.693766e+00 1.608657e+00 1.674820e+00 1.241732e+00 6.363519e-01
<GCONST> 8.055630e+01
<TRANSP> 5
 0.000000e+00 1.000000e+00 0.000000e+00 0.000000e+00 0.000000e+00
 0.000000e+00 6.905674e-01 3.094327e-01 0.000000e+00 0.000000e+00
 0.000000e+00 0.000000e+00 6.914664e-01 3.085336e-01 0.000000e+00
 0.000000e+00 0.000000e+00 0.000000e+00 9.204556e-01 7.954442e-02
 0.000000e+00 0.000000e+00 0.000000e+00 0.000000e+00 0.000000e+00
<ENDHMM>
~h "p"
<BEGINHMM>
<NUMSTATES> 5
<STATE> 2
<MEAN> 25
 2.662776e+00 -4.201118e-01 -1.464179e+00 -1.348601e+00 -1.609489e+00 -1.682723e+00 -3.784408e+00 -3.449241e+00 -1.262054e+00 -6.378736e-01 -1.637598e-01 -5.826330e-01 4.740069e-02 -4.254816e-01 1.930244e-02 -4.382204e-01 -5.523189e-01 -6.909245e-01 -4.786876e-01 -4.621358e-01 -1.444837e-01 4.658696e-02 3.476468e-02 3.319143e-02 8.913124e-01
<VARIANCE> 25
 1.256609e+01 2.003819e+01 1.310750e+01 3.354001e+01 4.637239e+01 4.634822e+01 5.991895e+01 6.004221e+01 3.324562e+01 4.186044e+01 2.597443e+01 1.852084e+01 1.163912e+00 1.556691e+00 9.966967e-01 2.658226e+00 2.719072e+00 2.527407e+00 4.221284e+00 5.769866e+00 3.745993e+00 3.457363e+00 2.068440e+00 2.114072e+00 3.060237e+00
<GCONST> 9.868077e+01
<STATE> 3
<MEAN> 25
 2.532601e+00 -1.801987e+00 -1.162773e+00 -2.257627e+00 -3.014988e+00 -3.239862e+00 -4.111337e+00 -4.355020e+00 -8.509705e-01 3.288200e-02 -7.629584e-02 -8.031321e-01 -1.211083e-01 -3.287312e-01 1.237844e-02 -6.209292e-02 -2.438582e-01 -4.924002e-01 -7.424897e-04 1.129338e-01 2.168542e-01 2.470428e-01 1.104304e-01 9.306098e-02 3.554544e-01
<VARIANCE> 25
 1.033836e+01 2.067780e+01 1.368633e+01 3.344174e+01 4.434080e+01 4.630046e+01 5.828001e+01 5.072979e+01 3.659425e+01 3.874824e+01 3.085368e+01 1.996421e+01 8.467743e-01 1.318359e+00 8.318753e-01 2.086988e+00 1.984826e+00 2.023903e+00 2.771825e+00 4.085189e+00 3.204312e+00 2.923434e+00 2.197346e+00 2.075420e+00 2.082004e+00
<GCONST> 9.570421e+01
<STATE> 4
<MEAN> 25
 2.334306e+00 -1.848843e+00 -1.238170e+00 -1.221107e+00 -1.623912e+00 -3.081707e+00 -3.165618e+00 -2.437579e+00 9.139494e-01 1.120758e+00 7.954757e-01 -3.847270e-01 -6.146566e-02 -5.375701e-02 -1.034869e-02 1.005058e-01 -7.019323e-03 -2.732591e-01 -2.833736e-02 3.201536e-01 1.891427e-01 4.524420e-02 9.045725e-02 2.124523e-01 6.697186e-02
<VARIANCE> 25
 1.052788e+01 2.018771e+01 1.382869e+01 3.483191e+01 4.769135e+01 4.972574e+01 5.822352e+01 4.672506e+01 2.999581e+01 2.682276e+01 2.842011e+01 1.962655e+01 7.171600e-01 9.968618e-01 7.483046e-01 1.667625e+00 1.798923e+00 1.926216e+00 2.249535e+00 3.028912e+00 2.737198e+00 2.299233e+00 2.293824e+00 2.047035e+00 1.265365e+00
<GCONST> 9.284644e+01
<TRANSP> 5
 0.000000e+00 1.000000e+00 0.000000e+00 0.000000e+00 0.000000e+00
 0.000000e+00 6.550710e-01 3.449291e-01 0.000000e+00 0.000000e+00
 0.000000e+00 0.000000e+00 6.007861e-01 3.992139e-01 0.000000e+00
 0.000000e+00 0.000000e+00 0.000000e+00 7.319676e-01 2.680324e-01
 0.000000e+00 0.000000e+00 0.000000e+00 0.000000e+00 0.000000e+00
<ENDHMM>
~h "r"
<BEGINHMM>
<NUMSTATES> 5
<STATE> 2
<MEAN> 25
 1.011728e+00 -1.752934e+00 -4.645072e-01 -9.005778e-03 -1.240263e+00 -3.118322e+00 -2.731470e+00 -1.397344e+00 -1.824656e-01 2.015539e-01 1.310149e-01 1.747073e-01 6.720156e-02 -7.008071e-04 -2.446465e-01 -1.178653e-01 1.417596e-01 -9.005721e-02 -1.393010e-01 -8.129904e-02 1.971115e-01 7.727540e-02 -3.441046e-02 2.012322e-02 -2.392123e-02
<VARIANCE> 25
 2.208247e+01 2.230614e+01 2.599212e+01 3.126944e+01 4.149225e+01 5.378153e+01 5.565676e+01 5.609627e+01 2.692724e+01 2.339053e+01 2.017444e+01 1.694305e+01 1.293640e+00 6.398205e-01 1.866775e+00 2.220254e+00 1.386669e+00 2.303770e+00 2.349123e+00 2.659075e+00 2.465535e+00 2.011772e+00 1.753848e+00 1.723762e+00 1.292613e+00
<GCONST> 9.407407e+01
<STATE> 3
<MEAN> 25
 6.973166e-01 -1.840097e+00 -1.043152e+00 -4.130011e-01 -1.171227e+00 -3.528399e+00 -3.104996e+00 -1.363938e+00 1.445102e-01 1.216622e-02 1.454963e-02 1.132379e-01 -1.123190e-01 2.553047e-02 -1.862061e-01 -1.747500e-01 1.367881e-01 2.867713e-02 8.092176e-03 6.325201e-02 7.797313e-02 -9.708767e-02 3.683507e-02 -3.938994e-03 1.380225e-01
<VARIANCE> 25
 2.531441e+01 2.229656e+01 2.523631e+01 3.039942e+01 3.730201e+01 5.202261e+01 5.643574e+01 6.195631e+01 2.596107e+01 2.393188e+01 2.031728e+01 1.783748e+01 1.339844e+00 7.501086e-01 1.839483e+00 1.781779e+00 1.517077e+00 2.275855e+00 2.290146e+00 2.594444e+00 2.528773e+00 2.215010e+00 1.677217e+00 1.733472e+00 1.471426e+00
<GCONST> 9.437000e+01
<STATE> 4
<MEAN> 25
 -2.160782e-01 -1.562325e+00 -1.064720e+00 -8.705686e-01 -8.313311e-01 -3.318714e+00 -2.660949e+00 -4.948376e-01 2.779130e-01 -6.981189e-01 3.465701e-01 2.560737e-01 -1.171928e-01 1.789744e-02 -3.160334e-02 -1.675444e-01 5.166275e-02 9.795490e-02 1.487992e-01 7.836650e-02 -1.591521e-01 -7.937133e-02 1.781466e-01 -3.427733e-03 1.211145e-01
<VARIANCE> 25
 3.029256e+01 2.300075e+01 2.788158e+01 2.866356e+01 3.451554e+01 5.000058e+01 5.391188e+01 6.881104e+01 2.818527e+01 2.704316e+01 1.839494e+01 2.209189e+01 1.481386e+00 8.124729e-01 1.787411e+00 1.720450e+00 1.715973e+00 2.229368e+00 2.170657e+00 2.809516e+00 2.702470e+00 2.591525e+00 1.626019e+00 1.820576e+00 1.577524e+00
<GCONST> 9.543857e+01
<TRANSP> 5
 0.000000e+00 1.000000e+00 0.000000e+00 0.000000e+00 0.000000e+00
 0.000000e+00 4.984843e-01 5.015157e-01 0.000000e+00 0.000000e+00
 0.000000e+00 0.000000e+00 4.902029e-01 5.097972e-01 0.000000e+00
 0.000000e+00 0.000000e+00 0.000000e+00 6.127129e-01 3.872870e-01
 0.000000e+00 0.000000e+00 0.000000e+00 0.000000e+00 0.000000e+00
<ENDHMM>
~h "s"
<BEGINHMM>
<NUMSTATES> 5
<STATE> 2
<MEAN> 25
 -9.022840e+00 5.365901e+00 -1.787733e+00 2.390698e+00 3.259005e+00 -3.626454e-01 2.627956e+00 3.563977e+00 -4.452678e-01 1.539616e+00 6.398537e-01 1.586872e+00 -1.044752e+00 4.270993e-01 -4.533068e-01 1.718707e-02 2.232209e-01 6.671449e-02 3.256032e-01 3.282430e-01 4.622430e-02 1.301779e-01 8.734334e-02 8.084628e-02 2.544072e-01
<VARIANCE> 25
 5.099726e+01 2.298735e+01 1.746697e+01 1.452147e+01 3.772313e+01 2.133058e+01 2.335659e+01 2.857320e+01 1.980503e+01 1.903330e+01 1.793723e+01 1.366431e+01 3.059867e+00 1.803290e+00 1.327264e+00 1.249236e+00 2.113849e+00 2.177615e+00 2.163077e+00 2.110933e+00 1.769121e+00 1.955271e+00 1.569603e+00 1.235295e+00 1.125814e+00
<GCONST> 9.045783e+01
<STATE> 3
<MEAN> 25
 -1.058062e+01 5.873579e+00 -2.771132e+00 2.727915e+00 4.147166e+00 5.700299e-01 3.428032e+00 4.698420e+00 2.562374e-01 1.952486e+00 1.112381e+00 1.572550e+00 1.474208e-02 -8.191979e-02 -6.296828e-02 5.487210e-03 1.697732e-03 8.877844e-02 2.333709e-02 8.533607e-02 7.776882e-02 5.033085e-03 7.410937e-02 -1.763325e-02 -3.655297e-02
<VARIANCE> 25
 4.095238e+01 2.085728e+01 1.252473e+01 1.518142e+01 2.799340e+01 1.886169e+01 1.809600e+01 2.376871e+01 1.704232e+01 1.697875e+01 1.708238e+01 1.374214e+01 2.383451e+00 1.557726e+00 8.707917e-01 1.280113e+00 1.988210e+00 1.772753e+00 1.788142e+00 2.050264e+00 1.637597e+00 1.649585e+00 1.449216e+00 1.188289e+00 1.199445e+00
<GCONST> 8.710262e+01
<STATE> 4
<MEAN> 25
 -5.917956e+00 3.499534e+00 -1.943465e+00 2.778030e+00 4.125346e+00 1.619578e+00 3.433388e+00 4.234982e+00 1.621754e+00 2.568005e+00 1.677978e+00 1.434702e+00 4.398731e-01 -2.140694e-01 8.835120e-02 -1.161092e-01 -1.741709e-01 -1.072230e-01 -1.975038e-01 -1.395785e-01 4.954293e-04 -5.159906e-02 -4.967293e-02 -3.738005e-02 7.885785e-02
<VARIANCE> 25
 4.852126e+01 1.419775e+01 1.175274e+01 1.483202e+01 2.643814e+01 1.894732e+01 1.942257e+01 2.213627e+01 1.871630e+01 1.827461e+01 1.545528e+01 1.390626e+01 2.298818e+00 1.338112e+00 7.848431e-01 1.253992e+00 2.162177e+00 1.736045e+00 1.982139e+00 2.462912e+00 1.688509e+00 1.718933e+00 1.487345e+00 1.288679e+00 1.217712e+00
<GCONST> 8.705731e+01
<TRANSP> 5
 0.000000e+00 1.000000e+00 0.000000e+00 0.000000e+00 0.000000e+00
 0.000000e+00 8.438191e-01 1.561808e-01 0.000000e+00 0.000000e+00
 0.000000e+00 0.000000e+00 8.345612e-01 1.654388e-01 0.000000e+00
 0.000000e+00 0.000000e+00 0.000000e+00 9.228045e-01 7.719555e-02
 0.000000e+00 0.000000e+00 0.000000e+00 0.000000e+00 0.000000e+00
<ENDHMM>
~h "t"
<BEGINHMM>
<NUMSTATES> 5
<STATE> 2
<MEAN> 25
 -3.925759e+00 2.366526e+00 9.410576e-02 1.275594e+00 6.805880e-01 6.858768e-01 -6.120079e-01 4.215767e+00 -5.497797e-01 -2.591614e-01 1.253658e+00 1.569624e+00 -6.672296e-01 3.198546e-02 -9.667850e-02 -1.201584e-01 1.256359e-02 -4.418105e-01 -3.993578e-01 5.875958e-01 -2.365262e-01 -2.526018e-01 -3.605715e-02 1.748335e-01 7.036764e-01
<VARIANCE> 25
 4.273465e+01 1.913503e+01 2.366634e+01 2.271961e+01 4.219369e+01 3.024817e+01 4.306929e+01 6.185780e+01 2.593130e+01 2.513415e+01 2.157970e+01 1.805317e+01 4.078052e+00 1.783497e+00 2.373091e+00 2.037878e+00 3.236984e+00 2.740362e+00 3.659588e+00 5.475273e+00 2.354913e+00 2.538599e+00 2.253362e+00 1.889237e+00 2.612704e+00
<GCONST> 9.936256e+01
<STATE> 3
<MEAN> 25
 -4.419234e+00 1.870634e+00 1.361981e-01 1.052562e+00 4.550596e-01 -9.105316e-01 -1.756800e+00 4.659664e+00 -7.309767e-01 -9.599420e-01 7.849895e-01 1.843411e+00 2.461644e-01 -2.592059e-01 6.948412e-02 -2.172163e-01 -2.834956e-01 -5.895034e-01 -5.879917e-01 -4.704556e-01 -7.803180e-02 -1.668933e-01 -1.352194e-01 -1.127894e-01 6.318389e-01
<VARIANCE> 25
 4.291981e+01 1.983578e+01 2.210070e+01 2.176218e+01 4.057712e+01 3.451781e+01 4.812775e+01 7.126237e+01 2.840160e+01 2.439030e+01 2.404383e+01 2.085345e+01 4.571191e+00 1.920044e+00 2.096214e+00 2.317313e+00 3.863516e+00 2.830630e+00 4.116223e+00 7.562309e+00 2.814809e+00 2.467784e+00 2.640214e+00 2.531787e+00 2.763310e+00
<GCONST> 1.014497e+02
<STATE> 4
<MEAN> 25
 -2.245236e+00 1.149338e+00 3.392724e-01 1.635745e+00 1.686480e+00 -6.397957e-01 -9.547845e-01 3.288515e+00 4.305262e-02 -1.652013e-01 1.428278e+00 1.493406e+00 4.845574e-01 -2.728937e-01 4.800604e-02 -2.691011e-01 -3.314732e-01 -1.822590e-01 -2.827962e-01 -7.364131e-01 1.836785e-02 4.916559e-02 3.340317e-02 -2.406453e-01 2.784055e-01
<VARIANCE> 25
 2.976158e+01 1.588368e+01 1.623086e+01 2.160364e+01 4.469772e+01 3.299794e+01 5.335416e+01 6.845242e+01 2.618293e+01 2.350874e+01 2.151996e+01 1.905754e+01 2.773808e+00 1.525465e+00 1.311700e+00 1.942779e+00 3.302327e+00 2.272540e+00 2.882481e+00 5.729528e+00 2.579481e+00 2.143558e+00 2.193938e+00 2.058170e+00 2.031372e+00
<GCONST> 9.702765e+01
<TRANSP> 5
 0.000000e+00 1.000000e+00 0.000000e+00 0.000000e+00 0.000000e+00
 0.000000e+00 6.596463e-01 3.403536e-01 0.000000e+00 0.000000e+00
 0.000000e+00 0.000000e+00 6.367720e-01 3.632280e-01 0.000000e+00
 0.000000e+00 0.000000e+00 0.000000e+00 7.550675e-01 2.449326e-01
 0.000000e+00 0.000000e+00 0.000000e+00 0.000000e+00 0.000000e+00
<ENDHMM>
~h "v"
<BEGINHMM>
<NUMSTATES> 5
<STATE> 2
<MEAN> 25
 1.829548e+00 -1.402568e+00 2.411019e+00 -1.559736e+00 -4.239131e+00 -4.015368e+00 -3.420667e+00 -3.717168e+00 -2.235407e+00 -4.510767e-01 6.710667e-01 -1.998376e-01 2.659812e-02 7.180500e-02 1.318458e-01 2.410073e-02 6.365389e-02 1.012099e-01 1.879048e-01 -4.082395e-02 -1.833447e-01 1.387642e-01 4.274155e-01 4.777074e-01 -3.133521e-01
<VARIANCE> 25
 1.524261e+01 1.965553e+01 3.332962e+01 5.862549e+01 5.304578e+01 3.093200e+01 2.592346e+01 4.413831e+01 4.226229e+01 3.966213e+01 2.171728e+01 1.887198e+01 8.220361e-01 6.030577e-01 1.401008e+00 1.622525e+00 2.255551e+00 1.985157e+00 2.273149e+00 2.575224e+00 3.198114e+00 3.324091e+00 2.834300e+00 2.072564e+00 1.107556e+00
<GCONST> 9.473465e+01
<STATE> 3
<MEAN> 25
 1.987280e+00 -1.202692e+00 2.740118e+00 -1.130281e+00 -3.960709e+00 -3.614000e+00 -2.870883e+00 -3.552914e+00 -2.664036e+00 -6.313699e-01 1.004505e+00 7.350255e-01 -5.416069e-02 6.994202e-02 -1.149049e-01 5.000486e-02 3.108323e-01 3.071037e-01 2.503922e-01 2.251985e-01 -7.105686e-03 8.584075e-02 8.164368e-02 1.896708e-01 -3.562756e-01
<VARIANCE> 25
 1.374535e+01 2.102447e+01 3.092458e+01 6.540214e+01 5.062823e+01 3.241359e+01 2.589148e+01 4.349165e+01 3.934753e+01 3.709275e+01 1.981170e+01 1.456804e+01 7.303831e-01 5.505890e-01 1.176672e+00 1.372454e+00 2.058863e+00 1.892426e+00 2.172071e+00 2.414771e+00 2.821928e+00 2.866698e+00 2.293477e+00 1.952326e+00 1.179973e+00
<GCONST> 9.294675e+01
<STATE> 4
<MEAN> 25
 1.343782e+00 -8.010777e-01 1.359242e+00 -4.428725e-01 -1.704282e+00 -2.268435e+00 -1.486175e+00 -2.007395e+00 -1.900866e+00 2.020675e-01 9.412088e-01 8.190382e-01 -1.569058e-01 6.234522e-02 -3.688949e-01 7.204476e-03 3.393891e-01 3.823498e-01 2.159970e-01 3.534008e-01 2.501096e-01 3.466298e-01 -2.253362e-03 -7.785384e-02 -2.817152e-01
<VARIANCE> 25
 1.369526e+01 2.099866e+01 2.329898e+01 7.251348e+01 5.669796e+01 3.030450e+01 2.804855e+01 4.030172e+01 3.776415e+01 3.172615e+01 2.075854e+01 1.314289e+01 7.791014e-01 5.403435e-01 9.545978e-01 1.064311e+00 1.824706e+00 2.108307e+00 2.268216e+00 1.878093e+00 2.612698e+00 2.390003e+00 2.369078e+00 1.587978e+00 1.148688e+00
<GCONST> 9.145985e+01
<TRANSP> 5
 0.000000e+00 1.000000e+00 0.000000e+00 0.000000e+00 0.000000e+00
 0.000000e+00 5.778909e-01 4.221091e-01 0.000000e+00 0.000000e+00
 0.000000e+00 0.000000e+00 6.085167e-01 3.914833e-01 0.000000e+00
 0.000000e+00 0.000000e+00 0.000000e+00 7.169141e-01 2.830859e-01
 0.000000e+00 0.000000e+00 0.000000e+00 0.000000e+00 0.000000e+00
<ENDHMM>
~h "w"
<BEGINHMM>
<NUMSTATES> 5
<STATE> 2
<MEAN> 25
 2.784497e+00 -3.429191e+00 -2.332347e+00 -7.974850e+00 -5.198711e+00 -8.472416e-01 -2.256283e+00 -2.274873e+00 1.614505e+00 -2.296875e+00 -5.187757e+00 -2.624378e+00 1.686245e-02 -2.669279e-01 -7.815810e-02 -3.512165e-01 -3.084926e-01 -9.222655e-02 -1.143363e-01 -8.158603e-02 2.393239e-01 -3.728329e-02 -2.441749e-01 -1.544903e-01 5.148196e-01
<VARIANCE> 25
 2.333044e+01 3.564280e+01 1.766527e+01 3.724668e+01 4.543821e+01 4.206912e+01 4.850397e+01 4.957251e+01 4.448845e+01 3.702734e+01 4.202527e+01 2.716489e+01 1.833892e+00 1.500096e+00 9.956063e-01 1.716177e+00 3.336627e+00 3.702531e+00 4.973300e+00 4.656290e+00 3.767905e+00 4.775145e+00 3.242211e+00 2.093848e+00 1.829606e+00
<GCONST> 1.015605e+02
<STATE> 3
<MEAN> 25
 2.811697e+00 -3.916489e+00 -2.065631e+00 -5.991083e+00 -3.698513e+00 -3.795651e-01 -1.318484e+00 -1.805323e+00 3.277391e+00 5.607523e-03 -4.861187e+00 -2.778681e+00 1.801234e-01 1.723465e-01 1.053543e-01 2.353200e-01 -7.011772e-02 -4.554525e-02 -2.712230e-01 -3.295334e-02 1.886676e-01 2.426764e-01 4.032370e-02 -9.226462e-02 -1.751232e-01
<VARIANCE> 25
 1.748700e+01 2.753634e+01 1.855165e+01 4.247660e+01 4.774855e+01 5.232980e+01 3.820207e+01 4.991161e+01 3.542142e+01 3.271439e+01 4.071968e+01 2.672973e+01 1.368851e+00 9.397764e-01 1.043125e+00 1.307716e+00 2.139323e+00 3.631074e+00 3.402437e+00 3.648973e+00 3.385653e+00 3.434444e+00 2.661100e+00 2.211164e+00 1.281703e+00
<GCONST> 9.782285e+01
<STATE> 4
<MEAN> 25
 1.638062e+00 2.600155e-01 -1.071453e+00 8.966515e-01 2.113119e+00 1.666199e+00 1.118565e+00 1.201323e+00 3.016569e+00 2.618202e+00 -5.924497e-01 -1.164490e+00 1.347469e-01 1.757786e-01 8.969343e-02 1.421029e-01 -3.579411e-02 -1.602973e-01 -2.832108e-01 -2.830101e-02 -1.897815e-01 -1.183978e-01 4.210611e-02 -8.656358e-04 -7.666961e-02
<VARIANCE> 25
 1.678971e+01 2.121921e+01 1.229366e+01 4.129412e+01 5.128461e+01 3.061899e+01 3.641082e+01 3.546737e+01 2.592803e+01 3.198055e+01 3.350687e+01 2.155399e+01 9.667288e-01 6.041193e-01 7.899569e-01 1.204675e+00 1.750312e+00 2.334400e+00 2.724234e+00 2.399134e+00 2.277543e+00 2.765008e+00 2.371993e+00 1.895109e+00 6.785166e-01
<GCONST> 9.153041e+01
<TRANSP> 5
 0.000000e+00 1.000000e+00 0.000000e+00 0.000000e+00 0.000000e+00
 0.000000e+00 9.096054e-01 9.039451e-02 0.000000e+00 0.000000e+00
 0.000000e+00 0.000000e+00 7.610267e-01 2.389733e-01 0.000000e+00
 0.000000e+00 0.000000e+00 0.000000e+00 8.307593e-01 1.692406e-01
 0.000000e+00 0.000000e+00 0.000000e+00 0.000000e+00 0.000000e+00
<ENDHMM>
~h "y"
<BEGINHMM>
<NUMSTATES> 5
<STATE> 2
<MEAN> 25
 1.152390e+00 -1.070516e+00 2.500315e+00 -8.782749e-01 -7.767290e+00 -5.152877e+00 -7.211259e+00 -5.663545e+00 -5.347156e+00 -4.809244e+00 -4.125329e-01 -7.205706e-01 9.541458e-02 2.594192e-02 2.066620e-01 -7.910260e-02 -2.720565e-01 -4.399452e-02 -3.757729e-01 -3.315446e-01 -1.999547e-01 -1.985664e-01 1.959248e-02 -3.904809e-03 1.765681e-01
<VARIANCE> 25
 1.651182e+01 2.154369e+01 4.931682e+01 4.152070e+01 5.737439e+01 3.981968e+01 3.821593e+01 5.063593e+01 2.799651e+01 4.523358e+01 3.284444e+01 3.272613e+01 1.088909e+00 1.407973e+00 2.260477e+00 2.092581e+00 4.113522e+00 3.188013e+00 3.121519e+00 4.393641e+00 2.971123e+00 4.397040e+00 2.342148e+00 2.451912e+00 1.851800e+00
<GCONST> 1.009787e+02
<STATE> 3
<MEAN> 25
 1.107631e+00 -6.233609e-01 2.805991e+00 -1.354735e+00 -7.144390e+00 -4.207581e+00 -7.224165e+00 -6.828848e+00 -4.991055e+00 -4.058389e+00 6.436869e-03 -3.629091e-01 4.515821e-02 2.350640e-02 1.125369e-01 -6.232224e-02 7.782679e-02 7.407440e-02 -3.327878e-02 -1.451432e-01 1.178455e-01 7.273202e-02 -2.230644e-02 3.044096e-02 1.825885e-02
<VARIANCE> 25
 1.662487e+01 2.004268e+01 5.835935e+01 3.740261e+01 5.514083e+01 4.837475e+01 4.304738e+01 5.318461e+01 2.938867e+01 4.585057e+01 2.993711e+01 3.310452e+01 8.029122e-01 1.306758e+00 2.522720e+00 1.835671e+00 3.478832e+00 3.707657e+00 2.854155e+00 4.636907e+00 2.705981e+00 3.947884e+00 2.145494e+00 2.403089e+00 2.284608e+00
<GCONST> 1.007294e+02
<STATE> 4
<MEAN> 25
 9.322801e-01 1.092363e-01 5.306410e+00 -2.564328e-01 -6.730544e+00 -3.213219e+00 -5.643624e+00 -6.393488e+00 -3.997070e+00 -3.640666e+00 -2.750627e-01 -1.658932e-01 2.364553e-02 -5.611004e-02 -2.044099e-01 1.101279e-01 4.568986e-01 1.068658e-01 3.096606e-01 2.980959e-01 3.041401e-01 1.448628e-01 -1.228009e-01 -1.161026e-02 -2.408229e-01
<VARIANCE> 25
 1.618881e+01 1.777868e+01 5.661745e+01 3.183167e+01 5.900693e+01 4.833936e+01 4.318776e+01 4.900511e+01 3.022845e+01 4.173957e+01 2.505392e+01 2.428109e+01 1.012078e+00 1.248676e+00 2.829706e+00 1.517521e+00 3.908494e+00 3.472722e+00 2.940471e+00 4.533711e+00 2.877925e+00 3.560812e+00 2.421839e+00 2.086589e+00 2.288897e+00
<GCONST> 9.993510e+01
<TRANSP> 5
 0.000000e+00 1.000000e+00 0.000000e+00 0.000000e+00 0.000000e+00
 0.000000e+00 8.532503e-01 1.467497e-01 0.000000e+00 0.000000e+00
 0.000000e+00 0.000000e+00 8.087186e-01 1.912813e-01 0.000000e+00
 0.000000e+00 0.000000e+00 0.000000e+00 8.466442e-01 1.533558e-01
 0.000000e+00 0.000000e+00 0.000000e+00 0.000000e+00 0.000000e+00
<ENDHMM>
~h "z"
<BEGINHMM>
<NUMSTATES> 5
<STATE> 2
<MEAN> 25
 -7.363653e+00 6.195605e+00 -1.873593e+00 3.260010e+00 6.338679e+00 2.159405e+00 3.465347e+00 7.047727e+00 5.290563e-01 2.702376e+00 1.318301e+00 5.191415e-01 -3.173058e-01 8.021162e-02 -3.772078e-04 1.249792e-01 2.655523e-01 9.032463e-02 1.314400e-01 2.173709e-01 9.401366e-02 -4.201829e-03 9.068269e-02 3.343666e-02 -7.280914e-02
<VARIANCE> 25
 3.903280e+01 2.216400e+01 1.209694e+01 1.590425e+01 2.242453e+01 2.245512e+01 2.214422e+01 2.820070e+01 1.937799e+01 1.869935e+01 2.205756e+01 1.431153e+01 1.889934e+00 1.402514e+00 9.370505e-01 1.484609e+00 1.528024e+00 2.237211e+00 1.928662e+00 2.174343e+00 1.682536e+00 1.783753e+00 1.610045e+00 1.192686e+00 4.527996e-01
<GCONST> 8.720217e+01
<STATE> 3
<MEAN> 25
 -5.183681e+00 3.867013e+00 -8.350335e-01 3.756200e+00 6.763402e+00 2.993787e+00 4.058381e+00 6.674623e+00 2.029922e+00 2.429130e+00 2.135365e+00 1.085508e+00 1.877338e-01 -1.222336e-01 7.812458e-02 3.329735e-02 6.778568e-04 -9.759706e-03 7.124561e-02 -1.254001e-01 5.287291e-02 1.313206e-02 -1.624443e-02 5.667168e-03 -1.145241e-01
<VARIANCE> 25
 3.820080e+01 1.805165e+01 8.389149e+00 1.282512e+01 1.732417e+01 2.052880e+01 2.556857e+01 2.874255e+01 1.894361e+01 1.656493e+01 2.102130e+01 1.428110e+01 1.101182e+00 1.017277e+00 7.158806e-01 9.993827e-01 1.196910e+00 1.929300e+00 1.747938e+00 2.109701e+00 1.590273e+00 1.557560e+00 1.609032e+00 1.255910e+00 5.114720e-01
<GCONST> 8.394885e+01
<STATE> 4
<MEAN> 25
 -1.456284e+00 1.490810e+00 -2.359981e-01 4.141098e+00 6.296216e+00 3.775303e+00 5.386817e+00 3.993460e+00 3.002845e+00 3.347285e+00 1.861015e+00 6.585981e-01 3.547059e-02 -4.011387e-03 2.949286e-02 -2.823262e-02 -7.615952e-02 -5.064247e-02 -5.576280e-02 -4.652272e-02 -6.171536e-02 -5.087471e-02 -3.501280e-02 2.712093e-04 6.484619e-02
<VARIANCE> 25
 9.779828e+00 6.506950e+00 4.732438e+00 7.012562e+00 1.036080e+01 1.452009e+01 1.485720e+01 1.300928e+01 1.431336e+01 1.344282e+01 1.277613e+01 1.143290e+01 4.519600e-01 4.474418e-01 4.847209e-01 6.081057e-01 8.339016e-01 1.097392e+00 1.401220e+00 1.367541e+00 1.398333e+00 1.461251e+00 1.112310e+00 1.129204e+00 2.979206e-01
<GCONST> 7.159697e+01
<TRANSP> 5
 0.000000e+00 1.000000e+00 0.000000e+00 0.000000e+00 0.000000e+00
 0.000000e+00 9.285282e-01 7.147182e-02 0.000000e+00 0.000000e+00
 0.000000e+00 0.000000e+00 9.080165e-01 9.198349e-02 0.000000e+00
 0.000000e+00 0.000000e+00 0.000000e+00 9.574744e-01 4.252573e-02
 0.000000e+00 0.000000e+00 0.000000e+00 0.000000e+00 0.000000e+00
<ENDHMM>
~h "aa"
<BEGINHMM>
<NUMSTATES> 5
<STATE> 2
<MEAN> 25
 -4.370886e-01 -1.117429e-01 -2.323921e+00 8.651851e-01 3.958383e+00 3.571158e+00 3.371509e+00 1.245249e+00 5.892681e-01 2.567959e+00 3.775055e-01 -1.015376e+00 -3.750983e-03 -1.418491e-01 -1.118053e-01 -1.778748e-01 -5.878933e-02 1.496737e-01 6.942597e-02 -1.462125e-01 -5.450817e-02 7.099668e-02 6.031560e-02 4.211241e-03 1.060308e-01
<VARIANCE> 25
 7.486712e+00 1.896877e+01 1.291893e+01 3.934663e+01 3.450668e+01 2.062493e+01 2.746515e+01 2.728642e+01 2.477799e+01 2.226320e+01 2.494795e+01 1.906625e+01 4.586175e-01 7.480230e-01 4.990123e-01 8.767301e-01 1.042210e+00 1.583114e+00 1.822285e+00 1.937500e+00 1.729161e+00 1.828749e+00 1.701742e+00 1.189107e+00 6.479220e-01
<GCONST> 8.408635e+01
<STATE> 3
<MEAN> 25
 6.789804e-01 -3.329369e+00 -4.206015e+00 -4.995080e+00 -5.431013e-02 3.632777e+00 2.603222e+00 -2.468153e+00 -2.046098e+00 8.015064e-01 -5.672306e-01 -1.443507e+00 3.790170e-02 -2.484344e-01 -1.785194e-01 -3.911181e-01 -5.518394e-02 1.481510e-01 1.689195e-01 -2.087265e-01 -2.148364e-01 -1.287400e-01 -1.058746e-01 8.081921e-02 3.111735e-01
<VARIANCE> 25
 1.795886e+01 3.844193e+01 1.812132e+01 6.528242e+01 5.555184e+01 3.560616e+01 4.801072e+01 4.397781e+01 3.950783e+01 2.963084e+01 2.751312e+01 2.937080e+01 8.802013e-01 1.062402e+00 6.522228e-01 1.719726e+00 1.806925e+00 1.870012e+00 2.054210e+00 2.703229e+00 2.396712e+00 2.199990e+00 1.687950e+00 1.478890e+00 1.699001e+00
<GCONST> 9.465192e+01
<STATE> 4
<MEAN> 25
 2.839763e+00 -5.227771e+00 -5.319407e+00 -8.933003e+00 -3.187336e+00 3.127824e+00 1.862204e+00 -3.085515e+00 -2.700968e+00 -1.772416e+00 -2.477648e+00 -2.543179e+00 5.401485e-02 1.273570e-01 -2.591642e-02 1.688895e-01 1.356573e-01 -6.009286e-03 -2.787071e-02 2.189811e-01 1.405897e-01 -1.955241e-02 -3.400715e-02 -3.200301e-03 -2.213337e-01
<VARIANCE> 25
 2.164921e+01 3.405236e+01 1.554486e+01 4.777288e+01 4.949956e+01 4.105653e+01 4.987533e+01 4.621370e+01 3.056678e+01 2.954666e+01 2.309457e+01 3.406284e+01 1.037073e+00 1.184069e+00 8.152652e-01 1.874191e+00 1.650747e+00 2.581311e+00 3.014404e+00 2.821296e+00 1.915269e+00 1.876827e+00 1.437267e+00 1.664669e+00 1.334793e+00
<GCONST> 9.465337e+01
<TRANSP> 5
 0.000000e+00 1.000000e+00 0.000000e+00 0.000000e+00 0.000000e+00
 0.000000e+00 8.880973e-01 1.119028e-01 0.000000e+00 0.000000e+00
 0.000000e+00 0.000000e+00 7.514627e-01 2.485373e-01 0.000000e+00
 0.000000e+00 0.000000e+00 0.000000e+00 9.182310e-01 8.176900e-02
 0.000000e+00 0.000000e+00 0.000000e+00 0.000000e+00 0.000000e+00
<ENDHMM>
~h "ae"
<BEGINHMM>
<NUMSTATES> 5
<STATE> 2
<MEAN> 25
 1.034853e+00 -3.350959e+00 -3.329309e+00 -1.165652e+00 2.541712e+00 1.362234e+00 8.241218e-01 1.275187e+00 5.576967e-01 -1.240842e+00 -4.557899e+00 -2.416267e+00 8.137117e-02 -2.423194e-01 -1.404422e-01 -3.200330e-01 -1.421855e-01 1.249198e-02 1.286268e-02 -3.418180e-01 5.353436e-02 -1.972705e-01 -5.492271e-01 -1.440820e-01 5.331974e-01
<VARIANCE> 25
 1.454475e+01 2.390986e+01 1.415456e+01 2.942887e+01 3.837530e+01 3.973165e+01 3.273217e+01 7.183823e+01 3.505904e+01 2.802024e+01 4.512427e+01 1.934188e+01 9.218142e-01 1.259174e+00 7.665300e-01 2.090158e+00 1.969105e+00 2.891682e+00 2.765461e+00 3.757389e+00 2.931614e+00 2.240543e+00 2.689472e+00 1.387495e+00 3.115772e+00
<GCONST> 9.562077e+01
<STATE> 3
<MEAN> 25
 6.160718e-01 -4.017405e+00 -3.797529e+00 -2.179057e+00 2.051245e+00 1.170326e+00 9.932277e-01 4.168113e-01 1.062208e+00 -1.628556e+00 -5.698440e+00 -2.709699e+00 -1.013843e-01 -1.051837e-01 -5.736558e-02 -9.819756e-02 -5.545535e-02 -3.744973e-02 5.198535e-02 -3.961775e-02 2.214929e-01 -2.349645e-02 -1.646129e-01 -6.788115e-02 2.051895e-01
<VARIANCE> 25
 1.869895e+01 2.284367e+01 1.473852e+01 3.303627e+01 3.641439e+01 3.588633e+01 3.051455e+01 3.792750e+01 2.949394e+01 3.219540e+01 4.980515e+01 2.272434e+01 7.418685e-01 8.016701e-01 7.029049e-01 1.417914e+00 1.507534e+00 2.126223e+00 2.495283e+00 1.803946e+00 2.145135e+00 1.829235e+00 2.111091e+00 1.407834e+00 1.985059e+00
<GCONST> 9.159712e+01
<STATE> 4
<MEAN> 25
 1.594891e-01 -3.473065e+00 -2.612382e+00 -1.101343e+00 1.341634e+00 3.870092e-01 1.413520e+00 1.503780e+00 2.649366e+00 -1.130041e+00 -5.282874e+00 -2.017876e+00 1.637236e-02 1.042985e-01 1.776875e-01 1.016515e-01 -2.501542e-01 -1.888192e-01 -1.218304e-01 -1.752340e-02 5.421153e-02 3.583217e-02 1.203731e-01 8.780220e-02 -3.760066e-02
<VARIANCE> 25
 1.539462e+01 1.987765e+01 1.358011e+01 2.959487e+01 4.439651e+01 4.015808e+01 4.149549e+01 2.947423e+01 2.144411e+01 3.539376e+01 5.504512e+01 1.934130e+01 5.902186e-01 5.574478e-01 7.431875e-01 8.770528e-01 1.576245e+00 1.848073e+00 2.425966e+00 1.665852e+00 1.883967e+00 1.941875e+00 2.428990e+00 1.767120e+00 1.255834e+00
<GCONST> 8.977199e+01
<TRANSP> 5
 0.000000e+00 1.000000e+00 0.000000e+00 0.000000e+00 0.000000e+00
 0.000000e+00 8.008517e-01 1.991483e-01 0.000000e+00 0.000000e+00
 0.000000e+00 0.000000e+00 7.888430e-01 2.111570e-01 0.000000e+00
 0.000000e+00 0.000000e+00 0.000000e+00 8.946992e-01 1.053009e-01
 0.000000e+00 0.000000e+00 0.000000e+00 0.000000e+00 0.000000e+00
<ENDHMM>
~h "ah"
<BEGINHMM>
<NUMSTATES> 5
<STATE> 2
<MEAN> 25
 1.862996e+00 -2.671696e+00 -1.101972e+00 -3.357409e+00 -2.523166e+00 -1.995627e+00 -3.107492e+00 -1.243129e+00 4.054762e-01 -1.342328e+00 -2.456580e+00 -1.448525e+00 4.082055e-01 -1.399051e-01 3.667484e-02 -1.560339e-01 -1.225428e-01 9.839745e-03 -4.320052e-01 -2.931894e-01 1.214297e-01 -8.022600e-02 -3.502508e-01 -3.413070e-01 2.931784e-01
<VARIANCE> 25
 2.140688e+01 2.521896e+01 2.568549e+01 3.950782e+01 4.331994e+01 4.751114e+01 4.839413e+01 4.011517e+01 3.297364e+01 3.620647e+01 3.278995e+01 2.641672e+01 1.683931e+00 1.514078e+00 1.443719e+00 2.225851e+00 3.175845e+00 3.966413e+00 2.836782e+00 3.631700e+00 2.524983e+00 3.300745e+00 2.635222e+00 2.075102e+00 3.510949e+00
<GCONST> 1.002548e+02
<STATE> 3
<MEAN> 25
 2.734471e+00 -2.800394e+00 -7.854192e-01 -3.304376e+00 -2.635491e+00 -1.503614e+00 -3.667077e+00 -1.880447e+00 8.734230e-01 -1.156560e+00 -2.972135e+00 -2.165611e+00 2.661736e-01 1.205362e-01 6.789002e-02 1.350940e-01 1.437624e-01 2.472458e-01 -8.883891e-02 -1.161591e-01 7.202622e-02 8.360076e-02 -1.121587e-01 -1.157508e-01 -1.810763e-01
<VARIANCE> 25
 2.287234e+01 2.278081e+01 2.466321e+01 3.555177e+01 4.065174e+01 5.161311e+01 5.353364e+01 3.985647e+01 3.560668e+01 3.292927e+01 3.432009e+01 2.888848e+01 1.693457e+00 1.330756e+00 1.380009e+00 2.338014e+00 2.792102e+00 3.978002e+00 2.615778e+00 2.973634e+00 2.494654e+00 2.496867e+00 2.411734e+00 1.847463e+00 3.230516e+00
<GCONST> 9.919839e+01
<STATE> 4
<MEAN> 25
 3.106888e+00 -1.712812e+00 -4.377803e-01 -1.850674e+00 -1.287050e+00 -5.180901e-01 -3.081800e+00 -1.747100e+00 1.060840e+00 -2.876150e-01 -2.590301e+00 -1.917887e+00 6.585406e-02 3.423333e-01 6.750834e-02 2.344320e-01 2.529249e-01 2.087351e-01 5.295005e-02 7.466560e-03 -1.171213e-01 1.323048e-01 3.519170e-02 6.032434e-02 -3.433030e-01
<VARIANCE> 25
 2.547389e+01 2.255197e+01 2.224426e+01 3.730170e+01 3.999531e+01 4.617630e+01 5.792058e+01 4.203764e+01 3.416203e+01 2.938919e+01 3.552968e+01 2.690627e+01 1.713042e+00 1.229863e+00 1.343940e+00 1.864562e+00 2.078716e+00 3.206285e+00 2.613252e+00 2.817915e+00 2.439874e+00 2.137391e+00 2.271747e+00 1.799247e+00 2.181834e+00
<GCONST> 9.751173e+01
<TRANSP> 5
 0.000000e+00 1.000000e+00 0.000000e+00 0.000000e+00 0.000000e+00
 0.000000e+00 5.924112e-01 4.075888e-01 0.000000e+00 0.000000e+00
 0.000000e+00 0.000000e+00 5.789132e-01 4.210868e-01 0.000000e+00
 0.000000e+00 0.000000e+00 0.000000e+00 6.411330e-01 3.588671e-01
 0.000000e+00 0.000000e+00 0.000000e+00 0.000000e+00 0.000000e+00
<ENDHMM>
~h "ao"
<BEGINHMM>
<NUMSTATES> 5
<STATE> 2
<MEAN> 25
 1.125323e+00 -1.536084e+00 -2.648810e+00 -2.084920e+00 -3.210254e-01 -5.241404e-01 3.548602e+00 4.121117e+00 1.892816e+00 8.389895e-01 1.193846e+00 1.827482e+00 1.261668e-02 -1.356541e-01 -1.021755e-01 -4.049154e-01 -3.048007e-01 -6.844176e-02 2.252984e-01 -4.188838e-02 4.504192e-03 -8.960219e-02 9.526939e-03 2.714624e-02 3.567515e-01
<VARIANCE> 25
 9.013254e+00 1.341320e+01 8.408742e+00 6.605599e+01 6.744585e+01 3.696656e+01 3.351672e+01 2.175990e+01 2.490575e+01 3.920383e+01 1.784919e+01 1.182383e+01 7.115043e-01 8.194582e-01 7.428855e-01 1.563509e+00 1.489379e+00 2.281328e+00 2.759214e+00 1.845528e+00 2.369859e+00 2.350658e+00 1.358976e+00 1.210532e+00 1.547240e+00
<GCONST> 8.882391e+01
<STATE> 3
<MEAN> 25
 1.622225e+00 -2.302563e+00 -3.091881e+00 -5.643514e+00 -3.354246e+00 -1.697834e+00 3.010211e+00 3.293224e+00 9.121664e-01 -9.057080e-01 7.130860e-01 1.787875e+00 -3.042670e-02 -4.196738e-02 -5.041321e-02 -1.912619e-01 -8.877479e-02 1.762153e-02 -2.920123e-02 -8.148948e-02 -7.268628e-02 -4.352114e-02 1.656316e-02 -1.992978e-02 1.578542e-01
<VARIANCE> 25
 1.030742e+01 1.797884e+01 1.007224e+01 6.230406e+01 5.299462e+01 4.140472e+01 3.283980e+01 2.126327e+01 2.400085e+01 4.098690e+01 1.593941e+01 1.416578e+01 6.050181e-01 8.030149e-01 7.835183e-01 1.513632e+00 1.301208e+00 2.732410e+00 2.703304e+00 1.787213e+00 2.159826e+00 2.531497e+00 1.319854e+00 1.312818e+00 1.274171e+00
<GCONST> 8.894708e+01
<STATE> 4
<MEAN> 25
 2.831410e+00 -1.085919e+00 -2.804258e+00 -4.781531e+00 -2.215980e+00 -6.733240e-01 1.733489e+00 2.392680e+00 4.415725e-01 -8.492177e-01 1.289395e+00 1.427142e+00 -2.818883e-02 1.304293e-01 8.638690e-02 3.005002e-01 2.662139e-01 1.095241e-01 -3.376752e-02 -6.500999e-02 -3.039222e-02 1.582954e-01 6.596067e-02 -3.022677e-02 -3.900271e-01
<VARIANCE> 25
 1.456376e+01 2.478286e+01 1.281749e+01 6.390784e+01 4.284728e+01 3.948418e+01 3.039397e+01 1.834531e+01 2.055519e+01 4.389962e+01 1.424821e+01 1.658931e+01 6.200097e-01 7.340033e-01 7.733355e-01 2.221669e+00 1.166828e+00 2.869551e+00 2.531573e+00 1.607121e+00 1.796089e+00 2.623492e+00 1.258579e+00 1.293758e+00 8.864774e-01
<GCONST> 8.885427e+01
<TRANSP> 5
 0.000000e+00 1.000000e+00 0.000000e+00 0.000000e+00 0.000000e+00
 0.000000e+00 8.631573e-01 1.368427e-01 0.000000e+00 0.000000e+00
 0.000000e+00 0.000000e+00 8.325273e-01 1.674727e-01 0.000000e+00
 0.000000e+00 0.000000e+00 0.000000e+00 9.280332e-01 7.196681e-02
 0.000000e+00 0.000000e+00 0.000000e+00 0.000000e+00 0.000000e+00
<ENDHMM>
~h "aw"
<BEGINHMM>
<NUMSTATES> 5
<STATE> 2
<MEAN> 25
 -1.561837e+00 -7.869752e+00 -7.728264e+00 -1.033969e+01 -4.578846e-01 5.544630e+00 3.162499e+00 -6.625397e+00 -5.444172e+00 -6.548926e-01 -3.403204e+00 -3.260039e+00 8.614609e-03 -2.442444e-01 -2.055679e-01 -3.281705e-01 -3.734997e-02 3.181663e-01 2.080161e-01 -2.880653e-01 -1.162984e-01 -9.617993e-02 -1.109979e-01 -2.653322e-02 2.796364e-01
<VARIANCE> 25
 9.481026e+00 1.096977e+01 1.020968e+01 1.959515e+01 2.543693e+01 2.156162e+01 2.424212e+01 3.408838e+01 2.465270e+01 1.880773e+01 1.210010e+01 2.059078e+01 7.424814e-01 8.233049e-01 9.679061e-01 1.284881e+00 1.321001e+00 2.224345e+00 2.110124e+00 2.872829e+00 2.485773e+00 2.212609e+00 1.340808e+00 1.367476e+00 1.899997e+00
<GCONST> 8.612996e+01
<STATE> 3
<MEAN> 25
 5.491067e-01 -7.001015e+00 -6.830691e+00 -1.053429e+01 -1.697680e+00 5.921916e+00 2.705934e+00 -6.200926e+00 -3.562356e+00 -7.378455e-01 -3.067836e+00 -3.427142e+00 4.169498e-01 3.266672e-01 1.537747e-01 1.138514e-01 -1.327587e-02 1.887747e-01 -2.822031e-02 2.088247e-01 3.559043e-01 4.151855e-03 1.223106e-01 7.101807e-02 -5.956742e-01
<VARIANCE> 25
 2.049666e+01 1.746147e+01 1.188341e+01 1.819041e+01 2.048027e+01 3.782145e+01 2.840827e+01 3.028370e+01 2.741416e+01 2.022442e+01 1.435938e+01 2.222511e+01 1.073907e+00 7.392191e-01 7.649757e-01 6.709340e-01 1.150214e+00 4.090866e+00 2.416741e+00 2.642457e+00 2.645496e+00 1.789010e+00 1.406903e+00 1.360762e+00 1.247079e+00
<GCONST> 8.762617e+01
<STATE> 4
<MEAN> 25
 9.906693e-01 -1.861104e+00 -3.730135e+00 -3.890019e+00 6.442701e-01 3.208014e+00 1.827599e+00 -1.635227e+00 -5.010911e-01 8.455238e-01 -1.618223e-01 -7.358181e-01 5.480693e-02 2.060940e-01 1.513778e-01 1.693616e-01 5.762545e-02 -9.898430e-02 -5.132141e-02 1.984431e-01 -2.802313e-02 -5.494742e-02 1.098156e-01 1.269258e-01 -2.922089e-01
<VARIANCE> 25
 1.555560e+01 2.224657e+01 1.836675e+01 5.125641e+01 1.884712e+01 2.906237e+01 3.987653e+01 4.640218e+01 2.882726e+01 2.111998e+01 1.617422e+01 2.153571e+01 8.523678e-01 7.453771e-01 7.365898e-01 8.999789e-01 1.041002e+00 2.627211e+00 2.866755e+00 2.145241e+00 1.949580e+00 1.734380e+00 1.384362e+00 1.398493e+00 9.947161e-01
<GCONST> 8.856596e+01
<TRANSP> 5
 0.000000e+00 1.000000e+00 0.000000e+00 0.000000e+00 0.000000e+00
 0.000000e+00 9.123819e-01 8.761812e-02 0.000000e+00 0.000000e+00
 0.000000e+00 0.000000e+00 8.475268e-01 1.524732e-01 0.000000e+00
 0.000000e+00 0.000000e+00 0.000000e+00 9.508045e-01 4.919551e-02
 0.000000e+00 0.000000e+00 0.000000e+00 0.000000e+00 0.000000e+00
<ENDHMM>
~h "ay"
<BEGINHMM>
<NUMSTATES> 5
<STATE> 2
<MEAN> 25
 -3.879350e-01 -8.104657e+00 -6.400526e+00 -6.788231e+00 1.908838e-01 3.220011e-01 -1.979122e-01 -1.580843e+00 -2.724372e-01 -3.987754e-01 -4.151173e+00 -6.094955e+00 -1.874207e-01 -5.487118e-02 1.630264e-01 2.239546e-01 4.175865e-02 -1.173097e-01 5.416754e-02 2.217683e-01 2.085858e-01 -1.377562e-02 -2.381022e-01 -1.815820e-01 2.401772e-02
<VARIANCE> 25
 8.858764e+00 1.219361e+01 1.797271e+01 2.602726e+01 2.889462e+01 3.279611e+01 2.485296e+01 2.233269e+01 2.545187e+01 1.775860e+01 2.599133e+01 2.604062e+01 4.981218e-01 5.645816e-01 1.074384e+00 8.358288e-01 1.844298e+00 3.077277e+00 1.750661e+00 2.123956e+00 2.131692e+00 1.797115e+00 2.126523e+00 2.794279e+00 4.934393e-01
<GCONST> 8.667337e+01
<STATE> 3
<MEAN> 25
 -1.996496e-01 -5.357235e+00 -2.298876e+00 -2.757233e+00 -1.677101e+00 -2.676161e+00 -1.939240e-02 1.002349e+00 1.853696e+00 -6.522120e-01 -4.422643e+00 -3.888764e+00 1.981554e-02 4.551123e-01 6.648393e-01 4.407531e-01 -5.425575e-01 -4.943633e-01 2.415008e-02 2.445780e-01 1.237530e-01 -1.091155e-01 7.879657e-02 3.799290e-01 -4.727865e-01
<VARIANCE> 25
 1.389767e+01 2.309003e+01 2.791407e+01 3.164682e+01 4.045935e+01 4.182744e+01 2.547256e+01 2.159078e+01 1.943714e+01 2.096366e+01 2.984093e+01 3.339357e+01 6.069674e-01 5.307173e-01 1.399528e+00 8.895773e-01 2.820772e+00 2.924266e+00 2.032872e+00 2.193802e+00 2.091528e+00 2.072233e+00 2.178429e+00 2.609192e+00 6.491486e-01
<GCONST> 9.062329e+01
<STATE> 4
<MEAN> 25
 -4.345477e-01 8.150975e-03 7.152530e-02 2.152378e+00 1.658624e+00 4.037752e-01 2.468330e+00 2.872480e+00 2.266801e+00 1.131431e+00 1.194276e-01 -2.919832e-01 -5.703264e-02 2.687104e-01 2.318722e-01 7.355873e-02 -9.580872e-02 -1.699596e-03 -5.228272e-02 -4.265913e-02 -7.878268e-02 1.233966e-02 2.171981e-01 2.188424e-01 -2.906747e-01
<VARIANCE> 25
 8.985811e+00 1.748415e+01 1.217200e+01 2.327336e+01 3.739150e+01 2.899876e+01 1.904112e+01 1.705674e+01 1.813988e+01 2.025674e+01 2.672040e+01 1.882176e+01 7.104520e-01 6.950877e-01 1.179699e+00 8.969761e-01 1.941564e+00 1.557528e+00 1.857505e+00 1.682799e+00 1.875198e+00 1.885340e+00 1.648928e+00 1.641663e+00 5.008818e-01
<GCONST> 8.471372e+01
<TRANSP> 5
 0.000000e+00 1.000000e+00 0.000000e+00 0.000000e+00 0.000000e+00
 0.000000e+00 8.826497e-01 1.173503e-01 0.000000e+00 0.000000e+00
 0.000000e+00 0.000000e+00 7.412855e-01 2.587145e-01 0.000000e+00
 0.000000e+00 0.000000e+00 0.000000e+00 8.588929e-01 1.411071e-01
 0.000000e+00 0.000000e+00 0.000000e+00 0.000000e+00 0.000000e+00
<ENDHMM>
~h "ch"
<BEGINHMM>
<NUMSTATES> 5
<STATE> 2
<MEAN> 25
 -3.213337e-01 -3.046041e+00 2.144775e-01 -3.085170e+00 -4.549986e+00 -4.429657e+00 -3.964127e+00 -2.119067e+00 -1.061784e+00 -3.208289e+00 -1.362988e+00 -2.437967e-02 -7.935443e-03 -2.281159e-01 -1.006749e-01 -5.036407e-01 -4.024974e-01 -4.801655e-01 -3.932432e-01 -6.661069e-01 2.034544e-02 -3.812004e-01 -5.638603e-01 -1.508366e-01 8.997378e-01
<VARIANCE> 25
 3.814954e+01 2.054760e+01 4.660429e+01 2.868965e+01 3.664269e+01 2.397987e+01 4.255005e+01 7.570303e+01 4.671241e+01 2.936011e+01 4.821045e+01 2.206566e+01 3.541801e+00 1.618416e+00 2.763220e+00 2.627348e+00 2.507759e+00 3.184301e+00 3.854029e+00 7.412307e+00 4.326437e+00 3.387512e+00 3.953412e+00 1.661755e+00 5.190710e+00
<GCONST> 1.042311e+02
<STATE> 3
<MEAN> 25
 -2.897765e+00 -1.163546e+00 1.485744e-01 -3.790882e+00 -2.752999e+00 -2.806726e+00 -4.185153e+00 -2.339456e+00 -3.060058e-01 -4.951962e+00 -2.938856e+00 -1.035978e+00 -7.239169e-01 2.277647e-01 -4.200602e-01 -3.374444e-01 3.093720e-01 9.437036e-02 1.418332e-01 1.074220e-01 1.702344e-01 8.822643e-02 4.870919e-01 -1.963014e-02 2.131433e-01
<VARIANCE> 25
 6.055750e+01 4.505133e+01 4.767481e+01 2.110383e+01 3.101099e+01 2.428518e+01 3.703820e+01 3.080130e+01 4.510622e+01 2.270539e+01 6.186509e+01 1.654664e+01 4.834390e+00 2.403668e+00 2.880206e+00 2.204894e+00 2.843168e+00 2.705185e+00 3.052631e+00 2.709175e+00 2.891104e+00 2.007811e+00 3.655663e+00 1.723844e+00 2.835050e+00
<GCONST> 1.013943e+02
<STATE> 4
<MEAN> 25
 -6.594907e+00 2.937312e-01 2.081916e+00 -3.428925e+00 -3.204401e+00 -3.966909e-01 -8.489456e-01 -6.223419e-01 -1.145032e+00 -4.204863e+00 -3.827184e-01 -2.982039e+00 1.406167e-01 5.051419e-02 2.341185e-01 1.244498e-01 -1.557009e-01 -1.101456e-01 -1.734371e-01 -1.146144e-01 -1.205789e-01 4.513159e-02 6.928387e-02 6.924969e-03 1.119970e-02
<VARIANCE> 25
 7.809724e+01 3.411349e+01 2.628140e+01 1.507609e+01 4.039719e+01 3.378916e+01 6.209208e+01 4.770647e+01 3.107532e+01 2.261844e+01 4.128633e+01 4.563580e+01 4.165792e+00 1.284059e+00 2.033634e+00 2.045140e+00 2.333595e+00 2.649221e+00 3.544492e+00 2.840164e+00 2.449838e+00 2.415131e+00 3.631801e+00 3.076083e+00 1.945108e+00
<GCONST> 1.012152e+02
<TRANSP> 5
 0.000000e+00 1.000000e+00 0.000000e+00 0.000000e+00 0.000000e+00
 0.000000e+00 9.214810e-01 7.851908e-02 0.000000e+00 0.000000e+00
 0.000000e+00 0.000000e+00 8.068912e-01 1.931088e-01 0.000000e+00
 0.000000e+00 0.000000e+00 0.000000e+00 9.416040e-01 5.839605e-02
 0.000000e+00 0.000000e+00 0.000000e+00 0.000000e+00 0.000000e+00
<ENDHMM>
~h "dh"
<BEGINHMM>
<NUMSTATES> 5
<STATE> 2
<MEAN> 25
 3.662683e+00 -2.185010e+00 -1.403430e+00 -2.253619e-01 -3.895416e+00 -4.347383e+00 -2.648398e+00 2.573879e+00 4.344855e+00 1.574343e+00 -4.956290e+00 -2.995608e+00 -4.335152e-05 1.834276e-01 -3.501565e-01 4.788731e-01 7.641419e-01 5.579976e-01 3.834386e-01 4.587127e-01 -1.723040e-02 1.252135e-01 2.565343e-01 -8.826356e-02 -6.359184e-01
<VARIANCE> 25
 2.160487e+01 2.235778e+01 2.544715e+01 4.515897e+01 5.498347e+01 3.251913e+01 1.864308e+01 5.175319e+01 3.578152e+01 1.514427e+01 2.057885e+01 1.994464e+01 1.043657e+00 5.072193e-01 6.250479e-01 1.549984e+00 2.700481e+00 2.087037e+00 1.406473e+00 1.028968e+00 1.403287e+00 1.883510e+00 1.021373e+00 1.402716e+00 1.001255e+00
<GCONST> 8.861073e+01
<STATE> 3
<MEAN> 25
 2.924377e+00 -1.125316e+00 -2.219377e+00 2.603509e+00 4.171178e-01 -1.294945e+00 -6.573701e-01 3.292260e+00 3.149520e+00 1.492357e+00 -3.297047e+00 -3.002633e+00 -1.895199e-01 2.970360e-01 -1.088156e-01 3.262746e-01 7.679417e-01 6.892295e-01 5.840671e-01 2.974599e-01 -1.671266e-01 -6.809918e-02 1.920176e-01 2.091499e-02 -7.853827e-01
<VARIANCE> 25
 2.268604e+01 2.424008e+01 2.462153e+01 4.519804e+01 4.399993e+01 3.253621e+01 2.284086e+01 6.088910e+01 3.104790e+01 1.439021e+01 1.756227e+01 1.935973e+01 9.732651e-01 5.457180e-01 6.151385e-01 1.551800e+00 2.036098e+00 1.856505e+00 1.245120e+00 1.125326e+00 1.248833e+00 1.482520e+00 1.204352e+00 1.284614e+00 7.819818e-01
<GCONST> 8.750076e+01
<STATE> 4
<MEAN> 25
 -1.118085e+00 1.961555e+00 -8.663177e-01 4.165408e+00 6.438019e+00 4.148334e+00 5.832753e+00 4.530651e+00 2.536024e+00 3.733577e+00 1.337876e+00 1.433804e-01 -8.769795e-02 3.512225e-02 1.280273e-02 -3.514768e-02 6.803272e-02 1.021956e-01 8.399154e-02 -6.704096e-02 -4.749128e-02 5.224629e-02 1.294947e-01 7.238092e-02 -1.337457e-01
<VARIANCE> 25
 5.168869e+00 6.836513e+00 7.011501e+00 1.071684e+01 1.116219e+01 1.176651e+01 1.412743e+01 1.844124e+01 1.266440e+01 1.443659e+01 1.549077e+01 1.223952e+01 2.393146e-01 2.351502e-01 3.616568e-01 6.787288e-01 8.570063e-01 1.133439e+00 1.109186e+00 1.075466e+00 1.171711e+00 1.544702e+00 1.132476e+00 1.059370e+00 2.058088e-01
<GCONST> 6.978499e+01
<TRANSP> 5
 0.000000e+00 1.000000e+00 0.000000e+00 0.000000e+00 0.000000e+00
 0.000000e+00 7.346193e-01 2.653808e-01 0.000000e+00 0.000000e+00
 0.000000e+00 0.000000e+00 7.135965e-01 2.864035e-01 0.000000e+00
 0.000000e+00 0.000000e+00 0.000000e+00 9.684818e-01 3.151811e-02
 0.000000e+00 0.000000e+00 0.000000e+00 0.000000e+00 0.000000e+00
<ENDHMM>
~h "eh"
<BEGINHMM>
<NUMSTATES> 5
<STATE> 2
<MEAN> 25
 4.730281e-01 -3.573331e+00 -3.591527e-01 -2.543017e+00 -5.313033e+00 -5.998132e+00 -2.663251e+00 1.053586e-01 2.123425e+00 -2.948820e+00 -4.740849e+00 -1.837614e+00 2.117345e-01 -4.008363e-01 -1.365896e-01 -1.411489e-01 -3.369610e-01 -4.548153e-01 -5.566291e-02 2.601070e-01 3.053853e-01 -2.622632e-01 -6.318693e-01 -2.712232e-01 5.222508e-01
<VARIANCE> 25
 1.933746e+01 1.751851e+01 2.305761e+01 2.685198e+01 3.164222e+01 3.354229e+01 3.557874e+01 2.873598e+01 3.216795e+01 2.562272e+01 3.780423e+01 1.995634e+01 2.112932e+00 1.481795e+00 1.641325e+00 1.439637e+00 2.762554e+00 3.558612e+00 2.993071e+00 2.752309e+00 2.894084e+00 2.619346e+00 3.258527e+00 1.911799e+00 2.681052e+00
<GCONST> 9.667479e+01
<STATE> 3
<MEAN> 25
 4.023181e-01 -4.321930e+00 -6.129080e-01 -3.047557e+00 -5.414751e+00 -5.963521e+00 -2.830370e+00 2.843439e-01 2.681787e+00 -3.265276e+00 -6.149241e+00 -2.847636e+00 3.181005e-02 -3.867123e-02 -8.969104e-02 -3.677929e-02 4.676720e-02 2.478711e-01 7.154579e-02 3.562514e-02 2.290395e-02 4.347821e-02 -1.547124e-01 -1.692231e-01 -9.750015e-02
<VARIANCE> 25
 2.106726e+01 1.549690e+01 2.148334e+01 2.180332e+01 2.914584e+01 3.355782e+01 2.624533e+01 2.940555e+01 3.093393e+01 2.798861e+01 3.786491e+01 2.306876e+01 1.752257e+00 8.135929e-01 1.544628e+00 1.135447e+00 1.782463e+00 2.952484e+00 2.700241e+00 2.479547e+00 2.145186e+00 2.432655e+00 3.167008e+00 1.716366e+00 2.124750e+00
<GCONST> 9.353237e+01
<STATE> 4
<MEAN> 25
 3.058369e-01 -4.148999e+00 -9.768934e-01 -2.708196e+00 -4.666362e+00 -4.477098e+00 -2.184361e+00 3.552420e-01 2.736851e+00 -2.560654e+00 -5.282074e+00 -2.823265e+00 2.000506e-01 1.144415e-01 2.756110e-02 -4.900112e-02 8.369296e-03 4.878283e-01 7.661927e-02 -1.469121e-01 -2.114420e-01 2.214119e-01 3.559237e-01 2.817653e-02 -4.348090e-01
<VARIANCE> 25
 2.302055e+01 1.550434e+01 2.005042e+01 2.535147e+01 3.397055e+01 3.619806e+01 2.589651e+01 3.142833e+01 2.623769e+01 2.821113e+01 3.904666e+01 2.877002e+01 1.544672e+00 6.152930e-01 1.306754e+00 1.094097e+00 1.551353e+00 2.195767e+00 2.607920e+00 2.327286e+00 1.831048e+00 2.083297e+00 2.916403e+00 1.735097e+00 1.364110e+00
<GCONST> 9.210914e+01
<TRANSP> 5
 0.000000e+00 1.000000e+00 0.000000e+00 0.000000e+00 0.000000e+00
 0.000000e+00 6.966730e-01 3.033270e-01 0.000000e+00 0.000000e+00
 0.000000e+00 0.000000e+00 6.811038e-01 3.188963e-01 0.000000e+00
 0.000000e+00 0.000000e+00 0.000000e+00 7.349641e-01 2.650358e-01
 0.000000e+00 0.000000e+00 0.000000e+00 0.000000e+00 0.000000e+00
<ENDHMM>
~h "er"
<BEGINHMM>
<NUMSTATES> 5
<STATE> 2
<MEAN> 25
 2.340767e+00 -4.578342e+00 -8.962117e-01 -3.187072e+00 -6.744196e+00 -8.389778e+00 -8.392922e+00 -4.919433e+00 1.243370e+00 7.999931e-01 -6.133489e-01 1.134547e+00 4.550722e-01 -2.361386e-02 -7.893562e-02 4.286915e-01 -5.128485e-02 -1.814578e-01 8.617808e-02 4.803081e-01 2.541777e-01 1.076175e-01 -2.608811e-01 -7.772835e-02 -2.269063e-01
<VARIANCE> 25
 1.889098e+01 1.182164e+01 1.307196e+01 2.511598e+01 2.873672e+01 2.661486e+01 3.454961e+01 4.272600e+01 3.466893e+01 1.828244e+01 3.253740e+01 2.519041e+01 1.003347e+00 6.875201e-01 8.599664e-01 1.533706e+00 1.088000e+00 1.521744e+00 1.575134e+00 1.782565e+00 1.996017e+00 1.871423e+00 2.079724e+00 1.589634e+00 8.387828e-01
<GCONST> 8.802689e+01
<STATE> 3
<MEAN> 25
 4.862388e+00 -3.503464e+00 -6.644263e-01 1.276430e+00 -5.723531e+00 -8.444685e+00 -7.059926e+00 -6.540611e-01 2.627576e+00 9.839547e-01 -2.030780e+00 1.086857e+00 2.996536e-01 2.787216e-01 -6.005755e-02 7.820339e-01 4.761759e-01 6.707279e-02 3.226947e-01 6.136501e-01 4.829675e-02 -2.425440e-02 -3.701024e-03 9.186798e-02 -7.460657e-01
<VARIANCE> 25
 2.274030e+01 1.580772e+01 1.351395e+01 3.261757e+01 3.530840e+01 3.096547e+01 3.628123e+01 3.241286e+01 2.005677e+01 1.806328e+01 2.050472e+01 1.833491e+01 1.226130e+00 6.475876e-01 7.433970e-01 1.858460e+00 1.401128e+00 1.618423e+00 1.690542e+00 1.731029e+00 1.685436e+00 1.674205e+00 1.510354e+00 1.371574e+00 8.475682e-01
<GCONST> 8.739426e+01
<STATE> 4
<MEAN> 25
 1.037357e+00 7.868057e-01 -6.887052e-02 4.168319e+00 4.296573e+00 9.408284e-01 2.213536e+00 3.065723e+00 3.008732e+00 2.777949e+00 9.369276e-01 8.415670e-01 -1.684224e-01 1.163849e-01 1.519476e-02 4.805266e-02 2.792139e-01 2.679089e-01 2.460499e-01 6.429966e-02 -1.805897e-02 3.922081e-02 8.651742e-02 -4.175591e-02 -2.754491e-01
<VARIANCE> 25
 1.354375e+01 7.730433e+00 9.244447e+00 1.264429e+01 2.956212e+01 3.878140e+01 3.191789e+01 1.713163e+01 1.388436e+01 1.524528e+01 1.584525e+01 1.178755e+01 5.572420e-01 4.149718e-01 4.868922e-01 9.168395e-01 1.293971e+00 1.334341e+00 1.372202e+00 1.324620e+00 1.364849e+00 1.393533e+00 1.153076e+00 1.077321e+00 3.995795e-01
<GCONST> 7.810802e+01
<TRANSP> 5
 0.000000e+00 1.000000e+00 0.000000e+00 0.000000e+00 0.000000e+00
 0.000000e+00 7.698521e-01 2.301479e-01 0.000000e+00 0.000000e+00
 0.000000e+00 0.000000e+00 7.621071e-01 2.378929e-01 0.000000e+00
 0.000000e+00 0.000000e+00 0.000000e+00 9.568490e-01 4.315106e-02
 0.000000e+00 0.000000e+00 0.000000e+00 0.000000e+00 0.000000e+00
<ENDHMM>
~h "ey"
<BEGINHMM>
<NUMSTATES> 5
<STATE> 2
<MEAN> 25
 -1.994884e+00 -1.853955e+00 5.145403e+00 -3.975669e+00 -1.123844e+01 -7.051617e+00 -3.383602e+00 -5.830277e+00 -1.816621e+00 -2.705929e+00 7.878335e-01 1.245103e+00 -1.239772e-02 1.346486e-01 4.782076e-01 -3.067948e-02 -4.045111e-01 1.011639e-01 -2.245831e-01 -6.257781e-01 -3.199353e-01 -1.003669e-01 9.839457e-02 2.163498e-02 1.435202e-01
<VARIANCE> 25
 1.057914e+01 1.376957e+01 2.792866e+01 1.602746e+01 2.963651e+01 3.161462e+01 3.229589e+01 5.572993e+01 2.948322e+01 2.564253e+01 2.610200e+01 1.377135e+01 6.885317e-01 1.016844e+00 1.358523e+00 1.431565e+00 2.704937e+00 2.424650e+00 2.226599e+00 3.294117e+00 2.538635e+00 2.577525e+00 2.341712e+00 1.640594e+00 2.651270e+00
<GCONST> 9.226447e+01
<STATE> 3
<MEAN> 25
 -1.113226e+00 -7.302264e-02 7.883104e+00 -2.532897e+00 -1.090482e+01 -4.062324e+00 -3.981087e+00 -6.955018e+00 -3.408192e+00 -2.793954e+00 1.597963e+00 1.062180e+00 2.789828e-01 1.599179e-01 7.976179e-02 2.819657e-01 2.598085e-01 3.426024e-01 2.027868e-02 2.445477e-01 3.340388e-02 9.443314e-02 -2.899958e-02 -6.417919e-02 -7.088556e-01
<VARIANCE> 25
 1.740642e+01 1.931972e+01 3.670047e+01 2.055419e+01 3.202901e+01 3.871490e+01 3.288845e+01 3.641730e+01 2.807177e+01 2.880410e+01 2.080678e+01 1.387200e+01 9.671259e-01 9.021947e-01 1.938972e+00 1.461569e+00 2.253509e+00 2.134786e+00 2.593454e+00 3.054804e+00 2.530246e+00 2.522483e+00 2.241501e+00 1.569209e+00 1.303204e+00
<GCONST> 9.288418e+01
<STATE> 4
<MEAN> 25
 1.224743e-01 1.033466e+00 4.867775e+00 7.675579e-01 -3.989254e+00 -6.174064e-01 -9.275252e-01 -2.071666e+00 -1.191384e+00 -8.817688e-01 1.370296e+00 9.982823e-01 1.154567e-01 9.254117e-02 -6.196057e-01 2.857519e-01 7.589372e-01 3.113098e-01 2.936428e-01 5.074133e-01 2.425509e-01 1.445627e-01 -2.125146e-01 -8.603505e-02 -4.945461e-01
<VARIANCE> 25
 2.118108e+01 2.012929e+01 3.451463e+01 3.100933e+01 7.776566e+01 4.328620e+01 3.383316e+01 3.879263e+01 2.761331e+01 2.793852e+01 1.919018e+01 1.424473e+01 1.247506e+00 9.519044e-01 1.388409e+00 1.487236e+00 1.993953e+00 1.953041e+00 2.413188e+00 2.395314e+00 1.936671e+00 2.141490e+00 1.804014e+00 1.436038e+00 7.995667e-01
<GCONST> 9.269976e+01
<TRANSP> 5
 0.000000e+00 1.000000e+00 0.000000e+00 0.000000e+00 0.000000e+00
 0.000000e+00 8.941846e-01 1.058154e-01 0.000000e+00 0.000000e+00
 0.000000e+00 0.000000e+00 7.971889e-01 2.028111e-01 0.000000e+00
 0.000000e+00 0.000000e+00 0.000000e+00 7.777242e-01 2.222758e-01
 0.000000e+00 0.000000e+00 0.000000e+00 0.000000e+00 0.000000e+00
<ENDHMM>
~h "hh"
<BEGINHMM>
<NUMSTATES> 5
<STATE> 2
<MEAN> 25
 -1.054606e+00 -1.981741e+00 -1.477247e+00 -6.326401e-01 1.175723e-01 -9.819427e-01 1.226542e+00 5.603369e-01 -1.481578e+00 -3.661074e+00 -2.939016e+00 8.039222e-01 -1.099652e-01 -1.525178e-01 -2.445236e-01 -2.514024e-01 2.338916e-03 1.430781e-01 -3.663334e-02 -1.286164e-01 -1.719639e-02 -9.659791e-04 -2.626624e-01 -3.442150e-01 4.873052e-01
<VARIANCE> 25
 1.087304e+01 3.250923e+01 2.478919e+01 2.304671e+01 2.184287e+01 2.343176e+01 3.847871e+01 4.492723e+01 2.170248e+01 4.661918e+01 5.607299e+01 2.427662e+01 4.559737e-01 8.835648e-01 7.860361e-01 1.233281e+00 1.168302e+00 1.763762e+00 2.488891e+00 3.912285e+00 1.753457e+00 2.612655e+00 2.875799e+00 2.269050e+00 1.488344e+00
<GCONST> 9.184548e+01
<STATE> 3
<MEAN> 25
 -1.140967e+00 -1.683996e+00 -1.587779e+00 -1.480892e+00 7.058332e-01 1.648358e-02 -3.589606e-02 -9.507398e-01 -8.677933e-01 -2.423439e+00 -3.002264e+00 -1.336231e+00 -6.183639e-02 -1.096256e-01 -1.302029e-01 -5.277044e-02 6.677193e-02 1.777761e-01 1.568328e-01 -4.469376e-02 -9.139479e-03 2.410378e-01 2.768016e-02 -3.225417e-01 1.005420e-01
<VARIANCE> 25
 9.384748e+00 3.456953e+01 2.485188e+01 3.406074e+01 1.877610e+01 2.237160e+01 2.714444e+01 4.330764e+01 2.248211e+01 4.195130e+01 4.971067e+01 2.341273e+01 3.081086e-01 4.995870e-01 4.377945e-01 9.466556e-01 1.152977e+00 1.176664e+00 1.689249e+00 2.360840e+00 1.606779e+00 2.165148e+00 2.254364e+00 1.801743e+00 8.175807e-01
<GCONST> 8.687185e+01
<STATE> 4
<MEAN> 25
 -7.185020e-02 1.516683e+00 5.741795e-01 3.360240e+00 3.123479e+00 1.329972e+00 2.987360e+00 1.590010e+00 1.025027e+00 1.801263e+00 1.420433e+00 -1.661086e-02 1.777393e-02 -7.687400e-02 -2.967775e-03 1.281599e-02 1.530843e-02 8.750072e-04 9.989697e-02 1.107345e-01 5.847013e-02 1.824635e-02 2.915306e-02 5.264519e-02 -2.782710e-02
<VARIANCE> 25
 7.382609e+00 1.510175e+01 1.049560e+01 1.768592e+01 1.493872e+01 1.393178e+01 1.453615e+01 2.694413e+01 2.720604e+01 3.893109e+01 2.804279e+01 2.226141e+01 2.379443e-01 4.281368e-01 3.730247e-01 4.934736e-01 9.121095e-01 9.663019e-01 1.197920e+00 1.591380e+00 1.510466e+00 1.679920e+00 1.491977e+00 1.443241e+00 3.333551e-01
<GCONST> 7.773703e+01
<TRANSP> 5
 0.000000e+00 1.000000e+00 0.000000e+00 0.000000e+00 0.000000e+00
 0.000000e+00 7.851901e-01 2.148099e-01 0.000000e+00 0.000000e+00
 0.000000e+00 0.000000e+00 7.407455e-01 2.592545e-01 0.000000e+00
 0.000000e+00 0.000000e+00 0.000000e+00 9.564549e-01 4.354514e-02
 0.000000e+00 0.000000e+00 0.000000e+00 0.000000e+00 0.000000e+00
<ENDHMM>
~h "ih"
<BEGINHMM>
<NUMSTATES> 5
<STATE> 2
<MEAN> 25
 -1.292102e+00 1.509055e+00 3.192867e+00 2.034559e-01 -3.246868e+00 -3.861911e+00 -4.233063e+00 -3.851592e+00 -5.079612e+00 -3.744355e+00 -2.642639e-01 2.961399e-01 4.792069e-01 -1.532658e-01 8.132803e-01 -4.730839e-01 -1.246695e+00 -7.068217e-01 -7.939275e-01 -9.026791e-01 -7.283839e-01 -9.641747e-01 -1.634393e-01 9.637798e-02 1.063554e+00
<VARIANCE> 25
 5.417823e+01 2.001763e+01 3.871337e+01 3.139849e+01 5.219718e+01 3.277596e+01 5.865728e+01 7.681455e+01 4.121883e+01 3.827687e+01 2.713665e+01 2.431601e+01 4.262237e+00 1.744337e+00 2.611572e+00 2.712425e+00 4.692662e+00 3.148608e+00 4.720658e+00 4.647398e+00 3.623067e+00 3.576820e+00 2.316471e+00 2.656897e+00 3.173199e+00
<GCONST> 1.050312e+02
<STATE> 3
<MEAN> 25
 -4.709679e-01 5.748010e-01 5.359521e+00 -1.330398e+00 -6.873848e+00 -4.499602e+00 -5.438445e+00 -6.975696e+00 -6.351349e+00 -6.097638e+00 -1.104191e+00 1.979337e-01 1.230358e-01 -1.508689e-01 3.393508e-01 -2.047604e-01 -4.816525e-01 2.817681e-02 -6.486702e-02 -3.489327e-01 -4.149422e-02 -1.921276e-01 -9.244241e-02 -8.403494e-02 2.384674e-01
<VARIANCE> 25
 3.701941e+01 1.387467e+01 3.909608e+01 2.960840e+01 4.516397e+01 2.722230e+01 4.080462e+01 7.422265e+01 3.472499e+01 4.638155e+01 2.867597e+01 2.223355e+01 2.563669e+00 1.283307e+00 2.465021e+00 2.600144e+00 3.634564e+00 2.824395e+00 3.425073e+00 3.809051e+00 2.923184e+00 3.808737e+00 2.308347e+00 2.229252e+00 3.085542e+00
<GCONST> 1.013355e+02
<STATE> 4
<MEAN> 25
 -1.176461e+00 1.229952e+00 5.793054e+00 -1.091947e+00 -6.594974e+00 -2.986912e+00 -4.659180e+00 -6.372536e+00 -5.965665e+00 -5.002266e+00 -1.478818e+00 -4.099512e-01 -5.014409e-02 -3.034299e-02 -1.936847e-01 1.432964e-01 2.979617e-01 1.539176e-01 1.506408e-01 3.450333e-01 2.867892e-01 3.935333e-01 -2.393605e-02 -2.965029e-02 -3.093267e-01
<VARIANCE> 25
 4.332874e+01 1.488727e+01 4.924400e+01 3.197569e+01 4.373697e+01 2.665921e+01 3.412174e+01 8.251676e+01 3.006098e+01 4.387498e+01 2.879918e+01 2.257025e+01 2.341558e+00 1.030378e+00 2.723415e+00 2.297132e+00 2.964450e+00 2.136992e+00 2.769439e+00 3.956481e+00 2.668931e+00 3.269935e+00 2.290458e+00 2.059108e+00 2.391099e+00
<GCONST> 9.998743e+01
<TRANSP> 5
 0.000000e+00 1.000000e+00 0.000000e+00 0.000000e+00 0.000000e+00
 0.000000e+00 6.910672e-01 3.089328e-01 0.000000e+00 0.000000e+00
 0.000000e+00 0.000000e+00 7.383289e-01 2.616711e-01 0.000000e+00
 0.000000e+00 0.000000e+00 0.000000e+00 8.616716e-01 1.383284e-01
 0.000000e+00 0.000000e+00 0.000000e+00 0.000000e+00 0.000000e+00
<ENDHMM>
~h "iy"
<BEGINHMM>
<NUMSTATES> 5
<STATE> 2
<MEAN> 25
 -2.116136e+00 8.064067e-01 7.260087e+00 -1.491490e+00 -9.028524e+00 -5.358525e+00 -4.280451e+00 -8.505741e+00 -4.717456e+00 -6.072164e+00 -1.575076e+00 -1.545099e+00 6.170913e-02 1.081979e-01 7.518470e-01 -1.389558e-01 -7.741138e-01 1.734652e-01 7.973555e-03 -6.190003e-01 -3.506764e-01 -4.429747e-01 8.241260e-02 -4.302636e-04 2.068860e-01
<VARIANCE> 25
 2.051480e+01 1.731679e+01 3.189213e+01 2.410430e+01 4.628354e+01 4.188006e+01 3.405906e+01 4.212283e+01 3.073384e+01 2.743168e+01 2.848093e+01 2.198897e+01 9.604101e-01 7.188636e-01 1.857714e+00 1.844428e+00 2.653663e+00 2.275696e+00 3.423873e+00 2.993852e+00 2.823575e+00 2.702173e+00 2.132913e+00 1.782185e+00 1.412351e+00
<GCONST> 9.517886e+01
<STATE> 3
<MEAN> 25
 -1.044552e+00 8.479388e-01 9.047432e+00 -9.017064e-01 -1.016386e+01 -4.083495e+00 -4.030618e+00 -9.877272e+00 -5.949852e+00 -6.321818e+00 -6.454051e-01 -6.242903e-01 2.379416e-01 -6.444412e-02 9.282220e-02 2.294501e-01 3.173524e-02 1.465633e-01 5.118664e-02 1.988656e-02 -7.535818e-02 1.032984e-01 1.620089e-01 1.462940e-01 -3.987131e-01
<VARIANCE> 25
 1.746748e+01 1.214725e+01 3.096955e+01 3.133916e+01 3.906593e+01 3.604738e+01 2.806725e+01 3.682962e+01 2.861181e+01 2.999872e+01 3.105011e+01 1.876278e+01 7.654072e-01 6.435893e-01 1.938902e+00 1.746460e+00 2.373966e+00 1.879367e+00 2.221492e+00 2.504318e+00 2.047726e+00 2.401186e+00 2.210350e+00 1.614375e+00 1.291601e+00
<GCONST> 9.233972e+01
<STATE> 4
<MEAN> 25
 3.636622e-01 4.970483e-01 6.391850e+00 1.377359e+00 -5.702506e+00 -3.573170e+00 -3.275297e+00 -6.341476e+00 -4.685421e+00 -3.470832e+00 3.410641e-01 6.078620e-01 1.034768e-01 -1.019394e-01 -3.185508e-01 2.081946e-01 5.042183e-01 -2.135937e-02 7.444004e-03 5.167983e-01 3.836403e-01 2.560270e-01 3.454948e-02 6.089399e-02 -3.860170e-01
<VARIANCE> 25
 1.336761e+01 1.228825e+01 2.542297e+01 3.254642e+01 5.690712e+01 3.769317e+01 3.431870e+01 4.410970e+01 3.441611e+01 3.545249e+01 2.487622e+01 1.523024e+01 6.884050e-01 5.847588e-01 1.569350e+00 1.507747e+00 2.084033e+00 1.723690e+00 1.784628e+00 2.177291e+00 2.625361e+00 2.190655e+00 1.953255e+00 1.550961e+00 8.343080e-01
<GCONST> 9.106796e+01
<TRANSP> 5
 0.000000e+00 1.000000e+00 0.000000e+00 0.000000e+00 0.000000e+00
 0.000000e+00 8.204694e-01 1.795306e-01 0.000000e+00 0.000000e+00
 0.000000e+00 0.000000e+00 8.269047e-01 1.730953e-01 0.000000e+00
 0.000000e+00 0.000000e+00 0.000000e+00 8.601173e-01 1.398827e-01
 0.000000e+00 0.000000e+00 0.000000e+00 0.000000e+00 0.000000e+00
<ENDHMM>
~h "jh"
<BEGINHMM>
<NUMSTATES> 5
<STATE> 2
<MEAN> 25
 -3.074375e-01 -8.619331e-01 4.628664e+00 -2.691181e+00 -7.584634e+00 -1.203109e+00 -1.187099e+00 -5.494287e+00 -8.098512e+00 -7.076278e+00 -3.361800e+00 -4.421179e+00 3.372553e-01 -1.834093e-01 4.187466e-01 -6.576816e-01 -1.243542e+00 4.994874e-01 -1.236306e+00 -1.273413e+00 -6.066535e-01 -4.241917e-01 -9.986567e-02 5.568759e-01 5.930707e-01
<VARIANCE> 25
 1.714308e+01 1.178681e+01 3.480919e+01 2.616034e+01 6.165468e+01 2.900600e+01 3.811737e+01 4.056316e+01 2.282410e+01 2.392002e+01 1.092363e+01 5.391285e+01 2.042484e+00 1.477268e+00 1.880131e+00 2.650280e+00 6.727966e+00 3.421487e+00 3.255127e+00 5.508523e+00 3.910308e+00 4.445705e+00 1.571738e+00 1.858793e+00 5.085836e+00
<GCONST> 9.987038e+01
<STATE> 3
<MEAN> 25
 -9.611552e-01 -1.768948e+00 2.110140e+00 -4.913039e+00 -7.493217e+00 -2.482138e+00 -6.383444e+00 -8.831866e+00 -6.873113e+00 -5.792629e+00 -9.229473e-01 1.909464e-01 -2.107652e-01 -2.159396e-01 -3.000173e-01 -5.747702e-02 4.853975e-03 -4.706973e-01 -2.994172e-01 -2.099170e-01 2.377234e-01 5.361613e-02 2.962270e-01 1.805198e-01 4.489489e-01
<VARIANCE> 25
 2.379728e+01 2.422584e+01 3.250141e+01 1.513115e+01 2.813824e+01 2.630847e+01 1.535271e+01 3.538864e+01 2.430944e+01 1.976822e+01 1.583146e+01 1.660732e+01 2.820259e+00 1.736740e+00 1.998632e+00 1.155723e+00 4.796735e+00 2.858603e+00 1.501729e+00 4.017128e+00 2.401269e+00 2.621305e+00 1.910249e+00 1.723199e+00 2.281392e+00
<GCONST> 9.385078e+01
<STATE> 4
<MEAN> 25
 4.274616e-01 -1.127944e+00 3.706906e+00 -2.915418e+00 -7.380902e+00 -2.578799e+00 -6.001094e+00 -6.396251e+00 -4.132178e+00 -6.486087e+00 -2.822300e+00 5.721490e-02 1.371028e-01 1.594919e-01 1.913609e-01 3.647245e-01 2.429131e-01 2.639811e-02 -1.185951e-02 3.675402e-01 3.635995e-01 1.068860e-01 -2.504868e-01 -4.805638e-02 -3.290607e-01
<VARIANCE> 25
 3.607859e+01 2.319835e+01 3.962417e+01 2.702378e+01 2.384546e+01 3.541878e+01 1.429041e+01 2.358270e+01 2.607440e+01 2.518596e+01 2.407061e+01 1.070575e+01 3.166972e+00 1.522754e+00 3.755285e+00 1.734788e+00 2.626188e+00 2.935351e+00 1.329065e+00 1.830821e+00 2.075376e+00 2.942162e+00 2.106167e+00 1.327597e+00 2.260925e+00
<GCONST> 9.428308e+01
<TRANSP> 5
 0.000000e+00 1.000000e+00 0.000000e+00 0.000000e+00 0.000000e+00
 0.000000e+00 7.931833e-01 2.068166e-01 0.000000e+00 0.000000e+00
 0.000000e+00 0.000000e+00 8.504539e-01 1.495461e-01 0.000000e+00
 0.000000e+00 0.000000e+00 0.000000e+00 9.476570e-01 5.234303e-02
 0.000000e+00 0.000000e+00 0.000000e+00 0.000000e+00 0.000000e+00
<ENDHMM>
~h "ng"
<BEGINHMM>
<NUMSTATES> 5
<STATE> 2
<MEAN> 25
 2.068739e-01 -5.546761e+00 -1.394984e+00 -3.698674e+00 -5.572832e-01 -3.399979e-01 -5.245378e+00 -5.685660e+00 -4.930597e-01 -1.904777e+00 -4.235880e+00 -5.147571e+00 2.654822e-01 2.444944e-02 2.673826e-01 -3.016565e-02 -2.912548e-01 2.754970e-02 -3.296168e-01 -3.525280e-01 -1.326534e-02 -5.566422e-02 -8.659561e-02 -1.411424e-02 8.147538e-02
<VARIANCE> 25
 1.158854e+01 3.042768e+01 7.028423e+01 1.560196e+01 4.957360e+01 4.654609e+01 2.983825e+01 2.929058e+01 3.370509e+01 4.307495e+01 2.489689e+01 2.125561e+01 8.812707e-01 9.971771e-01 3.281218e+00 1.378953e+00 3.445855e+00 3.770764e+00 2.865246e+00 3.857463e+00 3.541977e+00 4.074447e+00 1.829460e+00 1.649043e+00 1.769917e+00
<GCONST> 9.757316e+01
<STATE> 3
<MEAN> 25
 5.579625e+00 -2.418728e-01 6.133087e+00 -1.874652e+00 -5.777085e+00 1.683225e+00 -7.876889e+00 -6.978372e+00 -2.042833e+00 -2.643670e+00 -3.672192e+00 -1.928125e+00 5.391197e-01 6.732589e-01 3.655334e-01 3.149459e-01 -1.423280e-01 2.623944e-01 2.153299e-01 -9.604540e-02 -3.172230e-01 9.293932e-02 1.446979e-02 3.277948e-01 -9.253355e-01
<VARIANCE> 25
 9.804819e+00 1.381917e+01 3.280060e+01 1.257776e+01 2.313452e+01 1.964367e+01 2.735634e+01 1.605784e+01 2.748415e+01 2.250469e+01 1.406969e+01 1.452536e+01 8.453146e-01 4.216589e-01 1.546332e+00 9.899011e-01 1.910750e+00 2.038702e+00 2.123469e+00 1.560014e+00 1.586009e+00 1.601722e+00 1.126201e+00 1.391651e+00 8.237624e-01
<GCONST> 8.396917e+01
<STATE> 4
<MEAN> 25
 6.255861e+00 3.483833e+00 4.918400e+00 1.770285e+00 -2.585601e+00 1.281851e+00 -2.881032e+00 -4.693539e+00 -3.702862e+00 -1.734810e+00 -2.003912e+00 1.381343e-02 -3.903863e-01 1.177461e-01 -4.705133e-01 5.041171e-01 8.344994e-01 -2.357491e-01 7.150636e-01 6.591868e-01 3.431590e-02 3.303096e-01 1.918043e-01 2.262738e-01 -6.785967e-01
<VARIANCE> 25
 1.514569e+01 1.450711e+01 1.561600e+01 1.822578e+01 2.527234e+01 1.613281e+01 3.634396e+01 3.281792e+01 1.297015e+01 1.517351e+01 1.116071e+01 1.335610e+01 1.218691e+00 1.491264e+00 8.750579e-01 1.223358e+00 1.663173e+00 1.617498e+00 2.189960e+00 2.275418e+00 1.579973e+00 1.216042e+00 1.116262e+00 1.481630e+00 1.728563e+00
<GCONST> 8.533616e+01
<TRANSP> 5
 0.000000e+00 1.000000e+00 0.000000e+00 0.000000e+00 0.000000e+00
 0.000000e+00 9.356028e-01 6.439714e-02 0.000000e+00 0.000000e+00
 0.000000e+00 0.000000e+00 8.019990e-01 1.980010e-01 0.000000e+00
 0.000000e+00 0.000000e+00 0.000000e+00 9.108139e-01 8.918606e-02
 0.000000e+00 0.000000e+00 0.000000e+00 0.000000e+00 0.000000e+00
<ENDHMM>
~h "ow"
<BEGINHMM>
<NUMSTATES> 5
<STATE> 2
<MEAN> 25
 3.716593e+00 -2.678359e+00 -2.287117e+00 -5.239788e+00 -2.678025e+00 -1.458935e+00 -4.937516e-01 -4.848967e-01 1.859891e-01 6.772639e-01 1.827474e+00 3.560780e-01 2.170403e-01 1.116735e-01 1.239597e-03 6.242347e-02 6.977618e-02 2.640679e-01 1.557294e-01 -7.252956e-02 -8.914898e-02 -2.145458e-02 6.567961e-02 1.285595e-01 -2.680624e-01
<VARIANCE> 25
 1.208307e+01 1.829164e+01 7.085602e+00 3.905284e+01 3.146700e+01 3.156239e+01 3.569542e+01 2.433479e+01 1.565943e+01 2.056797e+01 1.472654e+01 1.466495e+01 5.312747e-01 6.241296e-01 4.508963e-01 1.046045e+00 1.160874e+00 1.777133e+00 1.598916e+00 1.681322e+00 1.479271e+00 1.246624e+00 1.197705e+00 1.067131e+00 1.211016e+00
<GCONST> 8.269244e+01
<STATE> 3
<MEAN> 25
 5.379495e+00 1.942639e-01 -1.540096e+00 -2.486351e+00 -5.646019e-01 1.691532e+00 -1.824530e-01 -1.584863e+00 -5.703235e-01 8.938090e-01 1.889243e+00 1.235890e+00 -2.175217e-02 3.513071e-01 8.209008e-02 4.660219e-01 3.877653e-01 3.529696e-01 2.257089e-01 3.471283e-02 -1.765838e-02 3.747828e-02 -2.688286e-02 6.926375e-02 -7.872639e-01
<VARIANCE> 25
 1.829908e+01 1.936923e+01 8.418601e+00 3.871709e+01 3.187564e+01 3.097972e+01 3.341930e+01 2.523908e+01 1.639255e+01 2.176921e+01 1.976165e+01 1.558998e+01 7.679246e-01 7.279230e-01 5.455838e-01 1.037625e+00 1.160828e+00 2.169315e+00 2.235126e+00 1.804088e+00 1.472402e+00 1.522038e+00 1.518265e+00 1.079869e+00 8.510132e-01
<GCONST> 8.515192e+01
<STATE> 4
<MEAN> 25
 1.667991e+00 1.590889e+00 -8.491589e-01 1.796369e+00 3.191006e+00 2.753505e+00 2.874794e+00 1.500832e+00 5.861611e-01 2.062115e+00 2.543600e+00 1.730520e+00 -1.442847e-01 -5.812095e-03 -3.942558e-03 1.178165e-01 1.082411e-01 -7.735726e-03 7.741842e-02 1.474308e-01 5.971321e-02 5.577630e-02 2.377779e-02 -8.112994e-03 -1.450667e-01
<VARIANCE> 25
 1.397103e+01 8.689826e+00 6.293823e+00 3.211390e+01 2.638799e+01 1.882693e+01 1.718749e+01 2.019905e+01 1.757341e+01 1.785200e+01 1.385730e+01 1.349145e+01 4.017480e-01 4.883627e-01 5.046467e-01 1.164673e+00 1.154021e+00 1.482061e+00 1.325950e+00 1.445865e+00 1.509769e+00 1.325218e+00 1.342915e+00 1.276687e+00 9.274222e-01
<GCONST> 7.927705e+01
<TRANSP> 5
 0.000000e+00 1.000000e+00 0.000000e+00 0.000000e+00 0.000000e+00
 0.000000e+00 9.023309e-01 9.766906e-02 0.000000e+00 0.000000e+00
 0.000000e+00 0.000000e+00 8.607779e-01 1.392221e-01 0.000000e+00
 0.000000e+00 0.000000e+00 0.000000e+00 9.659133e-01 3.408671e-02
 0.000000e+00 0.000000e+00 0.000000e+00 0.000000e+00 0.000000e+00
<ENDHMM>
~h "oy"
<BEGINHMM>
<NUMSTATES> 5
<STATE> 2
<MEAN> 25
 1.539050e-01 6.768125e-01 8.895140e-01 3.262117e+00 4.115832e+00 4.198201e+00 3.675616e+00 2.982060e+00 2.552103e+00 2.386540e+00 1.670408e+00 6.179506e-01 1.095282e-01 -1.353071e-01 -2.148105e-01 -8.149765e-02 -1.308335e-01 9.164116e-02 -5.636767e-01 -2.644874e-01 -2.222435e-01 2.457528e-01 1.448705e-01 1.867371e-02 1.245678e-01
<VARIANCE> 25
 3.001669e+01 1.167963e+01 7.093632e+00 2.572268e+01 3.360246e+01 1.883819e+01 3.158515e+01 2.123054e+01 2.800074e+01 2.638420e+01 1.488575e+01 1.245538e+01 3.857460e-01 3.886910e-01 1.651527e+00 2.102936e+00 1.022739e+00 9.731125e-01 4.678723e+00 1.592886e+00 2.220982e+00 1.848258e+00 1.820838e+00 1.210975e+00 1.193372e+00
<GCONST> 8.553025e+01
<STATE> 3
<MEAN> 25
 1.661650e+00 2.831468e-02 -1.628675e+00 -9.592256e-02 1.143853e+00 3.188334e+00 -2.670002e+00 7.506817e-02 -1.463620e+00 1.364420e+00 2.215088e+00 3.820442e-01 6.468508e-02 1.080422e-02 -6.029755e-01 -8.220886e-01 -1.983198e-01 4.126940e-03 -1.299851e+00 -4.190201e-01 -6.223373e-01 -6.589298e-02 3.858649e-01 -2.722974e-01 7.718888e-01
<VARIANCE> 25
 3.039622e+01 1.359871e+01 3.788628e+01 4.286398e+01 5.728892e+01 3.032175e+01 8.736665e+01 3.772762e+01 4.958030e+01 2.692283e+01 2.014465e+01 9.775789e+00 5.622872e-01 7.103931e-01 4.790205e+00 5.134976e+00 2.343575e+00 2.022572e+00 9.315890e+00 1.791146e+00 4.352062e+00 3.064711e+00 3.416571e+00 1.059466e+00 3.185836e+00
<GCONST> 9.909505e+01
<STATE> 4
<MEAN> 25
 2.342424e+00 -1.909370e+00 -9.120589e-01 -5.019542e+00 -5.398075e+00 -3.494922e+00 -5.368596e+00 -3.254330e+00 -3.764662e+00 -2.649475e+00 9.944395e-01 4.555593e-01 -4.542452e-01 -2.553026e-02 3.328610e-01 -1.159758e-01 -3.787473e-01 -6.886252e-01 4.782510e-01 1.075567e-01 4.103149e-02 -1.750165e-01 -2.001442e-01 6.202138e-02 5.746450e-01
<VARIANCE> 25
 2.830371e+01 3.473192e+01 4.595707e+01 2.777429e+01 5.420318e+01 5.330482e+01 3.792821e+01 2.774474e+01 5.243749e+01 3.037095e+01 1.772870e+01 1.433288e+01 2.144747e+00 2.744605e+00 3.360793e+00 2.523198e+00 3.842230e+00 3.650650e+00 4.006306e+00 1.703132e+00 4.608112e+00 4.167766e+00 2.336007e+00 1.589126e+00 2.490433e+00
<GCONST> 1.014787e+02
<TRANSP> 5
 0.000000e+00 1.000000e+00 0.000000e+00 0.000000e+00 0.000000e+00
 0.000000e+00 7.638584e-01 2.361417e-01 0.000000e+00 0.000000e+00
 0.000000e+00 0.000000e+00 6.709260e-01 3.290740e-01 0.000000e+00
 0.000000e+00 0.000000e+00 0.000000e+00 9.047617e-01 9.523832e-02
 0.000000e+00 0.000000e+00 0.000000e+00 0.000000e+00 0.000000e+00
<ENDHMM>
~h "sh"
<BEGINHMM>
<NUMSTATES> 5
<STATE> 2
<MEAN> 25
 -6.935785e+00 -3.633956e-01 5.769214e+00 -1.854504e+00 -6.373585e+00 -3.960143e+00 -4.458681e+00 -3.187086e+00 -3.790269e+00 -5.992060e+00 6.746291e-01 1.117225e+00 -1.641348e-01 3.393261e-02 1.394108e-01 1.114945e-01 7.129101e-02 -8.207878e-02 -3.286816e-03 1.411129e-01 1.548801e-01 -2.573847e-01 -1.958976e-01 7.769287e-02 1.145971e-02
<VARIANCE> 25
 7.989017e+01 2.318491e+01 2.921067e+01 1.971641e+01 3.086019e+01 4.047421e+01 6.234370e+01 6.217505e+01 4.192075e+01 2.944438e+01 3.436736e+01 3.376660e+01 3.207082e+00 9.512289e-01 1.689074e+00 1.744754e+00 2.673564e+00 2.929746e+00 3.504576e+00 2.643562e+00 3.268767e+00 2.595797e+00 2.559999e+00 2.681871e+00 1.453666e+00
<GCONST> 1.003143e+02
<STATE> 3
<MEAN> 25
 -9.179055e+00 2.087588e-01 6.861984e+00 -3.874539e-01 -4.712019e+00 -3.419288e+00 -1.977363e+00 1.385428e+00 1.083676e+00 -7.165459e+00 -1.552925e+00 1.768061e+00 7.076286e-01 -2.676530e-01 -2.148816e-01 3.264812e-02 -1.611792e-01 -9.903631e-02 -1.851158e-01 4.262827e-02 4.315283e-01 4.846385e-02 -4.113115e-01 1.036381e-02 -6.696624e-02
<VARIANCE> 25
 9.116977e+01 1.720786e+01 1.985435e+01 1.709126e+01 3.865209e+01 4.274093e+01 5.341507e+01 2.955950e+01 2.115428e+01 2.126129e+01 4.299843e+01 3.473447e+01 3.535025e+00 9.787571e-01 1.420735e+00 1.620467e+00 2.916953e+00 3.064030e+00 3.914614e+00 2.363564e+00 2.187508e+00 2.562139e+00 2.560977e+00 2.428498e+00 1.757806e+00
<GCONST> 9.792950e+01
<STATE> 4
<MEAN> 25
 -5.068726e+00 -7.062731e-01 4.827448e+00 3.363206e-01 -2.880733e+00 -1.507760e+00 -2.304325e+00 3.239014e+00 4.783299e+00 -5.236799e+00 -1.869657e+00 2.914580e+00 9.691433e-01 -5.777843e-02 -4.984695e-01 5.030446e-02 6.218823e-01 4.177821e-01 3.321759e-01 -8.784495e-02 2.007362e-01 7.097045e-01 -4.011470e-02 -2.810093e-01 -7.777931e-01
<VARIANCE> 25
 8.176764e+01 1.594586e+01 2.320709e+01 2.079941e+01 3.856901e+01 3.859224e+01 3.654873e+01 2.920542e+01 1.975043e+01 2.972007e+01 4.593750e+01 4.846415e+01 1.738966e+00 6.112847e-01 9.381715e-01 1.119828e+00 1.507331e+00 1.302332e+00 1.807337e+00 1.459205e+00 1.823352e+00 1.760942e+00 2.292469e+00 2.169716e+00 8.995421e-01
<GCONST> 9.208057e+01
<TRANSP> 5
 0.000000e+00 1.000000e+00 0.000000e+00 0.000000e+00 0.000000e+00
 0.000000e+00 9.405940e-01 5.940592e-02 0.000000e+00 0.000000e+00
 0.000000e+00 0.000000e+00 8.594053e-01 1.405946e-01 0.000000e+00
 0.000000e+00 0.000000e+00 0.000000e+00 7.192826e-01 2.807173e-01
 0.000000e+00 0.000000e+00 0.000000e+00 0.000000e+00 0.000000e+00
<ENDHMM>
~h "th"
<BEGINHMM>
<NUMSTATES> 5
<STATE> 2
<MEAN> 25
 -3.890340e+00 -6.965974e-01 -1.473203e+00 1.449946e+00 1.354231e+00 -9.583825e-01 -1.718764e+00 3.305838e+00 6.708031e-01 1.270043e+00 2.042827e-01 1.245785e+00 -7.628566e-01 6.846975e-02 2.827363e-01 -1.022897e-01 -4.002649e-01 -1.666391e-01 -4.561814e-01 -5.097291e-02 -3.859336e-01 -2.733087e-01 1.078183e-01 1.139138e-01 8.640112e-01
<VARIANCE> 25
 6.119664e+01 1.626464e+01 2.222417e+01 2.923226e+01 3.250842e+01 2.614033e+01 5.029011e+01 6.688528e+01 2.361290e+01 1.924481e+01 2.083607e+01 2.052671e+01 6.582514e+00 1.786371e+00 1.208313e+00 4.459195e+00 2.985772e+00 2.309084e+00 3.875597e+00 4.565744e+00 3.351130e+00 2.259736e+00 2.255477e+00 2.302942e+00 3.325751e+00
<GCONST> 1.001963e+02
<STATE> 3
<MEAN> 25
 -5.950418e+00 1.583321e-01 2.512667e-01 1.960628e+00 5.795065e-01 -5.353783e-01 -1.567111e+00 3.397498e+00 1.828480e-01 1.082127e+00 9.347722e-01 8.214839e-01 5.447705e-01 -1.419613e-01 3.157460e-01 -4.726965e-02 -4.944709e-01 -3.983448e-01 -3.587014e-01 -8.099772e-01 -5.757664e-01 -2.476675e-01 2.104755e-02 -2.918929e-01 5.491640e-01
<VARIANCE> 25
 6.356937e+01 2.001787e+01 2.650254e+01 2.941027e+01 3.997880e+01 2.709744e+01 3.863873e+01 7.185906e+01 2.692115e+01 2.166311e+01 1.646341e+01 1.799645e+01 7.477156e+00 1.849144e+00 1.359899e+00 4.563620e+00 2.522230e+00 3.152052e+00 4.462168e+00 5.691832e+00 4.473143e+00 2.095254e+00 1.819927e+00 2.513947e+00 2.402665e+00
<GCONST> 1.011258e+02
<STATE> 4
<MEAN> 25
 -1.743463e+00 1.351711e+00 1.405382e+00 2.898368e+00 1.570941e+00 4.235475e-01 -3.730164e-01 1.300462e+00 -4.188112e-01 1.651996e+00 1.633122e+00 1.531502e-01 7.748178e-01 -2.082790e-01 -8.851003e-02 -3.954273e-01 -1.927970e-01 -3.781984e-01 -6.057487e-01 -1.109993e+00 -3.695819e-01 -6.042412e-02 -9.611706e-02 -2.172941e-01 4.215733e-01
<VARIANCE> 25
 5.254437e+01 2.092499e+01 2.705158e+01 2.262473e+01 3.346304e+01 3.279887e+01 3.933827e+01 6.378738e+01 2.367341e+01 2.055524e+01 1.663578e+01 1.242713e+01 5.043459e+00 7.643551e-01 1.298064e+00 3.461465e+00 1.774685e+00 3.043348e+00 3.557120e+00 5.463158e+00 3.184306e+00 1.721323e+00 1.351981e+00 1.572247e+00 1.856405e+00
<GCONST> 9.629336e+01
<TRANSP> 5
 0.000000e+00 1.000000e+00 0.000000e+00 0.000000e+00 0.000000e+00
 0.000000e+00 7.914315e-01 2.085684e-01 0.000000e+00 0.000000e+00
 0.000000e+00 0.000000e+00 6.944034e-01 3.055966e-01 0.000000e+00
 0.000000e+00 0.000000e+00 0.000000e+00 7.926258e-01 2.073742e-01
 0.000000e+00 0.000000e+00 0.000000e+00 0.000000e+00 0.000000e+00
<ENDHMM>
~h "uh"
<BEGINHMM>
<NUMSTATES> 5
<STATE> 2
<MEAN> 25
 1.522955e+00 8.965936e-01 1.607336e-02 -5.608242e-02 -4.548188e-01 -1.164159e+00 -4.081269e+00 9.908588e-01 -2.919113e+00 -2.119132e+00 1.114526e+00 7.151825e-01 -7.067246e-01 -3.390493e-01 3.955355e-01 3.688915e-01 -1.415531e-01 -1.076037e+00 1.011581e-01 8.577743e-01 6.545405e-01 2.181144e-01 2.202712e-01 7.756605e-01 1.966743e-01
<VARIANCE> 25
 2.203900e+01 3.529906e+01 2.472552e+01 3.997444e+01 3.174529e+01 5.540793e+01 8.524615e+01 1.133318e+02 2.716133e+01 4.769252e+01 1.662184e+01 1.825691e+01 1.276643e+00 2.177691e+00 2.088772e+00 2.607086e+00 2.638168e+00 3.037041e+00 7.073807e+00 9.863506e+00 1.923022e+00 2.394917e+00 2.326285e+00 2.062104e+00 1.969261e+00
<GCONST> 1.018463e+02
<STATE> 3
<MEAN> 25
 -9.112276e-01 6.984501e-02 2.022546e+00 2.631700e-01 -2.178560e+00 -3.519239e+00 -7.455463e-02 1.926403e+00 -6.006972e-01 1.178643e-01 1.778367e+00 2.007662e+00 -3.942232e-01 -3.797434e-01 2.664741e-01 -1.886879e-01 -4.595823e-01 -5.366830e-01 2.961762e-01 -1.308170e-01 6.207003e-01 -1.251516e-01 -9.133176e-02 4.338696e-01 4.602287e-01
<VARIANCE> 25
 1.583234e+01 2.498224e+01 2.543852e+01 2.214671e+01 3.333780e+01 4.167686e+01 4.575909e+01 7.930206e+01 3.131282e+01 4.641223e+01 1.837191e+01 2.454133e+01 7.652646e-01 1.113197e+00 7.223769e-01 1.205335e+00 2.150327e+00 1.998135e+00 3.701007e+00 5.683755e+00 1.927023e+00 2.489278e+00 2.671082e+00 1.868472e+00 1.192833e+00
<GCONST> 9.464436e+01
<STATE> 4
<MEAN> 25
 -1.188971e+00 1.789740e+00 3.221062e+00 3.238687e+00 2.202897e+00 1.403881e-02 3.177195e+00 4.620279e+00 3.803173e+00 4.577600e+00 4.649655e+00 1.900695e+00 2.191351e-02 -7.511700e-02 -5.463031e-02 -1.066494e-01 -1.867214e-01 -1.330557e-01 -1.518509e-01 -1.078944e-01 -1.256883e-01 -8.608282e-02 5.889810e-02 7.395633e-02 2.666013e-01
<VARIANCE> 25
 6.333981e+00 7.673635e+00 8.685464e+00 1.320243e+01 3.206459e+01 2.265790e+01 2.132686e+01 3.129751e+01 2.328336e+01 2.790599e+01 2.232051e+01 1.787221e+01 4.834121e-01 4.529638e-01 6.283121e-01 9.926040e-01 2.077266e+00 1.193528e+00 1.350548e+00 2.745307e+00 1.930620e+00 1.329880e+00 2.426789e+00 1.769831e+00 7.813217e-01
<GCONST> 8.251083e+01
<TRANSP> 5
 0.000000e+00 1.000000e+00 0.000000e+00 0.000000e+00 0.000000e+00
 0.000000e+00 6.897493e-01 3.102507e-01 0.000000e+00 0.000000e+00
 0.000000e+00 0.000000e+00 5.964413e-01 4.035588e-01 0.000000e+00
 0.000000e+00 0.000000e+00 0.000000e+00 9.086908e-01 9.130916e-02
 0.000000e+00 0.000000e+00 0.000000e+00 0.000000e+00 0.000000e+00
<ENDHMM>
~h "uw"
<BEGINHMM>
<NUMSTATES> 5
<STATE> 2
<MEAN> 25
 4.063274e+00 2.279280e+00 3.425035e-01 1.137195e-01 -1.899377e+00 -4.475432e-01 -6.156521e+00 -6.592696e+00 -5.204130e+00 -4.094059e+00 9.095655e-01 -6.202288e-01 -2.647595e-02 1.722833e-01 -1.281369e-01 7.494974e-02 3.128700e-01 2.312567e-01 4.013614e-01 2.684607e-01 -5.076806e-02 -1.102936e-01 2.284701e-02 1.930424e-01 -3.421123e-01
<VARIANCE> 25
 1.552443e+01 1.279037e+01 1.238723e+01 2.696935e+01 4.310192e+01 2.973552e+01 6.095170e+01 5.106234e+01 3.909137e+01 4.617401e+01 1.740497e+01 1.476549e+01 6.851416e-01 5.725953e-01 8.126693e-01 1.130152e+00 1.517959e+00 1.628602e+00 1.399592e+00 1.576174e+00 2.319869e+00 2.189357e+00 1.614497e+00 1.279949e+00 6.718838e-01
<GCONST> 8.792460e+01
<STATE> 3
<MEAN> 25
 3.161093e+00 3.030596e+00 5.579929e-01 1.766011e+00 9.241441e-01 1.064899e+00 -2.842757e+00 -3.952155e+00 -3.685261e+00 -2.256022e+00 1.248589e+00 4.984156e-01 -2.468638e-01 1.334020e-01 -3.308626e-02 1.436767e-01 3.352141e-01 1.418330e-01 4.169905e-01 4.330707e-01 1.726405e-01 1.554987e-01 4.979853e-02 1.573132e-01 -3.894881e-01
<VARIANCE> 25
 2.612624e+01 1.421587e+01 1.065658e+01 2.194588e+01 4.059546e+01 2.799043e+01 5.864098e+01 6.300158e+01 4.119191e+01 3.977111e+01 1.725637e+01 1.480648e+01 7.523443e-01 5.709378e-01 7.331999e-01 9.717119e-01 1.335414e+00 1.563282e+00 1.479226e+00 1.577716e+00 1.987139e+00 1.957378e+00 1.483738e+00 1.380206e+00 7.609406e-01
<GCONST> 8.771508e+01
<STATE> 4
<MEAN> 25
 3.886392e-01 2.141419e+00 -7.410529e-02 3.283767e+00 5.047650e+00 2.906905e+00 2.640628e+00 1.536466e+00 8.592083e-01 2.066491e+00 1.819156e+00 8.271031e-01 -1.503139e-01 -2.231882e-02 8.598364e-04 7.989105e-03 9.910702e-03 -1.035928e-02 9.973771e-02 1.776734e-01 1.305376e-01 7.868773e-02 3.661976e-02 4.561109e-02 -4.729832e-02
<VARIANCE> 25
 1.642524e+01 7.663724e+00 7.570910e+00 1.328034e+01 2.327526e+01 1.674301e+01 3.538422e+01 4.631469e+01 3.451146e+01 2.681866e+01 1.512854e+01 1.197221e+01 4.777960e-01 4.292051e-01 5.008724e-01 7.495685e-01 1.081228e+00 1.311007e+00 1.508212e+00 1.629526e+00 1.628942e+00 1.574813e+00 1.351112e+00 1.095542e+00 4.245854e-01
<GCONST> 7.995116e+01
<TRANSP> 5
 0.000000e+00 1.000000e+00 0.000000e+00 0.000000e+00 0.000000e+00
 0.000000e+00 8.186716e-01 1.813284e-01 0.000000e+00 0.000000e+00
 0.000000e+00 0.000000e+00 7.557182e-01 2.442818e-01 0.000000e+00
 0.000000e+00 0.000000e+00 0.000000e+00 9.376820e-01 6.231802e-02
 0.000000e+00 0.000000e+00 0.000000e+00 0.000000e+00 0.000000e+00
<ENDHMM>
~h "zh"
<BEGINHMM>
<NUMSTATES> 5
<STATE> 2
<MEAN> 25
 -6.391088e+00 2.357845e+00 3.819020e+00 -2.806355e+00 -3.516268e+00 -4.421510e-01 -4.302833e-01 -3.040525e+00 -3.099357e+00 -3.761627e+00 3.092801e-01 1.008984e+00 -2.802986e-01 2.159297e-01 1.117656e-01 6.777667e-02 2.685820e-01 1.967321e-01 2.050957e-01 1.259592e-01 -1.904858e-01 -2.193948e-01 -7.855237e-03 2.683191e-01 -1.266478e-01
<VARIANCE> 25
 2.543078e+01 1.503004e+01 1.991133e+01 1.870460e+01 3.443414e+01 2.939655e+01 2.477611e+01 3.315727e+01 2.635531e+01 3.421869e+01 1.799734e+01 2.231257e+01 1.143467e+00 9.785305e-01 1.074380e+00 1.004561e+00 1.967183e+00 1.469946e+00 1.877639e+00 1.797548e+00 2.115001e+00 1.794201e+00 1.724499e+00 2.662510e+00 2.056488e-01
<GCONST> 8.798701e+01
<STATE> 3
<MEAN> 25
 -6.283806e+00 1.998083e+00 3.704948e+00 -1.786388e+00 -2.915465e+00 -1.077406e+00 2.913351e-01 -1.493859e+00 -2.745760e+00 -4.333491e+00 -1.328248e-01 2.484788e+00 1.837140e-01 -3.239167e-01 -1.844618e-01 7.736815e-02 -3.694179e-02 -2.941730e-01 -2.478577e-02 2.581108e-01 2.297309e-01 1.235943e-01 -1.199064e-01 1.617944e-01 -1.386921e-02
<VARIANCE> 25
 3.571708e+01 1.879300e+01 2.043486e+01 1.395263e+01 2.993098e+01 2.976137e+01 2.084422e+01 2.790836e+01 2.416321e+01 3.224700e+01 1.686558e+01 2.151202e+01 1.259015e+00 1.403602e+00 9.013655e-01 9.817424e-01 1.702738e+00 1.833920e+00 1.297821e+00 1.744398e+00 1.932554e+00 1.901094e+00 1.738138e+00 2.353653e+00 3.182994e-01
<GCONST> 8.778739e+01
<STATE> 4
<MEAN> 25
 -5.816354e-01 -8.991737e-02 -2.500876e+00 9.306247e-01 3.294137e+00 2.655012e+00 2.735042e+00 3.150796e+00 2.402532e+00 1.871125e+00 7.141368e-01 8.361092e-01 1.028773e-01 -1.059414e-01 -1.004270e-01 6.982169e-02 1.021976e-01 -2.090865e-02 -5.401515e-02 5.717822e-02 1.509805e-01 1.368182e-01 -3.788238e-02 -1.036468e-01 -1.224526e-01
<VARIANCE> 25
 3.380669e+01 1.033605e+01 2.324363e+01 1.449062e+01 4.021768e+01 3.697017e+01 1.828728e+01 2.092588e+01 2.341714e+01 2.852192e+01 2.486728e+01 1.710557e+01 5.942227e-01 6.686655e-01 6.966196e-01 7.698209e-01 1.120244e+00 1.377512e+00 1.071920e+00 1.364955e+00 1.685516e+00 1.604902e+00 1.783431e+00 1.306255e+00 2.228905e-01
<GCONST> 8.303952e+01
<TRANSP> 5
 0.000000e+00 1.000000e+00 0.000000e+00 0.000000e+00 0.000000e+00
 0.000000e+00 8.407458e-01 1.592542e-01 0.000000e+00 0.000000e+00
 0.000000e+00 0.000000e+00 8.235121e-01 1.764878e-01 0.000000e+00
 0.000000e+00 0.000000e+00 0.000000e+00 9.229639e-01 7.703608e-02
 0.000000e+00 0.000000e+00 0.000000e+00 0.000000e+00 0.000000e+00
<ENDHMM>
~h "sil"
<BEGINHMM>
<NUMSTATES> 5
<STATE> 2
<MEAN> 25
 5.729324e-02 2.653517e+00 7.125276e-01 4.660847e+00 5.225100e+00 3.307067e+00 4.285100e+00 3.705550e+00 2.337146e+00 2.848212e+00 2.313042e+00 1.112863e+00 -1.022631e-01 1.016232e-02 -3.230717e-02 1.814596e-02 6.102327e-02 3.584771e-02 7.110167e-02 1.614587e-02 -4.156015e-02 2.784794e-02 -8.538347e-03 -1.110321e-01 -8.170354e-02
<VARIANCE> 25
