~o
<STREAMINFO> 1 25
<VECSIZE> 25<NULLD><MFCC_D_N_Z_0><DIAGC>
~h "proto"
<BEGINHMM>
<NUMSTATES> 5
<STATE> 2
<MEAN> 25
 6.292608e-08 -5.686018e-08 1.013026e-08 -2.681150e-08 -1.740118e-08 2.417681e-08 4.805747e-08 6.068966e-08 -1.571620e-08 4.334976e-09 -4.289022e-10 4.209369e-08 -9.474328e-04 -8.800826e-04 -3.958756e-04 -1.505541e-03 -1.270823e-03 -9.429287e-04 -1.830338e-03 -5.836474e-04 -1.207074e-03 -9.004111e-04 -1.405805e-03 -2.399050e-04 1.328183e-03
<VARIANCE> 25
 3.127957e+01 2.395898e+01 2.750835e+01 3.948970e+01 5.442466e+01 3.904763e+01 4.555660e+01 4.967249e+01 3.084308e+01 3.305033e+01 2.856773e+01 2.102911e+01 1.336767e+00 9.824209e-01 1.206992e+00 1.536480e+00 1.980628e+00 2.193315e+00 2.382896e+00 2.608119e+00 2.175330e+00 2.194921e+00 1.928189e+00 1.625732e+00 1.591141e+00
<GCONST> 9.562413e+01
<STATE> 3
<MEAN> 25
 6.292608e-08 -5.686018e-08 1.013026e-08 -2.681150e-08 -1.740118e-08 2.417681e-08 4.805747e-08 6.068966e-08 -1.571620e-08 4.334976e-09 -4.289022e-10 4.209369e-08 -9.474328e-04 -8.800826e-04 -3.958756e-04 -1.505541e-03 -1.270823e-03 -9.429287e-04 -1.830338e-03 -5.836474e-04 -1.207074e-03 -9.004111e-04 -1.405805e-03 -2.399050e-04 1.328183e-03
<VARIANCE> 25
 3.127957e+01 2.395898e+01 2.750835e+01 3.948970e+01 5.442466e+01 3.904763e+01 4.555660e+01 4.967249e+01 3.084308e+01 3.305033e+01 2.856773e+01 2.102911e+01 1.336767e+00 9.824209e-01 1.206992e+00 1.536480e+00 1.980628e+00 2.193315e+00 2.382896e+00 2.608119e+00 2.175330e+00 2.194921e+00 1.928189e+00 1.625732e+00 1.591141e+00
<GCONST> 9.562413e+01
<STATE> 4
<MEAN> 25
 6.292608e-08 -5.686018e-08 1.013026e-08 -2.681150e-08 -1.740118e-08 2.417681e-08 4.805747e-08 6.068966e-08 -1.571620e-08 4.334976e-09 -4.289022e-10 4.209369e-08 -9.474328e-04 -8.800826e-04 -3.958756e-04 -1.505541e-03 -1.270823e-03 -9.429287e-04 -1.830338e-03 -5.836474e-04 -1.207074e-03 -9.004111e-04 -1.405805e-03 -2.399050e-04 1.328183e-03
<VARIANCE> 25
 3.127957e+01 2.395898e+01 2.750835e+01 3.948970e+01 5.442466e+01 3.904763e+01 4.555660e+01 4.967249e+01 3.084308e+01 3.305033e+01 2.856773e+01 2.102911e+01 1.336767e+00 9.824209e-01 1.206992e+00 1.536480e+00 1.980628e+00 2.193315e+00 2.382896e+00 2.608119e+00 2.175330e+00 2.194921e+00 1.928189e+00 1.625732e+00 1.591141e+00
<GCONST> 9.562413e+01
<TRANSP> 5
 0.000000e+00 1.000000e+00 0.000000e+00 0.000000e+00 0.000000e+00
 0.000000e+00 6.000000e-01 4.000000e-01 0.000000e+00 0.000000e+00
 0.000000e+00 0.000000e+00 6.000000e-01 4.000000e-01 0.000000e+00
 0.000000e+00 0.000000e+00 0.000000e+00 7.000000e-01 3.000000e-01
 0.000000e+00 0.000000e+00 0.000000e+00 0.000000e+00 0.000000e+00
<ENDHMM>
