~o
<STREAMINFO> 1 25
<VECSIZE> 25<NULLD><MFCC_D_N_Z_0><DIAGC>
~h "b"
<BEGINHMM>
<NUMSTATES> 5
<STATE> 2
<MEAN> 25
 5.988754e-01 -4.670222e-01 -9.493053e-01 -5.569677e-01 7.650813e-01 7.898815e-01 5.170021e-01 -7.656424e-01 -4.827935e-01 1.552788e-01 -5.880480e-01 -1.057581e+00 -7.677590e-03 -5.096134e-02 -2.368431e-02 -8.990517e-02 -8.007865e-02 -3.395091e-02 -4.652363e-02 -4.143773e-02 -2.575166e-02 -5.653616e-02 -2.660853e-02 1.469359e-03 1.434095e-01
<VARIANCE> 25
 2.722504e+01 2.968645e+01 2.552606e+01 3.948645e+01 4.334270e+01 3.995311e+01 4.446565e+01 5.011105e+01 3.228689e+01 3.104098e+01 3.674660e+01 2.687162e+01 1.267871e+00 1.352794e+00 1.072797e+00 1.597028e+00 1.766957e+00 2.267496e+00 2.374643e+00 2.443895e+00 2.155106e+00 2.124147e+00 2.193311e+00 1.934142e+00 2.216224e+00
<GCONST> 9.651469e+01
<STATE> 3
<MEAN> 25
 5.632592e-01 -5.851464e-01 -9.657785e-01 -8.082823e-01 5.006445e-01 7.137818e-01 3.655974e-01 -8.540415e-01 -5.370507e-01 -1.111610e-02 -6.262951e-01 -1.003577e+00 -1.021298e-02 -2.696116e-02 1.515158e-03 -6.522370e-02 -7.820004e-02 -2.929616e-02 -4.461738e-02 -2.488184e-02 -1.738082e-02 -4.329123e-02 -4.149745e-03 2.114172e-02 9.615059e-02
<VARIANCE> 25
 2.751328e+01 2.940247e+01 2.630967e+01 3.941123e+01 4.451148e+01 4.036288e+01 4.483047e+01 5.124475e+01 3.318373e+01 3.237520e+01 3.680081e+01 2.666657e+01 1.288699e+00 1.303542e+00 1.058341e+00 1.583450e+00 1.782107e+00 2.335084e+00 2.397825e+00 2.511501e+00 2.205773e+00 2.145709e+00 2.177520e+00 1.896845e+00 2.122395e+00
<GCONST> 9.666999e+01
<STATE> 4
<MEAN> 25
 4.811374e-01 -5.060608e-01 -7.402519e-01 -8.099787e-01 2.476564e-01 5.817848e-01 1.735161e-01 -7.072125e-01 -4.055960e-01 -3.986714e-02 -4.661314e-01 -7.847890e-01 -3.617783e-03 3.513110e-03 3.118120e-02 -2.025025e-02 -6.585383e-02 -3.584374e-02 -3.989309e-02 -4.950276e-04 1.067482e-03 -1.871501e-02 2.044635e-02 3.060546e-02 3.404526e-02
<VARIANCE> 25
 2.877409e+01 2.800899e+01 2.760530e+01 3.897768e+01 4.727779e+01 4.025035e+01 4.456301e+01 5.305453e+01 3.376786e+01 3.328753e+01 3.387676e+01 2.538523e+01 1.335453e+00 1.242413e+00 1.066615e+00 1.565176e+00 1.812614e+00 2.387480e+00 2.402625e+00 2.621140e+00 2.265136e+00 2.149739e+00 2.088032e+00 1.806414e+00 2.003261e+00
<GCONST> 9.665022e+01
<TRANSP> 5
 0.000000e+00 1.000000e+00 0.000000e+00 0.000000e+00 0.000000e+00
 0.000000e+00 7.511829e-01 2.488171e-01 0.000000e+00 0.000000e+00
 0.000000e+00 0.000000e+00 7.511839e-01 2.488161e-01 0.000000e+00
 0.000000e+00 0.000000e+00 0.000000e+00 8.807808e-01 1.192192e-01
 0.000000e+00 0.000000e+00 0.000000e+00 0.000000e+00 0.000000e+00
<ENDHMM>
~h "d"
<BEGINHMM>
<NUMSTATES> 5
<STATE> 2
<MEAN> 25
 2.055701e-01 -3.785041e-01 -5.966514e-01 -3.545443e-01 2.843111e-01 -9.759394e-02 -1.230792e-01 3.849912e-01 5.778419e-01 9.834327e-02 -4.804674e-01 -2.189206e-01 -3.557504e-02 -3.134668e-02 -2.326512e-02 -3.049185e-02 -2.282804e-02 3.369233e-03 1.103080e-02 -5.163492e-03 1.546606e-02 3.429433e-03 1.196745e-02 1.494626e-02 4.489765e-02
<VARIANCE> 25
 2.473408e+01 2.822527e+01 2.917756e+01 4.269127e+01 4.539418e+01 3.870316e+01 4.411223e+01 4.524402e+01 3.004680e+01 3.314657e+01 3.152775e+01 2.274749e+01 1.155933e+00 1.099014e+00 1.206249e+00 1.546686e+00 1.872183e+00 2.342427e+00 2.349767e+00 2.256030e+00 2.083143e+00 2.174246e+00 1.743861e+00 1.913485e+00 1.817262e+00
<GCONST> 9.549393e+01
<STATE> 3
<MEAN> 25
 1.011026e-01 -4.379408e-01 -6.107903e-01 -3.993168e-01 1.779812e-01 -8.760961e-02 -7.116476e-02 3.862901e-01 6.472763e-01 9.795350e-02 -4.074055e-01 -1.267608e-01 -2.769400e-02 -6.270258e-03 1.549477e-03 -4.181656e-03 -2.036458e-02 5.648745e-03 1.607429e-02 -8.482799e-04 1.035280e-02 1.509249e-03 2.437978e-02 1.950017e-02 1.956120e-04
<VARIANCE> 25
 2.472596e+01 2.773116e+01 2.817380e+01 4.280856e+01 4.634661e+01 3.960352e+01 4.402091e+01 4.557672e+01 3.005538e+01 3.310770e+01 3.185252e+01 2.265449e+01 1.138500e+00 1.050071e+00 1.163629e+00 1.494215e+00 1.887746e+00 2.341231e+00 2.298662e+00 2.265119e+00 2.094829e+00 2.202867e+00 1.774531e+00 1.938028e+00 1.699527e+00
<GCONST> 9.533840e+01
<STATE> 4
<MEAN> 25
 1.759894e-01 -2.795126e-01 -4.078463e-01 -4.382446e-01 -3.178917e-02 -7.025297e-02 -1.520398e-01 3.275305e-01 6.787103e-01 1.059356e-01 -2.006388e-01 6.467403e-02 -4.465521e-03 3.103761e-02 2.942224e-02 2.205498e-02 -6.848971e-03 9.949561e-03 1.358325e-02 5.871665e-03 4.348275e-03 8.314308e-03 3.209549e-02 2.160875e-02 -5.469024e-02
<VARIANCE> 25
 2.528959e+01 2.670430e+01 2.548438e+01 4.328881e+01 4.804899e+01 4.083882e+01 4.472544e+01 4.511454e+01 2.965847e+01 3.238030e+01 3.102907e+01 2.205010e+01 1.124892e+00 9.940429e-01 1.096291e+00 1.462832e+00 1.910923e+00 2.342817e+00 2.284280e+00 2.254817e+00 2.113482e+00 2.270024e+00 1.811110e+00 1.898334e+00 1.551058e+00
<GCONST> 9.501930e+01
<TRANSP> 5
 0.000000e+00 1.000000e+00 0.000000e+00 0.000000e+00 0.000000e+00
 0.000000e+00 7.617382e-01 2.382617e-01 0.000000e+00 0.000000e+00
 0.000000e+00 0.000000e+00 7.617373e-01 2.382627e-01 0.000000e+00
 0.000000e+00 0.000000e+00 0.000000e+00 8.920602e-01 1.079398e-01
 0.000000e+00 0.000000e+00 0.000000e+00 0.000000e+00 0.000000e+00
<ENDHMM>
~h "f"
<BEGINHMM>
<NUMSTATES> 5
<STATE> 2
<MEAN> 25
 -2.840756e-01 -6.382875e-01 -1.274324e+00 -2.521062e-01 3.398273e-01 6.761425e-02 1.180108e+00 1.638207e+00 6.113979e-01 6.229540e-01 6.216884e-01 2.560866e-01 3.876221e-02 -1.194192e-02 -3.489329e-03 -7.595561e-02 -5.074341e-02 -2.079729e-02 -9.824119e-03 -1.566298e-02 -1.255702e-02 -4.220707e-02 -5.849613e-03 -1.590810e-03 4.822319e-02
<VARIANCE> 25
 2.967628e+01 2.067315e+01 2.315588e+01 4.653506e+01 4.860210e+01 3.220626e+01 3.490086e+01 4.138286e+01 2.541392e+01 2.770737e+01 2.037322e+01 1.633216e+01 1.560398e+00 9.252070e-01 1.115026e+00 1.778334e+00 2.035899e+00 1.970420e+00 2.223295e+00 2.459703e+00 2.050665e+00 2.053475e+00 1.593401e+00 1.377012e+00 1.416041e+00
<GCONST> 9.305545e+01
<STATE> 3
<MEAN> 25
 -1.293305e-01 -6.401975e-01 -1.260125e+00 -4.846794e-01 2.082485e-01 5.958001e-02 1.141239e+00 1.571189e+00 5.679690e-01 4.972250e-01 6.013336e-01 2.427877e-01 3.400781e-02 9.031752e-04 5.944071e-03 -4.927510e-02 -2.810596e-02 1.875750e-03 -9.596726e-03 -1.845358e-02 -1.105964e-02 -2.775728e-02 -6.217622e-03 -3.604647e-03 2.154498e-02
<VARIANCE> 25
 2.995912e+01 2.090060e+01 2.270591e+01 4.685007e+01 4.797212e+01 3.223920e+01 3.535417e+01 4.177137e+01 2.530961e+01 2.759310e+01 2.062016e+01 1.624857e+01 1.531614e+00 9.227008e-01 1.100562e+00 1.739036e+00 2.030371e+00 1.980177e+00 2.267283e+00 2.481630e+00 2.025287e+00 2.056239e+00 1.602297e+00 1.365812e+00 1.405711e+00
<GCONST> 9.302481e+01
<STATE> 4
<MEAN> 25
 -3.403592e-03 -4.644065e-01 -1.105313e+00 -4.027998e-01 2.877190e-01 2.209341e-01 1.046407e+00 1.421330e+00 5.024341e-01 4.677343e-01 5.739457e-01 2.141122e-01 1.309891e-02 1.779561e-02 1.058597e-02 1.452264e-03 8.209336e-03 1.957263e-02 -1.132877e-02 -1.981458e-02 -7.933150e-03 -4.492766e-03 -3.874152e-03 -9.565261e-04 -1.941222e-02
<VARIANCE> 25
 3.123578e+01 2.105302e+01 2.246778e+01 4.579856e+01 4.709715e+01 3.256534e+01 3.519339e+01 4.256430e+01 2.558436e+01 2.754291e+01 2.107256e+01 1.648082e+01 1.507268e+00 9.076554e-01 1.084255e+00 1.668596e+00 1.993972e+00 2.007056e+00 2.266594e+00 2.514809e+00 1.980481e+00 2.018578e+00 1.625060e+00 1.394230e+00 1.393382e+00
<GCONST> 9.299602e+01
<TRANSP> 5
 0.000000e+00 1.000000e+00 0.000000e+00 0.000000e+00 0.000000e+00
 0.000000e+00 7.815468e-01 2.184531e-01 0.000000e+00 0.000000e+00
 0.000000e+00 0.000000e+00 7.815465e-01 2.184536e-01 0.000000e+00
 0.000000e+00 0.000000e+00 0.000000e+00 9.114865e-01 8.851349e-02
 0.000000e+00 0.000000e+00 0.000000e+00 0.000000e+00 0.000000e+00
<ENDHMM>
~h "g"
<BEGINHMM>
<NUMSTATES> 5
<STATE> 2
<MEAN> 25
 -1.830245e-01 4.430076e-01 8.605792e-01 3.129203e-01 2.986328e-02 -2.787869e-01 -4.187910e-01 -1.814284e-01 -4.361563e-01 -3.638108e-02 2.463466e-02 -2.108683e-01 -3.475621e-02 -4.185113e-02 4.306255e-02 -4.037738e-02 -9.468405e-02 -5.156077e-02 -5.455245e-02 -5.858596e-02 9.732418e-03 -2.510652e-02 -1.210422e-02 1.388214e-02 1.431238e-01
<VARIANCE> 25
 1.610152e+01 2.179159e+01 3.303522e+01 3.082824e+01 6.292846e+01 3.894965e+01 5.365548e+01 5.969818e+01 4.007447e+01 2.951395e+01 2.326679e+01 2.024963e+01 1.248681e+00 1.038813e+00 1.495613e+00 1.440012e+00 2.538818e+00 2.151372e+00 2.564089e+00 3.430394e+00 2.662447e+00 2.319865e+00 1.945483e+00 1.771002e+00 2.291407e+00
<GCONST> 9.662670e+01
<STATE> 3
<MEAN> 25
 -2.969632e-01 2.378442e-01 1.013464e+00 2.063178e-01 -3.008132e-01 -4.675397e-01 -6.073606e-01 -4.412088e-01 -3.886594e-01 -1.619550e-01 -8.466597e-02 -1.721229e-01 -2.423150e-02 -4.765802e-02 3.254962e-02 -2.221383e-02 -7.797154e-02 -4.602506e-02 -4.387688e-02 -6.102170e-02 9.697394e-03 -3.030981e-02 -2.922138e-02 9.192227e-03 1.232139e-01
<VARIANCE> 25
 1.606392e+01 2.033563e+01 3.441150e+01 3.002751e+01 6.339885e+01 3.982114e+01 5.358376e+01 6.105221e+01 3.994318e+01 3.085736e+01 2.314830e+01 2.029856e+01 1.288411e+00 1.040020e+00 1.545085e+00 1.433803e+00 2.548834e+00 2.171086e+00 2.600678e+00 3.488877e+00 2.700396e+00 2.430603e+00 1.917427e+00 1.820730e+00 2.312011e+00
<GCONST> 9.684667e+01
<STATE> 4
<MEAN> 25
 -2.981897e-01 2.352053e-02 1.162222e+00 2.291435e-01 -5.317159e-01 -5.730025e-01 -7.078681e-01 -6.235723e-01 -2.599717e-01 -3.334306e-01 -2.813317e-01 -1.904219e-01 4.621610e-03 -2.379326e-02 1.601393e-02 -2.016650e-03 -4.292633e-02 -2.734844e-02 -3.238459e-02 -2.832608e-02 1.145932e-02 -2.466130e-02 -3.352797e-02 -1.068496e-02 5.933682e-02
<VARIANCE> 25
 1.630108e+01 1.921842e+01 3.675039e+01 2.977415e+01 6.358963e+01 4.121708e+01 5.287505e+01 6.045287e+01 3.911892e+01 3.224882e+01 2.284105e+01 2.043520e+01 1.337431e+00 1.043562e+00 1.632766e+00 1.420199e+00 2.575281e+00 2.229397e+00 2.696124e+00 3.563182e+00 2.720383e+00 2.432473e+00 1.840108e+00 1.875162e+00 2.291062e+00
<GCONST> 9.706066e+01
<TRANSP> 5
 0.000000e+00 1.000000e+00 0.000000e+00 0.000000e+00 0.000000e+00
 0.000000e+00 7.593970e-01 2.406031e-01 0.000000e+00 0.000000e+00
 0.000000e+00 0.000000e+00 7.593968e-01 2.406032e-01 0.000000e+00
 0.000000e+00 0.000000e+00 0.000000e+00 8.848856e-01 1.151144e-01
 0.000000e+00 0.000000e+00 0.000000e+00 0.000000e+00 0.000000e+00
<ENDHMM>
~h "k"
<BEGINHMM>
<NUMSTATES> 5
<STATE> 2
<MEAN> 25
 -5.744119e-01 -1.101622e-01 -6.988071e-01 -2.687741e-01 -1.760796e-01 -2.475998e-01 3.009863e-01 4.968277e-01 -1.976138e-01 9.999034e-02 3.636869e-01 2.030497e-01 3.015450e-02 -2.946310e-02 1.701017e-02 -2.498480e-02 -4.559959e-02 -3.739692e-02 -3.766519e-02 -5.689529e-02 -1.076284e-02 -2.728475e-02 -3.199000e-02 -1.051390e-02 7.498748e-02
<VARIANCE> 25
 3.411794e+01 2.095045e+01 2.590442e+01 4.188296e+01 5.617371e+01 3.845147e+01 4.660839e+01 4.619898e+01 2.927945e+01 3.823431e+01 2.906612e+01 2.103007e+01 1.420474e+00 1.001377e+00 1.336169e+00 1.753498e+00 2.061608e+00 2.402368e+00 2.677674e+00 2.678143e+00 2.236619e+00 2.376760e+00 2.230310e+00 1.673442e+00 1.856797e+00
<GCONST> 9.667731e+01
<STATE> 3
<MEAN> 25
 -4.494529e-01 -1.873265e-01 -6.294767e-01 -3.656792e-01 -2.916549e-01 -3.254770e-01 1.795250e-01 2.803343e-01 -2.183120e-01 6.857806e-02 2.730511e-01 1.835530e-01 3.091759e-02 -1.949531e-02 1.822451e-02 -2.938927e-02 -3.233961e-02 -1.946536e-02 -3.546811e-02 -6.006726e-02 -5.797287e-03 -7.979201e-03 -2.489384e-02 -6.155050e-03 4.925033e-02
<VARIANCE> 25
 3.313818e+01 2.092904e+01 2.571434e+01 4.153463e+01 5.535094e+01 3.913336e+01 4.664964e+01 4.668992e+01 2.945331e+01 3.812935e+01 2.847375e+01 2.121732e+01 1.397999e+00 9.904047e-01 1.318223e+00 1.757645e+00 2.008486e+00 2.389492e+00 2.579822e+00 2.695570e+00 2.198893e+00 2.343697e+00 2.198702e+00 1.671896e+00 1.797014e+00
<GCONST> 9.645787e+01
<STATE> 4
<MEAN> 25
 -4.259774e-01 -2.026087e-01 -5.461723e-01 -5.118640e-01 -4.708198e-01 -3.959359e-01 9.382688e-02 3.616935e-02 -1.951873e-01 9.153541e-02 1.994365e-01 2.034794e-01 1.569938e-02 -7.261729e-03 1.255806e-02 -1.732291e-02 -2.474107e-02 -1.282486e-02 -2.165819e-02 -2.956400e-02 -1.142256e-04 9.097633e-03 -8.419902e-04 3.092408e-03 2.182047e-02
<VARIANCE> 25
 3.338685e+01 2.145956e+01 2.671002e+01 3.986454e+01 5.558086e+01 3.925141e+01 4.591740e+01 4.718785e+01 2.953795e+01 3.639919e+01 2.714554e+01 2.134551e+01 1.393580e+00 9.983132e-01 1.314402e+00 1.710668e+00 2.008027e+00 2.344811e+00 2.464372e+00 2.679765e+00 2.167297e+00 2.262260e+00 2.088840e+00 1.625206e+00 1.742498e+00
<GCONST> 9.614777e+01
<TRANSP> 5
 0.000000e+00 1.000000e+00 0.000000e+00 0.000000e+00 0.000000e+00
 0.000000e+00 7.566141e-01 2.433859e-01 0.000000e+00 0.000000e+00
 0.000000e+00 0.000000e+00 7.566144e-01 2.433857e-01 0.000000e+00
 0.000000e+00 0.000000e+00 0.000000e+00 8.866634e-01 1.133367e-01
 0.000000e+00 0.000000e+00 0.000000e+00 0.000000e+00 0.000000e+00
<ENDHMM>
~h "l"
<BEGINHMM>
<NUMSTATES> 5
<STATE> 2
<MEAN> 25
 6.221346e-01 -5.550058e-02 -3.111644e-01 -9.634688e-01 -3.417693e-01 -2.074362e-01 -9.498720e-02 -4.333272e-02 1.774469e-01 3.395108e-01 4.203447e-01 2.281718e-01 1.180279e-02 2.972648e-02 1.952439e-02 2.642397e-02 7.450382e-03 6.019085e-03 -3.743865e-03 4.360297e-04 4.000464e-03 5.959330e-03 1.150229e-02 7.363828e-03 -4.359226e-02
<VARIANCE> 25
 2.937930e+01 2.547963e+01 2.215736e+01 4.756339e+01 5.479458e+01 3.977888e+01 4.970292e+01 4.465539e+01 3.103599e+01 3.462362e+01 2.997256e+01 2.115806e+01 1.200493e+00 9.576567e-01 9.858442e-01 1.496242e+00 1.722387e+00 2.141054e+00 2.430370e+00 2.372368e+00 2.232594e+00 2.355751e+00 2.034546e+00 1.572406e+00 1.324080e+00
<GCONST> 9.503801e+01
<STATE> 3
<MEAN> 25
 6.681109e-01 5.997108e-02 -2.369315e-01 -8.445848e-01 -2.899478e-01 -1.765923e-01 -1.091963e-01 -4.940348e-02 1.910515e-01 3.611679e-01 4.558364e-01 2.537594e-01 4.508608e-03 2.997512e-02 2.175939e-02 3.760267e-02 1.737500e-02 8.805438e-03 1.786900e-03 -1.888711e-03 -8.275273e-04 2.049915e-03 7.123936e-03 8.129215e-03 -5.214307e-02
<VARIANCE> 25
 2.968469e+01 2.510308e+01 2.196367e+01 4.751541e+01 5.427159e+01 3.901507e+01 5.006907e+01 4.418073e+01 3.071894e+01 3.396675e+01 2.947324e+01 2.084279e+01 1.188261e+00 9.553306e-01 9.881409e-01 1.496110e+00 1.731626e+00 2.121088e+00 2.428205e+00 2.360624e+00 2.228443e+00 2.332958e+00 2.020020e+00 1.565682e+00 1.319172e+00
<GCONST> 9.488306e+01
<STATE> 4
<MEAN> 25
 6.663052e-01 1.897445e-01 -1.271994e-01 -5.241383e-01 -6.457170e-02 -8.590909e-02 -6.500243e-02 -6.383443e-02 2.434319e-01 4.079982e-01 4.100934e-01 2.529077e-01 -8.113230e-03 2.225613e-02 1.909535e-02 4.627774e-02 2.789056e-02 8.979538e-03 1.043930e-02 3.381810e-04 -3.171587e-03 -3.155933e-04 -1.015186e-03 4.726845e-03 -5.392762e-02
<VARIANCE> 25
 2.964553e+01 2.455317e+01 2.144489e+01 4.772778e+01 5.374820e+01 3.809897e+01 5.064059e+01 4.421387e+01 3.050454e+01 3.316580e+01 2.862718e+01 2.037705e+01 1.145423e+00 9.369457e-01 9.788015e-01 1.476902e+00 1.717017e+00 2.061522e+00 2.415312e+00 2.341443e+00 2.210613e+00 2.292814e+00 1.968022e+00 1.548325e+00 1.267893e+00
<GCONST> 9.450493e+01
<TRANSP> 5
 0.000000e+00 1.000000e+00 0.000000e+00 0.000000e+00 0.000000e+00
 0.000000e+00 7.624493e-01 2.375507e-01 0.000000e+00 0.000000e+00
 0.000000e+00 0.000000e+00 7.624499e-01 2.375501e-01 0.000000e+00
 0.000000e+00 0.000000e+00 0.000000e+00 8.928011e-01 1.071988e-01
 0.000000e+00 0.000000e+00 0.000000e+00 0.000000e+00 0.000000e+00
<ENDHMM>
~h "m"
<BEGINHMM>
<NUMSTATES> 5
<STATE> 2
<MEAN> 25
 -3.482928e-02 1.646170e-02 8.020147e-01 1.588127e-01 -7.697145e-01 -7.172391e-01 -9.773875e-01 -8.314263e-01 -4.915019e-01 -8.895586e-01 -2.143431e-01 6.919575e-02 -3.055330e-02 -2.648043e-02 -5.842430e-03 -5.756221e-02 -6.767521e-02 -4.085093e-02 -2.308965e-02 -2.442475e-02 3.216959e-04 -6.210956e-03 1.385010e-03 1.709699e-02 1.064912e-01
<VARIANCE> 25
 2.871310e+01 2.150797e+01 3.219504e+01 3.722139e+01 6.382133e+01 4.475756e+01 5.515242e+01 5.794388e+01 3.103509e+01 3.852100e+01 2.868323e+01 1.857775e+01 1.205861e+00 8.996558e-01 1.321796e+00 1.650201e+00 2.009308e+00 2.318366e+00 2.666320e+00 3.141529e+00 2.311924e+00 2.166721e+00 1.929555e+00 1.590352e+00 1.455347e+00
<GCONST> 9.648613e+01
<STATE> 3
<MEAN> 25
 -1.820381e-01 -5.002344e-02 7.370579e-01 -7.680083e-02 -9.398995e-01 -7.603254e-01 -9.902188e-01 -8.640659e-01 -4.662885e-01 -8.384075e-01 -1.458389e-01 1.495032e-01 -3.343135e-02 -1.668129e-02 -9.920924e-03 -5.479164e-02 -4.219892e-02 -7.060664e-03 -6.873703e-04 -7.620399e-03 3.483249e-03 7.367175e-03 1.437573e-02 1.652130e-02 7.124327e-02
<VARIANCE> 25
 2.861437e+01 2.167852e+01 3.162871e+01 3.715768e+01 6.435492e+01 4.484155e+01 5.463875e+01 5.821947e+01 3.105639e+01 3.797727e+01 2.876941e+01 1.831170e+01 1.196257e+00 8.969441e-01 1.287361e+00 1.626238e+00 1.995595e+00 2.265460e+00 2.604107e+00 3.101862e+00 2.309052e+00 2.117379e+00 1.939230e+00 1.569928e+00 1.412450e+00
<GCONST> 9.627132e+01
<STATE> 4
<MEAN> 25
 -4.079853e-01 5.972826e-02 7.478859e-01 -2.942560e-01 -9.637554e-01 -5.885913e-01 -9.075761e-01 -7.574092e-01 -4.811935e-01 -7.524777e-01 1.066437e-02 2.419213e-01 -1.460961e-02 4.028666e-03 -4.315595e-03 -2.405934e-02 8.689906e-03 3.723346e-02 2.169112e-02 1.171638e-02 1.972205e-03 1.327039e-02 1.795428e-02 4.374282e-03 -2.050171e-03
<VARIANCE> 25
 2.911704e+01 2.263783e+01 3.176440e+01 3.769220e+01 6.462311e+01 4.428883e+01 5.312870e+01 5.794616e+01 3.113767e+01 3.751284e+01 2.822421e+01 1.810139e+01 1.176847e+00 8.921486e-01 1.214787e+00 1.541282e+00 1.985664e+00 2.241463e+00 2.482986e+00 2.950212e+00 2.258226e+00 2.091949e+00 1.925684e+00 1.545406e+00 1.281493e+00
<GCONST> 9.586808e+01
<TRANSP> 5
 0.000000e+00 1.000000e+00 0.000000e+00 0.000000e+00 0.000000e+00
 0.000000e+00 7.638595e-01 2.361406e-01 0.000000e+00 0.000000e+00
 0.000000e+00 0.000000e+00 7.638599e-01 2.361401e-01 0.000000e+00
 0.000000e+00 0.000000e+00 0.000000e+00 8.939427e-01 1.060573e-01
 0.000000e+00 0.000000e+00 0.000000e+00 0.000000e+00 0.000000e+00
<ENDHMM>
~h "n"
<BEGINHMM>
<NUMSTATES> 5
<STATE> 2
<MEAN> 25
 2.370219e-01 7.253022e-02 5.845014e-01 8.555604e-01 2.581838e-01 1.720930e-01 -1.057193e-01 -6.517565e-02 2.622657e-01 -3.352630e-01 -5.530929e-01 9.945814e-03 5.618998e-03 2.128446e-02 -4.395738e-03 1.708722e-02 2.937334e-02 1.207814e-02 1.851236e-02 1.797722e-02 1.794437e-02 1.574207e-02 1.461857e-02 8.839083e-03 -4.072360e-02
<VARIANCE> 25
 3.075969e+01 2.270727e+01 2.918951e+01 3.504030e+01 5.533095e+01 3.711887e+01 4.371466e+01 4.568633e+01 2.917853e+01 3.246169e+01 3.199741e+01 1.964355e+01 1.392665e+00 9.465324e-01 1.386796e+00 1.520671e+00 2.008820e+00 2.033741e+00 2.422169e+00 2.525450e+00 2.131175e+00 2.051556e+00 2.071702e+00 1.604732e+00 1.690451e+00
<GCONST> 9.539249e+01
<STATE> 3
<MEAN> 25
 2.614437e-01 1.474296e-01 5.649546e-01 9.077570e-01 3.490519e-01 2.076814e-01 -3.993967e-02 4.058059e-04 3.228706e-01 -2.742745e-01 -4.818721e-01 4.825066e-02 4.624797e-03 2.111594e-02 -1.062104e-02 1.618763e-02 3.383211e-02 1.302831e-02 2.301357e-02 1.922448e-02 1.667074e-02 2.418866e-02 2.219758e-02 7.868681e-03 -4.927197e-02
<VARIANCE> 25
 3.089014e+01 2.271395e+01 2.894482e+01 3.512621e+01 5.549585e+01 3.710480e+01 4.336874e+01 4.574288e+01 2.892222e+01 3.245727e+01 3.183451e+01 1.962156e+01 1.382184e+00 9.438457e-01 1.365414e+00 1.524374e+00 2.004736e+00 2.037992e+00 2.418256e+00 2.522855e+00 2.141236e+00 2.043462e+00 2.045505e+00 1.599217e+00 1.678555e+00
<GCONST> 9.532317e+01
<STATE> 4
<MEAN> 25
 2.956121e-01 1.866546e-01 5.005265e-01 9.160584e-01 4.167387e-01 2.614283e-01 6.075302e-02 7.149994e-02 3.366523e-01 -1.373570e-01 -2.543668e-01 1.278540e-01 3.127076e-03 1.502370e-02 -1.237569e-02 9.266080e-03 2.552257e-02 1.123691e-02 1.847726e-02 1.105667e-02 6.525917e-03 2.302798e-02 2.599356e-02 6.521325e-03 -4.713850e-02
<VARIANCE> 25
 3.076724e+01 2.251823e+01 2.869071e+01 3.559705e+01 5.549513e+01 3.666556e+01 4.243472e+01 4.609978e+01 2.862861e+01 3.211947e+01 3.078416e+01 1.964766e+01 1.340769e+00 9.224890e-01 1.314426e+00 1.513402e+00 2.001421e+00 2.051061e+00 2.367100e+00 2.518871e+00 2.149118e+00 2.042058e+00 1.975126e+00 1.589082e+00 1.639628e+00
<GCONST> 9.505758e+01
<TRANSP> 5
 0.000000e+00 1.000000e+00 0.000000e+00 0.000000e+00 0.000000e+00
 0.000000e+00 7.634793e-01 2.365207e-01 0.000000e+00 0.000000e+00
 0.000000e+00 0.000000e+00 7.634797e-01 2.365203e-01 0.000000e+00
 0.000000e+00 0.000000e+00 0.000000e+00 8.957753e-01 1.042247e-01
 0.000000e+00 0.000000e+00 0.000000e+00 0.000000e+00 0.000000e+00
<ENDHMM>
~h "p"
<BEGINHMM>
<NUMSTATES> 5
<STATE> 2
<MEAN> 25
 4.417737e-01 -6.317052e-01 -4.144931e-01 -3.851948e-01 -8.502054e-01 -4.947589e-01 -2.526440e-01 -6.792886e-01 5.585465e-02 8.451387e-02 -1.344609e-01 -1.524238e-01 1.415663e-02 2.166577e-03 2.459322e-02 3.987214e-04 -6.007020e-03 -2.748998e-02 -4.927015e-03 4.906521e-03 -7.058337e-03 -6.008583e-03 1.255509e-02 1.984240e-02 2.373694e-03
<VARIANCE> 25
 2.354061e+01 2.325032e+01 2.339364e+01 3.719769e+01 5.941777e+01 4.355399e+01 5.116463e+01 5.080695e+01 3.104033e+01 3.151534e+01 2.768510e+01 1.937006e+01 1.141495e+00 1.006217e+00 9.787846e-01 1.458250e+00 1.911630e+00 2.129117e+00 2.486848e+00 2.966428e+00 2.388468e+00 2.224705e+00 1.923769e+00 1.584255e+00 1.693181e+00
<GCONST> 9.512040e+01
<STATE> 3
<MEAN> 25
 4.932484e-01 -6.032017e-01 -3.271119e-01 -3.729514e-01 -8.298587e-01 -5.726749e-01 -2.502732e-01 -6.512911e-01 1.490260e-02 8.457904e-02 -7.099693e-02 -6.999330e-02 1.566555e-02 1.528208e-02 2.569917e-02 1.101571e-02 1.041310e-02 -1.537790e-02 1.289381e-03 6.967962e-03 -1.047870e-02 -1.303428e-03 1.932779e-02 2.284134e-02 -1.876178e-02
<VARIANCE> 25
 2.366482e+01 2.356599e+01 2.356139e+01 3.765060e+01 5.993069e+01 4.346130e+01 4.997155e+01 4.943482e+01 3.097731e+01 3.123193e+01 2.733377e+01 1.915294e+01 1.133568e+00 9.985282e-01 9.745632e-01 1.452838e+00 1.891358e+00 2.112818e+00 2.480313e+00 2.854857e+00 2.375539e+00 2.218563e+00 1.934624e+00 1.572487e+00 1.653820e+00
<GCONST> 9.496326e+01
<STATE> 4
<MEAN> 25
 6.000393e-01 -5.180517e-01 -2.274252e-01 -2.301560e-01 -6.417137e-01 -6.165450e-01 -2.407444e-01 -6.086230e-01 -1.901609e-02 1.454215e-01 -1.374719e-02 1.145684e-02 1.485261e-02 2.735781e-02 1.906697e-02 2.590397e-02 3.249267e-02 -2.571572e-04 2.639695e-03 9.355362e-03 -7.951219e-03 9.246117e-03 2.009491e-02 1.651690e-02 -3.717249e-02
<VARIANCE> 25
 2.405083e+01 2.387078e+01 2.321097e+01 3.868129e+01 5.909779e+01 4.355887e+01 4.807713e+01 4.869664e+01 3.096650e+01 2.992789e+01 2.655137e+01 1.869138e+01 1.115519e+00 9.673752e-01 9.565161e-01 1.441858e+00 1.862917e+00 2.104300e+00 2.433734e+00 2.645452e+00 2.325849e+00 2.182219e+00 1.910678e+00 1.543461e+00 1.579562e+00
<GCONST> 9.453939e+01
<TRANSP> 5
 0.000000e+00 1.000000e+00 0.000000e+00 0.000000e+00 0.000000e+00
 0.000000e+00 7.628999e-01 2.371001e-01 0.000000e+00 0.000000e+00
 0.000000e+00 0.000000e+00 7.628996e-01 2.371004e-01 0.000000e+00
 0.000000e+00 0.000000e+00 0.000000e+00 8.929674e-01 1.070326e-01
 0.000000e+00 0.000000e+00 0.000000e+00 0.000000e+00 0.000000e+00
<ENDHMM>
~h "r"
<BEGINHMM>
<NUMSTATES> 5
<STATE> 2
<MEAN> 25
 1.703966e-01 6.147445e-02 2.346483e-01 7.819856e-01 2.522946e-01 -1.128262e-01 -4.108459e-02 9.427733e-02 -1.515884e-01 9.715343e-03 3.662143e-01 1.766311e-01 -1.739440e-02 -1.744986e-02 1.888711e-04 -5.616735e-03 -1.700795e-02 -1.573407e-02 -7.105171e-03 -4.819998e-03 -7.136606e-03 -1.128147e-02 -9.610360e-03 -1.239855e-03 4.348040e-02
<VARIANCE> 25
 3.019720e+01 2.176310e+01 3.130521e+01 3.536314e+01 4.834502e+01 4.088467e+01 4.416769e+01 5.037327e+01 3.135574e+01 3.003200e+01 2.456539e+01 1.775762e+01 1.466279e+00 8.911731e-01 1.297641e+00 1.670419e+00 1.916458e+00 2.170242e+00 2.342163e+00 2.537091e+00 2.086663e+00 2.054196e+00 1.813336e+00 1.535149e+00 1.482239e+00
<GCONST> 9.478809e+01
<STATE> 3
<MEAN> 25
 8.276025e-02 -1.238500e-02 2.472321e-01 7.534938e-01 1.759052e-01 -1.762096e-01 -6.600879e-02 7.425072e-02 -1.669480e-01 -3.133707e-02 3.259180e-01 1.624519e-01 -1.890589e-02 -2.103452e-02 -6.754916e-04 -1.092782e-02 -2.002614e-02 -1.684841e-02 -8.924579e-03 -8.505196e-03 -4.190121e-03 -9.262986e-03 -1.110285e-02 -5.597632e-03 5.104992e-02
<VARIANCE> 25
 3.054212e+01 2.202897e+01 3.176404e+01 3.551604e+01 4.872754e+01 4.111872e+01 4.404628e+01 5.055444e+01 3.110048e+01 3.022826e+01 2.459537e+01 1.793426e+01 1.490255e+00 9.006046e-01 1.310101e+00 1.679569e+00 1.936418e+00 2.172810e+00 2.343709e+00 2.541441e+00 2.088876e+00 2.067179e+00 1.821474e+00 1.550150e+00 1.494600e+00
<GCONST> 9.493988e+01
<STATE> 4
<MEAN> 25
 -3.694167e-02 -1.009163e-01 2.885353e-01 6.235887e-01 1.836505e-02 -2.285594e-01 -1.262638e-01 -3.356477e-02 -2.204778e-01 -1.205276e-01 2.362169e-01 1.002117e-01 -1.133300e-02 -1.815403e-02 -5.359934e-03 -1.931125e-02 -1.712298e-02 -7.257979e-03 -9.463809e-03 -1.434126e-02 -2.374370e-03 -4.025603e-03 -7.974355e-03 -9.280788e-03 4.657524e-02
<VARIANCE> 25
 3.159971e+01 2.226620e+01 3.206503e+01 3.570282e+01 4.927234e+01 4.065223e+01 4.280322e+01 5.027393e+01 3.090180e+01 3.066720e+01 2.423300e+01 1.821595e+01 1.527713e+00 8.786104e-01 1.287027e+00 1.659123e+00 1.926029e+00 2.139308e+00 2.250654e+00 2.498430e+00 2.075363e+00 2.045533e+00 1.790594e+00 1.559490e+00 1.462129e+00
<GCONST> 9.481507e+01
<TRANSP> 5
 0.000000e+00 1.000000e+00 0.000000e+00 0.000000e+00 0.000000e+00
 0.000000e+00 7.719141e-01 2.280860e-01 0.000000e+00 0.000000e+00
 0.000000e+00 0.000000e+00 7.719135e-01 2.280864e-01 0.000000e+00
 0.000000e+00 0.000000e+00 0.000000e+00 9.030086e-01 9.699129e-02
 0.000000e+00 0.000000e+00 0.000000e+00 0.000000e+00 0.000000e+00
<ENDHMM>
~h "s"
<BEGINHMM>
<NUMSTATES> 5
<STATE> 2
<MEAN> 25
 -2.268082e+00 1.472546e+00 1.171921e-01 6.047922e-01 2.779811e-01 -1.299224e-01 7.612498e-01 3.863202e-01 1.741443e-02 3.371825e-01 2.004515e-01 2.618121e-01 4.221348e-04 2.351529e-03 -2.594977e-03 1.277518e-02 1.542218e-02 1.001604e-02 2.065808e-02 9.355077e-03 3.172747e-03 7.998528e-03 4.112330e-04 -4.785232e-03 -2.772547e-02
<VARIANCE> 25
 4.869436e+01 2.469299e+01 2.795233e+01 3.313926e+01 6.094774e+01 3.285608e+01 3.930881e+01 4.999436e+01 2.970367e+01 3.294221e+01 2.390566e+01 1.964523e+01 1.780312e+00 1.125800e+00 1.183897e+00 1.451238e+00 2.116800e+00 2.106042e+00 2.245280e+00 2.443923e+00 1.936404e+00 2.135731e+00 1.711279e+00 1.458367e+00 1.457189e+00
<GCONST> 9.523811e+01
<STATE> 3
<MEAN> 25
 -2.255244e+00 1.465980e+00 1.078202e-01 6.591245e-01 3.391189e-01 -8.579972e-02 8.460636e-01 4.243291e-01 3.316282e-02 3.660916e-01 1.994813e-01 2.365112e-01 6.485929e-03 -6.436443e-03 -4.627998e-03 1.056732e-02 1.625411e-02 1.253941e-02 1.906597e-02 1.056084e-02 6.519593e-03 6.699587e-03 5.736259e-04 -7.175903e-03 -2.498615e-02
<VARIANCE> 25
 4.772927e+01 2.473734e+01 2.799736e+01 3.316602e+01 6.128767e+01 3.262392e+01 3.907395e+01 5.018741e+01 2.998148e+01 3.330160e+01 2.442695e+01 2.000996e+01 1.755663e+00 1.122356e+00 1.180689e+00 1.462726e+00 2.117535e+00 2.078868e+00 2.233419e+00 2.438122e+00 1.945513e+00 2.132106e+00 1.724820e+00 1.465969e+00 1.471727e+00
<GCONST> 9.527260e+01
<STATE> 4
<MEAN> 25
 -2.163495e+00 1.283726e+00 6.882033e-02 6.262764e-01 3.094263e-01 -7.916526e-02 8.488371e-01 4.216128e-01 8.511031e-02 3.208535e-01 1.618675e-01 1.705347e-01 1.060677e-02 -1.880940e-02 -9.043201e-03 3.552853e-03 8.764573e-03 9.806595e-03 1.213181e-02 1.035185e-02 1.141858e-02 4.748324e-03 1.659483e-03 -6.210598e-03 -1.119486e-02
<VARIANCE> 25
 4.618760e+01 2.471160e+01 2.809332e+01 3.370165e+01 6.089354e+01 3.281859e+01 3.836539e+01 5.003874e+01 2.993188e+01 3.307248e+01 2.533814e+01 2.028216e+01 1.708825e+00 1.112403e+00 1.169348e+00 1.476691e+00 2.102426e+00 2.040946e+00 2.209886e+00 2.436943e+00 1.973197e+00 2.120902e+00 1.760910e+00 1.476173e+00 1.494768e+00
<GCONST> 9.525726e+01
<TRANSP> 5
 0.000000e+00 1.000000e+00 0.000000e+00 0.000000e+00 0.000000e+00
 0.000000e+00 7.781972e-01 2.218029e-01 0.000000e+00 0.000000e+00
 0.000000e+00 0.000000e+00 7.781967e-01 2.218033e-01 0.000000e+00
 0.000000e+00 0.000000e+00 0.000000e+00 9.083231e-01 9.167691e-02
 0.000000e+00 0.000000e+00 0.000000e+00 0.000000e+00 0.000000e+00
<ENDHMM>
~h "t"
<BEGINHMM>
<NUMSTATES> 5
<STATE> 2
<MEAN> 25
 -7.278316e-01 3.527850e-01 1.599111e-01 2.159968e-01 4.413800e-02 1.847775e-01 -1.703969e-01 -5.071249e-02 -3.334545e-01 -3.310217e-02 4.054382e-01 1.800759e-01 1.374779e-02 -2.099976e-03 1.175417e-02 7.255048e-03 -3.975068e-03 1.981904e-03 -9.316562e-03 3.859793e-03 1.105343e-02 -4.814005e-03 -7.873418e-03 2.925337e-03 -1.609265e-02
<VARIANCE> 25
 3.087634e+01 2.473146e+01 2.956601e+01 3.722952e+01 5.931050e+01 3.598343e+01 4.958112e+01 5.768392e+01 3.042007e+01 3.091971e+01 2.546586e+01 2.007964e+01 1.603048e+00 1.088251e+00 1.336192e+00 1.582544e+00 2.162557e+00 2.181633e+00 2.468428e+00 3.014301e+00 2.112007e+00 2.194589e+00 1.874405e+00 1.593211e+00 1.717429e+00
<GCONST> 9.632884e+01
<STATE> 3
<MEAN> 25
 -6.660617e-01 3.402803e-01 2.009203e-01 2.435606e-01 3.089015e-02 1.939068e-01 -1.937098e-01 -3.881381e-02 -2.911998e-01 -5.418664e-02 3.681154e-01 1.925354e-01 1.475650e-02 -3.646591e-04 6.821002e-03 9.550914e-03 2.337496e-03 4.944259e-03 -1.048678e-03 1.077905e-02 1.218639e-02 -3.871155e-03 -8.208201e-03 4.625023e-03 -2.449323e-02
<VARIANCE> 25
 3.066212e+01 2.435488e+01 2.945016e+01 3.703856e+01 5.916414e+01 3.613960e+01 4.977200e+01 5.719235e+01 3.036808e+01 3.090924e+01 2.545093e+01 1.999558e+01 1.601317e+00 1.071636e+00 1.335759e+00 1.576741e+00 2.159254e+00 2.167061e+00 2.479802e+00 3.013632e+00 2.107189e+00 2.192054e+00 1.879240e+00 1.579655e+00 1.708640e+00
<GCONST> 9.624892e+01
<STATE> 4
<MEAN> 25
 -5.605284e-01 3.244402e-01 1.957564e-01 3.464051e-01 1.369583e-01 3.155070e-01 -8.122606e-02 3.566357e-02 -2.338213e-01 -3.973362e-02 3.316448e-01 1.931045e-01 1.315960e-02 -1.264266e-03 2.013450e-03 9.253209e-03 5.820417e-03 4.474761e-03 7.900206e-03 1.678010e-02 1.277477e-02 -2.686998e-03 -8.405585e-03 5.106297e-03 -2.287794e-02
<VARIANCE> 25
 3.046914e+01 2.381828e+01 2.918066e+01 3.707601e+01 5.806289e+01 3.570241e+01 4.881618e+01 5.628056e+01 3.058047e+01 3.092413e+01 2.532602e+01 1.982061e+01 1.583170e+00 1.021490e+00 1.298869e+00 1.559525e+00 2.108594e+00 2.118399e+00 2.438155e+00 2.981519e+00 2.112752e+00 2.165699e+00 1.867283e+00 1.535351e+00 1.658639e+00
<GCONST> 9.589307e+01
<TRANSP> 5
 0.000000e+00 1.000000e+00 0.000000e+00 0.000000e+00 0.000000e+00
 0.000000e+00 7.658901e-01 2.341099e-01 0.000000e+00 0.000000e+00
 0.000000e+00 0.000000e+00 7.658899e-01 2.341100e-01 0.000000e+00
 0.000000e+00 0.000000e+00 0.000000e+00 8.958104e-01 1.041896e-01
 0.000000e+00 0.000000e+00 0.000000e+00 0.000000e+00 0.000000e+00
<ENDHMM>
~h "v"
<BEGINHMM>
<NUMSTATES> 5
<STATE> 2
<MEAN> 25
 -2.378291e-01 -9.262239e-02 6.107600e-01 7.533990e-02 -9.803548e-01 -6.572275e-01 -2.088165e-01 -4.427294e-01 -4.238249e-01 -5.231125e-01 2.321454e-01 -4.252139e-02 2.113352e-02 -1.813458e-02 4.863532e-03 -2.584375e-03 -1.943312e-02 -1.823387e-02 -1.538459e-02 -9.363727e-03 -2.526436e-02 -1.422422e-02 -1.799636e-02 1.462567e-02 2.626337e-02
<VARIANCE> 25
 2.942987e+01 2.006597e+01 3.172223e+01 4.435844e+01 6.143637e+01 3.852343e+01 3.859830e+01 4.744400e+01 3.396840e+01 3.758194e+01 2.557332e+01 2.061844e+01 1.216502e+00 8.631497e-01 1.239549e+00 1.641878e+00 2.252788e+00 2.297987e+00 2.303524e+00 2.433543e+00 2.329681e+00 2.367124e+00 2.009331e+00 1.593758e+00 1.593002e+00
<GCONST> 9.574332e+01
<STATE> 3
<MEAN> 25
 -1.766451e-01 -1.473102e-01 6.324354e-01 8.393617e-02 -1.020166e+00 -7.118832e-01 -2.553927e-01 -4.538839e-01 -5.134096e-01 -5.832839e-01 1.476514e-01 1.471114e-02 1.412681e-02 -7.965387e-03 -1.859178e-03 9.689846e-03 5.091349e-03 -3.527605e-03 -6.100658e-03 3.760651e-03 -1.635548e-02 -5.715725e-03 -1.937131e-02 1.306808e-02 2.847128e-03
<VARIANCE> 25
 2.887253e+01 2.037731e+01 3.238547e+01 4.557714e+01 6.107711e+01 3.908414e+01 3.872326e+01 4.716336e+01 3.421919e+01 3.720425e+01 2.545281e+01 2.049365e+01 1.201325e+00 8.737690e-01 1.266095e+00 1.651753e+00 2.266359e+00 2.375816e+00 2.299328e+00 2.454886e+00 2.349954e+00 2.348028e+00 1.975801e+00 1.591728e+00 1.596289e+00
<GCONST> 9.583734e+01
<STATE> 4
<MEAN> 25
 -1.452808e-01 -2.315729e-01 4.910010e-01 1.250273e-01 -8.290207e-01 -7.089836e-01 -2.063922e-01 -2.973926e-01 -5.076869e-01 -5.520272e-01 2.015042e-02 5.972231e-02 5.309288e-03 2.978472e-03 -3.650644e-03 1.585362e-02 2.546789e-02 4.436677e-03 -4.229761e-03 1.020707e-02 -6.793760e-03 -2.243003e-03 -1.744073e-02 6.064600e-03 -7.730614e-03
<VARIANCE> 25
 2.943451e+01 2.120451e+01 3.165632e+01 4.656144e+01 5.973907e+01 3.977437e+01 3.922883e+01 4.675189e+01 3.397838e+01 3.590609e+01 2.527896e+01 2.012833e+01 1.206703e+00 8.961260e-01 1.296795e+00 1.635064e+00 2.260539e+00 2.418036e+00 2.302453e+00 2.465171e+00 2.319571e+00 2.331568e+00 1.945304e+00 1.578798e+00 1.558377e+00
<GCONST> 9.582348e+01
<TRANSP> 5
 0.000000e+00 1.000000e+00 0.000000e+00 0.000000e+00 0.000000e+00
 0.000000e+00 7.780680e-01 2.219320e-01 0.000000e+00 0.000000e+00
 0.000000e+00 0.000000e+00 7.780682e-01 2.219318e-01 0.000000e+00
 0.000000e+00 0.000000e+00 0.000000e+00 9.086453e-01 9.135468e-02
 0.000000e+00 0.000000e+00 0.000000e+00 0.000000e+00 0.000000e+00
<ENDHMM>
~h "w"
<BEGINHMM>
<NUMSTATES> 5
<STATE> 2
<MEAN> 25
 1.237431e+00 -8.473304e-01 -5.970882e-01 -1.089351e+00 -2.990701e-01 4.538524e-01 1.318639e-01 -8.644757e-02 9.560519e-01 2.159889e-01 -1.351965e+00 -6.666981e-01 -3.993830e-03 2.621668e-02 6.242280e-03 3.838528e-02 2.784864e-02 1.158464e-02 2.045899e-02 3.135872e-02 1.372794e-03 2.085313e-02 1.672841e-02 1.152459e-02 -6.131221e-02
<VARIANCE> 25
 2.442325e+01 2.361113e+01 2.046807e+01 4.530327e+01 6.209869e+01 3.897074e+01 4.657090e+01 4.994399e+01 3.499622e+01 3.129101e+01 3.838499e+01 2.294475e+01 1.191848e+00 8.641307e-01 1.053056e+00 1.463654e+00 2.120227e+00 2.336864e+00 2.838949e+00 2.767768e+00 2.305090e+00 2.581220e+00 2.172716e+00 1.696150e+00 1.438007e+00
<GCONST> 9.603406e+01
<STATE> 3
<MEAN> 25
 1.216290e+00 -7.105985e-01 -5.533627e-01 -9.004293e-01 -1.738960e-01 5.005502e-01 2.112992e-01 5.367696e-02 9.476580e-01 2.919552e-01 -1.260536e+00 -5.998355e-01 -3.738492e-03 3.516513e-02 1.227707e-02 4.648222e-02 2.983029e-02 1.078497e-02 1.984352e-02 3.242344e-02 -5.130991e-03 1.972483e-02 2.626774e-02 1.775848e-02 -6.946243e-02
<VARIANCE> 25
 2.499935e+01 2.318623e+01 2.038788e+01 4.446556e+01 6.192955e+01 3.816064e+01 4.590108e+01 5.038099e+01 3.581576e+01 3.135103e+01 3.802510e+01 2.242930e+01 1.204527e+00 8.500709e-01 1.054873e+00 1.470349e+00 2.106180e+00 2.321868e+00 2.802850e+00 2.780221e+00 2.325704e+00 2.564355e+00 2.151156e+00 1.701945e+00 1.401677e+00
<GCONST> 9.592930e+01
<STATE> 4
<MEAN> 25
 1.197837e+00 -3.164783e-01 -4.009746e-01 -4.445571e-01 1.639888e-01 6.051269e-01 2.613779e-01 2.830288e-01 8.401576e-01 3.411923e-01 -9.827790e-01 -3.747861e-01 -6.078416e-03 4.012918e-02 1.518212e-02 4.410397e-02 2.500294e-02 8.280693e-03 1.299801e-02 2.402380e-02 -1.539231e-02 1.241505e-02 3.537502e-02 2.098206e-02 -6.234607e-02
<VARIANCE> 25
 2.551835e+01 2.206773e+01 2.008140e+01 4.277992e+01 6.086599e+01 3.593525e+01 4.505195e+01 5.108900e+01 3.670372e+01 3.190687e+01 3.602769e+01 2.079715e+01 1.219339e+00 8.288218e-01 1.055039e+00 1.507324e+00 2.052669e+00 2.234046e+00 2.709644e+00 2.754274e+00 2.337653e+00 2.551240e+00 2.106011e+00 1.703038e+00 1.336411e+00
<GCONST> 9.551321e+01
<TRANSP> 5
 0.000000e+00 1.000000e+00 0.000000e+00 0.000000e+00 0.000000e+00
 0.000000e+00 7.729034e-01 2.270966e-01 0.000000e+00 0.000000e+00
 0.000000e+00 0.000000e+00 7.729038e-01 2.270962e-01 0.000000e+00
 0.000000e+00 0.000000e+00 0.000000e+00 9.030376e-01 9.696238e-02
 0.000000e+00 0.000000e+00 0.000000e+00 0.000000e+00 0.000000e+00
<ENDHMM>
~h "y"
<BEGINHMM>
<NUMSTATES> 5
<STATE> 2
<MEAN> 25
 2.499049e-01 -3.123861e-01 6.035010e-01 1.306996e-01 -2.488445e-01 -6.366596e-01 -1.235181e+00 -1.110681e+00 -7.468763e-01 -2.476097e-01 -1.449905e-02 -3.509239e-01 -1.288847e-03 -6.961975e-03 -1.975040e-03 -3.155702e-02 3.877545e-02 4.264046e-02 6.336498e-03 -1.455774e-02 4.800133e-03 3.048549e-02 -1.156214e-02 -2.055706e-02 1.413700e-02
<VARIANCE> 25
 2.266441e+01 2.415160e+01 3.214209e+01 3.679651e+01 6.561189e+01 4.664029e+01 5.569230e+01 5.695097e+01 3.408181e+01 3.994365e+01 2.965334e+01 2.304322e+01 1.060969e+00 9.812332e-01 1.444320e+00 1.457296e+00 2.266318e+00 2.332327e+00 2.563976e+00 3.107588e+00 2.414013e+00 2.578023e+00 1.982284e+00 1.661876e+00 1.324623e+00
<GCONST> 9.698560e+01
<STATE> 3
<MEAN> 25
 2.021909e-01 -3.451247e-01 6.087604e-01 5.643857e-02 -9.491860e-02 -4.534451e-01 -1.151205e+00 -1.098605e+00 -7.022336e-01 -1.417829e-01 -6.293417e-02 -4.337276e-01 -1.015108e-02 -1.201246e-02 -3.113332e-03 -2.254445e-02 3.509671e-02 4.367365e-02 2.050894e-02 2.283178e-03 1.168207e-02 2.641931e-02 -1.392598e-02 -2.103221e-02 1.746238e-02
<VARIANCE> 25
 2.313228e+01 2.530986e+01 3.307909e+01 3.648663e+01 6.503464e+01 4.625502e+01 5.489115e+01 5.738755e+01 3.392618e+01 3.936459e+01 3.021318e+01 2.346821e+01 1.063779e+00 1.008922e+00 1.478467e+00 1.414123e+00 2.296565e+00 2.373918e+00 2.548632e+00 3.101418e+00 2.406000e+00 2.609900e+00 1.958466e+00 1.650408e+00 1.357754e+00
<GCONST> 9.712834e+01
<STATE> 4
<MEAN> 25
 -2.471042e-03 -3.372042e-01 7.208929e-01 1.350732e-01 1.220888e-01 -1.802944e-01 -8.907733e-01 -8.443741e-01 -5.614582e-01 -7.019422e-02 -1.738903e-01 -5.607993e-01 -1.541758e-02 -1.904960e-02 -1.455440e-02 -1.248431e-02 3.128159e-02 3.789959e-02 2.423310e-02 2.004089e-02 2.238554e-02 2.045096e-02 -2.015320e-02 -2.347269e-02 1.590737e-02
<VARIANCE> 25
 2.529668e+01 2.668884e+01 3.460080e+01 3.617698e+01 6.513928e+01 4.493253e+01 5.311324e+01 5.677477e+01 3.329047e+01 3.828489e+01 3.074019e+01 2.371132e+01 1.098380e+00 1.030416e+00 1.526671e+00 1.363297e+00 2.349200e+00 2.384673e+00 2.553993e+00 3.057801e+00 2.399651e+00 2.659845e+00 1.938814e+00 1.642190e+00 1.369217e+00
<GCONST> 9.729044e+01
<TRANSP> 5
 0.000000e+00 1.000000e+00 0.000000e+00 0.000000e+00 0.000000e+00
 0.000000e+00 7.625962e-01 2.374038e-01 0.000000e+00 0.000000e+00
 0.000000e+00 0.000000e+00 7.625960e-01 2.374041e-01 0.000000e+00
 0.000000e+00 0.000000e+00 0.000000e+00 8.922159e-01 1.077841e-01
 0.000000e+00 0.000000e+00 0.000000e+00 0.000000e+00 0.000000e+00
<ENDHMM>
~h "z"
<BEGINHMM>
<NUMSTATES> 5
<STATE> 2
<MEAN> 25
 -9.579704e-01 8.631786e-01 -5.284474e-01 6.709687e-01 1.335958e+00 4.857000e-01 1.086078e+00 1.307629e+00 6.752841e-01 7.784784e-01 5.620270e-01 7.189337e-01 -1.425615e-03 -1.657508e-02 -1.086396e-02 -4.146678e-03 -1.476987e-02 -1.031139e-02 -8.984139e-03 -2.226960e-02 -6.631668e-04 -4.353995e-03 1.944991e-02 -3.207323e-03 5.306335e-03
<VARIANCE> 25
 4.376925e+01 2.642422e+01 1.853781e+01 3.619068e+01 4.643813e+01 3.996375e+01 4.765090e+01 4.884680e+01 2.898570e+01 2.877793e+01 2.564694e+01 1.721320e+01 1.373977e+00 1.013439e+00 1.028847e+00 1.364839e+00 1.471268e+00 2.204746e+00 2.048384e+00 2.139556e+00 2.030674e+00 1.913262e+00 1.669097e+00 1.426570e+00 1.188268e+00
<GCONST> 9.332610e+01
<STATE> 3
<MEAN> 25
 -9.565364e-01 7.942279e-01 -5.730407e-01 6.545459e-01 1.276978e+00 4.391966e-01 1.035584e+00 1.212972e+00 6.575102e-01 7.505624e-01 6.259688e-01 6.985613e-01 1.327447e-02 -2.178681e-02 -4.535986e-03 -8.426334e-03 -1.373332e-02 -1.601889e-02 -2.010964e-02 -2.685043e-02 -6.503530e-03 -9.849491e-03 1.294909e-02 -9.800440e-03 6.281398e-03
<VARIANCE> 25
 4.440016e+01 2.610336e+01 1.835477e+01 3.594172e+01 4.579629e+01 4.000995e+01 4.798974e+01 4.898982e+01 2.942723e+01 2.836732e+01 2.539760e+01 1.739704e+01 1.372828e+00 9.869742e-01 1.029559e+00 1.345313e+00 1.472542e+00 2.210071e+00 2.045666e+00 2.136568e+00 2.024280e+00 1.896413e+00 1.655307e+00 1.421975e+00 1.188249e+00
<GCONST> 9.324621e+01
<STATE> 4
<MEAN> 25
 -7.511950e-01 5.763197e-01 -5.586242e-01 4.721961e-01 1.000894e+00 2.310755e-01 7.004243e-01 8.865733e-01 4.896211e-01 6.351967e-01 6.420440e-01 5.934284e-01 2.410592e-02 -1.895875e-02 3.140617e-03 -5.976317e-03 -7.133618e-03 -1.521815e-02 -2.877533e-02 -2.757603e-02 -1.576123e-02 -1.297815e-02 1.655330e-03 -1.461237e-02 -5.861779e-04
<VARIANCE> 25
 4.451494e+01 2.512619e+01 1.823464e+01 3.578603e+01 4.551829e+01 3.976435e+01 4.755138e+01 4.761557e+01 2.973297e+01 2.863963e+01 2.513507e+01 1.749004e+01 1.335305e+00 9.368944e-01 1.035162e+00 1.320350e+00 1.478879e+00 2.177469e+00 2.002594e+00 2.109876e+00 1.993960e+00 1.901938e+00 1.630896e+00 1.418539e+00 1.167187e+00
<GCONST> 9.297984e+01
<TRANSP> 5
 0.000000e+00 1.000000e+00 0.000000e+00 0.000000e+00 0.000000e+00
 0.000000e+00 7.722251e-01 2.277749e-01 0.000000e+00 0.000000e+00
 0.000000e+00 0.000000e+00 7.722242e-01 2.277757e-01 0.000000e+00
 0.000000e+00 0.000000e+00 0.000000e+00 9.032700e-01 9.673002e-02
 0.000000e+00 0.000000e+00 0.000000e+00 0.000000e+00 0.000000e+00
<ENDHMM>
~h "aa"
<BEGINHMM>
<NUMSTATES> 5
<STATE> 2
<MEAN> 25
 1.144533e-01 -5.804532e-01 -1.534658e+00 -1.022224e+00 1.333664e+00 1.595031e+00 1.078313e+00 -1.205316e-01 -1.751136e-01 5.191851e-01 4.957827e-02 -3.577811e-01 2.429650e-03 -1.700770e-02 -5.287363e-03 -1.873825e-02 -2.412643e-02 -1.750318e-02 -3.321666e-02 -1.748278e-02 -1.178061e-02 -9.718043e-03 3.289819e-03 -5.262926e-03 4.596233e-02
<VARIANCE> 25
 2.828886e+01 2.868931e+01 2.193507e+01 5.028340e+01 5.124636e+01 3.939409e+01 4.346991e+01 4.875705e+01 3.254359e+01 3.153266e+01 2.815347e+01 2.193433e+01 1.239156e+00 1.095584e+00 8.717598e-01 1.570521e+00 1.858194e+00 2.275603e+00 2.182321e+00 2.541099e+00 2.105967e+00 2.099852e+00 1.968560e+00 1.687672e+00 1.506938e+00
<GCONST> 9.515228e+01
<STATE> 3
<MEAN> 25
 1.430869e-01 -6.523084e-01 -1.547966e+00 -1.101749e+00 1.214460e+00 1.497184e+00 9.337192e-01 -2.033000e-01 -2.329876e-01 4.726882e-01 5.796291e-02 -3.843703e-01 6.112256e-03 -1.266713e-02 1.336302e-03 -1.503776e-02 -2.705154e-02 -2.460843e-02 -3.595179e-02 -1.502728e-02 -1.169949e-02 -1.054257e-02 6.449379e-03 -1.228085e-03 4.284966e-02
<VARIANCE> 25
 2.876625e+01 2.910087e+01 2.255352e+01 5.046504e+01 5.140283e+01 4.001343e+01 4.482604e+01 4.948376e+01 3.270114e+01 3.175105e+01 2.830009e+01 2.190367e+01 1.257970e+00 1.100697e+00 8.912590e-01 1.579150e+00 1.861273e+00 2.222890e+00 2.227928e+00 2.571220e+00 2.127824e+00 2.124640e+00 1.972525e+00 1.690094e+00 1.497780e+00
<GCONST> 9.537177e+01
<STATE> 4
<MEAN> 25
 2.290544e-01 -7.003630e-01 -1.497227e+00 -1.250590e+00 9.456755e-01 1.232856e+00 7.489696e-01 -2.376904e-01 -3.102176e-01 3.455792e-01 8.264045e-02 -4.099625e-01 1.159770e-02 -4.321171e-03 1.004689e-02 -8.662793e-03 -3.120974e-02 -2.885092e-02 -3.134309e-02 -1.282274e-02 -1.119436e-02 -1.132271e-02 6.045655e-03 4.503635e-03 2.964452e-02
<VARIANCE> 25
 2.913951e+01 2.976516e+01 2.296710e+01 5.186451e+01 5.281513e+01 4.000679e+01 4.675272e+01 5.023112e+01 3.290156e+01 3.130986e+01 2.750766e+01 2.183009e+01 1.275010e+00 1.091791e+00 9.099340e-01 1.582010e+00 1.843035e+00 2.091027e+00 2.281907e+00 2.618711e+00 2.158098e+00 2.117294e+00 1.942235e+00 1.683580e+00 1.427440e+00
<GCONST> 9.543947e+01
<TRANSP> 5
 0.000000e+00 1.000000e+00 0.000000e+00 0.000000e+00 0.000000e+00
 0.000000e+00 7.699556e-01 2.300444e-01 0.000000e+00 0.000000e+00
 0.000000e+00 0.000000e+00 7.699549e-01 2.300452e-01 0.000000e+00
 0.000000e+00 0.000000e+00 0.000000e+00 9.001524e-01 9.984753e-02
 0.000000e+00 0.000000e+00 0.000000e+00 0.000000e+00 0.000000e+00
<ENDHMM>
~h "ae"
<BEGINHMM>
<NUMSTATES> 5
<STATE> 2
<MEAN> 25
 3.704360e-01 -9.187455e-01 -9.822740e-01 4.935507e-01 1.176163e+00 3.772401e-01 -3.744138e-02 3.022265e-01 4.073453e-01 1.254176e-02 -1.451134e+00 -7.027583e-01 8.070386e-03 -1.834565e-02 -9.553562e-03 -2.036068e-02 -2.750170e-02 -2.535806e-02 -2.937618e-02 -4.103198e-02 2.925494e-02 -6.876402e-03 -3.843087e-02 -2.357243e-02 5.871155e-02
<VARIANCE> 25
 2.377163e+01 2.553583e+01 2.309049e+01 3.416055e+01 4.858066e+01 3.913968e+01 4.580644e+01 5.041128e+01 3.005580e+01 3.107578e+01 4.046287e+01 2.413326e+01 1.065138e+00 9.020008e-01 9.945716e-01 1.595755e+00 1.865006e+00 2.053288e+00 2.340559e+00 2.797386e+00 2.225635e+00 2.003252e+00 2.006401e+00 1.548386e+00 1.897277e+00
<GCONST> 9.495689e+01
<STATE> 3
<MEAN> 25
 3.689113e-01 -9.655102e-01 -9.961476e-01 4.208651e-01 1.061062e+00 2.676276e-01 -1.208450e-01 2.122395e-01 5.183042e-01 1.177708e-02 -1.519441e+00 -7.590615e-01 -1.801996e-03 -9.328244e-03 -1.949163e-03 -2.069207e-02 -3.078570e-02 -3.054158e-02 -2.040174e-02 -1.564371e-02 2.642371e-02 1.192423e-03 -1.156609e-02 -9.792946e-03 3.422360e-02
<VARIANCE> 25
 2.395354e+01 2.495737e+01 2.306161e+01 3.448603e+01 4.881075e+01 3.912127e+01 4.643934e+01 4.777813e+01 2.982288e+01 3.126014e+01 4.084766e+01 2.422627e+01 1.087582e+00 8.738859e-01 1.012658e+00 1.563929e+00 1.881873e+00 2.040175e+00 2.358553e+00 2.593324e+00 2.221215e+00 1.992476e+00 1.991869e+00 1.571162e+00 1.835645e+00
<GCONST> 9.481413e+01
<STATE> 4
<MEAN> 25
 3.233701e-01 -9.690073e-01 -8.801870e-01 3.446883e-01 7.225202e-01 -7.668622e-02 -2.768348e-01 2.157607e-01 5.645012e-01 -5.748206e-02 -1.431883e+00 -6.772680e-01 -1.239613e-02 -6.685806e-03 2.888897e-03 -2.955892e-02 -3.916607e-02 -3.504774e-02 -1.330295e-02 3.430181e-03 6.919259e-03 -6.524172e-03 7.840370e-03 9.023086e-03 2.939478e-02
<VARIANCE> 25
 2.389197e+01 2.419890e+01 2.269777e+01 3.461043e+01 5.101632e+01 4.102675e+01 4.811522e+01 4.610332e+01 3.013901e+01 3.182421e+01 4.072219e+01 2.335610e+01 1.114742e+00 8.524914e-01 1.022370e+00 1.512601e+00 1.948638e+00 1.990280e+00 2.347834e+00 2.505055e+00 2.237082e+00 1.976627e+00 2.033224e+00 1.608302e+00 1.746487e+00
<GCONST> 9.478890e+01
<TRANSP> 5
 0.000000e+00 1.000000e+00 0.000000e+00 0.000000e+00 0.000000e+00
 0.000000e+00 7.621671e-01 2.378329e-01 0.000000e+00 0.000000e+00
 0.000000e+00 0.000000e+00 7.621673e-01 2.378327e-01 0.000000e+00
 0.000000e+00 0.000000e+00 0.000000e+00 8.908683e-01 1.091317e-01
 0.000000e+00 0.000000e+00 0.000000e+00 0.000000e+00 0.000000e+00
<ENDHMM>
~h "ah"
<BEGINHMM>
<NUMSTATES> 5
<STATE> 2
<MEAN> 25
 7.772090e-02 -3.337038e-01 -1.680347e-01 -5.655552e-01 -1.738318e-01 1.058516e-02 -2.675427e-01 -2.733766e-01 -9.068979e-02 -1.291856e-01 -3.518844e-01 -3.318191e-01 5.990366e-03 8.956393e-03 6.851282e-03 7.209074e-03 9.472895e-04 8.483099e-03 -9.809065e-03 -1.910972e-03 1.388081e-03 4.054251e-03 -8.228245e-04 -1.875166e-03 -6.929108e-03
<VARIANCE> 25
 3.034264e+01 2.535431e+01 2.709011e+01 3.970699e+01 5.285396e+01 4.097657e+01 4.920850e+01 5.172274e+01 3.165694e+01 3.397379e+01 3.247408e+01 2.406006e+01 1.365931e+00 1.050985e+00 1.305851e+00 1.572204e+00 2.055043e+00 2.413020e+00 2.460560e+00 2.920670e+00 2.255789e+00 2.305937e+00 2.066423e+00 1.701454e+00 1.797277e+00
<GCONST> 9.688401e+01
<STATE> 3
<MEAN> 25
 9.217923e-02 -3.013355e-01 -1.490436e-01 -5.336651e-01 -1.581602e-01 4.429431e-02 -3.100033e-01 -2.825753e-01 -7.890921e-02 -1.072790e-01 -3.535242e-01 -3.381822e-01 8.918463e-03 1.311822e-02 7.188279e-03 1.049664e-02 5.834369e-03 1.024417e-02 -8.798918e-03 5.244913e-04 6.295439e-03 9.179125e-03 3.432517e-03 6.314190e-04 -1.438008e-02
<VARIANCE> 25
 3.082679e+01 2.533885e+01 2.716559e+01 3.901597e+01 5.281489e+01 4.059287e+01 4.945913e+01 5.146209e+01 3.160166e+01 3.362623e+01 3.246780e+01 2.416375e+01 1.392510e+00 1.054288e+00 1.308754e+00 1.569479e+00 2.048397e+00 2.385542e+00 2.448260e+00 2.928552e+00 2.247633e+00 2.278344e+00 2.078626e+00 1.697470e+00 1.793646e+00
<GCONST> 9.685814e+01
<STATE> 4
<MEAN> 25
 9.065428e-02 -2.210049e-01 -9.138022e-02 -3.939743e-01 -2.802304e-02 1.087994e-01 -3.100451e-01 -2.706299e-01 -1.358998e-02 -1.260075e-02 -2.932776e-01 -2.890080e-01 1.097016e-02 1.269395e-02 1.014301e-02 1.282120e-02 6.953977e-03 7.823255e-03 -5.397821e-03 1.941133e-03 9.136405e-03 9.787420e-03 6.460987e-03 5.726746e-03 -1.672198e-02
<VARIANCE> 25
 3.166691e+01 2.503695e+01 2.720843e+01 3.843898e+01 5.280512e+01 3.936048e+01 4.947923e+01 5.150638e+01 3.169311e+01 3.294906e+01 3.147551e+01 2.360073e+01 1.388765e+00 1.037091e+00 1.289336e+00 1.542070e+00 2.035661e+00 2.305675e+00 2.401833e+00 2.875294e+00 2.226408e+00 2.233063e+00 2.068956e+00 1.676160e+00 1.714046e+00
<GCONST> 9.653617e+01
<TRANSP> 5
 0.000000e+00 1.000000e+00 0.000000e+00 0.000000e+00 0.000000e+00
 0.000000e+00 7.619706e-01 2.380294e-01 0.000000e+00 0.000000e+00
 0.000000e+00 0.000000e+00 7.619702e-01 2.380298e-01 0.000000e+00
 0.000000e+00 0.000000e+00 0.000000e+00 8.925147e-01 1.074853e-01
 0.000000e+00 0.000000e+00 0.000000e+00 0.000000e+00 0.000000e+00
<ENDHMM>
~h "ao"
<BEGINHMM>
<NUMSTATES> 5
<STATE> 2
<MEAN> 25
 5.340590e-01 -2.743510e-01 -9.761962e-01 -1.032850e+00 -2.249286e-01 -1.460186e-01 1.014201e+00 1.556932e+00 3.993836e-01 6.808936e-02 8.527127e-01 9.326704e-01 -1.742895e-03 -6.044819e-03 -1.126845e-02 -1.267118e-02 -2.195208e-03 -5.805587e-03 -2.314770e-02 -2.241371e-02 -1.583838e-02 -1.143702e-02 8.415702e-03 4.653613e-03 2.360375e-02
<VARIANCE> 25
 2.904574e+01 1.886288e+01 2.136727e+01 5.237057e+01 4.696167e+01 3.617994e+01 4.017854e+01 3.947599e+01 2.858432e+01 3.627008e+01 2.054837e+01 1.675603e+01 1.226050e+00 8.363804e-01 1.055156e+00 1.766624e+00 1.744156e+00 2.344181e+00 2.551933e+00 2.081311e+00 2.045102e+00 2.397303e+00 1.558485e+00 1.358590e+00 1.563981e+00
<GCONST> 9.337858e+01
<STATE> 3
<MEAN> 25
 5.149548e-01 -2.894773e-01 -1.031486e+00 -1.073745e+00 -2.248618e-01 -1.272357e-01 9.520191e-01 1.491898e+00 3.625596e-01 2.305629e-02 8.774039e-01 9.316127e-01 -5.966070e-03 -2.632168e-03 -1.089178e-02 -8.461918e-03 -6.970813e-04 5.253254e-03 -1.678113e-02 -1.855937e-02 -1.018658e-02 -1.012810e-02 5.184806e-03 -2.354200e-03 1.660217e-02
<VARIANCE> 25
 3.001880e+01 1.936643e+01 2.136734e+01 5.188047e+01 4.633731e+01 3.594407e+01 3.976757e+01 3.992096e+01 2.867145e+01 3.634908e+01 2.038525e+01 1.702817e+01 1.233981e+00 8.344284e-01 1.058887e+00 1.768510e+00 1.715372e+00 2.337652e+00 2.533599e+00 2.068763e+00 2.036285e+00 2.386318e+00 1.554959e+00 1.374408e+00 1.522486e+00
<GCONST> 9.337238e+01
<STATE> 4
<MEAN> 25
 3.998687e-01 -3.081094e-01 -1.024640e+00 -1.026114e+00 -2.232665e-01 -7.629122e-02 8.686429e-01 1.447565e+00 3.899226e-01 -3.177658e-02 7.973934e-01 7.822016e-01 -1.568529e-02 4.546546e-03 -7.404061e-04 -3.969328e-03 3.573718e-04 9.791413e-03 -1.131614e-02 -7.849706e-03 -3.225144e-04 -6.004693e-03 -7.585780e-04 -9.972136e-03 1.084365e-02
<VARIANCE> 25
 3.163890e+01 2.026294e+01 2.265695e+01 5.123717e+01 4.599253e+01 3.519490e+01 3.828665e+01 3.995411e+01 2.805616e+01 3.614080e+01 2.062389e+01 1.750070e+01 1.268928e+00 8.356943e-01 1.074805e+00 1.789060e+00 1.693490e+00 2.334911e+00 2.441350e+00 2.093986e+00 2.008428e+00 2.329361e+00 1.556895e+00 1.398225e+00 1.487345e+00
<GCONST> 9.343632e+01
<TRANSP> 5
 0.000000e+00 1.000000e+00 0.000000e+00 0.000000e+00 0.000000e+00
 0.000000e+00 7.769753e-01 2.230246e-01 0.000000e+00 0.000000e+00
 0.000000e+00 0.000000e+00 7.769752e-01 2.230248e-01 0.000000e+00
 0.000000e+00 0.000000e+00 0.000000e+00 9.071121e-01 9.288788e-02
 0.000000e+00 0.000000e+00 0.000000e+00 0.000000e+00 0.000000e+00
<ENDHMM>
~h "aw"
<BEGINHMM>
<NUMSTATES> 5
<STATE> 2
<MEAN> 25
 4.187284e-01 -1.043875e+00 -8.943067e-01 -1.504712e+00 3.044220e-01 1.260851e+00 1.210560e-02 -1.106173e-01 -1.914981e-01 3.260659e-01 -5.009360e-01 -7.728785e-01 1.023920e-03 1.924775e-02 2.438164e-02 2.353598e-02 2.930627e-03 2.077365e-02 2.206210e-02 2.942770e-02 2.284918e-02 -3.969972e-03 1.916057e-03 3.279138e-02 -2.892383e-02
<VARIANCE> 25
 2.401248e+01 2.863129e+01 3.210458e+01 5.311242e+01 3.685872e+01 3.466323e+01 4.769766e+01 5.874269e+01 3.100744e+01 2.588361e+01 2.368724e+01 2.281826e+01 1.364170e+00 1.059476e+00 1.123326e+00 1.351531e+00 1.625507e+00 2.366613e+00 2.474092e+00 2.933906e+00 2.048920e+00 1.913705e+00 1.811833e+00 1.602278e+00 1.939125e+00
<GCONST> 9.520227e+01
<STATE> 3
<MEAN> 25
 4.117989e-01 -9.610338e-01 -8.130584e-01 -1.393615e+00 3.479856e-01 1.360152e+00 1.485598e-01 2.325396e-02 -7.661434e-02 3.308102e-01 -4.907222e-01 -6.303006e-01 2.161911e-03 1.936026e-02 1.744590e-02 2.704727e-02 1.323828e-02 2.356306e-02 3.553518e-02 2.878285e-02 2.779031e-02 3.734634e-03 5.108608e-03 3.423414e-02 -4.160623e-02
<VARIANCE> 25
 2.431793e+01 2.872527e+01 3.234108e+01 5.321476e+01 3.731821e+01 3.472561e+01 4.592453e+01 5.834891e+01 3.089606e+01 2.599516e+01 2.366759e+01 2.287673e+01 1.376429e+00 1.054712e+00 1.109318e+00 1.352716e+00 1.646176e+00 2.369555e+00 2.445553e+00 2.948224e+00 2.039975e+00 1.915076e+00 1.767838e+00 1.591563e+00 1.897397e+00
<GCONST> 9.514265e+01
<STATE> 4
<MEAN> 25
 4.227886e-01 -8.114371e-01 -8.249086e-01 -1.116744e+00 6.064342e-01 1.515864e+00 5.120990e-01 3.174265e-01 2.109779e-01 5.307937e-01 -4.218365e-01 -4.364337e-01 1.940635e-03 1.999093e-02 6.887013e-03 3.069079e-02 2.834626e-02 2.193533e-02 4.163665e-02 2.711077e-02 2.964134e-02 1.502860e-02 1.436829e-02 3.249223e-02 -5.613466e-02
<VARIANCE> 25
 2.371665e+01 2.855282e+01 3.057555e+01 5.440018e+01 3.618677e+01 3.430931e+01 4.160328e+01 5.607090e+01 3.092354e+01 2.559890e+01 2.289264e+01 2.299422e+01 1.307708e+00 1.032820e+00 1.043365e+00 1.351764e+00 1.619175e+00 2.308478e+00 2.332329e+00 2.793811e+00 1.999240e+00 1.899980e+00 1.663086e+00 1.568814e+00 1.810504e+00
<GCONST> 9.442487e+01
<TRANSP> 5
 0.000000e+00 1.000000e+00 0.000000e+00 0.000000e+00 0.000000e+00
 0.000000e+00 7.821344e-01 2.178656e-01 0.000000e+00 0.000000e+00
 0.000000e+00 0.000000e+00 7.821346e-01 2.178654e-01 0.000000e+00
 0.000000e+00 0.000000e+00 0.000000e+00 9.138998e-01 8.610018e-02
 0.000000e+00 0.000000e+00 0.000000e+00 0.000000e+00 0.000000e+00
<ENDHMM>
~h "ay"
<BEGINHMM>
<NUMSTATES> 5
<STATE> 2
<MEAN> 25
 4.521190e-02 -6.967603e-01 -3.365348e-01 -4.246831e-01 2.506293e-01 3.064602e-01 5.686261e-01 5.186709e-01 5.110767e-01 2.393573e-01 -1.363971e-01 -5.066460e-01 -1.373988e-03 3.952367e-02 3.435884e-02 9.904998e-03 -1.825429e-02 1.033348e-03 2.989816e-03 1.185052e-02 -9.749258e-03 -8.479622e-03 1.614474e-02 2.472132e-02 -4.312764e-02
<VARIANCE> 25
 2.789868e+01 2.739510e+01 2.847251e+01 4.196668e+01 4.630906e+01 3.613899e+01 3.457426e+01 3.848642e+01 2.561331e+01 2.516436e+01 2.578849e+01 2.500321e+01 1.382160e+00 8.502375e-01 1.298003e+00 1.573027e+00 2.133294e+00 2.210580e+00 2.176313e+00 2.436976e+00 2.080331e+00 2.101237e+00 1.864337e+00 1.888278e+00 1.327988e+00
<GCONST> 9.433712e+01
<STATE> 3
<MEAN> 25
 5.140089e-02 -4.915285e-01 -2.143287e-01 -3.678714e-01 2.365734e-01 3.441515e-01 5.966533e-01 5.779521e-01 4.637735e-01 2.232226e-01 -6.584959e-02 -3.960171e-01 -3.014816e-04 4.493431e-02 2.784376e-02 1.258806e-02 -6.705708e-03 6.538733e-03 2.411988e-03 1.283629e-02 -1.064173e-02 -6.571317e-03 1.001703e-02 2.443767e-02 -4.837927e-02
<VARIANCE> 25
 2.911463e+01 2.716644e+01 2.745278e+01 4.173435e+01 4.672515e+01 3.572506e+01 3.530939e+01 3.837918e+01 2.590376e+01 2.561028e+01 2.582211e+01 2.483427e+01 1.430905e+00 8.728979e-01 1.282089e+00 1.598172e+00 2.171861e+00 2.198699e+00 2.217257e+00 2.448430e+00 2.083483e+00 2.122435e+00 1.869930e+00 1.835353e+00 1.337546e+00
<GCONST> 9.446204e+01
<STATE> 4
<MEAN> 25
 1.057357e-01 -1.471727e-01 -1.220071e-01 -2.474741e-01 3.712466e-01 4.451133e-01 6.496645e-01 6.334653e-01 4.031345e-01 2.382040e-01 -2.019305e-02 -2.145778e-01 -7.810541e-03 2.940048e-02 6.864465e-03 4.377409e-03 -2.188895e-03 4.508215e-04 1.863239e-03 3.900034e-03 -9.848687e-03 -8.493531e-03 -4.748096e-03 1.176158e-02 -1.865499e-02
<VARIANCE> 25
 3.123228e+01 2.707099e+01 2.575522e+01 4.207688e+01 4.543982e+01 3.439939e+01 3.620092e+01 3.836912e+01 2.581228e+01 2.596542e+01 2.630122e+01 2.363939e+01 1.463296e+00 9.113021e-01 1.264212e+00 1.650503e+00 2.161739e+00 2.156154e+00 2.277519e+00 2.485041e+00 2.063324e+00 2.124505e+00 1.894136e+00 1.728159e+00 1.365692e+00
<GCONST> 9.447719e+01
<TRANSP> 5
 0.000000e+00 1.000000e+00 0.000000e+00 0.000000e+00 0.000000e+00
 0.000000e+00 7.771280e-01 2.228720e-01 0.000000e+00 0.000000e+00
 0.000000e+00 0.000000e+00 7.771283e-01 2.228717e-01 0.000000e+00
 0.000000e+00 0.000000e+00 0.000000e+00 9.079756e-01 9.202441e-02
 0.000000e+00 0.000000e+00 0.000000e+00 0.000000e+00 0.000000e+00
<ENDHMM>
~h "ch"
<BEGINHMM>
<NUMSTATES> 5
<STATE> 2
<MEAN> 25
 -1.354470e+00 2.549340e-01 9.369823e-01 -8.862215e-01 -1.073755e+00 -9.963214e-01 -2.064105e+00 -9.339424e-01 -2.453981e-01 -1.712488e+00 9.581184e-02 -1.690246e-01 -1.182710e-01 4.429596e-02 -8.212782e-03 -2.510934e-02 1.538567e-02 3.135387e-02 -7.500486e-03 -3.592604e-02 4.097040e-02 -7.504784e-03 -6.422262e-03 -1.385816e-02 4.980405e-02
<VARIANCE> 25
 5.906475e+01 2.692968e+01 2.969361e+01 3.097401e+01 4.775697e+01 3.318048e+01 4.564904e+01 4.605692e+01 3.646603e+01 3.270303e+01 3.836683e+01 2.238285e+01 2.880711e+00 1.361168e+00 2.011121e+00 2.017816e+00 2.114512e+00 2.247088e+00 2.708679e+00 3.508351e+00 2.661591e+00 2.375221e+00 2.946404e+00 1.759409e+00 2.701078e+00
<GCONST> 1.000615e+02
<STATE> 3
<MEAN> 25
 -1.799667e+00 3.934909e-01 9.162757e-01 -9.460468e-01 -9.927924e-01 -8.953042e-01 -2.040090e+00 -9.577246e-01 -8.662652e-02 -1.719179e+00 8.027511e-02 -2.337523e-01 -9.101707e-02 2.392872e-02 -6.118989e-03 8.906124e-04 1.918253e-02 2.203717e-02 1.390980e-02 2.939087e-03 4.266390e-02 1.193646e-02 -1.466695e-02 -1.970384e-02 3.218393e-02
<VARIANCE> 25
 6.458547e+01 2.714930e+01 2.857180e+01 2.966501e+01 4.727552e+01 3.300297e+01 4.601768e+01 4.268542e+01 3.553577e+01 3.329337e+01 3.813372e+01 2.426004e+01 2.950750e+00 1.359223e+00 1.955511e+00 1.997837e+00 2.031375e+00 2.183840e+00 2.618918e+00 3.045791e+00 2.445756e+00 2.364830e+00 3.029467e+00 1.835134e+00 2.533478e+00
<GCONST> 9.971812e+01
<STATE> 4
<MEAN> 25
 -2.103767e+00 4.737156e-01 9.876472e-01 -9.404461e-01 -9.775035e-01 -8.166085e-01 -2.019035e+00 -8.801792e-01 -3.873557e-02 -1.816362e+00 -4.105124e-02 -4.159180e-01 -1.325506e-02 4.149005e-03 1.467141e-02 3.916564e-02 7.973622e-03 7.038455e-03 3.330835e-02 2.837490e-02 2.836256e-02 2.190464e-02 -3.332652e-02 -2.534489e-02 -1.056688e-02
<VARIANCE> 25
 6.721111e+01 2.785066e+01 2.648000e+01 2.933303e+01 4.869715e+01 3.337464e+01 4.804586e+01 4.343016e+01 3.552923e+01 3.495121e+01 3.740850e+01 2.695238e+01 2.822706e+00 1.320771e+00 1.779961e+00 2.002677e+00 1.941574e+00 2.072139e+00 2.533136e+00 2.616078e+00 2.248825e+00 2.348263e+00 3.005037e+00 1.920788e+00 2.197832e+00
<GCONST> 9.928852e+01
<TRANSP> 5
 0.000000e+00 1.000000e+00 0.000000e+00 0.000000e+00 0.000000e+00
 0.000000e+00 7.499709e-01 2.500291e-01 0.000000e+00 0.000000e+00
 0.000000e+00 0.000000e+00 7.499711e-01 2.500289e-01 0.000000e+00
 0.000000e+00 0.000000e+00 0.000000e+00 8.750710e-01 1.249289e-01
 0.000000e+00 0.000000e+00 0.000000e+00 0.000000e+00 0.000000e+00
<ENDHMM>
~h "dh"
<BEGINHMM>
<NUMSTATES> 5
<STATE> 2
<MEAN> 25
 8.786014e-01 -3.863432e-01 -4.496540e-01 -5.101238e-01 -2.497501e-01 5.707577e-01 2.671192e-01 3.675763e-01 6.319107e-01 3.055951e-01 -1.188406e+00 -1.270248e+00 -1.591954e-02 1.765135e-02 -3.260380e-02 3.355992e-02 9.582026e-02 8.505772e-02 7.799918e-02 4.451704e-02 2.329807e-02 7.545038e-02 6.405031e-02 1.113403e-02 -1.010272e-01
<VARIANCE> 25
 2.466045e+01 2.292524e+01 2.483042e+01 4.359285e+01 5.963543e+01 3.974567e+01 4.794927e+01 5.357560e+01 3.320039e+01 3.512294e+01 3.180645e+01 2.389367e+01 1.155177e+00 6.480766e-01 1.083078e+00 1.272249e+00 2.045478e+00 2.605194e+00 2.034994e+00 1.874093e+00 1.690829e+00 2.135936e+00 1.530022e+00 1.596999e+00 1.400679e+00
<GCONST> 9.414536e+01
<STATE> 3
<MEAN> 25
 7.678935e-01 -3.032978e-01 -5.723572e-01 -3.655198e-01 1.452265e-01 8.920268e-01 6.078607e-01 5.756336e-01 7.382054e-01 6.180058e-01 -9.167573e-01 -1.203096e+00 -2.509273e-02 2.424295e-02 -2.030538e-02 4.557039e-02 8.714806e-02 6.412487e-02 8.379208e-02 6.126554e-02 3.038509e-02 6.736974e-02 6.671295e-02 2.970770e-02 -1.113407e-01
<VARIANCE> 25
 2.468840e+01 2.284529e+01 2.379175e+01 4.288927e+01 5.833573e+01 3.881422e+01 4.662360e+01 5.439357e+01 3.243426e+01 3.409776e+01 3.111710e+01 2.360106e+01 1.132596e+00 6.360102e-01 1.049945e+00 1.268474e+00 1.952276e+00 2.564095e+00 1.943815e+00 1.892303e+00 1.637779e+00 2.083076e+00 1.501768e+00 1.553784e+00 1.357480e+00
<GCONST> 9.363255e+01
<STATE> 4
<MEAN> 25
 4.100834e-01 -1.098146e-01 -7.050931e-01 -2.144075e-01 7.270418e-01 1.299422e+00 1.213214e+00 1.063373e+00 8.616864e-01 9.902047e-01 -5.564513e-01 -1.057396e+00 -3.574988e-02 3.498366e-02 -2.810732e-04 5.321439e-02 6.492676e-02 2.921440e-02 7.235704e-02 7.130782e-02 3.289559e-02 4.425947e-02 5.885718e-02 4.789603e-02 -1.061978e-01
<VARIANCE> 25
 2.606593e+01 2.239133e+01 2.245599e+01 4.147819e+01 5.738882e+01 3.753888e+01 4.423299e+01 5.589738e+01 3.108363e+01 3.247167e+01 2.975456e+01 2.326669e+01 1.114684e+00 6.490010e-01 1.016729e+00 1.279324e+00 1.901001e+00 2.460870e+00 1.853886e+00 2.035209e+00 1.606022e+00 2.026718e+00 1.517465e+00 1.519219e+00 1.307832e+00
<GCONST> 9.319199e+01
<TRANSP> 5
 0.000000e+00 1.000000e+00 0.000000e+00 0.000000e+00 0.000000e+00
 0.000000e+00 7.646509e-01 2.353491e-01 0.000000e+00 0.000000e+00
 0.000000e+00 0.000000e+00 7.646511e-01 2.353489e-01 0.000000e+00
 0.000000e+00 0.000000e+00 0.000000e+00 8.924494e-01 1.075507e-01
 0.000000e+00 0.000000e+00 0.000000e+00 0.000000e+00 0.000000e+00
<ENDHMM>
~h "eh"
<BEGINHMM>
<NUMSTATES> 5
<STATE> 2
<MEAN> 25
 -2.118950e-01 -4.325749e-01 2.210685e-01 -3.820065e-01 -1.030280e+00 -6.562001e-01 -5.627907e-02 2.415631e-01 3.507567e-01 -6.624025e-01 -7.678805e-01 -2.991986e-01 -9.748845e-03 5.762655e-03 1.178259e-03 8.905553e-03 5.382633e-04 -2.583396e-03 6.793370e-03 5.128720e-04 1.594475e-02 -7.581801e-03 -2.259531e-02 6.599589e-04 9.848676e-03
<VARIANCE> 25
 2.902265e+01 2.385998e+01 2.414268e+01 3.543962e+01 5.199488e+01 3.815015e+01 4.085314e+01 4.462127e+01 3.304686e+01 3.448503e+01 3.655194e+01 2.135031e+01 1.402551e+00 1.034582e+00 1.263567e+00 1.353709e+00 2.074193e+00 2.338361e+00 2.459105e+00 2.559003e+00 2.343894e+00 2.208680e+00 2.061889e+00 1.689902e+00 1.741434e+00
<GCONST> 9.581287e+01
<STATE> 3
<MEAN> 25
 -2.376548e-01 -4.058725e-01 2.178581e-01 -3.124550e-01 -9.960242e-01 -6.545921e-01 -7.082010e-03 2.728099e-01 4.155292e-01 -6.822482e-01 -8.617117e-01 -2.965054e-01 -5.866939e-03 9.073926e-03 -7.688800e-03 1.737395e-02 1.486549e-02 3.008511e-03 1.428746e-02 1.271119e-02 2.094123e-02 -1.530079e-03 -2.193996e-02 2.629029e-03 -8.825697e-03
<VARIANCE> 25
 2.935200e+01 2.401099e+01 2.431875e+01 3.512200e+01 5.154949e+01 3.772846e+01 4.062656e+01 4.471705e+01 3.292332e+01 3.467450e+01 3.604886e+01 2.100670e+01 1.408811e+00 1.043946e+00 1.274955e+00 1.355798e+00 2.023931e+00 2.293087e+00 2.435202e+00 2.513060e+00 2.339925e+00 2.195734e+00 2.043556e+00 1.681924e+00 1.724401e+00
<GCONST> 9.569817e+01
<STATE> 4
<MEAN> 25
 -1.975800e-01 -3.514743e-01 1.716241e-01 -9.402698e-02 -8.024682e-01 -5.088717e-01 1.763253e-01 4.270592e-01 5.540381e-01 -5.559819e-01 -9.039404e-01 -2.754417e-01 -2.803243e-03 7.526245e-03 -1.493283e-02 2.364316e-02 2.969150e-02 1.595228e-02 2.100304e-02 2.208002e-02 2.086526e-02 9.329578e-03 -9.480268e-03 3.625787e-03 -2.687731e-02
<VARIANCE> 25
 2.883320e+01 2.395743e+01 2.474394e+01 3.461815e+01 5.242618e+01 3.714428e+01 3.988678e+01 4.512942e+01 3.190234e+01 3.462856e+01 3.507471e+01 2.021586e+01 1.366788e+00 1.025174e+00 1.264603e+00 1.348116e+00 1.973270e+00 2.200909e+00 2.342041e+00 2.456603e+00 2.286507e+00 2.191022e+00 2.015511e+00 1.648795e+00 1.671165e+00
<GCONST> 9.529378e+01
<TRANSP> 5
 0.000000e+00 1.000000e+00 0.000000e+00 0.000000e+00 0.000000e+00
 0.000000e+00 7.564405e-01 2.435595e-01 0.000000e+00 0.000000e+00
 0.000000e+00 0.000000e+00 7.564399e-01 2.435602e-01 0.000000e+00
 0.000000e+00 0.000000e+00 0.000000e+00 8.852131e-01 1.147869e-01
 0.000000e+00 0.000000e+00 0.000000e+00 0.000000e+00 0.000000e+00
<ENDHMM>
~h "er"
<BEGINHMM>
<NUMSTATES> 5
<STATE> 2
<MEAN> 25
 4.428116e-01 -6.418019e-01 -5.164654e-01 -3.294271e-01 -1.930945e-01 -1.251947e+00 -1.255674e+00 2.685710e-01 8.713856e-01 4.709226e-01 -9.272432e-02 2.658190e-01 3.919200e-02 7.291169e-03 1.408891e-02 6.946287e-02 3.059094e-02 -2.832151e-03 3.107313e-02 4.354330e-02 3.457283e-02 2.018685e-02 -7.999703e-03 1.569592e-03 -7.060133e-02
<VARIANCE> 25
 3.014743e+01 2.300257e+01 2.183803e+01 4.012046e+01 5.590301e+01 4.664931e+01 4.944450e+01 5.096233e+01 3.048286e+01 2.981535e+01 2.808477e+01 1.922416e+01 1.492189e+00 9.014806e-01 1.020109e+00 1.486619e+00 1.911048e+00 2.094199e+00 2.178110e+00 2.446627e+00 1.989876e+00 2.075261e+00 1.885192e+00 1.521879e+00 1.301777e+00
<GCONST> 9.457478e+01
<STATE> 3
<MEAN> 25
 5.995408e-01 -6.008596e-01 -4.535146e-01 -3.722721e-02 -5.405363e-02 -1.249084e+00 -1.110308e+00 4.512276e-01 1.008824e+00 5.540943e-01 -1.246799e-01 2.679152e-01 3.492456e-02 1.385231e-02 1.463873e-02 8.437777e-02 4.971905e-02 1.395001e-02 5.047857e-02 4.632784e-02 3.220577e-02 1.975631e-02 -4.937712e-03 -5.109730e-03 -9.623533e-02
<VARIANCE> 25
 2.962416e+01 2.260244e+01 2.126886e+01 3.992713e+01 5.582104e+01 4.699657e+01 4.929088e+01 4.997806e+01 2.995980e+01 2.970178e+01 2.790494e+01 1.879122e+01 1.429195e+00 8.672262e-01 9.787356e-01 1.461118e+00 1.880898e+00 2.044712e+00 2.125589e+00 2.372892e+00 1.949210e+00 2.075561e+00 1.865208e+00 1.502677e+00 1.276749e+00
<GCONST> 9.414281e+01
<STATE> 4
<MEAN> 25
 7.246196e-01 -4.784679e-01 -3.773470e-01 3.184682e-01 2.567115e-01 -1.068007e+00 -8.028214e-01 6.662861e-01 1.142358e+00 6.848423e-01 -8.661772e-02 2.478185e-01 1.658854e-02 2.284801e-02 1.439692e-02 8.330625e-02 6.475908e-02 3.476611e-02 7.010432e-02 4.443587e-02 2.498284e-02 1.818399e-02 -1.372647e-03 -1.016251e-02 -1.062889e-01
<VARIANCE> 25
 2.851456e+01 2.232530e+01 2.011307e+01 4.068171e+01 5.578872e+01 4.690303e+01 4.914604e+01 4.948251e+01 2.943046e+01 2.941118e+01 2.720282e+01 1.861852e+01 1.327593e+00 8.341612e-01 9.095014e-01 1.414083e+00 1.824898e+00 1.963975e+00 2.041129e+00 2.285868e+00 1.920658e+00 2.074863e+00 1.825349e+00 1.502780e+00 1.232555e+00
<GCONST> 9.353831e+01
<TRANSP> 5
 0.000000e+00 1.000000e+00 0.000000e+00 0.000000e+00 0.000000e+00
 0.000000e+00 7.671087e-01 2.328912e-01 0.000000e+00 0.000000e+00
 0.000000e+00 0.000000e+00 7.671085e-01 2.328915e-01 0.000000e+00
 0.000000e+00 0.000000e+00 0.000000e+00 8.965669e-01 1.034330e-01
 0.000000e+00 0.000000e+00 0.000000e+00 0.000000e+00 0.000000e+00
<ENDHMM>
~h "ey"
<BEGINHMM>
<NUMSTATES> 5
<STATE> 2
<MEAN> 25
 -4.900871e-01 6.544452e-02 1.674593e+00 2.957376e-01 -1.622255e+00 -1.049188e+00 -5.806681e-01 -8.780644e-01 -1.373578e-01 -3.136666e-01 4.237239e-01 6.099246e-01 -4.982017e-03 7.141421e-03 -1.022598e-02 1.482005e-02 3.433227e-02 3.134299e-02 2.558285e-02 2.924712e-02 1.215279e-02 3.271487e-03 -7.986532e-03 2.261359e-03 -4.256957e-02
<VARIANCE> 25
 2.878813e+01 2.116066e+01 3.254602e+01 3.387207e+01 7.457369e+01 4.393734e+01 4.382267e+01 5.396305e+01 2.965308e+01 3.386853e+01 2.846734e+01 1.856730e+01 1.214498e+00 9.126985e-01 1.228147e+00 1.489702e+00 2.159850e+00 2.168786e+00 2.481385e+00 2.899287e+00 2.167936e+00 2.180458e+00 2.061439e+00 1.618063e+00 1.582924e+00
<GCONST> 9.585126e+01
<STATE> 3
<MEAN> 25
 -4.964577e-01 9.817648e-02 1.608408e+00 3.525717e-01 -1.434909e+00 -9.018282e-01 -4.625928e-01 -7.425167e-01 -7.837722e-02 -2.809085e-01 3.875296e-01 6.069951e-01 -1.573551e-04 1.070491e-02 -1.785478e-02 1.435947e-02 4.796172e-02 3.641113e-02 2.760804e-02 3.310752e-02 1.374914e-02 6.461815e-03 -1.156242e-02 -1.103506e-03 -4.954440e-02
<VARIANCE> 25
 2.886248e+01 2.141380e+01 3.253798e+01 3.381910e+01 7.384207e+01 4.355174e+01 4.378854e+01 5.309487e+01 2.957182e+01 3.336895e+01 2.892342e+01 1.871299e+01 1.213814e+00 9.095133e-01 1.235718e+00 1.483704e+00 2.157595e+00 2.182096e+00 2.466203e+00 2.851765e+00 2.157567e+00 2.156521e+00 2.038631e+00 1.615703e+00 1.573613e+00
<GCONST> 9.578050e+01
<STATE> 4
<MEAN> 25
 -4.257054e-01 1.765026e-01 1.342366e+00 4.645326e-01 -8.288238e-01 -5.146616e-01 -1.638407e-01 -4.383914e-01 7.656229e-02 -8.441935e-02 3.378925e-01 5.911368e-01 6.370992e-03 7.776438e-03 -2.789845e-02 7.158617e-03 5.469095e-02 3.490957e-02 2.748811e-02 2.853407e-02 1.502030e-02 1.379982e-02 -1.110902e-02 -3.665616e-03 -4.255849e-02
<VARIANCE> 25
 2.860114e+01 2.199413e+01 3.209018e+01 3.358238e+01 7.146533e+01 4.265623e+01 4.339145e+01 5.295990e+01 2.997567e+01 3.236522e+01 2.916654e+01 1.900353e+01 1.177788e+00 9.150865e-01 1.229169e+00 1.451213e+00 2.098974e+00 2.173422e+00 2.366789e+00 2.771653e+00 2.120421e+00 2.090179e+00 1.963609e+00 1.606537e+00 1.535345e+00
<GCONST> 9.544985e+01
<TRANSP> 5
 0.000000e+00 1.000000e+00 0.000000e+00 0.000000e+00 0.000000e+00
 0.000000e+00 7.643582e-01 2.356418e-01 0.000000e+00 0.000000e+00
 0.000000e+00 0.000000e+00 7.643580e-01 2.356419e-01 0.000000e+00
 0.000000e+00 0.000000e+00 0.000000e+00 8.962215e-01 1.037785e-01
 0.000000e+00 0.000000e+00 0.000000e+00 0.000000e+00 0.000000e+00
<ENDHMM>
~h "hh"
<BEGINHMM>
<NUMSTATES> 5
<STATE> 2
<MEAN> 25
 4.524471e-01 -5.655077e-01 -5.761662e-01 -3.433454e-01 2.383806e-01 5.219817e-01 3.097644e-01 -7.811764e-01 -5.692263e-01 -5.244078e-01 -5.429387e-01 -2.153124e-01 -4.768151e-04 -1.128923e-02 -1.630859e-02 -2.917288e-02 2.756435e-02 3.643044e-02 -1.931009e-02 -2.742335e-02 8.944049e-03 1.553615e-02 -2.322799e-02 -2.225906e-02 1.801074e-02
<VARIANCE> 25
 1.751655e+01 2.987786e+01 2.075421e+01 3.801722e+01 3.205875e+01 3.165443e+01 3.976094e+01 4.558542e+01 2.962226e+01 3.962363e+01 3.773186e+01 2.162185e+01 7.156462e-01 8.622789e-01 6.924121e-01 1.171099e+00 1.509069e+00 1.867618e+00 2.166449e+00 2.405193e+00 1.958169e+00 1.974372e+00 2.009060e+00 1.781104e+00 1.505680e+00
<GCONST> 9.210597e+01
<STATE> 3
<MEAN> 25
 4.673573e-01 -5.859693e-01 -6.021094e-01 -4.189685e-01 3.380241e-01 6.877264e-01 3.146280e-01 -8.365707e-01 -5.039799e-01 -4.358102e-01 -5.714123e-01 -3.028053e-01 2.848087e-03 -5.797640e-03 -4.664260e-03 -1.528810e-02 2.607569e-02 4.242709e-02 1.157563e-02 -4.499312e-03 2.135017e-02 2.535616e-02 -5.939652e-03 -2.106864e-02 -1.877112e-02
<VARIANCE> 25
 1.732387e+01 2.945872e+01 2.110498e+01 3.822500e+01 3.185443e+01 3.193448e+01 3.880158e+01 4.560074e+01 2.928325e+01 3.977832e+01 3.765335e+01 2.172080e+01 7.197213e-01 8.373340e-01 6.936953e-01 1.112923e+00 1.490960e+00 1.926576e+00 2.103286e+00 2.364280e+00 1.952863e+00 1.950827e+00 1.964337e+00 1.758191e+00 1.466983e+00
<GCONST> 9.189945e+01
<STATE> 4
<MEAN> 25
 5.522290e-01 -4.115821e-01 -5.575651e-01 -1.835175e-01 5.725340e-01 9.004860e-01 6.507294e-01 -6.493075e-01 -3.507721e-01 -2.442830e-01 -4.857084e-01 -4.372796e-01 3.730769e-03 2.444244e-04 6.920848e-03 1.160051e-02 2.484324e-02 3.430111e-02 4.299072e-02 2.874962e-02 3.190400e-02 2.624993e-02 -3.568048e-03 -9.992561e-03 -5.029370e-02
<VARIANCE> 25
 1.734713e+01 2.814517e+01 2.065480e+01 3.759344e+01 3.171787e+01 3.148973e+01 3.692053e+01 4.595687e+01 2.942453e+01 4.001097e+01 3.724915e+01 2.284559e+01 7.361953e-01 8.089807e-01 7.009130e-01 1.017402e+00 1.433908e+00 2.009912e+00 1.993741e+00 2.308730e+00 1.926585e+00 1.926648e+00 1.942556e+00 1.759500e+00 1.429772e+00
<GCONST> 9.157982e+01
<TRANSP> 5
 0.000000e+00 1.000000e+00 0.000000e+00 0.000000e+00 0.000000e+00
 0.000000e+00 7.616388e-01 2.383612e-01 0.000000e+00 0.000000e+00
 0.000000e+00 0.000000e+00 7.616386e-01 2.383614e-01 0.000000e+00
 0.000000e+00 0.000000e+00 0.000000e+00 8.904009e-01 1.095991e-01
 0.000000e+00 0.000000e+00 0.000000e+00 0.000000e+00 0.000000e+00
<ENDHMM>
~h "ih"
<BEGINHMM>
<NUMSTATES> 5
<STATE> 2
<MEAN> 25
 -1.127765e+00 3.575722e-01 9.374256e-01 -1.107669e-01 -1.011217e+00 -6.301898e-01 -3.842690e-01 -7.726733e-01 -9.990418e-01 -9.001479e-01 6.127250e-02 -3.537690e-02 -2.202293e-02 -1.096431e-02 2.128503e-02 -3.463100e-02 -5.910798e-02 -2.856653e-02 -4.012275e-02 -2.590832e-02 -2.328279e-02 -3.320288e-02 1.083821e-02 1.424245e-02 6.366538e-02
<VARIANCE> 25
 4.048415e+01 2.112199e+01 3.487075e+01 3.615793e+01 5.885466e+01 3.760601e+01 4.842290e+01 5.730087e+01 3.599409e+01 3.903022e+01 2.499912e+01 2.065288e+01 1.593640e+00 1.063386e+00 1.553954e+00 1.540854e+00 2.397524e+00 2.071381e+00 2.458159e+00 2.794852e+00 2.281328e+00 2.518994e+00 1.911926e+00 1.746868e+00 1.813441e+00
<GCONST> 9.744283e+01
<STATE> 3
<MEAN> 25
 -1.174382e+00 3.117326e-01 9.929942e-01 -2.390232e-01 -1.201222e+00 -7.314402e-01 -5.121673e-01 -8.431474e-01 -1.056642e+00 -1.011961e+00 9.860212e-02 4.074966e-02 -1.354299e-02 -9.584724e-03 2.124134e-02 -2.544606e-02 -4.943807e-02 -2.062629e-02 -2.810942e-02 -1.978680e-02 -1.635512e-02 -2.562112e-02 8.108207e-03 1.789017e-02 4.513276e-02
<VARIANCE> 25
 4.109566e+01 2.103704e+01 3.463701e+01 3.640101e+01 5.911792e+01 3.756640e+01 4.850240e+01 5.764661e+01 3.562041e+01 3.961080e+01 2.454898e+01 2.058042e+01 1.588327e+00 1.047551e+00 1.524627e+00 1.548973e+00 2.367917e+00 2.089640e+00 2.437742e+00 2.822769e+00 2.230311e+00 2.556908e+00 1.902312e+00 1.725753e+00 1.801479e+00
<GCONST> 9.738180e+01
<STATE> 4
<MEAN> 25
 -1.259488e+00 2.288287e-01 8.994316e-01 -4.609002e-01 -1.388227e+00 -8.035730e-01 -5.098667e-01 -8.686729e-01 -1.066818e+00 -1.107887e+00 4.825247e-02 1.257255e-01 9.398572e-03 -6.442288e-03 1.690690e-02 -1.373389e-02 -3.389025e-02 -7.411538e-03 -9.960264e-03 -1.408306e-02 -5.030527e-03 -8.925240e-03 -1.190817e-03 1.592607e-02 1.704243e-02
<VARIANCE> 25
 4.361349e+01 2.177502e+01 3.473387e+01 3.675831e+01 5.847783e+01 3.753031e+01 4.745987e+01 5.767562e+01 3.478214e+01 3.935123e+01 2.405603e+01 2.114656e+01 1.611440e+00 1.017715e+00 1.464119e+00 1.549176e+00 2.260172e+00 2.105569e+00 2.432269e+00 2.816786e+00 2.163404e+00 2.529292e+00 1.872126e+00 1.696620e+00 1.736130e+00
<GCONST> 9.722227e+01
<TRANSP> 5
 0.000000e+00 1.000000e+00 0.000000e+00 0.000000e+00 0.000000e+00
 0.000000e+00 7.604616e-01 2.395385e-01 0.000000e+00 0.000000e+00
 0.000000e+00 0.000000e+00 7.604614e-01 2.395386e-01 0.000000e+00
 0.000000e+00 0.000000e+00 0.000000e+00 8.920999e-01 1.079001e-01
 0.000000e+00 0.000000e+00 0.000000e+00 0.000000e+00 0.000000e+00
<ENDHMM>
~h "iy"
<BEGINHMM>
<NUMSTATES> 5
<STATE> 2
<MEAN> 25
 -3.596149e-01 3.077875e-01 1.100735e+00 1.876250e-01 -1.132532e+00 -5.501445e-01 -6.038827e-01 -1.278461e+00 -6.754692e-01 -3.609028e-01 4.787238e-01 -9.622170e-02 9.884513e-03 -3.529287e-03 3.112098e-03 9.385108e-05 -3.291272e-03 -6.505530e-03 -8.284606e-03 -4.462393e-03 -8.657631e-03 8.304923e-04 4.602405e-03 7.439845e-03 2.066437e-03
<VARIANCE> 25
 3.146975e+01 1.920993e+01 3.637737e+01 3.643382e+01 6.408929e+01 4.284246e+01 4.541560e+01 5.690420e+01 3.158640e+01 3.573116e+01 2.524335e+01 1.979244e+01 1.279926e+00 8.391184e-01 1.352254e+00 1.554005e+00 2.079274e+00 2.144313e+00 2.283015e+00 2.646460e+00 2.288217e+00 2.176610e+00 1.826488e+00 1.517097e+00 1.423378e+00
<GCONST> 9.564381e+01
<STATE> 3
<MEAN> 25
 -3.152288e-01 2.914300e-01 1.103091e+00 1.866619e-01 -1.134686e+00 -5.803236e-01 -6.328126e-01 -1.283397e+00 -7.137851e-01 -3.574409e-01 4.914245e-01 -6.050830e-02 1.343386e-02 -4.456737e-03 1.358969e-03 -1.319968e-03 -1.736927e-03 -8.884156e-03 -8.923777e-03 -2.174634e-03 -1.067456e-02 -9.341675e-04 1.074886e-03 9.369968e-03 5.136686e-03
<VARIANCE> 25
 3.079804e+01 1.927525e+01 3.604759e+01 3.641456e+01 6.404110e+01 4.265611e+01 4.540237e+01 5.707912e+01 3.196412e+01 3.620885e+01 2.520330e+01 1.964207e+01 1.265913e+00 8.405436e-01 1.345598e+00 1.552519e+00 2.085613e+00 2.149359e+00 2.283320e+00 2.655504e+00 2.291558e+00 2.185448e+00 1.827800e+00 1.514298e+00 1.413314e+00
<GCONST> 9.562064e+01
<STATE> 4
<MEAN> 25
 -2.147369e-01 2.106718e-01 9.611726e-01 1.555704e-01 -1.002431e+00 -6.307241e-01 -6.159232e-01 -1.120729e+00 -7.073641e-01 -3.163267e-01 4.653836e-01 3.650404e-02 1.105936e-02 -4.352218e-03 -2.818518e-03 -4.924226e-03 2.412727e-03 -9.941871e-03 -6.166228e-03 2.974711e-03 -9.610294e-03 -2.514973e-03 -3.272091e-03 1.003785e-02 1.055790e-02
<VARIANCE> 25
 2.966549e+01 1.972780e+01 3.488256e+01 3.668386e+01 6.279602e+01 4.253816e+01 4.491568e+01 5.641934e+01 3.208921e+01 3.576585e+01 2.490052e+01 1.888698e+01 1.252494e+00 8.476806e-01 1.319654e+00 1.549903e+00 2.066309e+00 2.156724e+00 2.256005e+00 2.633158e+00 2.272420e+00 2.158873e+00 1.798977e+00 1.480634e+00 1.393544e+00
<GCONST> 9.535359e+01
<TRANSP> 5
 0.000000e+00 1.000000e+00 0.000000e+00 0.000000e+00 0.000000e+00
 0.000000e+00 7.753905e-01 2.246095e-01 0.000000e+00 0.000000e+00
 0.000000e+00 0.000000e+00 7.753910e-01 2.246090e-01 0.000000e+00
 0.000000e+00 0.000000e+00 0.000000e+00 9.052035e-01 9.479661e-02
 0.000000e+00 0.000000e+00 0.000000e+00 0.000000e+00 0.000000e+00
<ENDHMM>
~h "jh"
<BEGINHMM>
<NUMSTATES> 5
<STATE> 2
<MEAN> 25
 -6.279533e-02 -2.970159e-01 1.028177e+00 -1.048655e+00 -2.467629e+00 -8.687494e-01 -9.852844e-01 -2.464200e+00 -2.086449e+00 -1.935418e+00 -1.142567e+00 -4.942312e-01 -2.390404e-02 8.157626e-03 8.967538e-03 -5.886035e-02 -7.445400e-02 -1.054801e-01 -1.722540e-01 -1.355893e-01 -6.579115e-02 -7.624216e-02 -5.230319e-02 6.553701e-02 1.680124e-01
<VARIANCE> 25
 2.319174e+01 1.990324e+01 2.981324e+01 3.786477e+01 6.440622e+01 3.404733e+01 4.691430e+01 5.940444e+01 3.979764e+01 4.305539e+01 2.193812e+01 2.018090e+01 1.650571e+00 1.130679e+00 1.550438e+00 1.255088e+00 3.101620e+00 1.987970e+00 1.957873e+00 2.922111e+00 2.256135e+00 2.465155e+00 1.750090e+00 1.555248e+00 1.953151e+00
<GCONST> 9.651501e+01
<STATE> 3
<MEAN> 25
 -1.767387e-01 -2.547742e-01 1.023849e+00 -1.193194e+00 -2.642829e+00 -1.257074e+00 -1.510074e+00 -2.899957e+00 -2.268500e+00 -2.161846e+00 -1.295551e+00 -2.679315e-01 -4.048152e-02 1.642098e-02 -1.107296e-03 -3.364450e-02 -4.096574e-02 -9.642347e-02 -1.231445e-01 -9.414039e-02 -3.126229e-02 -5.441643e-02 -4.026530e-02 6.196591e-02 1.251480e-01
<VARIANCE> 25
 2.583398e+01 2.126479e+01 3.021926e+01 3.780146e+01 6.105180e+01 3.316938e+01 4.686498e+01 5.765022e+01 3.825991e+01 4.137691e+01 2.211892e+01 1.722223e+01 1.764801e+00 1.218220e+00 1.670801e+00 1.283584e+00 2.944358e+00 1.978851e+00 2.005342e+00 2.916952e+00 2.214414e+00 2.476776e+00 1.785873e+00 1.503973e+00 1.951820e+00
<GCONST> 9.653716e+01
<STATE> 4
<MEAN> 25
 -1.081806e-01 1.521068e-02 1.016525e+00 -9.122201e-01 -2.286586e+00 -1.432431e+00 -1.591710e+00 -2.887948e+00 -1.983050e+00 -2.130402e+00 -1.385827e+00 -8.330092e-03 -4.327579e-02 3.023367e-02 6.844302e-03 2.151281e-02 7.130734e-03 -4.739727e-02 -3.711065e-02 -2.270991e-02 1.158170e-02 -1.631639e-02 -1.411446e-02 3.717663e-02 2.531384e-02
<VARIANCE> 25
 2.904805e+01 2.252133e+01 2.989450e+01 4.005531e+01 5.838512e+01 3.206282e+01 4.639595e+01 5.324125e+01 3.608364e+01 4.026289e+01 2.309635e+01 1.381917e+01 1.744781e+00 1.205397e+00 1.724035e+00 1.280078e+00 2.500518e+00 1.933414e+00 1.978739e+00 2.734373e+00 2.120181e+00 2.429545e+00 1.802269e+00 1.410238e+00 1.815694e+00
<GCONST> 9.587971e+01
<TRANSP> 5
 0.000000e+00 1.000000e+00 0.000000e+00 0.000000e+00 0.000000e+00
 0.000000e+00 7.379971e-01 2.620029e-01 0.000000e+00 0.000000e+00
 0.000000e+00 0.000000e+00 7.379971e-01 2.620029e-01 0.000000e+00
 0.000000e+00 0.000000e+00 0.000000e+00 8.645976e-01 1.354024e-01
 0.000000e+00 0.000000e+00 0.000000e+00 0.000000e+00 0.000000e+00
<ENDHMM>
~h "ng"
<BEGINHMM>
<NUMSTATES> 5
<STATE> 2
<MEAN> 25
 1.468287e+00 -9.506258e-01 7.527679e-01 -7.322279e-01 -4.629968e-01 5.344528e-01 -2.221332e+00 -2.389869e+00 -6.676157e-01 -4.204641e-01 -1.703512e+00 -1.447242e+00 7.218433e-02 7.411503e-02 4.743593e-02 6.968386e-02 -5.754184e-03 1.456960e-02 4.149403e-02 1.119563e-02 -1.240212e-02 4.448490e-02 1.812209e-02 4.333605e-02 -1.317571e-01
<VARIANCE> 25
 2.557024e+01 3.102893e+01 4.033279e+01 2.943083e+01 4.590877e+01 2.862989e+01 4.670598e+01 4.796455e+01 2.969871e+01 3.381640e+01 2.600189e+01 2.325941e+01 1.152136e+00 1.119965e+00 1.798345e+00 1.437415e+00 2.404810e+00 2.667391e+00 2.695202e+00 3.124442e+00 2.454918e+00 2.721456e+00 1.795799e+00 1.588651e+00 1.922261e+00
<GCONST> 9.670988e+01
<STATE> 3
<MEAN> 25
 1.776467e+00 -6.216247e-01 9.516508e-01 -4.177833e-01 -4.760661e-01 5.928479e-01 -2.007711e+00 -2.304551e+00 -7.280006e-01 -2.265982e-01 -1.603001e+00 -1.235205e+00 4.546667e-02 7.975642e-02 2.066246e-02 9.439081e-02 3.589259e-02 7.744130e-03 9.074686e-02 6.088630e-02 -1.210946e-02 6.181299e-02 4.265816e-02 6.613136e-02 -1.782745e-01
<VARIANCE> 25
 2.645212e+01 2.998703e+01 3.832694e+01 2.984537e+01 4.481967e+01 2.757798e+01 4.670214e+01 4.863724e+01 2.878592e+01 3.251536e+01 2.449598e+01 2.228233e+01 1.201247e+00 1.120623e+00 1.673846e+00 1.448673e+00 2.302912e+00 2.526022e+00 2.653023e+00 2.985280e+00 2.333693e+00 2.534590e+00 1.722772e+00 1.556607e+00 1.906090e+00
<GCONST> 9.607916e+01
<STATE> 4
<MEAN> 25
 1.951947e+00 -2.734979e-01 1.055106e+00 -6.058684e-02 -3.515476e-01 6.087981e-01 -1.564345e+00 -2.005397e+00 -7.917579e-01 2.554298e-02 -1.372252e+00 -8.954245e-01 -5.355690e-03 7.200659e-02 -1.870487e-02 1.094220e-01 8.900008e-02 -1.194041e-03 1.287812e-01 1.334667e-01 2.162575e-03 7.494833e-02 7.289815e-02 9.739678e-02 -2.100611e-01
<VARIANCE> 25
 2.752128e+01 2.899194e+01 3.588449e+01 3.151209e+01 4.400511e+01 2.734944e+01 4.637598e+01 5.050750e+01 2.753598e+01 3.184749e+01 2.316904e+01 2.182218e+01 1.276200e+00 1.139473e+00 1.547701e+00 1.472410e+00 2.196684e+00 2.389022e+00 2.613706e+00 2.913955e+00 2.224264e+00 2.432344e+00 1.657933e+00 1.549858e+00 1.885494e+00
<GCONST> 9.566613e+01
<TRANSP> 5
 0.000000e+00 1.000000e+00 0.000000e+00 0.000000e+00 0.000000e+00
 0.000000e+00 7.663140e-01 2.336860e-01 0.000000e+00 0.000000e+00
 0.000000e+00 0.000000e+00 7.663139e-01 2.336861e-01 0.000000e+00
 0.000000e+00 0.000000e+00 0.000000e+00 8.935943e-01 1.064056e-01
 0.000000e+00 0.000000e+00 0.000000e+00 0.000000e+00 0.000000e+00
<ENDHMM>
~h "ow"
<BEGINHMM>
<NUMSTATES> 5
<STATE> 2
<MEAN> 25
 1.719820e+00 8.475136e-02 -7.294355e-01 -7.652820e-01 1.685359e-01 3.740855e-01 2.594962e-01 -2.415407e-01 -1.261693e-01 3.062478e-01 6.392528e-01 6.445920e-01 4.360008e-04 2.806102e-02 4.306608e-03 3.088933e-02 4.082048e-02 4.377423e-02 1.116691e-02 -9.433297e-03 1.036304e-02 2.401631e-02 6.845765e-03 -5.727229e-03 -6.579471e-02
<VARIANCE> 25
 2.438348e+01 2.190466e+01 1.707484e+01 4.579728e+01 4.211723e+01 3.422678e+01 3.658682e+01 3.670618e+01 2.582318e+01 2.910607e+01 2.500650e+01 1.692952e+01 9.001525e-01 8.628495e-01 8.447353e-01 1.398091e+00 1.530242e+00 1.983700e+00 1.993294e+00 1.998360e+00 1.990251e+00 1.992902e+00 1.682331e+00 1.335550e+00 1.452458e+00
<GCONST> 9.100269e+01
<STATE> 3
<MEAN> 25
 1.687950e+00 2.051414e-01 -7.276776e-01 -6.203885e-01 3.445693e-01 5.446394e-01 3.069800e-01 -2.684393e-01 -8.117567e-02 4.187738e-01 6.757102e-01 6.185229e-01 -1.480892e-02 3.371444e-02 9.932970e-04 4.228007e-02 4.738170e-02 4.349907e-02 1.724372e-02 1.521145e-03 9.878988e-03 2.679078e-02 8.243411e-03 -6.486162e-03 -7.900194e-02
<VARIANCE> 25
 2.534915e+01 2.182551e+01 1.687527e+01 4.533768e+01 4.224964e+01 3.422666e+01 3.606963e+01 3.689852e+01 2.575084e+01 2.891842e+01 2.479658e+01 1.732220e+01 9.072972e-01 8.598109e-01 8.346738e-01 1.383264e+00 1.524069e+00 1.994373e+00 1.985489e+00 1.992457e+00 1.982222e+00 1.981439e+00 1.695546e+00 1.347557e+00 1.459098e+00
<GCONST> 9.100312e+01
<STATE> 4
<MEAN> 25
 1.404536e+00 4.017143e-01 -6.953141e-01 -3.464055e-01 5.358352e-01 6.358356e-01 3.591634e-01 -2.553731e-01 -7.753790e-02 5.100458e-01 7.516868e-01 5.498384e-01 -3.082247e-02 2.540303e-02 -4.785289e-03 3.099116e-02 2.922567e-02 2.382739e-02 1.609418e-02 1.227026e-02 4.792530e-03 1.846180e-02 8.962606e-03 -9.124272e-03 -5.504312e-02
<VARIANCE> 25
 2.746303e+01 2.152446e+01 1.737656e+01 4.445306e+01 4.324067e+01 3.414319e+01 3.468078e+01 3.809933e+01 2.674192e+01 2.976990e+01 2.396006e+01 1.837381e+01 9.353754e-01 8.557084e-01 8.296482e-01 1.380077e+00 1.552293e+00 2.023092e+00 1.934796e+00 2.005504e+00 2.013736e+00 1.997543e+00 1.682841e+00 1.383455e+00 1.480613e+00
<GCONST> 9.127174e+01
<TRANSP> 5
 0.000000e+00 1.000000e+00 0.000000e+00 0.000000e+00 0.000000e+00
 0.000000e+00 7.770622e-01 2.229379e-01 0.000000e+00 0.000000e+00
 0.000000e+00 0.000000e+00 7.770622e-01 2.229377e-01 0.000000e+00
 0.000000e+00 0.000000e+00 0.000000e+00 9.079596e-01 9.204032e-02
 0.000000e+00 0.000000e+00 0.000000e+00 0.000000e+00 0.000000e+00
<ENDHMM>
~h "oy"
<BEGINHMM>
<NUMSTATES> 5
<STATE> 2
<MEAN> 25
 -7.521076e-01 3.217681e-01 8.035009e-02 4.982496e-01 1.156787e+00 5.359890e-01 -6.495410e-02 8.862829e-01 5.756670e-01 3.066707e-01 1.279372e+00 5.917262e-01 4.184531e-02 -5.680548e-02 -1.785274e-02 -6.081668e-02 -7.625353e-02 -1.944044e-02 -5.646123e-02 -3.331395e-02 2.426094e-02 -8.710329e-03 7.140710e-03 -1.886531e-02 8.846863e-02
<VARIANCE> 25
 4.464484e+01 2.829013e+01 2.102452e+01 4.288472e+01 5.970314e+01 4.225058e+01 5.478741e+01 4.427470e+01 3.639647e+01 3.043895e+01 1.605736e+01 1.558855e+01 1.488810e+00 1.152310e+00 1.725368e+00 2.008774e+00 1.822782e+00 2.477143e+00 2.894844e+00 2.074399e+00 2.589173e+00 2.300566e+00 1.986997e+00 1.405584e+00 1.349436e+00
<GCONST> 9.624622e+01
<STATE> 3
<MEAN> 25
 -5.529567e-01 5.257070e-02 4.270091e-03 2.062247e-01 7.629806e-01 4.100107e-01 -3.431287e-01 7.098213e-01 6.739482e-01 2.592605e-01 1.297187e+00 5.122187e-01 4.026109e-02 -5.571017e-02 -3.749324e-03 -5.607823e-02 -9.614336e-02 -3.977250e-02 -5.774747e-02 -3.867960e-02 2.208479e-02 -9.652338e-03 -2.672836e-04 -1.676506e-02 1.054851e-01
<VARIANCE> 25
 4.298937e+01 2.845815e+01 2.179496e+01 4.465560e+01 6.205701e+01 4.364095e+01 5.454375e+01 4.364633e+01 3.567232e+01 3.080074e+01 1.594562e+01 1.604893e+01 1.467855e+00 1.131393e+00 1.760992e+00 2.046496e+00 1.871323e+00 2.553313e+00 2.933424e+00 2.043358e+00 2.675034e+00 2.375361e+00 1.970648e+00 1.452620e+00 1.413034e+00
<GCONST> 9.655352e+01
<STATE> 4
<MEAN> 25
 -2.774639e-01 -3.285547e-01 -4.850538e-02 -1.623437e-01 1.033499e-01 1.337757e-01 -7.331185e-01 4.089461e-01 8.016770e-01 2.010418e-01 1.279051e+00 4.358626e-01 3.570959e-02 -4.426288e-02 1.832539e-02 -3.770676e-02 -1.096829e-01 -6.224802e-02 -5.375165e-02 -4.430179e-02 1.052723e-02 -1.100622e-02 -1.286503e-02 -1.062033e-02 1.120540e-01
<VARIANCE> 25
 4.165591e+01 2.848590e+01 2.264032e+01 4.648504e+01 6.485030e+01 4.551359e+01 5.360391e+01 4.251752e+01 3.459706e+01 3.128032e+01 1.598612e+01 1.677006e+01 1.485587e+00 1.096288e+00 1.749971e+00 2.077295e+00 1.908376e+00 2.641413e+00 2.915416e+00 1.987044e+00 2.774286e+00 2.441925e+00 1.956656e+00 1.526646e+00 1.465472e+00
<GCONST> 9.682664e+01
<TRANSP> 5
 0.000000e+00 1.000000e+00 0.000000e+00 0.000000e+00 0.000000e+00
 0.000000e+00 7.791480e-01 2.208520e-01 0.000000e+00 0.000000e+00
 0.000000e+00 0.000000e+00 7.791481e-01 2.208519e-01 0.000000e+00
 0.000000e+00 0.000000e+00 0.000000e+00 9.066615e-01 9.333853e-02
 0.000000e+00 0.000000e+00 0.000000e+00 0.000000e+00 0.000000e+00
<ENDHMM>
~h "sh"
<BEGINHMM>
<NUMSTATES> 5
<STATE> 2
<MEAN> 25
 -1.431971e+00 -1.737710e-01 1.722699e+00 -2.647943e-01 -1.179593e+00 -7.439729e-01 -1.454610e+00 -1.053275e+00 -6.827034e-01 -2.167796e+00 -2.467949e-01 5.272307e-01 -3.619607e-02 -1.397053e-03 -2.797521e-02 2.371165e-02 7.743035e-02 3.417828e-02 6.478713e-02 4.861958e-02 6.845121e-02 2.472915e-02 -1.500007e-02 1.709418e-02 -7.087243e-02
<VARIANCE> 25
 5.337147e+01 1.970712e+01 3.327205e+01 3.260579e+01 5.680840e+01 4.465411e+01 5.533827e+01 4.993559e+01 3.282880e+01 3.918778e+01 3.597200e+01 2.538136e+01 1.564610e+00 8.245341e-01 1.243931e+00 1.571411e+00 1.897635e+00 2.203433e+00 2.820180e+00 2.458322e+00 2.461765e+00 2.246995e+00 2.168224e+00 1.840158e+00 1.501372e+00
<GCONST> 9.742612e+01
<STATE> 3
<MEAN> 25
 -1.560529e+00 -1.738904e-01 1.593179e+00 -1.891576e-01 -8.859245e-01 -5.991956e-01 -1.173524e+00 -8.691961e-01 -4.205379e-01 -2.037618e+00 -2.850071e-01 5.958028e-01 -2.750554e-02 -8.201279e-04 -3.522841e-02 2.421970e-02 7.366180e-02 4.070643e-02 7.723369e-02 5.711837e-02 7.274505e-02 3.647534e-02 -9.199974e-03 1.870198e-02 -8.119145e-02
<VARIANCE> 25
 5.341773e+01 1.998870e+01 3.334079e+01 3.289198e+01 5.663397e+01 4.447088e+01 5.513895e+01 4.976237e+01 3.287274e+01 3.941605e+01 3.620713e+01 2.598213e+01 1.536669e+00 8.093837e-01 1.188719e+00 1.534464e+00 1.820045e+00 2.126160e+00 2.754895e+00 2.360178e+00 2.394810e+00 2.191416e+00 2.127721e+00 1.802250e+00 1.454161e+00
<GCONST> 9.710315e+01
<STATE> 4
<MEAN> 25
 -1.391100e+00 -7.611410e-02 1.024673e+00 -1.592488e-01 -4.745308e-01 -2.874835e-01 -5.731075e-01 -6.985744e-01 -2.021238e-01 -1.523588e+00 -1.180798e-01 7.456694e-01 -1.133721e-02 1.281905e-02 -4.402667e-02 2.873408e-02 6.826134e-02 4.799887e-02 7.573657e-02 5.601151e-02 5.548409e-02 4.889510e-02 3.586947e-03 1.048398e-02 -8.745815e-02
<VARIANCE> 25
 4.857231e+01 2.086554e+01 3.196915e+01 3.458285e+01 5.631453e+01 4.347200e+01 5.331702e+01 5.060771e+01 3.403386e+01 3.876482e+01 3.407912e+01 2.636504e+01 1.386659e+00 7.899449e-01 1.069755e+00 1.416740e+00 1.677988e+00 1.982432e+00 2.481593e+00 2.199433e+00 2.237000e+00 2.050528e+00 2.012588e+00 1.811254e+00 1.319174e+00
<GCONST> 9.606483e+01
<TRANSP> 5
 0.000000e+00 1.000000e+00 0.000000e+00 0.000000e+00 0.000000e+00
 0.000000e+00 7.599187e-01 2.400812e-01 0.000000e+00 0.000000e+00
 0.000000e+00 0.000000e+00 7.599190e-01 2.400811e-01 0.000000e+00
 0.000000e+00 0.000000e+00 0.000000e+00 8.937965e-01 1.062035e-01
 0.000000e+00 0.000000e+00 0.000000e+00 0.000000e+00 0.000000e+00
<ENDHMM>
~h "th"
<BEGINHMM>
<NUMSTATES> 5
<STATE> 2
<MEAN> 25
 -1.177218e-01 -3.533149e-01 4.196195e-01 7.521835e-01 3.110659e-01 -3.299914e-01 -8.192348e-02 -4.528543e-02 -2.598039e-01 -5.369483e-02 1.761133e-01 -9.500094e-02 1.531416e-02 2.675441e-02 1.432034e-02 2.396814e-02 4.275591e-02 5.026079e-02 4.291755e-02 5.293819e-03 -4.129096e-03 2.222693e-02 1.155632e-02 -6.591201e-03 -5.985675e-02
<VARIANCE> 25
 3.103792e+01 2.255165e+01 3.677359e+01 3.266880e+01 4.684739e+01 3.917829e+01 3.877201e+01 5.467463e+01 3.260225e+01 2.967295e+01 2.849675e+01 2.244153e+01 2.203117e+00 8.790241e-01 1.299904e+00 1.901042e+00 2.128226e+00 2.153110e+00 2.404386e+00 2.904735e+00 2.692163e+00 2.109251e+00 1.743118e+00 1.769905e+00 1.636483e+00
<GCONST> 9.648587e+01
<STATE> 3
<MEAN> 25
 -4.413582e-02 -2.228074e-01 5.005374e-01 8.722715e-01 5.013030e-01 -1.098541e-01 1.112843e-01 -2.596289e-02 -2.672760e-01 4.100465e-02 2.265320e-01 -1.223348e-01 1.400271e-02 2.344560e-02 1.623526e-02 2.363802e-02 4.094324e-02 5.952356e-02 4.486349e-02 -3.758556e-03 -2.589818e-03 2.060166e-02 9.626125e-03 -8.856183e-03 -5.728015e-02
<VARIANCE> 25
 3.103771e+01 2.365330e+01 3.825687e+01 3.288568e+01 4.668443e+01 3.961874e+01 3.794201e+01 5.387437e+01 3.123418e+01 2.893702e+01 2.847354e+01 2.281576e+01 2.192313e+00 8.825156e-01 1.289006e+00 1.852221e+00 2.133539e+00 2.156106e+00 2.378017e+00 2.890971e+00 2.587146e+00 2.113356e+00 1.716207e+00 1.748145e+00 1.583131e+00
<GCONST> 9.635256e+01
<STATE> 4
<MEAN> 25
 2.079089e-02 1.131605e-02 7.997226e-01 1.096629e+00 6.608132e-01 1.646599e-01 3.655204e-01 -1.132886e-01 -3.440516e-01 1.212009e-01 3.288593e-01 -1.036398e-01 6.265783e-03 1.344566e-02 1.061990e-02 1.399960e-02 2.740268e-02 5.340111e-02 4.117105e-02 -7.054545e-03 4.285760e-03 1.961079e-02 6.993675e-03 -6.484579e-03 -4.606554e-02
<VARIANCE> 25
 3.071240e+01 2.422181e+01 3.957326e+01 3.280312e+01 4.690244e+01 4.006636e+01 3.616903e+01 5.147353e+01 2.986183e+01 2.762375e+01 2.784176e+01 2.229784e+01 2.124922e+00 8.497365e-01 1.285805e+00 1.793670e+00 2.146851e+00 2.136925e+00 2.312385e+00 2.777628e+00 2.460920e+00 2.066585e+00 1.701702e+00 1.681202e+00 1.511953e+00
<GCONST> 9.584248e+01
<TRANSP> 5
 0.000000e+00 1.000000e+00 0.000000e+00 0.000000e+00 0.000000e+00
 0.000000e+00 7.758133e-01 2.241867e-01 0.000000e+00 0.000000e+00
 0.000000e+00 0.000000e+00 7.758132e-01 2.241868e-01 0.000000e+00
 0.000000e+00 0.000000e+00 0.000000e+00 9.062901e-01 9.370991e-02
 0.000000e+00 0.000000e+00 0.000000e+00 0.000000e+00 0.000000e+00
<ENDHMM>
~h "uh"
<BEGINHMM>
<NUMSTATES> 5
<STATE> 2
<MEAN> 25
 4.657652e-01 5.669475e-01 9.876304e-01 -2.024166e-01 -2.908329e-01 -6.672207e-01 -2.462879e-01 4.360653e-01 -3.283881e-01 2.056730e-01 8.237871e-01 3.306181e-01 -9.437757e-02 5.826999e-03 7.378869e-02 3.548204e-02 -3.787948e-02 -2.479796e-03 8.279967e-02 9.229366e-02 7.632627e-02 3.696571e-02 9.193960e-03 -1.421885e-02 -1.993849e-02
<VARIANCE> 25
 2.236604e+01 2.494173e+01 2.465746e+01 2.846015e+01 3.734259e+01 4.830613e+01 4.854182e+01 5.883978e+01 3.229350e+01 3.757192e+01 2.772458e+01 1.964373e+01 9.528867e-01 1.002782e+00 9.702080e-01 1.337078e+00 1.735968e+00 2.706078e+00 2.728341e+00 3.578364e+00 1.878698e+00 2.086337e+00 2.100473e+00 1.853737e+00 1.448212e+00
<GCONST> 9.481686e+01
<STATE> 3
<MEAN> 25
 1.649145e-01 6.424676e-01 1.229949e+00 -1.821926e-02 -4.129212e-01 -6.324715e-01 5.364607e-02 7.019775e-01 -5.791526e-02 3.566084e-01 8.714585e-01 2.430261e-01 -7.890417e-02 7.012992e-03 5.733877e-02 4.610804e-02 -3.736082e-02 4.252035e-04 7.109899e-02 6.227618e-02 7.210623e-02 3.730094e-02 5.717802e-03 -2.652930e-02 -1.418337e-02
<VARIANCE> 25
 2.241810e+01 2.423683e+01 2.438291e+01 2.827053e+01 3.837328e+01 4.533678e+01 4.357458e+01 5.374508e+01 3.085135e+01 3.919933e+01 2.811645e+01 1.995729e+01 9.910629e-01 1.007622e+00 9.251640e-01 1.321678e+00 1.765604e+00 2.548482e+00 2.527923e+00 3.515733e+00 1.864084e+00 2.207135e+00 2.070508e+00 1.893782e+00 1.417908e+00
<GCONST> 9.444675e+01
<STATE> 4
<MEAN> 25
 -1.919644e-01 9.388702e-01 1.265495e+00 3.463238e-01 -3.093238e-01 -3.225317e-01 4.085312e-01 8.614071e-01 3.585015e-01 6.216714e-01 9.193358e-01 8.276715e-02 -4.332493e-02 1.205270e-02 1.627951e-02 3.863420e-02 -2.133618e-02 -2.748241e-03 1.353849e-02 9.789663e-03 5.634455e-02 2.522503e-02 3.199254e-03 -1.469385e-02 -1.731516e-02
<VARIANCE> 25
 2.298224e+01 2.394713e+01 2.462935e+01 2.804091e+01 4.062481e+01 3.914622e+01 3.978882e+01 4.745576e+01 2.898352e+01 4.123944e+01 2.774722e+01 1.981037e+01 1.029129e+00 9.928909e-01 8.982810e-01 1.313529e+00 1.809460e+00 2.155820e+00 2.283367e+00 3.141083e+00 1.839514e+00 2.359142e+00 1.975663e+00 1.896967e+00 1.300055e+00
<GCONST> 9.367545e+01
<TRANSP> 5
 0.000000e+00 1.000000e+00 0.000000e+00 0.000000e+00 0.000000e+00
 0.000000e+00 7.438174e-01 2.561826e-01 0.000000e+00 0.000000e+00
 0.000000e+00 0.000000e+00 7.438172e-01 2.561828e-01 0.000000e+00
 0.000000e+00 0.000000e+00 0.000000e+00 8.688474e-01 1.311526e-01
 0.000000e+00 0.000000e+00 0.000000e+00 0.000000e+00 0.000000e+00
<ENDHMM>
~h "uw"
<BEGINHMM>
<NUMSTATES> 5
<STATE> 2
<MEAN> 25
 2.505458e-01 5.891974e-01 -3.153492e-01 6.353970e-01 8.486878e-01 6.221903e-01 -4.103083e-01 -3.717125e-01 -9.712187e-01 -1.464923e-01 4.862734e-01 -3.113282e-02 -1.398526e-02 -1.565466e-02 -1.200020e-02 -1.742405e-02 9.625738e-03 6.317843e-03 1.961784e-02 1.425032e-02 5.007093e-03 8.483053e-03 -7.536950e-03 -3.591022e-03 2.025458e-02
<VARIANCE> 25
 3.104091e+01 2.273817e+01 2.337255e+01 3.582739e+01 5.612489e+01 3.733542e+01 5.286670e+01 5.880815e+01 3.593970e+01 3.564803e+01 2.700562e+01 2.026768e+01 1.337322e+00 9.765580e-01 1.001042e+00 1.350484e+00 1.904847e+00 1.946470e+00 2.106840e+00 2.513026e+00 2.158872e+00 2.194261e+00 1.934004e+00 1.668836e+00 1.266032e+00
<GCONST> 9.489531e+01
<STATE> 3
<MEAN> 25
 1.882781e-01 5.221004e-01 -3.722114e-01 5.729566e-01 8.879442e-01 6.360515e-01 -3.344350e-01 -3.055154e-01 -9.383005e-01 -1.106777e-01 4.484102e-01 -4.765153e-02 -1.839679e-02 -1.680166e-02 -1.365581e-02 -1.632488e-02 1.060880e-02 3.498084e-03 1.964716e-02 1.912783e-02 1.153297e-02 8.152361e-03 -1.110128e-02 -4.957623e-03 1.789500e-02
<VARIANCE> 25
 3.161166e+01 2.355909e+01 2.327049e+01 3.640567e+01 5.579762e+01 3.774910e+01 5.257706e+01 5.910994e+01 3.581897e+01 3.486058e+01 2.756942e+01 2.053995e+01 1.354243e+00 9.812042e-01 9.907007e-01 1.352596e+00 1.889478e+00 1.954630e+00 2.110719e+00 2.511359e+00 2.155930e+00 2.158774e+00 1.943270e+00 1.680903e+00 1.276481e+00
<GCONST> 9.498203e+01
<STATE> 4
<MEAN> 25
 4.275377e-02 4.923759e-01 -3.372994e-01 6.452511e-01 8.921669e-01 5.780169e-01 -2.574902e-01 -1.980556e-01 -8.332605e-01 -1.205906e-01 3.731084e-01 -1.009163e-01 -1.821210e-02 -1.557415e-02 -9.736245e-03 -1.221111e-02 6.142637e-03 -4.597081e-03 1.559447e-02 1.720857e-02 1.674736e-02 1.070522e-02 -9.596362e-03 -2.048363e-03 1.032735e-02
<VARIANCE> 25
 3.383083e+01 2.342737e+01 2.286529e+01 3.578569e+01 5.484809e+01 3.814972e+01 5.189014e+01 5.906002e+01 3.580167e+01 3.342406e+01 2.747628e+01 2.049469e+01 1.400655e+00 9.397094e-01 9.735329e-01 1.345967e+00 1.833867e+00 1.939937e+00 2.106757e+00 2.497576e+00 2.136959e+00 2.121358e+00 1.923064e+00 1.667506e+00 1.257055e+00
<GCONST> 9.480396e+01
<TRANSP> 5
 0.000000e+00 1.000000e+00 0.000000e+00 0.000000e+00 0.000000e+00
 0.000000e+00 7.710518e-01 2.289482e-01 0.000000e+00 0.000000e+00
 0.000000e+00 0.000000e+00 7.710524e-01 2.289477e-01 0.000000e+00
 0.000000e+00 0.000000e+00 0.000000e+00 9.024627e-01 9.753723e-02
 0.000000e+00 0.000000e+00 0.000000e+00 0.000000e+00 0.000000e+00
<ENDHMM>
~h "zh"
<BEGINHMM>
<NUMSTATES> 5
<STATE> 2
<MEAN> 25
 -7.912990e-01 -8.030250e-02 3.053912e-02 -8.703388e-01 -5.447255e-01 -1.644749e-01 -3.413769e-01 -1.060672e+00 -1.726652e-01 -1.359535e-01 3.806362e-01 1.811387e-01 9.114101e-03 -2.822723e-02 -2.929995e-02 -2.251936e-02 -1.034458e-02 3.346530e-03 -1.496126e-02 -3.844656e-03 1.492545e-02 1.136325e-02 -1.890791e-02 -7.556521e-03 1.589027e-02
<VARIANCE> 25
 3.601431e+01 2.205720e+01 2.946029e+01 2.925091e+01 5.788511e+01 4.646162e+01 3.755596e+01 4.825935e+01 3.359131e+01 3.663119e+01 2.668982e+01 2.108999e+01 1.133141e+00 1.070578e+00 1.026367e+00 1.367860e+00 1.942412e+00 2.060613e+00 2.002818e+00 2.303011e+00 2.257648e+00 1.952733e+00 2.153810e+00 1.904091e+00 1.159578e+00
<GCONST> 9.472221e+01
<STATE> 3
<MEAN> 25
 -7.435338e-01 -1.827572e-01 -8.923954e-02 -9.616765e-01 -5.705156e-01 -1.239588e-01 -4.012142e-01 -1.067646e+00 -1.302811e-01 -8.760759e-02 3.296829e-01 1.434517e-01 1.975271e-02 -2.500177e-02 -3.456611e-02 -1.279070e-02 2.532490e-03 9.778006e-03 -1.123121e-02 1.141616e-02 1.663493e-02 2.096102e-02 -9.432978e-03 -7.516619e-03 -9.156595e-03
<VARIANCE> 25
 3.661468e+01 2.246421e+01 3.021152e+01 2.899062e+01 5.689518e+01 4.625922e+01 3.756398e+01 4.751845e+01 3.372809e+01 3.763529e+01 2.733384e+01 2.103593e+01 1.118731e+00 1.072892e+00 1.010919e+00 1.364961e+00 1.915567e+00 2.028032e+00 1.964191e+00 2.273502e+00 2.204306e+00 1.995866e+00 2.158156e+00 1.892960e+00 1.166123e+00
<GCONST> 9.469837e+01
<STATE> 4
<MEAN> 25
 -5.897810e-01 -2.042570e-01 -2.766533e-01 -9.201286e-01 -2.822195e-01 1.125924e-01 -3.087456e-01 -9.201919e-01 -9.092654e-02 8.009046e-02 3.881288e-01 4.464716e-02 1.577935e-02 -1.227241e-02 -2.328281e-02 -3.265474e-03 1.113100e-02 1.590521e-02 -2.802148e-03 2.269636e-02 9.107291e-03 1.412696e-02 -2.777636e-03 -6.946955e-03 -2.235769e-02
<VARIANCE> 25
 3.699784e+01 2.266445e+01 3.138489e+01 3.010848e+01 5.810082e+01 4.711727e+01 3.858912e+01 4.920338e+01 3.367622e+01 3.813758e+01 2.817747e+01 2.032194e+01 1.100827e+00 1.053697e+00 9.971906e-01 1.377271e+00 1.896907e+00 2.003338e+00 1.903655e+00 2.301298e+00 2.113380e+00 2.082463e+00 2.184781e+00 1.833576e+00 1.190343e+00
<GCONST> 9.482351e+01
<TRANSP> 5
 0.000000e+00 1.000000e+00 0.000000e+00 0.000000e+00 0.000000e+00
 0.000000e+00 7.754952e-01 2.245048e-01 0.000000e+00 0.000000e+00
 0.000000e+00 0.000000e+00 7.754951e-01 2.245049e-01 0.000000e+00
 0.000000e+00 0.000000e+00 0.000000e+00 9.061528e-01 9.384721e-02
 0.000000e+00 0.000000e+00 0.000000e+00 0.000000e+00 0.000000e+00
<ENDHMM>
~h "sil"
<BEGINHMM>
<NUMSTATES> 5
<STATE> 2
<MEAN> 25
 9.199881e-01 1.551721e+00 1.986067e-01 2.555372e+00 2.599221e+00 1.969061e+00 2.313831e+00 2.362528e+00 1.335199e+00 1.597351e+00 7.720764e-01 6.357014e-01 -7.584605e-03 5.948917e-02 -6.136773e-02 -5.700648e-03 -2.019853e-02 -3.681970e-02 -6.607976e-02 -2.586777e-02 -1.987251e-01 -6.056680e-02 -8.205897e-02 -1.706992e-01 3.025924e-02
<VARIANCE> 25
