~o
<STREAMINFO> 1 25
<VECSIZE> 25<NULLD><MFCC_D_N_Z_0><DIAGC>
~h "b"
<BEGINHMM>
<NUMSTATES> 5
<STATE> 2
<MEAN> 25
 4.840254e-01 -8.919258e-01 -8.316650e-01 6.608937e-01 2.599497e-01 7.237703e-01 4.925737e-01 -9.199078e-02 -1.428626e-01 5.798535e-01 -9.080285e-01 -7.961390e-01 -9.228349e-03 -3.710070e-02 -5.908656e-03 -7.712007e-02 -5.695438e-02 -1.186933e-02 -2.260329e-02 -1.489869e-02 -1.125148e-02 -2.849858e-02 -6.285112e-03 -6.634435e-04 8.200978e-02
<VARIANCE> 25
 4.079785e+01 3.565645e+01 7.267366e+01 4.759748e+01 5.624132e+01 5.719189e+01 4.359020e+01 4.410239e+01 3.471421e+01 3.882099e+01 5.590252e+01 2.893898e+01 1.645036e+00 1.922287e+00 2.271341e+00 2.461756e+00 2.599050e+00 3.504380e+00 2.549634e+00 2.505861e+00 2.314576e+00 2.428723e+00 2.832813e+00 2.100922e+00 2.880720e+00
<GCONST> 1.031151e+02
<STATE> 3
<MEAN> 25
 4.401325e-01 -9.628595e-01 -7.886037e-01 3.882087e-01 6.275553e-02 7.037153e-01 4.320137e-01 -1.164658e-01 -1.751622e-01 4.919794e-01 -8.960690e-01 -7.729207e-01 -1.189581e-02 -1.526735e-02 2.045092e-02 -7.396267e-02 -6.089259e-02 -1.561373e-02 -2.082822e-02 -5.822326e-03 -1.233343e-02 -2.690366e-02 1.157783e-02 1.200302e-02 7.369113e-02
<VARIANCE> 25
 4.026489e+01 3.518394e+01 7.409556e+01 4.736398e+01 5.687965e+01 5.729713e+01 4.384083e+01 4.463159e+01 3.510001e+01 4.003136e+01 5.564903e+01 2.849622e+01 1.641424e+00 1.857037e+00 2.283306e+00 2.511925e+00 2.615221e+00 3.554303e+00 2.574048e+00 2.533462e+00 2.338758e+00 2.443182e+00 2.805612e+00 2.052949e+00 2.851896e+00
<GCONST> 1.031587e+02
<STATE> 4
<MEAN> 25
 3.281536e-01 -9.127483e-01 -5.294130e-01 1.634114e-01 -1.726813e-01 5.891266e-01 3.430142e-01 -5.854581e-03 -1.322941e-01 4.357492e-01 -7.344060e-01 -6.175138e-01 -6.451193e-03 6.412778e-03 3.833435e-02 -4.608677e-02 -5.485970e-02 -2.969995e-02 -2.103175e-02 5.726075e-03 -4.934023e-03 -2.101669e-02 3.042929e-02 2.154386e-02 5.478018e-02
<VARIANCE> 25
 4.075077e+01 3.367916e+01 7.601476e+01 4.586089e+01 5.853709e+01 5.733656e+01 4.345728e+01 4.545701e+01 3.540380e+01 4.060955e+01 5.412674e+01 2.727390e+01 1.676237e+00 1.763182e+00 2.257431e+00 2.521430e+00 2.641419e+00 3.593051e+00 2.600579e+00 2.590545e+00 2.361187e+00 2.425962e+00 2.758608e+00 1.974609e+00 2.830612e+00
<GCONST> 1.030647e+02
<TRANSP> 5
 0.000000e+00 1.000000e+00 0.000000e+00 0.000000e+00 0.000000e+00
 0.000000e+00 7.527602e-01 2.472398e-01 0.000000e+00 0.000000e+00
 0.000000e+00 0.000000e+00 7.527597e-01 2.472403e-01 0.000000e+00
 0.000000e+00 0.000000e+00 0.000000e+00 8.807924e-01 1.192077e-01
 0.000000e+00 0.000000e+00 0.000000e+00 0.000000e+00 0.000000e+00
<ENDHMM>
~h "d"
<BEGINHMM>
<NUMSTATES> 5
<STATE> 2
<MEAN> 25
 9.743835e-01 -1.657339e-01 -1.617366e+00 -2.215149e-01 5.730922e-01 5.667394e-01 -4.516804e-01 9.560372e-02 5.193676e-01 5.690135e-01 3.561862e-02 -5.686588e-01 -9.214018e-03 -2.218142e-02 -1.378320e-02 -1.991944e-02 -1.078928e-02 -4.787044e-03 -7.995054e-03 2.673150e-04 9.775159e-03 -3.728995e-03 1.968071e-02 1.057582e-02 3.779592e-02
<VARIANCE> 25
 4.449285e+01 3.649577e+01 6.117220e+01 5.489220e+01 5.495728e+01 5.206437e+01 5.035069e+01 4.579219e+01 3.966225e+01 3.933447e+01 6.286011e+01 2.824153e+01 1.961196e+00 1.700256e+00 2.196762e+00 2.374693e+00 2.719419e+00 3.206697e+00 2.861450e+00 2.872658e+00 2.719090e+00 2.818118e+00 3.276642e+00 2.383117e+00 2.763255e+00
<GCONST> 1.042313e+02
<STATE> 3
<MEAN> 25
 9.444956e-01 -2.116534e-01 -1.615529e+00 -2.622697e-01 5.233920e-01 5.475015e-01 -4.706404e-01 1.042527e-01 5.580451e-01 5.434015e-01 1.136225e-01 -5.019242e-01 -1.295113e-02 -4.927107e-03 8.146517e-03 -5.389160e-03 -8.901460e-03 -5.471636e-03 -7.912077e-04 9.388634e-04 4.289142e-03 -7.855122e-03 1.810976e-02 1.453044e-02 8.144273e-03
<VARIANCE> 25
 4.477000e+01 3.632240e+01 6.007340e+01 5.510278e+01 5.561148e+01 5.250829e+01 5.059808e+01 4.623738e+01 3.986759e+01 3.935327e+01 6.279948e+01 2.831293e+01 1.966204e+00 1.670544e+00 2.183016e+00 2.352022e+00 2.756005e+00 3.210667e+00 2.854507e+00 2.900071e+00 2.743772e+00 2.860871e+00 3.303174e+00 2.418676e+00 2.706124e+00
<GCONST> 1.042773e+02
<STATE> 4
<MEAN> 25
 9.333248e-01 -1.250380e-01 -1.403644e+00 -3.446513e-01 4.132887e-01 5.050598e-01 -5.474070e-01 8.116207e-02 5.604159e-01 4.939924e-01 2.162904e-01 -3.415410e-01 -1.113984e-02 2.159629e-02 3.279104e-02 7.119082e-03 -1.506505e-03 -7.388887e-04 5.363183e-03 1.042443e-03 -2.241830e-03 -4.163045e-03 1.407417e-02 1.734963e-02 -3.173262e-02
<VARIANCE> 25
 4.464403e+01 3.514661e+01 5.747667e+01 5.484481e+01 5.619685e+01 5.276640e+01 5.081870e+01 4.632161e+01 3.960533e+01 3.876003e+01 5.995233e+01 2.787743e+01 1.946956e+00 1.594277e+00 2.134304e+00 2.307053e+00 2.770213e+00 3.184419e+00 2.838602e+00 2.904898e+00 2.747370e+00 2.902428e+00 3.236506e+00 2.395247e+00 2.577015e+00
<GCONST> 1.039619e+02
<TRANSP> 5
 0.000000e+00 1.000000e+00 0.000000e+00 0.000000e+00 0.000000e+00
 0.000000e+00 7.573271e-01 2.426729e-01 0.000000e+00 0.000000e+00
 0.000000e+00 0.000000e+00 7.573261e-01 2.426739e-01 0.000000e+00
 0.000000e+00 0.000000e+00 0.000000e+00 8.858292e-01 1.141709e-01
 0.000000e+00 0.000000e+00 0.000000e+00 0.000000e+00 0.000000e+00
<ENDHMM>
~h "f"
<BEGINHMM>
<NUMSTATES> 5
<STATE> 2
<MEAN> 25
 -2.840755e-01 -6.382875e-01 -1.274324e+00 -2.521062e-01 3.398273e-01 6.761420e-02 1.180108e+00 1.638207e+00 6.113980e-01 6.229539e-01 6.216884e-01 2.560866e-01 3.876210e-02 -1.194192e-02 -3.489325e-03 -7.595561e-02 -5.074350e-02 -2.079733e-02 -9.824118e-03 -1.566297e-02 -1.255704e-02 -4.220704e-02 -5.849638e-03 -1.590811e-03 4.822319e-02
<VARIANCE> 25
 2.967628e+01 2.067315e+01 2.315588e+01 4.653506e+01 4.860210e+01 3.220626e+01 3.490086e+01 4.138286e+01 2.541392e+01 2.770737e+01 2.037322e+01 1.633216e+01 1.560405e+00 9.252056e-01 1.115027e+00 1.778332e+00 2.035899e+00 1.970417e+00 2.223295e+00 2.459700e+00 2.050662e+00 2.053471e+00 1.593402e+00 1.377010e+00 1.416042e+00
<GCONST> 9.305545e+01
<STATE> 3
<MEAN> 25
 -1.293304e-01 -6.401975e-01 -1.260125e+00 -4.846795e-01 2.082485e-01 5.957998e-02 1.141239e+00 1.571189e+00 5.679690e-01 4.972249e-01 6.013336e-01 2.427877e-01 3.400792e-02 9.031658e-04 5.944050e-03 -4.927509e-02 -2.810595e-02 1.875770e-03 -9.596692e-03 -1.845360e-02 -1.105965e-02 -2.775729e-02 -6.217617e-03 -3.604660e-03 2.154496e-02
<VARIANCE> 25
 2.995912e+01 2.090060e+01 2.270591e+01 4.685007e+01 4.797212e+01 3.223920e+01 3.535417e+01 4.177137e+01 2.530961e+01 2.759310e+01 2.062016e+01 1.624857e+01 1.531614e+00 9.227011e-01 1.100561e+00 1.739036e+00 2.030366e+00 1.980179e+00 2.267284e+00 2.481626e+00 2.025278e+00 2.056239e+00 1.602297e+00 1.365812e+00 1.405708e+00
<GCONST> 9.302479e+01
<STATE> 4
<MEAN> 25
 -3.403541e-03 -4.644065e-01 -1.105313e+00 -4.027998e-01 2.877189e-01 2.209341e-01 1.046407e+00 1.421330e+00 5.024341e-01 4.677344e-01 5.739457e-01 2.141122e-01 1.309886e-02 1.779569e-02 1.058597e-02 1.452265e-03 8.209297e-03 1.957263e-02 -1.132877e-02 -1.981458e-02 -7.933170e-03 -4.492766e-03 -3.874162e-03 -9.565311e-04 -1.941235e-02
<VARIANCE> 25
 3.123578e+01 2.105302e+01 2.246778e+01 4.579856e+01 4.709715e+01 3.256534e+01 3.519339e+01 4.256430e+01 2.558436e+01 2.754291e+01 2.107256e+01 1.648082e+01 1.507266e+00 9.076553e-01 1.084254e+00 1.668595e+00 1.993970e+00 2.007054e+00 2.266593e+00 2.514810e+00 1.980480e+00 2.018580e+00 1.625059e+00 1.394229e+00 1.393383e+00
<GCONST> 9.299601e+01
<TRANSP> 5
 0.000000e+00 1.000000e+00 0.000000e+00 0.000000e+00 0.000000e+00
 0.000000e+00 7.815468e-01 2.184531e-01 0.000000e+00 0.000000e+00
 0.000000e+00 0.000000e+00 7.815465e-01 2.184536e-01 0.000000e+00
 0.000000e+00 0.000000e+00 0.000000e+00 9.114865e-01 8.851349e-02
 0.000000e+00 0.000000e+00 0.000000e+00 0.000000e+00 0.000000e+00
<ENDHMM>
~h "g"
<BEGINHMM>
<NUMSTATES> 5
<STATE> 2
<MEAN> 25
 4.982603e-02 2.261879e-01 3.162843e+00 -4.508964e-01 -1.818751e+00 -8.596131e-01 -5.104178e-01 2.172154e-01 -7.385968e-02 -2.297519e+00 1.435042e+00 5.861135e-01 7.397226e-02 -1.416815e-01 -1.513206e-02 1.863724e-01 -1.858951e-01 -4.703707e-02 -1.204867e-01 -3.908174e-02 -6.263395e-02 -6.234494e-02 -3.733538e-02 4.101662e-03 -2.631688e-02
<VARIANCE> 25
 1.866647e+01 2.170529e+01 4.945074e+01 3.654963e+01 7.457885e+01 4.129184e+01 4.356587e+01 4.946866e+01 3.497462e+01 3.950094e+01 4.036430e+01 2.163170e+01 1.357335e+00 1.253303e+00 1.509530e+00 1.599215e+00 3.162597e+00 2.742250e+00 2.447847e+00 3.065835e+00 2.440939e+00 2.115607e+00 2.617745e+00 1.858923e+00 2.109088e+00
<GCONST> 9.872065e+01
<STATE> 3
<MEAN> 25
 7.970202e-02 -2.336964e-01 3.001138e+00 2.853726e-01 -1.894836e+00 -1.102529e+00 -8.644711e-01 1.071182e-01 -2.376186e-01 -2.350340e+00 8.336117e-01 6.387337e-01 -1.103250e-03 -1.022374e-01 -4.598023e-02 1.777815e-01 1.068881e-02 -6.055275e-02 -7.731175e-02 -2.245572e-02 -3.624631e-02 -2.384309e-03 -1.668193e-01 1.435981e-02 -1.305774e-01
<VARIANCE> 25
 1.788944e+01 2.004188e+01 5.190351e+01 3.370628e+01 7.279229e+01 4.383934e+01 4.405514e+01 5.226075e+01 3.516686e+01 4.263928e+01 4.237058e+01 2.333211e+01 1.400177e+00 1.223523e+00 1.623188e+00 1.598103e+00 3.038089e+00 2.908437e+00 2.568495e+00 3.210197e+00 2.533113e+00 2.259063e+00 2.639004e+00 2.001498e+00 2.250645e+00
<GCONST> 9.931499e+01
<STATE> 4
<MEAN> 25
 -1.179002e-01 -4.617721e-01 2.198956e+00 1.297046e+00 -7.771524e-01 -8.835316e-01 -7.582971e-01 1.437503e-02 -2.694008e-01 -1.661153e+00 -7.465007e-01 3.787639e-01 -2.414639e-02 -2.569569e-02 -1.009454e-01 1.149391e-01 1.304360e-01 2.576482e-02 6.240224e-03 -1.598859e-02 8.353774e-04 8.694015e-02 -2.020403e-01 -4.138996e-02 -2.108312e-01
<VARIANCE> 25
 1.784351e+01 1.961520e+01 5.752594e+01 3.483084e+01 6.732643e+01 4.994893e+01 4.556517e+01 5.371817e+01 3.539550e+01 4.533867e+01 4.072661e+01 2.585155e+01 1.442846e+00 1.277851e+00 1.868639e+00 1.679522e+00 2.825650e+00 3.044189e+00 2.726612e+00 3.373400e+00 2.556665e+00 2.376989e+00 2.463323e+00 2.110664e+00 2.366551e+00
<GCONST> 1.001120e+02
<TRANSP> 5
 0.000000e+00 1.000000e+00 0.000000e+00 0.000000e+00 0.000000e+00
 0.000000e+00 7.578257e-01 2.421743e-01 0.000000e+00 0.000000e+00
 0.000000e+00 0.000000e+00 7.578257e-01 2.421743e-01 0.000000e+00
 0.000000e+00 0.000000e+00 0.000000e+00 8.832783e-01 1.167218e-01
 0.000000e+00 0.000000e+00 0.000000e+00 0.000000e+00 0.000000e+00
<ENDHMM>
~h "k"
<BEGINHMM>
<NUMSTATES> 5
<STATE> 2
<MEAN> 25
 -7.194980e-01 3.145702e-01 -1.022346e-01 -2.007679e-01 -9.740833e-02 -4.521416e-01 1.763636e-01 -6.565227e-02 -6.293312e-01 -6.780382e-02 2.771496e-01 1.785146e-01 2.085598e-02 -1.695215e-02 -8.149039e-03 -1.230905e-02 -2.708225e-02 -2.146878e-02 -2.732557e-02 -3.604725e-02 -6.899163e-03 -9.058351e-03 -2.312465e-02 -1.412418e-02 4.613236e-02
<VARIANCE> 25
 4.986013e+01 3.425686e+01 5.491915e+01 5.493293e+01 6.947417e+01 5.301645e+01 4.577676e+01 4.724654e+01 4.140195e+01 4.260897e+01 4.046006e+01 2.853517e+01 2.510504e+00 1.827039e+00 2.347023e+00 2.649545e+00 3.151444e+00 3.361713e+00 2.903175e+00 3.167214e+00 2.912353e+00 2.823973e+00 2.932787e+00 2.333597e+00 2.851263e+00
<GCONST> 1.048275e+02
<STATE> 3
<MEAN> 25
 -6.353962e-01 2.467282e-01 -1.383253e-01 -2.660646e-01 -1.518710e-01 -4.822783e-01 9.251072e-02 -1.869165e-01 -6.236733e-01 -5.558983e-02 2.171891e-01 1.317798e-01 1.997994e-02 -2.072674e-02 -9.451346e-03 -2.225520e-02 -1.602472e-02 -8.670228e-03 -2.477491e-02 -2.883809e-02 5.491251e-03 2.233537e-03 -1.347672e-02 -1.038835e-02 4.045587e-02
<VARIANCE> 25
 4.940553e+01 3.463932e+01 5.432358e+01 5.573413e+01 6.893491e+01 5.391400e+01 4.578775e+01 4.799186e+01 4.199965e+01 4.227872e+01 4.044242e+01 2.877931e+01 2.502850e+00 1.832887e+00 2.346125e+00 2.686756e+00 3.093929e+00 3.354254e+00 2.852022e+00 3.191077e+00 2.907983e+00 2.798895e+00 2.927626e+00 2.348050e+00 2.840159e+00
<GCONST> 1.048454e+02
<STATE> 4
<MEAN> 25
 -6.008421e-01 1.721529e-01 -1.892700e-01 -4.053104e-01 -2.315820e-01 -4.538882e-01 3.576770e-02 -2.874502e-01 -5.287601e-01 -2.017877e-02 1.765033e-01 1.158627e-01 1.104507e-02 -1.937609e-02 -1.128156e-02 -2.197229e-02 -1.143302e-02 -5.122720e-03 -1.388130e-02 -4.561707e-03 1.570118e-02 1.070128e-02 7.085466e-03 -4.728014e-04 3.161428e-02
<VARIANCE> 25
 4.919101e+01 3.439420e+01 5.345745e+01 5.580831e+01 6.849920e+01 5.379503e+01 4.555446e+01 4.881988e+01 4.189665e+01 4.036044e+01 3.950488e+01 2.847658e+01 2.435342e+00 1.780319e+00 2.308257e+00 2.662149e+00 3.005580e+00 3.271298e+00 2.769816e+00 3.152987e+00 2.852958e+00 2.704063e+00 2.829914e+00 2.256445e+00 2.739371e+00
<GCONST> 1.043991e+02
<TRANSP> 5
 0.000000e+00 1.000000e+00 0.000000e+00 0.000000e+00 0.000000e+00
 0.000000e+00 7.519894e-01 2.480106e-01 0.000000e+00 0.000000e+00
 0.000000e+00 0.000000e+00 7.519895e-01 2.480105e-01 0.000000e+00
 0.000000e+00 0.000000e+00 0.000000e+00 8.803750e-01 1.196250e-01
 0.000000e+00 0.000000e+00 0.000000e+00 0.000000e+00 0.000000e+00
<ENDHMM>
~h "l"
<BEGINHMM>
<NUMSTATES> 5
<STATE> 2
<MEAN> 25
 7.269148e-01 5.710988e-02 -6.677940e-01 -1.257611e+00 -1.459330e-01 -1.042426e-02 2.538590e-02 -1.672017e-01 4.291723e-01 3.451235e-01 4.378295e-01 2.914774e-01 9.888730e-03 2.833631e-02 2.190525e-02 3.271907e-02 9.992241e-03 2.578801e-03 -1.088562e-02 -8.503312e-04 9.151350e-03 5.441436e-03 8.045752e-03 7.193977e-03 -4.435589e-02
<VARIANCE> 25
 3.316652e+01 2.870524e+01 2.954996e+01 5.437456e+01 5.485926e+01 4.419981e+01 5.258644e+01 4.550479e+01 3.383475e+01 3.511414e+01 3.197183e+01 2.205341e+01 1.387776e+00 1.119918e+00 1.170011e+00 1.831228e+00 1.811719e+00 2.457830e+00 2.618374e+00 2.529232e+00 2.362218e+00 2.447391e+00 2.262761e+00 1.635399e+00 1.556938e+00
<GCONST> 9.749252e+01
<STATE> 3
<MEAN> 25
 7.658701e-01 1.657871e-01 -5.849892e-01 -1.120852e+00 -8.363326e-02 1.177298e-02 -1.711089e-02 -1.757683e-01 4.602051e-01 3.655891e-01 4.599759e-01 3.160036e-01 3.119761e-03 2.795653e-02 2.398658e-02 4.127380e-02 1.941391e-02 6.566227e-03 -5.542332e-03 -2.481859e-03 3.289839e-03 2.274346e-03 4.113592e-03 7.453348e-03 -5.245607e-02
<VARIANCE> 25
 3.336678e+01 2.811567e+01 2.927523e+01 5.374892e+01 5.441159e+01 4.339077e+01 5.271196e+01 4.501027e+01 3.367967e+01 3.443617e+01 3.150541e+01 2.171948e+01 1.378131e+00 1.115278e+00 1.175553e+00 1.815549e+00 1.819064e+00 2.437852e+00 2.609343e+00 2.509144e+00 2.355727e+00 2.423799e+00 2.239318e+00 1.624362e+00 1.548821e+00
<GCONST> 9.730222e+01
<STATE> 4
<MEAN> 25
 7.558054e-01 2.817407e-01 -4.533997e-01 -7.854267e-01 1.380814e-01 9.475332e-02 -1.184033e-02 -1.835858e-01 5.004971e-01 4.119134e-01 4.071543e-01 3.049917e-01 -8.682425e-03 2.073519e-02 2.065883e-02 4.674662e-02 2.777527e-02 7.594241e-03 6.133419e-03 5.714842e-04 -2.429459e-03 3.991350e-04 -2.396054e-03 3.557062e-03 -5.392561e-02
<VARIANCE> 25
 3.306813e+01 2.710063e+01 2.850653e+01 5.337999e+01 5.396843e+01 4.213961e+01 5.275084e+01 4.490434e+01 3.332289e+01 3.351268e+01 3.073134e+01 2.119678e+01 1.322720e+00 1.082804e+00 1.165756e+00 1.772405e+00 1.801437e+00 2.350926e+00 2.576428e+00 2.471333e+00 2.328097e+00 2.373506e+00 2.157472e+00 1.601732e+00 1.484567e+00
<GCONST> 9.679349e+01
<TRANSP> 5
 0.000000e+00 1.000000e+00 0.000000e+00 0.000000e+00 0.000000e+00
 0.000000e+00 7.622249e-01 2.377751e-01 0.000000e+00 0.000000e+00
 0.000000e+00 0.000000e+00 7.622254e-01 2.377747e-01 0.000000e+00
 0.000000e+00 0.000000e+00 0.000000e+00 8.922326e-01 1.077674e-01
 0.000000e+00 0.000000e+00 0.000000e+00 0.000000e+00 0.000000e+00
<ENDHMM>
~h "m"
<BEGINHMM>
<NUMSTATES> 5
<STATE> 2
<MEAN> 25
 2.376410e-02 1.094182e-02 6.456013e-01 -2.245978e-02 -6.668320e-01 -4.260366e-01 -7.714571e-01 -7.317072e-01 -6.206217e-01 -8.921366e-01 -3.932184e-02 2.847754e-02 -3.305752e-02 -2.125482e-02 -2.864970e-02 -6.310412e-02 -4.039283e-02 -4.205591e-02 -2.450527e-03 -2.917582e-02 1.023995e-02 -7.773302e-03 6.882672e-04 1.064314e-02 1.139766e-01
<VARIANCE> 25
 3.338213e+01 2.168871e+01 3.411263e+01 4.112558e+01 6.445215e+01 4.507215e+01 5.510825e+01 5.733997e+01 3.397911e+01 4.301087e+01 3.750313e+01 2.506285e+01 1.264723e+00 9.894601e-01 1.519270e+00 1.874333e+00 2.223703e+00 2.481701e+00 2.682513e+00 3.183276e+00 2.463006e+00 2.318666e+00 2.383834e+00 1.758190e+00 1.596479e+00
<GCONST> 9.871023e+01
<STATE> 3
<MEAN> 25
 -1.356118e-01 -3.133855e-02 5.012485e-01 -2.639380e-01 -7.496679e-01 -4.827428e-01 -7.123375e-01 -8.035169e-01 -5.515481e-01 -8.431833e-01 -2.268873e-02 9.745519e-02 -3.723214e-02 -9.944145e-03 -3.045172e-02 -5.671915e-02 -2.094030e-02 -1.353364e-02 1.745424e-02 -1.852574e-02 1.538477e-02 8.491229e-03 9.468679e-06 1.467209e-02 7.953029e-02
<VARIANCE> 25
 3.356335e+01 2.207113e+01 3.391309e+01 4.149767e+01 6.448714e+01 4.531171e+01 5.514941e+01 5.756418e+01 3.436480e+01 4.286134e+01 3.699477e+01 2.592008e+01 1.290048e+00 9.961522e-01 1.487264e+00 1.869265e+00 2.219579e+00 2.458419e+00 2.638235e+00 3.173998e+00 2.488458e+00 2.301113e+00 2.369796e+00 1.762843e+00 1.577603e+00
<GCONST> 9.873378e+01
<STATE> 4
<MEAN> 25
 -4.170515e-01 9.905088e-02 5.312033e-01 -4.568246e-01 -7.709920e-01 -4.317653e-01 -6.252684e-01 -7.643965e-01 -5.204439e-01 -7.277564e-01 3.119306e-02 2.291921e-01 -2.365986e-02 1.045986e-02 -6.329875e-03 -2.680899e-02 1.258842e-02 2.553228e-02 2.962070e-02 1.510692e-03 5.680223e-03 2.026467e-02 5.030236e-03 1.343407e-02 8.297914e-03
<VARIANCE> 25
 3.367237e+01 2.313221e+01 3.403156e+01 4.139625e+01 6.437080e+01 4.463903e+01 5.431812e+01 5.737655e+01 3.406607e+01 4.121066e+01 3.371076e+01 2.450317e+01 1.316247e+00 9.853138e-01 1.374092e+00 1.753964e+00 2.160705e+00 2.404512e+00 2.540189e+00 3.047454e+00 2.429368e+00 2.253514e+00 2.257215e+00 1.721534e+00 1.440369e+00
<GCONST> 9.808305e+01
<TRANSP> 5
 0.000000e+00 1.000000e+00 0.000000e+00 0.000000e+00 0.000000e+00
 0.000000e+00 7.566597e-01 2.433403e-01 0.000000e+00 0.000000e+00
 0.000000e+00 0.000000e+00 7.566602e-01 2.433398e-01 0.000000e+00
 0.000000e+00 0.000000e+00 0.000000e+00 8.872358e-01 1.127642e-01
 0.000000e+00 0.000000e+00 0.000000e+00 0.000000e+00 0.000000e+00
<ENDHMM>
~h "n"
<BEGINHMM>
<NUMSTATES> 5
<STATE> 2
<MEAN> 25
 1.462316e-01 1.120471e-01 6.584537e-01 7.155539e-01 2.656485e-01 1.469176e-01 -8.787764e-02 -4.634953e-03 2.029907e-01 -2.957399e-01 -5.396912e-01 3.014227e-02 6.806600e-03 1.661799e-02 -7.664280e-03 1.929509e-02 2.942468e-02 1.180829e-02 1.057162e-02 1.476840e-02 1.989569e-02 1.137303e-02 1.168558e-02 4.922234e-03 -3.582518e-02
<VARIANCE> 25
 3.449055e+01 2.374760e+01 3.224647e+01 3.635226e+01 5.552602e+01 3.865296e+01 4.558536e+01 4.748695e+01 3.035566e+01 3.576915e+01 3.569098e+01 2.231118e+01 1.526011e+00 1.049815e+00 1.558521e+00 1.603836e+00 2.149342e+00 2.176079e+00 2.505115e+00 2.764029e+00 2.224595e+00 2.273024e+00 2.321561e+00 1.781273e+00 1.805173e+00
<GCONST> 9.723938e+01
<STATE> 3
<MEAN> 25
 1.751295e-01 1.723401e-01 6.271376e-01 7.773948e-01 3.559462e-01 1.832758e-01 -4.871154e-02 4.746421e-02 2.713749e-01 -2.496050e-01 -4.824820e-01 5.517556e-02 6.520845e-03 1.807692e-02 -1.361346e-02 1.984662e-02 3.227548e-02 1.375720e-02 1.488402e-02 1.394249e-02 1.869405e-02 2.037174e-02 1.576351e-02 4.556986e-03 -4.509519e-02
<VARIANCE> 25
 3.477348e+01 2.377468e+01 3.201248e+01 3.635965e+01 5.560041e+01 3.868474e+01 4.530866e+01 4.730013e+01 3.012679e+01 3.569405e+01 3.535690e+01 2.230912e+01 1.527265e+00 1.049763e+00 1.541126e+00 1.611706e+00 2.142391e+00 2.180267e+00 2.504669e+00 2.766312e+00 2.240166e+00 2.252001e+00 2.282255e+00 1.778525e+00 1.799923e+00
<GCONST> 9.718449e+01
<STATE> 4
<MEAN> 25
 2.310725e-01 2.023228e-01 5.371436e-01 8.303720e-01 4.184532e-01 2.420860e-01 3.352930e-02 8.970612e-02 3.087676e-01 -1.288351e-01 -2.838479e-01 1.213329e-01 4.806033e-03 1.437949e-02 -1.485142e-02 1.317671e-02 2.402900e-02 1.203368e-02 1.382977e-02 6.720535e-03 8.660717e-03 2.146820e-02 1.883897e-02 4.250868e-03 -4.577673e-02
<VARIANCE> 25
 3.390841e+01 2.335043e+01 3.104635e+01 3.643274e+01 5.550682e+01 3.799431e+01 4.404217e+01 4.706512e+01 2.959072e+01 3.443698e+01 3.344035e+01 2.174829e+01 1.470507e+00 1.005568e+00 1.452807e+00 1.584384e+00 2.099284e+00 2.161035e+00 2.442614e+00 2.703394e+00 2.232944e+00 2.192624e+00 2.152660e+00 1.733375e+00 1.739492e+00
<GCONST> 9.654206e+01
<TRANSP> 5
 0.000000e+00 1.000000e+00 0.000000e+00 0.000000e+00 0.000000e+00
 0.000000e+00 7.587161e-01 2.412839e-01 0.000000e+00 0.000000e+00
 0.000000e+00 0.000000e+00 7.587170e-01 2.412830e-01 0.000000e+00
 0.000000e+00 0.000000e+00 0.000000e+00 8.912337e-01 1.087663e-01
 0.000000e+00 0.000000e+00 0.000000e+00 0.000000e+00 0.000000e+00
<ENDHMM>
~h "p"
<BEGINHMM>
<NUMSTATES> 5
<STATE> 2
<MEAN> 25
 4.417737e-01 -6.317052e-01 -4.144930e-01 -3.851949e-01 -8.502055e-01 -4.947588e-01 -2.526440e-01 -6.792886e-01 5.585464e-02 8.451381e-02 -1.344609e-01 -1.524238e-01 1.415666e-02 2.166606e-03 2.459322e-02 3.987401e-04 -6.006998e-03 -2.749000e-02 -4.927043e-03 4.906508e-03 -7.058329e-03 -6.008577e-03 1.255505e-02 1.984243e-02 2.373682e-03
<VARIANCE> 25
 2.354061e+01 2.325032e+01 2.339364e+01 3.719769e+01 5.941777e+01 4.355399e+01 5.116463e+01 5.080695e+01 3.104033e+01 3.151534e+01 2.768510e+01 1.937006e+01 1.141494e+00 1.006216e+00 9.787862e-01 1.458252e+00 1.911628e+00 2.129117e+00 2.486854e+00 2.966425e+00 2.388466e+00 2.224699e+00 1.923767e+00 1.584253e+00 1.693180e+00
<GCONST> 9.512040e+01
<STATE> 3
<MEAN> 25
 4.932484e-01 -6.032017e-01 -3.271119e-01 -3.729514e-01 -8.298588e-01 -5.726749e-01 -2.502733e-01 -6.512911e-01 1.490260e-02 8.457899e-02 -7.099693e-02 -6.999331e-02 1.566551e-02 1.528211e-02 2.569914e-02 1.101580e-02 1.041318e-02 -1.537789e-02 1.289382e-03 6.967954e-03 -1.047869e-02 -1.303443e-03 1.932777e-02 2.284141e-02 -1.876178e-02
<VARIANCE> 25
 2.366482e+01 2.356599e+01 2.356139e+01 3.765060e+01 5.993069e+01 4.346130e+01 4.997155e+01 4.943482e+01 3.097731e+01 3.123193e+01 2.733377e+01 1.915294e+01 1.133566e+00 9.985297e-01 9.745629e-01 1.452841e+00 1.891358e+00 2.112817e+00 2.480308e+00 2.854866e+00 2.375536e+00 2.218563e+00 1.934626e+00 1.572482e+00 1.653825e+00
<GCONST> 9.496326e+01
<STATE> 4
<MEAN> 25
 6.000394e-01 -5.180517e-01 -2.274252e-01 -2.301560e-01 -6.417137e-01 -6.165450e-01 -2.407444e-01 -6.086230e-01 -1.901606e-02 1.454214e-01 -1.374719e-02 1.145684e-02 1.485262e-02 2.735781e-02 1.906697e-02 2.590408e-02 3.249263e-02 -2.571722e-04 2.639744e-03 9.355326e-03 -7.951233e-03 9.246109e-03 2.009494e-02 1.651689e-02 -3.717252e-02
<VARIANCE> 25
 2.405083e+01 2.387078e+01 2.321097e+01 3.868129e+01 5.909779e+01 4.355887e+01 4.807713e+01 4.869664e+01 3.096650e+01 2.992789e+01 2.655137e+01 1.869138e+01 1.115520e+00 9.673730e-01 9.565165e-01 1.441855e+00 1.862919e+00 2.104299e+00 2.433732e+00 2.645454e+00 2.325853e+00 2.182223e+00 1.910678e+00 1.543461e+00 1.579561e+00
<GCONST> 9.453938e+01
<TRANSP> 5
 0.000000e+00 1.000000e+00 0.000000e+00 0.000000e+00 0.000000e+00
 0.000000e+00 7.628999e-01 2.371001e-01 0.000000e+00 0.000000e+00
 0.000000e+00 0.000000e+00 7.628996e-01 2.371004e-01 0.000000e+00
 0.000000e+00 0.000000e+00 0.000000e+00 8.929674e-01 1.070326e-01
 0.000000e+00 0.000000e+00 0.000000e+00 0.000000e+00 0.000000e+00
<ENDHMM>
~h "r"
<BEGINHMM>
<NUMSTATES> 5
<STATE> 2
<MEAN> 25
 1.081478e-01 -2.103186e-01 4.571835e-01 6.043790e-01 1.189223e-01 -3.484237e-01 -1.253365e-01 1.949646e-01 -2.906086e-01 8.160231e-02 5.124355e-01 3.976003e-01 -3.353230e-02 6.074149e-04 1.539765e-02 -2.086151e-02 -1.457580e-02 -1.387837e-02 -8.379889e-03 -8.098974e-03 -1.526439e-02 -1.641192e-03 -1.338249e-02 3.038078e-03 3.851485e-02
<VARIANCE> 25
 3.929549e+01 2.961159e+01 3.881473e+01 4.181463e+01 5.361794e+01 4.297008e+01 4.681977e+01 5.095559e+01 3.512253e+01 3.229298e+01 2.865071e+01 2.136768e+01 1.895553e+00 1.199787e+00 1.552833e+00 2.033115e+00 2.285569e+00 2.452073e+00 2.592150e+00 2.683846e+00 2.359022e+00 2.251153e+00 2.023664e+00 1.778394e+00 1.712011e+00
<GCONST> 9.849122e+01
<STATE> 3
<MEAN> 25
 -2.013173e-02 -2.146554e-01 5.097346e-01 5.364826e-01 5.166650e-02 -4.031337e-01 -1.615736e-01 1.583934e-01 -3.326601e-01 6.895756e-02 4.631712e-01 3.908525e-01 -3.015336e-02 -1.652750e-03 8.467311e-03 -2.013722e-02 -1.669519e-02 -1.384683e-02 -1.102773e-02 -1.337021e-02 -1.050698e-02 -2.163649e-03 -1.426270e-02 -4.142025e-03 4.297114e-02
<VARIANCE> 25
 3.985271e+01 2.930652e+01 3.904244e+01 4.186914e+01 5.408809e+01 4.315879e+01 4.635722e+01 5.113505e+01 3.511225e+01 3.240322e+01 2.836691e+01 2.155777e+01 1.937101e+00 1.186080e+00 1.558826e+00 2.021559e+00 2.330137e+00 2.471739e+00 2.589536e+00 2.680344e+00 2.356379e+00 2.260572e+00 2.020586e+00 1.801872e+00 1.724180e+00
<GCONST> 9.856588e+01
<STATE> 4
<MEAN> 25
 -1.208379e-01 -1.884945e-01 5.123000e-01 4.498438e-01 -7.879123e-02 -3.960354e-01 -2.210123e-01 1.519007e-02 -3.753165e-01 -2.201407e-02 3.478911e-01 2.726897e-01 -1.302859e-02 -4.703684e-03 -2.637414e-03 -2.003053e-02 -1.688145e-02 -4.419541e-03 -1.117970e-02 -1.791424e-02 -5.255487e-03 -2.990702e-03 -9.465813e-03 -1.105175e-02 4.070694e-02
<VARIANCE> 25
 3.895740e+01 2.779813e+01 3.794897e+01 4.041430e+01 5.369179e+01 4.237675e+01 4.450476e+01 5.094337e+01 3.442389e+01 3.239423e+01 2.719745e+01 2.124000e+01 1.886721e+00 1.092767e+00 1.496574e+00 1.904277e+00 2.259575e+00 2.387796e+00 2.438542e+00 2.608874e+00 2.282138e+00 2.195057e+00 1.950522e+00 1.772742e+00 1.642727e+00
<GCONST> 9.775671e+01
<TRANSP> 5
 0.000000e+00 1.000000e+00 0.000000e+00 0.000000e+00 0.000000e+00
 0.000000e+00 7.678854e-01 2.321146e-01 0.000000e+00 0.000000e+00
 0.000000e+00 0.000000e+00 7.678849e-01 2.321151e-01 0.000000e+00
 0.000000e+00 0.000000e+00 0.000000e+00 8.989043e-01 1.010957e-01
 0.000000e+00 0.000000e+00 0.000000e+00 0.000000e+00 0.000000e+00
<ENDHMM>
~h "s"
<BEGINHMM>
<NUMSTATES> 5
<STATE> 2
<MEAN> 25
 -2.302358e+00 1.568535e+00 4.152362e-01 7.727247e-01 1.776347e-01 -4.629721e-01 7.371767e-01 3.789334e-01 -5.660378e-03 1.231048e-01 3.035887e-01 4.087936e-01 1.199261e-02 -6.178508e-03 2.246715e-02 4.127154e-03 6.769133e-04 3.164981e-03 1.066958e-02 5.222788e-03 -8.251102e-03 8.220725e-03 -4.924044e-03 -3.216359e-03 -1.884829e-02
<VARIANCE> 25
 5.328495e+01 2.582681e+01 3.738682e+01 3.552183e+01 6.440093e+01 3.845241e+01 3.950227e+01 4.953972e+01 3.298187e+01 3.325084e+01 2.589379e+01 2.065025e+01 2.124924e+00 1.271145e+00 1.435136e+00 1.618051e+00 2.361588e+00 2.347445e+00 2.291164e+00 2.561378e+00 2.103174e+00 2.155485e+00 1.801505e+00 1.569373e+00 1.622203e+00
<GCONST> 9.739387e+01
<STATE> 3
<MEAN> 25
 -2.256441e+00 1.549600e+00 4.859819e-01 8.030602e-01 1.974560e-01 -4.369622e-01 7.903984e-01 3.913417e-01 -3.193591e-02 1.521615e-01 2.743963e-01 3.815960e-01 1.372149e-02 -8.139363e-03 1.394493e-02 5.551218e-03 6.793718e-03 8.475809e-03 1.198985e-02 3.822417e-03 -3.872561e-03 6.587319e-03 -6.693047e-03 -8.020450e-03 -2.109554e-02
<VARIANCE> 25
 5.180278e+01 2.583888e+01 3.796277e+01 3.528720e+01 6.508619e+01 3.832008e+01 3.900285e+01 4.957321e+01 3.314835e+01 3.373123e+01 2.632566e+01 2.108000e+01 2.120472e+00 1.272450e+00 1.430232e+00 1.624457e+00 2.397280e+00 2.325184e+00 2.274184e+00 2.560831e+00 2.102528e+00 2.158020e+00 1.819834e+00 1.591162e+00 1.648065e+00
<GCONST> 9.746426e+01
<STATE> 4
<MEAN> 25
 -2.183104e+00 1.401621e+00 4.361691e-01 7.734650e-01 1.951527e-01 -4.035337e-01 7.999842e-01 3.598356e-01 -9.636736e-03 1.105584e-01 1.824752e-01 2.841653e-01 6.539945e-03 -1.282855e-02 -4.322776e-03 5.590273e-03 9.757551e-03 6.021052e-03 1.222300e-02 5.971544e-03 6.634964e-03 9.031642e-04 -3.920607e-03 -7.995592e-03 -1.249629e-02
<VARIANCE> 25
 4.936548e+01 2.592360e+01 3.697642e+01 3.550891e+01 6.456010e+01 3.789449e+01 3.811306e+01 4.932859e+01 3.247545e+01 3.375673e+01 2.684636e+01 2.119832e+01 2.016799e+00 1.239232e+00 1.376072e+00 1.617473e+00 2.399030e+00 2.261160e+00 2.235260e+00 2.537051e+00 2.073056e+00 2.152788e+00 1.843436e+00 1.592703e+00 1.649481e+00
<GCONST> 9.718230e+01
<TRANSP> 5
 0.000000e+00 1.000000e+00 0.000000e+00 0.000000e+00 0.000000e+00
 0.000000e+00 7.765605e-01 2.234394e-01 0.000000e+00 0.000000e+00
 0.000000e+00 0.000000e+00 7.765606e-01 2.234394e-01 0.000000e+00
 0.000000e+00 0.000000e+00 0.000000e+00 9.065661e-01 9.343383e-02
 0.000000e+00 0.000000e+00 0.000000e+00 0.000000e+00 0.000000e+00
<ENDHMM>
~h "t"
<BEGINHMM>
<NUMSTATES> 5
<STATE> 2
<MEAN> 25
 -1.547856e-01 1.281886e-01 -6.569908e-01 -2.223948e-01 2.730507e-01 4.657230e-01 -3.285110e-01 -5.701578e-02 1.425884e-01 9.321364e-02 5.491791e-01 -1.369103e-02 1.163705e-02 2.350073e-03 1.759011e-02 1.253849e-02 -1.180054e-04 6.735889e-03 -1.301640e-02 2.037615e-04 6.806346e-03 -3.549309e-03 -1.746122e-02 5.594870e-04 -2.621463e-02
<VARIANCE> 25
 3.909622e+01 2.789206e+01 4.372097e+01 4.587336e+01 5.820575e+01 4.180590e+01 5.236735e+01 5.834665e+01 3.724039e+01 3.300900e+01 3.634206e+01 2.322440e+01 1.880059e+00 1.288563e+00 1.826526e+00 2.060467e+00 2.328078e+00 2.655913e+00 2.770332e+00 3.313580e+00 2.503540e+00 2.461048e+00 2.370363e+00 1.919872e+00 2.149625e+00
<GCONST> 1.005670e+02
<STATE> 3
<MEAN> 25
 -1.099862e-01 1.362298e-01 -5.964189e-01 -1.771192e-01 2.767657e-01 4.894713e-01 -3.609065e-01 -6.193255e-02 1.639586e-01 8.239136e-02 4.726882e-01 -7.651417e-03 9.017846e-03 5.042928e-03 1.402646e-02 1.519508e-02 6.263370e-03 9.521496e-03 -3.300398e-03 3.000065e-03 5.619556e-03 -4.990445e-04 -2.143792e-02 2.877856e-03 -3.782232e-02
<VARIANCE> 25
 3.871336e+01 2.741208e+01 4.384869e+01 4.545877e+01 5.813581e+01 4.177524e+01 5.230630e+01 5.760585e+01 3.695439e+01 3.288496e+01 3.624719e+01 2.312430e+01 1.866075e+00 1.266327e+00 1.830982e+00 2.055338e+00 2.327061e+00 2.627251e+00 2.769861e+00 3.293772e+00 2.483772e+00 2.447552e+00 2.364844e+00 1.900198e+00 2.127054e+00
<GCONST> 1.004203e+02
<STATE> 4
<MEAN> 25
 -9.000017e-02 1.744921e-01 -5.263270e-01 -5.141292e-02 3.901338e-01 5.908500e-01 -2.372570e-01 -2.751627e-02 1.342733e-01 1.185009e-01 3.647571e-01 1.220512e-02 5.098943e-03 3.733248e-03 9.551998e-03 1.447357e-02 7.751679e-03 6.533287e-03 7.119277e-03 8.731239e-03 4.462737e-03 1.542987e-03 -1.968675e-02 4.751744e-03 -3.520136e-02
<VARIANCE> 25
 3.775352e+01 2.652974e+01 4.317679e+01 4.526605e+01 5.716460e+01 4.091737e+01 5.108372e+01 5.585640e+01 3.632363e+01 3.245430e+01 3.508570e+01 2.256003e+01 1.822001e+00 1.204737e+00 1.770992e+00 2.020357e+00 2.281532e+00 2.547606e+00 2.705446e+00 3.203045e+00 2.433659e+00 2.381607e+00 2.292732e+00 1.814323e+00 2.052032e+00
<GCONST> 9.977599e+01
<TRANSP> 5
 0.000000e+00 1.000000e+00 0.000000e+00 0.000000e+00 0.000000e+00
 0.000000e+00 7.625707e-01 2.374293e-01 0.000000e+00 0.000000e+00
 0.000000e+00 0.000000e+00 7.625703e-01 2.374297e-01 0.000000e+00
 0.000000e+00 0.000000e+00 0.000000e+00 8.921152e-01 1.078847e-01
 0.000000e+00 0.000000e+00 0.000000e+00 0.000000e+00 0.000000e+00
<ENDHMM>
~h "v"
<BEGINHMM>
<NUMSTATES> 5
<STATE> 2
<MEAN> 25
 -2.378291e-01 -9.262240e-02 6.107599e-01 7.533985e-02 -9.803548e-01 -6.572275e-01 -2.088165e-01 -4.427294e-01 -4.238249e-01 -5.231125e-01 2.321454e-01 -4.252139e-02 2.113355e-02 -1.813459e-02 4.863546e-03 -2.584371e-03 -1.943310e-02 -1.823382e-02 -1.538459e-02 -9.363773e-03 -2.526437e-02 -1.422422e-02 -1.799636e-02 1.462559e-02 2.626336e-02
<VARIANCE> 25
 2.942987e+01 2.006597e+01 3.172223e+01 4.435844e+01 6.143637e+01 3.852343e+01 3.859830e+01 4.744400e+01 3.396840e+01 3.758194e+01 2.557332e+01 2.061844e+01 1.216504e+00 8.631503e-01 1.239548e+00 1.641873e+00 2.252795e+00 2.297984e+00 2.303528e+00 2.433537e+00 2.329686e+00 2.367131e+00 2.009331e+00 1.593759e+00 1.593001e+00
<GCONST> 9.574331e+01
<STATE> 3
<MEAN> 25
 -1.766451e-01 -1.473102e-01 6.324354e-01 8.393612e-02 -1.020166e+00 -7.118833e-01 -2.553927e-01 -4.538839e-01 -5.134096e-01 -5.832840e-01 1.476514e-01 1.471114e-02 1.412686e-02 -7.965401e-03 -1.859183e-03 9.689862e-03 5.091350e-03 -3.527604e-03 -6.100658e-03 3.760637e-03 -1.635548e-02 -5.715731e-03 -1.937129e-02 1.306808e-02 2.847151e-03
<VARIANCE> 25
 2.887253e+01 2.037731e+01 3.238547e+01 4.557714e+01 6.107711e+01 3.908414e+01 3.872326e+01 4.716336e+01 3.421919e+01 3.720425e+01 2.545281e+01 2.049365e+01 1.201323e+00 8.737682e-01 1.266094e+00 1.651752e+00 2.266356e+00 2.375816e+00 2.299330e+00 2.454880e+00 2.349954e+00 2.348025e+00 1.975797e+00 1.591725e+00 1.596286e+00
<GCONST> 9.583733e+01
<STATE> 4
<MEAN> 25
 -1.452807e-01 -2.315729e-01 4.910010e-01 1.250272e-01 -8.290207e-01 -7.089837e-01 -2.063922e-01 -2.973926e-01 -5.076868e-01 -5.520273e-01 2.015042e-02 5.972231e-02 5.309310e-03 2.978471e-03 -3.650646e-03 1.585361e-02 2.546785e-02 4.436691e-03 -4.229751e-03 1.020706e-02 -6.793772e-03 -2.242997e-03 -1.744068e-02 6.064601e-03 -7.730644e-03
<VARIANCE> 25
 2.943451e+01 2.120451e+01 3.165632e+01 4.656144e+01 5.973907e+01 3.977437e+01 3.922883e+01 4.675189e+01 3.397838e+01 3.590609e+01 2.527896e+01 2.012833e+01 1.206701e+00 8.961240e-01 1.296798e+00 1.635067e+00 2.260542e+00 2.418036e+00 2.302454e+00 2.465174e+00 2.319575e+00 2.331568e+00 1.945302e+00 1.578801e+00 1.558378e+00
<GCONST> 9.582347e+01
<TRANSP> 5
 0.000000e+00 1.000000e+00 0.000000e+00 0.000000e+00 0.000000e+00
 0.000000e+00 7.780680e-01 2.219320e-01 0.000000e+00 0.000000e+00
 0.000000e+00 0.000000e+00 7.780682e-01 2.219318e-01 0.000000e+00
 0.000000e+00 0.000000e+00 0.000000e+00 9.086453e-01 9.135468e-02
 0.000000e+00 0.000000e+00 0.000000e+00 0.000000e+00 0.000000e+00
<ENDHMM>
~h "w"
<BEGINHMM>
<NUMSTATES> 5
<STATE> 2
<MEAN> 25
 1.237431e+00 -8.473304e-01 -5.970882e-01 -1.089351e+00 -2.990702e-01 4.538524e-01 1.318639e-01 -8.644755e-02 9.560520e-01 2.159889e-01 -1.351965e+00 -6.666981e-01 -3.993871e-03 2.621671e-02 6.242276e-03 3.838528e-02 2.784870e-02 1.158463e-02 2.045900e-02 3.135874e-02 1.372762e-03 2.085313e-02 1.672841e-02 1.152458e-02 -6.131222e-02
<VARIANCE> 25
 2.442325e+01 2.361113e+01 2.046807e+01 4.530327e+01 6.209869e+01 3.897074e+01 4.657090e+01 4.994399e+01 3.499622e+01 3.129101e+01 3.838499e+01 2.294475e+01 1.191849e+00 8.641307e-01 1.053055e+00 1.463652e+00 2.120230e+00 2.336863e+00 2.838949e+00 2.767768e+00 2.305090e+00 2.581223e+00 2.172714e+00 1.696154e+00 1.438009e+00
<GCONST> 9.603407e+01
<STATE> 3
<MEAN> 25
 1.216290e+00 -7.105985e-01 -5.533627e-01 -9.004294e-01 -1.738961e-01 5.005502e-01 2.112992e-01 5.367697e-02 9.476579e-01 2.919551e-01 -1.260536e+00 -5.998355e-01 -3.738503e-03 3.516517e-02 1.227702e-02 4.648224e-02 2.983037e-02 1.078498e-02 1.984355e-02 3.242341e-02 -5.130980e-03 1.972480e-02 2.626777e-02 1.775845e-02 -6.946231e-02
<VARIANCE> 25
 2.499935e+01 2.318623e+01 2.038788e+01 4.446556e+01 6.192955e+01 3.816064e+01 4.590108e+01 5.038099e+01 3.581577e+01 3.135103e+01 3.802510e+01 2.242930e+01 1.204525e+00 8.500711e-01 1.054871e+00 1.470347e+00 2.106177e+00 2.321870e+00 2.802847e+00 2.780221e+00 2.325705e+00 2.564356e+00 2.151157e+00 1.701944e+00 1.401677e+00
<GCONST> 9.592930e+01
<STATE> 4
<MEAN> 25
 1.197837e+00 -3.164783e-01 -4.009746e-01 -4.445571e-01 1.639888e-01 6.051269e-01 2.613779e-01 2.830288e-01 8.401576e-01 3.411923e-01 -9.827790e-01 -3.747861e-01 -6.078435e-03 4.012923e-02 1.518209e-02 4.410395e-02 2.500292e-02 8.280699e-03 1.299800e-02 2.402390e-02 -1.539235e-02 1.241505e-02 3.537503e-02 2.098204e-02 -6.234620e-02
<VARIANCE> 25
 2.551835e+01 2.206773e+01 2.008140e+01 4.277992e+01 6.086599e+01 3.593525e+01 4.505195e+01 5.108900e+01 3.670372e+01 3.190687e+01 3.602769e+01 2.079715e+01 1.219340e+00 8.288219e-01 1.055037e+00 1.507324e+00 2.052673e+00 2.234046e+00 2.709642e+00 2.754273e+00 2.337656e+00 2.551240e+00 2.106009e+00 1.703037e+00 1.336410e+00
<GCONST> 9.551321e+01
<TRANSP> 5
 0.000000e+00 1.000000e+00 0.000000e+00 0.000000e+00 0.000000e+00
 0.000000e+00 7.729034e-01 2.270966e-01 0.000000e+00 0.000000e+00
 0.000000e+00 0.000000e+00 7.729038e-01 2.270962e-01 0.000000e+00
 0.000000e+00 0.000000e+00 0.000000e+00 9.030376e-01 9.696238e-02
 0.000000e+00 0.000000e+00 0.000000e+00 0.000000e+00 0.000000e+00
<ENDHMM>
~h "y"
<BEGINHMM>
<NUMSTATES> 5
<STATE> 2
<MEAN> 25
 4.486459e-01 -1.483158e-01 7.082940e-01 1.368416e-01 -1.919650e-01 -4.057910e-01 -7.761040e-01 -8.122507e-01 -2.396719e-01 -4.196434e-01 -1.508660e-01 -9.959862e-02 -7.767539e-03 -8.365034e-03 -7.763343e-03 -1.751591e-02 3.937424e-02 2.698312e-02 1.938443e-03 -8.366968e-03 -1.283810e-03 3.160647e-02 -1.193901e-02 -1.750556e-02 -5.603252e-03
<VARIANCE> 25
 3.235958e+01 3.163672e+01 5.119992e+01 4.667148e+01 6.813969e+01 5.314203e+01 5.718868e+01 5.842271e+01 4.154591e+01 4.448466e+01 4.154043e+01 2.540447e+01 1.346883e+00 1.355213e+00 1.941365e+00 1.961005e+00 2.510074e+00 2.741634e+00 2.722792e+00 3.324307e+00 2.648966e+00 2.762411e+00 2.526996e+00 1.853380e+00 1.672760e+00
<GCONST> 1.015683e+02
<STATE> 3
<MEAN> 25
 3.946254e-01 -1.867606e-01 6.877522e-01 9.741732e-02 -4.748969e-02 -2.947159e-01 -7.276606e-01 -7.921553e-01 -2.241916e-01 -3.083877e-01 -1.825283e-01 -1.691285e-01 -1.458644e-02 -1.451436e-02 -1.029111e-02 -1.326946e-02 3.487899e-02 2.427004e-02 1.361348e-02 6.857421e-03 2.022945e-03 2.933669e-02 -6.496136e-03 -1.925769e-02 -1.913209e-04
<VARIANCE> 25
 3.251106e+01 3.255259e+01 5.094503e+01 4.623817e+01 6.743009e+01 5.297930e+01 5.667854e+01 5.863895e+01 4.116289e+01 4.420421e+01 4.177695e+01 2.549291e+01 1.352440e+00 1.389605e+00 1.952194e+00 1.917490e+00 2.543601e+00 2.785514e+00 2.713966e+00 3.341097e+00 2.642725e+00 2.797287e+00 2.494657e+00 1.848723e+00 1.707558e+00
<GCONST> 1.016206e+02
<STATE> 4
<MEAN> 25
 2.102066e-01 -2.010568e-01 7.244501e-01 1.648968e-01 1.424078e-01 -1.558733e-01 -5.947193e-01 -6.414490e-01 -1.813431e-01 -1.981786e-01 -1.895276e-01 -2.944883e-01 -1.398667e-02 -1.928716e-02 -1.731509e-02 -9.311090e-03 2.725326e-02 1.884188e-02 1.625580e-02 1.951354e-02 1.101625e-02 2.198460e-02 -4.599957e-03 -2.089938e-02 8.469551e-03
<VARIANCE> 25
 3.304506e+01 3.303241e+01 4.942346e+01 4.533702e+01 6.726701e+01 5.155257e+01 5.523998e+01 5.720778e+01 3.981530e+01 4.268607e+01 4.031189e+01 2.519769e+01 1.373968e+00 1.400502e+00 1.916552e+00 1.831517e+00 2.583023e+00 2.766538e+00 2.713591e+00 3.283429e+00 2.626517e+00 2.820221e+00 2.391617e+00 1.818115e+00 1.716742e+00
<GCONST> 1.013046e+02
<TRANSP> 5
 0.000000e+00 1.000000e+00 0.000000e+00 0.000000e+00 0.000000e+00
 0.000000e+00 7.552778e-01 2.447222e-01 0.000000e+00 0.000000e+00
 0.000000e+00 0.000000e+00 7.552773e-01 2.447227e-01 0.000000e+00
 0.000000e+00 0.000000e+00 0.000000e+00 8.845802e-01 1.154198e-01
 0.000000e+00 0.000000e+00 0.000000e+00 0.000000e+00 0.000000e+00
<ENDHMM>
~h "z"
<BEGINHMM>
<NUMSTATES> 5
<STATE> 2
<MEAN> 25
 -8.398367e-01 1.157158e+00 -4.502828e-01 -5.539204e-01 1.219489e+00 5.561298e-01 7.889971e-01 5.081546e-01 1.384030e-01 1.782186e-01 5.020858e-01 5.612727e-01 1.725287e-02 -1.365214e-02 -1.630410e-02 -2.723575e-02 -1.426777e-02 1.513477e-03 -6.651254e-03 -6.649781e-03 1.265116e-02 8.942448e-03 2.317187e-02 1.837159e-03 1.514647e-02
<VARIANCE> 25
 6.365168e+01 3.685091e+01 5.414220e+01 7.087750e+01 5.876050e+01 6.292685e+01 5.111077e+01 5.332917e+01 4.355875e+01 3.352323e+01 3.859543e+01 2.076371e+01 2.402786e+00 1.729686e+00 2.195778e+00 2.738107e+00 2.564132e+00 3.226414e+00 2.495390e+00 3.110128e+00 2.822972e+00 2.474669e+00 2.568244e+00 1.803536e+00 2.126729e+00
<GCONST> 1.036703e+02
<STATE> 3
<MEAN> 25
 -7.687753e-01 1.101266e+00 -5.066090e-01 -6.471952e-01 1.159369e+00 5.524319e-01 7.444103e-01 4.767486e-01 1.819260e-01 2.087791e-01 5.843318e-01 5.640707e-01 2.389137e-02 -1.639269e-02 -3.644433e-03 -2.003264e-02 -1.444117e-02 -4.017252e-03 -1.925170e-02 -1.865548e-02 1.335271e-02 2.589265e-03 1.936868e-02 -3.583430e-04 1.755098e-02
<VARIANCE> 25
 6.419145e+01 3.657991e+01 5.459222e+01 7.129177e+01 5.807239e+01 6.303709e+01 5.158408e+01 5.433201e+01 4.363541e+01 3.319840e+01 3.833981e+01 2.094455e+01 2.390949e+00 1.697147e+00 2.204808e+00 2.755838e+00 2.557593e+00 3.256509e+00 2.513201e+00 3.175135e+00 2.823244e+00 2.468383e+00 2.570657e+00 1.813293e+00 2.103998e+00
<GCONST> 1.037117e+02
<STATE> 4
<MEAN> 25
 -5.947065e-01 9.077222e-01 -4.752676e-01 -6.824504e-01 9.567178e-01 4.100358e-01 4.964232e-01 3.365040e-01 2.076253e-01 2.353418e-01 6.385973e-01 5.258444e-01 2.424386e-02 -1.541555e-02 1.058175e-02 -5.541910e-03 -7.923039e-03 -6.185463e-03 -2.808625e-02 -2.520363e-02 9.933849e-03 -4.841329e-03 6.614872e-03 -4.535561e-03 1.145545e-02
<VARIANCE> 25
 6.273640e+01 3.506921e+01 5.232314e+01 6.661455e+01 5.672260e+01 6.143344e+01 5.113744e+01 5.369397e+01 4.244617e+01 3.276553e+01 3.692779e+01 2.067343e+01 2.279197e+00 1.585456e+00 2.110266e+00 2.606746e+00 2.478822e+00 3.185777e+00 2.455370e+00 3.126518e+00 2.743672e+00 2.421108e+00 2.476935e+00 1.788965e+00 1.993308e+00
<GCONST> 1.029152e+02
<TRANSP> 5
 0.000000e+00 1.000000e+00 0.000000e+00 0.000000e+00 0.000000e+00
 0.000000e+00 7.673646e-01 2.326354e-01 0.000000e+00 0.000000e+00
 0.000000e+00 0.000000e+00 7.673641e-01 2.326359e-01 0.000000e+00
 0.000000e+00 0.000000e+00 0.000000e+00 8.969633e-01 1.030367e-01
 0.000000e+00 0.000000e+00 0.000000e+00 0.000000e+00 0.000000e+00
<ENDHMM>
~h "aa"
<BEGINHMM>
<NUMSTATES> 5
<STATE> 2
<MEAN> 25
 5.599213e-01 -5.422728e-01 -1.016811e+00 -1.283981e+00 4.704523e-01 1.073020e+00 5.776085e-01 1.170149e-01 1.618416e-01 -1.407621e-01 5.166690e-01 -2.158372e-01 1.074977e-03 -2.284487e-02 7.052855e-03 -1.309286e-02 -4.297586e-03 -2.428282e-02 -3.516330e-02 2.467532e-02 -7.788781e-04 -2.187613e-02 2.924705e-02 -3.220195e-02 6.349453e-02
<VARIANCE> 25
 4.125358e+01 3.284369e+01 4.292931e+01 5.076010e+01 5.818076e+01 4.679924e+01 4.974948e+01 6.245002e+01 4.635561e+01 4.661607e+01 5.112484e+01 3.575835e+01 1.775669e+00 1.491160e+00 1.926900e+00 2.196844e+00 2.508431e+00 2.937879e+00 2.519403e+00 3.585181e+00 3.070297e+00 2.787030e+00 3.242929e+00 2.630824e+00 2.099690e+00
<GCONST> 1.036324e+02
<STATE> 3
<MEAN> 25
 5.628333e-01 -6.198632e-01 -9.839911e-01 -1.307384e+00 4.391690e-01 9.551860e-01 4.462506e-01 1.717865e-01 1.144152e-01 -1.970706e-01 6.067476e-01 -3.162102e-01 -6.832603e-04 -1.450618e-02 1.043493e-02 3.994159e-03 -1.461264e-03 -3.253355e-02 -3.392890e-02 1.722004e-02 -1.403173e-02 -1.264507e-02 2.600749e-02 -2.754432e-02 4.229392e-02
<VARIANCE> 25
 4.162184e+01 3.288546e+01 4.243293e+01 5.091886e+01 5.844036e+01 4.757565e+01 5.094606e+01 6.333589e+01 4.640057e+01 4.659812e+01 5.018816e+01 3.492257e+01 1.783459e+00 1.495169e+00 1.911564e+00 2.180207e+00 2.506396e+00 2.904987e+00 2.558559e+00 3.646246e+00 3.104577e+00 2.794398e+00 3.183490e+00 2.586968e+00 2.074305e+00
<GCONST> 1.036292e+02
<STATE> 4
<MEAN> 25
 5.049050e-01 -6.423396e-01 -9.819205e-01 -1.274711e+00 4.472294e-01 8.104697e-01 3.582109e-01 1.351675e-01 -8.857210e-02 -1.453784e-01 5.689474e-01 -4.230950e-01 3.113445e-03 4.854049e-04 1.385059e-02 2.049118e-02 -8.385942e-03 -3.374520e-02 -3.053050e-02 -4.663268e-03 -2.287973e-02 -2.705866e-03 7.332457e-03 -1.363692e-02 1.184806e-02
<VARIANCE> 25
 4.012096e+01 3.347719e+01 3.933980e+01 5.167272e+01 5.833860e+01 4.646804e+01 5.129603e+01 6.143764e+01 4.461747e+01 4.375450e+01 4.464311e+01 3.153166e+01 1.710943e+00 1.439480e+00 1.720708e+00 2.026095e+00 2.384469e+00 2.680969e+00 2.531732e+00 3.497470e+00 2.958273e+00 2.656777e+00 2.859190e+00 2.361360e+00 1.905288e+00
<GCONST> 1.023563e+02
<TRANSP> 5
 0.000000e+00 1.000000e+00 0.000000e+00 0.000000e+00 0.000000e+00
 0.000000e+00 7.442722e-01 2.557278e-01 0.000000e+00 0.000000e+00
 0.000000e+00 0.000000e+00 7.442725e-01 2.557274e-01 0.000000e+00
 0.000000e+00 0.000000e+00 0.000000e+00 8.751770e-01 1.248231e-01
 0.000000e+00 0.000000e+00 0.000000e+00 0.000000e+00 0.000000e+00
<ENDHMM>
~h "ae"
<BEGINHMM>
<NUMSTATES> 5
<STATE> 2
<MEAN> 25
 3.704361e-01 -9.187455e-01 -9.822739e-01 4.935507e-01 1.176163e+00 3.772401e-01 -3.744140e-02 3.022266e-01 4.073454e-01 1.254172e-02 -1.451134e+00 -7.027583e-01 8.070396e-03 -1.834569e-02 -9.553592e-03 -2.036072e-02 -2.750178e-02 -2.535801e-02 -2.937622e-02 -4.103201e-02 2.925483e-02 -6.876416e-03 -3.843080e-02 -2.357250e-02 5.871150e-02
<VARIANCE> 25
 2.377163e+01 2.553583e+01 2.309049e+01 3.416055e+01 4.858066e+01 3.913968e+01 4.580644e+01 5.041128e+01 3.005580e+01 3.107578e+01 4.046287e+01 2.413326e+01 1.065139e+00 9.019988e-01 9.945694e-01 1.595758e+00 1.865009e+00 2.053292e+00 2.340559e+00 2.797388e+00 2.225636e+00 2.003244e+00 2.006401e+00 1.548386e+00 1.897276e+00
<GCONST> 9.495688e+01
<STATE> 3
<MEAN> 25
 3.689114e-01 -9.655102e-01 -9.961476e-01 4.208651e-01 1.061062e+00 2.676275e-01 -1.208450e-01 2.122395e-01 5.183043e-01 1.177703e-02 -1.519441e+00 -7.590615e-01 -1.802014e-03 -9.328239e-03 -1.949179e-03 -2.069207e-02 -3.078565e-02 -3.054155e-02 -2.040173e-02 -1.564375e-02 2.642375e-02 1.192428e-03 -1.156614e-02 -9.792946e-03 3.422347e-02
<VARIANCE> 25
 2.395354e+01 2.495737e+01 2.306161e+01 3.448603e+01 4.881075e+01 3.912127e+01 4.643934e+01 4.777813e+01 2.982288e+01 3.126014e+01 4.084766e+01 2.422627e+01 1.087585e+00 8.738848e-01 1.012658e+00 1.563927e+00 1.881870e+00 2.040178e+00 2.358562e+00 2.593327e+00 2.221207e+00 1.992480e+00 1.991872e+00 1.571161e+00 1.835648e+00
<GCONST> 9.481413e+01
<STATE> 4
<MEAN> 25
 3.233701e-01 -9.690073e-01 -8.801870e-01 3.446882e-01 7.225201e-01 -7.668628e-02 -2.768349e-01 2.157607e-01 5.645012e-01 -5.748211e-02 -1.431883e+00 -6.772680e-01 -1.239615e-02 -6.685805e-03 2.888890e-03 -2.955892e-02 -3.916608e-02 -3.504785e-02 -1.330295e-02 3.430190e-03 6.919223e-03 -6.524170e-03 7.840317e-03 9.023080e-03 2.939489e-02
<VARIANCE> 25
 2.389197e+01 2.419890e+01 2.269777e+01 3.461043e+01 5.101632e+01 4.102675e+01 4.811522e+01 4.610332e+01 3.013901e+01 3.182421e+01 4.072219e+01 2.335610e+01 1.114744e+00 8.524905e-01 1.022372e+00 1.512599e+00 1.948638e+00 1.990282e+00 2.347833e+00 2.505052e+00 2.237082e+00 1.976626e+00 2.033222e+00 1.608298e+00 1.746492e+00
<GCONST> 9.478889e+01
<TRANSP> 5
 0.000000e+00 1.000000e+00 0.000000e+00 0.000000e+00 0.000000e+00
 0.000000e+00 7.621671e-01 2.378329e-01 0.000000e+00 0.000000e+00
 0.000000e+00 0.000000e+00 7.621673e-01 2.378327e-01 0.000000e+00
 0.000000e+00 0.000000e+00 0.000000e+00 8.908683e-01 1.091317e-01
 0.000000e+00 0.000000e+00 0.000000e+00 0.000000e+00 0.000000e+00
<ENDHMM>
~h "ah"
<BEGINHMM>
<NUMSTATES> 5
<STATE> 2
<MEAN> 25
 6.836418e-02 -1.686297e-01 -2.862529e-01 -5.431634e-01 1.546112e-02 4.990239e-02 -1.836795e-01 -3.029087e-01 6.822139e-04 -1.074672e-02 -3.469618e-01 -2.943530e-01 1.683982e-03 9.439157e-03 6.295368e-03 1.044215e-02 -1.236881e-03 5.786486e-03 -4.796801e-03 -6.577518e-03 -2.306486e-03 7.541169e-03 -5.094282e-03 3.444508e-04 -1.018214e-02
<VARIANCE> 25
 3.570750e+01 2.782833e+01 3.380498e+01 4.548195e+01 5.370582e+01 4.583330e+01 5.073738e+01 5.274091e+01 3.584913e+01 3.657939e+01 3.683101e+01 2.643277e+01 1.560437e+00 1.240403e+00 1.568108e+00 1.881703e+00 2.235080e+00 2.678482e+00 2.605107e+00 3.116297e+00 2.452844e+00 2.431895e+00 2.319018e+00 1.837316e+00 2.004345e+00
<GCONST> 9.950340e+01
<STATE> 3
<MEAN> 25
 7.139555e-02 -1.373981e-01 -2.668231e-01 -5.027235e-01 1.934157e-02 7.258272e-02 -2.096982e-01 -3.240104e-01 3.464979e-04 1.835211e-02 -3.570561e-01 -2.944907e-01 5.683111e-03 1.147383e-02 6.831721e-03 1.193354e-02 3.536832e-03 8.527995e-03 -4.861084e-03 -2.378498e-03 3.650794e-03 8.753958e-03 1.364904e-03 8.075470e-04 -1.386216e-02
<VARIANCE> 25
 3.621111e+01 2.768773e+01 3.394144e+01 4.478754e+01 5.357186e+01 4.543350e+01 5.094188e+01 5.230613e+01 3.555919e+01 3.625471e+01 3.691996e+01 2.652703e+01 1.588678e+00 1.235291e+00 1.577044e+00 1.877666e+00 2.237474e+00 2.653157e+00 2.588926e+00 3.105615e+00 2.435107e+00 2.409540e+00 2.334188e+00 1.838789e+00 1.997439e+00
<GCONST> 9.946101e+01
<STATE> 4
<MEAN> 25
 8.926322e-02 -9.311524e-02 -2.208725e-01 -4.011047e-01 1.116088e-01 1.257629e-01 -2.197475e-01 -3.184180e-01 6.364032e-02 8.433063e-02 -2.784192e-01 -2.472809e-01 9.180470e-03 9.529776e-03 1.131880e-02 1.433875e-02 6.997079e-03 6.350772e-03 -5.691691e-03 2.590551e-03 7.274003e-03 7.583388e-03 6.829681e-03 5.328774e-03 -1.430018e-02
<VARIANCE> 25
 3.622319e+01 2.696128e+01 3.349242e+01 4.361795e+01 5.346096e+01 4.337062e+01 5.086142e+01 5.197358e+01 3.478317e+01 3.494154e+01 3.553279e+01 2.551646e+01 1.567034e+00 1.187435e+00 1.527901e+00 1.817612e+00 2.199391e+00 2.550598e+00 2.535264e+00 3.012203e+00 2.380105e+00 2.342969e+00 2.286794e+00 1.800114e+00 1.902299e+00
<GCONST> 9.883549e+01
<TRANSP> 5
 0.000000e+00 1.000000e+00 0.000000e+00 0.000000e+00 0.000000e+00
 0.000000e+00 7.569689e-01 2.430312e-01 0.000000e+00 0.000000e+00
 0.000000e+00 0.000000e+00 7.569689e-01 2.430311e-01 0.000000e+00
 0.000000e+00 0.000000e+00 0.000000e+00 8.875872e-01 1.124128e-01
 0.000000e+00 0.000000e+00 0.000000e+00 0.000000e+00 0.000000e+00
<ENDHMM>
~h "ao"
<BEGINHMM>
<NUMSTATES> 5
<STATE> 2
<MEAN> 25
 8.285506e-01 3.674914e-01 -1.753031e+00 -2.650924e+00 4.457909e-01 9.521841e-01 8.937032e-01 4.413116e-01 4.795397e-01 4.854474e-02 7.639831e-01 8.024194e-01 1.613732e-03 1.455264e-02 -7.697575e-03 6.158964e-03 5.674845e-03 -1.696662e-02 -2.755319e-02 -2.380904e-02 -2.630297e-03 -2.606295e-05 5.065863e-03 1.552746e-02 8.227878e-03
<VARIANCE> 25
 5.234652e+01 3.583519e+01 5.831533e+01 8.905173e+01 5.406707e+01 6.160759e+01 5.549938e+01 4.814246e+01 4.369081e+01 3.806740e+01 3.557138e+01 2.231174e+01 2.143356e+00 1.656225e+00 1.979198e+00 3.220288e+00 2.493250e+00 3.417656e+00 3.073053e+00 3.086543e+00 2.945336e+00 2.893950e+00 2.683320e+00 1.815747e+00 2.460332e+00
<GCONST> 1.042716e+02
<STATE> 3
<MEAN> 25
 8.093052e-01 4.142411e-01 -1.772846e+00 -2.563762e+00 4.751603e-01 9.142098e-01 7.847121e-01 3.426423e-01 5.052099e-01 4.387536e-02 7.699304e-01 8.316078e-01 -5.958347e-03 9.560232e-03 -3.465204e-03 2.379140e-02 6.186308e-03 -8.928558e-03 -2.658064e-02 -2.464868e-02 5.543640e-03 -1.656419e-03 -7.717711e-06 3.643429e-03 -4.357685e-03
<VARIANCE> 25
 5.249210e+01 3.657095e+01 5.709650e+01 8.573773e+01 5.359147e+01 6.063530e+01 5.577393e+01 4.861263e+01 4.478897e+01 3.814032e+01 3.555487e+01 2.213518e+01 2.175395e+00 1.667817e+00 1.991075e+00 3.214734e+00 2.493867e+00 3.477360e+00 3.101186e+00 3.085293e+00 2.970449e+00 2.906978e+00 2.726096e+00 1.820653e+00 2.437076e+00
<GCONST> 1.043182e+02
<STATE> 4
<MEAN> 25
 6.983294e-01 3.605723e-01 -1.667703e+00 -2.212352e+00 5.081928e-01 8.404481e-01 5.731923e-01 3.151900e-01 6.176729e-01 3.250671e-02 7.054047e-01 7.386165e-01 -1.298099e-02 1.244101e-03 3.301549e-03 2.193537e-02 1.035279e-02 4.224322e-03 -2.716272e-02 -1.322681e-02 1.312749e-02 -1.365658e-03 -5.716338e-03 -7.599158e-03 -6.754301e-03
<VARIANCE> 25
 5.120612e+01 3.527311e+01 5.329869e+01 7.758389e+01 5.283910e+01 5.772194e+01 5.361444e+01 4.824889e+01 4.457677e+01 3.780548e+01 3.471239e+01 2.163689e+01 2.163194e+00 1.599077e+00 1.937886e+00 3.042624e+00 2.426241e+00 3.468448e+00 2.992769e+00 2.999964e+00 2.906591e+00 2.848525e+00 2.668328e+00 1.765445e+00 2.366820e+00
<GCONST> 1.035708e+02
<TRANSP> 5
 0.000000e+00 1.000000e+00 0.000000e+00 0.000000e+00 0.000000e+00
 0.000000e+00 7.698326e-01 2.301674e-01 0.000000e+00 0.000000e+00
 0.000000e+00 0.000000e+00 7.698324e-01 2.301676e-01 0.000000e+00
 0.000000e+00 0.000000e+00 0.000000e+00 8.989258e-01 1.010742e-01
 0.000000e+00 0.000000e+00 0.000000e+00 0.000000e+00 0.000000e+00
<ENDHMM>
~h "aw"
<BEGINHMM>
<NUMSTATES> 5
<STATE> 2
<MEAN> 25
 4.187284e-01 -1.043875e+00 -8.943067e-01 -1.504712e+00 3.044220e-01 1.260850e+00 1.210559e-02 -1.106173e-01 -1.914981e-01 3.260659e-01 -5.009360e-01 -7.728785e-01 1.023906e-03 1.924780e-02 2.438155e-02 2.353603e-02 2.930608e-03 2.077366e-02 2.206214e-02 2.942767e-02 2.284917e-02 -3.969961e-03 1.916045e-03 3.279136e-02 -2.892378e-02
<VARIANCE> 25
 2.401248e+01 2.863129e+01 3.210458e+01 5.311242e+01 3.685872e+01 3.466323e+01 4.769766e+01 5.874269e+01 3.100744e+01 2.588361e+01 2.368724e+01 2.281826e+01 1.364172e+00 1.059476e+00 1.123326e+00 1.351530e+00 1.625508e+00 2.366613e+00 2.474090e+00 2.933909e+00 2.048919e+00 1.913705e+00 1.811837e+00 1.602277e+00 1.939127e+00
<GCONST> 9.520227e+01
<STATE> 3
<MEAN> 25
 4.117989e-01 -9.610338e-01 -8.130583e-01 -1.393615e+00 3.479856e-01 1.360152e+00 1.485598e-01 2.325398e-02 -7.661432e-02 3.308102e-01 -4.907222e-01 -6.303006e-01 2.161922e-03 1.936030e-02 1.744588e-02 2.704727e-02 1.323832e-02 2.356310e-02 3.553517e-02 2.878273e-02 2.779038e-02 3.734628e-03 5.108585e-03 3.423421e-02 -4.160612e-02
<VARIANCE> 25
 2.431793e+01 2.872527e+01 3.234108e+01 5.321476e+01 3.731821e+01 3.472561e+01 4.592453e+01 5.834891e+01 3.089606e+01 2.599516e+01 2.366759e+01 2.287673e+01 1.376429e+00 1.054713e+00 1.109318e+00 1.352716e+00 1.646179e+00 2.369556e+00 2.445552e+00 2.948230e+00 2.039974e+00 1.915073e+00 1.767836e+00 1.591563e+00 1.897395e+00
<GCONST> 9.514266e+01
<STATE> 4
<MEAN> 25
 4.227886e-01 -8.114371e-01 -8.249086e-01 -1.116745e+00 6.064342e-01 1.515864e+00 5.120990e-01 3.174265e-01 2.109779e-01 5.307936e-01 -4.218365e-01 -4.364337e-01 1.940628e-03 1.999093e-02 6.886999e-03 3.069081e-02 2.834621e-02 2.193535e-02 4.163664e-02 2.711076e-02 2.964130e-02 1.502866e-02 1.436828e-02 3.249223e-02 -5.613462e-02
<VARIANCE> 25
 2.371665e+01 2.855282e+01 3.057555e+01 5.440018e+01 3.618677e+01 3.430931e+01 4.160328e+01 5.607090e+01 3.092354e+01 2.559890e+01 2.289264e+01 2.299422e+01 1.307705e+00 1.032822e+00 1.043366e+00 1.351765e+00 1.619177e+00 2.308477e+00 2.332329e+00 2.793812e+00 1.999243e+00 1.899981e+00 1.663087e+00 1.568816e+00 1.810504e+00
<GCONST> 9.442490e+01
<TRANSP> 5
 0.000000e+00 1.000000e+00 0.000000e+00 0.000000e+00 0.000000e+00
 0.000000e+00 7.821344e-01 2.178656e-01 0.000000e+00 0.000000e+00
 0.000000e+00 0.000000e+00 7.821346e-01 2.178654e-01 0.000000e+00
 0.000000e+00 0.000000e+00 0.000000e+00 9.138998e-01 8.610018e-02
 0.000000e+00 0.000000e+00 0.000000e+00 0.000000e+00 0.000000e+00
<ENDHMM>
~h "ay"
<BEGINHMM>
<NUMSTATES> 5
<STATE> 2
<MEAN> 25
 4.521195e-02 -6.967603e-01 -3.365348e-01 -4.246832e-01 2.506293e-01 3.064601e-01 5.686261e-01 5.186710e-01 5.110767e-01 2.393572e-01 -1.363971e-01 -5.066460e-01 -1.373997e-03 3.952360e-02 3.435893e-02 9.905006e-03 -1.825430e-02 1.033344e-03 2.989831e-03 1.185050e-02 -9.749275e-03 -8.479622e-03 1.614469e-02 2.472130e-02 -4.312778e-02
<VARIANCE> 25
 2.789868e+01 2.739510e+01 2.847251e+01 4.196668e+01 4.630906e+01 3.613899e+01 3.457426e+01 3.848642e+01 2.561331e+01 2.516436e+01 2.578849e+01 2.500321e+01 1.382161e+00 8.502380e-01 1.297997e+00 1.573027e+00 2.133294e+00 2.210584e+00 2.176315e+00 2.436982e+00 2.080330e+00 2.101241e+00 1.864336e+00 1.888274e+00 1.327988e+00
<GCONST> 9.433713e+01
<STATE> 3
<MEAN> 25
 5.140091e-02 -4.915285e-01 -2.143287e-01 -3.678715e-01 2.365733e-01 3.441514e-01 5.966533e-01 5.779521e-01 4.637734e-01 2.232225e-01 -6.584959e-02 -3.960171e-01 -3.014723e-04 4.493423e-02 2.784377e-02 1.258809e-02 -6.705713e-03 6.538732e-03 2.411961e-03 1.283623e-02 -1.064174e-02 -6.571321e-03 1.001704e-02 2.443758e-02 -4.837930e-02
<VARIANCE> 25
 2.911463e+01 2.716644e+01 2.745278e+01 4.173435e+01 4.672515e+01 3.572506e+01 3.530939e+01 3.837918e+01 2.590376e+01 2.561028e+01 2.582211e+01 2.483427e+01 1.430905e+00 8.728966e-01 1.282090e+00 1.598171e+00 2.171864e+00 2.198695e+00 2.217255e+00 2.448433e+00 2.083483e+00 2.122428e+00 1.869928e+00 1.835353e+00 1.337546e+00
<GCONST> 9.446204e+01
<STATE> 4
<MEAN> 25
 1.057357e-01 -1.471727e-01 -1.220071e-01 -2.474742e-01 3.712466e-01 4.451133e-01 6.496645e-01 6.334653e-01 4.031345e-01 2.382040e-01 -2.019305e-02 -2.145778e-01 -7.810526e-03 2.940047e-02 6.864447e-03 4.377420e-03 -2.188890e-03 4.508100e-04 1.863227e-03 3.900027e-03 -9.848706e-03 -8.493532e-03 -4.748099e-03 1.176155e-02 -1.865501e-02
<VARIANCE> 25
 3.123228e+01 2.707099e+01 2.575522e+01 4.207688e+01 4.543982e+01 3.439939e+01 3.620092e+01 3.836912e+01 2.581228e+01 2.596542e+01 2.630122e+01 2.363939e+01 1.463294e+00 9.113008e-01 1.264212e+00 1.650496e+00 2.161736e+00 2.156148e+00 2.277515e+00 2.485043e+00 2.063327e+00 2.124502e+00 1.894135e+00 1.728158e+00 1.365692e+00
<GCONST> 9.447718e+01
<TRANSP> 5
 0.000000e+00 1.000000e+00 0.000000e+00 0.000000e+00 0.000000e+00
 0.000000e+00 7.771280e-01 2.228720e-01 0.000000e+00 0.000000e+00
 0.000000e+00 0.000000e+00 7.771283e-01 2.228717e-01 0.000000e+00
 0.000000e+00 0.000000e+00 0.000000e+00 9.079756e-01 9.202441e-02
 0.000000e+00 0.000000e+00 0.000000e+00 0.000000e+00 0.000000e+00
<ENDHMM>
~h "ch"
<BEGINHMM>
<NUMSTATES> 5
<STATE> 2
<MEAN> 25
 -1.459661e+00 -1.213246e+00 1.834813e+00 2.522525e+00 -1.757423e+00 -1.425780e+00 -3.881770e-01 2.884032e-01 -8.586530e-01 -1.336707e-01 -9.864516e-01 -3.559034e-01 -5.098706e-02 -1.140319e-02 -1.367886e-02 2.076348e-02 3.750377e-02 2.554788e-02 2.185388e-02 3.638654e-03 4.065161e-02 -3.002384e-02 -2.001939e-02 -1.220043e-03 -3.272385e-02
<VARIANCE> 25
 8.124595e+01 4.716047e+01 7.744769e+01 7.470201e+01 6.582713e+01 5.635386e+01 5.611470e+01 4.773511e+01 5.477297e+01 4.475634e+01 4.799037e+01 3.728589e+01 3.994856e+00 2.296756e+00 3.077002e+00 2.388636e+00 3.302628e+00 3.766373e+00 3.362085e+00 3.429629e+00 3.184815e+00 3.207588e+00 2.998310e+00 2.777937e+00 3.524763e+00
<GCONST> 1.091474e+02
<STATE> 3
<MEAN> 25
 -1.638965e+00 -1.282209e+00 1.715061e+00 2.536289e+00 -1.582261e+00 -1.318843e+00 -3.272623e-01 3.432127e-01 -7.240747e-01 -2.225856e-01 -1.046389e+00 -3.329861e-01 -4.758453e-02 -3.066765e-02 -4.640216e-02 6.626053e-03 4.478000e-02 2.982921e-02 2.081731e-02 2.160455e-02 4.176345e-02 -1.565384e-02 -2.999876e-03 8.310470e-03 -2.699034e-02
<VARIANCE> 25
 8.144866e+01 4.728528e+01 7.504106e+01 7.357194e+01 6.546004e+01 5.617848e+01 5.640092e+01 4.658885e+01 5.417426e+01 4.536847e+01 4.858902e+01 3.710315e+01 4.019963e+00 2.360095e+00 2.941898e+00 2.378650e+00 3.250153e+00 3.755778e+00 3.351052e+00 3.322122e+00 3.155658e+00 3.196571e+00 3.026935e+00 2.807103e+00 3.470656e+00
<GCONST> 1.090101e+02
<STATE> 4
<MEAN> 25
 -1.662728e+00 -1.390718e+00 1.563591e+00 2.525305e+00 -1.491573e+00 -1.158116e+00 -3.423242e-01 4.018058e-01 -7.450194e-01 -3.356930e-01 -1.116763e+00 -3.098700e-01 -1.675992e-02 -2.863360e-02 -4.532355e-02 2.545187e-03 1.994357e-02 2.563732e-02 2.224012e-02 2.706912e-02 3.058806e-02 -4.436968e-03 1.670701e-02 1.197275e-02 -1.317654e-02
<VARIANCE> 25
 8.009187e+01 4.638048e+01 7.341793e+01 7.153883e+01 6.638625e+01 5.651017e+01 5.678247e+01 4.612210e+01 5.525693e+01 4.602170e+01 4.930738e+01 3.639194e+01 3.824483e+00 2.401888e+00 2.720471e+00 2.409182e+00 3.175191e+00 3.729336e+00 3.303427e+00 3.174771e+00 3.132240e+00 3.126623e+00 3.018861e+00 2.683311e+00 3.286690e+00
<GCONST> 1.086504e+02
<TRANSP> 5
 0.000000e+00 1.000000e+00 0.000000e+00 0.000000e+00 0.000000e+00
 0.000000e+00 7.491506e-01 2.508494e-01 0.000000e+00 0.000000e+00
 0.000000e+00 0.000000e+00 7.491506e-01 2.508494e-01 0.000000e+00
 0.000000e+00 0.000000e+00 0.000000e+00 8.736373e-01 1.263626e-01
 0.000000e+00 0.000000e+00 0.000000e+00 0.000000e+00 0.000000e+00
<ENDHMM>
~h "dh"
<BEGINHMM>
<NUMSTATES> 5
<STATE> 2
<MEAN> 25
 8.786014e-01 -3.863432e-01 -4.496540e-01 -5.101239e-01 -2.497502e-01 5.707577e-01 2.671192e-01 3.675762e-01 6.319107e-01 3.055951e-01 -1.188406e+00 -1.270248e+00 -1.591955e-02 1.765137e-02 -3.260385e-02 3.355990e-02 9.582019e-02 8.505770e-02 7.799916e-02 4.451708e-02 2.329813e-02 7.545044e-02 6.405028e-02 1.113402e-02 -1.010273e-01
<VARIANCE> 25
 2.466045e+01 2.292524e+01 2.483042e+01 4.359285e+01 5.963543e+01 3.974567e+01 4.794927e+01 5.357560e+01 3.320039e+01 3.512294e+01 3.180645e+01 2.389367e+01 1.155179e+00 6.480768e-01 1.083078e+00 1.272249e+00 2.045480e+00 2.605192e+00 2.034997e+00 1.874093e+00 1.690829e+00 2.135935e+00 1.530024e+00 1.596999e+00 1.400678e+00
<GCONST> 9.414536e+01
<STATE> 3
<MEAN> 25
 7.678934e-01 -3.032978e-01 -5.723572e-01 -3.655199e-01 1.452265e-01 8.920267e-01 6.078607e-01 5.756336e-01 7.382054e-01 6.180058e-01 -9.167573e-01 -1.203096e+00 -2.509275e-02 2.424294e-02 -2.030540e-02 4.557047e-02 8.714811e-02 6.412490e-02 8.379209e-02 6.126553e-02 3.038509e-02 6.736983e-02 6.671295e-02 2.970766e-02 -1.113407e-01
<VARIANCE> 25
 2.468840e+01 2.284529e+01 2.379175e+01 4.288927e+01 5.833573e+01 3.881422e+01 4.662360e+01 5.439357e+01 3.243426e+01 3.409776e+01 3.111710e+01 2.360106e+01 1.132596e+00 6.360097e-01 1.049945e+00 1.268474e+00 1.952276e+00 2.564098e+00 1.943817e+00 1.892302e+00 1.637780e+00 2.083076e+00 1.501769e+00 1.553783e+00 1.357478e+00
<GCONST> 9.363254e+01
<STATE> 4
<MEAN> 25
 4.100834e-01 -1.098146e-01 -7.050932e-01 -2.144076e-01 7.270418e-01 1.299422e+00 1.213214e+00 1.063373e+00 8.616865e-01 9.902046e-01 -5.564513e-01 -1.057396e+00 -3.574993e-02 3.498369e-02 -2.810825e-04 5.321440e-02 6.492678e-02 2.921439e-02 7.235686e-02 7.130778e-02 3.289555e-02 4.425952e-02 5.885725e-02 4.789602e-02 -1.061976e-01
<VARIANCE> 25
 2.606593e+01 2.239133e+01 2.245599e+01 4.147819e+01 5.738882e+01 3.753888e+01 4.423299e+01 5.589738e+01 3.108363e+01 3.247167e+01 2.975456e+01 2.326669e+01 1.114686e+00 6.490008e-01 1.016729e+00 1.279324e+00 1.900999e+00 2.460865e+00 1.853887e+00 2.035208e+00 1.606023e+00 2.026719e+00 1.517465e+00 1.519218e+00 1.307830e+00
<GCONST> 9.319198e+01
<TRANSP> 5
 0.000000e+00 1.000000e+00 0.000000e+00 0.000000e+00 0.000000e+00
 0.000000e+00 7.646509e-01 2.353491e-01 0.000000e+00 0.000000e+00
 0.000000e+00 0.000000e+00 7.646511e-01 2.353489e-01 0.000000e+00
 0.000000e+00 0.000000e+00 0.000000e+00 8.924494e-01 1.075507e-01
 0.000000e+00 0.000000e+00 0.000000e+00 0.000000e+00 0.000000e+00
<ENDHMM>
~h "eh"
<BEGINHMM>
<NUMSTATES> 5
<STATE> 2
<MEAN> 25
 -4.954140e-01 -4.661361e-01 9.213578e-01 1.766537e-01 -1.042692e+00 -9.204932e-01 2.053266e-01 5.206195e-01 4.499186e-01 -5.298468e-01 -6.728352e-01 1.684803e-01 -8.151658e-03 1.507975e-02 9.408706e-03 4.495005e-03 -1.801215e-03 -1.270461e-02 9.256286e-03 -1.659283e-03 2.592605e-03 -1.424567e-02 -1.650868e-02 8.587305e-04 1.496325e-02
<VARIANCE> 25
 4.293225e+01 3.042773e+01 5.805770e+01 4.443954e+01 6.159826e+01 5.751984e+01 3.988800e+01 4.309976e+01 3.923319e+01 3.416478e+01 3.977374e+01 2.338432e+01 1.982907e+00 1.497056e+00 1.909893e+00 1.970638e+00 2.722057e+00 3.163597e+00 2.489669e+00 2.737616e+00 2.529518e+00 2.264830e+00 2.275945e+00 1.872089e+00 2.357435e+00
<GCONST> 1.011742e+02
<STATE> 3
<MEAN> 25
 -5.290755e-01 -4.037795e-01 9.460720e-01 2.214097e-01 -1.025266e+00 -9.678310e-01 2.625700e-01 5.363371e-01 4.626700e-01 -5.830150e-01 -7.340152e-01 1.711987e-01 -8.712606e-03 1.676193e-02 1.389107e-03 1.052371e-02 8.042329e-03 -9.534686e-03 1.549824e-02 7.273239e-03 6.482906e-03 -1.081946e-02 -1.316287e-02 2.169883e-03 3.976267e-03
<VARIANCE> 25
 4.329773e+01 3.099465e+01 5.801195e+01 4.446591e+01 6.137714e+01 5.758889e+01 3.970173e+01 4.325228e+01 3.903453e+01 3.442196e+01 3.945379e+01 2.314199e+01 1.986345e+00 1.509611e+00 1.914391e+00 1.985664e+00 2.706243e+00 3.129644e+00 2.476235e+00 2.709520e+00 2.517375e+00 2.258482e+00 2.271015e+00 1.862544e+00 2.339486e+00
<GCONST> 1.011464e+02
<STATE> 4
<MEAN> 25
 -5.502790e-01 -3.343367e-01 9.156845e-01 3.630929e-01 -8.924450e-01 -9.055052e-01 4.237470e-01 6.355998e-01 5.357279e-01 -5.391155e-01 -7.573369e-01 1.854148e-01 -7.338321e-03 1.204471e-02 -7.194652e-03 1.224403e-02 1.854203e-02 4.422507e-03 1.935421e-02 1.331330e-02 9.039834e-03 -4.031319e-04 -2.627136e-03 3.012033e-03 -1.020245e-02
<VARIANCE> 25
 4.327757e+01 3.151828e+01 5.785003e+01 4.454517e+01 6.173910e+01 5.752803e+01 3.914456e+01 4.363930e+01 3.819737e+01 3.442369e+01 3.881037e+01 2.250459e+01 1.948631e+00 1.501926e+00 1.896654e+00 1.991835e+00 2.636026e+00 3.043943e+00 2.419905e+00 2.662239e+00 2.469308e+00 2.259241e+00 2.262999e+00 1.817472e+00 2.284072e+00
<GCONST> 1.008992e+02
<TRANSP> 5
 0.000000e+00 1.000000e+00 0.000000e+00 0.000000e+00 0.000000e+00
 0.000000e+00 7.578416e-01 2.421584e-01 0.000000e+00 0.000000e+00
 0.000000e+00 0.000000e+00 7.578413e-01 2.421587e-01 0.000000e+00
 0.000000e+00 0.000000e+00 0.000000e+00 8.857908e-01 1.142092e-01
 0.000000e+00 0.000000e+00 0.000000e+00 0.000000e+00 0.000000e+00
<ENDHMM>
~h "er"
<BEGINHMM>
<NUMSTATES> 5
<STATE> 2
<MEAN> 25
 5.997574e-01 -7.396175e-01 -9.175344e-01 5.244094e-01 -1.338433e-03 -2.157516e-01 -7.747619e-01 2.017952e-01 4.098984e-01 4.531767e-01 -4.757282e-01 -3.476093e-01 3.333671e-02 -7.097181e-03 -2.604116e-02 4.277136e-02 2.797484e-02 -4.391077e-04 6.222069e-03 2.823776e-02 2.001023e-02 2.039092e-02 -1.010030e-03 -6.277082e-03 -4.803319e-02
<VARIANCE> 25
 4.292424e+01 3.018177e+01 7.101947e+01 4.731063e+01 6.007730e+01 5.653414e+01 5.083014e+01 4.451001e+01 3.617252e+01 4.481876e+01 6.235171e+01 2.727260e+01 2.056820e+00 1.599354e+00 2.409238e+00 2.465607e+00 2.728402e+00 3.455252e+00 2.825541e+00 2.805340e+00 2.410990e+00 2.710233e+00 3.148793e+00 2.184966e+00 2.623343e+00
<GCONST> 1.039741e+02
<STATE> 3
<MEAN> 25
 7.434293e-01 -7.549795e-01 -1.032444e+00 6.766149e-01 9.720279e-02 -1.958666e-01 -7.366056e-01 3.097731e-01 4.931203e-01 5.380266e-01 -4.452592e-01 -3.829349e-01 3.458707e-02 -4.808608e-03 -3.104638e-02 4.689375e-02 3.687204e-02 9.339460e-03 1.177793e-02 2.626789e-02 2.032017e-02 2.076724e-02 6.464010e-03 -1.105712e-02 -5.598217e-02
<VARIANCE> 25
 4.295947e+01 3.004403e+01 7.003745e+01 4.714170e+01 6.014198e+01 5.695967e+01 5.136525e+01 4.399780e+01 3.581537e+01 4.421748e+01 6.365644e+01 2.687113e+01 2.019572e+00 1.589957e+00 2.394478e+00 2.457918e+00 2.733119e+00 3.406168e+00 2.814631e+00 2.777506e+00 2.361149e+00 2.702035e+00 3.192146e+00 2.173706e+00 2.605212e+00
<GCONST> 1.038605e+02
<STATE> 4
<MEAN> 25
 9.053264e-01 -7.299843e-01 -1.188490e+00 7.528427e-01 2.776757e-01 -1.022622e-01 -6.572146e-01 4.294586e-01 6.013691e-01 6.742145e-01 -3.087107e-01 -4.239084e-01 2.169631e-02 -1.808762e-03 -2.185273e-02 4.004860e-02 4.463203e-02 1.526421e-02 1.907101e-02 2.508123e-02 1.801702e-02 1.450109e-02 1.087205e-02 -1.048697e-02 -5.083093e-02
<VARIANCE> 25
 4.258613e+01 2.994523e+01 6.730251e+01 4.682226e+01 6.006048e+01 5.634275e+01 5.168540e+01 4.391801e+01 3.514795e+01 4.249383e+01 6.381416e+01 2.595262e+01 1.933933e+00 1.552107e+00 2.317655e+00 2.399022e+00 2.699100e+00 3.227965e+00 2.747049e+00 2.712775e+00 2.292921e+00 2.652477e+00 3.185286e+00 2.126208e+00 2.512682e+00
<GCONST> 1.033565e+02
<TRANSP> 5
 0.000000e+00 1.000000e+00 0.000000e+00 0.000000e+00 0.000000e+00
 0.000000e+00 7.592787e-01 2.407213e-01 0.000000e+00 0.000000e+00
 0.000000e+00 0.000000e+00 7.592782e-01 2.407217e-01 0.000000e+00
 0.000000e+00 0.000000e+00 0.000000e+00 8.871914e-01 1.128086e-01
 0.000000e+00 0.000000e+00 0.000000e+00 0.000000e+00 0.000000e+00
<ENDHMM>
~h "ey"
<BEGINHMM>
<NUMSTATES> 5
<STATE> 2
<MEAN> 25
 -5.305318e-01 -1.688290e-03 1.611293e+00 2.133731e-01 -1.562102e+00 -1.056132e+00 -5.845296e-01 -7.834390e-01 -1.360904e-01 -2.519502e-01 4.060774e-01 6.298066e-01 -5.801673e-03 7.837443e-03 -1.478385e-02 1.871294e-02 3.484247e-02 2.964139e-02 2.407265e-02 2.446777e-02 1.451925e-02 4.891748e-03 -1.428327e-02 8.491672e-04 -4.812145e-02
<VARIANCE> 25
 3.453810e+01 2.323303e+01 3.450159e+01 3.485748e+01 7.345064e+01 4.441964e+01 4.637868e+01 5.362934e+01 3.060852e+01 3.442048e+01 3.166626e+01 2.074471e+01 1.539691e+00 9.983272e-01 1.337670e+00 1.556340e+00 2.232080e+00 2.283391e+00 2.668470e+00 2.912632e+00 2.263669e+00 2.335513e+00 2.237582e+00 1.757605e+00 1.701365e+00
<GCONST> 9.749186e+01
<STATE> 3
<MEAN> 25
 -5.406765e-01 3.434547e-02 1.527611e+00 2.855392e-01 -1.374665e+00 -9.151984e-01 -4.717385e-01 -6.688524e-01 -6.851322e-02 -2.130250e-01 3.439522e-01 6.214148e-01 -9.085907e-04 1.172341e-02 -2.320557e-02 1.866572e-02 4.888499e-02 3.594191e-02 2.732831e-02 2.741894e-02 1.621581e-02 8.743259e-03 -1.913415e-02 -3.045822e-03 -5.774961e-02
<VARIANCE> 25
 3.457990e+01 2.318361e+01 3.448536e+01 3.481529e+01 7.275978e+01 4.412371e+01 4.648836e+01 5.269763e+01 3.045409e+01 3.394576e+01 3.192984e+01 2.078358e+01 1.536839e+00 9.872828e-01 1.344656e+00 1.551101e+00 2.225156e+00 2.299232e+00 2.648543e+00 2.862010e+00 2.253301e+00 2.304475e+00 2.199986e+00 1.749580e+00 1.685982e+00
<GCONST> 9.736823e+01
<STATE> 4
<MEAN> 25
 -4.698791e-01 1.257660e-01 1.260615e+00 4.223234e-01 -7.933481e-01 -5.370532e-01 -1.790788e-01 -4.082682e-01 8.993609e-02 -2.530747e-02 2.686169e-01 5.951390e-01 5.778885e-03 9.351723e-03 -3.268657e-02 1.115442e-02 5.617185e-02 3.611024e-02 2.870085e-02 2.353757e-02 1.693063e-02 1.605785e-02 -1.855012e-02 -5.842450e-03 -5.239201e-02
<VARIANCE> 25
 3.331865e+01 2.321923e+01 3.375516e+01 3.441685e+01 7.066153e+01 4.330734e+01 4.582517e+01 5.249321e+01 3.059924e+01 3.291520e+01 3.156561e+01 2.063334e+01 1.442866e+00 9.736883e-01 1.320743e+00 1.509253e+00 2.152566e+00 2.275898e+00 2.517094e+00 2.777378e+00 2.200951e+00 2.211924e+00 2.089095e+00 1.714087e+00 1.625061e+00
<GCONST> 9.676865e+01
<TRANSP> 5
 0.000000e+00 1.000000e+00 0.000000e+00 0.000000e+00 0.000000e+00
 0.000000e+00 7.627854e-01 2.372146e-01 0.000000e+00 0.000000e+00
 0.000000e+00 0.000000e+00 7.627856e-01 2.372144e-01 0.000000e+00
 0.000000e+00 0.000000e+00 0.000000e+00 8.943625e-01 1.056375e-01
 0.000000e+00 0.000000e+00 0.000000e+00 0.000000e+00 0.000000e+00
<ENDHMM>
~h "hh"
<BEGINHMM>
<NUMSTATES> 5
<STATE> 2
<MEAN> 25
 1.128136e-02 -4.421827e-01 -4.842983e-01 1.683994e-02 8.960243e-02 9.189450e-01 7.605563e-01 -9.113128e-01 -7.618971e-01 -1.338791e-01 -9.686403e-01 -1.246895e-01 3.860646e-04 6.540569e-03 1.579621e-02 -2.500817e-02 -1.362129e-04 1.900659e-02 2.507346e-03 -2.515209e-02 -1.130856e-02 4.555174e-02 -4.925078e-02 2.520671e-02 -9.732081e-03
<VARIANCE> 25
 2.700924e+01 2.945578e+01 2.224626e+01 4.305332e+01 3.697986e+01 3.512666e+01 3.971660e+01 4.658200e+01 3.790496e+01 4.508324e+01 4.339975e+01 2.783216e+01 8.250748e-01 1.035323e+00 1.027053e+00 1.608744e+00 1.813195e+00 2.048822e+00 2.228893e+00 2.481766e+00 2.355089e+00 2.158077e+00 2.468836e+00 1.861633e+00 1.652912e+00
<GCONST> 9.574412e+01
<STATE> 3
<MEAN> 25
 3.315259e-02 -3.978862e-01 -4.083768e-01 -8.116621e-02 1.086597e-01 1.035238e+00 7.899020e-01 -9.529360e-01 -7.667909e-01 -6.103641e-03 -1.048592e+00 -8.216057e-02 7.918596e-03 1.333303e-02 2.540421e-02 -2.957810e-02 3.331912e-03 2.866200e-02 1.293908e-02 -2.077959e-03 3.460145e-03 3.117247e-02 -1.455324e-02 1.690805e-02 -2.416090e-02
<VARIANCE> 25
 2.776066e+01 2.852037e+01 2.300405e+01 4.331651e+01 3.786115e+01 3.502638e+01 3.862440e+01 4.730085e+01 3.636519e+01 4.496100e+01 4.460183e+01 2.867708e+01 8.308011e-01 1.021497e+00 1.056065e+00 1.594825e+00 1.797407e+00 2.100585e+00 2.187068e+00 2.464162e+00 2.329794e+00 2.149662e+00 2.534372e+00 1.853230e+00 1.626391e+00
<GCONST> 9.579361e+01
<STATE> 4
<MEAN> 25
 2.096527e-01 -2.574948e-01 -3.591703e-01 -5.366179e-02 3.708732e-01 1.125013e+00 9.531572e-01 -7.339357e-01 -6.185116e-01 1.409164e-02 -7.970437e-01 -2.034324e-01 5.411324e-03 5.851822e-03 1.545278e-02 -1.711449e-02 2.495050e-02 2.426493e-02 3.275193e-02 3.302347e-02 2.335695e-02 1.053922e-02 2.121140e-02 2.981655e-03 -2.783164e-02
<VARIANCE> 25
 2.593857e+01 2.721544e+01 2.252413e+01 4.199556e+01 3.682446e+01 3.416816e+01 3.682598e+01 4.718652e+01 3.374489e+01 4.407034e+01 4.361358e+01 2.820213e+01 8.243093e-01 9.560056e-01 9.844171e-01 1.439432e+00 1.684109e+00 2.169942e+00 2.088233e+00 2.395038e+00 2.186691e+00 2.086293e+00 2.425763e+00 1.843765e+00 1.563903e+00
<GCONST> 9.485467e+01
<TRANSP> 5
 0.000000e+00 1.000000e+00 0.000000e+00 0.000000e+00 0.000000e+00
 0.000000e+00 7.471673e-01 2.528327e-01 0.000000e+00 0.000000e+00
 0.000000e+00 0.000000e+00 7.471671e-01 2.528328e-01 0.000000e+00
 0.000000e+00 0.000000e+00 0.000000e+00 8.766296e-01 1.233704e-01
 0.000000e+00 0.000000e+00 0.000000e+00 0.000000e+00 0.000000e+00
<ENDHMM>
~h "ih"
<BEGINHMM>
<NUMSTATES> 5
<STATE> 2
<MEAN> 25
 -1.219139e+00 5.906750e-01 1.344722e+00 -3.095530e-01 -7.129980e-01 -4.319257e-01 -1.407522e-01 -7.138310e-01 -1.094272e+00 -6.874042e-01 -1.014734e-01 6.243663e-02 -2.398537e-02 3.908096e-03 2.511628e-02 -3.444247e-02 -5.790496e-02 -2.401139e-02 -2.784084e-02 -2.286419e-02 -2.679267e-02 -2.798601e-02 1.142077e-02 1.579924e-02 5.132162e-02
<VARIANCE> 25
 4.935777e+01 2.758839e+01 5.325675e+01 4.563100e+01 7.065437e+01 4.278209e+01 4.476270e+01 5.130150e+01 3.910184e+01 4.326025e+01 3.527338e+01 3.109210e+01 2.438474e+00 1.576180e+00 2.502867e+00 2.374351e+00 3.225160e+00 2.987106e+00 2.826048e+00 3.055821e+00 2.645706e+00 2.952157e+00 2.727685e+00 2.475202e+00 2.710347e+00
<GCONST> 1.036577e+02
<STATE> 3
<MEAN> 25
 -1.260719e+00 6.062965e-01 1.412066e+00 -4.207076e-01 -9.204018e-01 -5.108539e-01 -2.300320e-01 -7.882367e-01 -1.179615e+00 -7.738097e-01 -6.216000e-02 1.204017e-01 -8.425194e-03 7.616175e-03 2.060379e-02 -2.255599e-02 -5.355465e-02 -1.473919e-02 -2.013321e-02 -2.158252e-02 -2.219075e-02 -1.770987e-02 8.749864e-03 1.138376e-02 3.291667e-02
<VARIANCE> 25
 4.994456e+01 2.741890e+01 5.317013e+01 4.571485e+01 7.134087e+01 4.283467e+01 4.472374e+01 5.143824e+01 3.886242e+01 4.330185e+01 3.496627e+01 3.088118e+01 2.424234e+00 1.565145e+00 2.475609e+00 2.357476e+00 3.206078e+00 2.996550e+00 2.797436e+00 3.066380e+00 2.609735e+00 2.953923e+00 2.728557e+00 2.433860e+00 2.685359e+00
<GCONST> 1.035762e+02
<STATE> 4
<MEAN> 25
 -1.246318e+00 5.830372e-01 1.314316e+00 -5.071536e-01 -1.189943e+00 -5.717518e-01 -2.611295e-01 -8.628556e-01 -1.237980e+00 -8.461589e-01 -7.655527e-02 1.193310e-01 1.331120e-02 6.654574e-03 5.245205e-03 -7.047197e-03 -3.409230e-02 -7.769280e-04 -6.717391e-03 -1.866014e-02 -9.133893e-03 1.588767e-03 -2.059753e-03 2.769723e-03 2.985726e-03
<VARIANCE> 25
 5.014473e+01 2.741315e+01 5.272385e+01 4.509069e+01 6.970335e+01 4.262746e+01 4.416578e+01 5.188437e+01 3.821675e+01 4.245231e+01 3.382396e+01 2.985833e+01 2.306819e+00 1.499411e+00 2.353377e+00 2.271191e+00 3.025253e+00 2.919014e+00 2.742803e+00 3.023871e+00 2.517137e+00 2.862922e+00 2.651752e+00 2.307297e+00 2.558522e+00
<GCONST> 1.029262e+02
<TRANSP> 5
 0.000000e+00 1.000000e+00 0.000000e+00 0.000000e+00 0.000000e+00
 0.000000e+00 7.552361e-01 2.447639e-01 0.000000e+00 0.000000e+00
 0.000000e+00 0.000000e+00 7.552353e-01 2.447646e-01 0.000000e+00
 0.000000e+00 0.000000e+00 0.000000e+00 8.850040e-01 1.149960e-01
 0.000000e+00 0.000000e+00 0.000000e+00 0.000000e+00 0.000000e+00
<ENDHMM>
~h "iy"
<BEGINHMM>
<NUMSTATES> 5
<STATE> 2
<MEAN> 25
 -2.700724e-01 9.694052e-01 8.901541e-01 2.285420e-01 -5.563754e-01 -4.634183e-01 -4.461916e-01 -1.017736e+00 -5.745511e-01 -3.802817e-01 3.319815e-01 -6.404799e-02 -1.122675e-02 4.141344e-03 5.075825e-03 -3.560884e-03 7.746003e-03 -6.642788e-03 8.703618e-03 -3.371943e-03 8.577517e-03 -7.285083e-03 -1.217812e-02 1.444346e-02 -1.287536e-03
<VARIANCE> 25
 5.153615e+01 3.614090e+01 7.296512e+01 5.563240e+01 7.877713e+01 5.662688e+01 4.776118e+01 5.265760e+01 4.333276e+01 4.196946e+01 5.005693e+01 3.119875e+01 2.495388e+00 1.805839e+00 2.749537e+00 2.754026e+00 3.394350e+00 3.451236e+00 2.879827e+00 3.087210e+00 2.766474e+00 2.680932e+00 3.279191e+00 2.378067e+00 2.725863e+00
<GCONST> 1.061141e+02
<STATE> 3
<MEAN> 25
 -3.189338e-01 9.805065e-01 9.237830e-01 2.017749e-01 -5.318201e-01 -5.036150e-01 -4.053888e-01 -1.018321e+00 -5.418383e-01 -4.195581e-01 2.888380e-01 1.445411e-02 -4.546090e-03 6.984714e-03 1.815303e-02 -2.423274e-03 -5.560755e-03 -1.312437e-02 9.734789e-03 -3.924209e-03 1.759418e-03 -1.403971e-02 -8.011701e-03 2.066702e-02 3.110602e-03
<VARIANCE> 25
 5.120876e+01 3.635518e+01 7.308700e+01 5.635485e+01 7.888768e+01 5.708317e+01 4.754466e+01 5.266407e+01 4.379463e+01 4.236101e+01 4.897369e+01 3.163829e+01 2.517457e+00 1.804121e+00 2.753776e+00 2.751588e+00 3.418048e+00 3.475500e+00 2.877248e+00 3.084155e+00 2.787795e+00 2.699009e+00 3.246509e+00 2.388654e+00 2.701277e+00
<GCONST> 1.061656e+02
<STATE> 4
<MEAN> 25
 -3.266541e-01 9.049493e-01 9.567269e-01 1.765828e-01 -5.261354e-01 -6.106925e-01 -3.467560e-01 -9.629793e-01 -5.071045e-01 -4.687317e-01 2.615438e-01 1.754024e-01 4.811217e-03 8.929931e-03 2.775967e-02 2.040262e-03 -1.628454e-02 -1.671412e-02 6.401486e-03 -3.368960e-03 -8.389927e-03 -1.626815e-02 -3.937023e-03 2.299767e-02 4.993198e-03
<VARIANCE> 25
 4.823602e+01 3.480775e+01 6.939745e+01 5.541758e+01 7.664467e+01 5.680623e+01 4.665524e+01 5.222599e+01 4.311909e+01 4.160538e+01 4.494777e+01 3.034580e+01 2.402732e+00 1.702913e+00 2.607696e+00 2.639698e+00 3.298304e+00 3.397461e+00 2.788794e+00 3.025861e+00 2.757669e+00 2.649109e+00 3.022502e+00 2.277699e+00 2.539904e+00
<GCONST> 1.052525e+02
<TRANSP> 5
 0.000000e+00 1.000000e+00 0.000000e+00 0.000000e+00 0.000000e+00
 0.000000e+00 7.628232e-01 2.371768e-01 0.000000e+00 0.000000e+00
 0.000000e+00 0.000000e+00 7.628241e-01 2.371759e-01 0.000000e+00
 0.000000e+00 0.000000e+00 0.000000e+00 8.915767e-01 1.084233e-01
 0.000000e+00 0.000000e+00 0.000000e+00 0.000000e+00 0.000000e+00
<ENDHMM>
~h "jh"
<BEGINHMM>
<NUMSTATES> 5
<STATE> 2
<MEAN> 25
 -6.279528e-02 -2.970159e-01 1.028177e+00 -1.048655e+00 -2.467629e+00 -8.687495e-01 -9.852844e-01 -2.464200e+00 -2.086449e+00 -1.935419e+00 -1.142567e+00 -4.942312e-01 -2.390402e-02 8.157615e-03 8.967513e-03 -5.886031e-02 -7.445402e-02 -1.054802e-01 -1.722538e-01 -1.355895e-01 -6.579114e-02 -7.624208e-02 -5.230321e-02 6.553692e-02 1.680124e-01
<VARIANCE> 25
 2.319174e+01 1.990324e+01 2.981324e+01 3.786477e+01 6.440622e+01 3.404733e+01 4.691430e+01 5.940444e+01 3.979764e+01 4.305539e+01 2.193812e+01 2.018090e+01 1.650571e+00 1.130681e+00 1.550438e+00 1.255089e+00 3.101619e+00 1.987970e+00 1.957872e+00 2.922109e+00 2.256136e+00 2.465153e+00 1.750090e+00 1.555247e+00 1.953150e+00
<GCONST> 9.651501e+01
<STATE> 3
<MEAN> 25
 -1.767386e-01 -2.547743e-01 1.023849e+00 -1.193194e+00 -2.642829e+00 -1.257074e+00 -1.510074e+00 -2.899957e+00 -2.268500e+00 -2.161846e+00 -1.295551e+00 -2.679315e-01 -4.048154e-02 1.642097e-02 -1.107298e-03 -3.364451e-02 -4.096576e-02 -9.642350e-02 -1.231445e-01 -9.414040e-02 -3.126227e-02 -5.441644e-02 -4.026533e-02 6.196604e-02 1.251480e-01
<VARIANCE> 25
 2.583398e+01 2.126479e+01 3.021926e+01 3.780146e+01 6.105180e+01 3.316938e+01 4.686498e+01 5.765022e+01 3.825991e+01 4.137691e+01 2.211892e+01 1.722223e+01 1.764801e+00 1.218221e+00 1.670802e+00 1.283583e+00 2.944359e+00 1.978851e+00 2.005342e+00 2.916953e+00 2.214413e+00 2.476775e+00 1.785872e+00 1.503974e+00 1.951821e+00
<GCONST> 9.653716e+01
<STATE> 4
<MEAN> 25
 -1.081805e-01 1.521067e-02 1.016525e+00 -9.122201e-01 -2.286586e+00 -1.432431e+00 -1.591710e+00 -2.887948e+00 -1.983050e+00 -2.130402e+00 -1.385827e+00 -8.330094e-03 -4.327578e-02 3.023368e-02 6.844289e-03 2.151285e-02 7.130747e-03 -4.739727e-02 -3.711063e-02 -2.270990e-02 1.158169e-02 -1.631641e-02 -1.411446e-02 3.717660e-02 2.531380e-02
<VARIANCE> 25
 2.904805e+01 2.252133e+01 2.989450e+01 4.005531e+01 5.838512e+01 3.206282e+01 4.639595e+01 5.324124e+01 3.608364e+01 4.026289e+01 2.309635e+01 1.381917e+01 1.744781e+00 1.205397e+00 1.724035e+00 1.280079e+00 2.500518e+00 1.933413e+00 1.978738e+00 2.734375e+00 2.120183e+00 2.429546e+00 1.802268e+00 1.410239e+00 1.815695e+00
<GCONST> 9.587971e+01
<TRANSP> 5
 0.000000e+00 1.000000e+00 0.000000e+00 0.000000e+00 0.000000e+00
 0.000000e+00 7.379971e-01 2.620029e-01 0.000000e+00 0.000000e+00
 0.000000e+00 0.000000e+00 7.379971e-01 2.620029e-01 0.000000e+00
 0.000000e+00 0.000000e+00 0.000000e+00 8.645976e-01 1.354024e-01
 0.000000e+00 0.000000e+00 0.000000e+00 0.000000e+00 0.000000e+00
<ENDHMM>
~h "ng"
<BEGINHMM>
<NUMSTATES> 5
<STATE> 2
<MEAN> 25
 1.468286e+00 -9.506258e-01 7.527679e-01 -7.322279e-01 -4.629969e-01 5.344527e-01 -2.221332e+00 -2.389869e+00 -6.676157e-01 -4.204642e-01 -1.703512e+00 -1.447242e+00 7.218435e-02 7.411508e-02 4.743591e-02 6.968386e-02 -5.754145e-03 1.456961e-02 4.149404e-02 1.119557e-02 -1.240213e-02 4.448489e-02 1.812203e-02 4.333605e-02 -1.317571e-01
<VARIANCE> 25
 2.557024e+01 3.102893e+01 4.033279e+01 2.943083e+01 4.590877e+01 2.862989e+01 4.670598e+01 4.796455e+01 2.969871e+01 3.381640e+01 2.600189e+01 2.325941e+01 1.152137e+00 1.119964e+00 1.798346e+00 1.437414e+00 2.404814e+00 2.667391e+00 2.695201e+00 3.124437e+00 2.454915e+00 2.721454e+00 1.795800e+00 1.588652e+00 1.922259e+00
<GCONST> 9.670988e+01
<STATE> 3
<MEAN> 25
 1.776467e+00 -6.216247e-01 9.516508e-01 -4.177833e-01 -4.760661e-01 5.928479e-01 -2.007711e+00 -2.304551e+00 -7.280005e-01 -2.265982e-01 -1.603001e+00 -1.235205e+00 4.546666e-02 7.975642e-02 2.066243e-02 9.439079e-02 3.589261e-02 7.744082e-03 9.074678e-02 6.088630e-02 -1.210949e-02 6.181294e-02 4.265818e-02 6.613132e-02 -1.782746e-01
<VARIANCE> 25
 2.645212e+01 2.998703e+01 3.832694e+01 2.984537e+01 4.481967e+01 2.757798e+01 4.670214e+01 4.863724e+01 2.878592e+01 3.251536e+01 2.449598e+01 2.228233e+01 1.201247e+00 1.120624e+00 1.673842e+00 1.448675e+00 2.302912e+00 2.526022e+00 2.653022e+00 2.985281e+00 2.333694e+00 2.534592e+00 1.722772e+00 1.556607e+00 1.906090e+00
<GCONST> 9.607916e+01
<STATE> 4
<MEAN> 25
 1.951947e+00 -2.734979e-01 1.055106e+00 -6.058689e-02 -3.515476e-01 6.087980e-01 -1.564345e+00 -2.005397e+00 -7.917580e-01 2.554293e-02 -1.372252e+00 -8.954245e-01 -5.355689e-03 7.200655e-02 -1.870491e-02 1.094219e-01 8.900012e-02 -1.194048e-03 1.287813e-01 1.334668e-01 2.162578e-03 7.494831e-02 7.289816e-02 9.739689e-02 -2.100614e-01
<VARIANCE> 25
 2.752128e+01 2.899194e+01 3.588449e+01 3.151209e+01 4.400511e+01 2.734944e+01 4.637598e+01 5.050750e+01 2.753598e+01 3.184749e+01 2.316904e+01 2.182218e+01 1.276200e+00 1.139475e+00 1.547701e+00 1.472410e+00 2.196685e+00 2.389023e+00 2.613707e+00 2.913957e+00 2.224262e+00 2.432347e+00 1.657934e+00 1.549859e+00 1.885494e+00
<GCONST> 9.566613e+01
<TRANSP> 5
 0.000000e+00 1.000000e+00 0.000000e+00 0.000000e+00 0.000000e+00
 0.000000e+00 7.663140e-01 2.336860e-01 0.000000e+00 0.000000e+00
 0.000000e+00 0.000000e+00 7.663139e-01 2.336861e-01 0.000000e+00
 0.000000e+00 0.000000e+00 0.000000e+00 8.935943e-01 1.064056e-01
 0.000000e+00 0.000000e+00 0.000000e+00 0.000000e+00 0.000000e+00
<ENDHMM>
~h "ow"
<BEGINHMM>
<NUMSTATES> 5
<STATE> 2
<MEAN> 25
 1.719820e+00 8.475135e-02 -7.294355e-01 -7.652820e-01 1.685358e-01 3.740855e-01 2.594962e-01 -2.415407e-01 -1.261693e-01 3.062478e-01 6.392528e-01 6.445920e-01 4.359740e-04 2.806104e-02 4.306579e-03 3.088930e-02 4.082043e-02 4.377404e-02 1.116695e-02 -9.433279e-03 1.036307e-02 2.401637e-02 6.845763e-03 -5.727222e-03 -6.579465e-02
<VARIANCE> 25
 2.438348e+01 2.190466e+01 1.707484e+01 4.579728e+01 4.211723e+01 3.422678e+01 3.658682e+01 3.670618e+01 2.582318e+01 2.910607e+01 2.500650e+01 1.692952e+01 9.001502e-01 8.628476e-01 8.447347e-01 1.398088e+00 1.530241e+00 1.983697e+00 1.993293e+00 1.998361e+00 1.990249e+00 1.992901e+00 1.682330e+00 1.335548e+00 1.452460e+00
<GCONST> 9.100268e+01
<STATE> 3
<MEAN> 25
 1.687950e+00 2.051414e-01 -7.276776e-01 -6.203886e-01 3.445692e-01 5.446393e-01 3.069800e-01 -2.684393e-01 -8.117565e-02 4.187737e-01 6.757102e-01 6.185229e-01 -1.480886e-02 3.371446e-02 9.933071e-04 4.228007e-02 4.738164e-02 4.349895e-02 1.724374e-02 1.521110e-03 9.879021e-03 2.679076e-02 8.243400e-03 -6.486160e-03 -7.900190e-02
<VARIANCE> 25
 2.534915e+01 2.182551e+01 1.687527e+01 4.533768e+01 4.224964e+01 3.422666e+01 3.606963e+01 3.689852e+01 2.575084e+01 2.891842e+01 2.479658e+01 1.732220e+01 9.072989e-01 8.598114e-01 8.346725e-01 1.383265e+00 1.524071e+00 1.994377e+00 1.985492e+00 1.992460e+00 1.982221e+00 1.981438e+00 1.695549e+00 1.347558e+00 1.459097e+00
<GCONST> 9.100312e+01
<STATE> 4
<MEAN> 25
 1.404536e+00 4.017143e-01 -6.953141e-01 -3.464055e-01 5.358353e-01 6.358355e-01 3.591634e-01 -2.553730e-01 -7.753787e-02 5.100457e-01 7.516868e-01 5.498384e-01 -3.082246e-02 2.540299e-02 -4.785297e-03 3.099113e-02 2.922579e-02 2.382734e-02 1.609415e-02 1.227023e-02 4.792501e-03 1.846178e-02 8.962628e-03 -9.124266e-03 -5.504296e-02
<VARIANCE> 25
 2.746303e+01 2.152446e+01 1.737656e+01 4.445306e+01 4.324067e+01 3.414319e+01 3.468078e+01 3.809933e+01 2.674192e+01 2.976990e+01 2.396006e+01 1.837381e+01 9.353762e-01 8.557090e-01 8.296488e-01 1.380074e+00 1.552294e+00 2.023095e+00 1.934792e+00 2.005503e+00 2.013736e+00 1.997542e+00 1.682840e+00 1.383457e+00 1.480613e+00
<GCONST> 9.127174e+01
<TRANSP> 5
 0.000000e+00 1.000000e+00 0.000000e+00 0.000000e+00 0.000000e+00
 0.000000e+00 7.770622e-01 2.229379e-01 0.000000e+00 0.000000e+00
 0.000000e+00 0.000000e+00 7.770622e-01 2.229377e-01 0.000000e+00
 0.000000e+00 0.000000e+00 0.000000e+00 9.079596e-01 9.204032e-02
 0.000000e+00 0.000000e+00 0.000000e+00 0.000000e+00 0.000000e+00
<ENDHMM>
~h "oy"
<BEGINHMM>
<NUMSTATES> 5
<STATE> 2
<MEAN> 25
 -7.521076e-01 3.217681e-01 8.035007e-02 4.982495e-01 1.156787e+00 5.359889e-01 -6.495412e-02 8.862829e-01 5.756670e-01 3.066706e-01 1.279372e+00 5.917262e-01 4.184530e-02 -5.680545e-02 -1.785276e-02 -6.081670e-02 -7.625350e-02 -1.944042e-02 -5.646121e-02 -3.331401e-02 2.426091e-02 -8.710370e-03 7.140695e-03 -1.886533e-02 8.846862e-02
<VARIANCE> 25
 4.464484e+01 2.829013e+01 2.102452e+01 4.288472e+01 5.970314e+01 4.225058e+01 5.478741e+01 4.427470e+01 3.639647e+01 3.043895e+01 1.605736e+01 1.558855e+01 1.488811e+00 1.152309e+00 1.725369e+00 2.008775e+00 1.822782e+00 2.477143e+00 2.894844e+00 2.074399e+00 2.589173e+00 2.300566e+00 1.986998e+00 1.405584e+00 1.349437e+00
<GCONST> 9.624622e+01
<STATE> 3
<MEAN> 25
 -5.529568e-01 5.257069e-02 4.270087e-03 2.062246e-01 7.629806e-01 4.100106e-01 -3.431287e-01 7.098214e-01 6.739482e-01 2.592604e-01 1.297187e+00 5.122187e-01 4.026106e-02 -5.571020e-02 -3.749334e-03 -5.607822e-02 -9.614337e-02 -3.977249e-02 -5.774749e-02 -3.867964e-02 2.208477e-02 -9.652355e-03 -2.673119e-04 -1.676507e-02 1.054851e-01
<VARIANCE> 25
 4.298937e+01 2.845815e+01 2.179496e+01 4.465560e+01 6.205701e+01 4.364095e+01 5.454375e+01 4.364633e+01 3.567232e+01 3.080074e+01 1.594562e+01 1.604893e+01 1.467855e+00 1.131392e+00 1.760991e+00 2.046494e+00 1.871322e+00 2.553313e+00 2.933424e+00 2.043357e+00 2.675030e+00 2.375360e+00 1.970649e+00 1.452619e+00 1.413035e+00
<GCONST> 9.655352e+01
<STATE> 4
<MEAN> 25
 -2.774638e-01 -3.285547e-01 -4.850540e-02 -1.623438e-01 1.033499e-01 1.337756e-01 -7.331185e-01 4.089461e-01 8.016771e-01 2.010417e-01 1.279051e+00 4.358626e-01 3.570955e-02 -4.426282e-02 1.832536e-02 -3.770678e-02 -1.096829e-01 -6.224802e-02 -5.375165e-02 -4.430182e-02 1.052721e-02 -1.100623e-02 -1.286503e-02 -1.062033e-02 1.120540e-01
<VARIANCE> 25
 4.165591e+01 2.848590e+01 2.264032e+01 4.648504e+01 6.485030e+01 4.551359e+01 5.360391e+01 4.251752e+01 3.459706e+01 3.128032e+01 1.598612e+01 1.677006e+01 1.485586e+00 1.096287e+00 1.749971e+00 2.077296e+00 1.908376e+00 2.641413e+00 2.915419e+00 1.987043e+00 2.774288e+00 2.441927e+00 1.956656e+00 1.526646e+00 1.465472e+00
<GCONST> 9.682663e+01
<TRANSP> 5
 0.000000e+00 1.000000e+00 0.000000e+00 0.000000e+00 0.000000e+00
 0.000000e+00 7.791480e-01 2.208520e-01 0.000000e+00 0.000000e+00
 0.000000e+00 0.000000e+00 7.791481e-01 2.208519e-01 0.000000e+00
 0.000000e+00 0.000000e+00 0.000000e+00 9.066615e-01 9.333853e-02
 0.000000e+00 0.000000e+00 0.000000e+00 0.000000e+00 0.000000e+00
<ENDHMM>
~h "sh"
<BEGINHMM>
<NUMSTATES> 5
<STATE> 2
<MEAN> 25
 -1.463626e+00 -1.580328e+00 2.008514e+00 9.366983e-02 -1.705866e+00 -8.341845e-01 -1.320248e-01 6.761228e-01 -6.808510e-02 -7.239016e-01 -4.906572e-01 8.257611e-01 -4.409531e-02 8.526770e-03 1.888567e-03 6.656213e-03 3.135984e-02 1.983210e-02 4.704984e-02 2.780441e-02 3.896973e-02 4.344222e-03 2.559293e-03 1.643766e-02 -2.394933e-02
<VARIANCE> 25
 6.203514e+01 2.589094e+01 7.486832e+01 3.753318e+01 6.021066e+01 6.884541e+01 4.646685e+01 4.788190e+01 3.644650e+01 3.467954e+01 3.821468e+01 2.513416e+01 1.896366e+00 1.358028e+00 1.906059e+00 2.069248e+00 2.259155e+00 3.255067e+00 2.548399e+00 2.613750e+00 2.528653e+00 2.153579e+00 2.160928e+00 1.876816e+00 2.370373e+00
<GCONST> 1.014837e+02
<STATE> 3
<MEAN> 25
 -1.639790e+00 -1.538609e+00 1.996966e+00 1.160950e-01 -1.583508e+00 -7.402387e-01 6.674927e-02 7.775866e-01 9.163786e-02 -6.900532e-01 -4.700521e-01 8.919126e-01 -4.938350e-02 1.165669e-02 -1.084603e-02 1.439980e-02 3.646484e-02 3.421943e-02 5.143710e-02 2.791514e-02 5.169923e-02 8.450560e-03 1.416798e-03 1.710743e-02 -4.588421e-02
<VARIANCE> 25
 6.256258e+01 2.611403e+01 7.561337e+01 3.760835e+01 5.991751e+01 6.771877e+01 4.609064e+01 4.730923e+01 3.624846e+01 3.467879e+01 3.842790e+01 2.547271e+01 1.910378e+00 1.330992e+00 1.869158e+00 2.022869e+00 2.174443e+00 3.139764e+00 2.514564e+00 2.543402e+00 2.477290e+00 2.130563e+00 2.154310e+00 1.850386e+00 2.291291e+00
<GCONST> 1.012323e+02
<STATE> 4
<MEAN> 25
 -1.699098e+00 -1.377767e+00 1.690102e+00 1.542646e-01 -1.347512e+00 -5.088660e-01 4.154094e-01 8.103691e-01 2.783323e-01 -4.798632e-01 -3.443797e-01 1.007205e+00 -4.330873e-02 2.012004e-02 -2.714280e-02 2.370848e-02 4.048238e-02 4.498033e-02 4.717898e-02 2.250538e-02 5.229421e-02 1.644695e-02 4.199649e-03 1.182318e-02 -6.714963e-02
<VARIANCE> 25
 5.984468e+01 2.665949e+01 7.422668e+01 3.805979e+01 5.969991e+01 6.523837e+01 4.444845e+01 4.735469e+01 3.650761e+01 3.378512e+01 3.692328e+01 2.558084e+01 1.833421e+00 1.285028e+00 1.782133e+00 1.913472e+00 2.047409e+00 2.959090e+00 2.360310e+00 2.425282e+00 2.350338e+00 2.053654e+00 2.096753e+00 1.842338e+00 2.140517e+00
<GCONST> 1.004723e+02
<TRANSP> 5
 0.000000e+00 1.000000e+00 0.000000e+00 0.000000e+00 0.000000e+00
 0.000000e+00 7.615272e-01 2.384728e-01 0.000000e+00 0.000000e+00
 0.000000e+00 0.000000e+00 7.615273e-01 2.384727e-01 0.000000e+00
 0.000000e+00 0.000000e+00 0.000000e+00 8.924508e-01 1.075492e-01
 0.000000e+00 0.000000e+00 0.000000e+00 0.000000e+00 0.000000e+00
<ENDHMM>
~h "th"
<BEGINHMM>
<NUMSTATES> 5
<STATE> 2
<MEAN> 25
 -1.177217e-01 -3.533149e-01 4.196196e-01 7.521835e-01 3.110659e-01 -3.299915e-01 -8.192351e-02 -4.528541e-02 -2.598039e-01 -5.369488e-02 1.761133e-01 -9.500094e-02 1.531416e-02 2.675442e-02 1.432032e-02 2.396815e-02 4.275597e-02 5.026080e-02 4.291752e-02 5.293800e-03 -4.129101e-03 2.222693e-02 1.155630e-02 -6.591203e-03 -5.985669e-02
<VARIANCE> 25
 3.103792e+01 2.255165e+01 3.677359e+01 3.266880e+01 4.684739e+01 3.917829e+01 3.877201e+01 5.467463e+01 3.260225e+01 2.967295e+01 2.849675e+01 2.244153e+01 2.203115e+00 8.790237e-01 1.299904e+00 1.901042e+00 2.128227e+00 2.153107e+00 2.404384e+00 2.904736e+00 2.692166e+00 2.109251e+00 1.743116e+00 1.769903e+00 1.636483e+00
<GCONST> 9.648587e+01
<STATE> 3
<MEAN> 25
 -4.413577e-02 -2.228074e-01 5.005374e-01 8.722715e-01 5.013029e-01 -1.098542e-01 1.112843e-01 -2.596287e-02 -2.672760e-01 4.100461e-02 2.265320e-01 -1.223348e-01 1.400271e-02 2.344562e-02 1.623524e-02 2.363802e-02 4.094324e-02 5.952360e-02 4.486351e-02 -3.758563e-03 -2.589832e-03 2.060167e-02 9.626135e-03 -8.856188e-03 -5.728018e-02
<VARIANCE> 25
 3.103771e+01 2.365330e+01 3.825687e+01 3.288568e+01 4.668443e+01 3.961874e+01 3.794201e+01 5.387437e+01 3.123418e+01 2.893702e+01 2.847354e+01 2.281576e+01 2.192311e+00 8.825157e-01 1.289008e+00 1.852221e+00 2.133539e+00 2.156107e+00 2.378015e+00 2.890972e+00 2.587143e+00 2.113353e+00 1.716204e+00 1.748144e+00 1.583132e+00
<GCONST> 9.635257e+01
<STATE> 4
<MEAN> 25
 2.079094e-02 1.131604e-02 7.997226e-01 1.096628e+00 6.608132e-01 1.646599e-01 3.655203e-01 -1.132886e-01 -3.440516e-01 1.212009e-01 3.288593e-01 -1.036398e-01 6.265787e-03 1.344568e-02 1.061986e-02 1.399960e-02 2.740267e-02 5.340112e-02 4.117106e-02 -7.054569e-03 4.285746e-03 1.961079e-02 6.993671e-03 -6.484573e-03 -4.606551e-02
<VARIANCE> 25
 3.071240e+01 2.422181e+01 3.957326e+01 3.280312e+01 4.690244e+01 4.006636e+01 3.616903e+01 5.147353e+01 2.986183e+01 2.762375e+01 2.784176e+01 2.229784e+01 2.124921e+00 8.497368e-01 1.285805e+00 1.793666e+00 2.146851e+00 2.136926e+00 2.312382e+00 2.777629e+00 2.460918e+00 2.066584e+00 1.701702e+00 1.681203e+00 1.511955e+00
<GCONST> 9.584247e+01
<TRANSP> 5
 0.000000e+00 1.000000e+00 0.000000e+00 0.000000e+00 0.000000e+00
 0.000000e+00 7.758133e-01 2.241867e-01 0.000000e+00 0.000000e+00
 0.000000e+00 0.000000e+00 7.758132e-01 2.241868e-01 0.000000e+00
 0.000000e+00 0.000000e+00 0.000000e+00 9.062901e-01 9.370991e-02
 0.000000e+00 0.000000e+00 0.000000e+00 0.000000e+00 0.000000e+00
<ENDHMM>
~h "uh"
<BEGINHMM>
<NUMSTATES> 5
<STATE> 2
<MEAN> 25
 4.657653e-01 5.669475e-01 9.876304e-01 -2.024166e-01 -2.908329e-01 -6.672208e-01 -2.462879e-01 4.360653e-01 -3.283880e-01 2.056729e-01 8.237871e-01 3.306181e-01 -9.437748e-02 5.827001e-03 7.378870e-02 3.548205e-02 -3.787945e-02 -2.479786e-03 8.279964e-02 9.229369e-02 7.632633e-02 3.696573e-02 9.193935e-03 -1.421883e-02 -1.993842e-02
<VARIANCE> 25
 2.236604e+01 2.494173e+01 2.465746e+01 2.846015e+01 3.734259e+01 4.830613e+01 4.854182e+01 5.883978e+01 3.229350e+01 3.757192e+01 2.772458e+01 1.964373e+01 9.528871e-01 1.002782e+00 9.702076e-01 1.337079e+00 1.735969e+00 2.706080e+00 2.728340e+00 3.578365e+00 1.878697e+00 2.086338e+00 2.100472e+00 1.853737e+00 1.448212e+00
<GCONST> 9.481686e+01
<STATE> 3
<MEAN> 25
 1.649146e-01 6.424676e-01 1.229949e+00 -1.821923e-02 -4.129212e-01 -6.324714e-01 5.364605e-02 7.019776e-01 -5.791528e-02 3.566083e-01 8.714585e-01 2.430261e-01 -7.890414e-02 7.013020e-03 5.733874e-02 4.610801e-02 -3.736079e-02 4.252437e-04 7.109899e-02 6.227618e-02 7.210629e-02 3.730086e-02 5.717800e-03 -2.652930e-02 -1.418335e-02
<VARIANCE> 25
 2.241810e+01 2.423683e+01 2.438291e+01 2.827053e+01 3.837328e+01 4.533678e+01 4.357458e+01 5.374508e+01 3.085135e+01 3.919933e+01 2.811645e+01 1.995729e+01 9.910623e-01 1.007621e+00 9.251634e-01 1.321678e+00 1.765604e+00 2.548482e+00 2.527921e+00 3.515738e+00 1.864084e+00 2.207135e+00 2.070510e+00 1.893781e+00 1.417908e+00
<GCONST> 9.444677e+01
<STATE> 4
<MEAN> 25
 -1.919643e-01 9.388702e-01 1.265495e+00 3.463238e-01 -3.093239e-01 -3.225317e-01 4.085312e-01 8.614071e-01 3.585015e-01 6.216714e-01 9.193358e-01 8.276715e-02 -4.332493e-02 1.205272e-02 1.627948e-02 3.863420e-02 -2.133615e-02 -2.748194e-03 1.353847e-02 9.789648e-03 5.634445e-02 2.522509e-02 3.199236e-03 -1.469382e-02 -1.731512e-02
<VARIANCE> 25
 2.298224e+01 2.394713e+01 2.462935e+01 2.804091e+01 4.062481e+01 3.914622e+01 3.978882e+01 4.745576e+01 2.898352e+01 4.123944e+01 2.774722e+01 1.981037e+01 1.029128e+00 9.928907e-01 8.982802e-01 1.313529e+00 1.809460e+00 2.155822e+00 2.283370e+00 3.141084e+00 1.839513e+00 2.359143e+00 1.975665e+00 1.896966e+00 1.300056e+00
<GCONST> 9.367545e+01
<TRANSP> 5
 0.000000e+00 1.000000e+00 0.000000e+00 0.000000e+00 0.000000e+00
 0.000000e+00 7.438174e-01 2.561826e-01 0.000000e+00 0.000000e+00
 0.000000e+00 0.000000e+00 7.438172e-01 2.561828e-01 0.000000e+00
 0.000000e+00 0.000000e+00 0.000000e+00 8.688474e-01 1.311526e-01
 0.000000e+00 0.000000e+00 0.000000e+00 0.000000e+00 0.000000e+00
<ENDHMM>
~h "uw"
<BEGINHMM>
<NUMSTATES> 5
<STATE> 2
<MEAN> 25
 3.871815e-01 8.654059e-02 1.946675e-01 1.067559e+00 8.646490e-02 4.240127e-01 -6.329142e-01 -2.723689e-01 -1.582224e+00 1.050312e-01 7.571197e-02 -4.993515e-01 -2.461444e-02 -2.773024e-02 8.890508e-04 1.301907e-02 -1.546962e-02 1.390023e-02 4.298161e-02 9.991643e-03 1.845826e-02 -1.101747e-03 -9.589879e-03 1.433683e-03 -1.154499e-03
<VARIANCE> 25
 4.765442e+01 2.999849e+01 4.465454e+01 6.131570e+01 6.393410e+01 5.349543e+01 5.387876e+01 5.779720e+01 4.942744e+01 3.508348e+01 3.451030e+01 2.272176e+01 1.910486e+00 1.519803e+00 1.662320e+00 1.976073e+00 2.555957e+00 2.708109e+00 2.414244e+00 2.984645e+00 2.721763e+00 2.495500e+00 2.323589e+00 1.822186e+00 2.040858e+00
<GCONST> 1.016681e+02
<STATE> 3
<MEAN> 25
 2.531105e-01 -3.316069e-02 1.744933e-01 1.120202e+00 4.422678e-02 4.503269e-01 -4.738452e-01 -2.272646e-01 -1.511843e+00 1.329305e-01 4.523094e-02 -5.023849e-01 -3.578947e-02 -2.828698e-02 -5.736131e-03 9.491255e-03 -7.162479e-03 5.635919e-03 3.988648e-02 1.453079e-02 1.872583e-02 6.983004e-03 -7.544605e-03 -6.654687e-04 -3.407965e-04
<VARIANCE> 25
 4.867883e+01 3.102013e+01 4.552522e+01 6.453260e+01 6.414534e+01 5.375563e+01 5.386733e+01 5.797923e+01 4.803357e+01 3.450839e+01 3.522573e+01 2.236036e+01 1.950200e+00 1.542079e+00 1.679580e+00 2.001662e+00 2.553575e+00 2.731099e+00 2.434858e+00 3.011710e+00 2.717882e+00 2.466837e+00 2.350753e+00 1.820539e+00 2.072870e+00
<GCONST> 1.018604e+02
<STATE> 4
<MEAN> 25
 -1.249982e-02 -1.088909e-01 1.013216e-01 1.160105e+00 1.269051e-01 4.343402e-01 -3.315133e-01 -1.385540e-01 -1.312876e+00 1.349715e-01 4.542255e-02 -4.899827e-01 -2.767775e-02 -2.482027e-02 -1.377882e-02 -8.371974e-03 3.344013e-03 -2.836989e-03 2.360713e-02 2.032954e-02 1.776777e-02 1.227610e-02 -3.111275e-03 -5.823921e-04 4.025408e-03
<VARIANCE> 25
 4.927198e+01 3.096793e+01 4.386554e+01 6.372984e+01 6.209568e+01 5.320896e+01 5.349987e+01 5.806497e+01 4.631600e+01 3.376088e+01 3.483638e+01 2.171353e+01 1.915063e+00 1.445219e+00 1.638049e+00 1.980767e+00 2.426777e+00 2.708814e+00 2.389016e+00 2.960671e+00 2.658157e+00 2.405941e+00 2.319353e+00 1.769908e+00 1.992110e+00
<GCONST> 1.013319e+02
<TRANSP> 5
 0.000000e+00 1.000000e+00 0.000000e+00 0.000000e+00 0.000000e+00
 0.000000e+00 7.674244e-01 2.325756e-01 0.000000e+00 0.000000e+00
 0.000000e+00 0.000000e+00 7.674245e-01 2.325755e-01 0.000000e+00
 0.000000e+00 0.000000e+00 0.000000e+00 8.975592e-01 1.024408e-01
 0.000000e+00 0.000000e+00 0.000000e+00 0.000000e+00 0.000000e+00
<ENDHMM>
~h "zh"
<BEGINHMM>
<NUMSTATES> 5
<STATE> 2
<MEAN> 25
 -7.912989e-01 -8.030241e-02 3.053910e-02 -8.703389e-01 -5.447255e-01 -1.644750e-01 -3.413769e-01 -1.060672e+00 -1.726652e-01 -1.359534e-01 3.806362e-01 1.811387e-01 9.114118e-03 -2.822725e-02 -2.929997e-02 -2.251935e-02 -1.034456e-02 3.346526e-03 -1.496125e-02 -3.844678e-03 1.492543e-02 1.136322e-02 -1.890793e-02 -7.556513e-03 1.589033e-02
<VARIANCE> 25
 3.601431e+01 2.205720e+01 2.946029e+01 2.925091e+01 5.788511e+01 4.646162e+01 3.755596e+01 4.825935e+01 3.359131e+01 3.663119e+01 2.668982e+01 2.108999e+01 1.133141e+00 1.070578e+00 1.026366e+00 1.367859e+00 1.942414e+00 2.060614e+00 2.002816e+00 2.303011e+00 2.257650e+00 1.952734e+00 2.153810e+00 1.904090e+00 1.159579e+00
<GCONST> 9.472221e+01
<STATE> 3
<MEAN> 25
 -7.435338e-01 -1.827573e-01 -8.923951e-02 -9.616765e-01 -5.705156e-01 -1.239588e-01 -4.012143e-01 -1.067646e+00 -1.302811e-01 -8.760764e-02 3.296829e-01 1.434517e-01 1.975273e-02 -2.500179e-02 -3.456609e-02 -1.279071e-02 2.532481e-03 9.777961e-03 -1.123121e-02 1.141612e-02 1.663498e-02 2.096102e-02 -9.432982e-03 -7.516595e-03 -9.156521e-03
<VARIANCE> 25
 3.661468e+01 2.246421e+01 3.021152e+01 2.899062e+01 5.689518e+01 4.625922e+01 3.756398e+01 4.751845e+01 3.372809e+01 3.763529e+01 2.733384e+01 2.103593e+01 1.118731e+00 1.072891e+00 1.010919e+00 1.364961e+00 1.915565e+00 2.028030e+00 1.964191e+00 2.273504e+00 2.204304e+00 1.995866e+00 2.158159e+00 1.892959e+00 1.166123e+00
<GCONST> 9.469835e+01
<STATE> 4
<MEAN> 25
 -5.897809e-01 -2.042570e-01 -2.766533e-01 -9.201287e-01 -2.822195e-01 1.125924e-01 -3.087456e-01 -9.201919e-01 -9.092652e-02 8.009041e-02 3.881288e-01 4.464716e-02 1.577940e-02 -1.227242e-02 -2.328279e-02 -3.265472e-03 1.113098e-02 1.590522e-02 -2.802134e-03 2.269636e-02 9.107234e-03 1.412700e-02 -2.777646e-03 -6.946962e-03 -2.235764e-02
<VARIANCE> 25
 3.699784e+01 2.266445e+01 3.138489e+01 3.010848e+01 5.810082e+01 4.711727e+01 3.858912e+01 4.920338e+01 3.367622e+01 3.813758e+01 2.817747e+01 2.032194e+01 1.100827e+00 1.053697e+00 9.971898e-01 1.377272e+00 1.896908e+00 2.003338e+00 1.903652e+00 2.301298e+00 2.113381e+00 2.082464e+00 2.184783e+00 1.833578e+00 1.190344e+00
<GCONST> 9.482351e+01
<TRANSP> 5
 0.000000e+00 1.000000e+00 0.000000e+00 0.000000e+00 0.000000e+00
 0.000000e+00 7.754952e-01 2.245048e-01 0.000000e+00 0.000000e+00
 0.000000e+00 0.000000e+00 7.754951e-01 2.245049e-01 0.000000e+00
 0.000000e+00 0.000000e+00 0.000000e+00 9.061528e-01 9.384721e-02
 0.000000e+00 0.000000e+00 0.000000e+00 0.000000e+00 0.000000e+00
<ENDHMM>
~h "sil"
<BEGINHMM>
<NUMSTATES> 5
<STATE> 2
<MEAN> 25
 -1.074082e-01 1.134274e+00 3.354372e-01 1.611253e+00 2.662670e+00 9.167988e-01 1.830146e+00 2.098456e+00 1.393852e+00 1.061393e+00 6.685814e-01 6.883001e-01 5.524178e-02 8.964595e-02 2.327323e-02 -1.565891e-02 -1.555546e-01 -9.076776e-02 -7.134014e-02 -5.616486e-02 -2.408908e-01 -1.019998e-01 2.000073e-02 -1.358585e-01 2.452685e-01
<VARIANCE> 25
 4.926286e+01 2.741324e+01 3.574665e+01 4.693887e+01 5.306923e+01 4.607861e+01 3.719876e+01 3.452971e+01 2.897945e+01 3.005585e+01 2.736639e+01 2.530045e+01 1.907426e+00 1.435562e+00 1.706015e+00 2.126451e+00 2.453568e+00 2.678826e+00 2.554754e+00 2.414976e+00 2.396756e+00 2.164287e+00 2.253370e+00 2.000571e+00 2.519044e+00
<GCONST> 9.892469e+01
<STATE> 3
<MEAN> 25
